-1.057971827685832977e-02 1.028372626751661301e-02 -3.284611157141625881e-04 3.927661571651697159e-03 -7.365363184362649918e-03 -6.709050387144088745e-03 -1.931601203978061676e-02 -6.901882588863372803e-03 2.326997369527816772e-02 4.270002245903015137e-03 -2.140396647155284882e-02 -5.788412410765886307e-03 1.378166396170854568e-02 1.034802664071321487e-02 2.994383219629526138e-03 -3.296200186014175415e-03 -2.875025616958737373e-03 -7.647073362022638321e-03 -1.519500860013067722e-03 -1.182348560541868210e-02 -1.181314326822757721e-02 3.095298539847135544e-03 -5.618799477815628052e-03 6.975586060434579849e-03 3.363829106092453003e-03 2.126083336770534515e-02 -3.718613646924495697e-03 4.747455008327960968e-03 -1.745780929923057556e-02 -7.157812360674142838e-03 -3.672319697216153145e-03 -9.292671893490478396e-05 1.207774598151445389e-02 -3.142635978292673826e-05 -1.301120594143867493e-02 -2.233389299362897873e-03 -3.301274031400680542e-03 -4.382029641419649124e-03 8.284164359793066978e-04 -1.398662477731704712e-02 9.086923673748970032e-03 -7.045474369078874588e-03 -7.813168689608573914e-03 5.473697092384099960e-03 -3.918465692549943924e-03 -7.788960356265306473e-03 9.362216806039214134e-04 8.817779016681015491e-04 -2.446497790515422821e-03 -8.150662295520305634e-03 -3.174455836415290833e-03 1.190141891129314899e-03 7.467212155461311340e-03 1.250231079757213593e-02 1.083756517618894577e-02 -2.019971609115600586e-03 1.124813035130500793e-02 2.247497625648975372e-02 -1.145100686699151993e-02 1.824792101979255676e-02 -4.042075481265783310e-03 -1.365618873387575150e-02 -1.701184175908565521e-02 1.045748591423034668e-02 -2.083809860050678253e-02 1.592517131939530373e-03 -9.142606519162654877e-03 3.936145454645156860e-03 1.178229600191116333e-02 -6.818388937972486019e-04 3.568665822967886925e-03 2.306137979030609131e-02 1.942911534570157528e-03 -1.378519553691148758e-02 -7.735170423984527588e-03 7.684270851314067841e-03 -7.528019137680530548e-03 1.693458296358585358e-02 -1.242556609213352203e-02 -3.736790036782622337e-03 -2.067093038931488991e-03 1.304072648053988814e-04 7.328197825700044632e-03 -1.338218222372233868e-03 -1.125698629766702652e-02 6.289643235504627228e-03 9.430705569684505463e-03 -4.643062129616737366e-03 1.297700870782136917e-02 6.319155218079686165e-04 -4.868759773671627045e-03 7.043853867799043655e-03 1.708600297570228577e-02 2.336175367236137390e-02 -4.729319363832473755e-03 -1.213076431304216385e-02 -2.213661558926105499e-02 -8.843732997775077820e-03 -7.505096495151519775e-03 8.717257529497146606e-03 1.167004695162177086e-03 1.295271795243024826e-03 1.155017991550266743e-03 -5.358135327696800232e-03 1.284177880734205246e-02 3.966772463172674179e-03 -4.466120153665542603e-03 -2.363973762840032578e-03 -6.795117315050447360e-06 -7.144784554839134216e-03 1.580334641039371490e-02 4.077593795955181122e-03 7.211075164377689362e-03 3.379093483090400696e-03 9.872546419501304626e-03 3.241229103878140450e-03 1.547223771922290325e-03 -9.540118277072906494e-03 1.132205501198768616e-02 9.059743955731391907e-03 -1.423105597496032715e-03 -6.386721972376108170e-03 -1.825702935457229614e-02 7.714002858847379684e-03 -4.412382259033620358e-04 -3.185555571690201759e-03 4.395209718495607376e-03 8.268196135759353638e-03 1.536287367343902588e-02 3.707910655066370964e-04 -4.113285103812813759e-04 7.258325349539518356e-03 -2.122805826365947723e-02 9.077598340809345245e-03 1.080925017595291138e-02 -2.700245706364512444e-03 -1.099830865859985352e-02 2.823307178914546967e-03 -7.690946804359555244e-04 2.536878734827041626e-02 1.425146870315074921e-02 1.259374059736728668e-02 7.387736812233924866e-03 -2.999224327504634857e-02 -7.936227135360240936e-03 1.080691255629062653e-02 1.441758405417203903e-02 2.842446323484182358e-03 -5.782191641628742218e-03 -2.137634530663490295e-02 -6.160763092339038849e-03 1.496238447725772858e-02 -4.269578494131565094e-03 -3.868757747113704681e-03 1.336864195764064789e-02 7.429766003042459488e-03 1.620456576347351074e-02 2.231424208730459213e-03 -1.588068669661879539e-03 -6.464039906859397888e-03 6.460040342062711716e-03 1.262756995856761932e-02 -2.386491931974887848e-02 -1.020910404622554779e-02 2.457010792568325996e-03 -1.098880637437105179e-02 -2.276593446731567383e-02 8.478840463794767857e-04 -2.447402803227305412e-03 4.132288973778486252e-03 -4.622281994670629501e-03 -9.153401479125022888e-03 -4.177749622613191605e-03 1.907058613141998649e-04 -4.417963325977325439e-03 -9.017771109938621521e-03 7.419927977025508881e-03 3.696405474329367280e-05 -1.028848625719547272e-02 -1.856073178350925446e-02 6.405527237802743912e-04 7.905268110334873199e-03 -2.062243642285466194e-03 -5.607408471405506134e-03 -9.643232449889183044e-03 -1.543058315292000771e-03 -6.587843876332044601e-03 -1.776904426515102386e-02 1.804934069514274597e-02 2.881168154999613762e-03 3.314973087981343269e-03 1.260881428606808186e-03 1.065391767770051956e-02 1.634925603866577148e-02 -1.987496856600046158e-03 2.195513434708118439e-02 -7.655900437384843826e-03 -6.412962451577186584e-03 -1.656342856585979462e-02 -1.840163604356348515e-03 9.914473630487918854e-03 -1.627187593840062618e-03 -2.234062738716602325e-02 8.323486894369125366e-03 4.196650348603725433e-03 -6.729298038408160210e-04 3.060121089220046997e-03 8.423709310591220856e-03 -7.156105712056159973e-03 2.038901112973690033e-02 -1.127780415117740631e-03 -6.377411191351711750e-04 2.176031284034252167e-02 -7.213025353848934174e-03 4.184811841696500778e-03 6.783101707696914673e-03 3.460864536464214325e-03 -6.655938457697629929e-03 -8.108016103506088257e-03 -3.584538353607058525e-03 -3.100581001490354538e-03 8.380355313420295715e-03 -3.752462565898895264e-03 -1.730877207592129707e-03 1.125738210976123810e-02 2.108731307089328766e-02 1.308550313115119934e-02 -1.337271090596914291e-02 -5.278310272842645645e-03 4.204289987683296204e-03 4.826642980333417654e-04 2.302028704434633255e-03 9.472160600125789642e-03 -1.272739842534065247e-02 1.423242036253213882e-03 -6.595276063308119774e-04 9.798740036785602570e-03 -8.747090585529804230e-03 1.900294609367847443e-02 5.618170369416475296e-03 -1.885329256765544415e-03 -9.122173301875591278e-03 -1.683885045349597931e-02 -4.840454552322626114e-03 -6.431317888200283051e-03 -5.246532149612903595e-03 -9.962045587599277496e-03 -4.795789718627929688e-03 2.261326415464282036e-03 -2.123194746673107147e-03 -8.628265932202339172e-03 2.204997837543487549e-02 4.203434102237224579e-03 7.296001538634300232e-03 -3.070545499213039875e-04 3.484473563730716705e-03
-1.764897070825099945e-02 2.051677182316780090e-02 -7.550995796918869019e-03 -7.401317823678255081e-03 8.848316967487335205e-03 2.116968622431159019e-03 1.451486721634864807e-02 -1.688241958618164062e-02 2.301976270973682404e-02 3.547778818756341934e-03 -2.120766229927539825e-02 -1.567708142101764679e-02 3.856837050989270210e-03 -3.039207775145769119e-03 -2.027112245559692383e-02 4.772394895553588867e-03 -1.450784876942634583e-02 -3.415161976590752602e-03 -2.048302907496690750e-03 -1.505775284022092819e-02 1.077034510672092438e-02 1.253735367208719254e-02 -5.666623357683420181e-03 8.105047978460788727e-03 7.621522527188062668e-04 2.583534456789493561e-02 -3.350724000483751297e-03 -7.470314856618642807e-03 7.368680555373430252e-03 9.472548845224082470e-05 -9.424469433724880219e-03 1.668803766369819641e-02 -2.939648227766156197e-03 7.816798053681850433e-03 7.111072191037237644e-04 -1.902904710732400417e-03 -1.881683943793177605e-03 -1.607096008956432343e-02 1.294722687453031540e-02 1.815309398807585239e-03 4.243107046931982040e-03 3.371501341462135315e-03 7.692393381148576736e-03 -2.005587518215179443e-02 1.579934172332286835e-02 -1.479639299213886261e-02 1.136891823261976242e-02 6.587881594896316528e-03 -8.384371176362037659e-03 -2.223017625510692596e-02 -4.348776303231716156e-03 6.500979885458946228e-03 -1.776757766492664814e-03 1.041756011545658112e-02 -4.998176358640193939e-03 3.700263798236846924e-03 -5.793026182800531387e-03 5.507036577910184860e-03 1.063725259155035019e-02 6.465367972850799561e-03 5.805412307381629944e-03 -3.383891424164175987e-03 -1.327672973275184631e-02 3.418730804696679115e-03 -1.222365256398916245e-02 1.160398125648498535e-03 3.388336161151528358e-03 4.411814268678426743e-03 2.002664282917976379e-02 -6.121364422142505646e-03 1.991199143230915070e-02 -1.067025400698184967e-02 4.543628077954053879e-03 1.261559408158063889e-02 -6.365356501191854477e-03 -1.688903314061462879e-03 -4.991202615201473236e-03 2.730701304972171783e-02 2.274917642353102565e-04 6.227882113307714462e-03 -4.186280071735382080e-03 2.765080193057656288e-03 1.264354214072227478e-02 4.889910109341144562e-03 -2.945417305454611778e-03 -4.226624500006437302e-03 3.440490225329995155e-03 1.059729419648647308e-02 -1.268807705491781235e-02 1.172011718153953552e-02 -2.397111384198069572e-03 5.697432206943631172e-04 -4.358372651040554047e-03 1.341973152011632919e-02 -3.531502559781074524e-03 -1.569248549640178680e-02 8.188719861209392548e-03 1.996187679469585419e-02 -3.062516264617443085e-02 4.317080136388540268e-03 -1.535200886428356171e-02 1.372385863214731216e-02 -1.830043643712997437e-02 -8.913215249776840210e-03 6.302826805040240288e-04 5.230905022472143173e-03 -2.850614301860332489e-02 3.256334457546472549e-03 1.704227924346923828e-02 1.631697639822959900e-02 8.981829509139060974e-03 -2.689363667741417885e-03 3.006671369075775146e-02 -9.205074748024344444e-04 8.483935147523880005e-03 1.632760092616081238e-02 4.651111550629138947e-03 -2.120799757540225983e-02 1.813478767871856689e-02 2.577170915901660919e-02 -5.673338659107685089e-03 2.218155749142169952e-02 2.139241993427276611e-02 -3.792999079450964928e-03 -5.578440148383378983e-03 -4.309815354645252228e-03 1.201133430004119873e-02 -1.994093880057334900e-02 1.249878201633691788e-02 5.058317445218563080e-03 -5.894312169402837753e-03 3.047239966690540314e-03 -2.695299685001373291e-03 5.199458915740251541e-03 9.605448693037033081e-03 1.067957840859889984e-02 -1.507487380877137184e-03 2.904942957684397697e-03 1.969935745000839233e-02 1.871133409440517426e-02 2.239912562072277069e-02 -3.868803614750504494e-04 -3.779849037528038025e-03 -2.793477848172187805e-02 -3.002789104357361794e-03 -1.319668628275394440e-02 4.162753000855445862e-03 -1.438843086361885071e-02 -4.913523327559232712e-03 -2.118028234690427780e-03 7.139519322663545609e-03 -3.986489959061145782e-03 7.832618430256843567e-03 -7.042995654046535492e-03 2.365399524569511414e-02 -1.317150192335247993e-03 2.011931687593460083e-02 -3.450136398896574974e-03 -1.723473891615867615e-03 1.701173139736056328e-03 5.006166175007820129e-03 -1.225310564041137695e-02 -7.930742576718330383e-03 -1.188653055578470230e-02 2.715258486568927765e-02 -1.731330901384353638e-02 -1.219237223267555237e-03 7.994544692337512970e-03 6.928811315447092056e-03 -9.379842318594455719e-03 1.809275336563587189e-02 -1.942073181271553040e-02 3.836057148873806000e-03 2.248955657705664635e-03 6.910407915711402893e-03 -8.000414818525314331e-03 -1.513521000742912292e-02 -2.889794763177633286e-03 1.413791254162788391e-02 -2.645506896078586578e-02 1.863891072571277618e-02 7.371666142717003822e-04 -7.012369111180305481e-03 -8.056093007326126099e-03 -1.672798534855246544e-03 4.741318989545106888e-03 -2.316679991781711578e-02 -1.530453655868768692e-02 7.102682720869779587e-03 2.200372889637947083e-02 2.392060821875929832e-03 -9.016820229589939117e-03 3.822546452283859253e-03 -1.957295089960098267e-02 -7.208666764199733734e-03 -1.189295109361410141e-02 -1.447158865630626678e-04 9.191940538585186005e-03 -1.139258127659559250e-02 1.958388648927211761e-02 -5.036562681198120117e-03 7.953521795570850372e-03 -1.079157087951898575e-02 1.152811199426651001e-02 4.618225153535604477e-03 -1.576263341121375561e-03 -1.530560478568077087e-02 3.623259020969271660e-03 -3.594189183786511421e-04 1.030157692730426788e-02 1.729553937911987305e-02 2.321946062147617340e-02 1.281235925853252411e-02 -4.565821960568428040e-03 1.009087637066841125e-02 5.139330867677927017e-03 -1.544084749184548855e-03 -1.143015641719102859e-02 -2.749061211943626404e-02 -2.096404088661074638e-03 -8.377861231565475464e-03 6.042328663170337677e-03 -1.482406910508871078e-02 -4.373826086521148682e-03 8.727991022169589996e-03 1.492274366319179535e-02 1.002968847751617432e-02 -1.565659791231155396e-02 -3.864953294396400452e-03 1.817039586603641510e-02 6.564978044480085373e-03 6.316324695944786072e-03 4.460801836103200912e-03 -1.394237019121646881e-02 -7.848453707993030548e-03 7.554656825959682465e-03 7.736295461654663086e-03 -1.029612217098474503e-02 6.056308280676603317e-03 9.243952110409736633e-03 -1.280708052217960358e-02 -2.626479836180806160e-03 1.471529807895421982e-02 1.160302013158798218e-02 2.295310050249099731e-02 -1.791961025446653366e-03 6.467925268225371838e-04 -1.111249811947345734e-02 -3.998796455562114716e-03 1.436523348093032837e-02 -9.096584282815456390e-03 -1.689472794532775879e-02 9.367903694510459900e-03 2.965790685266256332e-03 -1.101964525878429413e-02 1.453823177143931389e-03
-1.733308099210262299e-02 1.951625011861324310e-02 -2.636286662891507149e-03 -5.900507327169179916e-03 -1.781502738595008850e-02 2.431727480143308640e-03 -1.821190118789672852e-03 -1.315053179860115051e-02 1.662037335336208344e-02 -1.792540773749351501e-02 1.004143245518207550e-02 -1.920844428241252899e-02 2.498710714280605316e-02 -1.100130379199981689e-02 1.238237041980028152e-02 1.859444193542003632e-02 -1.142799295485019684e-02 -1.807177090086042881e-03 -1.157139521092176437e-02 1.711825607344508171e-03 2.133639901876449585e-02 2.205014601349830627e-02 6.207450758665800095e-03 2.976153045892715454e-02 -2.660102036315947771e-04 7.827251218259334564e-03 1.824554870836436749e-03 4.361470695585012436e-03 2.243567258119583130e-02 -1.065756566822528839e-02 1.548503898084163666e-02 1.470118388533592224e-02 -9.979520924389362335e-03 -1.229766570031642914e-02 8.316591847687959671e-04 -6.841889116913080215e-03 -1.503037568181753159e-02 7.097711786627769470e-03 1.745866984128952026e-02 -8.063692599534988403e-03 3.865398233756422997e-03 3.530649701133370399e-03 3.063239157199859619e-03 6.461822893470525742e-03 -6.989304907619953156e-03 1.020399853587150574e-02 1.532396115362644196e-02 -1.536203548312187195e-03 -1.441104989498853683e-02 1.922105904668569565e-03 -1.234238687902688980e-02 4.122558515518903732e-03 3.306739265099167824e-03 2.566192299127578735e-03 -5.108166951686143875e-03 -1.739248819649219513e-02 -9.484147652983665466e-03 -9.587298147380352020e-03 -2.620179904624819756e-03 -2.997470088303089142e-02 1.718081912258639932e-04 3.377244807779788971e-03 5.764661822468042374e-03 -1.028616353869438171e-02 -9.501239284873008728e-03 -1.189890317618846893e-02 1.269583310931921005e-02 4.509627819061279297e-03 1.042075920850038528e-02 -3.922799136489629745e-03 1.256760396063327789e-02 -1.743967458605766296e-02 1.527934707701206207e-02 4.339797422289848328e-03 -4.647070541977882385e-03 -4.899949301034212112e-03 -2.370846830308437347e-02 1.913271099328994751e-02 1.454080920666456223e-02 1.420768629759550095e-02 1.936345174908638000e-02 3.829450346529483795e-03 -1.377836987376213074e-02 2.013076795265078545e-03 -5.859260447323322296e-03 -1.127180922776460648e-02 1.359911402687430382e-03 -1.965149072930216789e-03 -2.650664187967777252e-02 7.034883368760347366e-03 2.742088865488767624e-03 9.021283127367496490e-03 3.008484840393066406e-03 1.472226344048976898e-02 9.886967018246650696e-03 1.154489256441593170e-02 1.792373135685920715e-02 1.566395349800586700e-02 -1.894373260438442230e-02 -2.259944751858711243e-02 2.005803398787975311e-02 -7.425418589264154434e-03 -1.989563740789890289e-02 2.279773820191621780e-03 -1.122184284031391144e-02 9.530054405331611633e-03 5.264473147690296173e-03 3.133082017302513123e-02 -7.149615325033664703e-03 -9.353560395538806915e-03 8.591039106249809265e-03 8.339580148458480835e-03 -1.110001374036073685e-02 -1.037411624565720558e-03 -8.655522949993610382e-03 3.788396017625927925e-03 -1.239637937396764755e-02 1.883279299363493919e-03 -4.985349252820014954e-03 -5.190854892134666443e-03 -8.500835858285427094e-03 -8.096640929579734802e-03 9.409048594534397125e-03 1.337522827088832855e-02 -1.662996411323547363e-02 1.562361046671867371e-02 1.652797870337963104e-02 -3.185483859851956367e-03 3.085986711084842682e-03 1.224688161164522171e-02 -2.198475785553455353e-02 -1.809960417449474335e-02 1.574738137423992157e-02 -5.860764067620038986e-03 2.326969802379608154e-02 1.581030897796154022e-02 1.573280803859233856e-02 -8.207727223634719849e-03 2.491839928552508354e-03 -1.346397213637828827e-02 1.390753686428070068e-02 7.000798359513282776e-03 -8.591921068727970123e-03 -1.966289011761546135e-03 -5.445099435746669769e-03 -3.386842785403132439e-03 -2.052535455732140690e-05 -8.561232243664562702e-04 -7.491153199225664139e-03 1.440419256687164307e-02 -1.695162616670131683e-02 -7.873896509408950806e-03 8.188821375370025635e-03 -2.683799946680665016e-03 -2.397158968960866332e-04 2.516796113923192024e-03 -2.101479470729827881e-02 -7.131108548492193222e-03 2.503923885524272919e-02 2.158570569008588791e-03 5.201348569244146347e-03 2.626177109777927399e-02 -3.555794246494770050e-03 -1.211731415241956711e-02 -1.043462753295898438e-02 1.979342894628643990e-03 -1.290347520262002945e-02 8.049496449530124664e-03 2.003806643187999725e-02 -2.649358659982681274e-02 -8.948687463998794556e-03 -1.090451888740062714e-02 -3.275825409218668938e-03 9.199383202940225601e-04 -8.163445629179477692e-03 2.376762591302394867e-02 7.359406445175409317e-03 5.330721382051706314e-03 2.418044023215770721e-03 2.735265064984560013e-03 1.453689020127058029e-02 -8.423267863690853119e-03 -8.377686142921447754e-03 -2.107208594679832458e-02 6.971550639718770981e-03 7.003787904977798462e-03 -2.748935483396053314e-02 -3.895572852343320847e-03 5.265176761895418167e-03 3.138721920549869537e-03 -2.498402260243892670e-02 3.291561733931303024e-04 -1.760757155716419220e-02 1.839987747371196747e-02 -1.392474398016929626e-03 -1.008474361151456833e-02 -2.316695265471935272e-02 -2.553783357143402100e-02 3.517052624374628067e-03 2.637046203017234802e-02 -1.385093200951814651e-02 1.064822822809219360e-02 7.165456190705299377e-03 -1.818108186125755310e-02 -1.272522751241922379e-02 -6.464320234954357147e-03 1.212061848491430283e-02 -1.810917630791664124e-02 -1.922277617268264294e-03 9.989000856876373291e-03 -1.955488882958889008e-02 -3.371412400156259537e-03 1.180739793926477432e-02 -1.794439926743507385e-02 2.146062627434730530e-02 -4.107551183551549911e-03 -2.046438120305538177e-02 1.340629998594522476e-03 1.247957348823547363e-02 1.349203009158372879e-02 9.676738991402089596e-04 5.539083853363990784e-03 -8.484434336423873901e-03 -3.563543781638145447e-03 1.827407814562320709e-02 1.114407833665609360e-02 -2.459901385009288788e-03 -1.881795469671487808e-03 1.663614623248577118e-02 4.062945954501628876e-03 2.583950990810990334e-03 1.460155821405351162e-03 -1.559424912557005882e-03 -1.806428097188472748e-02 2.068665251135826111e-02 -1.539131440222263336e-02 -1.122985966503620148e-02 -2.025965228676795959e-02 -4.353513941168785095e-03 1.871585845947265625e-02 -1.493693445809185505e-03 -1.015878375619649887e-02 -2.034725062549114227e-02 -1.000456279143691063e-03 1.077892724424600601e-02 -1.065333839505910873e-02 6.322811823338270187e-03 9.822846390306949615e-03 2.095749229192733765e-02 1.075132377445697784e-02 -1.341758947819471359e-02 1.374923065304756165e-02 7.945008575916290283e-03 -4.667063243687152863e-03 5.184659734368324280e-03 6.153600290417671204e-03
2.760087139904499054e-03 -1.042406307533383369e-03 1.227735076099634171e-02 1.231211796402931213e-02 -1.075304858386516571e-02 1.789889112114906311e-02 8.022147230803966522e-03 -1.270839106291532516e-02 1.251462008804082870e-02 -1.225428376346826553e-02 8.019448723644018173e-04 3.332150517962872982e-04 1.042486540973186493e-02 -2.758788317441940308e-02 -1.679372414946556091e-02 5.627310834825038910e-03 4.500148643273860216e-04 4.150188993662595749e-03 -2.058506477624177933e-03 -1.303747203201055527e-02 6.785397883504629135e-03 4.119648132473230362e-03 -8.912736549973487854e-03 8.981559425592422485e-03 2.619440108537673950e-02 2.075314056128263474e-03 3.662699367851018906e-03 -9.244092740118503571e-03 2.484217844903469086e-02 -2.325721271336078644e-02 -1.559585070936009288e-04 -2.032333941315300763e-05 -1.303216721862554550e-02 8.907325565814971924e-03 -5.968198180198669434e-03 -1.935812830924987793e-02 -1.128651387989521027e-02 -1.916120760142803192e-03 1.572513021528720856e-02 -8.033480495214462280e-03 -3.215561388060450554e-03 7.668958511203527451e-03 1.495135482400655746e-02 3.086586249992251396e-03 7.395695894956588745e-03 2.388306427747011185e-03 1.108008716255426407e-02 -1.294204127043485641e-02 3.040788462385535240e-03 4.845282528549432755e-03 -1.846145279705524445e-02 -7.082133088260889053e-03 1.082245819270610809e-02 -1.246101222932338715e-02 -9.688650257885456085e-03 -8.741325000301003456e-04 9.307217784225940704e-03 -8.509146049618721008e-03 -1.916841976344585419e-02 -3.610578551888465881e-02 8.583415299654006958e-03 2.600824460387229919e-02 -3.508990164846181870e-03 4.756229463964700699e-03 4.085359163582324982e-03 1.633127592504024506e-02 -5.601774435490369797e-03 -1.226802915334701538e-02 3.876250702887773514e-03 1.530717965215444565e-02 -2.601918065920472145e-03 -2.141206525266170502e-02 2.047478407621383667e-02 1.586740650236606598e-02 5.320157855749130249e-03 -2.151236683130264282e-02 -1.002295408397912979e-02 1.841643452644348145e-02 -1.179575081914663315e-02 -4.753828514367341995e-03 -4.380244645290076733e-04 3.348865080624818802e-03 -1.539710722863674164e-02 8.662559092044830322e-03 7.142212125472724438e-04 4.272908437997102737e-03 -8.356730453670024872e-03 -1.543181855231523514e-02 -2.553378418087959290e-02 1.646552409511059523e-04 1.972334645688533783e-02 -1.033752341754734516e-03 2.705854596570134163e-03 5.471799988299608231e-03 9.420577436685562134e-03 -7.222197949886322021e-03 1.247611083090305328e-02 8.284504874609410763e-04 6.040515843778848648e-03 -2.552916668355464935e-02 1.234274916350841522e-02 -1.875505899079144001e-03 -9.858399629592895508e-03 -2.258636290207505226e-03 -1.559957955032587051e-02 3.337205154821276665e-03 -4.402954131364822388e-03 1.360557042062282562e-02 9.259594604372978210e-03 -1.755323819816112518e-02 1.717316685244441032e-03 1.577039714902639389e-03 -1.066915132105350494e-02 1.445312239229679108e-02 -1.501071848906576633e-03 -1.541635021567344666e-02 1.181201916188001633e-02 -5.221205763518810272e-03 -2.904681023210287094e-03 -1.094831433147192001e-02 5.165178328752517700e-03 -4.289060365408658981e-03 1.711008325219154358e-02 1.341674383729696274e-02 -1.872902968898415565e-03 6.209113635122776031e-03 2.642058068886399269e-03 -8.261445909738540649e-03 1.453630719333887100e-02 5.134457605890929699e-04 7.079562637954950333e-03 -9.087619371712207794e-03 4.627900198101997375e-03 -8.766510523855686188e-03 7.944909855723381042e-03 -1.293865265324711800e-03 -1.337389182299375534e-02 -1.233983202837407589e-03 7.331636268645524979e-03 -2.069515641778707504e-03 -1.542267203330993652e-02 -1.694778352975845337e-02 -6.468170322477817535e-03 -1.768719963729381561e-02 1.359732635319232941e-02 -7.415556814521551132e-03 -6.269057281315326691e-03 1.869638077914714813e-02 -2.389839291572570801e-02 7.139097899198532104e-03 -2.475754544138908386e-02 -1.126059330999851227e-02 -3.932674881070852280e-03 8.209684863686561584e-03 5.534253548830747604e-03 3.406048752367496490e-03 -1.635265350341796875e-02 -2.220651833340525627e-03 -6.538181565701961517e-03 -1.620485819876194000e-02 -5.785629618912935257e-03 1.200484577566385269e-02 -1.470373477786779404e-02 6.343167740851640701e-03 -3.112990641966462135e-03 -2.204391919076442719e-02 -4.733756650239229202e-03 -1.658073859289288521e-03 2.200087159872055054e-02 -2.350147813558578491e-02 -3.588556544855237007e-03 3.165928646922111511e-03 -1.087844558060169220e-02 -1.139547489583492279e-02 -1.777275837957859039e-02 4.135785158723592758e-03 3.010638174600899220e-04 -7.550286129117012024e-03 1.125238952226936817e-03 -3.086161101236939430e-03 -3.414712846279144287e-03 -1.221393817104399204e-03 -1.625271886587142944e-02 -1.238806825131177902e-02 2.420559292659163475e-03 -1.138653792440891266e-02 -1.847705803811550140e-02 -3.038393333554267883e-03 2.184904180467128754e-03 -2.211482077836990356e-02 -2.508710604161024094e-03 4.849253688007593155e-03 -1.079472061246633530e-02 9.094482287764549255e-03 -4.695077077485620975e-04 -1.746402867138385773e-02 -5.057501140981912613e-03 6.813006941229104996e-03 -7.072124164551496506e-03 2.006958797574043274e-02 1.246633182745426893e-04 -1.023307349532842636e-02 1.311436388641595840e-02 -2.742713782936334610e-03 -1.978207193315029144e-02 -1.841390505433082581e-02 -7.867244858061894774e-05 9.892259724438190460e-03 -1.006517000496387482e-02 -2.215631539002060890e-03 4.488382954150438309e-03 -1.622633449733257294e-02 1.096114749088883400e-03 8.164250291883945465e-03 6.161466240882873535e-03 -4.676772281527519226e-03 -5.909895990043878555e-04 1.325813867151737213e-02 7.412203587591648102e-03 -1.808119704946875572e-03 1.292457990348339081e-02 2.592138713225722313e-03 4.993221955373883247e-05 7.607907988131046295e-03 6.590486038476228714e-03 8.199864067137241364e-03 -7.831771858036518097e-03 -1.118009164929389954e-02 -2.335044555366039276e-03 4.311780910938978195e-03 1.384067907929420471e-02 2.983638783916831017e-03 -1.482542883604764938e-02 -4.483414348214864731e-03 1.176285650581121445e-02 -7.183597888797521591e-03 1.359926071017980576e-02 -2.367510274052619934e-02 -1.535102818161249161e-02 1.251570973545312881e-02 -6.770776235498487949e-04 -9.284172207117080688e-03 2.078963257372379303e-02 -1.122018508613109589e-02 1.152326911687850952e-02 -1.726674847304821014e-02 1.408690214157104492e-02 -4.378219135105609894e-03 -3.420963417738676071e-03 1.268206443637609482e-02 -5.565600469708442688e-03 2.787200734019279480e-03 7.579471450299024582e-03 -2.882670424878597260e-02 -1.519604679197072983e-02 1.692937687039375305e-03
5.857327487319707870e-03 -6.650976720266044140e-04 -1.389342825859785080e-02 1.272124703973531723e-02 -9.833492338657379150e-03 9.224103763699531555e-03 -7.499295286834239960e-03 -1.057816296815872192e-02 -2.747784834355115891e-03 8.670884417369961739e-04 -3.250165143981575966e-03 6.728872191160917282e-03 4.600393585860729218e-03 -1.843982003629207611e-02 -2.259184839203953743e-03 1.406788080930709839e-02 2.170588821172714233e-02 -8.952571661211550236e-04 1.001060660928487778e-02 9.590774774551391602e-03 2.132258377969264984e-02 -8.625475689768791199e-03 5.363584496080875397e-03 7.936861366033554077e-03 -8.229443337768316269e-04 1.961045712232589722e-02 2.485621953383088112e-03 -2.401503920555114746e-02 2.455543912947177887e-02 3.394069382920861244e-03 2.344441600143909454e-03 7.080091629177331924e-03 -9.457629173994064331e-03 -1.423492841422557831e-02 2.026052912697196007e-03 1.782761514186859131e-02 -1.560331601649522781e-02 5.966612603515386581e-03 -8.123072795569896698e-03 -1.897260174155235291e-02 1.008486375212669373e-02 1.085290871560573578e-02 -3.293946618214249611e-03 6.176550872623920441e-03 4.586147260852158070e-04 2.626398345455527306e-03 -4.580352455377578735e-03 2.050756243988871574e-03 2.073818584904074669e-03 -6.695087533444166183e-03 7.019529584795236588e-03 -1.138085871934890747e-02 5.623942241072654724e-03 8.320230990648269653e-03 8.557656547054648399e-04 1.024498417973518372e-02 4.413892515003681183e-03 9.697513654828071594e-03 -1.519952784292399883e-04 -2.143462561070919037e-02 -3.625851823017001152e-03 5.577691830694675446e-03 1.617555506527423859e-02 -5.889099091291427612e-03 -1.305613014847040176e-02 7.185503374785184860e-03 -3.275656839832663536e-03 4.182448610663414001e-03 -1.494462136179208755e-02 8.163203485310077667e-03 1.096614450216293335e-02 -3.426841646432876587e-02 8.576935157179832458e-03 4.958335775882005692e-03 2.924511441960930824e-03 1.852951198816299438e-02 1.165285706520080566e-02 -1.194617338478565216e-02 -5.307157058268785477e-03 4.813596140593290329e-03 1.998819498112425208e-04 3.999036271125078201e-03 -2.939767763018608093e-02 -4.473976790904998779e-03 -6.369731854647397995e-03 3.851539804600179195e-04 -5.493656732141971588e-03 -2.401512349024415016e-03 1.413410995155572891e-02 -6.413582246750593185e-03 -3.264707047492265701e-03 1.167455594986677170e-02 -1.039403956383466721e-02 -1.873545930720865726e-03 3.041249932721257210e-03 8.906729519367218018e-03 5.277880001813173294e-03 2.292333357036113739e-02 -3.788404632359743118e-03 4.098689183592796326e-03 3.921893890947103500e-03 -1.462814211845397949e-02 1.378485001623630524e-03 1.433922722935676575e-02 -9.499294683337211609e-03 -9.988587349653244019e-03 5.045601632446050644e-03 3.618777915835380554e-02 -8.022068068385124207e-03 -4.898394923657178879e-03 -2.300053136423230171e-03 9.722653776407241821e-03 8.803577162325382233e-03 -7.247271016240119934e-03 -1.286825723946094513e-02 -3.455498022958636284e-03 -3.743330249562859535e-03 8.984855376183986664e-03 -3.738041035830974579e-03 -7.515235338360071182e-03 5.892778746783733368e-03 -1.374819688498973846e-02 -1.207039784640073776e-02 -2.193789929151535034e-03 1.249154657125473022e-02 2.428765781223773956e-02 8.656026795506477356e-03 6.338355015031993389e-04 1.180881075561046600e-02 1.201977021992206573e-02 2.338333055377006531e-03 6.561770103871822357e-03 1.469287206418812275e-03 -1.678239903412759304e-03 1.027465797960758209e-02 -1.172180101275444031e-02 -3.176471916958689690e-03 7.038377691060304642e-03 2.200900111347436905e-03 -8.640970103442668915e-03 -6.998061668127775192e-03 -3.667062148451805115e-03 -1.439831964671611786e-02 -3.839446231722831726e-03 -1.976451650261878967e-02 1.432158239185810089e-02 3.467122558504343033e-03 4.562970250844955444e-03 -1.321811042726039886e-02 9.931798093020915985e-03 -9.926515631377696991e-03 -4.134043585509061813e-03 1.473284675739705563e-03 -1.019406784325838089e-02 -1.885851030237972736e-03 -8.316563442349433899e-03 -1.810826919972896576e-02 5.156591534614562988e-03 7.253700867295265198e-03 1.546809682622551918e-03 -2.020536176860332489e-02 3.440477419644594193e-03 1.946237497031688690e-02 3.664828836917877197e-03 1.864925288828089833e-04 1.221977081149816513e-02 7.710670586675405502e-03 -7.525463122874498367e-03 7.843866012990474701e-03 -1.342986826784908772e-03 -8.555847220122814178e-03 2.819427289068698883e-03 -7.372688269242644310e-04 -1.568842120468616486e-02 -1.040996890515089035e-02 4.690171685069799423e-03 3.202877414878457785e-04 8.367601549252867699e-04 -2.258810680359601974e-03 1.146791619248688221e-03 -1.203631050884723663e-02 -1.223335321992635727e-02 9.080627001821994781e-03 5.081184674054384232e-03 8.195525035262107849e-03 -7.686947938054800034e-03 -1.852872222661972046e-02 2.726700156927108765e-03 -3.861897392198443413e-03 -1.708571985363960266e-02 6.560079287737607956e-03 -5.009737797081470490e-03 -1.257833652198314667e-02 3.123471979051828384e-03 -1.101787202060222626e-03 1.019479241222143173e-02 1.219464931637048721e-02 5.840435042046010494e-04 1.454338990151882172e-02 -1.361686387099325657e-03 -1.947954762727022171e-03 -5.023017060011625290e-03 1.084142085164785385e-02 3.247753717005252838e-03 -1.946195214986801147e-02 -1.238299999386072159e-02 7.067939732223749161e-03 8.035130449570715427e-04 1.007356587797403336e-02 -1.184041798114776611e-02 1.682964898645877838e-02 -1.347103156149387360e-03 -9.244785644114017487e-03 1.840760372579097748e-02 5.591119173914194107e-03 -1.112591568380594254e-02 8.323478512465953827e-03 -6.208247505128383636e-03 1.616446860134601593e-02 -9.288860484957695007e-03 5.170923192054033279e-03 -3.914501518011093140e-03 5.244547966867685318e-03 5.090095102787017822e-03 6.640956853516399860e-04 -1.781094004400074482e-03 -1.096399500966072083e-02 8.244733326137065887e-03 -4.650926683098077774e-03 2.778223948553204536e-03 -5.279592005535960197e-04 -1.551230344921350479e-02 1.434657606296241283e-03 5.703823640942573547e-03 1.304273214191198349e-02 -1.510157156735658646e-02 6.721659097820520401e-03 5.177956074476242065e-03 -1.264154328964650631e-03 1.662142761051654816e-02 -2.298625418916344643e-03 -6.989551242440938950e-03 -8.561546914279460907e-03 -9.927685372531414032e-03 -6.628477014601230621e-03 5.226739216595888138e-03 4.320118110626935959e-03 1.245699543505907059e-02 1.427481975406408310e-02 1.381295081228017807e-02 6.238198257051408291e-04 -1.736308075487613678e-02 1.281559932976961136e-02 7.385219912976026535e-03 1.059824600815773010e-02 1.546310260891914368e-03
2.320764213800430298e-02 -1.320066209882497787e-02 -1.158095337450504303e-02 -7.104250835254788399e-04 -6.306466646492481232e-03 -6.522589828819036484e-03 4.955455660820007324e-03 1.274559833109378815e-02 -3.787471447139978409e-03 1.001424901187419891e-02 -2.508066128939390182e-03 1.634262129664421082e-02 8.902162313461303711e-03 -9.341128170490264893e-03 3.506991080939769745e-03 -1.658832095563411713e-02 2.010410651564598083e-02 6.273155566304922104e-03 -2.365821041166782379e-03 7.361822295933961868e-03 6.459553726017475128e-03 -1.411550398916006088e-02 -1.792404986917972565e-02 1.700160093605518341e-02 9.907612111419439316e-04 -5.108123645186424255e-03 -3.366547171026468277e-03 1.736781187355518341e-02 -9.537464356981217861e-04 1.464952062815427780e-02 8.424292318522930145e-03 2.052412601187825203e-03 -1.774076255969703197e-03 6.843869108706712723e-03 -1.064247824251651764e-02 -1.174066308885812759e-02 -5.531686823815107346e-03 -1.069011166691780090e-02 1.174904871731996536e-02 1.359319500625133514e-02 -9.040729142725467682e-03 -3.609020728617906570e-03 2.747805556282401085e-03 1.190202543511986732e-03 1.306236069649457932e-02 -7.202492095530033112e-03 8.603744208812713623e-03 -3.104601753875613213e-03 7.582371472381055355e-04 9.747780859470367432e-03 5.066837184131145477e-03 -5.396438296884298325e-03 -7.351957174250856042e-05 -1.189835835248231888e-02 8.899742970243096352e-04 3.682957903947681189e-04 1.102257892489433289e-02 7.515666075050830841e-04 -4.106278531253337860e-03 3.636592533439397812e-03 -1.198670174926519394e-02 4.261859692633152008e-03 -3.891068045049905777e-03 6.967677269130945206e-03 -4.951081355102360249e-04 8.018113672733306885e-03 -3.739881562069058418e-03 -6.196423433721065521e-03 3.587871557101607323e-03 -2.086320659145712852e-03 -1.053296122699975967e-02 1.051039341837167740e-02 -6.264839787036180496e-03 -7.414853200316429138e-03 4.739916883409023285e-03 -3.001083154231309891e-03 -1.383628137409687042e-02 1.108691655099391937e-02 -3.969582263380289078e-03 -5.733861471526324749e-04 1.999838605115655810e-05 6.085352040827274323e-03 9.903628379106521606e-03 9.380016475915908813e-03 8.337198756635189056e-03 -2.159500308334827423e-02 -3.451670985668897629e-03 6.076063029468059540e-03 -1.234142202883958817e-02 3.952920669689774513e-04 -1.397913601249456406e-02 -5.949735175818204880e-03 7.217837497591972351e-03 1.119969226419925690e-02 4.657986108213663101e-03 -1.370150595903396606e-02 -3.509180620312690735e-03 -6.050689145922660828e-03 1.766687072813510895e-02 1.076876837760210037e-02 -1.328993309289216995e-02 -1.673981361091136932e-02 2.637198381125926971e-02 2.198753319680690765e-02 -2.467965940013527870e-03 6.718263961374759674e-03 -1.551556866616010666e-02 -1.802454586140811443e-03 -1.189579628407955170e-02 1.213155407458543777e-02 1.413649972528219223e-02 -5.678881891071796417e-03 -5.453652236610651016e-03 2.942842198535799980e-03 1.830779202282428741e-02 -1.352404709905385971e-02 -4.436939489096403122e-03 -1.192903984338045120e-02 5.682782270014286041e-03 3.571668639779090881e-03 4.791655112057924271e-03 2.090381830930709839e-02 -7.673496846109628677e-03 5.265971180051565170e-03 6.078853857616195455e-06 -4.309977870434522629e-03 -1.859590969979763031e-02 1.064106542617082596e-02 -3.683141665533185005e-03 -4.396332893520593643e-03 6.090939510613679886e-03 -1.240952522493898869e-03 -6.353146862238645554e-03 3.183042630553245544e-03 -1.243825629353523254e-02 -9.317587129771709442e-03 -1.066001411527395248e-02 6.210144609212875366e-03 -9.206802584230899811e-03 -2.032995456829667091e-03 1.510393922217190266e-03 -1.255230046808719635e-02 -1.097760815173387527e-02 -5.149213131517171860e-03 7.392848841845989227e-03 -1.604342833161354065e-02 -2.680497989058494568e-02 -8.946094661951065063e-03 -5.248888861387968063e-03 -5.628512240946292877e-03 6.446187384426593781e-03 1.539606973528862000e-02 7.768633309751749039e-03 -1.029410120099782944e-02 9.118465706706047058e-03 5.486355163156986237e-03 8.985957130789756775e-03 -7.237355690449476242e-03 -1.725364848971366882e-02 -9.748792275786399841e-03 7.320037548197433352e-05 -6.220361683517694473e-03 1.663776487112045288e-02 -1.834438764490187168e-03 1.025513280183076859e-02 4.018758889287710190e-03 -1.374189858324825764e-03 -4.503141157329082489e-03 4.637708421796560287e-03 1.266242284327745438e-02 -2.456543734297156334e-03 -2.066893316805362701e-02 1.485687796957790852e-03 7.854153402149677277e-03 1.716726645827293396e-02 -6.857196800410747528e-03 6.564884912222623825e-03 6.033630110323429108e-03 -8.982524275779724121e-03 -1.005900651216506958e-02 -1.398442778736352921e-02 1.369879191770451143e-05 -1.189023628830909729e-02 2.014272846281528473e-02 1.615604967810213566e-03 -7.766399066895246506e-03 1.241402607411146164e-02 -1.162375416606664658e-02 -8.954890072345733643e-03 -1.089070574380457401e-03 1.272571273148059845e-02 7.647769991308450699e-03 2.122021652758121490e-02 -1.331983949057757854e-03 -5.685979500412940979e-03 4.401523619890213013e-03 -6.723265629261732101e-03 1.432254165410995483e-02 -5.521294195204973221e-03 -7.268931251019239426e-03 1.004162477329373360e-03 -4.054666962474584579e-03 -1.542170159518718719e-02 -4.475803114473819733e-03 7.015814539045095444e-03 -4.742512013763189316e-03 5.831267219036817551e-03 4.760385490953922272e-03 -1.528207561932504177e-03 1.096475869417190552e-02 -1.097084116190671921e-02 1.799006201326847076e-02 1.969307195395231247e-03 1.410316210240125656e-03 5.830604117363691330e-03 2.100226283073425293e-02 1.478823088109493256e-02 -2.827867865562438965e-03 -1.130580063909292221e-02 -3.486249130219221115e-03 1.580665353685617447e-03 -2.256848150864243507e-03 1.390946470201015472e-02 6.627236492931842804e-03 -9.618894546292722225e-05 -4.910169634968042374e-03 -4.173178225755691528e-03 -7.959869690239429474e-03 8.937788079492747784e-04 -3.868828061968088150e-03 9.597226977348327637e-03 2.354356693103909492e-03 3.171439748257398605e-03 2.758033806458115578e-03 -8.390434086322784424e-03 -3.872944973409175873e-03 -7.096396759152412415e-03 1.708324626088142395e-02 -5.085688084363937378e-03 -1.599079743027687073e-02 -1.301864907145500183e-02 2.605601213872432709e-03 -3.370594931766390800e-03 -8.779577328823506832e-04 1.044077426195144653e-02 1.808421127498149872e-02 -6.603550631552934647e-03 -1.919716829434037209e-03 9.320479584857821465e-04 -1.883851736783981323e-02 4.919353406876325607e-03 6.689491216093301773e-03 7.956572808325290680e-03 1.820673700422048569e-03 -1.032831892371177673e-02 -1.341125369071960449e-02
3.974743187427520752e-02 -7.772381417453289032e-03 -1.337499590590596199e-03 1.119234948419034481e-04 4.168349318206310272e-03 -4.599081352353096008e-03 -6.617956794798374176e-03 -1.458050962537527084e-02 1.051014568656682968e-02 6.495311856269836426e-03 -8.350686170160770416e-03 -4.216001834720373154e-03 -9.682577219791710377e-04 5.229561589658260345e-03 -1.871789246797561646e-02 4.875594284385442734e-03 -5.942081566900014877e-03 -5.185760091990232468e-03 -6.629217881709337234e-03 3.951599821448326111e-03 -1.743717864155769348e-02 -4.511397797614336014e-03 2.391524612903594971e-02 -1.510384259745478630e-03 7.733711972832679749e-03 2.520031994208693504e-03 -6.279983092099428177e-03 1.391018461436033249e-02 1.301293610595166683e-03 -3.682390088215470314e-03 6.407059263437986374e-03 6.051057716831564903e-04 -5.439030006527900696e-03 4.279708489775657654e-03 8.419749327003955841e-03 2.292973361909389496e-02 1.815027371048927307e-02 -7.450167089700698853e-03 -8.611113764345645905e-03 -8.003098890185356140e-03 -6.694172043353319168e-03 7.036675699055194855e-03 -6.715578492730855942e-04 -9.965677745640277863e-03 -7.251572795212268829e-03 4.524656105786561966e-03 -7.439396344125270844e-03 1.739202882163226604e-03 2.263190690428018570e-03 8.321505971252918243e-03 -3.443199442699551582e-03 1.306469086557626724e-02 -5.438809283077716827e-03 2.191923325881361961e-03 -2.590028103440999985e-03 1.488046254962682724e-02 5.255251191556453705e-03 -4.668514709919691086e-03 -1.160895638167858124e-02 5.202385596930980682e-03 -2.400174736976623535e-03 1.710597425699234009e-03 2.244204282760620117e-02 2.300328342244029045e-03 5.656877998262643814e-03 1.007645111531019211e-02 5.218641832470893860e-03 -3.495090175420045853e-03 -1.130710914731025696e-02 8.413466624915599823e-03 -1.398545317351818085e-02 -2.944060368463397026e-03 -3.195308614522218704e-03 8.859000517986714840e-04 4.076370503753423691e-03 -4.919345374219119549e-04 -8.221532218158245087e-03 -3.778529586270451546e-03 -5.947516183368861675e-05 -1.310616824775934219e-02 -2.087734901579096913e-04 -4.339255858212709427e-03 3.045671153813600540e-03 5.863685160875320435e-03 1.642579026520252228e-02 1.135962828993797302e-02 5.148657597601413727e-03 -2.811996499076485634e-03 -1.123213022947311401e-02 2.395087853074073792e-03 -1.038329023867845535e-02 -1.328176353126764297e-02 -1.945076510310173035e-03 -1.252441853284835815e-02 2.885507652536034584e-03 2.018345333635807037e-02 4.558158107101917267e-03 -1.184861548244953156e-02 9.082868695259094238e-03 6.468552164733409882e-03 6.920514628291130066e-03 -2.103265374898910522e-02 -2.787483157590031624e-03 -9.343102574348449707e-03 -1.628660014830529690e-03 9.810294024646282196e-03 1.614600047469139099e-02 -5.994038656353950500e-04 -2.304148487746715546e-02 2.324798144400119781e-03 1.452493015676736832e-02 -2.012738492339849472e-03 2.203545905649662018e-02 -1.890520448796451092e-03 3.209601622074842453e-03 -1.877351850271224976e-02 -9.327112347818911076e-04 -1.718330313451588154e-03 -3.808029287029057741e-04 -4.465643782168626785e-03 -1.095347758382558823e-02 -3.237108699977397919e-03 -3.139759600162506104e-02 5.236475728452205658e-03 -5.044219549745321274e-03 2.111401408910751343e-03 -2.444244455546140671e-03 8.712513372302055359e-03 -1.314712967723608017e-02 3.621513897087424994e-04 9.945737197995185852e-03 -6.566421128809452057e-03 -9.574140422046184540e-03 6.771407555788755417e-03 5.094015505164861679e-03 1.902501564472913742e-03 1.331529463641345501e-03 -3.189863869920372963e-03 -6.835292093455791473e-03 -1.741182617843151093e-02 2.703012432903051376e-03 -2.323043905198574066e-02 -4.649419803172349930e-03 9.373878128826618195e-03 -4.658333957195281982e-03 -1.734404824674129486e-02 -2.940597711130976677e-03 2.534987963736057281e-02 7.080616895109415054e-03 8.833667263388633728e-03 3.914706408977508545e-03 5.862526129931211472e-03 9.314347698818892241e-05 -3.090285696089267731e-03 -1.027630642056465149e-02 -2.447315957397222519e-03 -1.305264886468648911e-02 -2.096891961991786957e-02 -8.154810406267642975e-03 2.518253168091177940e-03 1.050817873328924179e-02 -2.101123332977294922e-03 7.654267828911542892e-03 7.699311710894107819e-03 -9.914324618875980377e-03 1.406686473637819290e-02 3.809782909229397774e-03 2.325881971046328545e-03 3.047286299988627434e-03 1.826532743871212006e-02 1.713441917672753334e-03 6.239993032068014145e-03 -9.841393679380416870e-03 7.186575676314532757e-04 6.312936544418334961e-03 -1.070008729584515095e-03 1.134240441024303436e-02 -3.878384595736861229e-03 -4.014474980067461729e-04 -1.022455282509326935e-03 7.671432569622993469e-03 -2.800060203298926353e-03 1.954131759703159332e-03 6.801403593271970749e-03 -4.059079103171825409e-03 -4.420578945428133011e-03 5.290449596941471100e-03 -2.161316107958555222e-03 1.230939663946628571e-02 -1.091975811868906021e-02 -1.294766901992261410e-03 5.420279689133167267e-03 5.327928811311721802e-03 3.609374165534973145e-02 -3.675110638141632080e-03 -1.742816157639026642e-02 -1.737129292450845242e-03 1.717393985018134117e-03 2.037898171693086624e-03 -6.281302776187658310e-03 3.826824249699711800e-03 -2.076461911201477051e-03 8.528655394911766052e-03 -1.686291955411434174e-02 -1.411094237118959427e-02 -3.715574974194169044e-03 2.394714392721652985e-03 3.338034963235259056e-03 -7.402470801025629044e-03 -1.236861199140548706e-02 -1.576402108184993267e-03 2.033496042713522911e-03 -3.077028086408972740e-03 -1.976502360776066780e-03 2.547601936385035515e-03 -2.020248793996870518e-04 9.470545686781406403e-03 -2.712655346840620041e-03 -4.359068814665079117e-03 -2.636681124567985535e-02 1.731269806623458862e-02 -1.653511635959148407e-02 1.140082627534866333e-02 5.157491657882928848e-03 1.116628944873809814e-02 -5.075383814983069897e-04 -2.849769592285156250e-02 4.699749872088432312e-03 -5.229432601481676102e-03 -2.219117991626262665e-02 4.429728724062442780e-03 -1.296552270650863647e-02 -1.891609630547463894e-03 1.976891048252582550e-02 1.890391297638416290e-02 -1.480682101100683212e-02 -7.805836852639913559e-03 -1.390852685290155932e-05 -1.670709345489740372e-03 -1.069989800453186035e-02 1.890224375529214740e-04 1.551878079771995544e-02 6.573925493285059929e-04 4.331217147409915924e-03 -5.239715799689292908e-03 -2.507233293727040291e-03 6.198699120432138443e-03 -6.166460458189249039e-03 -1.188656222075223923e-02 -3.303116653114557266e-03 1.252003479748964310e-03 8.173374459147453308e-03 -4.998894408345222473e-03 -5.355997927836142480e-05 -1.420079544186592102e-02 -2.048563770949840546e-02
9.398787282407283783e-03 -1.461313199251890182e-02 -2.974042203277349472e-03 2.990690292790532112e-03 -2.767462050542235374e-03 1.482595689594745636e-04 -1.069335546344518661e-02 6.763864308595657349e-03 -1.589990966022014618e-02 3.284701611846685410e-03 -4.312064033001661301e-03 -3.373629180714488029e-03 -5.562141304835677147e-04 2.334794262424111366e-03 4.389117937535047531e-03 6.956287194043397903e-03 8.902228437364101410e-03 -1.809380599297583103e-03 6.771092303097248077e-03 2.541965339332818985e-03 5.376045592129230499e-03 -5.021667107939720154e-03 1.597590558230876923e-02 -9.927650913596153259e-03 2.112070098519325256e-03 -2.319181105121970177e-03 3.477273276075720787e-05 -8.633620105683803558e-03 -1.698818989098072052e-02 4.904394736513495445e-04 -2.113550901412963867e-03 -4.059664905071258545e-03 2.640412887558341026e-03 -2.237561345100402832e-02 2.399622276425361633e-02 1.813803240656852722e-02 5.965877790004014969e-05 4.729545034933835268e-04 5.227947607636451721e-03 -9.626724757254123688e-03 -2.112280111759901047e-03 3.371474565938115120e-03 -1.161881070584058762e-02 4.233016632497310638e-03 -6.141288205981254578e-03 4.043439868837594986e-03 -6.970376241952180862e-03 -1.556631736457347870e-02 1.106311287730932236e-02 8.610717020928859711e-03 5.016314331442117691e-03 2.894159872084856033e-03 -1.227684086188673973e-03 -5.208067130297422409e-03 -1.167567260563373566e-02 -3.404517890885472298e-03 4.416859243065118790e-03 -5.481216125190258026e-03 -5.090788472443819046e-04 -5.800725426524877548e-03 -1.506234146654605865e-02 5.954950582236051559e-03 7.489666808396577835e-03 -1.456900127232074738e-02 2.173469401895999908e-03 1.048291102051734924e-02 -8.062982931733131409e-03 -1.024635136127471924e-02 -1.662828586995601654e-02 -6.643645465373992920e-03 -7.575089111924171448e-03 7.905049249529838562e-03 -1.532036624848842621e-02 -1.136177498847246170e-02 3.471172181889414787e-03 1.036900840699672699e-02 -1.219929102808237076e-02 -1.528343185782432556e-02 2.023614244535565376e-03 -7.946358062326908112e-03 3.550084074959158897e-03 -8.910861797630786896e-03 -5.881270859390497208e-03 1.233423408120870590e-02 6.949000526219606400e-03 -2.945314906537532806e-02 4.044575616717338562e-03 3.839381039142608643e-03 -7.527334615588188171e-03 -8.609186857938766479e-03 -1.018349453806877136e-02 2.016226947307586670e-02 -1.444511115550994873e-02 -8.879188681021332741e-04 -1.100334152579307556e-02 1.904262788593769073e-02 -2.128201536834239960e-03 3.304199315607547760e-03 2.323009632527828217e-02 8.635176345705986023e-03 7.498870254494249821e-04 -2.882912382483482361e-02 1.006068103015422821e-02 1.369594247080385685e-03 5.819697864353656769e-03 1.192397088743746281e-03 1.587141305208206177e-02 2.392952796071767807e-03 -2.959006279706954956e-02 -3.295101458206772804e-03 -6.180422846227884293e-03 -8.372463285923004150e-03 -1.082547660917043686e-02 2.831950405379757285e-05 -1.976288622245192528e-03 -1.186582911759614944e-02 -1.386548206210136414e-02 -7.343479956034570932e-05 5.286936182528734207e-03 -1.128274947404861450e-02 7.281330879777669907e-03 8.397647179663181305e-03 -9.690712206065654755e-03 5.168214906007051468e-03 1.992916502058506012e-02 2.466342039406299591e-02 -1.303770020604133606e-02 5.856993142515420914e-03 -7.783510256558656693e-03 -6.276061292737722397e-03 -6.118203047662973404e-03 -1.480560656636953354e-02 1.512928213924169540e-02 -9.346816223114728928e-04 1.475648023188114166e-02 7.145913317799568176e-03 -9.838712867349386215e-04 -5.792832002043724060e-03 -1.325922348769381642e-04 -2.523442357778549194e-02 -3.070315718650817871e-02 -1.101874839514493942e-02 -8.283666335046291351e-03 1.975865662097930908e-02 2.815541345626115799e-03 -1.534563861787319183e-02 -2.133829332888126373e-02 2.310471050441265106e-02 -5.148864351212978363e-03 4.664443433284759521e-03 -2.015749923884868622e-02 1.561886724084615707e-02 -2.261257031932473183e-03 -8.331596851348876953e-03 -2.623718231916427612e-02 6.104828789830207825e-03 -1.603523269295692444e-02 -5.567732267081737518e-03 7.419358473271131516e-03 9.264520369470119476e-03 -5.913739092648029327e-03 -3.181995591148734093e-03 8.617191575467586517e-03 6.346125621348619461e-03 1.706445822492241859e-03 1.111491210758686066e-02 8.632416836917400360e-03 -1.255351211875677109e-02 -1.405264902859926224e-02 5.657497327774763107e-03 -2.673635724931955338e-03 1.406858023256063461e-02 -9.001160040497779846e-03 3.409345867112278938e-03 -5.965294258203357458e-05 1.563814468681812286e-02 1.556999050080776215e-02 2.380137098953127861e-03 -2.529148943722248077e-03 1.621996052563190460e-02 -1.515020150691270828e-02 -1.233887486159801483e-02 2.765615005046129227e-03 1.864846423268318176e-02 5.009116604924201965e-03 -2.535135019570589066e-03 1.229043491184711456e-02 -5.049165338277816772e-03 3.678672714158892632e-03 -1.256968267261981964e-02 -8.292592130601406097e-03 5.327258841134607792e-04 8.860416710376739502e-03 1.638018339872360229e-02 -8.363934233784675598e-03 1.558172330260276794e-02 -4.825407173484563828e-03 -1.231020083650946617e-03 -9.971269173547625542e-04 -2.021636441349983215e-02 1.356602297164499760e-03 -6.774664856493473053e-03 1.081491168588399887e-02 -1.653694175183773041e-02 4.799052258022129536e-04 -8.326886221766471863e-03 -8.347985334694385529e-03 -7.839546538889408112e-03 -2.969621680676937103e-03 -5.382793024182319641e-03 -3.376648575067520142e-02 -2.090162597596645355e-02 -9.820499457418918610e-03 6.044608540832996368e-03 -6.047002039849758148e-03 -8.711924776434898376e-03 -2.745457692071795464e-03 1.224509999155998230e-02 -1.092750026145949960e-04 1.066139782778918743e-03 6.661266554147005081e-03 -2.335268072783946991e-02 -5.863254191353917122e-04 4.170556552708148956e-03 3.435738384723663330e-03 -8.042255416512489319e-03 -1.343773491680622101e-02 2.640578150749206543e-02 5.951566621661186218e-03 -1.931079290807247162e-02 -4.826960619539022446e-03 -4.571291152387857437e-03 -4.315154161304235458e-03 2.932203933596611023e-02 2.887554094195365906e-02 -7.604593876749277115e-03 -1.921341009438037872e-02 7.633300963789224625e-03 -1.588038168847560883e-02 -2.277680300176143646e-02 -2.933991840109229088e-03 -9.245862602256238461e-04 -1.607097126543521881e-02 3.291409695520997047e-03 2.406040584901347756e-04 8.291092701256275177e-03 6.273026578128337860e-03 6.049538031220436096e-03 -4.561016801744699478e-03 -1.786816865205764771e-02 -6.636801175773143768e-03 9.221033193171024323e-03 -1.508046058006584644e-03 4.547244403511285782e-03 -8.698946330696344376e-04 -1.789235323667526245e-02
2.095083892345428467e-02 -1.564560271799564362e-02 8.121760562062263489e-03 7.400066591799259186e-03 8.190833963453769684e-03 1.642747595906257629e-02 9.276852011680603027e-03 1.376833207905292511e-02 9.701604023575782776e-03 -3.515159012749791145e-03 -5.952714942395687103e-03 2.067434787750244141e-02 -1.277364045381546021e-02 -2.095820754766464233e-02 2.606484806165099144e-03 8.973443880677223206e-03 -1.500297989696264267e-02 -2.371962415054440498e-03 1.099882274866104126e-02 2.790916152298450470e-02 2.868998795747756958e-03 -2.150928601622581482e-02 -1.176252402365207672e-02 -1.531057059764862061e-03 5.350482533685863018e-04 -8.392503485083580017e-03 7.582843769341707230e-03 1.379360351711511612e-02 -2.505943877622485161e-03 -2.544097602367401123e-03 -1.819673692807555199e-03 -2.071699872612953186e-02 -9.414782747626304626e-03 1.988247735425829887e-03 4.935204051434993744e-03 2.655392978340387344e-03 9.146483615040779114e-03 -1.903518661856651306e-02 -7.170955650508403778e-03 7.900437340140342712e-03 -2.502474002540111542e-02 1.864487491548061371e-02 1.169608440250158310e-02 -1.299308240413665771e-02 2.632431499660015106e-02 6.791093852370977402e-03 -1.035514846444129944e-02 -7.530253380537033081e-03 1.453477307222783566e-03 -7.774096447974443436e-03 1.909918524324893951e-02 1.092350948601961136e-02 5.245717242360115051e-03 1.722189784049987793e-02 3.203237662091851234e-03 1.343331299722194672e-02 7.377832080237567425e-04 -8.972899056971073151e-03 2.003002166748046875e-02 -1.159834209829568863e-02 1.604083739221096039e-02 5.235807038843631744e-03 -1.968487352132797241e-02 9.574877098202705383e-03 -1.251741684973239899e-02 1.376688387244939804e-02 9.197834879159927368e-03 -4.711696412414312363e-03 1.806691987439990044e-03 6.996058393269777298e-03 -1.568526029586791992e-02 6.318514700978994370e-03 -2.108321525156497955e-02 -2.563692687544971704e-04 1.021229010075330734e-02 -3.795892698690295219e-03 -5.196300800889730453e-03 1.290745381265878677e-02 -1.218745764344930649e-02 2.720511332154273987e-02 -1.519585680216550827e-02 -5.478681996464729309e-03 -9.851540438830852509e-03 -1.641180925071239471e-02 2.597096189856529236e-02 -7.170678116381168365e-03 3.423898248001933098e-03 8.188539184629917145e-03 1.685055717825889587e-02 -2.617000136524438858e-04 -3.576985560357570648e-03 1.160287857055664062e-02 -2.161660604178905487e-02 -8.793856948614120483e-03 2.282704785466194153e-02 -8.677644655108451843e-04 -2.845226787030696869e-02 5.299841053783893585e-03 5.938248243182897568e-03 1.901539391838014126e-03 1.203607860952615738e-02 2.337156794965267181e-02 -9.074640460312366486e-03 1.483669225126504898e-02 1.174767967313528061e-02 -1.275845710188150406e-02 -1.890152879059314728e-02 -1.307257171720266342e-02 -4.757731221616268158e-04 1.370489480905234814e-03 5.363014526665210724e-03 2.921671373769640923e-03 -1.073523308150470257e-03 1.557633653283119202e-02 -3.079348709434270859e-03 -8.106625638902187347e-03 1.119418907910585403e-02 5.940326023846864700e-03 -1.095596933737397194e-03 -1.364775188267230988e-02 -1.648309640586376190e-02 1.545704435557126999e-02 1.133919321000576019e-02 9.200810454785823822e-04 3.131689503788948059e-03 -1.634268090128898621e-02 1.440618000924587250e-02 1.470475364476442337e-02 -7.329594343900680542e-03 2.126554492861032486e-03 2.000752836465835571e-02 -4.502446390688419342e-03 1.347582554444670677e-03 2.305822819471359253e-02 -3.492799820378422737e-03 1.233859104104340076e-03 -2.582235960289835930e-03 -2.534359320998191833e-02 -5.941584240645170212e-04 1.899742521345615387e-03 -5.751287564635276794e-03 -4.772187210619449615e-03 1.451641001040115952e-04 -2.001635171473026276e-02 8.455204661004245281e-04 -2.629434224218130112e-03 5.890795961022377014e-03 6.497985683381557465e-03 -5.687900818884372711e-03 -1.062622107565402985e-02 1.523875258862972260e-02 1.053821947425603867e-02 3.115268191322684288e-03 3.245640313252806664e-03 -1.045699510723352432e-02 3.213442862033843994e-03 4.041811451315879822e-03 1.596163213253021240e-02 9.225464600604027510e-05 -2.376396209001541138e-03 -9.405665099620819092e-03 2.830710494890809059e-03 3.714330494403839111e-03 1.107244752347469330e-02 -1.400049868971109390e-02 1.102217752486467361e-02 -4.270941950380802155e-03 -1.956886146217584610e-03 2.959949895739555359e-02 -1.692407531663775444e-03 -6.334857083857059479e-03 -4.725651815533638000e-03 -1.506625767797231674e-02 2.035767026245594025e-02 -6.856762338429689407e-03 1.366914220852777362e-04 -9.551372379064559937e-03 1.059198006987571716e-02 -2.119746292009949684e-03 -6.743568461388349533e-03 3.010399406775832176e-03 6.890445481985807419e-03 1.083404198288917542e-02 -2.197551075369119644e-03 -9.511427022516727448e-03 -2.720364555716514587e-02 1.829566899687051773e-03 -4.195340909063816071e-03 6.080729421228170395e-03 -6.839410401880741119e-03 1.676391996443271637e-02 2.512027742341160774e-03 2.687208354473114014e-03 2.092170529067516327e-03 -1.467842143028974533e-02 1.967854797840118408e-02 3.055582987144589424e-03 1.181739661842584610e-02 -2.064076717942953110e-03 -4.880732856690883636e-03 8.032447658479213715e-03 -5.786455236375331879e-03 -2.508548647165298462e-02 1.115178689360618591e-02 -3.590554988477379084e-04 9.511086973361670971e-04 5.216870922595262527e-03 1.629931665956974030e-02 1.174105983227491379e-02 -4.367653746157884598e-04 -5.772240925580263138e-03 2.333274576812982559e-03 -2.152037061750888824e-02 -1.092794584110379219e-03 -4.776870366185903549e-03 1.153601985424757004e-02 1.206927094608545303e-02 -3.004529746249318123e-03 -5.860609468072652817e-03 -6.004929076880216599e-03 8.093316137092188001e-05 -5.260991863906383514e-03 1.258583390153944492e-03 1.287049893289804459e-02 3.338109934702515602e-03 -2.533785765990614891e-03 6.871073128422722220e-05 5.053325556218624115e-03 1.359158009290695190e-02 -1.881102286279201508e-02 1.475563831627368927e-02 -2.850262820720672607e-02 -1.202972023747861385e-03 -1.837560557760298252e-03 3.943582996726036072e-04 2.173171233152970672e-04 7.662093732506036758e-03 8.479937911033630371e-03 5.073976702988147736e-03 -1.267679035663604736e-02 -1.264510094188153744e-03 5.877689924091100693e-03 -1.476590172387659550e-03 -2.740700729191303253e-03 -5.667777266353368759e-03 6.991414353251457214e-03 2.209975756704807281e-02 -5.807482637465000153e-03 -5.997244734317064285e-03 1.045283302664756775e-02 -1.391485799103975296e-02 1.620400347746908665e-03 -2.897261176258325577e-03 -3.098282031714916229e-03 -1.401620265096426010e-02 1.016510650515556335e-02
-3.457522718235850334e-03 -1.625329628586769104e-02 3.742993809282779694e-03 -1.071881223469972610e-02 4.474183078855276108e-03 1.750371791422367096e-02 -2.085814625024795532e-02 6.201835349202156067e-04 -3.127664560452103615e-03 8.861815556883811951e-03 -1.086075603961944580e-02 2.642669016495347023e-03 6.736778654158115387e-03 -1.086846739053726196e-02 3.957220353186130524e-03 -5.915978690609335899e-04 -5.519472062587738037e-03 9.093150147236883640e-04 -1.696170680224895477e-02 6.632050499320030212e-03 -1.052671205252408981e-02 -1.092442590743303299e-02 1.035935245454311371e-02 1.105269475374370813e-04 -1.374965999275445938e-02 8.788947016000747681e-03 5.708900745958089828e-03 1.086626760661602020e-02 -1.675338484346866608e-03 6.309130549198016524e-05 -3.070727107115089893e-04 -4.182618111371994019e-03 -2.714025974273681641e-02 1.585299149155616760e-03 3.307355800643563271e-03 -6.407329346984624863e-03 2.863041358068585396e-03 -7.723374292254447937e-03 -1.783063076436519623e-02 -6.688840221613645554e-03 -2.488171495497226715e-02 2.159705758094787598e-02 1.900968328118324280e-02 -2.656526118516921997e-02 9.775000624358654022e-03 1.346695050597190857e-02 -5.238722544163465500e-03 -3.846661886200308800e-03 -1.084016636013984680e-02 -1.422462798655033112e-02 1.948042423464357853e-03 1.699797250330448151e-02 -2.642345149070024490e-03 -3.626490477472543716e-03 -8.848802186548709869e-03 -5.467821378260850906e-03 4.757906775921583176e-03 -6.333367433398962021e-03 7.496308535337448120e-03 5.003825295716524124e-03 2.037472650408744812e-02 6.497889757156372070e-03 1.544425264000892639e-02 -7.264715619385242462e-03 -9.564627893269062042e-03 1.323187723755836487e-02 1.912088319659233093e-02 7.873725262470543385e-04 -1.906167902052402496e-02 -4.831313854083418846e-04 -1.610433496534824371e-02 -8.058570325374603271e-03 -1.717027276754379272e-02 1.561924582347273827e-03 3.063553303945809603e-04 -1.055364776402711868e-02 1.294539659284055233e-03 1.240223646163940430e-02 2.921313513070344925e-03 2.092314884066581726e-02 3.755397628992795944e-04 8.746429346501827240e-03 -6.628391798585653305e-03 -8.349431678652763367e-03 5.470830481499433517e-03 5.064205266535282135e-03 -5.068650469183921814e-03 -1.052963268011808395e-02 -2.171192318201065063e-03 7.183447480201721191e-03 -1.627714931964874268e-02 7.167702540755271912e-03 -1.247974857687950134e-02 -2.944614039734005928e-03 1.018961425870656967e-02 1.523248013108968735e-02 -1.897344551980495453e-02 -6.659237667918205261e-03 -1.384010817855596542e-02 -7.368093356490135193e-03 5.281836725771427155e-03 1.485761068761348724e-02 -2.427025884389877319e-02 5.760216619819402695e-03 1.627885038033127785e-03 -5.902912933379411697e-03 2.185313031077384949e-03 6.613535806536674500e-03 -1.567692146636545658e-03 1.477293204516172409e-02 -7.889476604759693146e-03 3.641600720584392548e-03 7.329725194722414017e-04 2.178252907469868660e-03 4.679297097027301788e-03 -1.209132652729749680e-02 2.727321581915020943e-03 -8.192840963602066040e-03 4.770386032760143280e-03 -5.434036720544099808e-03 -2.429541014134883881e-02 9.278402663767337799e-03 -4.381457692943513393e-04 4.186787642538547516e-03 -6.814417429268360138e-03 7.708571385592222214e-03 2.468272857367992401e-02 -2.102419268339872360e-03 -8.958588354289531708e-03 6.394495721906423569e-03 5.730256438255310059e-03 6.343931425362825394e-03 2.645994769409298897e-03 1.054114941507577896e-02 5.195438396185636520e-03 -1.295168534852564335e-03 7.091311737895011902e-03 -1.695381663739681244e-02 1.522086560726165771e-02 -7.391071412712335587e-03 -6.264825817197561264e-03 -2.593990357127040625e-04 2.191017381846904755e-03 -1.432099030353128910e-03 6.598138716071844101e-03 -1.526455674320459366e-02 9.205345995724201202e-03 1.275631319731473923e-02 6.075611338019371033e-03 9.712273254990577698e-03 2.158058248460292816e-02 1.451446861028671265e-02 2.268456667661666870e-02 4.460852127522230148e-03 1.498861471191048622e-03 -1.086214650422334671e-02 -1.581778563559055328e-02 1.569565571844577789e-02 -5.590632092207670212e-03 -7.642155105713754892e-05 -1.877851039171218872e-02 5.938638467341661453e-03 2.569392323493957520e-02 1.153331063687801361e-02 -1.002569217234849930e-02 1.420035492628812790e-02 1.324676070362329483e-02 9.307434782385826111e-03 1.268232706934213638e-02 -1.868762634694576263e-02 -1.624108105897903442e-02 1.399218849837779999e-02 -6.020159926265478134e-04 1.248922478407621384e-02 1.832834631204605103e-02 2.222270891070365906e-02 -9.250272996723651886e-03 3.379358677193522453e-03 8.909279480576515198e-03 1.410158729413524270e-04 1.308946521021425724e-03 1.273561920970678329e-02 7.481014356017112732e-03 -1.048476900905370712e-02 9.644017554819583893e-04 -1.527214609086513519e-02 8.192117325961589813e-03 1.627853699028491974e-02 7.234315387904644012e-03 8.978781290352344513e-03 6.686191190965473652e-04 -1.111604738980531693e-02 -2.061884663999080658e-02 -4.953388590365648270e-03 -3.740569343790411949e-03 4.487272351980209351e-03 9.495499543845653534e-03 -9.548185626044869423e-04 -3.863859223201870918e-03 -6.550167221575975418e-03 -1.063857786357402802e-02 5.209890194237232208e-03 -5.802934989333152771e-03 5.111069185659289360e-04 -3.065006341785192490e-03 -6.277036387473344803e-03 3.784089349210262299e-03 -2.564863534644246101e-03 3.541841637343168259e-03 3.679770743474364281e-03 -4.666587803512811661e-03 1.383044198155403137e-02 -1.757390610873699188e-02 -9.254636242985725403e-03 1.521450933068990707e-02 -1.420385297387838364e-02 -6.801112089306116104e-03 -1.397276180796325207e-03 -1.805507205426692963e-02 -1.593455439433455467e-03 4.483354859985411167e-04 2.413155045360326767e-03 -3.000764548778533936e-02 1.921684294939041138e-02 -1.308362116105854511e-03 -6.655023433268070221e-03 -4.677170887589454651e-03 -4.464360885322093964e-03 5.101269111037254333e-03 -1.046224590390920639e-02 4.471853375434875488e-03 1.621163828531280160e-04 -1.317364349961280823e-02 6.390327122062444687e-03 1.202694512903690338e-02 1.205121399834752083e-03 -5.718319676816463470e-03 1.059740781784057617e-02 -9.828515350818634033e-03 -1.373911276459693909e-02 -9.109360165894031525e-03 7.930881343781948090e-03 7.752697914838790894e-03 8.114537224173545837e-03 -1.631884649395942688e-02 -6.469985004514455795e-03 1.202572509646415710e-02 9.732867591083049774e-03 9.492917917668819427e-03 5.013081710785627365e-03 -1.033813040703535080e-02 -8.191786706447601318e-03 7.793627679347991943e-03 -6.576276849955320358e-03 -7.144695147871971130e-03 1.045636553317308426e-02
-1.132205943576991558e-03 -3.053090162575244904e-02 1.301230676472187042e-02 -4.768539220094680786e-03 6.918427068740129471e-03 6.107800640165805817e-03 -9.198733605444431305e-03 7.051822612993419170e-04 9.466622956097126007e-03 -1.163973659276962280e-02 -8.375179022550582886e-03 1.119705941528081894e-02 3.971105441451072693e-03 3.173447330482304096e-04 1.725852489471435547e-03 -6.205328740179538727e-03 9.275541640818119049e-03 4.979472141712903976e-04 -1.245465874671936035e-02 -9.943379554897546768e-04 -2.628407964948564768e-04 -2.413020934909582138e-03 -1.001476962119340897e-02 1.773454993963241577e-02 7.602398749440908432e-03 -8.293225429952144623e-03 2.763786760624498129e-04 2.093541435897350311e-02 -7.674029562622308731e-03 -7.034740410745143890e-04 1.662581600248813629e-02 5.969790276139974594e-03 2.119627315551042557e-03 4.525421652942895889e-03 9.841680293902754784e-04 -9.619344957172870636e-03 -1.757848222041502595e-04 -3.223899286240339279e-03 -6.429118104279041290e-03 -3.786351298913359642e-03 -3.333806991577148438e-02 1.627422310411930084e-02 1.159020001068711281e-03 -1.128502748906612396e-02 8.119901642203330994e-03 6.922253873199224472e-03 7.180474698543548584e-03 -6.316593382507562637e-03 -9.702107869088649750e-03 1.568617485463619232e-02 9.405639139004051685e-04 8.753582835197448730e-03 6.888177245855331421e-03 1.241812016814947128e-03 -1.618501846678555012e-03 5.407580174505710602e-03 9.378708899021148682e-03 8.343626745045185089e-03 1.889955718070268631e-03 1.109165418893098831e-02 -1.773131196387112141e-03 -1.031725085340440273e-03 -7.164272014051675797e-03 6.941225379705429077e-03 -1.150113157927989960e-02 6.447599269449710846e-03 1.045990083366632462e-02 -1.681936904788017273e-02 -3.183231689035892487e-03 -5.712807760573923588e-04 -6.401429884135723114e-03 5.018285010010004044e-03 -8.105319575406610966e-04 6.314075551927089691e-03 -2.093800285365432501e-04 2.101104008033871651e-03 -1.691360771656036377e-02 5.390483420342206955e-04 -3.511129471007734537e-04 8.755770511925220490e-03 3.504594787955284119e-03 -2.903272164985537529e-03 -3.733190707862377167e-03 4.708886262960731983e-04 -1.980615593492984772e-02 -8.637951104901731014e-04 -1.115998812019824982e-02 -9.224275709129869938e-04 -1.393430493772029877e-02 4.206531681120395660e-03 1.397733390331268311e-02 -1.706795068457722664e-03 6.286153220571577549e-04 8.797668851912021637e-03 4.770295694470405579e-03 6.606964860111474991e-03 -1.975173363462090492e-03 3.286104649305343628e-03 9.506794740445911884e-04 -6.702611688524484634e-03 1.395696308463811874e-02 8.948823437094688416e-03 1.353469118475914001e-02 -1.979340566322207451e-03 5.753667559474706650e-03 -2.430031745461747050e-04 5.337229464203119278e-03 -2.273614285513758659e-03 -6.501785479485988617e-03 -3.024636767804622650e-03 1.526777539402246475e-02 4.280111286789178848e-03 -3.131072968244552612e-03 4.149184562265872955e-03 -6.423143204301595688e-03 -1.063008699566125870e-02 5.450180731713771820e-03 -1.525953505188226700e-02 4.546849988400936127e-03 -2.076036529615521431e-03 -2.241093665361404419e-02 -1.923027820885181427e-02 1.635994762182235718e-03 4.282294306904077530e-03 -5.530948750674724579e-03 4.204920027405023575e-03 1.027734018862247467e-02 1.217399537563323975e-02 5.943699739873409271e-03 4.211023449897766113e-03 4.687927663326263428e-03 -2.354417229071259499e-03 -4.721909761428833008e-03 -1.316940691322088242e-02 3.120070323348045349e-03 -8.954394143074750900e-04 -1.074552256613969803e-02 -9.944904595613479614e-03 -8.865626528859138489e-03 9.435742162168025970e-03 5.507848691195249557e-04 3.329502418637275696e-03 2.021064981818199158e-03 5.281582940369844437e-03 -3.055267967283725739e-03 -1.342933345586061478e-02 2.151891123503446579e-03 1.589241065084934235e-02 3.585199592635035515e-03 -5.958411842584609985e-03 1.130217127501964569e-02 9.744188748300075531e-03 1.129861176013946533e-02 -1.338486792519688606e-03 -7.335224654525518417e-03 9.467895142734050751e-03 -7.951556704938411713e-03 7.274549454450607300e-03 -6.545068230479955673e-03 -1.756804762408137321e-03 -1.460448605939745903e-03 1.221675612032413483e-02 3.061783208977431059e-04 1.079622749239206314e-02 -1.758454367518424988e-02 -1.798848854377865791e-03 6.229650229215621948e-03 5.677352193742990494e-03 4.908507224172353745e-03 -9.452139958739280701e-03 -9.290819987654685974e-03 -7.507527712732553482e-03 -8.618070743978023529e-03 1.706277579069137573e-02 4.908244591206312180e-03 -1.511166337877511978e-02 4.108747001737356186e-03 -5.848696455359458923e-03 -1.481568533927202225e-02 7.645475212484598160e-03 1.000173762440681458e-02 1.413397304713726044e-02 -6.545269861817359924e-03 -7.219424005597829819e-03 -1.394967199303209782e-03 1.232437207363545895e-03 1.957874745130538940e-03 1.390749961137771606e-02 1.416902616620063782e-02 -8.549424819648265839e-04 6.890636286698281765e-04 8.802765980362892151e-03 -1.254328712821006775e-02 1.584145985543727875e-02 1.663562492467463017e-03 -8.179451338946819305e-03 5.047111306339502335e-03 -6.420265417546033859e-03 -6.683748215436935425e-03 -1.124748867005109787e-02 -9.675422916188836098e-04 -1.793992938473820686e-03 -1.763155451044440269e-03 -1.639910973608493805e-02 -5.707471631467342377e-03 -5.153237842023372650e-03 5.551434587687253952e-03 3.025818150490522385e-03 -4.886994138360023499e-04 4.641882609575986862e-03 -1.424651779234409332e-02 1.953039318323135376e-03 -2.419692929834127426e-03 4.427641630172729492e-03 9.678738191723823547e-03 -4.692072980105876923e-03 3.605091711506247520e-03 9.508496150374412537e-03 4.857926163822412491e-03 1.219799392856657505e-03 1.451621484011411667e-02 5.107152741402387619e-03 -7.827329449355602264e-03 2.065045060589909554e-03 -4.607933573424816132e-03 6.217516493052244186e-03 4.228715319186449051e-03 -6.698819808661937714e-03 -1.926387660205364227e-03 -1.957071572542190552e-02 1.449939981102943420e-02 4.739107098430395126e-04 -1.853109453804790974e-03 -1.861431263387203217e-02 -8.754815789870917797e-04 2.330511342734098434e-03 -3.032239619642496109e-03 8.970970287919044495e-03 5.848626606166362762e-03 -2.219472639262676239e-02 1.042665541172027588e-02 5.529961548745632172e-03 -1.252757967449724674e-03 -1.393337268382310867e-03 1.151587441563606262e-02 -7.231210358440876007e-03 3.753188997507095337e-03 -1.393224578350782394e-02 5.116518586874008179e-03 5.653548054397106171e-03 -8.834356442093849182e-03 1.555097475647926331e-02 3.060583025217056274e-03 -8.958574384450912476e-03 -6.818375550210475922e-03 6.074780249036848545e-04
1.758990436792373657e-02 -1.876859925687313080e-02 -3.134783357381820679e-03 3.853363916277885437e-03 3.439469262957572937e-03 1.063183881342411041e-02 1.453156396746635437e-02 1.416090875864028931e-03 -6.688247434794902802e-03 -7.898013573139905930e-04 -7.038798648864030838e-03 1.523005031049251556e-02 3.699863329529762268e-03 -1.856249198317527771e-02 1.583651290275156498e-03 -4.808660596609115601e-03 5.310469307005405426e-03 -8.123831823468208313e-03 2.291114302352070808e-03 6.858742330223321915e-03 5.459247156977653503e-03 5.256229545921087265e-03 -6.324396934360265732e-03 1.199315860867500305e-02 7.981722243130207062e-03 -3.858588868752121925e-03 1.682334230281412601e-03 2.025476191192865372e-03 8.879540488123893738e-03 -2.034304663538932800e-02 1.364250574260950089e-02 2.796003362163901329e-03 5.784242879599332809e-03 1.719008083455264568e-03 1.480659353546798229e-03 -1.151756197214126587e-02 -1.952042221091687679e-04 -1.403855532407760620e-02 -6.810303602833300829e-05 6.701671518385410309e-03 -1.635595783591270447e-02 -4.116514697670936584e-03 -2.849452663213014603e-03 -1.027041114866733551e-02 2.455825172364711761e-02 9.188286028802394867e-03 4.790797538589686155e-04 -4.205898847430944443e-03 6.572582293301820755e-03 -3.548842621967196465e-03 1.047649979591369629e-02 -5.285535007715225220e-03 1.894331304356455803e-03 1.711854012683033943e-03 -1.948387478478252888e-03 3.217989346012473106e-03 -3.720811102539300919e-03 -1.040229015052318573e-02 8.876626379787921906e-03 -6.338387262076139450e-03 -1.910782046616077423e-02 -5.690305493772029877e-03 -1.293019484728574753e-02 -9.846694301813840866e-04 -7.777523249387741089e-03 -9.726905263960361481e-03 9.479193948209285736e-03 -1.802031137049198151e-02 -2.073010243475437164e-02 -8.821037597954273224e-03 -8.767147548496723175e-03 -7.773471530526876450e-03 7.056966423988342285e-03 -3.323464887216687202e-03 4.252816550433635712e-03 -7.847150845918804407e-05 8.996102958917617798e-03 1.323299482464790344e-02 -7.102016359567642212e-03 5.316041875630617142e-03 6.082910113036632538e-03 8.028929121792316437e-03 4.143664613366127014e-03 1.142235752195119858e-02 8.454708382487297058e-03 -1.063072308897972107e-02 3.073130967095494270e-03 9.605313651263713837e-03 1.032108254730701447e-02 5.327722989022731781e-03 -6.622175686061382294e-03 -3.952010534703731537e-03 -1.704781316220760345e-02 1.079812273383140564e-02 1.846808381378650665e-02 2.555685350671410561e-04 -9.493337944149971008e-03 9.346879087388515472e-03 8.115667849779129028e-03 -1.226710062474012375e-02 -7.912492379546165466e-03 6.477142684161663055e-03 5.861066281795501709e-03 1.608155854046344757e-02 -8.080705069005489349e-03 9.179363958537578583e-03 -9.596333838999271393e-03 -6.195898167788982391e-03 -1.151517964899539948e-02 6.579049862921237946e-03 8.843249641358852386e-03 4.976305179297924042e-03 1.205094973556697369e-03 4.818701650947332382e-03 2.204224467277526855e-03 4.276654217392206192e-04 -9.433838538825511932e-03 -2.504687057808041573e-03 -3.828150685876607895e-03 3.409712342545390129e-03 -6.516594439744949341e-03 1.636558398604393005e-02 -4.208194091916084290e-03 -2.491236664354801178e-03 1.063602976500988007e-03 1.385647989809513092e-02 -4.425683990120887756e-03 2.586847171187400818e-02 -1.081322412937879562e-02 -8.725960738956928253e-03 -3.614664019551128149e-04 -1.208269502967596054e-02 8.488602004945278168e-03 6.301472429186105728e-03 1.572598703205585480e-02 3.611731342971324921e-03 -2.472141524776816368e-03 -1.195898558944463730e-02 -9.111433289945125580e-03 -8.337159641087055206e-03 -1.428353320807218552e-02 4.600339103490114212e-03 -8.687582798302173615e-03 -1.735676638782024384e-02 1.475625671446323395e-02 -8.735930547118186951e-03 -1.947633922100067139e-02 -5.286384839564561844e-03 3.331637708470225334e-03 7.502902299165725708e-03 -4.054607357829809189e-03 -8.775980211794376373e-03 -3.336210502311587334e-03 -8.862890303134918213e-03 4.608041141182184219e-03 -3.147942945361137390e-03 1.011688821017742157e-02 -1.377930305898189545e-02 -5.921876057982444763e-03 6.315771490335464478e-03 5.350259132683277130e-03 1.408058963716030121e-02 9.114947170019149780e-04 8.599958964623510838e-04 1.035388791933655739e-03 -6.883604917675256729e-03 -6.631323136389255524e-03 3.139802487567067146e-03 -6.605512928217649460e-03 8.339023217558860779e-03 -6.617243867367506027e-03 -4.255036357790231705e-03 -1.174868363887071609e-02 -4.464090801775455475e-03 7.218763232231140137e-03 -5.281317047774791718e-03 4.046313464641571045e-03 3.581722732633352280e-03 1.811806694604456425e-03 -1.109014078974723816e-02 1.338653266429901123e-02 2.470979234203696251e-04 -5.698603577911853790e-03 1.734059117734432220e-02 3.813649993389844894e-03 -6.037102080881595612e-03 1.686308882199227810e-03 -2.712648175656795502e-02 6.339228129945695400e-04 -3.363896030350588262e-05 6.689198780804872513e-03 1.125023048371076584e-02 1.306987367570400238e-02 3.567757084965705872e-03 -7.486288435757160187e-03 7.260217797011137009e-03 -1.908823288977146149e-02 6.455786991864442825e-03 9.348429739475250244e-03 -1.363562606275081635e-02 5.946321878582239151e-03 -2.468788763508200645e-03 -4.811030812561511993e-03 4.186146892607212067e-03 -2.574720885604619980e-03 4.899780265986919403e-03 7.828149944543838501e-03 -7.977762259542942047e-03 -6.734348367899656296e-03 1.900943741202354431e-02 -1.345654204487800598e-02 -9.682819247245788574e-03 1.466749049723148346e-02 -3.999044187366962433e-03 1.459124311804771423e-02 1.208175066858530045e-02 7.523691747337579727e-03 1.189303956925868988e-02 -4.725268576294183731e-03 2.421086886897683144e-03 1.186155900359153748e-02 -3.242909908294677734e-03 1.170624140650033951e-02 1.212651468813419342e-02 1.037381589412689209e-02 7.052834611386060715e-03 1.552885957062244415e-02 8.920228108763694763e-03 3.653290215879678726e-03 -1.662397943437099457e-02 1.898643374443054199e-02 7.149338722229003906e-03 -1.579171791672706604e-02 2.905423985794186592e-03 1.218464225530624390e-03 8.792162872850894928e-03 -9.639534167945384979e-03 1.938249479280784726e-04 8.542237803339958191e-03 -1.018017251044511795e-02 1.314301416277885437e-02 -1.902275718748569489e-02 1.456427015364170074e-02 5.006983992643654346e-04 -1.022094674408435822e-02 -3.277354640886187553e-03 6.224874872714281082e-03 -9.071267209947109222e-03 2.175674540922045708e-03 5.151939112693071365e-03 -7.609390653669834137e-03 3.533610142767429352e-04 3.874433925375342369e-03 -8.261725306510925293e-03 -2.743706805631518364e-03 9.708039462566375732e-03
1.262531988322734833e-02 -7.626935373991727829e-03 -1.411072677001357079e-03 1.389639335684478283e-03 3.376545151695609093e-03 1.313796819886192679e-04 -2.755338093265891075e-03 -3.960225731134414673e-03 1.564492657780647278e-02 -1.200910774059593678e-03 -5.130669102072715759e-03 -7.704808842390775681e-03 9.330941364169120789e-03 -4.150805994868278503e-03 -1.248558796942234039e-02 1.924147130921483040e-03 -8.100491017103195190e-03 -4.049329087138175964e-03 8.177859708666801453e-03 4.374014679342508316e-03 1.859801635146141052e-02 -6.028696428984403610e-03 9.267236106097698212e-03 -3.169514471665024757e-03 8.731247857213020325e-03 1.071815099567174911e-02 -8.271188475191593170e-03 4.001933149993419647e-03 3.824564861133694649e-03 4.878277424722909927e-03 3.325622295960783958e-03 9.628434665501117706e-03 1.440560724586248398e-02 -5.935601890087127686e-03 -1.172498892992734909e-02 -1.500062737613916397e-02 2.976824063807725906e-03 7.132367230951786041e-03 -7.568125613033771515e-03 -9.274157695472240448e-03 7.880904711782932281e-03 6.027888506650924683e-03 -3.715407336130738258e-03 4.792838823050260544e-03 -1.540231634862720966e-03 -5.074723158031702042e-03 5.481173284351825714e-03 -1.208150177262723446e-03 -1.245871069841086864e-03 -7.869391702115535736e-03 4.391092341393232346e-03 -3.576253948267549276e-04 3.244234714657068253e-03 -3.181477950420230627e-04 7.369717350229620934e-04 -5.260204430669546127e-03 5.239133257418870926e-03 -7.069896906614303589e-03 5.889496766030788422e-03 1.363023836165666580e-02 -2.824575873091816902e-03 -1.853474648669362068e-03 7.078234106302261353e-03 -2.944481559097766876e-03 4.760575015097856522e-03 -4.227811004966497421e-03 -2.284123795107007027e-03 1.274845213629305363e-03 -1.217858307063579559e-02 5.127085372805595398e-03 1.278966665267944336e-02 7.204256020486354828e-03 1.159255113452672958e-02 9.843111038208007812e-03 -3.211516886949539185e-03 3.826064523309469223e-03 8.148929919116199017e-04 2.368306973949074745e-03 5.271431989967823029e-03 1.117941923439502716e-03 1.283508841879665852e-03 6.463313009589910507e-03 -1.332269050180912018e-02 3.894121618941426277e-03 -1.379415020346641541e-02 9.894733317196369171e-03 -1.886314130388200283e-03 -1.135550905019044876e-02 -1.466741226613521576e-02 4.447820130735635757e-03 4.476070869714021683e-03 5.730542819947004318e-03 -1.065963227301836014e-02 3.123964881524443626e-03 -1.141508109867572784e-02 -3.501614322885870934e-03 -1.134121674112975597e-03 8.836165070533752441e-03 1.679990068078041077e-02 -1.219774363562464714e-03 6.567484233528375626e-03 -1.998282410204410553e-02 -1.396142877638339996e-03 7.742721587419509888e-03 -6.455064285546541214e-03 2.114601247012615204e-02 2.169217681512236595e-03 8.032111451029777527e-03 -7.372894790023565292e-03 -3.251118818297982216e-03 4.661316517740488052e-03 -5.829571164213120937e-04 -8.094778284430503845e-03 -9.148871758952736855e-04 -1.593730412423610687e-03 -6.520896218717098236e-03 -3.462036838755011559e-03 -1.370083261281251907e-02 4.439177457243204117e-03 -1.899278722703456879e-02 -5.788869457319378853e-04 -1.476717065088450909e-03 -2.798653673380613327e-03 1.320499693974852562e-03 1.537834643386304379e-03 7.458885083906352520e-04 5.123232956975698471e-03 -1.196236722171306610e-02 -1.803450472652912140e-02 -9.953920962288975716e-04 -3.234977484680712223e-04 -5.707242060452699661e-03 7.515855599194765091e-03 -1.205862220376729965e-02 1.384160295128822327e-02 5.913587752729654312e-03 1.340310554951429367e-02 -3.122853813692927361e-03 1.091383956372737885e-02 -1.040773279964923859e-02 -6.894848775118589401e-03 -2.369880862534046173e-02 7.572122383862733841e-03 -3.620605682954192162e-03 -1.482997555285692215e-02 -2.210657298564910889e-02 1.474504079669713974e-02 5.546609405428171158e-03 1.553458394482731819e-03 -3.667513141408562660e-03 -7.766088936477899551e-03 -6.503020413219928741e-03 8.730557165108621120e-04 -2.167108468711376190e-03 1.232854090631008148e-02 1.340732706012204289e-05 2.343943342566490173e-03 5.167809315025806427e-03 4.906185902655124664e-03 -5.812917370349168777e-04 6.327408482320606709e-04 1.804186846129596233e-03 -1.149617892224341631e-04 5.521464161574840546e-03 -6.380708422511816025e-03 1.169045176357030869e-02 -6.743125151842832565e-03 1.002969779074192047e-02 -5.133129190653562546e-03 -9.747080504894256592e-03 9.072232060134410858e-03 7.711391430348157883e-03 1.920936279930174351e-03 -2.834947081282734871e-03 -3.180031199008226395e-03 1.449555344879627228e-02 -3.379505360499024391e-03 9.200004860758781433e-03 4.634418059140443802e-03 2.693440997973084450e-03 1.888373121619224548e-02 1.109291054308414459e-02 -5.231139715760946274e-03 -6.354943383485078812e-03 -4.996774718165397644e-03 5.274599883705377579e-03 9.086414240300655365e-03 -6.077129859477281570e-03 3.083429066464304924e-03 1.518557313829660416e-02 -1.141015440225601196e-03 -1.171420910395681858e-03 3.111751750111579895e-03 -1.318483380600810051e-03 -2.757973736152052879e-03 -1.816044934093952179e-02 -7.334487512707710266e-03 -7.587129250168800354e-03 1.041164994239807129e-02 1.868651597760617733e-03 -1.521066064015030861e-03 -1.398069900460541248e-03 1.814653514884412289e-03 -2.027279324829578400e-02 -6.461322773247957230e-03 -5.968060810118913651e-03 -6.104109343141317368e-03 -7.919685915112495422e-03 -2.647215733304619789e-03 1.049836631864309311e-02 2.940331585705280304e-03 -5.051942542195320129e-03 3.681238042190670967e-03 -2.920279279351234436e-03 -1.643620082177221775e-03 -1.076278835535049438e-02 2.711627632379531860e-03 9.417200461030006409e-03 -3.547392319887876511e-03 5.009501241147518158e-03 -9.106977377086877823e-04 7.097474008332937956e-05 6.269608158618211746e-03 -1.712400699034333229e-03 1.764813065528869629e-02 2.004914171993732452e-02 1.070310609065927565e-04 1.333377091214060783e-03 7.380795665085315704e-03 -5.822462029755115509e-03 1.331178005784749985e-02 2.401196863502264023e-03 -1.847889088094234467e-02 -5.883326753973960876e-03 4.078662488609552383e-03 -3.183034015819430351e-03 5.199735984206199646e-03 -5.759916268289089203e-03 6.786632584407925606e-04 -3.629151964560151100e-03 9.839615784585475922e-03 -1.547198183834552765e-02 -7.893960922956466675e-03 -8.588276803493499756e-03 -1.521569211035966873e-02 -1.374949235469102859e-02 -1.813166774809360504e-03 4.377536941319704056e-03 1.240154542028903961e-02 -5.727194948121905327e-04 1.540041412226855755e-03 5.184413865208625793e-03 8.434747345745563507e-03 5.127542652189731598e-03 2.389407018199563026e-03 -5.811010021716356277e-03
6.460334639996290207e-03 -1.947707869112491608e-02 -8.081652224063873291e-03 3.508894005790352821e-03 -8.054035715758800507e-03 6.421484984457492828e-03 -6.156987510621547699e-03 -7.416302803903818130e-03 -7.912623696029186249e-03 -9.486100170761346817e-04 8.360533043742179871e-03 4.319295752793550491e-03 5.288533866405487061e-03 4.121341742575168610e-03 1.233510393649339676e-02 6.128239445388317108e-03 8.369929157197475433e-03 3.523912746459245682e-03 -1.480699889361858368e-02 2.405490493401885033e-03 -8.703529834747314453e-03 -6.280037632677704096e-05 3.851732937619090080e-03 2.062144922092556953e-03 -6.183220539242029190e-03 7.738010492175817490e-03 1.149583980441093445e-02 1.190525246784090996e-03 1.370611134916543961e-02 -5.972948390990495682e-03 1.529648527503013611e-02 -9.620103053748607635e-03 -2.283150563016533852e-03 -8.343539200723171234e-03 7.549175061285495758e-03 8.968408219516277313e-03 -1.075680647045373917e-02 3.301479620859026909e-03 -1.206268556416034698e-02 1.338120643049478531e-02 -1.291657611727714539e-02 -3.173863515257835388e-03 1.173076452687382698e-03 5.003631580621004105e-03 1.978887617588043213e-02 1.985431835055351257e-02 -1.091385539621114731e-02 5.055988207459449768e-03 -1.407504896633327007e-03 2.289520925842225552e-04 1.248674280941486359e-02 -6.046389462426304817e-04 8.037760853767395020e-03 9.673999622464179993e-03 5.923048127442598343e-03 -1.082909526303410530e-03 1.272582216188311577e-03 1.187103334814310074e-02 9.696030989289283752e-03 -1.655982062220573425e-02 3.323782468214631081e-03 7.113243336789309978e-04 1.945999450981616974e-02 -4.644690081477165222e-03 -1.288497704081237316e-03 -1.016685273498296738e-02 3.686051582917571068e-03 4.141582176089286804e-03 -6.892212666571140289e-03 2.317643491551280022e-03 -2.204427262768149376e-03 -1.020098011940717697e-02 -7.786357309669256210e-03 8.395287208259105682e-03 6.589323282241821289e-03 1.094630174338817596e-02 6.518728565424680710e-03 -1.069850940257310867e-02 -3.350706538185477257e-03 8.618785068392753601e-03 4.217926878482103348e-03 7.331189699470996857e-03 -1.942065544426441193e-02 2.281892113387584686e-03 -1.698401011526584625e-02 -3.453119425103068352e-03 -9.803136344999074936e-04 6.038090214133262634e-04 -3.773918841034173965e-03 -8.999406360089778900e-03 -1.842628262238577008e-04 2.512830123305320740e-02 -2.628535032272338867e-03 -2.541457768529653549e-03 9.323823265731334686e-03 5.348844453692436218e-03 1.317240647040307522e-03 -4.057326819747686386e-03 4.801489412784576416e-03 -5.629543680697679520e-03 1.021319627761840820e-02 -5.088448058813810349e-03 2.120035141706466675e-02 6.405051331967115402e-03 -9.804702131077647209e-04 -6.116857286542654037e-03 -9.200048516504466534e-04 1.326807867735624313e-02 5.164590664207935333e-03 -1.905596232973039150e-03 6.581696798093616962e-04 8.689488284289836884e-03 6.743555422872304916e-03 8.478352538077160716e-05 -8.664381690323352814e-03 -4.891989752650260925e-03 -1.022674143314361572e-02 -3.991411533206701279e-03 -1.342963892966508865e-02 -1.061242073774337769e-02 9.198558400385081768e-04 -7.881883531808853149e-03 3.396579762920737267e-03 7.764191832393407822e-03 2.709488850086927414e-03 1.071031112223863602e-02 3.106788499280810356e-03 1.805626973509788513e-02 -4.019706510007381439e-03 5.484488327056169510e-03 4.644486587494611740e-03 -3.634012304246425629e-03 -1.712294993922114372e-03 1.306571648456156254e-03 2.785104559734463692e-03 -5.786955589428544044e-04 4.644057771656662226e-04 -1.003768388181924820e-02 -7.348274346441030502e-03 3.160640597343444824e-03 1.263348385691642761e-04 -2.906731329858303070e-03 -1.094772573560476303e-02 6.012589205056428909e-03 -1.004341407679021358e-03 -3.247354645282030106e-03 -1.968610659241676331e-02 9.399463306181132793e-04 3.100648289546370506e-03 -2.234272658824920654e-03 1.238313503563404083e-03 -1.202916912734508514e-02 -8.406061624555150047e-07 4.601684864610433578e-03 8.197146817110478878e-04 -1.208135858178138733e-03 -6.101301871240139008e-03 4.622899461537599564e-03 -5.557461176067590714e-03 6.304446607828140259e-03 -2.029415685683488846e-03 6.041782908141613007e-03 8.270222693681716919e-03 3.863601712509989738e-03 -1.677293330430984497e-03 -3.123445669189095497e-03 6.107876077294349670e-03 -4.322190303355455399e-03 7.165120914578437805e-03 8.745721541345119476e-03 -3.717755200341343880e-03 -2.311951713636517525e-03 -1.099614892154932022e-02 -4.033842589706182480e-03 5.422419868409633636e-03 -1.536106457933783531e-03 2.903467277064919472e-03 8.102948777377605438e-04 1.390071492642164230e-02 3.029099199920892715e-03 1.406489592045545578e-02 6.822250317782163620e-03 9.655538015067577362e-03 1.257006637752056122e-02 1.035201130434870720e-03 -8.297464810311794281e-03 -6.381858605891466141e-03 -3.802907653152942657e-03 -3.785100067034363747e-03 -1.221464108675718307e-02 4.419531207531690598e-03 7.000988349318504333e-03 7.258995436131954193e-03 -2.894261619076132774e-03 -1.515198498964309692e-03 1.906359940767288208e-02 -9.263934567570686340e-03 1.840574783273041248e-03 1.110818143934011459e-02 8.557774126529693604e-03 -1.455384213477373123e-02 -8.153323084115982056e-03 3.089990932494401932e-03 -5.497829522937536240e-03 -1.076137460768222809e-02 9.700407274067401886e-03 3.525137901306152344e-02 2.972865477204322815e-03 3.097481327131390572e-03 -5.517158657312393188e-03 5.234882235527038574e-03 1.402494526701048017e-04 -5.236443132162094116e-03 9.516111575067043304e-03 8.418666198849678040e-03 -2.842897374648600817e-04 2.248136326670646667e-03 2.768834820017218590e-03 2.836282365024089813e-02 -2.405638108029961586e-03 8.211844833567738533e-04 -6.765619385987520218e-03 1.956844935193657875e-03 9.063634090125560760e-03 4.958950914442539215e-03 -1.010289043188095093e-02 -4.321564483689144254e-05 1.097387913614511490e-02 2.104930579662322998e-03 -2.470752783119678497e-02 5.173488985747098923e-03 -1.648447127081453800e-03 9.612999856472015381e-03 -4.826493095606565475e-03 1.505623292177915573e-02 -8.393141441047191620e-03 -1.458863820880651474e-02 -1.690527657046914101e-03 -3.048550337553024292e-03 -8.982300758361816406e-03 1.223728246986865997e-02 -7.480505853891372681e-03 -8.913123980164527893e-03 5.368827376514673233e-03 7.580268720630556345e-05 -7.808270864188671112e-03 2.007020451128482819e-02 -5.539376288652420044e-03 1.400108332745730877e-03 1.970376633107662201e-02 -6.116809323430061340e-03 -1.635239459574222565e-02 6.789919920265674591e-03 1.544322003610432148e-04 8.474875357933342457e-04 5.392382387071847916e-03
-2.536416519433259964e-03 3.308169078081846237e-03 2.389841247349977493e-03 -1.115897297859191895e-02 -8.018104359507560730e-03 -4.817967303097248077e-03 2.029221737757325172e-03 -7.177485153079032898e-03 -2.203984418883919716e-03 -5.585362669080495834e-03 3.875787137076258659e-03 -4.156231880187988281e-03 -1.735004945658147335e-03 3.511323360726237297e-03 2.104339562356472015e-02 6.917125079780817032e-03 1.569757051765918732e-02 -4.556462634354829788e-03 -8.056221529841423035e-03 -6.827612407505512238e-03 6.183359771966934204e-03 -1.271795365028083324e-03 1.863367483019828796e-02 1.477543613873422146e-03 -1.196115557104349136e-02 -3.794430987909436226e-03 -1.775533775798976421e-03 -5.888457235414534807e-05 1.042641885578632355e-02 1.267225854098796844e-02 6.615594029426574707e-03 -5.730551201850175858e-03 -8.493535220623016357e-03 -2.437150571495294571e-03 -5.434422055259346962e-04 1.070397719740867615e-02 -7.917286711744964123e-04 1.592492312192916870e-02 -1.415715925395488739e-02 5.488344002515077591e-03 -1.047547627240419388e-02 -3.809137968346476555e-03 3.012234345078468323e-03 5.397960543632507324e-03 -7.550255395472049713e-03 6.313030607998371124e-03 -3.754102857783436775e-03 1.103719510138034821e-02 -1.707658288069069386e-03 -1.044639945030212402e-02 -8.053995668888092041e-03 -5.554308649152517319e-03 -1.532970345579087734e-03 5.282419268041849136e-03 4.740018397569656372e-03 5.581605248153209686e-03 -3.102255286648869514e-03 1.138928346335887909e-02 -3.614671761170029640e-03 3.962098155170679092e-03 9.588430635631084442e-03 -6.344310939311981201e-03 -6.534354295581579208e-03 -9.485476650297641754e-03 2.567586721852421761e-03 -6.205939687788486481e-03 1.186674553900957108e-02 4.402895458042621613e-03 -3.661036491394042969e-03 -8.952908217906951904e-03 -4.894580692052841187e-03 -1.359913777559995651e-02 -1.126603130251169205e-02 -9.130926802754402161e-03 -1.233811303973197937e-02 -9.704835829325020313e-04 -2.266314439475536346e-02 -9.949929080903530121e-03 5.956481676548719406e-03 -4.178911622148007154e-04 5.818265024572610855e-03 1.918734796345233917e-02 -4.417167045176029205e-03 3.582276985980570316e-04 -1.698378659784793854e-02 8.118798956274986267e-03 6.012351950630545616e-04 -3.524441970512270927e-03 -2.900446532294154167e-03 -8.394584292545914650e-04 9.579366073012351990e-03 -1.408589724451303482e-02 -2.954907948151230812e-03 -7.135980413295328617e-04 1.585191464982926846e-03 5.971209611743688583e-03 2.278367988765239716e-03 3.595533547922968864e-03 -1.458206214010715485e-02 -5.074259825050830841e-03 -4.671182017773389816e-03 -9.995532454922795296e-04 1.889223465695977211e-03 2.920379862189292908e-03 -2.426266437396407127e-03 -1.081975176930427551e-03 3.289177548140287399e-03 8.929735631681978703e-04 -3.037347923964262009e-03 -9.517414495348930359e-03 -5.673900712281465530e-03 -5.453265272080898285e-03 1.572893932461738586e-02 -9.544498287141323090e-03 7.291822694242000580e-04 1.399653311818838120e-02 -6.709001492708921432e-03 9.250635048374533653e-04 1.839522039517760277e-03 5.368641577661037445e-03 -5.713982507586479187e-03 -1.443044655025005341e-02 1.186546869575977325e-03 3.957778681069612503e-03 -2.145117893815040588e-02 3.557982854545116425e-03 3.868994535878300667e-04 2.367321634665131569e-03 6.823780480772256851e-03 2.203776501119136810e-03 -1.339027658104896545e-03 9.089219383895397186e-03 1.390579505823552608e-03 -1.155974902212619781e-02 4.230530001223087311e-03 7.716932334005832672e-03 6.872353143990039825e-03 8.456430514343082905e-04 -8.430220186710357666e-03 1.111835055053234100e-02 3.375572850927710533e-03 2.178972400724887848e-02 -4.194809123873710632e-03 7.451848592609167099e-03 7.858498953282833099e-03 -3.466105554252862930e-03 9.532828815281391144e-03 1.124197896569967270e-02 3.774310927838087082e-03 7.094678469002246857e-03 8.116345852613449097e-03 -4.058759193867444992e-03 6.311129312962293625e-03 -1.260809786617755890e-02 -1.934473589062690735e-02 -1.061011571437120438e-02 -6.034564692527055740e-03 -9.988994337618350983e-03 2.949023619294166565e-03 3.428495721891522408e-03 1.586407050490379333e-02 7.937880232930183411e-03 1.881541917100548744e-03 1.476204372011125088e-03 -7.385515607893466949e-03 2.057899720966815948e-02 8.739024400711059570e-03 1.146230008453130722e-02 1.314050424844026566e-02 -5.961722694337368011e-03 5.413519684225320816e-03 -8.927267044782638550e-03 3.752482589334249496e-03 -9.985009819502010942e-05 3.863089485093951225e-03 1.422089338302612305e-02 1.060025952756404877e-02 6.641075597144663334e-04 -1.487191999331116676e-03 -2.545748371630907059e-03 1.081307418644428253e-02 -9.323420003056526184e-03 2.108430257067084312e-03 -7.217431440949440002e-03 1.987778767943382263e-02 3.439043182879686356e-03 -6.933213677257299423e-03 -1.257246767636388540e-04 1.111591979861259460e-02 -4.087368026375770569e-03 -6.029176060110330582e-03 -1.132889930158853531e-02 -1.191398501396179199e-02 8.408120833337306976e-03 1.779340021312236786e-02 -8.775394409894943237e-03 1.662831753492355347e-02 -5.567809101194143295e-03 -6.919603947608266026e-06 -1.853693625889718533e-03 -1.998263597488403320e-02 1.403982564806938171e-02 -4.791400395333766937e-03 -7.201963453553617001e-04 -8.508762344717979431e-03 7.172957062721252441e-03 -5.121338646858930588e-03 -1.031591743230819702e-02 1.063452195376157761e-02 1.800575293600559235e-02 -8.510118350386619568e-03 4.843961913138628006e-03 -4.045418929308652878e-03 -6.587290205061435699e-03 7.492607925087213516e-03 3.559428500011563301e-03 -2.813622355461120605e-03 -8.675591088831424713e-03 -1.733278390020132065e-03 1.395217794924974442e-02 9.313309565186500549e-03 4.795063287019729614e-03 -1.680102571845054626e-02 -3.518164448905736208e-04 -7.696585729718208313e-03 -1.070701109711080790e-04 2.245592419058084488e-03 -9.697924368083477020e-03 5.883923731744289398e-03 1.968281576409935951e-03 4.013353958725929260e-03 4.208365455269813538e-03 -2.032774034887552261e-03 -2.556118648499250412e-03 2.275643404573202133e-03 -3.017807146534323692e-03 -1.088962610810995102e-02 -7.233005017042160034e-03 5.919736810028553009e-03 3.377997083589434624e-03 -1.671092025935649872e-02 -6.040697917342185974e-03 9.568695095367729664e-04 5.187899805605411530e-03 -3.651537466794252396e-03 8.522960357367992401e-03 -4.499544389545917511e-03 8.609901182353496552e-03 1.057381625287234783e-03 -7.482259999960660934e-03 -9.017767384648323059e-03 -8.757279254496097565e-03 3.848572028800845146e-03 -1.089989952743053436e-02 7.996687665581703186e-03 1.553268823772668839e-02
