-5.277253687381744385e-02 5.371858552098274231e-02 -7.050438225269317627e-02 4.122873023152351379e-02 1.048245131969451904e-01 8.567107841372489929e-03 2.365744858980178833e-02 2.398621439933776855e-01 -6.970180571079254150e-02 9.261506795883178711e-02 -3.190130461007356644e-03 2.899521589279174805e-02 -1.371855288743972778e-01 5.394612997770309448e-02 1.384685337543487549e-01 -3.862838819622993469e-02 -3.854134678840637207e-02 2.191155999898910522e-01 -1.118676457554101944e-02 1.101261749863624573e-01 -5.420472472906112671e-02 -3.788386657834053040e-02 9.362900257110595703e-02 9.287600964307785034e-02 6.419592350721359253e-02 -1.835951767861843109e-02 -4.135362058877944946e-02 1.739769242703914642e-02 -1.060603465884923935e-02 -5.629832670092582703e-02 -6.680257618427276611e-02 -7.316225767135620117e-02 -5.771224573254585266e-02 4.503234848380088806e-02 2.199083380401134491e-02 -2.970998175442218781e-02 -8.631197735667228699e-03 9.500115364789962769e-02 -5.572155117988586426e-02 1.881471835076808929e-02 -2.331461012363433838e-02 -8.918636292219161987e-02 7.487906515598297119e-02 4.754065722227096558e-02 8.793480694293975830e-03 4.276544973254203796e-02 2.069422043859958649e-02 -5.438494309782981873e-02 6.782892346382141113e-02 1.230778917670249939e-01 -7.643096894025802612e-02 -1.267478913068771362e-01 -1.472832858562469482e-01 -8.550692349672317505e-02 -4.998727235943078995e-03 1.437866985797882080e-01 -7.481443881988525391e-02 2.410939522087574005e-02 -1.886452138423919678e-01 -7.337263971567153931e-02 -2.276605926454067230e-02 6.265147775411605835e-02 2.713304385542869568e-02 1.521150767803192139e-01 -1.224523559212684631e-01 1.408507227897644043e-01 -9.318462014198303223e-02 -4.292180016636848450e-02 -5.958730354905128479e-02 1.087578088045120239e-01 -1.806080527603626251e-02 1.361455172300338745e-01 -9.921913594007492065e-02 3.129763156175613403e-02 2.003995031118392944e-01 -1.164165437221527100e-01 -9.062094986438751221e-02 6.023371592164039612e-02 8.484500646591186523e-02 4.848944372497498989e-04 1.105037108063697815e-01 3.459171392023563385e-03 1.346807111985981464e-03 2.526935636997222900e-01 3.953996114432811737e-03 1.087457016110420227e-01 -1.850642077624797821e-02 -1.381867527961730957e-01 9.540410339832305908e-02 -1.241695806384086609e-01 3.411635756492614746e-02 -6.244708225131034851e-02 -1.068443059921264648e-01 -4.313109815120697021e-02 -6.895674765110015869e-02 1.296516973525285721e-02 -8.188042789697647095e-02 2.714647725224494934e-02 -1.463396549224853516e-01 -9.331902489066123962e-03 -1.973172649741172791e-02 1.467197109013795853e-02 8.328828029334545135e-03 -4.395793750882148743e-02 -3.922025114297866821e-02 -4.214693605899810791e-02 -6.725957989692687988e-02 8.238336443901062012e-02 -1.286572068929672241e-01 1.269832402467727661e-01 -5.013597011566162109e-02 -1.834273710846900940e-02 4.255814105272293091e-02 5.054011195898056030e-02 -9.938706457614898682e-02 7.040613796561956406e-03 8.409572392702102661e-02 -6.439298391342163086e-02 1.031255442649126053e-02 1.676411777734756470e-01 4.815936088562011719e-02 1.360896676778793335e-01 5.148669332265853882e-02 -8.143638074398040771e-02 7.314237207174301147e-02 1.431808248162269592e-02 6.362526118755340576e-02 -1.026600822806358337e-01 6.390103697776794434e-02 -6.253043562173843384e-02 6.546548753976821899e-02 -5.311890505254268646e-03 7.427582889795303345e-02 -7.563928514719009399e-02 -3.401878103613853455e-02 -4.474171623587608337e-02 -4.980941489338874817e-02 4.222562164068222046e-02 2.745157107710838318e-02 7.813680917024612427e-02 1.878394931554794312e-01 -3.918623924255371094e-02 -1.090158671140670776e-01 6.101540476083755493e-02 3.375850617885589600e-02 -9.488361328840255737e-02 5.624807998538017273e-02 -1.842113137245178223e-01 9.468618780374526978e-02 5.281312763690948486e-02 -1.184520646929740906e-01 -2.585908956825733185e-02 9.035518765449523926e-02 -7.736208499409258366e-04 6.557437032461166382e-02 6.310771405696868896e-02 -8.577670156955718994e-02 -9.416161105036735535e-03 9.473372250795364380e-02 -3.217184916138648987e-02 -1.491894423961639404e-01 -3.232571482658386230e-02 -2.796263396739959717e-01 7.026681303977966309e-02 1.810705214738845825e-01 2.240448258817195892e-02 2.848233561962842941e-03 -2.472800314426422119e-01 -3.242174908518791199e-02 3.533666208386421204e-02 -2.127786725759506226e-01 9.501888602972030640e-02 -2.312589064240455627e-02 -1.183959916234016418e-01 3.371804207563400269e-02 4.845258593559265137e-02 -1.064819395542144775e-01 7.813416421413421631e-02 1.002664640545845032e-01 -9.303213655948638916e-02 1.004385575652122498e-01 7.446216046810150146e-02 -8.139678090810775757e-02 4.657625779509544373e-02 1.521901134401559830e-02 5.785521492362022400e-02 -1.013339236378669739e-01 7.391431927680969238e-02 9.403429925441741943e-02 -7.161219418048858643e-02 -1.711638122797012329e-01 -1.336850523948669434e-01 -6.733912974596023560e-03 6.514339148998260498e-02 2.626203931868076324e-02 -6.971750408411026001e-02 -5.752953514456748962e-02 -1.125883385539054871e-01 -6.535305827856063843e-02 4.559860005974769592e-02 -4.417771100997924805e-02 9.077628701925277710e-02 -3.365477919578552246e-02 -6.504276394844055176e-02 -1.274003088474273682e-01 6.762178242206573486e-02 6.896144151687622070e-02 -6.765684811398386955e-04 7.933469489216804504e-03 7.840994000434875488e-02 1.918048039078712463e-02 -1.059512495994567871e-01 -2.629227340221405029e-01 2.093467116355895996e-02 1.825837045907974243e-01 -2.619516290724277496e-02 -9.477234631776809692e-02 1.954466104507446289e-01 -5.079526081681251526e-02 -1.531605571508407593e-01 -3.553884848952293396e-02 -1.403567045927047729e-01 6.807694584131240845e-02 1.983844675123691559e-02 1.571629196405410767e-01 -3.518475592136383057e-02 2.691663056612014771e-02 1.318729296326637268e-02 4.652736708521842957e-02 -1.286378204822540283e-01 1.152995601296424866e-01 -1.775952279567718506e-01 -7.107054442167282104e-02 -7.021879404783248901e-02 -1.455826461315155029e-01 -3.110133809968829155e-03 -1.308280676603317261e-01 3.743792697787284851e-02 1.316977143287658691e-01 -3.855373337864875793e-02 -1.109443083405494690e-01 5.007655173540115356e-02 -6.025629863142967224e-02 9.396715904586017132e-04 -1.274577826261520386e-01 1.410141885280609131e-01 -8.705686777830123901e-02 4.094152152538299561e-02 8.501756191253662109e-02 2.302317647263407707e-03 -3.929196670651435852e-02 -8.356547355651855469e-02 -2.895156294107437134e-02 4.195614531636238098e-02 -7.956548780202865601e-02 9.690599981695413589e-04
9.092879481613636017e-03 4.093753173947334290e-02 -1.001086980104446411e-01 1.245668455958366394e-01 4.266996681690216064e-02 1.115165501832962036e-01 -1.254191398620605469e-01 -6.886219978332519531e-02 3.452955186367034912e-02 9.655068069696426392e-02 -5.023757368326187134e-02 1.290601491928100586e-01 -1.652499437332153320e-01 2.582320570945739746e-02 5.015169084072113037e-02 3.471713885664939880e-02 -4.607309773564338684e-02 4.058040678501129150e-02 -2.028216607868671417e-02 -1.105752214789390564e-01 6.750828772783279419e-02 -1.364329606294631958e-01 6.573545932769775391e-02 -8.148252218961715698e-02 -1.467184536159038544e-02 8.407468348741531372e-02 -3.262975066900253296e-02 1.047965064644813538e-01 -1.589514613151550293e-01 2.896603196859359741e-02 2.432998456060886383e-02 -2.885139733552932739e-02 7.326833903789520264e-02 -3.899632766842842102e-02 -2.743706805631518364e-03 6.713701039552688599e-02 -6.961002200841903687e-02 -8.281701058149337769e-02 4.725399240851402283e-02 3.059058450162410736e-02 -3.058393299579620361e-02 2.988013997673988342e-02 1.899047195911407471e-02 -7.671843282878398895e-03 2.817166410386562347e-02 -2.217847108840942383e-01 1.226302906870841980e-01 -4.656660836189985275e-03 1.188972294330596924e-01 1.253000944852828979e-01 3.044707179069519043e-01 -5.280672013759613037e-02 -1.409490108489990234e-01 3.854704648256301880e-02 8.863455057144165039e-02 5.157705396413803101e-02 9.397280961275100708e-02 2.451210655272006989e-02 -1.670212671160697937e-02 9.775782376527786255e-02 -7.330150157213211060e-02 -1.311014592647552490e-01 -2.376396954059600830e-02 1.138124912977218628e-01 -8.387986570596694946e-03 -7.188076619058847427e-03 3.393921256065368652e-02 -7.717952597886323929e-03 1.079269573092460632e-01 2.835337445139884949e-02 6.966608017683029175e-02 -1.599623449146747589e-02 1.386504918336868286e-01 -1.206023036502301693e-03 -1.284678876399993896e-01 -1.404146701097488403e-01 1.484331488609313965e-01 5.761190131306648254e-02 -1.545215100049972534e-01 -2.732957154512405396e-02 3.864933550357818604e-02 8.945836685597896576e-03 2.359509281814098358e-02 5.731846764683723450e-02 5.084426701068878174e-02 -6.151149421930313110e-02 2.176833339035511017e-03 -4.862196370959281921e-02 -8.051168173551559448e-02 -9.240764379501342773e-02 1.105314567685127258e-01 -4.621211905032396317e-03 -1.829459220170974731e-01 -7.217789441347122192e-02 1.788305677473545074e-02 -3.180810809135437012e-01 4.332856088876724243e-02 -1.071502268314361572e-01 1.526529318653047085e-03 -5.578701570630073547e-02 2.972685545682907104e-02 -1.230689808726310730e-01 -1.867649704217910767e-02 -7.602373510599136353e-02 -7.114813476800918579e-02 2.728822454810142517e-02 -1.340383104979991913e-02 7.704408466815948486e-02 1.179365962743759155e-01 2.321847528219223022e-02 5.603530444204807281e-04 -6.471773236989974976e-02 1.382006853818893433e-01 -1.459345519542694092e-01 4.727405309677124023e-02 4.122000187635421753e-02 -3.207116574048995972e-02 -1.092865169048309326e-01 6.165818125009536743e-02 -1.299043595790863037e-01 -1.207254007458686829e-01 1.522541884332895279e-02 4.558341950178146362e-02 1.347991079092025757e-01 -7.197453081607818604e-02 1.456606686115264893e-01 -3.029892407357692719e-02 -1.509617827832698822e-02 -9.452932327985763550e-02 -1.508690789341926575e-02 5.572362989187240601e-02 1.302777230739593506e-01 1.097172200679779053e-01 -8.282674103975296021e-02 -1.406792700290679932e-01 -8.112494647502899170e-02 1.165359914302825928e-01 8.569192886352539062e-02 -5.901067331433296204e-02 -4.238621518015861511e-02 2.478050068020820618e-02 -1.410137414932250977e-01 -4.239775298628956079e-04 -2.465389110147953033e-02 -1.973723620176315308e-02 3.429313749074935913e-02 -3.006380982697010040e-02 -5.331084504723548889e-02 -1.754899881780147552e-02 1.506107747554779053e-01 -1.249880939722061157e-01 -1.011674776673316956e-01 -6.426932662725448608e-02 -9.322115778923034668e-02 6.444855034351348877e-02 -1.636936515569686890e-01 1.016073822975158691e-01 -3.103305399417877197e-02 -8.714772760868072510e-02 -6.222849339246749878e-02 5.281809344887733459e-02 3.105479851365089417e-02 -1.319227069616317749e-01 -5.195689573884010315e-02 9.028543718159198761e-03 -1.302895545959472656e-01 -6.707084178924560547e-02 5.245644599199295044e-02 -6.013301014900207520e-02 8.801925182342529297e-02 5.904908850789070129e-02 -3.695067763328552246e-02 4.725958779454231262e-02 -1.105320639908313751e-02 -5.010638386011123657e-02 2.553076744079589844e-01 1.292410045862197876e-01 -1.000172197818756104e-01 1.264850795269012451e-01 -5.512324348092079163e-02 8.524435758590698242e-02 1.043706014752388000e-01 9.505041688680648804e-02 -1.126951649785041809e-01 -5.880068615078926086e-02 -5.097137391567230225e-02 -1.739126257598400116e-02 2.159794121980667114e-01 -1.244823113083839417e-01 1.218831837177276611e-01 -5.969627201557159424e-02 -1.409761514514684677e-02 3.584844246506690979e-02 5.064937099814414978e-02 -4.111811576876789331e-04 -1.346906274557113647e-01 -6.641529500484466553e-02 -2.023718552663922310e-03 6.898017227649688721e-02 6.884694844484329224e-02 1.303562372922897339e-01 -1.426055133342742920e-01 1.023286879062652588e-01 -2.678181231021881104e-02 1.211678907275199890e-01 4.356589540839195251e-02 2.551715355366468430e-03 7.897234521806240082e-03 4.245780035853385925e-02 1.074045673012733459e-01 -9.137765318155288696e-02 -6.388943642377853394e-02 -1.465965900570154190e-02 -9.182992577552795410e-02 1.093328446149826050e-01 -7.219158858060836792e-02 1.434819251298904419e-01 -9.259105427190661430e-04 -1.211533248424530029e-01 1.329866424202919006e-02 -5.336214229464530945e-02 1.070706993341445923e-01 -4.971449077129364014e-02 1.344675850123167038e-02 4.254535585641860962e-02 -1.062983721494674683e-01 -1.681015454232692719e-02 -1.718000881373882294e-02 3.824924677610397339e-02 1.087940111756324768e-01 -4.639780893921852112e-02 1.184089407324790955e-01 2.149709314107894897e-02 1.392653435468673706e-01 -1.533397436141967773e-01 -6.850773841142654419e-02 8.284270763397216797e-02 1.353050582110881805e-02 1.316415965557098389e-01 6.636530626565217972e-03 -6.885113567113876343e-02 -2.170444130897521973e-01 5.738545581698417664e-02 5.231937393546104431e-02 2.173228748142719269e-02 -3.961101919412612915e-02 -1.208984553813934326e-01 1.151188183575868607e-02 -2.058696001768112183e-01 1.468930095434188843e-01 6.725027412176132202e-02 -2.501198835670948029e-02 2.317180782556533813e-01 1.152527406811714172e-01 -3.947365656495094299e-02 1.036870554089546204e-01
4.020256921648979187e-02 1.985822767019271851e-01 -2.624142728745937347e-02 4.314024746417999268e-02 4.599919915199279785e-02 -1.251548528671264648e-03 1.534570157527923584e-01 -5.749981477856636047e-02 1.171940267086029053e-01 -5.003343895077705383e-02 1.133971512317657471e-01 1.048931479454040527e-01 8.729748427867889404e-02 -1.901713013648986816e-01 -1.375442836433649063e-02 4.642630368471145630e-02 -1.405692100524902344e-01 -3.238796070218086243e-02 -1.179347932338714600e-01 -5.883106589317321777e-02 6.678065657615661621e-02 1.160264536738395691e-01 -4.895960539579391479e-02 -3.552222996950149536e-02 3.268766030669212341e-02 -9.661362320184707642e-02 -1.940679852850735188e-03 1.825207099318504333e-02 8.092310279607772827e-02 -3.482126444578170776e-02 5.022746324539184570e-02 5.159913375973701477e-02 2.427546074613928795e-03 -7.497727870941162109e-02 1.635193526744842529e-01 2.226802147924900055e-02 9.087421745061874390e-02 5.943999160081148148e-03 4.840526357293128967e-02 -2.411720454692840576e-01 1.931739151477813721e-01 -5.282387137413024902e-03 6.499528139829635620e-02 9.562707692384719849e-02 2.724670991301536560e-02 -2.439016476273536682e-02 -1.041411459445953369e-01 -9.866456687450408936e-02 1.282211095094680786e-01 -7.715823501348495483e-02 8.991438895463943481e-02 2.946730889379978180e-02 2.413662075996398926e-01 -1.058861911296844482e-01 8.715251088142395020e-02 -1.007814407348632812e-01 1.220691129565238953e-01 -5.847710371017456055e-02 1.413069963455200195e-01 1.238674446940422058e-01 -7.949172519147396088e-03 1.951905041933059692e-01 2.744030393660068512e-02 7.328401505947113037e-02 1.142480522394180298e-01 -9.302067756652832031e-02 -1.237284168601036072e-01 5.383452773094177246e-02 2.239149063825607300e-02 -4.557363688945770264e-02 -1.710965633392333984e-01 -1.188089102506637573e-01 -6.395614892244338989e-02 9.579992294311523438e-02 -1.660488918423652649e-02 9.661708772182464600e-02 3.194564953446388245e-02 -8.972945809364318848e-02 1.342014223337173462e-01 -8.751819282770156860e-02 -1.113934442400932312e-01 1.615460664033889771e-01 4.552615061402320862e-02 -2.289713732898235321e-02 -8.362527191638946533e-02 -1.223334018141031265e-02 -2.392043322324752808e-01 6.035364419221878052e-02 -1.272144168615341187e-01 1.461106073111295700e-02 -9.032611548900604248e-02 -5.322654917836189270e-02 -5.204862728714942932e-02 -8.771119266748428345e-02 9.419608861207962036e-02 7.022743672132492065e-02 6.421159207820892334e-02 -6.527230888605117798e-02 -2.796101942658424377e-02 -4.731202963739633560e-03 -1.518053904874250293e-04 5.630531534552574158e-02 -4.901452362537384033e-02 -1.374763101339340210e-01 -4.456800874322652817e-03 -1.030661538243293762e-01 -9.858703613281250000e-02 4.444908350706100464e-02 -4.986246675252914429e-02 7.630486041307449341e-02 1.634397171437740326e-02 -5.604483932256698608e-02 1.487487703561782837e-01 8.217248320579528809e-02 -5.277863517403602600e-02 6.202195957303047180e-02 -1.045836657285690308e-01 8.020874112844467163e-02 -1.341222040355205536e-02 7.742736488580703735e-02 -1.087103486061096191e-01 9.667647629976272583e-02 -1.002384573221206665e-01 1.021378487348556519e-01 5.398799851536750793e-02 2.941568195819854736e-02 4.737469181418418884e-02 2.041779905557632446e-01 -4.938010498881340027e-02 9.946650266647338867e-02 1.087184324860572815e-01 6.924000382423400879e-02 -2.054755203425884247e-02 -1.275590509176254272e-01 7.785103470087051392e-02 3.814509883522987366e-02 -7.652027904987335205e-02 2.240388467907905579e-02 -1.094922646880149841e-01 1.123075038194656372e-01 7.260596752166748047e-02 -1.306815296411514282e-01 5.722979828715324402e-02 5.572977289557456970e-02 6.987174041569232941e-03 4.792865738272666931e-02 -8.965345472097396851e-02 -2.114132232964038849e-02 9.386104345321655273e-02 -7.290672510862350464e-02 -2.973943948745727539e-02 -4.444213211536407471e-02 4.375605657696723938e-02 8.344435691833496094e-02 1.389719918370246887e-02 -1.290408968925476074e-01 4.763267189264297485e-02 -5.342787131667137146e-02 -8.063587360084056854e-03 -8.303138613700866699e-02 -2.890514396131038666e-02 -3.744343668222427368e-02 -4.543305188417434692e-02 -6.594504695385694504e-03 -1.504052523523569107e-02 -8.656315505504608154e-02 2.803856879472732544e-02 -1.144768968224525452e-01 -4.340138286352157593e-02 -5.662181600928306580e-02 -2.041296102106571198e-02 1.182413324713706970e-01 -1.460568159818649292e-01 -1.432225666940212250e-02 -7.738775759935379028e-02 -1.173914992250502110e-03 -5.612437799572944641e-02 -1.663531512022018433e-01 -3.180989250540733337e-02 4.364068619906902313e-03 -9.303327649831771851e-02 6.711744517087936401e-02 3.134078159928321838e-02 -2.825663983821868896e-02 2.731369249522686005e-02 3.475726395845413208e-02 -2.856192551553249359e-02 2.523478120565414429e-02 -5.477106198668479919e-02 -6.184388324618339539e-02 1.317786872386932373e-01 -1.567599363625049591e-02 -1.578988134860992432e-01 -2.039132565259933472e-01 8.570044487714767456e-02 -7.903923839330673218e-02 -4.748462140560150146e-02 -5.921010673046112061e-02 -3.894961997866630554e-02 1.763156503438949585e-01 7.266038656234741211e-02 1.052136495709419250e-01 7.313656061887741089e-02 1.358794271945953369e-01 1.181844770908355713e-01 3.248132765293121338e-02 -2.785718999803066254e-02 -1.235281303524971008e-02 1.738358661532402039e-02 -6.293749064207077026e-02 -7.128711789846420288e-02 5.007235333323478699e-02 6.294758524745702744e-03 2.669734507799148560e-02 1.566771864891052246e-01 -5.961692333221435547e-02 -5.785526335239410400e-02 1.856390386819839478e-01 -7.909014075994491577e-02 8.111480623483657837e-02 -7.400546222925186157e-02 -8.975721895694732666e-02 1.035776659846305847e-01 1.055919528007507324e-01 7.587291300296783447e-02 -1.044495496898889542e-02 1.595229469239711761e-02 -6.459098309278488159e-02 -3.341506421566009521e-02 -5.386367440223693848e-02 4.052725061774253845e-02 -2.925600484013557434e-02 1.004140302538871765e-01 1.086670905351638794e-01 5.261733382940292358e-02 2.078626118600368500e-02 -6.844567507505416870e-02 -2.792767807841300964e-02 1.506979465484619141e-01 -1.667888909578323364e-01 1.415846589952707291e-02 -4.946661368012428284e-02 8.225121349096298218e-02 1.264452934265136719e-01 -2.285217121243476868e-02 1.285392232239246368e-02 -6.536832451820373535e-02 -9.467483498156070709e-03 1.840739697217941284e-02 -2.467013150453567505e-01 -1.150583401322364807e-01 -3.065687790513038635e-02 3.595791384577751160e-02 -6.595756113529205322e-02 1.086620688438415527e-01 -3.864855319261550903e-02
-5.314988270401954651e-02 1.277768611907958984e-01 -9.603960812091827393e-02 1.486866325139999390e-01 -3.717225790023803711e-02 6.704444438219070435e-02 -6.959744542837142944e-02 6.151005625724792480e-02 4.626895487308502197e-02 1.272582560777664185e-01 6.991396099328994751e-02 -2.421474456787109375e-02 7.643715292215347290e-02 -1.388804167509078979e-01 1.465734690427780151e-01 -6.218229606747627258e-02 -1.394672691822052002e-01 -1.481000147759914398e-02 -9.774781763553619385e-02 1.507876515388488770e-01 7.768855988979339600e-02 1.660376973450183868e-02 2.243939973413944244e-02 -2.753494493663311005e-02 4.001423716545104980e-02 -7.482399791479110718e-02 -9.931430965662002563e-02 -8.966671675443649292e-02 7.130015175789594650e-03 -6.526606157422065735e-03 2.655204944312572479e-02 -5.711117014288902283e-02 2.857050672173500061e-02 -1.416814047843217850e-02 6.449336558580398560e-02 1.017231270670890808e-01 -1.043158248066902161e-01 -3.775240108370780945e-02 -1.832154989242553711e-01 -1.905201934278011322e-02 3.244224190711975098e-02 1.179426535964012146e-02 -2.434625774621963501e-01 1.064481958746910095e-01 -1.186979934573173523e-01 6.316261738538742065e-02 1.577818542718887329e-01 -1.461265981197357178e-01 -6.061172857880592346e-02 -4.330425057560205460e-03 8.941874839365482330e-03 1.507118940353393555e-01 -7.096131891012191772e-02 -4.726219177246093750e-02 -4.410750418901443481e-02 -1.078018471598625183e-01 4.239058867096900940e-02 -1.046921983361244202e-01 -1.695646531879901886e-02 -4.985492676496505737e-02 -1.181116253137588501e-01 4.073310643434524536e-02 -7.094293087720870972e-02 -1.551669836044311523e-02 -2.279394567012786865e-01 -2.122413367033004761e-02 -4.280566796660423279e-02 -7.334670424461364746e-02 -1.072803810238838196e-01 -5.439553037285804749e-02 -2.729183435440063477e-02 -4.752780869603157043e-02 2.716243034228682518e-04 -3.419370623305439949e-04 -3.170434385538101196e-02 4.978526756167411804e-02 -5.913701653480529785e-02 -9.774471819400787354e-02 -4.545342177152633667e-02 -7.725625485181808472e-02 4.021136835217475891e-02 1.307002305984497070e-01 -1.997921057045459747e-02 1.290631443262100220e-01 7.951953262090682983e-02 -3.522804751992225647e-02 -5.238280072808265686e-02 1.128016263246536255e-01 1.228678822517395020e-01 -2.573193237185478210e-02 1.678970605134963989e-01 7.364387065172195435e-02 -1.510211825370788574e-01 -9.055745322257280350e-04 -8.123144507408142090e-02 -1.515070814639329910e-02 3.398141264915466309e-02 1.728609055280685425e-01 2.064426802098751068e-02 -1.578370779752731323e-01 8.197727054357528687e-02 9.240406006574630737e-02 -2.846614457666873932e-02 4.784107580780982971e-02 7.312043011188507080e-02 7.761181890964508057e-02 7.070749998092651367e-02 9.748615324497222900e-03 -9.372264891862869263e-02 1.761575639247894287e-01 -1.891482807695865631e-02 4.962819814682006836e-02 1.012417450547218323e-01 5.524128675460815430e-02 3.419172391295433044e-02 -6.273942440748214722e-02 -3.213796019554138184e-02 4.844797402620315552e-02 -1.335910409688949585e-01 -1.288861781358718872e-01 -7.972665876150131226e-02 1.125372946262359619e-02 -7.639567553997039795e-02 -6.865143775939941406e-02 7.005403190851211548e-02 9.794245660305023193e-02 -7.436636835336685181e-02 -1.851043291389942169e-02 -1.480903178453445435e-01 4.816503264009952545e-03 2.762547321617603302e-02 -1.727661937475204468e-01 1.369345933198928833e-01 -1.312969923019409180e-01 -2.876587212085723877e-02 2.246014326810836792e-01 1.354158017784357071e-02 1.127024590969085693e-01 1.432026922702789307e-02 2.226553857326507568e-02 3.021086938679218292e-02 7.446248084306716919e-02 -5.079660937190055847e-02 -9.054676443338394165e-02 5.781869217753410339e-02 5.300107598304748535e-02 9.732986986637115479e-02 -9.549268521368503571e-03 1.563827842473983765e-01 -9.454742074012756348e-02 3.971027955412864685e-02 6.712750345468521118e-02 9.006986767053604126e-02 1.129292175173759460e-01 4.458370152860879898e-03 -5.991636216640472412e-02 -1.057617738842964172e-01 -5.332505330443382263e-03 -1.447824761271476746e-02 -2.822330780327320099e-02 4.509904608130455017e-02 1.920434832572937012e-01 -7.396864145994186401e-02 -2.031250856816768646e-02 -8.887092582881450653e-03 6.431091576814651489e-02 5.630029365420341492e-02 9.836901724338531494e-02 -2.977090515196323395e-02 8.999248594045639038e-02 1.072910875082015991e-01 4.542069137096405029e-02 -2.382137030363082886e-01 -2.706465497612953186e-02 -9.688342362642288208e-02 -1.393021736294031143e-02 -1.285507157444953918e-02 1.923448145389556885e-01 2.996801584959030151e-02 -3.405766561627388000e-02 1.095895543694496155e-01 -3.738597780466079712e-02 -4.014912247657775879e-02 -4.107686690986156464e-03 -1.566956751048564911e-02 -6.395650096237659454e-03 1.071927547454833984e-01 2.702182531356811523e-02 -5.266562104225158691e-03 -1.728675700724124908e-02 6.298035383224487305e-02 4.783107340335845947e-02 5.890473723411560059e-02 -7.003927975893020630e-02 -7.143342494964599609e-02 1.144917011260986328e-01 1.790299080312252045e-02 9.226708114147186279e-02 -9.866284579038619995e-02 8.134087920188903809e-02 1.311149261891841888e-02 7.406522333621978760e-02 -6.705266237258911133e-02 1.578641682863235474e-02 2.799797244369983673e-02 1.916511803865432739e-01 -1.859708316624164581e-02 -1.095794439315795898e-01 -1.469280868768692017e-01 1.441847532987594604e-01 5.080182850360870361e-02 7.037470489740371704e-02 2.697890065610408783e-02 -1.661533862352371216e-01 3.493840247392654419e-02 2.309075742959976196e-01 1.268889009952545166e-01 -6.850389391183853149e-02 5.655827373266220093e-02 -1.031669601798057556e-01 -2.266319282352924347e-02 -8.108122646808624268e-02 5.446933582425117493e-02 1.610514335334300995e-02 -9.203175082802772522e-03 -7.469344884157180786e-02 -7.078777253627777100e-02 -3.898869082331657410e-02 -4.417951777577400208e-02 1.270085573196411133e-02 8.612208813428878784e-02 -7.933758944272994995e-02 1.640084832906723022e-01 -1.920033805072307587e-02 1.125985831022262573e-01 5.261369422078132629e-02 2.000395767390727997e-02 1.308384239673614502e-01 -6.422388553619384766e-02 2.241637706756591797e-01 1.895067840814590454e-01 -1.792295873165130615e-01 -4.892985895276069641e-02 -1.218680888414382935e-01 -7.994533516466617584e-03 -5.632678046822547913e-02 1.341782324016094208e-02 -2.829611487686634064e-02 -2.750863693654537201e-02 3.764390945434570312e-02 5.484892427921295166e-02 1.844580322504043579e-01 1.310727000236511230e-02 2.848755754530429840e-02 -1.057982072234153748e-01 -1.741826832294464111e-01
2.636175043880939484e-02 -9.544063359498977661e-02 6.061541661620140076e-02 9.677550196647644043e-02 -3.778513148427009583e-02 1.348659303039312363e-02 6.500614341348409653e-03 -5.560641363263130188e-02 -4.132947698235511780e-02 4.284796491265296936e-02 -1.013597920536994934e-01 -1.125778164714574814e-02 -1.364324335008859634e-02 -6.875113118439912796e-03 8.657728135585784912e-02 1.640492677688598633e-01 1.394633352756500244e-01 6.969547271728515625e-02 1.544574946165084839e-01 1.210392042994499207e-01 2.732650637626647949e-01 -1.147280037403106689e-01 -4.676346853375434875e-02 1.514328271150588989e-02 -5.375450104475021362e-02 -1.948183029890060425e-02 3.790809586644172668e-02 3.117255866527557373e-02 5.525915324687957764e-02 -2.450352758169174194e-01 5.476848036050796509e-02 -3.938701748847961426e-02 -2.699900045990943909e-02 6.546378880739212036e-02 -6.443401332944631577e-03 -1.533498708158731461e-02 -7.005650084465742111e-03 -6.346998736262321472e-03 -3.714583441615104675e-02 1.144042983651161194e-01 4.464469105005264282e-02 -5.168542638421058655e-02 -1.358299702405929565e-01 1.990040950477123260e-02 -1.037421002984046936e-01 1.459365487098693848e-01 3.186483681201934814e-02 1.332851033657789230e-02 6.173698604106903076e-02 4.723183065652847290e-02 5.015347152948379517e-03 1.213019937276840210e-01 3.198010101914405823e-02 7.125952094793319702e-02 -1.882756315171718597e-02 3.647630661725997925e-02 -4.269476234912872314e-02 -6.196011602878570557e-02 -3.867897437885403633e-03 1.352548450231552124e-01 -1.681880839169025421e-02 9.393072873353958130e-02 -9.549816139042377472e-03 6.676771491765975952e-02 -9.179426729679107666e-02 -7.932844012975692749e-02 -5.770105123519897461e-02 -2.592899650335311890e-02 -3.650719672441482544e-02 -5.665840115398168564e-03 -1.232651025056838989e-01 -9.463355690240859985e-02 1.022117584943771362e-01 1.511649191379547119e-01 1.419357508420944214e-01 -3.144377470016479492e-02 -8.007784932851791382e-02 -6.983038783073425293e-02 2.702621743083000183e-03 -1.576501578092575073e-01 2.099868804216384888e-01 -4.620828852057456970e-02 -1.102228239178657532e-01 9.905444085597991943e-02 3.271305561065673828e-02 9.135095775127410889e-02 9.736164472997188568e-03 1.552691757678985596e-01 6.836878508329391479e-02 9.130612760782241821e-02 1.174414530396461487e-03 -2.521006949245929718e-02 1.422703117132186890e-01 -4.554162919521331787e-02 1.766042225062847137e-02 -2.419708482921123505e-02 3.039437532424926758e-02 -1.626980602741241455e-01 7.075149565935134888e-02 -9.320987388491630554e-03 -2.044222056865692139e-01 1.176041290163993835e-01 -6.333780474960803986e-03 3.986772149801254272e-02 -1.359234601259231567e-01 -1.658820062875747681e-01 9.173031151294708252e-02 -1.362920086830854416e-02 -3.233391791582107544e-02 4.047580435872077942e-02 -2.265188656747341156e-02 1.329163014888763428e-01 8.572728931903839111e-02 1.711869388818740845e-01 -2.477900311350822449e-02 1.064794138073921204e-01 3.649595379829406738e-02 -2.529151737689971924e-01 1.989824324846267700e-01 -8.162663877010345459e-02 -2.243835106492042542e-02 2.969509176909923553e-02 -9.964036196470260620e-02 -2.034121751785278320e-01 -4.712238162755966187e-02 -1.688264608383178711e-01 -1.347707509994506836e-01 -8.612640947103500366e-02 1.154776103794574738e-02 -5.586726963520050049e-02 -2.939905598759651184e-02 1.568732708692550659e-01 9.983194619417190552e-02 5.790203809738159180e-02 1.641896180808544159e-02 1.731801927089691162e-01 -6.619182229042053223e-02 3.306778147816658020e-02 -1.675405204296112061e-01 -5.316152051091194153e-02 2.459365688264369965e-02 -1.787946075201034546e-01 8.863589912652969360e-02 -1.021965295076370239e-01 -7.297557592391967773e-02 4.118454828858375549e-02 -6.132902577519416809e-03 9.709068387746810913e-02 -1.114012021571397781e-02 1.105131730437278748e-01 -1.569082438945770264e-01 -3.827618667855858803e-03 -9.184078872203826904e-02 -3.826624155044555664e-02 3.914339840412139893e-02 5.321004614233970642e-02 7.116080820560455322e-02 3.983412683010101318e-02 -2.075709635391831398e-03 -3.272294998168945312e-02 2.585894893854856491e-03 -5.655038356781005859e-02 3.496884927153587341e-02 1.511394083499908447e-01 -4.611556231975555420e-02 -2.098500132560729980e-01 -5.372955277562141418e-02 2.303743734955787659e-02 -3.702991455793380737e-02 4.979455471038818359e-02 1.891316622495651245e-01 -6.207659095525741577e-02 2.552047744393348694e-02 1.594499498605728149e-02 1.132572740316390991e-01 -9.788857400417327881e-02 1.184960827231407166e-01 -1.586645543575286865e-01 -1.135309319943189621e-02 -1.310917083173990250e-02 4.958112537860870361e-02 5.314953252673149109e-02 -2.879144623875617981e-02 2.565458603203296661e-02 -2.230878733098506927e-02 4.524479061365127563e-02 -1.124760583043098450e-01 1.074647880159318447e-03 1.051351949572563171e-01 1.130365114659070969e-02 1.058506518602371216e-01 -4.197536036372184753e-02 -5.604624282568693161e-03 -1.970668733119964600e-01 -4.916486330330371857e-03 6.073230132460594177e-02 1.444765478372573853e-01 1.068463474512100220e-01 -3.158476576209068298e-02 -3.762638568878173828e-02 6.430435180664062500e-02 -2.613001689314842224e-02 -9.528744220733642578e-02 3.576780110597610474e-02 2.181545644998550415e-02 8.048449456691741943e-02 -8.792665903456509113e-04 -1.331739872694015503e-01 9.187100827693939209e-02 -1.727233640849590302e-03 1.877023465931415558e-02 -1.284301578998565674e-01 1.243737805634737015e-02 1.071909517049789429e-01 -4.250354319810867310e-02 -1.743467524647712708e-02 4.951120167970657349e-02 2.131872326135635376e-01 -1.408338844776153564e-01 -5.441609025001525879e-02 -3.861774504184722900e-02 1.085574701428413391e-01 -7.338670641183853149e-02 -2.925637923181056976e-02 -1.086784973740577698e-01 -7.942471653223037720e-02 2.968664653599262238e-02 7.536648958921432495e-02 -7.286574225872755051e-03 -3.545108716934919357e-03 -8.552420884370803833e-02 4.505550488829612732e-02 1.239860150963068008e-02 -5.818042904138565063e-02 -3.208885341882705688e-02 9.493312984704971313e-02 2.330959215760231018e-02 -5.128080770373344421e-02 -8.281910419464111328e-02 7.870164513587951660e-02 -6.881586462259292603e-02 -6.192007660865783691e-02 -7.413178682327270508e-02 3.910135105252265930e-02 1.157713159918785095e-01 -7.206548005342483521e-02 3.656855598092079163e-02 7.254164665937423706e-03 1.941157132387161255e-01 -1.250841915607452393e-01 -1.113154068589210510e-01 -1.468550860881805420e-01 7.691658101975917816e-03 -4.753971006721258163e-03 2.430659905076026917e-02 6.220040842890739441e-03
2.496709488332271576e-02 7.799649238586425781e-02 3.523832187056541443e-02 -1.634773612022399902e-02 2.542085349559783936e-01 -5.484787374734878540e-02 -3.189037740230560303e-02 3.157044202089309692e-02 -5.866179615259170532e-02 7.220513373613357544e-02 -1.256116181612014771e-01 -7.367590814828872681e-02 -4.596756026148796082e-02 -2.044605463743209839e-01 8.202224224805831909e-02 1.613556087249889970e-04 -4.995946073904633522e-04 -8.080452680587768555e-03 7.437510043382644653e-02 4.250140115618705750e-02 -1.253237575292587280e-01 -9.560612961649894714e-03 -1.436888873577117920e-01 2.060615085065364838e-02 6.653971970081329346e-02 -1.192454695701599121e-01 -4.379313439130783081e-02 1.069765761494636536e-01 1.233884841203689575e-01 -1.022317931056022644e-01 -6.768904160708189011e-03 -5.529568879865109921e-04 1.248581800609827042e-02 -1.044309809803962708e-01 1.283770352602005005e-01 -1.004856154322624207e-01 -3.723696246743202209e-02 1.014312803745269775e-01 -1.102616861462593079e-01 1.356765478849411011e-01 -5.360768362879753113e-02 4.170807823538780212e-02 1.317376196384429932e-01 -4.280146956443786621e-02 -5.418725684285163879e-02 6.565153598785400391e-02 -7.153040915727615356e-02 -1.149746626615524292e-01 1.226800754666328430e-01 8.331552147865295410e-02 8.416597545146942139e-02 1.061262190341949463e-02 5.522573366761207581e-02 -2.359692007303237915e-03 1.455286704003810883e-02 1.083316057920455933e-01 6.559590995311737061e-02 -1.997064501047134399e-01 -7.497385889291763306e-02 -5.465775728225708008e-02 1.219432894140481949e-02 6.084366515278816223e-02 2.460557967424392700e-02 4.205290228128433228e-02 1.080430895090103149e-01 -1.876703836023807526e-02 7.244260981678962708e-03 8.296152949333190918e-02 -8.399749547243118286e-02 3.094078600406646729e-01 1.326069235801696777e-01 2.120713144540786743e-02 6.163934618234634399e-02 -1.509125828742980957e-01 -3.908165171742439270e-02 1.142797991633415222e-01 -1.552923917770385742e-01 1.779327690601348877e-01 -2.058147639036178589e-02 -6.052671372890472412e-02 1.254023909568786621e-01 -5.648326501250267029e-02 -3.145643696188926697e-02 1.399543602019548416e-02 -5.700116511434316635e-03 -1.095999591052532196e-02 1.441372036933898926e-01 5.199741199612617493e-02 -2.277368307113647461e-02 1.706473715603351593e-02 -1.221725121140480042e-01 1.582808494567871094e-01 -2.628601901233196259e-02 -2.858435735106468201e-02 9.598666429519653320e-02 -7.643874734640121460e-02 1.379888057708740234e-01 6.032679975032806396e-02 9.430301189422607422e-02 1.717632561922073364e-01 -1.298441439867019653e-01 -5.146215483546257019e-02 -5.598514154553413391e-02 9.093207120895385742e-02 3.698806278407573700e-03 -6.815186887979507446e-02 -6.580174714326858521e-02 -5.351551994681358337e-02 3.707341104745864868e-02 9.274186450056731701e-04 -5.634059011936187744e-02 -1.032091826200485229e-01 -8.642386645078659058e-03 9.582971036434173584e-02 7.148164510726928711e-02 -1.286241710186004639e-01 -7.837820798158645630e-02 -1.515981703996658325e-01 -1.391432583332061768e-01 4.542544856667518616e-02 3.930105268955230713e-02 -1.155791804194450378e-02 -4.400773905217647552e-03 -1.790094934403896332e-02 1.465300619602203369e-01 2.450322359800338745e-01 -5.151867493987083435e-02 1.268673539161682129e-01 2.522665448486804962e-02 1.221966519951820374e-01 -2.778202109038829803e-02 1.547054648399353027e-01 8.322298526763916016e-03 5.215407907962799072e-02 2.328234463930130005e-01 -7.665536552667617798e-02 3.970135748386383057e-02 8.810297399759292603e-02 5.264735780656337738e-03 1.408402994275093079e-02 -6.720642000436782837e-02 3.508735448122024536e-02 7.876073569059371948e-02 7.038040086627006531e-03 2.073617652058601379e-02 -1.312848776578903198e-01 -2.334964722394943237e-01 2.587051503360271454e-02 -2.107662335038185120e-02 2.553240582346916199e-02 9.518045000731945038e-03 1.836478859186172485e-01 2.049811184406280518e-03 1.026176065206527710e-01 -2.934028208255767822e-02 7.553306221961975098e-02 2.468875981867313385e-02 -7.206334918737411499e-02 4.387153685092926025e-02 2.831763960421085358e-02 9.509276598691940308e-03 -1.204724460840225220e-01 1.040608286857604980e-01 -1.067466586828231812e-01 1.186155527830123901e-01 -6.812912411987781525e-03 -2.435680711641907692e-03 -6.164794415235519409e-02 -4.964492842555046082e-02 -1.322921644896268845e-02 1.525613665580749512e-01 -1.514009013772010803e-02 1.485353428870439529e-02 -4.609965905547142029e-02 1.602176874876022339e-01 3.308512270450592041e-02 1.478306502103805542e-01 4.152634367346763611e-02 2.221367508172988892e-02 -4.863967373967170715e-02 -3.127811476588249207e-02 -1.064033433794975281e-01 1.286220550537109375e-01 4.465468227863311768e-02 7.624827325344085693e-02 -9.225317835807800293e-02 1.999845355749130249e-02 -2.306798100471496582e-02 -1.217147782444953918e-01 -1.070011407136917114e-01 5.486147105693817139e-02 -9.342559427022933960e-02 -1.418251097202301025e-01 2.750088460743427277e-02 -1.439633220434188843e-01 9.757916629314422607e-02 9.834359586238861084e-02 1.030469685792922974e-02 -7.835929840803146362e-02 1.182784289121627808e-01 1.239180471748113632e-02 4.963215440511703491e-02 9.966049343347549438e-03 -6.436660140752792358e-02 2.516475319862365723e-02 -4.672452807426452637e-02 1.017094925045967102e-01 -1.371107548475265503e-01 6.325435359030961990e-03 1.535858064889907837e-01 -3.025748580694198608e-02 2.047619968652725220e-01 3.613591566681861877e-02 -5.299808830022811890e-02 9.309181943535804749e-03 1.857686191797256470e-01 3.158022463321685791e-02 -3.162515908479690552e-02 -2.348835766315460205e-02 4.494106024503707886e-02 1.050554960966110229e-01 -9.112316370010375977e-02 -2.216915832832455635e-03 -5.266845226287841797e-02 2.358289249241352081e-02 7.212017476558685303e-02 -1.314261704683303833e-01 -1.296310573816299438e-01 -1.146107632666826248e-02 -5.165700986981391907e-02 -7.109252363443374634e-02 8.178729563951492310e-02 -9.697505831718444824e-02 -3.158010169863700867e-02 -9.499376267194747925e-02 -2.806606329977512360e-02 -1.002936884760856628e-01 -8.049178123474121094e-02 -4.882254078984260559e-02 -9.193475544452667236e-02 1.346461623907089233e-01 -6.035573780536651611e-02 -5.885697156190872192e-02 2.071377076208591461e-02 -2.309152297675609589e-02 -1.108362972736358643e-01 -5.564753338694572449e-02 2.980696968734264374e-02 -3.109156154096126556e-03 6.753077358007431030e-02 -6.032153591513633728e-02 -6.687597930431365967e-02 9.709176607429981232e-03 1.402789354324340820e-01 -1.430684477090835571e-01 -6.022861972451210022e-02
8.389401435852050781e-02 7.001576595939695835e-04 6.283178180456161499e-02 -1.801857724785804749e-02 -4.981182049959897995e-03 7.267089188098907471e-02 6.830410659313201904e-02 3.648385033011436462e-02 1.257603466510772705e-01 -3.323993179947137833e-03 7.302192598581314087e-02 -1.066014990210533142e-01 6.906889379024505615e-02 1.217651814222335815e-01 -8.233340829610824585e-02 -2.711688354611396790e-02 -1.315291970968246460e-01 -1.509534567594528198e-01 -5.016424879431724548e-02 5.769323185086250305e-02 4.815210402011871338e-02 -5.634943395853042603e-02 2.757375687360763550e-02 6.484501063823699951e-03 -1.078963093459606171e-02 -1.145040541887283325e-01 2.365204505622386932e-02 1.607904583215713501e-01 -3.746801055967807770e-03 -7.781650871038436890e-02 -1.148002669215202332e-01 -1.747333630919456482e-02 1.324751079082489014e-01 1.685592532157897949e-01 -1.480634659528732300e-01 -3.068043850362300873e-02 -6.835108995437622070e-02 3.658558055758476257e-02 2.083284035325050354e-02 1.322391927242279053e-01 8.084211498498916626e-02 5.067416280508041382e-02 -7.028313726186752319e-02 -7.126391679048538208e-02 2.185817621648311615e-02 2.392917312681674957e-02 -6.852151453495025635e-02 -6.878502666950225830e-02 1.484973542392253876e-02 1.148336101323366165e-02 -8.384369313716888428e-02 1.339427381753921509e-01 2.487669466063380241e-03 -3.118439763784408569e-02 6.900323182344436646e-02 -2.544266879558563232e-01 3.366355225443840027e-02 -1.182067170739173889e-01 -1.188629493117332458e-01 7.689766585826873779e-02 1.993994787335395813e-02 -4.850723594427108765e-02 -5.338293034583330154e-03 -2.232690341770648956e-03 4.492504522204399109e-02 -2.546863630414009094e-02 -7.914257049560546875e-02 -1.440588235855102539e-01 6.498932838439941406e-02 -2.986490912735462189e-02 -5.276473984122276306e-02 7.997213304042816162e-02 9.344139695167541504e-02 -4.797950759530067444e-02 -1.001582946628332138e-02 -6.945605855435132980e-03 1.257646530866622925e-01 4.340280219912528992e-02 3.547214716672897339e-02 1.784215494990348816e-02 -4.637262225151062012e-02 6.476734578609466553e-02 2.652664855122566223e-02 1.834254711866378784e-01 1.708773970603942871e-01 4.134076833724975586e-02 1.567745059728622437e-01 -1.111634522676467896e-01 1.757634058594703674e-02 6.077845767140388489e-02 -3.977594897150993347e-02 -4.425531998276710510e-02 -2.766692079603672028e-02 -2.350826859474182129e-01 -4.760192241519689560e-03 7.415857166051864624e-02 3.568888455629348755e-02 -3.138302639126777649e-02 6.939262896776199341e-02 -1.874763965606689453e-01 -6.697237491607666016e-02 -4.366100952029228210e-02 8.748766034841537476e-02 8.998130448162555695e-03 -9.987778961658477783e-03 -3.035372309386730194e-02 -9.670494496822357178e-02 2.639111317694187164e-02 -2.586909802630543709e-03 1.104577332735061646e-01 1.636471599340438843e-01 -8.492103219032287598e-02 3.934109956026077271e-02 3.965788707137107849e-02 6.371761858463287354e-02 -1.552958190441131592e-01 7.049601525068283081e-02 -8.600825071334838867e-02 -2.229141443967819214e-02 5.614262446761131287e-02 1.953823715448379517e-01 -1.426564995199441910e-02 -4.440107196569442749e-02 -4.788345098495483398e-02 5.721530690789222717e-02 1.125492826104164124e-01 1.628047525882720947e-01 1.511580031365156174e-02 -1.428277939558029175e-01 -7.680460065603256226e-02 -6.801579147577285767e-02 -8.897391706705093384e-02 -4.137293249368667603e-02 -2.088195458054542542e-02 -4.801759868860244751e-02 -2.588657438755035400e-01 -2.032064348459243774e-01 1.171467006206512451e-01 1.472347825765609741e-01 -1.077557951211929321e-01 -6.328132003545761108e-03 7.588987797498703003e-02 1.573300808668136597e-01 -1.547497659921646118e-01 -2.747690863907337189e-02 -3.429008647799491882e-02 6.905993074178695679e-02 -3.241590037941932678e-02 -5.018278025090694427e-03 4.225257039070129395e-02 -5.166345089673995972e-02 -1.810752451419830322e-01 6.056438758969306946e-02 -1.055565476417541504e-01 1.585573554039001465e-01 -7.710545510053634644e-02 -1.595546007156372070e-01 1.369226872920989990e-01 2.121908664703369141e-01 1.726842224597930908e-01 1.820367202162742615e-02 2.777118422091007233e-02 4.702245071530342102e-02 3.302852809429168701e-02 -6.666714698076248169e-02 6.397838890552520752e-02 -6.535875052213668823e-02 -1.466342899948358536e-02 2.015633694827556610e-02 2.549717016518115997e-02 2.691555209457874298e-02 1.314007043838500977e-01 -3.421786054968833923e-02 -9.763673692941665649e-02 1.513637322932481766e-02 1.232508569955825806e-01 1.862592436373233795e-02 -1.426312625408172607e-01 -2.215532511472702026e-01 3.166774287819862366e-02 5.976419523358345032e-02 -9.954131394624710083e-02 -9.913814067840576172e-02 2.830514125525951385e-02 -5.290342122316360474e-02 -1.048281639814376831e-01 -2.530502621084451675e-03 1.639576442539691925e-02 1.391748040914535522e-01 5.828149989247322083e-02 1.338168382644653320e-01 -5.753832310438156128e-02 -4.272903874516487122e-02 -1.456046998500823975e-01 -4.534566402435302734e-02 -9.323589503765106201e-02 3.437211364507675171e-02 -5.435371771454811096e-02 3.670792654156684875e-02 7.212656736373901367e-02 4.541090130805969238e-02 2.019749432802200317e-01 4.409116506576538086e-02 -2.311895787715911865e-02 -6.305080838501453400e-03 2.560458704829216003e-02 7.996179908514022827e-02 -9.257560223340988159e-02 1.598227173089981079e-01 -1.562446057796478271e-01 5.862182006239891052e-02 -9.277401119470596313e-02 9.374942630529403687e-02 1.432714760303497314e-01 3.622862696647644043e-02 3.981383889913558960e-02 8.460851758718490601e-02 -1.037277951836585999e-01 -1.994370482861995697e-02 -8.139602839946746826e-02 3.233486041426658630e-02 -5.012862011790275574e-02 -4.214950650930404663e-02 1.328216195106506348e-01 -6.310736387968063354e-02 1.000054366886615753e-02 -7.078222185373306274e-02 -1.894434541463851929e-01 1.057420521974563599e-01 9.185896068811416626e-02 -7.831178605556488037e-02 -5.653220228850841522e-03 -4.115822538733482361e-02 -7.236934732645750046e-03 -8.396582305431365967e-02 -1.431746184825897217e-01 4.061386361718177795e-02 -8.747126907110214233e-03 -3.966226708143949509e-03 7.860927283763885498e-02 3.061116859316825867e-02 1.346049755811691284e-01 6.793875992298126221e-02 1.128402072936296463e-02 3.587094694375991821e-02 -2.961263759061694145e-03 -2.392162755131721497e-02 6.920781731605529785e-02 -1.148597151041030884e-01 5.119632557034492493e-02 -4.052694141864776611e-02 -1.200089305639266968e-01 -1.278602983802556992e-02 -1.962048746645450592e-02 3.042901493608951569e-02 -7.306057214736938477e-02
-1.670193970203399658e-01 1.374733448028564453e-02 2.491019070148468018e-01 1.679012179374694824e-01 6.927904486656188965e-02 -1.639166474342346191e-01 2.844814360141754150e-01 -3.577762097120285034e-02 -8.456479758024215698e-02 8.911697566509246826e-02 9.478499740362167358e-02 -9.951035678386688232e-02 -8.493790775537490845e-02 -1.401854753494262695e-01 -9.761665947735309601e-03 2.471719868481159210e-02 -5.885287746787071228e-02 1.316448152065277100e-01 -4.931167513132095337e-02 1.224790327250957489e-02 1.136390492320060730e-01 -3.996915370225906372e-02 7.368492335081100464e-02 -2.876813709735870361e-02 -5.629290267825126648e-02 -6.088579446077346802e-02 9.822898358106613159e-02 1.072309911251068115e-01 7.089321315288543701e-02 9.335480630397796631e-02 -4.983815550804138184e-02 4.913278296589851379e-02 2.648090571165084839e-02 1.893924176692962646e-02 -3.530231863260269165e-02 -4.084369912743568420e-02 2.117434442043304443e-01 9.521033614873886108e-03 -8.295503258705139160e-02 -4.069758951663970947e-02 -2.930828370153903961e-02 1.054949536919593811e-01 6.839025020599365234e-02 -1.323181092739105225e-01 -1.159009411931037903e-01 5.401763319969177246e-02 -1.186017990112304688e-01 -9.782359004020690918e-02 -5.610400065779685974e-02 -3.408011794090270996e-02 -6.955376267433166504e-02 -1.100650578737258911e-01 -7.407354563474655151e-02 -2.724622562527656555e-02 6.933020893484354019e-03 1.304026786237955093e-02 1.109837144613265991e-01 6.909141689538955688e-02 7.487645838409662247e-03 1.637612842023372650e-02 1.580692827701568604e-01 8.480350486934185028e-03 1.377604007720947266e-01 4.984367638826370239e-02 -7.815112173557281494e-02 8.755525201559066772e-02 -3.203595429658889771e-02 3.238189965486526489e-02 -1.851321160793304443e-01 1.065816879272460938e-01 -3.328460454940795898e-02 7.020526379346847534e-02 -4.237708821892738342e-02 -4.172431305050849915e-02 5.080838128924369812e-02 5.470199137926101685e-02 9.067364037036895752e-02 -1.454321574419736862e-02 -7.369751483201980591e-02 3.982210159301757812e-02 3.046717122197151184e-02 4.556465428322553635e-03 -1.729723364114761353e-01 5.814842297695577145e-04 -5.036008078604936600e-03 4.082198068499565125e-02 1.591991335153579712e-01 2.826844342052936554e-02 -1.693542003631591797e-01 1.367324441671371460e-01 2.814554236829280853e-02 -5.151205509901046753e-02 -4.720480367541313171e-02 -5.466011166572570801e-02 -4.074694588780403137e-02 1.244243606925010681e-01 4.754889011383056641e-02 3.366758301854133606e-02 1.401792913675308228e-01 -6.247960031032562256e-02 9.535359591245651245e-02 8.582252264022827148e-02 6.517132371664047241e-02 -4.913076013326644897e-02 8.336796611547470093e-02 1.036184877157211304e-01 1.889152824878692627e-01 -5.920480191707611084e-02 6.194675713777542114e-02 2.239048294723033905e-02 -5.671095848083496094e-02 -1.653064042329788208e-01 1.665334552526473999e-01 -1.120442058891057968e-02 6.986686587333679199e-02 -2.084486335515975952e-01 1.173468455672264099e-01 1.272951215505599976e-01 -1.239076140336692333e-03 -3.802735731005668640e-02 8.058553189039230347e-02 1.544398218393325806e-01 -1.128679439425468445e-01 1.101131662726402283e-01 1.065387725830078125e-01 -4.139310866594314575e-02 2.985766530036926270e-02 -1.198552623391151428e-01 -6.287828087806701660e-02 -2.148461490869522095e-01 -1.049211993813514709e-01 -1.760672777891159058e-02 1.508358269929885864e-01 -1.002580001950263977e-01 -1.651094295084476471e-02 2.591193839907646179e-02 8.822513371706008911e-02 3.371233865618705750e-02 5.117456614971160889e-02 2.833278849720954895e-02 1.609170995652675629e-02 -3.692961856722831726e-02 -4.921917617321014404e-02 1.345075294375419617e-02 2.921576052904129028e-02 9.190035611391067505e-02 -1.069977134466171265e-02 -1.362813450396060944e-02 -1.152769476175308228e-01 -2.772373706102371216e-02 -6.664916127920150757e-02 2.278033830225467682e-02 -1.651445329189300537e-01 -6.403558701276779175e-02 -2.180980518460273743e-03 8.633874356746673584e-02 -8.369724964722990990e-04 -5.426050350069999695e-02 -6.152294948697090149e-02 1.004611700773239136e-01 3.578827157616615295e-02 1.159277185797691345e-02 2.093928866088390350e-02 -9.969504922628402710e-02 4.814827814698219299e-03 -1.692179292440414429e-01 -6.598995625972747803e-02 2.045372277498245239e-01 4.119954630732536316e-02 1.427768021821975708e-01 2.860716916620731354e-02 -1.028961539268493652e-01 7.602772116661071777e-02 -3.854341804981231689e-02 8.401449024677276611e-02 9.251349419355392456e-02 -1.203020140528678894e-01 7.187916431576013565e-03 6.976600736379623413e-02 -1.411175578832626343e-01 1.249942183494567871e-01 4.700963199138641357e-02 3.143471106886863708e-02 -3.446339815855026245e-02 -1.529602110385894775e-01 5.840324610471725464e-02 8.120736479759216309e-02 1.972340233623981476e-02 3.690445423126220703e-02 7.570604234933853149e-02 1.042761579155921936e-01 -9.750695899128913879e-03 -9.371122717857360840e-02 -3.135670349001884460e-02 -9.317165240645408630e-03 -6.101650651544332504e-03 -1.475571691989898682e-01 1.184829548001289368e-01 1.780121773481369019e-02 1.438402291387319565e-02 1.316918246448040009e-02 -2.290194667875766754e-02 5.834192782640457153e-02 7.844820618629455566e-02 8.301830291748046875e-02 2.601686865091323853e-02 -1.259239166975021362e-01 -9.225326776504516602e-02 3.543233871459960938e-02 -3.233309835195541382e-02 2.062504179775714874e-02 5.855483934283256531e-02 -1.133172810077667236e-01 -9.749548882246017456e-02 7.336670905351638794e-02 2.494897507131099701e-02 3.907093033194541931e-02 -9.441559761762619019e-02 -1.411743275821208954e-02 4.304913803935050964e-02 -2.041404321789741516e-02 9.687475860118865967e-02 1.293611973524093628e-01 -1.762897707521915436e-02 6.781107932329177856e-02 1.261915713548660278e-01 9.765763580799102783e-02 8.432464301586151123e-02 4.034902527928352356e-02 -6.346508860588073730e-02 -1.728634000755846500e-03 1.109582781791687012e-01 -1.686101555824279785e-01 -3.968894481658935547e-02 1.478299684822559357e-02 1.682737469673156738e-01 1.790496334433555603e-02 -9.193642064929008484e-03 1.233119703829288483e-02 -8.153497427701950073e-02 -7.832801900804042816e-03 3.794843796640634537e-03 1.241243779659271240e-01 5.445117503404617310e-02 -9.325623512268066406e-02 -1.408944372087717056e-02 9.558800607919692993e-02 -4.500290378928184509e-02 7.015406340360641479e-02 -6.362944841384887695e-02 4.160161316394805908e-02 -1.047887559980154037e-02 -1.645074337720870972e-01 3.122784756124019623e-02 2.957113385200500488e-01 -1.086758524179458618e-01
1.478639692068099976e-01 1.506311744451522827e-01 2.066367119550704956e-01 6.104568764567375183e-02 1.544847041368484497e-01 8.350130170583724976e-02 -5.945314466953277588e-02 1.405980996787548065e-02 -5.683373659849166870e-02 -5.562377721071243286e-02 -8.746052533388137817e-02 7.723577320575714111e-02 -6.009666621685028076e-02 -4.190552979707717896e-02 -4.536043852567672729e-02 -1.067423745989799500e-01 2.568476833403110504e-03 5.660118535161018372e-02 5.793577060103416443e-02 8.044856786727905273e-02 1.394626051187515259e-01 -1.102576311677694321e-02 -4.066476598381996155e-02 -1.291461288928985596e-02 3.833321109414100647e-02 -1.010153740644454956e-01 2.568333409726619720e-03 -5.033564567565917969e-02 -1.269577890634536743e-01 6.676679849624633789e-02 -1.703918166458606720e-02 -4.053033143281936646e-02 -9.038352221250534058e-02 7.234738022089004517e-02 1.141025424003601074e-01 -3.310386091470718384e-02 -1.397618353366851807e-01 -3.916172310709953308e-02 9.719477035105228424e-03 2.542251907289028168e-02 -8.042990416288375854e-02 9.575598686933517456e-02 -2.022825926542282104e-01 -1.090461909770965576e-01 -5.679304013028740883e-04 -8.029665797948837280e-02 -1.328416168689727783e-01 -1.609734632074832916e-02 2.979686483740806580e-03 1.323798596858978271e-01 -1.686274632811546326e-02 -7.570949196815490723e-02 -1.557583734393119812e-02 9.363133460283279419e-02 9.480448067188262939e-02 -2.246381482109427452e-03 -1.204296350479125977e-01 -1.237363815307617188e-01 1.319169095950201154e-04 8.975269272923469543e-03 -1.379086226224899292e-01 -1.566870510578155518e-01 7.399483025074005127e-02 1.335513293743133545e-01 -1.385657936334609985e-01 -5.859347525984048843e-03 8.445706963539123535e-02 4.569421056658029556e-03 3.414244204759597778e-02 -1.347967237234115601e-02 3.250963985919952393e-02 -1.197413876652717590e-01 2.444102615118026733e-02 4.015352949500083923e-02 9.280015528202056885e-02 -1.894667744636535645e-01 5.107306316494941711e-02 -1.699328422546386719e-02 -4.413620382547378540e-02 4.489629343152046204e-02 -4.763456434011459351e-02 1.865338534116744995e-01 -8.618063479661941528e-02 4.387634992599487305e-02 -6.660853326320648193e-02 3.386225551366806030e-02 -3.648979589343070984e-02 1.004412248730659485e-01 3.529875725507736206e-02 -5.019902437925338745e-02 -4.885066673159599304e-02 -1.746523678302764893e-01 1.920857280492782593e-01 -8.035237551666796207e-04 -3.572881594300270081e-02 3.197300434112548828e-02 1.204979866743087769e-01 -5.606789514422416687e-02 -8.445507287979125977e-02 1.893651038408279419e-01 4.637152701616287231e-02 7.132206112146377563e-02 1.530852615833282471e-01 -4.638480767607688904e-02 -7.927853614091873169e-02 -3.190028294920921326e-02 8.644072711467742920e-02 -2.950766310095787048e-02 -4.351559653878211975e-02 3.780747763812541962e-03 4.744921997189521790e-02 7.813817262649536133e-02 -6.787154823541641235e-02 -1.487341076135635376e-01 8.485276252031326294e-02 1.331014651805162430e-02 2.235424891114234924e-02 9.428357332944869995e-02 -7.933048903942108154e-02 4.534661304205656052e-03 6.430210918188095093e-02 3.008561730384826660e-01 -4.116193205118179321e-02 -1.616701930761337280e-01 5.800793319940567017e-02 1.903314441442489624e-01 7.197193801403045654e-02 5.215099826455116272e-02 6.989125162363052368e-03 1.330602467060089111e-01 -6.565900892019271851e-02 2.174309268593788147e-02 -8.915832638740539551e-02 3.440373018383979797e-02 -6.287836283445358276e-02 -2.859690226614475250e-02 -1.040936484932899475e-01 -3.588352724909782410e-02 -4.631324857473373413e-02 -6.978526711463928223e-02 1.198223903775215149e-01 6.002587825059890747e-02 1.384509801864624023e-01 -5.123422294855117798e-02 -1.162618696689605713e-01 -8.962627500295639038e-02 2.368495613336563110e-02 3.445972874760627747e-02 -3.421751037240028381e-02 1.181888580322265625e-02 1.000794116407632828e-02 -1.811906844377517700e-01 -9.754198044538497925e-02 5.151167139410972595e-02 -5.253256112337112427e-02 5.900560319423675537e-02 2.470317855477333069e-02 -3.869858756661415100e-02 -1.583839394152164459e-02 -7.129299640655517578e-02 6.894011050462722778e-02 1.504254341125488281e-02 5.589838325977325439e-02 -7.901460863649845123e-03 -5.541139282286167145e-03 1.075202692300081253e-02 -3.748150914907455444e-02 -9.715414792299270630e-02 -1.404292136430740356e-01 5.294914171099662781e-02 -7.731240987777709961e-02 -5.399730429053306580e-02 -1.678892523050308228e-01 2.492650449275970459e-01 3.213090589269995689e-03 1.981255225837230682e-02 -5.491358786821365356e-02 -1.132275536656379700e-02 -1.330866515636444092e-01 8.030272088944911957e-03 1.276810169219970703e-01 8.472166955471038818e-02 6.336879450827836990e-03 -6.773682683706283569e-02 5.717351660132408142e-02 4.160701483488082886e-02 -1.118679866194725037e-01 -5.752800032496452332e-02 2.136578783392906189e-02 -1.735650300979614258e-01 -2.166267484426498413e-02 3.713756054639816284e-02 -2.872789464890956879e-02 -8.692460507154464722e-02 4.840733855962753296e-02 -3.083084709942340851e-02 5.254815891385078430e-02 -2.179247885942459106e-02 -1.301390677690505981e-01 -2.104305475950241089e-01 3.684769198298454285e-02 -8.169157058000564575e-02 -9.172571823000907898e-03 4.605909436941146851e-02 -5.008239764720201492e-03 -6.869035959243774414e-02 4.523463174700737000e-02 1.172586679458618164e-01 3.108651377260684967e-03 -3.785251406952738762e-03 -2.912166342139244080e-02 7.686628401279449463e-02 -4.312619939446449280e-02 5.438468605279922485e-02 5.602274462580680847e-02 6.566470861434936523e-02 2.140143886208534241e-02 -2.069802954792976379e-02 2.075177133083343506e-01 2.366619259119033813e-01 1.488374024629592896e-01 1.431372463703155518e-01 1.086993440985679626e-01 1.004480049014091492e-01 -8.533233404159545898e-02 5.375701934099197388e-02 2.061861567199230194e-02 -3.236092254519462585e-02 6.275370717048645020e-02 2.726981183513998985e-03 2.778418660163879395e-01 7.011854648590087891e-02 1.313783414661884308e-02 -3.006869368255138397e-02 5.856917425990104675e-02 9.350483864545822144e-02 9.297504276037216187e-02 -8.858054131269454956e-02 7.658733427524566650e-02 -8.653419464826583862e-02 8.751056343317031860e-02 -6.877034157514572144e-02 4.029331728816032410e-02 -8.425489068031311035e-02 -1.106374636292457581e-01 -7.442677021026611328e-02 -2.497014775872230530e-02 -8.732357621192932129e-02 -7.102518528699874878e-02 1.593949496746063232e-01 -4.892808198928833008e-02 4.503443837165832520e-02 -1.904171109199523926e-01 -6.531015783548355103e-02 -2.787410281598567963e-02 1.047447770833969116e-01
8.096013218164443970e-03 -7.006800919771194458e-02 1.151310000568628311e-02 1.120916232466697693e-01 -6.413928233087062836e-03 7.852316647768020630e-02 -1.126909479498863220e-01 -1.099989637732505798e-01 1.490301173180341721e-02 -5.472411960363388062e-02 -9.161777794361114502e-03 -8.338102698326110840e-02 -9.551854431629180908e-02 1.271499991416931152e-01 2.128705829381942749e-01 1.010161787271499634e-01 1.029553860425949097e-01 1.191098317503929138e-01 -9.392429143190383911e-02 -9.000885765999555588e-04 2.069901674985885620e-02 -6.021672114729881287e-02 -1.068115793168544769e-02 -8.216371387243270874e-02 -3.847798705101013184e-02 -1.629596501588821411e-01 5.592180043458938599e-02 -3.622563323006033897e-03 -1.563945561647415161e-01 -6.780351698398590088e-02 -1.727620512247085571e-01 5.892119929194450378e-02 -5.829597264528274536e-02 -2.391878142952919006e-02 -1.274651736021041870e-01 -6.602857261896133423e-02 -3.254964947700500488e-02 -4.108874872326850891e-02 5.460549518465995789e-02 1.337815970182418823e-01 -4.317655414342880249e-02 -2.612535469233989716e-02 -5.462658405303955078e-02 -4.843563772737979889e-03 1.413370519876480103e-01 -3.460003808140754700e-02 8.081778138875961304e-02 -1.063117235898971558e-01 1.095398217439651489e-01 -1.340728700160980225e-01 4.614340513944625854e-02 -4.842267930507659912e-02 3.910719603300094604e-02 -4.763233289122581482e-02 8.457054942846298218e-02 6.636941339820623398e-03 1.197839304804801941e-01 -2.464397251605987549e-02 9.998276364058256149e-04 -5.422050878405570984e-02 1.017417535185813904e-01 -1.047377381473779678e-02 8.316888660192489624e-02 -1.557081378996372223e-02 5.991322174668312073e-02 -1.882159896194934845e-02 -8.851884305477142334e-02 9.553160052746534348e-04 7.702540606260299683e-02 1.005842685699462891e-01 -4.393035080283880234e-03 -4.458392783999443054e-02 2.907602814957499504e-03 7.042973488569259644e-02 -3.957520425319671631e-02 -6.158255413174629211e-02 -1.514259576797485352e-01 4.247931297868490219e-03 4.298526048660278320e-02 -5.831623077392578125e-02 -6.567821651697158813e-02 1.016770526766777039e-01 1.289453059434890747e-01 -6.614977121353149414e-02 -5.796696245670318604e-02 -1.015236042439937592e-02 7.206919044256210327e-02 -7.177437841892242432e-02 -2.546953782439231873e-02 -7.463556714355945587e-03 3.921339754015207291e-03 -4.796706512570381165e-02 3.973945975303649902e-02 -2.054448612034320831e-02 1.376783102750778198e-02 1.931552886962890625e-01 2.923299372196197510e-02 3.908701986074447632e-02 -1.256372127681970596e-02 4.057089611887931824e-02 1.110645607113838196e-01 6.862702965736389160e-02 7.716303318738937378e-02 1.408808678388595581e-01 3.648404777050018311e-02 2.037661969661712646e-01 -5.902588367462158203e-02 -5.602624639868736267e-02 -1.172004118561744690e-01 -1.902239024639129639e-02 6.641821563243865967e-02 5.278400704264640808e-02 3.026831746101379395e-01 7.015717029571533203e-02 2.064900398254394531e-01 -9.089737385511398315e-02 -9.372400492429733276e-02 3.122372552752494812e-02 -4.233363643288612366e-02 -1.655805557966232300e-01 1.172074005007743835e-01 1.355911372229456902e-03 7.672325521707534790e-02 -5.594252422451972961e-02 -6.070340052247047424e-02 -3.532273694872856140e-02 -2.629366703331470490e-02 -1.524929236620664597e-02 2.965989522635936737e-02 -1.421074420213699341e-01 9.708558022975921631e-02 5.123058333992958069e-02 -3.754667565226554871e-02 1.474858075380325317e-01 -1.654130779206752777e-02 2.733142301440238953e-02 1.733000278472900391e-01 -1.301555484533309937e-01 -8.253487199544906616e-02 1.199265867471694946e-01 -2.779869735240936279e-02 4.216647893190383911e-02 4.464412480592727661e-02 -8.113215863704681396e-02 -1.339935511350631714e-01 3.349414095282554626e-02 -5.857792869210243225e-02 -7.433231221511960030e-04 1.218790709972381592e-01 -8.594863861799240112e-02 -2.703491151332855225e-01 1.074506714940071106e-01 -7.757914811372756958e-02 -1.299445033073425293e-01 -8.463522046804428101e-02 2.592111565172672272e-02 8.672656118869781494e-02 -8.172209374606609344e-03 -5.906686652451753616e-03 -1.304892003536224365e-01 4.411772638559341431e-02 -1.136525794863700867e-01 1.105886995792388916e-01 -2.630324661731719971e-02 3.004782460629940033e-02 2.007904052734375000e-01 1.419259980320930481e-02 -6.294023245573043823e-02 4.346317052841186523e-02 1.047424077987670898e-01 7.702537346631288528e-03 5.183545500040054321e-02 9.591956436634063721e-02 6.793139129877090454e-02 -2.191720996052026749e-04 -5.839218199253082275e-02 -7.629429548978805542e-02 1.314628124237060547e-02 4.369875043630599976e-02 -8.922033011913299561e-02 -1.586603559553623199e-02 -4.180136695504188538e-02 -1.022829115390777588e-01 2.141974568367004395e-01 -4.102258756756782532e-02 -1.182656083256006241e-02 -7.220660336315631866e-03 3.100440371781587601e-03 1.559216529130935669e-02 -5.757855251431465149e-02 2.745760232210159302e-02 8.262464404106140137e-02 -6.546039879322052002e-02 1.108372211456298828e-01 4.892797768115997314e-02 -1.793825440108776093e-02 1.714474260807037354e-01 4.230760037899017334e-02 1.198752038180828094e-02 8.077186532318592072e-03 -4.512763023376464844e-02 9.492716193199157715e-02 -9.826255589723587036e-02 -6.661089602857828140e-03 1.962582170963287354e-01 3.922010958194732666e-02 -2.025758288800716400e-02 1.048576086759567261e-02 4.941081628203392029e-02 -7.613775134086608887e-02 -7.954533398151397705e-02 -1.137234419584274292e-01 4.323078319430351257e-02 -4.871747642755508423e-02 2.877544425427913666e-02 -2.388326674699783325e-01 -4.323651641607284546e-02 6.664817035198211670e-02 2.559327781200408936e-01 1.213716268539428711e-01 -1.677137762308120728e-01 -9.584670513868331909e-02 -4.215996712446212769e-02 6.613627821207046509e-02 4.615901783108711243e-02 3.501733765006065369e-02 -6.756786257028579712e-02 -2.169402316212654114e-02 4.773554205894470215e-02 1.741483062505722046e-01 1.194282155483961105e-02 -1.939657889306545258e-02 4.326738044619560242e-02 -1.102708950638771057e-01 2.041954547166824341e-01 -1.484767626971006393e-02 -6.598846614360809326e-02 1.074103862047195435e-01 1.209250837564468384e-01 1.322334259748458862e-02 -3.872520755976438522e-03 -7.201723754405975342e-02 -3.613268211483955383e-02 8.711174875497817993e-02 -4.138201847672462463e-02 7.112574763596057892e-03 9.148766100406646729e-02 2.166235446929931641e-01 -1.004294306039810181e-01 5.000839382410049438e-02 -7.126432657241821289e-02 3.359857201576232910e-02 -1.152225583791732788e-02 1.898922175168991089e-01 2.453463338315486908e-02 -1.203651502728462219e-01
-8.470470458269119263e-02 -4.526856541633605957e-02 -1.839555799961090088e-01 3.730764240026473999e-02 2.143118083477020264e-01 4.976109787821769714e-02 1.806399077177047729e-01 -1.934706233441829681e-02 -3.246321156620979309e-02 1.250787675380706787e-01 1.632915460504591465e-03 2.158599793910980225e-01 1.296843439340591431e-01 -1.226827502250671387e-01 -2.642394229769706726e-02 -1.222115661948919296e-02 6.297978013753890991e-02 -6.179676949977874756e-02 -7.193327695131301880e-02 -2.355261594057083130e-01 1.541104912757873535e-01 -4.409376066178083420e-03 1.027169674634933472e-01 1.344964280724525452e-02 3.618372604250907898e-02 2.299637049436569214e-01 -1.355042159557342529e-01 -6.930558383464813232e-02 7.200722396373748779e-02 -7.299965620040893555e-02 -4.189506918191909790e-02 -6.346401572227478027e-02 3.274829313158988953e-02 -1.876237690448760986e-01 -1.580913066864013672e-01 1.455294527113437653e-02 -7.737354189157485962e-02 9.829535335302352905e-02 -9.370572515763342381e-04 7.154053542762994766e-03 -6.100607290863990784e-02 6.488786637783050537e-02 1.015028953552246094e-01 1.134431269019842148e-02 -4.612689092755317688e-02 -5.481382831931114197e-02 -1.794891618192195892e-02 6.519104540348052979e-02 7.808620482683181763e-02 2.091291360557079315e-02 7.090717554092407227e-02 -3.574751783162355423e-03 6.519007030874490738e-03 -5.099861323833465576e-02 -7.732626795768737793e-02 -7.931943982839584351e-03 -1.447601765394210815e-01 2.600477542728185654e-03 -1.311463303864002228e-02 3.775278478860855103e-02 2.578542940318584442e-02 4.222583025693893433e-02 -1.362502872943878174e-01 -4.751294478774070740e-02 7.223930209875106812e-02 1.253947913646697998e-01 3.120451606810092926e-02 -1.096785590052604675e-01 1.690165698528289795e-02 3.470666334033012390e-02 1.522680670022964478e-01 2.016685158014297485e-02 1.788461767137050629e-02 5.896012857556343079e-02 1.075508259236812592e-02 1.271976381540298462e-01 -9.188702329993247986e-03 1.722298003733158112e-02 1.434973906725645065e-02 3.978613764047622681e-02 -6.855546031147241592e-03 -3.755239024758338928e-02 -1.227262429893016815e-02 1.436023712158203125e-01 -3.756799176335334778e-02 3.301555290818214417e-02 -7.056440412998199463e-02 -8.241695910692214966e-02 1.755124479532241821e-01 -2.072718292474746704e-01 6.828323006629943848e-02 4.394952580332756042e-02 8.983680745586752892e-04 -4.148922115564346313e-02 -1.450205147266387939e-01 1.032403483986854553e-01 2.198266051709651947e-02 -5.587279051542282104e-02 6.562779098749160767e-02 1.316550821065902710e-01 1.303406357765197754e-01 1.691025346517562866e-01 -1.953520812094211578e-02 1.848825626075267792e-02 4.070619866251945496e-02 5.253489688038825989e-02 6.152696534991264343e-02 8.957377821207046509e-02 -6.232218816876411438e-02 6.237832456827163696e-02 -7.147045433521270752e-02 2.824776619672775269e-02 -5.440011993050575256e-02 1.400291174650192261e-01 1.573981344699859619e-01 -1.118381768465042114e-01 -7.006347924470901489e-02 -2.059975080192089081e-02 -1.692047268152236938e-01 -6.245027855038642883e-02 9.932341426610946655e-02 -1.785693615674972534e-01 -5.629898607730865479e-02 6.218281015753746033e-02 1.308532655239105225e-01 3.372913226485252380e-02 -1.878027617931365967e-02 2.977429702877998352e-02 2.623962936922907829e-03 1.217537298798561096e-01 -7.824885845184326172e-02 -1.445283144712448120e-01 5.862632021307945251e-02 -8.585304021835327148e-02 7.100844383239746094e-02 -1.298326104879379272e-01 -9.068126976490020752e-02 -1.143732890486717224e-01 2.993373945355415344e-02 4.856032505631446838e-02 1.669816114008426666e-02 9.919839911162853241e-03 5.880617070943117142e-03 -7.355172932147979736e-02 7.501107454299926758e-02 1.663711816072463989e-01 3.580239415168762207e-02 9.040002524852752686e-02 2.999292314052581787e-02 -9.606621414422988892e-02 -1.523391902446746826e-01 8.248454332351684570e-02 2.315536886453628540e-02 5.830022972077131271e-03 -4.273358732461929321e-02 4.400777816772460938e-02 -1.500545889139175415e-01 -3.697932884097099304e-02 -4.237430915236473083e-02 6.289204210042953491e-02 6.948100775480270386e-02 1.704329065978527069e-02 5.785972252488136292e-02 1.559382230043411255e-01 -1.488345265388488770e-01 -1.176080927252769470e-01 6.822766363620758057e-02 -3.566563129425048828e-02 -1.189334243535995483e-01 -6.257308274507522583e-02 -8.054466545581817627e-02 7.566432654857635498e-02 1.574936658143997192e-01 2.483713068068027496e-02 -7.300578057765960693e-02 1.308690607547760010e-01 1.627312228083610535e-02 -1.942191869020462036e-01 -1.032496243715286255e-01 -4.982942715287208557e-03 -6.549755483865737915e-02 9.334244579076766968e-02 1.880849525332450867e-02 9.437012672424316406e-02 -6.914704293012619019e-02 -5.691518634557723999e-02 -3.683755546808242798e-02 -8.980227261781692505e-02 2.066716700792312622e-01 3.838530555367469788e-02 -2.444594167172908783e-02 2.849504165351390839e-02 4.154778271913528442e-02 -1.362497806549072266e-01 1.470096595585346222e-02 -2.239145524799823761e-02 9.199625998735427856e-02 6.954452022910118103e-03 1.015256941318511963e-01 -1.237687095999717712e-01 -4.267483018338680267e-03 -1.010648384690284729e-01 2.551864087581634521e-02 3.038083389401435852e-02 -1.228761002421379089e-01 1.288219913840293884e-02 1.080668643116950989e-01 -7.628254592418670654e-02 -3.061077930033206940e-02 8.239266276359558105e-02 -3.268171101808547974e-02 1.091740056872367859e-01 -1.034134700894355774e-01 7.843451574444770813e-03 -1.069100946187973022e-01 -2.475497871637344360e-01 2.517655864357948303e-02 -8.363964036107063293e-03 -8.626595884561538696e-02 2.479034662246704102e-02 -2.495496906340122223e-02 1.047558635473251343e-01 -8.300185203552246094e-02 1.324571017175912857e-02 -3.670850023627281189e-02 1.760714799165725708e-01 -1.786165088415145874e-01 1.062670499086380005e-01 7.047419436275959015e-03 1.347823739051818848e-01 4.767087101936340332e-02 8.815632015466690063e-02 7.896884344518184662e-03 1.422574818134307861e-01 -4.430384840816259384e-03 1.266673803329467773e-01 -3.484051674604415894e-02 1.052662134170532227e-01 4.040266200900077820e-02 -6.484294775873422623e-03 7.387983053922653198e-02 -6.929785013198852539e-02 7.181032747030258179e-02 6.380679458379745483e-02 6.035479158163070679e-02 5.868132412433624268e-02 -2.777476981282234192e-02 -5.784454196691513062e-02 -4.614788573235273361e-03 4.556861147284507751e-02 -9.301288425922393799e-02 6.886782497167587280e-02 -1.511862725019454956e-01 1.303508579730987549e-01 5.403561145067214966e-02 -3.258786164224147797e-03
1.043005511164665222e-01 1.354912966489791870e-01 -1.034827977418899536e-01 -1.762748807668685913e-01 -4.627111554145812988e-02 -1.552200764417648315e-01 -6.681192666292190552e-02 9.689053893089294434e-02 -9.821362048387527466e-02 8.687048405408859253e-02 3.579343110322952271e-02 1.323002576828002930e-01 -6.377448141574859619e-02 1.096014166250824928e-03 -7.267068326473236084e-02 -7.261915598064661026e-03 1.163657568395137787e-02 -4.199666436761617661e-03 -8.169537782669067383e-02 8.453772962093353271e-02 -6.973713170737028122e-03 6.751041114330291748e-02 7.011841982603073120e-02 -3.772749379277229309e-02 9.954731911420822144e-02 -8.611303055658936501e-04 -2.254299260675907135e-02 -2.212596982717514038e-01 -2.427873574197292328e-02 -3.814291907474398613e-03 8.087272197008132935e-02 2.387255728244781494e-01 -7.029505819082260132e-02 1.286462992429733276e-01 5.112740769982337952e-02 1.476723700761795044e-01 2.600405216217041016e-01 -1.574737876653671265e-01 -3.042107075452804565e-02 6.013817340135574341e-02 2.021726407110691071e-02 -8.843741379678249359e-03 5.844733491539955139e-02 -1.027715578675270081e-02 3.919973969459533691e-02 1.542038749903440475e-02 -1.185406446456909180e-01 6.685584038496017456e-02 -1.757225096225738525e-01 -1.411357615143060684e-02 1.579644083976745605e-01 5.475559458136558533e-02 -1.100244373083114624e-01 3.466059267520904541e-02 -9.618078917264938354e-02 -5.599157512187957764e-02 5.346821993589401245e-02 -1.145986244082450867e-01 -9.292507916688919067e-02 -5.397780612111091614e-02 2.417405601590871811e-03 4.017088189721107483e-02 -1.104566082358360291e-01 -6.930622458457946777e-02 1.387606263160705566e-01 3.176680952310562134e-02 -3.063233755528926849e-02 -1.712921075522899628e-02 1.570451855659484863e-01 8.503983914852142334e-02 -9.537294507026672363e-02 -4.492212086915969849e-02 5.738107487559318542e-02 3.559840843081474304e-02 2.314494252204895020e-01 1.030126307159662247e-02 -1.003895923495292664e-01 -1.068738196045160294e-02 3.332683444023132324e-02 -5.887019797228276730e-04 5.046348273754119873e-02 -1.078599542379379272e-01 -2.914518117904663086e-02 2.761102840304374695e-02 -1.134577766060829163e-01 -1.410447359085083008e-01 -1.544604171067476273e-02 4.494090005755424500e-02 1.021234169602394104e-01 -7.213136181235313416e-03 -4.949206113815307617e-02 7.930233329534530640e-02 -1.775458604097366333e-01 -4.617648944258689880e-02 -6.857632845640182495e-02 2.837062627077102661e-02 7.925547659397125244e-03 -1.448520272970199585e-01 2.874816209077835083e-02 2.190307527780532837e-02 -3.159318119287490845e-02 2.793966094031929970e-03 2.186149358749389648e-02 1.953076943755149841e-02 -1.746136136353015900e-02 -4.357017949223518372e-02 -2.220875397324562073e-02 1.197948977351188660e-01 1.310822069644927979e-01 2.070382609963417053e-02 7.847397774457931519e-02 7.795278728008270264e-02 4.484263807535171509e-02 -2.218857035040855408e-02 3.670539706945419312e-02 -1.033499464392662048e-01 -7.605708390474319458e-02 2.430348098278045654e-02 1.774170622229576111e-02 -5.567241896642372012e-05 3.185570240020751953e-02 -4.043555632233619690e-02 -1.300605386495590210e-01 -3.725422173738479614e-02 2.561431936919689178e-02 1.382869035005569458e-01 1.670749336481094360e-01 1.303774025291204453e-02 -5.870911478996276855e-02 -2.152202092111110687e-02 -1.098642423748970032e-01 4.904763773083686829e-02 4.627659916877746582e-03 1.589713543653488159e-01 6.410076469182968140e-02 -1.150998696684837341e-01 -8.141078054904937744e-02 8.634489774703979492e-02 -1.849964559078216553e-01 2.656403812579810619e-04 -2.632093615829944611e-02 -6.827191915363073349e-03 -1.021322160959243774e-01 -4.820356518030166626e-02 3.143370151519775391e-02 1.066110134124755859e-01 -1.798740774393081665e-01 -2.051654160022735596e-01 5.629109963774681091e-02 -1.386106759309768677e-02 -1.101552695035934448e-01 -3.161461278796195984e-02 -1.131885722279548645e-01 -1.094412133097648621e-01 3.730620071291923523e-02 8.309905976057052612e-02 7.336984854191541672e-03 1.620990484952926636e-01 -1.353133749216794968e-02 -1.063357591629028320e-01 2.478184998035430908e-01 -4.861377924680709839e-02 1.535826548933982849e-02 1.663988642394542694e-02 1.079262644052505493e-01 -8.368545770645141602e-02 4.737429320812225342e-02 9.224475175142288208e-02 7.451979070901870728e-02 -4.524897783994674683e-02 -1.217387802898883820e-02 5.616703629493713379e-02 1.036163195967674255e-01 7.599123567342758179e-02 1.211961656808853149e-01 -1.760914921760559082e-03 3.096404112875461578e-02 7.443994283676147461e-03 1.013409532606601715e-02 -8.684398233890533447e-02 -4.375158250331878662e-02 1.077780351042747498e-01 -4.361622780561447144e-02 2.628629840910434723e-02 1.130320653319358826e-01 1.485680639743804932e-01 1.540555059909820557e-01 -2.728138305246829987e-02 2.854045033454895020e-01 -1.876548305153846741e-02 4.889138415455818176e-02 1.742839068174362183e-01 2.297142986208200455e-03 5.610508099198341370e-02 1.514935344457626343e-01 6.868360191583633423e-02 -1.376701742410659790e-01 -2.039686776697635651e-02 -1.372850835323333740e-01 3.799802856519818306e-03 8.627501875162124634e-02 1.845796555280685425e-01 -1.097158938646316528e-01 9.180318564176559448e-02 -4.651082679629325867e-02 4.601106420159339905e-02 1.289770156145095825e-01 2.622652240097522736e-02 -6.985042989253997803e-02 1.615722663700580597e-02 -1.034318581223487854e-01 -2.287605404853820801e-02 -1.156809553503990173e-01 -1.218931525945663452e-01 1.943854987621307373e-02 1.207713503390550613e-02 1.224936321377754211e-01 -1.087820306420326233e-01 -9.572163224220275879e-03 1.409735679626464844e-01 5.536612868309020996e-02 -4.872263967990875244e-02 1.002534478902816772e-01 -9.059309214353561401e-02 8.170427754521369934e-03 -4.977679252624511719e-02 6.193241477012634277e-02 -1.271661072969436646e-01 1.036276575177907944e-02 -4.966002702713012695e-02 -1.366361230611801147e-01 -3.049999661743640900e-02 -5.298745632171630859e-02 3.257513791322708130e-02 9.195854514837265015e-02 -2.063887007534503937e-02 1.752925664186477661e-01 1.394816339015960693e-01 -6.646301597356796265e-02 -7.254608441144227982e-03 7.664672285318374634e-02 6.004440784454345703e-02 -3.485800698399543762e-02 -2.498937025666236877e-02 -8.657649159431457520e-02 5.376558750867843628e-02 5.256267264485359192e-02 2.373680472373962402e-02 7.954596728086471558e-02 -5.421583075076341629e-03 1.433986127376556396e-01 -1.566766947507858276e-01 -7.013309001922607422e-02 -1.266874838620424271e-03 -3.017055056989192963e-02 -7.806906104087829590e-02
7.532401476055383682e-03 7.633323222398757935e-02 3.617969900369644165e-02 3.490530326962471008e-02 -1.175308898091316223e-01 -1.375828981399536133e-01 3.504186496138572693e-02 -2.465693466365337372e-02 1.200960353016853333e-01 2.952992543578147888e-02 5.964753031730651855e-02 9.642253816127777100e-02 1.120157018303871155e-01 -1.045702919363975525e-01 7.417592406272888184e-02 5.423711612820625305e-02 -6.655781716108322144e-02 -1.559778489172458649e-02 2.845018729567527771e-02 -2.084883861243724823e-03 4.337099939584732056e-02 1.205095089972019196e-02 -4.593342915177345276e-02 2.000446245074272156e-02 -2.764842472970485687e-02 2.835665456950664520e-02 6.856332719326019287e-02 6.728951353579759598e-03 5.272366851568222046e-02 -2.092736810445785522e-01 -3.237771987915039062e-02 4.780539125204086304e-02 5.204594135284423828e-02 1.058111861348152161e-01 8.244736492633819580e-02 2.482255920767784119e-02 -2.258957596495747566e-03 6.161786243319511414e-02 5.241987109184265137e-02 -4.393178224563598633e-02 -6.159504130482673645e-02 7.178205996751785278e-02 3.376523032784461975e-02 -3.753066807985305786e-02 -2.295434102416038513e-02 -1.487436443567276001e-01 -7.670547068119049072e-02 2.232588641345500946e-02 -1.938997954130172729e-02 8.462963998317718506e-02 -1.276808232069015503e-01 -6.803693622350692749e-02 8.963347971439361572e-02 -3.642081841826438904e-02 1.272758096456527710e-01 1.381291002035140991e-01 3.696582093834877014e-02 -7.687019556760787964e-02 1.025616899132728577e-01 -2.976247072219848633e-01 -3.691751509904861450e-02 7.834606617689132690e-02 -8.137796819210052490e-02 1.461760103702545166e-01 7.719869911670684814e-02 5.543511360883712769e-02 3.542292490601539612e-02 -4.869550466537475586e-02 1.567931026220321655e-01 -4.337352886795997620e-02 -5.682226736098527908e-03 4.141146689653396606e-02 -4.455314576625823975e-02 -7.841690629720687866e-02 1.272130850702524185e-02 -3.532110154628753662e-02 9.018960595130920410e-02 8.999822288751602173e-02 -1.029425337910652161e-01 -8.816321194171905518e-02 2.475922927260398865e-02 -7.224810868501663208e-02 6.998556852340698242e-02 8.242712914943695068e-02 9.473863244056701660e-02 4.935199767351150513e-02 -1.869617775082588196e-02 -1.848963089287281036e-02 4.558020457625389099e-02 6.157943978905677795e-02 -8.826679550111293793e-03 2.219818159937858582e-02 1.225006282329559326e-01 3.069137781858444214e-02 1.761291027069091797e-01 -1.932456344366073608e-02 -3.003630600869655609e-02 -3.589947475120425224e-03 -1.269424613565206528e-02 -9.337688982486724854e-02 1.124080941081047058e-01 2.876717969775199890e-02 7.508921623229980469e-02 3.349149227142333984e-02 -1.540071368217468262e-01 8.921110630035400391e-02 1.006369143724441528e-01 -1.079332530498504639e-01 8.085867762565612793e-02 -1.719323359429836273e-02 2.307736082002520561e-03 9.087662398815155029e-02 6.918763369321823120e-02 5.479713901877403259e-02 7.317484822124242783e-03 3.595276549458503723e-02 -2.290880773216485977e-03 -2.193979322910308838e-01 5.423804000020027161e-02 3.918693587183952332e-02 -4.577997326850891113e-02 -1.405966281890869141e-01 1.049929037690162659e-01 7.714856415987014771e-02 -7.512206584215164185e-02 2.847617119550704956e-02 1.433551460504531860e-01 -6.418075412511825562e-02 -2.459420822560787201e-03 -5.034930631518363953e-02 -4.330055043101310730e-02 1.612195372581481934e-01 1.237596496939659119e-01 -1.743657514452934265e-02 -4.008349403738975525e-02 -1.509418636560440063e-01 -6.547701358795166016e-02 -1.145249456167221069e-01 2.686898969113826752e-02 1.113139912486076355e-01 -5.883928388357162476e-02 -8.672917634248733521e-02 -1.244643777608871460e-01 -1.740966886281967163e-01 1.318772416561841965e-02 1.257504224777221680e-01 -4.694158583879470825e-02 1.814370751380920410e-01 -1.618765592575073242e-01 -1.313166767358779907e-01 1.046920195221900940e-01 -5.058149248361587524e-02 -1.568161696195602417e-01 -1.318107591941952705e-03 6.242714077234268188e-02 -2.446985058486461639e-02 1.624365746974945068e-01 -3.808678314089775085e-02 -6.956080347299575806e-02 -2.379225939512252808e-02 -1.995155960321426392e-02 5.113829672336578369e-02 -3.810995072126388550e-02 -1.094004660844802856e-01 6.070013716816902161e-02 1.563392952084541321e-02 -3.652275726199150085e-02 -9.039141982793807983e-02 1.181633099913597107e-01 9.569030255079269409e-02 -1.094184350222349167e-02 -1.314723342657089233e-01 -2.693897187709808350e-01 -6.417165696620941162e-02 -7.497564889490604401e-03 -1.397832483053207397e-01 -1.074245050549507141e-01 1.490495204925537109e-01 -1.291050016880035400e-01 -9.406860172748565674e-02 -6.081324443221092224e-02 -5.584145709872245789e-02 -6.223001703619956970e-02 9.535324573516845703e-02 7.684876769781112671e-02 3.547192364931106567e-02 -1.605825722217559814e-01 -8.806784171611070633e-04 1.608225107192993164e-01 1.878356039524078369e-01 -3.174183191731572151e-03 -1.200031414628028870e-01 -7.130848616361618042e-02 4.501987621188163757e-02 1.429453045129776001e-01 -5.916714668273925781e-02 4.127671569585800171e-02 -1.316775530576705933e-01 -8.082943409681320190e-02 -2.135396152734756470e-01 -7.309295237064361572e-02 -3.612389415502548218e-02 9.257223457098007202e-02 -1.769721321761608124e-02 -8.367640525102615356e-02 -8.103708922863006592e-02 4.813434556126594543e-02 -1.070751622319221497e-01 -2.391021102666854858e-01 2.834058739244937897e-02 2.008708938956260681e-02 -1.931330747902393341e-02 -6.346537172794342041e-02 -1.197441667318344116e-01 -9.182910621166229248e-02 1.641809791326522827e-01 1.028399565257132053e-03 -1.226177215576171875e-01 1.035135164856910706e-01 -2.898892015218734741e-02 -8.752296864986419678e-02 -1.194593235850334167e-01 6.211901456117630005e-02 1.059104055166244507e-01 -9.484551846981048584e-02 6.026744470000267029e-02 -3.685530647635459900e-02 -1.003677770495414734e-01 -9.847342222929000854e-02 7.512087374925613403e-02 1.082261353731155396e-01 4.385982453823089600e-02 1.408781483769416809e-02 1.124930474907159805e-02 2.371285855770111084e-02 2.782215923070907593e-02 -4.499963670969009399e-02 1.272068172693252563e-01 1.473289132118225098e-01 5.565259978175163269e-02 -1.916850917041301727e-03 -8.339862339198589325e-03 6.579507142305374146e-02 1.686175763607025146e-01 1.039182618260383606e-01 6.703171133995056152e-02 -1.129968240857124329e-01 -3.580851852893829346e-02 8.307883143424987793e-02 1.058807075023651123e-01 4.737237468361854553e-02 6.695491075515747070e-02 9.346456825733184814e-02 -1.202561035752296448e-01 -7.947902381420135498e-02 5.569929257035255432e-02
6.138407811522483826e-02 -7.928799092769622803e-02 -8.995307236909866333e-02 -7.828304916620254517e-02 1.586291640996932983e-01 -7.948621362447738647e-02 1.885292306542396545e-02 7.825381308794021606e-02 3.392442315816879272e-02 7.591482251882553101e-02 1.666836813092231750e-02 4.010948166251182556e-02 1.269825994968414307e-01 -6.800062209367752075e-02 -2.991609089076519012e-02 -8.668842911720275879e-02 -2.160048633813858032e-01 -3.327385336160659790e-02 8.371149748563766479e-02 -3.007009997963905334e-02 7.252822071313858032e-02 -1.151995956897735596e-01 4.790624137967824936e-03 -4.141960293054580688e-02 1.726493835449218750e-01 -4.078339040279388428e-02 8.904028683900833130e-02 9.498389810323715210e-02 -6.994531303644180298e-02 -6.553070852532982826e-04 -6.741021573543548584e-02 -7.768641412258148193e-02 9.337269514799118042e-02 5.988522991538047791e-02 -7.498481869697570801e-02 -7.485220581293106079e-02 -1.581381708383560181e-01 1.271145492792129517e-01 -1.082122512161731720e-02 1.481678485870361328e-01 2.042930722236633301e-01 -4.653164360206574202e-04 -8.633606135845184326e-02 5.019797384738922119e-02 -6.793750077486038208e-02 8.640008419752120972e-02 -1.071518287062644958e-01 -1.015947535634040833e-01 5.441900342702865601e-02 -3.406506031751632690e-02 6.396960467100143433e-02 1.259269863367080688e-01 -4.847581312060356140e-02 6.571684032678604126e-02 7.980942726135253906e-02 -2.190667949616909027e-02 2.903220653533935547e-01 2.135081142187118530e-01 -7.277414202690124512e-02 5.421027913689613342e-02 1.248045861721038818e-01 -5.447072908282279968e-02 -1.009920015931129456e-01 -7.877444475889205933e-02 -3.369374573230743408e-02 1.954554468393325806e-01 4.204201325774192810e-02 6.151265278458595276e-02 8.664691820740699768e-03 -5.554098635911941528e-02 7.756593078374862671e-02 3.046145662665367126e-02 -2.736671082675457001e-02 -3.661063313484191895e-02 -8.656320720911026001e-02 6.915791332721710205e-02 -8.342835307121276855e-02 5.892682075500488281e-02 -2.138647139072418213e-01 5.405242368578910828e-02 -3.045704774558544159e-02 8.728061616420745850e-02 -6.515216547995805740e-03 -6.754969060420989990e-02 3.311298787593841553e-02 -1.179454028606414795e-01 -1.090046912431716919e-01 8.422034233808517456e-02 -1.890111416578292847e-01 -2.921037934720516205e-02 2.334598824381828308e-02 -6.826230138540267944e-02 4.968443512916564941e-02 5.300860852003097534e-02 -7.741246372461318970e-02 5.110436677932739258e-02 1.070103570818901062e-01 -4.600505903363227844e-02 -2.532678470015525818e-02 2.146547660231590271e-02 -5.671388283371925354e-02 7.883562892675399780e-02 4.240645468235015869e-02 4.975063260644674301e-03 6.749099493026733398e-02 -3.545116260647773743e-02 -1.741247624158859253e-02 3.934501856565475464e-02 -6.778751313686370850e-02 5.778823420405387878e-02 -1.154953031800687313e-03 2.575859725475311279e-01 -6.490692961961030960e-03 3.558114543557167053e-02 -1.165458485484123230e-01 8.800415694713592529e-02 -3.846469148993492126e-02 4.413565620779991150e-02 1.004631444811820984e-01 -9.220750629901885986e-02 1.171313598752021790e-01 -4.300107806921005249e-02 1.220108345150947571e-01 2.171743661165237427e-02 1.301659345626831055e-01 -1.310127973556518555e-01 2.740465803071856499e-03 -8.814692497253417969e-03 7.618153467774391174e-03 -2.113422192633152008e-02 -2.020219713449478149e-01 3.232012316584587097e-02 -3.053126670420169830e-02 3.704620152711868286e-02 3.651794791221618652e-02 -1.466486155986785889e-01 6.205101311206817627e-02 6.814444065093994141e-02 -2.593333460390567780e-02 -2.650042064487934113e-02 4.435200244188308716e-02 -8.463660627603530884e-02 -6.416662037372589111e-02 6.857860833406448364e-02 7.213933020830154419e-02 -3.944507986307144165e-02 1.230184733867645264e-02 -1.023375466465950012e-01 -4.867886006832122803e-02 8.068448305130004883e-02 7.386224716901779175e-02 -5.422743037343025208e-02 -6.834376137703657150e-03 1.380826067179441452e-02 -2.537421882152557373e-02 6.749481428414583206e-03 3.597983717918395996e-02 8.586143702268600464e-02 -3.426621435210108757e-03 4.920411854982376099e-03 -1.197179034352302551e-01 -9.567561000585556030e-02 -3.630067408084869385e-02 -9.074929356575012207e-02 1.194737926125526428e-01 -7.115756161510944366e-03 1.114626079797744751e-01 2.417084760963916779e-02 1.473157554864883423e-01 1.889119856059551239e-02 7.198031526058912277e-03 -7.149518933147192001e-03 -9.639648348093032837e-02 1.984129995107650757e-01 -8.063279837369918823e-02 9.939775802195072174e-03 -4.505802318453788757e-02 -1.470809578895568848e-01 -3.782549500465393066e-02 1.373547017574310303e-01 -5.198472179472446442e-03 9.032630361616611481e-03 -1.146883144974708557e-01 1.669056713581085205e-01 1.635968238115310669e-01 -2.959225885570049286e-02 -1.682876497507095337e-01 -2.270449884235858917e-02 5.184346064925193787e-02 1.561312749981880188e-02 3.268872201442718506e-02 1.364719271659851074e-01 -3.083543106913566589e-02 8.309391885995864868e-02 5.919605027884244919e-03 1.087489724159240723e-01 1.551620066165924072e-01 1.136791035532951355e-01 5.017458461225032806e-03 -1.301221642643213272e-02 1.583877205848693848e-02 -3.359078988432884216e-02 -4.269444942474365234e-02 -1.182886734604835510e-01 1.885459870100021362e-01 9.570525586605072021e-02 6.105600856244564056e-03 1.576595753431320190e-01 -5.387674644589424133e-02 6.165957078337669373e-02 3.782146051526069641e-02 -1.147328838706016541e-01 -6.650661677122116089e-02 -2.330767512321472168e-01 1.425192877650260925e-02 -1.370541602373123169e-01 -9.784225374460220337e-02 -1.284205317497253418e-01 -6.579096615314483643e-02 -4.396372288465499878e-02 -8.534737676382064819e-02 2.786275371909141541e-02 -8.631496690213680267e-03 -1.476629376411437988e-01 -1.539264060556888580e-02 1.519510746002197266e-01 1.190251410007476807e-01 3.253126889467239380e-02 7.351030409336090088e-02 -1.286383569240570068e-01 2.803270472213625908e-03 1.347589939832687378e-01 3.551902621984481812e-02 4.443320631980895996e-02 5.555436760187149048e-02 1.176824886351823807e-02 6.029033660888671875e-02 -7.464066147804260254e-02 2.855084650218486786e-02 1.724989116191864014e-01 -1.637053638696670532e-01 -1.215142160654067993e-01 1.598387807607650757e-01 -6.226276606321334839e-02 -8.240053057670593262e-02 -4.326630011200904846e-02 -1.422078460454940796e-01 9.341998025774955750e-03 6.411789357662200928e-02 -9.256252646446228027e-02 6.991722434759140015e-02 -3.709771856665611267e-02 4.270463064312934875e-02 -5.306420102715492249e-02 -4.132171720266342163e-02 -4.134071990847587585e-02
-4.378957673907279968e-02 -1.653869152069091797e-01 -1.477752327919006348e-01 -1.722947880625724792e-02 -2.976283431053161621e-02 2.015398629009723663e-02 6.827763747423887253e-03 -8.531704545021057129e-02 -1.028316318988800049e-01 1.185258477926254272e-01 9.550869464874267578e-02 -1.143590062856674194e-01 1.197213232517242432e-01 2.514551021158695221e-02 1.645676493644714355e-01 5.705877766013145447e-02 1.138855293393135071e-01 -1.080987155437469482e-01 2.368579655885696411e-01 -3.005900047719478607e-02 -8.308040909469127655e-03 8.823607116937637329e-02 -2.567183971405029297e-01 2.098315507173538208e-01 9.068872779607772827e-02 1.392403393983840942e-01 -1.240665838122367859e-02 1.372976750135421753e-01 -1.413098722696304321e-01 -6.621823459863662720e-02 -8.875277638435363770e-02 1.798009872436523438e-02 -2.439945936203002930e-03 1.610357761383056641e-01 1.374409943819046021e-01 1.558877080678939819e-01 6.808358430862426758e-02 -4.801620170474052429e-02 -1.265916079282760620e-01 -1.238061785697937012e-01 9.818575531244277954e-02 -3.007121849805116653e-03 2.016261406242847443e-02 -1.146043390035629272e-01 8.087198436260223389e-02 -3.674512356519699097e-02 4.581955820322036743e-02 -5.965010728687047958e-03 1.544644474051892757e-03 -1.193095464259386063e-02 6.530518084764480591e-02 -1.819644868373870850e-01 -1.116019859910011292e-01 4.736505076289176941e-02 4.007904976606369019e-02 5.356420762836933136e-03 -1.029147580265998840e-01 -2.713696658611297607e-02 -9.584741294384002686e-02 1.278215274214744568e-02 1.517284661531448364e-01 7.992620579898357391e-03 -4.986319690942764282e-02 1.254784017801284790e-01 -5.377296730875968933e-02 4.137895628809928894e-02 -1.349227223545312881e-02 7.667770981788635254e-02 -4.490158986300230026e-03 3.811266645789146423e-02 -7.578466832637786865e-02 -1.372209470719099045e-02 -4.385409876704216003e-02 1.949038938619196415e-03 2.259304001927375793e-02 9.418674558401107788e-02 -4.721713066101074219e-02 -1.066934913396835327e-01 7.622350752353668213e-02 -1.383808702230453491e-01 -9.633867442607879639e-02 -5.984956398606300354e-03 -2.811312489211559296e-02 1.269840747117996216e-01 -6.156376004219055176e-02 -4.252509772777557373e-02 1.005402952432632446e-01 -1.308716367930173874e-02 1.981398463249206543e-02 2.508803643286228180e-02 -3.346657752990722656e-02 -1.818502508103847504e-02 -2.665908820927143097e-02 1.405543237924575806e-01 5.613485723733901978e-02 3.294901549816131592e-02 -5.296025890856981277e-03 -6.105090677738189697e-02 2.632178179919719696e-02 3.034056536853313446e-02 9.038139134645462036e-03 8.445246145129203796e-03 9.898480027914047241e-02 -1.409024596214294434e-01 9.395540505647659302e-02 -7.209038734436035156e-02 2.298398688435554504e-02 -7.310423068702220917e-03 -5.300423130393028259e-02 1.073199044913053513e-02 1.179657038301229477e-02 -6.451670825481414795e-02 6.939308345317840576e-02 2.530155703425407410e-02 3.242076188325881958e-02 -5.202395841479301453e-04 -1.822508126497268677e-02 4.378916323184967041e-02 1.450571268796920776e-01 4.388661123812198639e-03 4.657972231507301331e-02 -5.345022678375244141e-02 -1.602039486169815063e-01 4.186655953526496887e-02 -7.206094264984130859e-02 2.018057042732834816e-03 -3.371579200029373169e-02 -1.253752410411834717e-01 -3.544658794999122620e-02 2.708166837692260742e-02 -6.729827728122472763e-03 -5.602668598294258118e-02 -7.598344236612319946e-02 -6.352084875106811523e-02 8.479548245668411255e-02 -1.243650689721107483e-01 1.031542494893074036e-01 1.282945275306701660e-01 -3.238853067159652710e-02 -1.747062243521213531e-02 -6.480909883975982666e-02 2.000640332698822021e-01 5.633123219013214111e-02 -6.923056393861770630e-02 3.948109224438667297e-02 -1.336429715156555176e-01 -4.599756374955177307e-02 7.802327722311019897e-02 -7.163129746913909912e-02 -3.453607484698295593e-02 5.022061616182327271e-02 -1.566563732922077179e-02 7.308960705995559692e-02 1.587969809770584106e-01 -3.943219035863876343e-02 -1.552330702543258667e-02 2.033555135130882263e-02 -8.325660973787307739e-02 -1.437133997678756714e-01 -6.234645470976829529e-02 -9.920485317707061768e-02 -9.959962218999862671e-02 -3.649746999144554138e-02 6.301017105579376221e-02 -1.587938331067562103e-02 -9.363588690757751465e-02 5.390064045786857605e-02 3.218535706400871277e-02 6.467182189226150513e-02 6.051959469914436340e-02 -2.696075662970542908e-02 2.108761295676231384e-02 8.669760078191757202e-02 -5.393162835389375687e-03 1.195097109302878380e-03 8.382783830165863037e-02 1.196823492646217346e-01 2.057856693863868713e-02 -1.006067320704460144e-01 -3.218939527869224548e-02 -1.852548569440841675e-01 2.112934738397598267e-02 2.467407882213592529e-01 -8.454405516386032104e-02 1.232043951749801636e-01 -9.330017119646072388e-02 1.006705090403556824e-01 7.252439111471176147e-02 1.428253203630447388e-01 -1.322596613317728043e-02 -1.411915719509124756e-01 2.510422170162200928e-01 2.526704408228397369e-02 -1.604927033185958862e-01 3.655739501118659973e-02 -8.554725348949432373e-02 1.452330686151981354e-02 -8.383552730083465576e-02 -9.812848269939422607e-02 -2.482174895703792572e-02 -1.086252629756927490e-01 3.979012742638587952e-02 2.598804794251918793e-02 -1.921971291303634644e-01 -5.534323863685131073e-03 -7.118034176528453827e-03 -8.363668620586395264e-02 -6.007922813296318054e-03 8.348624408245086670e-02 -1.066760122776031494e-01 1.247463896870613098e-01 -1.840636134147644043e-02 -6.917783617973327637e-02 1.116996183991432190e-01 2.300373613834381104e-01 1.084074750542640686e-01 5.216600745916366577e-02 -1.226403340697288513e-01 6.861671805381774902e-02 3.723777830600738525e-02 -2.149764448404312134e-01 -4.332787543535232544e-02 -1.994018629193305969e-02 1.316787600517272949e-01 -1.474469900131225586e-01 1.642169207334518433e-01 7.678344100713729858e-02 1.303275525569915771e-01 -1.259499508887529373e-02 3.299453109502792358e-02 -6.999434437602758408e-03 -1.106554269790649414e-02 9.040609747171401978e-02 -4.329945519566535950e-02 8.122120797634124756e-02 -9.288886189460754395e-02 7.501789182424545288e-02 8.078458160161972046e-02 -1.789226382970809937e-02 1.229136157780885696e-02 -8.556459099054336548e-02 -7.756990194320678711e-02 6.486590206623077393e-02 -1.828442327678203583e-02 -1.387341320514678955e-01 -1.500379145145416260e-01 -1.239982023835182190e-01 3.379684314131736755e-02 -1.029377952218055725e-01 -7.933866232633590698e-02 4.792650043964385986e-02 9.668310731649398804e-02 -6.889478117227554321e-02 3.309372439980506897e-02 -5.833133310079574585e-02 9.751128964126110077e-03
