-4.107647016644477844e-02 6.477055698633193970e-02 -7.980241626501083374e-02 1.211891695857048035e-02 7.430179417133331299e-02 -1.862999983131885529e-02 5.418260768055915833e-02 5.139390751719474792e-02 -3.492006286978721619e-02 1.623427122831344604e-01 -1.454815119504928589e-01 -6.205727532505989075e-02 -2.012486755847930908e-02 -7.860045880079269409e-02 1.364730298519134521e-01 1.431799978017807007e-01 1.580712646245956421e-01 -5.776515975594520569e-02 2.515457337722182274e-03 7.079683244228363037e-03 -1.194453611969947815e-01 -1.618581116199493408e-01 2.060204148292541504e-01 -1.557069271802902222e-02 6.041324231773614883e-03 6.533652544021606445e-02 4.554691538214683533e-02 6.820371001958847046e-02 2.745678834617137909e-02 -2.421723306179046631e-02 3.506206721067428589e-02 5.792668089270591736e-02 -4.636963456869125366e-02 3.960320726037025452e-02 4.798184335231781006e-02 -3.398320451378822327e-02 -1.796932071447372437e-01 -2.369590103626251221e-02 -6.072480604052543640e-02 -5.907299369573593140e-02 -1.338020619004964828e-02 3.100718557834625244e-02 6.238501891493797302e-02 4.749483615159988403e-02 1.092233285307884216e-01 6.816364824771881104e-02 7.860374450683593750e-02 -1.342807710170745850e-01 -5.712042376399040222e-02 -2.531847544014453888e-02 -3.663730248808860779e-02 -1.129372045397758484e-01 1.944244354963302612e-01 1.914744973182678223e-01 4.730821028351783752e-02 -7.636629790067672729e-02 -1.821458935737609863e-01 -7.739295065402984619e-02 7.405059039592742920e-02 -1.152754649519920349e-01
-2.019921839237213135e-01 -4.332026839256286621e-02 3.055363195016980171e-03 4.635075852274894714e-02 -1.696806773543357849e-02 2.925613708794116974e-02 1.656254231929779053e-01 1.414743810892105103e-01 -1.606841087341308594e-01 -1.106037870049476624e-01 -1.058351621031761169e-01 -1.812937669456005096e-02 -6.257902085781097412e-02 -5.488463491201400757e-02 3.939020261168479919e-02 -6.643888354301452637e-02 -2.779993228614330292e-02 1.227227151393890381e-01 5.337714031338691711e-02 5.688813701272010803e-02 -5.076312273740768433e-02 -2.946709096431732178e-01 8.171404898166656494e-02 7.654312252998352051e-02 -2.051715739071369171e-02 1.646738732233643532e-03 -1.412899233400821686e-02 4.077067971229553223e-02 1.544329971075057983e-01 4.660817608237266541e-02 -9.336890652775764465e-03 1.055739354342222214e-03 2.091821134090423584e-01 4.167212173342704773e-02 -1.528171449899673462e-01 1.431022733449935913e-01 -3.170232474803924561e-02 1.476016454398632050e-02 1.029311269521713257e-01 -5.925928242504596710e-03 2.416979148983955383e-02 1.110324189066886902e-01 1.306204199790954590e-01 2.660226821899414062e-02 8.231246471405029297e-02 -9.054810740053653717e-03 -4.323847964406013489e-02 9.528036415576934814e-02 5.744610726833343506e-02 -4.331392049789428711e-02 4.174723103642463684e-02 9.925291687250137329e-02 -7.604973018169403076e-02 1.278050392866134644e-01 -8.815072476863861084e-02 4.330782219767570496e-02 8.363495767116546631e-02 -3.842667909339070320e-03 -7.537280023097991943e-02 2.695584110915660858e-02
-6.491620093584060669e-02 2.010362297296524048e-01 1.906849443912506104e-03 -9.828515350818634033e-02 1.348488479852676392e-01 3.392577171325683594e-02 1.397446841001510620e-01 -1.951226149685680866e-03 -5.493932589888572693e-02 -1.291114650666713715e-02 1.749589741230010986e-01 -2.169164121150970459e-01 1.051810458302497864e-01 1.812143746064975858e-04 -2.530675753951072693e-02 4.463553801178932190e-02 8.137689530849456787e-02 -8.084641396999359131e-02 -9.069073945283889771e-02 9.853183478116989136e-02 -5.353555455803871155e-02 -1.240575127303600311e-02 2.670032717287540436e-02 1.014453172683715820e-01 1.954144239425659180e-02 -1.163118779659271240e-01 -3.111037798225879669e-02 1.265566702932119370e-02 1.533171348273754120e-02 -6.899433583021163940e-02 -1.793999820947647095e-01 1.198815107345581055e-01 -1.323619186878204346e-01 1.101475656032562256e-01 1.598500758409500122e-01 6.953930854797363281e-02 -4.552634432911872864e-03 1.565828919410705566e-01 -9.169875830411911011e-02 -7.915420830249786377e-02 -7.348306477069854736e-02 1.136191710829734802e-01 -1.166747976094484329e-02 1.693159043788909912e-01 3.336036577820777893e-02 -1.377703100442886353e-01 -4.414718569023534656e-05 4.314827919006347656e-02 -2.716319821774959564e-02 3.914221003651618958e-02 -7.977345585823059082e-02 -6.324562709778547287e-04 1.311947554349899292e-01 -6.133874878287315369e-02 -1.905820667743682861e-01 -7.379689812660217285e-02 -3.871768340468406677e-02 9.753090888261795044e-02 -1.537989377975463867e-01 7.787707448005676270e-02
-7.392219454050064087e-02 7.112077437341213226e-03 -2.152181789278984070e-02 -7.695172727108001709e-02 -1.249546781182289124e-01 1.833599433302879333e-02 -1.037802919745445251e-02 -6.948965787887573242e-02 1.273787468671798706e-01 -4.637788981199264526e-02 3.522579558193683624e-03 -4.877283796668052673e-02 1.022256612777709961e-01 2.511159703135490417e-02 4.437281936407089233e-02 -2.509969100356101990e-02 6.527632474899291992e-02 -1.004679407924413681e-02 -6.066789850592613220e-02 -1.491443254053592682e-02 -3.193769231438636780e-02 -1.775536239147186279e-01 -1.052013114094734192e-01 -2.311347573995590210e-01 -8.086960017681121826e-02 -3.812648728489875793e-02 4.193445295095443726e-02 1.623145192861557007e-01 -1.010060608386993408e-01 1.795552112162113190e-02 1.790390014648437500e-01 -1.853042468428611755e-02 2.019076794385910034e-02 -9.370601177215576172e-02 2.934572100639343262e-02 -1.071375235915184021e-01 -1.141799800097942352e-02 -1.725374013185501099e-01 -4.558043181896209717e-02 -1.030077561736106873e-01 7.744691520929336548e-02 2.286831004312261939e-04 -8.781864494085311890e-02 3.077958524227142334e-02 -3.407158702611923218e-02 -6.796918809413909912e-02 3.368160501122474670e-02 8.012496680021286011e-02 -3.301804140210151672e-02 9.331554174423217773e-02 8.355045318603515625e-02 -8.620869368314743042e-02 -1.633335202932357788e-01 -7.179182954132556915e-03 8.549248427152633667e-02 2.720556221902370453e-02 2.748677879571914673e-02 9.665893763303756714e-02 1.145802363753318787e-01 -2.424167096614837646e-02
1.392715871334075928e-01 -2.939797565340995789e-02 -1.543369740247726440e-01 1.748457700014114380e-01 -5.121716484427452087e-02 -2.142854183912277222e-01 7.914762012660503387e-03 -3.034441545605659485e-02 2.639800310134887695e-02 -9.609216451644897461e-02 8.116862177848815918e-02 -5.477139260619878769e-03 1.505891084671020508e-01 -1.507371366024017334e-01 6.481590867042541504e-02 1.098524555563926697e-01 1.611452102661132812e-01 8.788069337606430054e-02 8.179754763841629028e-02 -3.371261293068528175e-03 -9.940517134964466095e-03 8.372066915035247803e-02 5.426040291786193848e-02 6.006102263927459717e-02 1.310956384986639023e-02 -1.756545528769493103e-02 9.263858199119567871e-02 -1.326107084751129150e-01 -4.558862000703811646e-02 -2.474688552320003510e-02 2.941113151609897614e-02 -1.320115029811859131e-01 1.098922044038772583e-01 -7.421397417783737183e-02 1.883799210190773010e-02 -1.131226569414138794e-01 1.253546327352523804e-01 1.666473224759101868e-02 2.981177717447280884e-02 -4.767740890383720398e-02 -1.253152191638946533e-01 6.905155256390571594e-03 -3.095323778688907623e-02 -1.043749451637268066e-01 -1.416985094547271729e-01 1.423842012882232666e-01 -2.000063359737396240e-01 2.522208914160728455e-02 1.051147431135177612e-01 6.227527279406785965e-03 7.678671181201934814e-02 -5.712099000811576843e-02 -6.137032806873321533e-02 -1.802644133567810059e-01 1.168408617377281189e-01 -6.959322839975357056e-03 1.174440756440162659e-01 1.777542829513549805e-01 1.872100979089736938e-01 1.116766631603240967e-01
1.022401303052902222e-01 -7.795374095439910889e-02 -1.371899396181106567e-01 -2.149130553007125854e-01 -1.484769117087125778e-02 -2.712595276534557343e-02 2.757881022989749908e-02 -2.118528645951300859e-04 4.808200895786285400e-02 -1.548649072647094727e-01 1.687473058700561523e-02 4.217508807778358459e-02 9.744658321142196655e-02 1.153025329113006592e-01 7.626512646675109863e-02 5.264083296060562134e-02 2.194581553339958191e-02 -5.034981761127710342e-03 -3.444544225931167603e-02 -2.943967236205935478e-03 1.550836581736803055e-02 3.368968144059181213e-02 4.228716716170310974e-02 9.185541421175003052e-02 2.005482167005538940e-01 -1.254522707313299179e-02 -2.317615412175655365e-02 2.065295428037643433e-01 2.724591270089149475e-02 2.335266023874282837e-01 2.250624261796474457e-02 6.802072376012802124e-02 3.422813862562179565e-02 4.762013256549835205e-02 -1.097136642783880234e-02 5.021171271800994873e-02 2.564889378845691681e-02 1.304669678211212158e-01 -1.397061496973037720e-01 -7.643517106771469116e-02 9.657665342092514038e-02 -8.717305958271026611e-02 -2.966782636940479279e-02 -1.597027927637100220e-01 -1.475619059056043625e-02 1.818741858005523682e-01 1.066510006785392761e-01 -5.290296860039234161e-03 1.281973570585250854e-01 -1.035333052277565002e-01 5.273291841149330139e-02 2.685202658176422119e-01 3.557382151484489441e-02 1.220411732792854309e-01 7.087672501802444458e-02 1.621227897703647614e-02 1.547881215810775757e-01 1.123461872339248657e-01 4.823595285415649414e-03 -3.426101803779602051e-02
9.445358812808990479e-02 5.131238605827093124e-03 -3.561625629663467407e-02 -4.810906946659088135e-02 -4.244622588157653809e-02 8.691250532865524292e-02 2.316574007272720337e-02 -8.665866404771804810e-02 1.598987877368927002e-01 4.297636449337005615e-02 6.461980938911437988e-02 -4.325821623206138611e-02 2.543693780899047852e-02 -1.218333020806312561e-01 4.539756849408149719e-02 -8.041351288557052612e-02 1.471525756642222404e-03 -1.011792011559009552e-02 1.948320120573043823e-02 -3.204169217497110367e-03 1.875854097306728363e-02 4.976724088191986084e-02 1.672649942338466644e-02 5.395987071096897125e-03 1.257130950689315796e-01 5.662185722030699253e-04 -1.182854697108268738e-01 -1.152160093188285828e-01 2.224074155092239380e-01 3.737430647015571594e-02 4.726488515734672546e-02 -4.672029241919517517e-02 9.727346152067184448e-02 5.780357867479324341e-03 6.631280481815338135e-02 6.007150933146476746e-02 1.145578804425895214e-03 1.389882806688547134e-02 2.180746048688888550e-01 -5.005502328276634216e-02 6.659329682588577271e-02 1.306320875883102417e-01 1.280279010534286499e-01 -1.747939735651016235e-02 1.597817428410053253e-02 -4.233466461300849915e-03 2.774129621684551239e-02 1.558708399534225464e-01 -1.035294830799102783e-01 3.334083780646324158e-02 -8.779555559158325195e-02 -1.219163462519645691e-02 -6.734142452478408813e-02 1.237412765622138977e-01 7.603552937507629395e-02 -2.424448728561401367e-02 1.467162221670150757e-01 -5.182470753788948059e-02 -8.251639455556869507e-02 2.513440251350402832e-01
3.623284772038459778e-02 2.679023309610784054e-04 5.944815278053283691e-02 -2.693575620651245117e-02 1.539067327976226807e-01 1.510704755783081055e-01 -4.360645264387130737e-02 -7.527437806129455566e-02 7.633382081985473633e-02 8.633350953459739685e-03 2.629976570606231689e-01 1.346141332760453224e-03 7.918143272399902344e-02 -3.672752156853675842e-02 1.714052632451057434e-02 2.363068312406539917e-01 -3.474855050444602966e-02 1.312284916639328003e-01 1.054567843675613403e-01 1.734482869505882263e-02 1.074871569871902466e-01 -6.858216971158981323e-02 6.595041602849960327e-02 1.990617662668228149e-01 8.133781142532825470e-03 -5.919682793319225311e-03 6.374933570623397827e-02 6.401282735168933868e-03 -1.848839595913887024e-02 7.521793246269226074e-02 1.318221725523471832e-02 3.131775557994842529e-02 -1.029919758439064026e-01 -7.564216852188110352e-02 4.989567212760448456e-03 -4.323082044720649719e-02 6.231402605772018433e-02 -1.347718685865402222e-01 7.484551053494215012e-03 2.493280731141567230e-02 5.639338493347167969e-02 1.221617832779884338e-01 -2.065875753760337830e-02 -2.810455672442913055e-02 -5.056077241897583008e-02 9.456454962491989136e-02 3.706786781549453735e-02 1.728689670562744141e-02 1.001884862780570984e-01 -2.903457731008529663e-03 2.234809286892414093e-02 8.560770750045776367e-02 9.870388358831405640e-02 3.474500402808189392e-02 -8.350948989391326904e-02 -3.814700990915298462e-02 4.371611401438713074e-03 7.149394601583480835e-02 -1.867185235023498535e-01 -1.577469892799854279e-02
-1.490391343832015991e-01 1.229880470782518387e-02 -2.143243700265884399e-01 -8.889504522085189819e-02 7.175929844379425049e-02 -7.340899109840393066e-02 7.413488626480102539e-02 -1.072844937443733215e-01 -4.533658549189567566e-02 1.081998832523822784e-02 1.961928606033325195e-02 -3.026120178401470184e-02 -4.182265698909759521e-02 -9.284599125385284424e-02 -1.150996536016464233e-01 7.582493871450424194e-02 -1.683676838874816895e-01 1.364538818597793579e-01 -6.402777880430221558e-02 8.147405833005905151e-02 1.725050210952758789e-01 -2.254783175885677338e-02 3.950765356421470642e-02 3.538979962468147278e-02 1.231468990445137024e-01 5.311649292707443237e-02 1.253809779882431030e-01 3.259029984474182129e-02 -5.727601796388626099e-02 1.841996312141418457e-01 -3.195913136005401611e-02 3.407213836908340454e-02 -6.911857426166534424e-02 9.385765343904495239e-02 -7.634365558624267578e-02 1.976011088117957115e-03 -6.944885849952697754e-02 5.427260696887969971e-02 5.650187656283378601e-02 -1.707919985055923462e-01 -1.445114612579345703e-01 2.573529630899429321e-02 4.712157696485519409e-02 1.181335560977458954e-02 5.668052658438682556e-02 6.840186566114425659e-02 -1.127476245164871216e-01 -9.605153650045394897e-02 7.455387711524963379e-02 -4.619800671935081482e-02 -3.278660401701927185e-02 -9.676883369684219360e-02 1.230635344982147217e-01 1.703988760709762573e-01 4.726690426468849182e-02 -7.655775547027587891e-02 -1.194334216415882111e-02 1.104085072875022888e-01 1.971637904644012451e-01 -1.167617067694664001e-01
-1.515154540538787842e-01 -2.574320649728178978e-03 -2.275039069354534149e-02 1.452786177396774292e-01 -7.473255693912506104e-02 -1.143739745020866394e-02 -5.256551131606101990e-02 -2.995300665497779846e-02 6.493005156517028809e-02 -1.137964129447937012e-01 -4.980805143713951111e-02 8.732786774635314941e-02 6.050540879368782043e-02 6.151000410318374634e-02 -1.569910049438476562e-01 1.308617740869522095e-01 2.147726863622665405e-01 -2.020813524723052979e-02 1.657062023878097534e-01 -1.163384541869163513e-01 1.224536597728729248e-01 -6.237872689962387085e-02 2.913280576467514038e-02 -1.198810562491416931e-01 1.315067261457443237e-01 -1.991083845496177673e-02 -8.978518843650817871e-02 -9.010737389326095581e-02 2.897320315241813660e-02 5.479696765542030334e-02 -6.502451002597808838e-02 -8.152827620506286621e-02 -3.671833500266075134e-02 -3.157064318656921387e-02 1.740127652883529663e-01 -6.593674421310424805e-02 -9.527199901640415192e-03 -1.331719849258661270e-02 5.964326555840671062e-04 -5.010478943586349487e-02 1.129970028996467590e-01 -5.639166571199893951e-03 -4.916498064994812012e-02 6.325440853834152222e-02 -8.194256573915481567e-02 1.319694705307483673e-02 -1.677722856402397156e-02 -2.786963246762752533e-02 -1.035678479820489883e-02 -7.720799744129180908e-02 -3.087748028337955475e-02 5.727822706103324890e-02 8.304151147603988647e-02 3.440907597541809082e-02 -5.968582630157470703e-02 -3.362601250410079956e-02 1.756545603275299072e-01 -1.192505955696105957e-01 2.683070953935384750e-03 -8.562753349542617798e-02
5.721393600106239319e-02 -1.075442228466272354e-02 -6.235805153846740723e-02 1.135722994804382324e-01 -1.104312837123870850e-01 -2.592883631587028503e-02 -6.769227981567382812e-02 -2.019774401560425758e-04 -9.409411810338497162e-03 -1.100366283208131790e-02 -2.052660435438156128e-01 -8.478225767612457275e-02 -1.376544497907161713e-02 4.928000271320343018e-02 -1.247291713953018188e-01 1.701748929917812347e-02 -1.284905374050140381e-01 -2.136787176132202148e-01 -1.457433253526687622e-01 1.329540163278579712e-01 -3.366529941558837891e-02 1.448302119970321655e-01 -3.013591282069683075e-02 2.188076376914978027e-01 8.364631980657577515e-02 -1.989294886589050293e-01 3.194291517138481140e-02 1.150696054100990295e-01 4.112181439995765686e-02 1.062884777784347534e-01 9.247925877571105957e-02 -6.142293289303779602e-02 -1.058509051799774170e-01 -6.409788131713867188e-02 8.976684510707855225e-02 -2.587798796594142914e-02 -4.015072062611579895e-02 3.922302741557359695e-03 1.636788249015808105e-02 -7.481678575277328491e-02 5.416804179549217224e-02 1.227678433060646057e-01 5.765698850154876709e-02 -8.857609331607818604e-02 8.124870806932449341e-02 8.416686952114105225e-02 -4.531150683760643005e-02 6.665238738059997559e-02 1.714744567871093750e-01 6.557992100715637207e-02 3.445772826671600342e-02 -3.149950644001364708e-03 1.365758776664733887e-01 -4.373952746391296387e-03 1.875035651028156281e-02 4.661892354488372803e-02 1.197345331311225891e-01 -1.189051717519760132e-01 -9.028000384569168091e-02 -6.259953230619430542e-02
8.889714628458023071e-02 1.233139168471097946e-02 2.183019071817398071e-01 -1.042290776968002319e-01 2.158111482858657837e-01 2.823675610125064850e-02 5.837257951498031616e-02 -1.377623379230499268e-01 1.206147950142621994e-02 -1.484062820672988892e-01 -1.093346998095512390e-01 8.211124688386917114e-02 -9.859708696603775024e-02 5.018526315689086914e-02 2.538306713104248047e-01 7.795288413763046265e-02 6.679370999336242676e-02 -1.192168518900871277e-01 2.492975257337093353e-02 8.427590131759643555e-02 -9.096001833677291870e-02 -4.063889011740684509e-02 -5.319067463278770447e-02 1.019373610615730286e-01 3.765244409441947937e-02 -3.143578395247459412e-02 1.489263176918029785e-01 -6.401702016592025757e-02 -1.724148914217948914e-02 -1.578139662742614746e-01 -2.163329422473907471e-01 1.349485069513320923e-01 -4.497305303812026978e-02 1.840209364891052246e-01 1.343814134597778320e-01 7.266281545162200928e-02 -7.080079987645149231e-03 2.145362496376037598e-01 -1.357065737247467041e-01 -1.423609163612127304e-02 1.711113937199115753e-02 -7.909366860985755920e-03 -9.561487287282943726e-02 5.979530513286590576e-02 -1.406812816858291626e-01 4.275360703468322754e-02 1.183429732918739319e-01 8.088770508766174316e-02 -1.452405452728271484e-01 -5.480718240141868591e-02 6.098604947328567505e-02 1.038861051201820374e-01 4.834249615669250488e-03 8.160492777824401855e-02 -1.029422506690025330e-01 -6.089463084936141968e-02 2.204879559576511383e-02 2.987325377762317657e-02 -2.749877274036407471e-01 1.295686364173889160e-01
-4.547968273982405663e-04 7.155746966600418091e-02 -8.431596308946609497e-02 -2.549134381115436554e-02 -8.803837001323699951e-02 1.934073492884635925e-02 6.486863642930984497e-02 1.661295071244239807e-02 -2.253216356039047241e-01 -6.270807236433029175e-03 5.671532452106475830e-02 1.271703988313674927e-01 4.292705655097961426e-02 -1.373180449008941650e-01 5.107616633176803589e-02 5.824565142393112183e-02 -7.673427462577819824e-02 2.398101389408111572e-01 -2.290458977222442627e-02 -4.184708744287490845e-02 -1.164031550288200378e-01 -1.707041412591934204e-01 -9.529880434274673462e-02 -5.405672639608383179e-02 -1.647897064685821533e-01 -9.771105647087097168e-02 1.469258964061737061e-01 6.622850894927978516e-02 6.216953694820404053e-02 -8.177022635936737061e-02 2.225283160805702209e-02 -3.533853590488433838e-02 -6.489141378551721573e-03 -6.175675615668296814e-02 9.643676877021789551e-02 4.794260859489440918e-02 -5.760443396866321564e-03 -6.881726533174514771e-02 2.918772213160991669e-02 -7.220794260501861572e-02 6.491265725344419479e-03 -1.568956375122070312e-01 9.485867619514465332e-02 -1.382011622190475464e-01 -9.878340363502502441e-02 1.744333095848560333e-02 6.484539806842803955e-02 -8.898867666721343994e-02 -9.796833246946334839e-02 -3.179182484745979309e-02 6.626579165458679199e-02 -7.585161924362182617e-02 -8.963936567306518555e-02 -5.602325499057769775e-02 -2.280585654079914093e-02 4.668823257088661194e-02 -6.250056624412536621e-02 1.015680562704801559e-02 -4.384453222155570984e-02 2.794413827359676361e-02
9.352833032608032227e-02 1.291161030530929565e-01 -4.028073698282241821e-02 8.456792682409286499e-02 7.194762676954269409e-02 9.401689469814300537e-02 6.575386971235275269e-02 -2.001611739397048950e-01 5.657471343874931335e-02 -1.770362257957458496e-01 -1.260260343551635742e-01 -5.681741051375865936e-03 -1.184941530227661133e-01 5.878185108304023743e-02 1.116000674664974213e-02 -3.890200983732938766e-03 -4.507336765527725220e-02 -8.629049174487590790e-03 4.636942595243453979e-02 1.838559508323669434e-01 -8.405276387929916382e-02 1.081392914056777954e-01 -5.533454194664955139e-02 -9.764836728572845459e-02 1.377971172332763672e-01 7.563406974077224731e-02 1.356344372034072876e-01 1.528206765651702881e-01 -1.155816484242677689e-02 -5.065602809190750122e-02 3.640183014795184135e-03 -1.179045960307121277e-01 -2.299658767879009247e-02 1.394139528274536133e-01 4.369684308767318726e-02 7.393470406532287598e-02 -2.540872432291507721e-02 -1.018910333514213562e-01 2.725878916680812836e-02 -5.153713747859001160e-03 9.001178666949272156e-03 8.558697253465652466e-02 -1.097558159381151199e-02 -3.964976593852043152e-02 -3.568185865879058838e-02 5.879060924053192139e-02 9.522327035665512085e-02 4.961654171347618103e-02 -4.545062780380249023e-02 1.393490354530513287e-03 3.300695866346359253e-02 3.123381733894348145e-02 -7.210070639848709106e-02 1.498082187026739120e-02 1.322838813066482544e-01 -1.103816106915473938e-01 -1.016634702682495117e-01 -1.275345310568809509e-02 -6.197067722678184509e-02 5.451173335313796997e-02
4.235688224434852600e-02 1.301019340753555298e-01 -6.330406665802001953e-02 2.062898856820538640e-04 -4.667767137289047241e-02 1.793503612279891968e-01 -1.205050572752952576e-01 -9.985708445310592651e-02 9.177713654935359955e-03 -4.163609445095062256e-02 -2.619339525699615479e-02 1.258417367935180664e-01 -2.272349782288074493e-02 -2.509135007858276367e-02 7.215823978185653687e-02 -2.142584882676601410e-02 -3.827251866459846497e-02 1.635865718126296997e-01 1.861487925052642822e-01 2.870547398924827576e-02 1.152743995189666748e-01 1.371185332536697388e-01 -3.312469273805618286e-02 -4.504236206412315369e-02 1.436489224433898926e-01 2.046829275786876678e-02 -1.236264929175376892e-01 -1.140143573284149170e-01 2.034912444651126862e-02 2.598508633673191071e-02 -4.747693985700607300e-02 8.446376770734786987e-02 4.868353789788670838e-05 1.920731067657470703e-01 -4.599958285689353943e-02 3.652485832571983337e-02 5.325027555227279663e-02 -6.976353377103805542e-02 -1.676484495401382446e-01 4.370895028114318848e-02 -1.098043844103813171e-02 -1.375449448823928833e-01 3.019172931089997292e-03 -1.157138198614120483e-01 4.831306263804435730e-02 6.484042853116989136e-02 1.702026091516017914e-02 4.706056788563728333e-02 8.066970854997634888e-02 7.751697301864624023e-02 6.297439336776733398e-02 -1.100611537694931030e-01 -2.144571244716644287e-01 -3.458582982420921326e-02 5.619995296001434326e-03 8.112338185310363770e-02 -8.848504722118377686e-02 1.581722646951675415e-01 2.628428488969802856e-02 -9.849426150321960449e-02
-9.112757444381713867e-02 -5.333878099918365479e-02 1.223727241158485413e-01 -8.262858726084232330e-03 -5.307036265730857849e-02 -1.093464419245719910e-01 -7.036781311035156250e-02 -2.693258821964263916e-01 -1.246443949639797211e-02 1.371812522411346436e-01 -4.634378850460052490e-02 5.729308351874351501e-02 6.248701736330986023e-02 4.561844095587730408e-02 -8.641378581523895264e-02 1.494410932064056396e-01 6.485134363174438477e-02 1.736709624528884888e-01 -3.700435906648635864e-02 -8.759482298046350479e-04 -2.163981832563877106e-02 -7.722043991088867188e-02 5.248259752988815308e-03 7.986222952604293823e-02 -2.809195592999458313e-02 -6.899002939462661743e-02 9.456396102905273438e-02 -1.124063227325677872e-02 -2.443236298859119415e-02 -1.284961551427841187e-01 -3.262965707108378410e-03 4.519819095730781555e-02 -1.074709147214889526e-01 -1.387937963008880615e-01 -1.091667488217353821e-01 -1.447367370128631592e-01 -7.662722468376159668e-02 -8.686919510364532471e-02 -1.719979792833328247e-01 1.852479577064514160e-01 6.758055649697780609e-03 -1.989044062793254852e-02 -6.938645988702774048e-02 -9.033899754285812378e-02 -5.171125009655952454e-02 -3.775809705257415771e-02 8.274623006582260132e-02 -9.670265763998031616e-02 1.144570186734199524e-01 3.452771157026290894e-02 -8.460941910743713379e-02 2.506445348262786865e-02 4.214725643396377563e-02 -3.918078541755676270e-02 -1.038323119282722473e-01 -3.809664398431777954e-02 3.176578879356384277e-02 -5.439504608511924744e-02 -9.919342398643493652e-02 6.851500272750854492e-02
1.498301178216934204e-01 -1.668863184750080109e-02 -1.000835373997688293e-01 3.573787584900856018e-02 -1.056133508682250977e-01 9.086143225431442261e-02 -7.252544164657592773e-02 -1.698178984224796295e-02 -7.469939440488815308e-02 -3.349525108933448792e-02 5.539836362004280090e-02 1.250678896903991699e-01 7.987766526639461517e-03 1.058149486780166626e-01 -3.446236625313758850e-02 -1.173225939273834229e-01 2.362449653446674347e-03 1.136241257190704346e-01 -7.222534716129302979e-02 -1.270562112331390381e-01 -4.974022042006254196e-03 -1.005424857139587402e-01 -9.195037186145782471e-02 5.883695557713508606e-02 -9.204873442649841309e-02 -1.156116873025894165e-01 2.442369610071182251e-02 -1.770335063338279724e-02 3.624566644430160522e-02 -1.291780769824981689e-01 1.856081187725067139e-02 -1.417804658412933350e-01 -1.387282460927963257e-01 7.040707021951675415e-02 -1.646718382835388184e-02 -1.292378455400466919e-01 -8.944199979305267334e-02 6.642624735832214355e-02 -1.991615816950798035e-02 -6.552604585886001587e-02 -1.021188031882047653e-02 5.664445087313652039e-02 -1.037929672747850418e-03 1.077547296881675720e-01 -3.424917813390493393e-03 -7.052563875913619995e-02 -1.734858565032482147e-02 -4.486386477947235107e-02 1.130263581871986389e-01 -9.330430626869201660e-02 4.084881022572517395e-02 -2.294856589287519455e-03 1.607275754213333130e-01 -2.281762808561325073e-01 -1.067133769392967224e-01 3.505088388919830322e-02 -2.290257662534713745e-01 2.803199551999568939e-02 8.148775435984134674e-03 1.334107518196105957e-01
-1.052508205175399780e-01 9.923334419727325439e-02 -6.699862424284219742e-04 -7.830230146646499634e-02 1.067630425095558167e-01 -9.271261096000671387e-02 4.437720030546188354e-02 -2.217156998813152313e-02 1.862016320228576660e-01 -6.144501268863677979e-03 4.098159447312355042e-02 2.201473899185657501e-02 1.490414142608642578e-01 -4.936654120683670044e-02 -7.294139359146356583e-03 -3.170895203948020935e-02 5.695205554366111755e-02 5.444458872079849243e-02 -1.041874885559082031e-01 8.301546424627304077e-02 1.163519099354743958e-01 7.772012054920196533e-02 -1.238611713051795959e-02 -5.489129573106765747e-03 7.713971287012100220e-02 -2.071399055421352386e-02 -9.666156768798828125e-02 3.278506696224212646e-01 -9.356380999088287354e-02 -1.715991646051406860e-01 -5.767419189214706421e-02 5.787586793303489685e-02 5.988963320851325989e-02 -7.162503898143768311e-02 8.183659613132476807e-02 -1.012719199061393738e-01 -7.947113364934921265e-02 -2.563960850238800049e-02 -1.224878653883934021e-01 2.821904234588146210e-02 1.171208024024963379e-01 -4.559948667883872986e-02 -2.989762648940086365e-02 -4.308078903704881668e-03 -4.382199794054031372e-02 -3.994003310799598694e-02 -1.813885942101478577e-02 3.196617215871810913e-02 -1.079578697681427002e-01 -1.686203479766845703e-01 -8.135980367660522461e-02 -6.358253210783004761e-02 9.319847822189331055e-02 7.130263745784759521e-02 2.070370130240917206e-02 4.747084155678749084e-02 -6.082811579108238220e-02 1.481264829635620117e-01 -8.603726513683795929e-03 -5.764576792716979980e-02
-7.650543749332427979e-02 -3.073370829224586487e-02 9.034113585948944092e-02 2.390810400247573853e-01 1.201576888561248779e-01 3.961159382015466690e-04 -6.574169732630252838e-03 4.936731979250907898e-02 5.388104170560836792e-02 -4.803093150258064270e-03 -2.741542458534240723e-02 -1.253239214420318604e-01 -2.848738431930541992e-02 -8.692529797554016113e-02 -6.867023557424545288e-02 -4.847265034914016724e-02 -1.134968325495719910e-01 1.251352727413177490e-01 -3.701971471309661865e-02 3.561729565262794495e-02 -4.574998468160629272e-02 4.605914652347564697e-02 7.876853644847869873e-02 1.498673260211944580e-01 1.149762794375419617e-01 8.411692827939987183e-02 1.018286272883415222e-01 6.200888380408287048e-02 8.240312337875366211e-03 6.671675294637680054e-02 -4.361835122108459473e-02 1.648627817630767822e-01 -2.455561049282550812e-02 1.145964264869689941e-01 -1.015469357371330261e-01 -4.227120801806449890e-02 4.597374424338340759e-02 -6.139265373349189758e-03 -7.413876056671142578e-02 -9.661775082349777222e-02 5.825939774513244629e-02 2.715518176555633545e-01 -6.799335032701492310e-02 3.263664990663528442e-02 -1.367957741022109985e-01 -6.299981474876403809e-02 2.289437800645828247e-01 -1.138369180262088776e-02 -1.483516208827495575e-02 1.967580057680606842e-03 1.070555578917264938e-02 2.425405982648953795e-04 -5.541844293475151062e-02 -1.465499773621559143e-02 -1.102897226810455322e-01 4.856871068477630615e-02 -4.585675895214080811e-02 3.632941097021102905e-02 7.176270335912704468e-02 7.674049120396375656e-03
1.682608947157859802e-02 3.138406947255134583e-02 9.662973135709762573e-02 5.115418881177902222e-02 2.217575907707214355e-01 -7.890510372817516327e-03 -6.323231011629104614e-02 -1.863435655832290649e-02 1.255698651075363159e-01 3.019141219556331635e-02 -4.038029536604881287e-02 1.324043571949005127e-01 8.103703707456588745e-02 -6.433520000427961349e-03 1.303071081638336182e-01 -9.134612232446670532e-02 1.501458585262298584e-01 3.334635123610496521e-02 -4.357897210866212845e-03 1.054637432098388672e-01 1.141261979937553406e-01 1.030316874384880066e-01 1.230727359652519226e-01 1.564674228429794312e-01 3.325366973876953125e-02 -5.806459486484527588e-02 -1.882267370820045471e-02 9.587914496660232544e-02 9.755549021065235138e-03 -1.211986243724822998e-01 -1.198165938258171082e-01 1.043515726923942566e-01 -2.990463003516197205e-02 7.861766219139099121e-02 -6.642322987318038940e-02 -9.839365631341934204e-02 9.270044416189193726e-02 4.392063990235328674e-02 3.171856328845024109e-02 7.739662379026412964e-02 -1.515736579895019531e-01 -1.049798354506492615e-01 7.613790780305862427e-02 3.628076985478401184e-02 -8.643468469381332397e-02 -8.843209594488143921e-02 5.098902061581611633e-02 1.316339969635009766e-01 6.903162691742181778e-03 1.120730713009834290e-01 6.793341785669326782e-02 1.131575088948011398e-02 2.626174315810203552e-02 1.583419293165206909e-01 -6.243217363953590393e-02 1.582151055335998535e-01 -6.212244927883148193e-02 1.774338819086551666e-02 -9.531126357614994049e-03 4.961791634559631348e-02
-2.583853527903556824e-02 1.131089553236961365e-01 1.092163100838661194e-01 -2.562519907951354980e-01 -1.153991892933845520e-01 -4.432603344321250916e-02 -9.305209852755069733e-03 -1.531049311161041260e-01 -6.806112080812454224e-02 -6.496013700962066650e-02 1.743103861808776855e-01 -7.268714904785156250e-02 -8.159290999174118042e-02 -1.062589138746261597e-01 7.527131587266921997e-02 8.244920521974563599e-02 -1.559630781412124634e-01 -5.243051797151565552e-02 -1.860292106866836548e-01 4.281491413712501526e-02 -3.564941883087158203e-02 6.763065606355667114e-02 -3.107120469212532043e-02 -1.053596213459968567e-01 -9.859378635883331299e-02 -8.663850277662277222e-02 1.390403509140014648e-01 -2.298821695148944855e-02 -1.697423122823238373e-02 -1.860643476247787476e-01 1.474170684814453125e-01 1.499902009963989258e-01 -6.231705844402313232e-02 -5.740791931748390198e-02 -1.902376115322113037e-02 7.797493040561676025e-02 -2.870278246700763702e-02 2.215266413986682892e-02 -1.550118029117584229e-01 2.730130963027477264e-02 -8.942455798387527466e-02 3.376303613185882568e-02 -2.667739801108837128e-02 -1.397029459476470947e-01 -3.523713722825050354e-02 -2.649681083858013153e-02 7.721465826034545898e-02 1.548884660005569458e-01 -1.396759003400802612e-01 -1.010320801287889481e-02 6.675533205270767212e-02 -5.987241864204406738e-02 -1.980919018387794495e-02 -7.405868917703628540e-02 4.419360309839248657e-02 -5.271307006478309631e-02 6.797344982624053955e-02 -4.161588475108146667e-02 1.047007888555526733e-01 3.383843600749969482e-02
-1.101848185062408447e-01 2.576764486730098724e-02 -5.568221211433410645e-02 6.164615973830223083e-03 -6.637177616357803345e-02 3.165075182914733887e-02 -1.030788421630859375e-01 9.400316327810287476e-02 -7.948464155197143555e-02 4.797184094786643982e-02 -2.037652283906936646e-01 7.506702095270156860e-02 1.163446996361017227e-02 9.410343319177627563e-02 3.546196036040782928e-03 7.525739818811416626e-02 4.260911047458648682e-02 3.358026221394538879e-02 6.951598078012466431e-02 -1.842584908008575439e-01 -3.413778916001319885e-02 -1.039656549692153931e-01 -4.710137471556663513e-02 2.821507751941680908e-01 -8.232425898313522339e-02 -8.613682538270950317e-02 9.934707544744014740e-03 -7.724024355411529541e-02 9.887796640396118164e-02 -6.445407867431640625e-02 8.787509053945541382e-02 -4.972932115197181702e-02 5.244481191039085388e-02 -7.496690843254327774e-03 1.684074777585919946e-05 1.242679432034492493e-01 2.871471643447875977e-02 2.003850601613521576e-02 2.758327499032020569e-02 4.378490895032882690e-02 1.144274231046438217e-02 1.187669783830642700e-01 4.061744362115859985e-02 9.651040285825729370e-02 4.015526175498962402e-02 4.960669204592704773e-02 1.723294258117675781e-01 9.441291540861129761e-02 2.053075097501277924e-02 7.408192753791809082e-02 -1.722312718629837036e-01 -2.644133009016513824e-02 -1.113319769501686096e-01 3.570023551583290100e-02 1.539339870214462280e-01 6.044270470738410950e-02 4.798564687371253967e-02 1.036552935838699341e-01 -7.197716832160949707e-02 -1.316822767257690430e-01
-8.714903891086578369e-02 6.080321967601776123e-02 -1.216299179941415787e-02 3.090849146246910095e-02 6.764557957649230957e-02 -9.975937195122241974e-03 -1.987385563552379608e-03 -9.395708143711090088e-02 -3.116276301443576813e-02 -3.905547782778739929e-03 4.400927573442459106e-02 1.568825333379209042e-03 3.161105886101722717e-02 4.715108126401901245e-02 1.955134235322475433e-02 -1.492202398367226124e-03 -1.485364045947790146e-02 2.619081549346446991e-02 -4.095942899584770203e-02 -7.257679104804992676e-02 6.740476237609982491e-04 8.764071762561798096e-02 -1.337286233901977539e-01 4.178281128406524658e-02 3.951824735850095749e-03 1.570235565304756165e-02 6.819638609886169434e-02 1.362714618444442749e-01 -1.886850148439407349e-01 6.651297211647033691e-02 2.277811616659164429e-02 -1.467736717313528061e-02 -1.423253715038299561e-01 8.495900034904479980e-02 1.504805637523531914e-03 -1.011028606444597244e-02 -5.375125631690025330e-02 -8.291538059711456299e-02 6.767423450946807861e-02 7.630728185176849365e-02 1.124696582555770874e-01 -1.729225553572177887e-02 -9.568595327436923981e-03 6.962911784648895264e-02 7.425099611282348633e-02 -7.281929254531860352e-02 -5.802834779024124146e-02 -2.002061456441879272e-01 2.412938177585601807e-01 3.394875675439834595e-03 -1.864793524146080017e-02 4.334425926208496094e-02 -6.863192468881607056e-02 -6.694807112216949463e-02 2.932608313858509064e-02 -6.966365501284599304e-03 1.095462366938591003e-01 -1.140833571553230286e-01 -2.224298939108848572e-02 -1.560532897710800171e-01
-4.660297185182571411e-02 7.630041986703872681e-02 -5.647705495357513428e-02 2.511464655399322510e-01 3.384388983249664307e-02 -5.636879056692123413e-02 -3.889792412519454956e-02 -1.105579733848571777e-01 -8.061537891626358032e-02 -1.327861249446868896e-01 1.421728432178497314e-01 -3.659132122993469238e-02 9.522504173219203949e-03 -2.269955165684223175e-02 2.209873348474502563e-01 -4.810521006584167480e-02 -8.128511905670166016e-02 -8.888962864875793457e-02 6.744143366813659668e-02 -3.890310227870941162e-02 -1.290014833211898804e-01 -1.663864701986312866e-01 6.566082686185836792e-02 -1.364771574735641479e-01 -1.409757998771965504e-03 -3.703192621469497681e-02 3.141840547323226929e-02 3.888248652219772339e-02 5.712677258998155594e-03 1.867834292352199554e-02 -1.230697259306907654e-01 1.766588836908340454e-01 1.175498366355895996e-01 -1.243789643049240112e-01 -1.619699895381927490e-01 3.434474393725395203e-02 2.732179686427116394e-02 -5.423744395375251770e-02 8.441834710538387299e-03 1.110102087259292603e-01 3.966498374938964844e-02 1.254485994577407837e-01 -9.690268337726593018e-02 1.336161196231842041e-01 -1.523855626583099365e-01 6.021320074796676636e-02 -9.097207337617874146e-02 -1.337288133800029755e-02 -8.210790902376174927e-02 1.187634691596031189e-01 -1.130077540874481201e-01 -1.011221762746572495e-02 8.097422868013381958e-02 2.008592523634433746e-02 1.718863099813461304e-02 5.106076598167419434e-02 5.850746482610702515e-02 -7.040540128946304321e-02 -3.909078612923622131e-02 -8.766243234276771545e-03
1.557019501924514771e-01 -1.308530718088150024e-01 -5.064585432410240173e-02 -7.495748251676559448e-02 -1.739949360489845276e-02 -3.160178661346435547e-02 1.428967714309692383e-01 -1.026021763682365417e-01 1.026067882776260376e-01 8.254960179328918457e-02 -3.685640543699264526e-02 -8.494747430086135864e-02 -4.749471321702003479e-03 -1.273781508207321167e-01 1.938441395759582520e-02 -1.160187166533432901e-04 -1.989148557186126709e-01 6.622263789176940918e-02 4.173069074749946594e-02 1.070833131670951843e-01 -8.131865411996841431e-03 1.198979094624519348e-01 4.274359345436096191e-02 -3.260313719511032104e-02 -7.920549251139163971e-03 3.846387565135955811e-02 -2.292951196432113647e-02 1.218014806509017944e-01 2.076551467180252075e-01 6.118862330913543701e-02 1.661429703235626221e-01 -9.708084166049957275e-02 -3.630074858665466309e-02 -8.114872872829437256e-02 7.211679965257644653e-02 4.911660775542259216e-02 1.687690615653991699e-01 1.082789972424507141e-01 -5.672616139054298401e-02 -4.041687771677970886e-02 1.288873851299285889e-01 -1.373172998428344727e-01 1.150857359170913696e-01 7.473132573068141937e-03 8.506454527378082275e-02 -1.357656270265579224e-01 -7.075864821672439575e-02 1.585872173309326172e-01 -3.885003179311752319e-02 6.661248207092285156e-02 1.096100583672523499e-01 4.135556146502494812e-02 5.099614709615707397e-02 -1.224347110837697983e-02 -4.237946867942810059e-02 -1.135038137435913086e-01 8.101206272840499878e-02 -1.380832940340042114e-01 -1.733148396015167236e-01 1.033032406121492386e-02
6.497685611248016357e-02 -8.591764420270919800e-02 -1.334759313613176346e-02 1.334947496652603149e-01 -5.470486823469400406e-03 -6.606229394674301147e-02 -2.764992788434028625e-02 -1.316137760877609253e-01 -1.745089292526245117e-01 5.466608330607414246e-03 1.557740718126296997e-01 1.704131811857223511e-02 -1.261511296033859253e-01 8.602356165647506714e-02 5.566581711173057556e-02 -5.327231436967849731e-02 4.485725611448287964e-02 -1.914110220968723297e-02 2.169550955295562744e-02 5.665181949734687805e-02 1.764847040176391602e-01 -9.429214894771575928e-02 6.207326054573059082e-02 -5.804621428251266479e-02 6.032784283161163330e-02 1.110522523522377014e-01 1.235245987772941589e-01 3.896913677453994751e-02 9.850254654884338379e-02 9.406397491693496704e-02 2.684094756841659546e-02 -9.581007808446884155e-02 -4.334955289959907532e-02 -1.040659770369529724e-01 1.125443279743194580e-01 3.769496083259582520e-02 8.438535034656524658e-03 -4.205556586384773254e-03 1.728149130940437317e-02 1.102973893284797668e-01 1.775012537837028503e-02 -3.909290826413780451e-04 -2.056991308927536011e-02 -1.943028271198272705e-01 -1.807198226451873779e-01 9.942861646413803101e-02 1.016914844512939453e-01 8.517289161682128906e-02 -5.230498686432838440e-02 -2.170731686055660248e-02 -8.463352918624877930e-03 -2.287870831787586212e-02 -2.090408354997634888e-01 -2.080994695425033569e-01 3.584749624133110046e-02 -6.080647185444831848e-02 1.325927227735519409e-01 -3.658565133810043335e-02 -7.484429329633712769e-02 -3.395675914362072945e-03
4.731616750359535217e-02 2.616733908653259277e-01 1.484026899561285973e-03 -1.372279077768325806e-01 -1.051811426877975464e-01 -4.628143832087516785e-02 -8.183321356773376465e-02 8.202184736728668213e-02 -5.348240211606025696e-02 -6.774880737066268921e-02 -1.807658188045024872e-02 6.414274871349334717e-02 4.674009978771209717e-02 1.309410035610198975e-01 -1.071888506412506104e-01 1.065827682614326477e-01 5.280768871307373047e-02 -4.636918753385543823e-02 3.807915607467293739e-03 9.578964672982692719e-03 -1.176232025027275085e-01 -2.042046189308166504e-02 -2.657504007220268250e-02 -1.496093422174453735e-01 -6.966387480497360229e-02 -4.544775187969207764e-02 4.701310023665428162e-02 2.359646605327725410e-03 -4.985467344522476196e-02 -2.152097597718238831e-02 -1.060682237148284912e-01 6.979443877935409546e-02 -5.826936289668083191e-02 5.545416101813316345e-02 -1.025227159261703491e-01 -5.622107163071632385e-02 7.402309775352478027e-02 -2.879300154745578766e-02 1.963521987199783325e-01 -1.167056113481521606e-01 -3.998240828514099121e-02 -1.561386417597532272e-02 5.719793215394020081e-02 -6.016960367560386658e-02 1.151136979460716248e-01 -1.119549293071031570e-02 -3.895103186368942261e-02 1.392018496990203857e-01 -4.507865756750106812e-02 3.826953470706939697e-02 6.401006132364273071e-02 -1.284643448889255524e-02 9.237778186798095703e-02 1.116478368639945984e-01 -9.965431690216064453e-02 4.554105922579765320e-02 7.364517450332641602e-02 -1.376071870326995850e-01 -8.210418745875358582e-03 -4.263324663043022156e-02
2.080602385103702545e-02 -5.499834939837455750e-02 2.609375864267349243e-02 -1.648903265595436096e-02 2.962263301014900208e-02 -1.446516364812850952e-01 -2.263192459940910339e-02 1.700518429279327393e-01 5.373836681246757507e-02 2.332836389541625977e-02 3.208277630619704723e-04 -5.114512145519256592e-02 1.129139810800552368e-01 -1.677198559045791626e-01 3.708660230040550232e-02 -4.344514571130275726e-03 -8.092482574284076691e-03 -4.298270866274833679e-02 1.284911036491394043e-01 4.079307243227958679e-02 -9.505161643028259277e-02 3.923104703426361084e-02 6.728042662143707275e-02 -1.631322354078292847e-01 1.724348403513431549e-03 -1.242620870471000671e-01 2.156402468681335449e-01 5.386269092559814453e-02 -1.647196412086486816e-01 -3.700598701834678650e-02 -4.732738807797431946e-02 -1.503303050994873047e-01 -4.041611403226852417e-02 9.290129691362380981e-02 -6.482599675655364990e-02 2.297748066484928131e-02 2.328163944184780121e-02 1.035096570849418640e-01 -8.259742707014083862e-02 1.339554190635681152e-01 6.743849068880081177e-02 1.781840994954109192e-02 6.125931628048419952e-03 -5.976767465472221375e-02 5.705512687563896179e-02 -1.863820552825927734e-01 4.632817208766937256e-02 -6.783211976289749146e-02 4.998140409588813782e-02 9.667440317571163177e-03 -9.685676544904708862e-02 -3.500680625438690186e-02 -8.288415521383285522e-02 -1.580447331070899963e-02 1.123179495334625244e-01 1.738222092390060425e-01 -2.064459621906280518e-01 1.896976865828037262e-02 9.197416156530380249e-02 -2.350845187902450562e-02
-1.507886201143264771e-01 -4.919864982366561890e-02 -3.158021345734596252e-02 5.867561325430870056e-02 -8.359050005674362183e-02 -4.442561417818069458e-02 -1.507330089807510376e-01 1.054423023015260696e-02 3.782940655946731567e-02 -1.307890415191650391e-01 -1.313767582178115845e-01 -4.847826063632965088e-02 7.154802978038787842e-02 1.475374028086662292e-02 2.039983123540878296e-02 -6.787826865911483765e-02 3.959463164210319519e-02 1.191320829093456268e-02 1.151773706078529358e-01 -1.222238838672637939e-01 -1.068124547600746155e-02 -6.328061968088150024e-02 -5.666832625865936279e-02 -2.667507529258728027e-02 1.276306658983230591e-01 -1.463606208562850952e-01 5.092865601181983948e-02 -7.360631227493286133e-02 1.433387100696563721e-01 -1.017564907670021057e-01 2.074173390865325928e-01 -1.736249588429927826e-02 4.082942381501197815e-03 3.462366387248039246e-02 6.329007446765899658e-04 -2.602200023829936981e-03 1.682602316141128540e-01 1.907521337270736694e-01 -9.521681070327758789e-02 -1.006085872650146484e-01 4.518829286098480225e-02 6.778788566589355469e-02 9.342531114816665649e-02 -8.559445291757583618e-02 -4.083542525768280029e-02 -1.625079512596130371e-01 5.560172721743583679e-02 8.662299811840057373e-02 1.117459237575531006e-01 -2.712624892592430115e-02 1.410558912903070450e-02 5.458492785692214966e-02 2.924490720033645630e-02 1.551599707454442978e-02 5.189978051930665970e-03 -9.915555268526077271e-02 5.099480599164962769e-02 -5.815682932734489441e-02 -8.544550091028213501e-02 1.587144881486892700e-01
-1.866386458277702332e-02 -8.168514072895050049e-02 5.270668864250183105e-02 -6.272108107805252075e-02 1.058970689773559570e-01 -9.664308279752731323e-02 -1.207011118531227112e-01 -4.990531131625175476e-02 -6.261900812387466431e-02 8.239381760358810425e-02 8.243632316589355469e-02 4.554842039942741394e-02 -8.232701569795608521e-02 5.275446176528930664e-02 1.257300935685634613e-02 -1.094483509659767151e-01 -1.096831355243921280e-02 -2.527861297130584717e-02 1.227936521172523499e-02 6.932020932435989380e-02 -8.429355919361114502e-02 -4.757478833198547363e-02 6.568810343742370605e-02 -7.584562897682189941e-02 1.156564950942993164e-01 1.239904090762138367e-01 1.671122200787067413e-02 -1.648368500173091888e-02 -7.033962011337280273e-02 -2.167464345693588257e-01 -3.117586858570575714e-02 -4.557816311717033386e-02 3.303650021553039551e-02 -9.782564640045166016e-02 -6.329970806837081909e-02 2.362497523427009583e-02 1.316401213407516479e-01 -1.206558011472225189e-02 1.361663043498992920e-01 2.756833098828792572e-02 -7.981894910335540771e-02 1.938017271459102631e-02 -3.160598501563072205e-02 1.182138249278068542e-01 -1.125491224229335785e-02 2.067798525094985962e-01 1.365714222192764282e-01 -7.684333622455596924e-02 -1.253531221300363541e-02 -2.105369605123996735e-02 1.401878893375396729e-01 -1.315037440508604050e-02 1.583989709615707397e-01 -5.303557496517896652e-03 3.393077850341796875e-02 -1.546178013086318970e-02 2.588047087192535400e-02 -1.283656898885965347e-02 -9.512184560298919678e-02 -2.244155257940292358e-01
-1.389780174940824509e-02 -8.526950143277645111e-03 1.459937309846282005e-03 2.062348872423171997e-01 4.284380003809928894e-02 5.374453961849212646e-03 1.955298520624637604e-02 1.017600223422050476e-01 8.888409473001956940e-03 8.330713212490081787e-02 6.845492124557495117e-02 -7.683785166591405869e-03 -7.705741096287965775e-03 9.597118198871612549e-02 -5.961719900369644165e-02 -7.952334731817245483e-02 1.035944893956184387e-01 -1.652313582599163055e-02 -3.334021940827369690e-02 1.009524390101432800e-01 -1.595439463853836060e-01 -2.365186996757984161e-02 2.272299677133560181e-01 -1.088400110602378845e-01 1.053759232163429260e-01 1.418113522231578827e-02 -2.282588034868240356e-01 -1.267904639244079590e-01 9.105417132377624512e-02 4.687241837382316589e-02 7.659897953271865845e-02 1.495242565870285034e-01 4.905616864562034607e-02 -8.315517008304595947e-02 -8.520682156085968018e-02 1.407683342695236206e-01 -1.717422753572463989e-01 -1.827776804566383362e-02 -1.495733112096786499e-01 -2.905085682868957520e-02 3.300049155950546265e-02 8.517989516258239746e-02 -7.334334403276443481e-02 -1.888103187084197998e-01 -1.079796552658081055e-01 7.437846064567565918e-02 7.273835130035877228e-03 1.027683448046445847e-02 4.974808916449546814e-02 -7.324053440243005753e-03 1.704109162092208862e-01 -4.730033129453659058e-02 9.935551136732101440e-02 9.630282223224639893e-02 3.400712087750434875e-02 -1.504453551024198532e-02 -1.118827909231185913e-01 1.255644559860229492e-01 3.832272812724113464e-02 -9.656792879104614258e-02
-1.122876852750778198e-01 1.027652472257614136e-01 1.746690087020397186e-02 7.358698546886444092e-02 -6.009912490844726562e-02 6.454672664403915405e-02 -8.279356360435485840e-02 -3.498490899801254272e-02 6.697526574134826660e-02 -1.376386284828186035e-01 -1.798523962497711182e-01 -5.336211249232292175e-02 1.078253537416458130e-01 6.428003776818513870e-03 -4.186506941914558411e-02 -1.432918608188629150e-01 1.008814200758934021e-01 4.035072028636932373e-02 9.557135403156280518e-03 -6.967712938785552979e-02 1.429342944175004959e-02 1.482456475496292114e-01 4.933826625347137451e-02 2.725848555564880371e-02 -4.755717143416404724e-02 4.492516815662384033e-02 5.941681936383247375e-02 1.992865353822708130e-01 3.252576291561126709e-02 2.407110854983329773e-02 1.583748757839202881e-01 4.691581428050994873e-02 -8.665692806243896484e-02 4.518147930502891541e-02 -3.540875390172004700e-02 -3.877154737710952759e-02 -4.620447871275246143e-04 -1.434078365564346313e-01 3.652715682983398438e-02 -6.464932858943939209e-02 8.699718862771987915e-02 -3.483951836824417114e-02 -2.639469876885414124e-02 8.111587911844253540e-02 -2.530505321919918060e-02 9.478107094764709473e-02 6.844723597168922424e-03 1.189229730516672134e-02 -6.943432241678237915e-02 1.458255648612976074e-01 5.081392079591751099e-02 5.029870942234992981e-02 -6.549362093210220337e-02 -7.070298492908477783e-02 6.375026702880859375e-02 1.591236703097820282e-02 -1.028650104999542236e-01 4.109477251768112183e-02 -1.595477461814880371e-01 2.373472414910793304e-02
5.977021530270576477e-02 5.450375750660896301e-02 -2.196516096591949463e-01 -1.846660114824771881e-02 -9.681122750043869019e-02 1.716964542865753174e-01 5.406572483479976654e-03 -8.580481261014938354e-02 -4.922480788081884384e-03 1.039049625396728516e-01 -3.646009601652622223e-03 -6.510509178042411804e-03 3.515702486038208008e-02 -1.302729994058609009e-01 4.295244067907333374e-02 -2.267329953610897064e-02 8.114416152238845825e-02 2.912486903369426727e-02 4.776243120431900024e-02 7.339627295732498169e-02 8.620158582925796509e-02 1.240096762776374817e-01 9.247308969497680664e-02 1.530239284038543701e-01 -3.055778518319129944e-02 2.061445266008377075e-02 4.216032847762107849e-02 4.756706207990646362e-02 -1.420552432537078857e-01 1.129482686519622803e-01 -1.495746821165084839e-01 1.284285541623830795e-02 -6.711543537676334381e-03 1.727118343114852905e-02 -1.002947427332401276e-02 1.079455614089965820e-01 -2.323430776596069336e-02 -1.750450953841209412e-02 4.550388827919960022e-02 -1.784550212323665619e-02 -1.088898181915283203e-01 -7.491143792867660522e-02 -3.621686482802033424e-03 1.004496440291404724e-01 1.816557534039020538e-02 -8.801378309726715088e-02 2.143458724021911621e-01 -5.610256269574165344e-02 4.607258737087249756e-02 -9.440106898546218872e-02 -1.153083965182304382e-01 -5.387561023235321045e-02 -7.325523346662521362e-02 -3.988856077194213867e-02 5.587440356612205505e-02 -4.780817776918411255e-02 1.689022593200206757e-02 5.124861747026443481e-02 -3.691737726330757141e-02 7.881183177232742310e-02
1.040134206414222717e-01 1.605242341756820679e-01 -1.666532643139362335e-02 -7.169066369533538818e-02 1.717932075262069702e-01 -1.023811474442481995e-01 -1.860671490430831909e-02 1.621210873126983643e-01 1.080947089940309525e-02 -1.993506588041782379e-02 5.970699340105056763e-02 1.610095798969268799e-01 -2.162816002964973450e-02 2.817557193338871002e-02 1.635462790727615356e-02 -5.032962560653686523e-02 7.089369744062423706e-02 -8.916764706373214722e-02 -1.016806215047836304e-01 -9.751155227422714233e-02 7.928332686424255371e-02 4.721234366297721863e-02 -1.023413613438606262e-01 8.931009471416473389e-02 -1.436223834753036499e-01 -1.720185577869415283e-02 -1.077846214175224304e-01 1.164279580116271973e-01 1.435016281902790070e-02 -1.823697239160537720e-02 -1.041254475712776184e-01 1.706359684467315674e-01 2.060729265213012695e-02 1.101904287934303284e-01 4.935147240757942200e-02 4.698828607797622681e-02 3.013352397829294205e-03 -8.597620576620101929e-02 -1.290837824344635010e-01 -1.191889494657516479e-01 -1.115422770380973816e-01 -5.194668099284172058e-02 1.828920245170593262e-01 5.036789551377296448e-02 1.161876842379570007e-01 5.602540075778961182e-02 7.697211951017379761e-02 -1.582839637994766235e-01 -6.168414279818534851e-02 -1.528743505477905273e-01 5.641512200236320496e-02 6.004759925417602062e-04 6.670649745501577854e-04 -1.424462161958217621e-02 3.415741771459579468e-02 -1.231911331415176392e-01 -6.169538572430610657e-02 7.052154280245304108e-03 -1.679514050483703613e-01 1.530131250619888306e-01
-1.785404086112976074e-01 4.824795573949813843e-02 3.509917855262756348e-02 1.979351937770843506e-01 -6.619997322559356689e-02 -5.750723928213119507e-02 8.011513389647006989e-03 1.896915584802627563e-02 -3.012955375015735626e-02 1.909191533923149109e-02 -1.554639190435409546e-01 1.513229012489318848e-01 -7.817618548870086670e-03 -8.320766687393188477e-02 -1.181433871388435364e-01 -4.244568198919296265e-02 -1.501555889844894409e-01 -1.756212264299392700e-01 -8.832214027643203735e-02 2.066927775740623474e-02 1.419291645288467407e-01 -2.980435453355312347e-02 6.030911207199096680e-02 1.671403646469116211e-01 1.277150511741638184e-01 -7.278686854988336563e-03 -9.079508483409881592e-02 5.488853529095649719e-02 9.624349325895309448e-02 1.192252039909362793e-01 1.061264425516128540e-01 -8.889838308095932007e-02 2.164136469364166260e-01 3.821954131126403809e-02 -7.937887310981750488e-02 -1.332469582557678223e-01 8.807415515184402466e-02 -6.290894746780395508e-02 -1.849376708269119263e-01 -8.851437270641326904e-02 -9.763856232166290283e-02 1.050488427281379700e-01 4.951939918100833893e-03 2.430523978546261787e-03 -9.771956503391265869e-02 3.849901258945465088e-02 7.151746749877929688e-02 3.313393145799636841e-02 -2.312931977212429047e-02 -1.437266170978546143e-02 5.635114014148712158e-02 8.220992237329483032e-02 1.529004424810409546e-01 -8.937477320432662964e-02 9.995748102664947510e-02 9.731595963239669800e-02 3.611857444047927856e-02 -6.009435746818780899e-03 2.295612730085849762e-02 -9.309770166873931885e-02
3.534882562234997749e-03 2.127736061811447144e-02 2.331149131059646606e-01 -1.077231019735336304e-01 -2.465805411338806152e-02 -1.325395256280899048e-01 -7.299276441335678101e-02 1.776219927705824375e-03 4.521771520376205444e-02 3.847137093544006348e-02 8.046452701091766357e-02 -2.075874358415603638e-01 -6.302543450146913528e-03 -1.579028740525245667e-02 -1.202284619212150574e-01 1.275400072336196899e-02 -8.454747498035430908e-03 -1.086718291044235229e-01 -1.251336187124252319e-01 -3.997749835252761841e-02 1.234850063920021057e-01 1.055105868726968765e-02 -2.491554431617259979e-02 8.127499371767044067e-02 -3.768305480480194092e-02 3.409134596586227417e-02 -9.897886961698532104e-02 5.588955059647560120e-02 -1.432084739208221436e-01 -1.551780849695205688e-01 -3.884975984692573547e-02 1.578779965639114380e-01 -6.580084562301635742e-02 7.554574403911828995e-03 -7.615235447883605957e-02 -9.096346050500869751e-02 -1.868816092610359192e-02 4.306407272815704346e-02 7.108763605356216431e-02 -9.415669739246368408e-02 -9.668757766485214233e-02 -4.804885480552911758e-03 -4.332217946648597717e-02 1.409973800182342529e-01 -1.712532639503479004e-01 1.122310459613800049e-01 1.276555471122264862e-02 -2.719254978001117706e-02 1.480520423501729965e-02 9.929761290550231934e-02 -4.273555055260658264e-02 -6.143121421337127686e-02 1.269947737455368042e-01 7.172273099422454834e-02 -3.629575669765472412e-02 -2.300507621839642525e-03 3.395652770996093750e-02 -6.487958133220672607e-02 -9.272202104330062866e-02 3.765667229890823364e-02
5.252482742071151733e-02 2.554422989487648010e-02 8.983513712882995605e-02 9.516611695289611816e-02 -2.501764334738254547e-02 -7.626263052225112915e-02 1.067917719483375549e-01 -1.220628619194030762e-01 2.409905381500720978e-02 6.966982036828994751e-02 -8.402663469314575195e-02 -1.294169574975967407e-01 -9.748500585556030273e-02 6.448234617710113525e-02 -1.086747348308563232e-01 3.389661386609077454e-02 -4.996045678853988647e-02 9.536846727132797241e-02 -1.063033416867256165e-01 -1.739796483889222145e-03 5.248354375362396240e-02 6.998474150896072388e-02 -6.046306714415550232e-02 -2.058814652264118195e-02 8.453476428985595703e-02 -7.796467095613479614e-02 2.555181831121444702e-02 1.142429038882255554e-01 -6.660555303096771240e-02 -9.956969320774078369e-02 6.011957675218582153e-02 -6.864330172538757324e-02 -1.227329298853874207e-02 -7.719549536705017090e-02 -1.859634965658187866e-01 -6.882985122501850128e-03 7.784461230039596558e-02 -2.199756912887096405e-03 2.016377076506614685e-02 -9.907522238790988922e-03 6.284184288233518600e-03 8.153250068426132202e-02 -8.524481952190399170e-02 1.571282297372817993e-01 1.616923809051513672e-01 3.460641577839851379e-02 -5.796986445784568787e-02 -6.721401959657669067e-02 -9.276333451271057129e-02 -1.433086395263671875e-01 4.393658041954040527e-02 -1.749017834663391113e-02 -9.839196503162384033e-02 1.739037036895751953e-02 -5.921462923288345337e-02 6.202262267470359802e-02 -6.432820856571197510e-02 -1.746891885995864868e-01 -2.109377644956111908e-02 1.651008874177932739e-01
5.973216518759727478e-02 3.796360641717910767e-02 1.954191476106643677e-01 2.791702188551425934e-02 1.546125560998916626e-01 3.652574494481086731e-02 -1.908493191003799438e-01 -4.484482854604721069e-02 -1.141939833760261536e-01 -8.631500601768493652e-02 -7.433777302503585815e-02 1.701220870018005371e-02 1.213314309716224670e-01 -2.470701292622834444e-04 -1.381854861974716187e-01 8.129578828811645508e-02 1.746694296598434448e-01 8.572056144475936890e-02 8.972562849521636963e-02 -6.072324234992265701e-03 -2.515713684260845184e-02 1.520654112100601196e-01 -5.360599607229232788e-03 -1.954460144042968750e-01 -1.416047364473342896e-01 -4.547981545329093933e-02 2.118286304175853729e-02 -1.676043570041656494e-01 -1.703377813100814819e-01 2.107185870409011841e-01 -6.194666028022766113e-03 -3.125815652310848236e-03 2.072786912322044373e-02 -2.321585640311241150e-02 2.503217384219169617e-02 1.375678330659866333e-01 -9.369752556085586548e-02 1.515688896179199219e-01 6.036251783370971680e-03 1.325662136077880859e-01 4.583910107612609863e-02 9.904207289218902588e-02 5.936261266469955444e-03 1.313080340623855591e-01 -8.526158332824707031e-02 6.009128689765930176e-02 1.638999022543430328e-02 -2.104773223400115967e-01 2.522323839366436005e-02 -5.508220288902521133e-03 -2.505505224689841270e-03 6.016265973448753357e-02 2.516993088647723198e-03 1.520390957593917847e-01 9.709278494119644165e-02 1.048481613397598267e-01 -4.987003654241561890e-02 3.351140022277832031e-02 -2.462435215711593628e-01 -7.269436959177255630e-03
-8.048028685152530670e-03 3.398030251264572144e-02 6.732998788356781006e-02 6.687646359205245972e-02 -2.454266138374805450e-02 1.887040287256240845e-01 -1.657377183437347412e-01 3.424336761236190796e-02 -9.458756446838378906e-02 1.674913763999938965e-01 -5.527010653167963028e-04 2.841150946915149689e-02 1.797302812337875366e-02 -3.241861239075660706e-02 1.475353818386793137e-02 9.549584239721298218e-02 2.999479696154594421e-02 2.722001075744628906e-02 3.895954415202140808e-02 1.777916252613067627e-01 -5.347765237092971802e-02 -1.032363921403884888e-01 6.672628223896026611e-02 -1.126227825880050659e-01 1.276910398155450821e-02 -1.772907748818397522e-02 -4.894939810037612915e-02 1.337202340364456177e-01 -3.604002296924591064e-03 4.255872219800949097e-02 -1.338134855031967163e-01 -1.533549427986145020e-01 -5.625069607049226761e-03 8.815924823284149170e-02 5.633603781461715698e-02 -4.487261921167373657e-02 -5.360170081257820129e-02 -6.848900765180587769e-02 6.652544438838958740e-02 -1.901223361492156982e-01 7.919517904520034790e-02 1.759615391492843628e-01 -1.087562143802642822e-01 -9.664943069219589233e-02 -1.172211617231369019e-01 3.937424719333648682e-02 -4.287205263972282410e-02 1.145803742110729218e-02 1.038690432906150818e-01 5.099100619554519653e-02 8.228015154600143433e-02 -1.453926265239715576e-01 4.516601935029029846e-02 -8.290822803974151611e-02 1.163784191012382507e-01 -9.737826883792877197e-02 8.805043250322341919e-02 8.110985159873962402e-02 -1.655106693506240845e-01 1.604649722576141357e-01
-5.712525919079780579e-02 -1.461693197488784790e-01 6.280155479907989502e-02 -9.535282105207443237e-02 -1.314207762479782104e-01 1.212917547672986984e-02 3.256610780954360962e-02 -9.396130591630935669e-02 -3.102874197065830231e-02 -5.662563070654869080e-02 -9.733561426401138306e-02 -1.159644871950149536e-01 -1.008707936853170395e-02 -1.628624647855758667e-01 8.703716844320297241e-02 -3.543571336194872856e-03 -1.815634071826934814e-01 5.246456712484359741e-02 -2.056082524359226227e-02 -1.376459002494812012e-01 -1.484598591923713684e-02 3.138627111911773682e-02 4.375367984175682068e-02 -1.433815360069274902e-01 -1.469214707612991333e-01 -1.493192017078399658e-01 -9.733454789966344833e-04 8.199863880872726440e-02 -1.081156209111213684e-01 -1.061433367431163788e-02 3.110194206237792969e-02 6.985721737146377563e-02 -5.403765663504600525e-02 -2.875334955751895905e-02 1.360945701599121094e-01 -3.887627273797988892e-02 -3.172600269317626953e-02 1.008517071604728699e-01 -3.224847465753555298e-02 -1.542577240616083145e-02 -6.555333733558654785e-02 1.671550050377845764e-02 1.268587857484817505e-01 2.283108886331319809e-03 -1.689472496509552002e-01 1.479253638535737991e-02 -5.784919485449790955e-02 7.946053892374038696e-02 1.338243335485458374e-01 -3.307877108454704285e-03 -7.183169573545455933e-02 -1.428197417408227921e-02 5.975599586963653564e-02 9.624075144529342651e-02 -8.114711940288543701e-02 -4.471313953399658203e-02 -9.415974840521812439e-03 -1.836137771606445312e-01 -8.916296996176242828e-03 -6.751653552055358887e-02
-7.518906891345977783e-02 -1.106664761900901794e-01 -2.196731604635715485e-02 2.217781692743301392e-01 1.180339418351650238e-02 -1.556318700313568115e-01 -6.056572869420051575e-02 -3.326737880706787109e-01 -3.804751113057136536e-02 -1.250154525041580200e-02 -2.503182180225849152e-02 2.136671729385852814e-02 9.902918338775634766e-02 -7.927197217941284180e-02 3.468457236886024475e-02 -3.739941120147705078e-02 -2.092602998018264771e-01 -1.297992169857025146e-01 4.043817892670631409e-02 1.098282709717750549e-01 9.980081766843795776e-02 -1.416240334510803223e-01 -1.207193061709403992e-01 -3.612789884209632874e-02 -1.385551691055297852e-01 6.521869450807571411e-02 -1.498003751039505005e-01 9.916258044540882111e-03 4.753196146339178085e-03 1.027638837695121765e-01 2.468957006931304932e-02 8.429495990276336670e-02 -1.171785145998001099e-01 9.991142153739929199e-02 -1.574130915105342865e-02 1.043586358428001404e-01 3.693785518407821655e-02 -3.927695378661155701e-02 9.784205257892608643e-02 -4.868420958518981934e-02 5.620126798748970032e-02 3.444783389568328857e-02 -1.215247530490159988e-02 2.559052780270576477e-02 -9.890282154083251953e-02 -1.431990065611898899e-03 3.392678126692771912e-02 -6.077844649553298950e-02 4.408400971442461014e-03 -1.702962443232536316e-02 -2.339894184842705727e-03 -1.735547184944152832e-01 1.363927721977233887e-01 4.351114854216575623e-02 3.503249213099479675e-02 9.539847075939178467e-02 -1.340009868144989014e-01 -1.390772461891174316e-01 -6.878460757434368134e-03 6.822478026151657104e-02
8.646629005670547485e-02 -8.371691405773162842e-02 1.091490015387535095e-01 7.844467461109161377e-02 1.226699072867631912e-02 2.744147181510925293e-02 2.362573519349098206e-02 9.986154735088348389e-02 -2.390212565660476685e-02 1.868223212659358978e-02 1.792233437299728394e-01 8.406766504049301147e-02 1.710598617792129517e-01 -1.397836655378341675e-01 8.478116244077682495e-03 8.013015240430831909e-02 -8.656106144189834595e-02 -1.999251917004585266e-02 2.320307679474353790e-02 4.004878923296928406e-02 3.982486948370933533e-02 -5.708682164549827576e-02 3.882903605699539185e-02 -5.413633771240711212e-03 -2.101361379027366638e-02 1.435127854347229004e-02 8.237336575984954834e-02 6.512375175952911377e-02 2.645531482994556427e-02 -7.148689776659011841e-02 -7.282628118991851807e-02 8.381695300340652466e-02 6.102332472801208496e-02 5.040700780227780342e-04 6.665191054344177246e-02 3.627293556928634644e-02 -7.585009187459945679e-02 1.099369395524263382e-02 1.761226207017898560e-01 8.337763696908950806e-02 8.974437415599822998e-02 -1.263342201709747314e-01 1.232939437031745911e-01 1.327334195375442505e-01 8.992303162813186646e-02 -1.087592393159866333e-01 -9.212198108434677124e-02 1.198207214474678040e-02 1.328750140964984894e-02 4.344985261559486389e-02 9.017121046781539917e-02 -1.993543654680252075e-02 -2.829667739570140839e-02 7.253813743591308594e-02 3.643157333135604858e-02 -5.028899013996124268e-02 -2.412772551178932190e-02 2.145633846521377563e-02 -1.858354657888412476e-01 1.845218800008296967e-02
-7.052505761384963989e-02 1.459135413169860840e-01 -2.672401955351233482e-03 -1.630017012357711792e-01 -1.109755486249923706e-01 -1.541280150413513184e-01 1.227061897516250610e-01 -8.880902826786041260e-02 1.193066909909248352e-01 3.075852617621421814e-02 -1.692721853032708168e-04 -1.107525601983070374e-01 8.111066371202468872e-02 -6.970389932394027710e-02 -1.236412823200225830e-01 -2.201889269053936005e-02 1.582894288003444672e-02 7.519616279751062393e-03 6.421723961830139160e-02 -1.546333264559507370e-02 -2.035669982433319092e-02 1.696339696645736694e-01 3.258440271019935608e-02 -2.422651089727878571e-02 1.066363509744405746e-02 -2.602083049714565277e-02 1.386816520243883133e-02 8.689509332180023193e-02 8.200605958700180054e-02 -1.864235848188400269e-02 -2.959083952009677887e-02 -8.860862255096435547e-02 6.018670275807380676e-02 -1.807133108377456665e-02 -8.668114989995956421e-02 4.967473074793815613e-02 6.567270308732986450e-02 6.072304770350456238e-02 -4.640485346317291260e-02 -7.137077394872903824e-03 -1.792222857475280762e-01 -1.414927840232849121e-02 -3.426707116886973381e-03 -5.261506419628858566e-03 3.568955231457948685e-03 -1.123381126672029495e-02 8.214513771235942841e-03 -4.905005916953086853e-02 -1.179747059941291809e-01 -6.711336225271224976e-02 9.142864495515823364e-02 -5.395843461155891418e-02 2.063165232539176941e-02 -3.770166635513305664e-02 2.128390967845916748e-02 2.835816890001296997e-02 1.929929107427597046e-02 -3.681922703981399536e-02 -1.637232601642608643e-01 9.596554934978485107e-02
-2.899356000125408173e-02 4.951879009604454041e-02 3.551666811108589172e-02 1.734261512756347656e-01 -1.274131610989570618e-02 1.547387521713972092e-02 7.069815695285797119e-02 3.770675882697105408e-02 2.032681256532669067e-01 1.739758402109146118e-01 7.657958567142486572e-02 7.055940479040145874e-02 -1.269068121910095215e-01 2.372643724083900452e-02 6.670454889535903931e-02 1.156816706061363220e-01 1.414037048816680908e-01 -7.760568521916866302e-03 -4.945461452007293701e-02 1.892214268445968628e-01 4.652755334973335266e-02 -9.886068850755691528e-02 -1.832693666219711304e-01 7.883674651384353638e-02 -5.894424393773078918e-02 -6.559205055236816406e-02 6.415402144193649292e-02 -4.039680957794189453e-02 -3.371376916766166687e-02 7.882240414619445801e-02 1.081475093960762024e-01 -7.118220627307891846e-02 6.133785471320152283e-02 2.279916219413280487e-02 -1.365984380245208740e-01 -2.619133889675140381e-02 -1.695581711828708649e-02 2.192049026489257812e-01 1.516552567481994629e-01 1.710181832313537598e-01 -3.884168574586510658e-03 -1.376063972711563110e-01 9.388973563909530640e-02 -1.539866477251052856e-01 -3.994145244359970093e-02 -9.641406685113906860e-02 1.042799204587936401e-01 -1.274451911449432373e-01 1.493952982127666473e-02 1.395596116781234741e-01 -1.043819710612297058e-01 -2.688307687640190125e-02 7.777763903141021729e-02 -4.964261502027511597e-02 8.348257839679718018e-02 -8.871006965637207031e-02 5.523363873362541199e-02 -1.796300858259201050e-01 1.599211990833282471e-01 -7.613126933574676514e-02
3.619199851527810097e-03 -2.223651297390460968e-02 -4.902854934334754944e-02 8.415818214416503906e-03 -5.583378486335277557e-03 9.681691229343414307e-02 3.000783175230026245e-02 -3.724419698119163513e-02 -6.099824607372283936e-02 3.924578800797462463e-02 4.106426145881414413e-03 -1.500459164381027222e-01 -4.554121941328048706e-02 5.106511712074279785e-02 -5.751424655318260193e-02 -3.140881285071372986e-02 -6.049910187721252441e-02 8.614032715559005737e-02 -2.674041688442230225e-02 4.260404407978057861e-02 3.647065162658691406e-02 3.589943796396255493e-02 1.070258468389511108e-01 -4.258255288004875183e-02 -1.419919729232788086e-01 2.337741665542125702e-02 1.314638704061508179e-01 -7.366497069597244263e-03 1.992444396018981934e-01 9.534975886344909668e-02 -1.468515992164611816e-01 -9.556694328784942627e-02 6.906511634588241577e-02 2.278712987899780273e-01 -1.422511530108749866e-03 -5.937176570296287537e-02 3.192910552024841309e-02 -1.734510064125061035e-01 -4.826405271887779236e-02 -4.598104208707809448e-02 -4.962703958153724670e-02 5.623804405331611633e-02 1.085816323757171631e-01 1.315340250730514526e-01 8.207426965236663818e-02 -1.752352714538574219e-01 -6.443762779235839844e-02 1.375760138034820557e-01 -1.204892769455909729e-01 -1.848441362380981445e-02 -3.688110038638114929e-02 7.074695825576782227e-02 1.181887928396463394e-02 -9.306797385215759277e-02 -1.930653303861618042e-02 4.996111989021301270e-02 3.199704363942146301e-02 9.721281379461288452e-02 3.992764651775360107e-02 -8.038591593503952026e-02
-2.168886177241802216e-02 1.686752773821353912e-02 -8.583520352840423584e-02 1.507411431521177292e-02 -1.044814437627792358e-01 -2.940879017114639282e-02 1.006340831518173218e-01 -1.042554806917905807e-02 9.725961089134216309e-02 -2.350519411265850067e-02 2.771112695336341858e-02 -8.255167305469512939e-02 4.983489215373992920e-02 4.310687258839607239e-02 -1.261393167078495026e-02 1.477245241403579712e-01 1.161339357495307922e-01 -8.504432626068592072e-03 -1.228689476847648621e-01 -3.619111608713865280e-03 -2.221164852380752563e-02 -1.636696904897689819e-01 1.218162104487419128e-01 -8.206368982791900635e-02 -1.120177060365676880e-01 8.076393976807594299e-03 -1.979998126626014709e-02 5.445440858602523804e-02 -8.462736755609512329e-02 4.907120391726493835e-02 5.742174014449119568e-02 -6.548698246479034424e-02 2.861333079636096954e-03 -9.544283151626586914e-02 1.494344510138034821e-02 -1.080367807298898697e-02 -8.629342541098594666e-03 9.275396168231964111e-02 2.107676677405834198e-02 -2.946848981082439423e-02 -5.599031597375869751e-02 4.148082435131072998e-02 -6.618756055831909180e-02 8.088927716016769409e-02 5.818482488393783569e-02 -6.296227872371673584e-02 1.448381543159484863e-01 6.380986422300338745e-02 1.586883561685681343e-03 6.008530408143997192e-02 -4.244760051369667053e-02 7.397239655256271362e-02 5.951056256890296936e-02 -7.867277413606643677e-02 7.488143444061279297e-02 6.950665265321731567e-03 -1.103267967700958252e-01 1.348017603158950806e-01 -2.462325394153594971e-01 9.025959670543670654e-02
-2.051151730120182037e-02 4.898297134786844254e-03 -9.265185892581939697e-02 -6.683216243982315063e-02 -1.170959025621414185e-01 6.930059194564819336e-02 -1.066368371248245239e-01 1.058813557028770447e-01 -1.916965097188949585e-02 -1.331456303596496582e-01 5.899851769208908081e-02 -1.331105083227157593e-01 2.036067191511392593e-03 -5.889704450964927673e-02 4.330935329198837280e-02 -6.662017852067947388e-02 1.352065801620483398e-02 4.234977066516876221e-02 1.900133937597274780e-01 -2.452167915180325508e-03 -4.574152082204818726e-02 -2.446297556161880493e-02 6.725941598415374756e-02 -6.418151408433914185e-02 -7.710796594619750977e-02 1.976010203361511230e-01 -4.098960198462009430e-03 -9.281431883573532104e-02 -2.516568638384342194e-02 -9.116821736097335815e-02 1.534904837608337402e-01 1.551199611276388168e-02 1.473337858915328979e-01 -4.968593269586563110e-02 6.154805421829223633e-02 -4.598303884267807007e-02 -7.408234290778636932e-03 8.913613855838775635e-02 9.548711776733398438e-02 1.369179189205169678e-01 -3.542663156986236572e-02 6.254896055907011032e-03 8.699248731136322021e-02 4.330328479409217834e-02 8.871498703956604004e-02 2.330677583813667297e-02 1.231655180454254150e-01 5.168814957141876221e-02 1.645484417676925659e-01 -3.689284622669219971e-02 2.767035737633705139e-02 3.028625808656215668e-02 9.292044490575790405e-02 7.854800671339035034e-02 -9.594713896512985229e-02 3.955754265189170837e-02 -2.631059661507606506e-02 -1.235420703887939453e-01 8.983331173658370972e-02 9.042137116193771362e-02
8.238527178764343262e-02 -1.359862536191940308e-01 -1.048137694597244263e-01 -1.055067330598831177e-01 -2.466994524002075195e-01 3.377598151564598083e-02 -4.979391768574714661e-02 1.383781135082244873e-01 -1.355679780244827271e-01 7.417855411767959595e-02 -4.133648797869682312e-02 5.664072930812835693e-02 -1.101399026811122894e-02 1.078274101018905640e-02 -6.909077521413564682e-03 1.158136650919914246e-01 -3.438948094844818115e-02 1.820206940174102783e-01 -1.224757870659232140e-03 1.101663485169410706e-01 5.070708692073822021e-02 -4.449881240725517273e-02 1.252402961254119873e-01 -5.068674683570861816e-02 -5.809617694467306137e-03 -1.082559227943420410e-01 3.764845430850982666e-02 -1.857016421854496002e-02 -9.955962002277374268e-02 -3.924794495105743408e-02 -8.575461804866790771e-02 1.164489313960075378e-01 5.473982170224189758e-02 1.809106208384037018e-02 -6.668864935636520386e-02 3.845877945423126221e-02 -6.926436722278594971e-02 -1.015294864773750305e-01 5.834972858428955078e-02 -2.970294654369354248e-02 -6.148327142000198364e-03 6.541652139276266098e-03 -3.178804740309715271e-02 1.056218072772026062e-01 -1.804987527430057526e-02 7.261635363101959229e-02 -1.537212450057268143e-02 -1.054270938038825989e-02 -9.612500667572021484e-02 -2.604749985039234161e-02 3.814346715807914734e-02 4.333462566137313843e-04 1.260867416858673096e-01 -1.938695907592773438e-01 -1.077791228890419006e-01 -6.566130369901657104e-02 1.339163333177566528e-01 -8.118507266044616699e-02 -9.516928344964981079e-02 -8.959767967462539673e-02
7.701600342988967896e-02 -6.383389234542846680e-02 1.153103485703468323e-01 -1.284203231334686279e-01 3.803220763802528381e-02 1.616977602243423462e-01 8.221548795700073242e-02 -4.089309647679328918e-02 -4.854887351393699646e-02 -3.773414343595504761e-02 -4.245142266154289246e-02 2.172658219933509827e-02 2.442872226238250732e-01 1.129802130162715912e-02 -1.283810287714004517e-01 1.675090380012989044e-02 1.355287730693817139e-01 2.872629649937152863e-02 1.183601468801498413e-02 3.644368425011634827e-02 4.453042522072792053e-02 -6.820239126682281494e-02 5.825436487793922424e-02 1.144159177783876657e-04 -1.430693417787551880e-01 8.068236708641052246e-02 4.557178914546966553e-02 5.829958245158195496e-02 1.531579531729221344e-02 3.925727680325508118e-02 -6.729374825954437256e-02 -1.341279000043869019e-01 -5.221620947122573853e-02 1.831208169460296631e-02 -3.161901608109474182e-02 6.860493868589401245e-02 1.831216663122177124e-01 -1.154596358537673950e-01 -8.058419078588485718e-02 6.728627532720565796e-02 -3.734621033072471619e-02 1.789574511349201202e-02 1.130736619234085083e-01 5.513850972056388855e-02 -5.578111857175827026e-02 2.037237770855426788e-02 7.996156811714172363e-03 -1.130424588918685913e-01 6.648414582014083862e-02 -9.387034922838211060e-02 -1.569076254963874817e-02 1.993884518742561340e-02 -1.731043756008148193e-01 -4.865660145878791809e-02 -7.532743364572525024e-02 -1.430710405111312866e-01 4.084121808409690857e-02 8.057825267314910889e-02 1.183719709515571594e-01 -1.169439703226089478e-01
-1.295123249292373657e-01 -6.640797108411788940e-02 7.882834970951080322e-02 -1.255301833152770996e-01 1.284077614545822144e-01 -1.073257178068161011e-01 8.216578513383865356e-02 -1.575262099504470825e-01 -1.033370718359947205e-01 -1.256700903177261353e-01 -2.835895307362079620e-02 -1.417282074689865112e-01 5.652995780110359192e-02 -1.514772884547710419e-03 -6.048510968685150146e-02 4.941005259752273560e-02 1.938408799469470978e-02 5.143252387642860413e-02 2.347790636122226715e-02 8.446590602397918701e-02 -5.604681093245744705e-03 -5.931564047932624817e-02 -4.843034222722053528e-02 9.721849858760833740e-02 6.229247525334358215e-02 -1.081223264336585999e-01 -2.887518890202045441e-02 -6.121441721916198730e-03 2.459467947483062744e-02 -1.313362717628479004e-01 1.131034865975379944e-01 1.486284136772155762e-01 1.270650923252105713e-01 1.014418676495552063e-01 -2.558098360896110535e-02 -1.465545874089002609e-02 1.180598791688680649e-02 -8.966182172298431396e-02 9.334815293550491333e-02 4.246868565678596497e-02 1.820728182792663574e-02 8.465585415251553059e-04 -3.651352971792221069e-02 4.557507857680320740e-02 1.108064725995063782e-01 1.109402850270271301e-01 -9.488906711339950562e-02 9.389536455273628235e-03 -1.235186308622360229e-02 -5.243370682001113892e-02 8.419919759035110474e-02 -1.490758359432220459e-01 -2.927701734006404877e-02 -5.995608493685722351e-02 -7.648595422506332397e-02 -1.256481856107711792e-01 6.220640242099761963e-02 1.396437734365463257e-01 -4.424123466014862061e-02 -6.558591034263372421e-03
-3.841601312160491943e-02 1.486040353775024414e-01 -1.660272777080535889e-01 -1.403680164366960526e-02 -6.264524161815643311e-02 -2.894436195492744446e-02 9.121445938944816589e-03 5.439930036664009094e-02 3.607075661420822144e-02 4.692139104008674622e-02 6.133821234107017517e-02 -1.515233963727951050e-01 -6.173943728208541870e-02 7.938245683908462524e-02 -2.556688711047172546e-02 -9.152758121490478516e-02 -3.438932821154594421e-02 -1.148992180824279785e-01 -7.118143886327743530e-02 -2.835522219538688660e-02 6.144325435161590576e-02 3.139973431825637817e-02 6.325358152389526367e-02 1.728215254843235016e-02 1.980653777718544006e-02 -7.186009734869003296e-02 -8.188927918672561646e-02 1.978479772806167603e-01 7.466733455657958984e-02 5.108550935983657837e-02 7.032959721982479095e-03 -1.015547737479209900e-01 4.667231813073158264e-02 -7.456260174512863159e-02 -4.149982333183288574e-02 1.965224929153919220e-02 6.508046388626098633e-02 -7.279758155345916748e-02 -1.427311077713966370e-02 6.052015349268913269e-02 -8.404860645532608032e-02 5.906087905168533325e-02 -9.568832814693450928e-02 2.775399014353752136e-03 -3.558057546615600586e-02 -7.469549775123596191e-02 -5.726697854697704315e-03 -3.896397724747657776e-02 2.514742314815521240e-02 1.845645010471343994e-01 -6.236311793327331543e-02 1.339417546987533569e-01 -9.291073679924011230e-02 -3.297964110970497131e-02 2.246887683868408203e-01 -1.157416105270385742e-01 5.018188431859016418e-02 1.399383097887039185e-01 -1.258026510477066040e-01 -1.042838618159294128e-01
7.384032756090164185e-02 -1.328882277011871338e-01 -5.810651928186416626e-02 -2.520623803138732910e-01 -3.151459991931915283e-01 -4.893076047301292419e-02 7.175090163946151733e-02 3.281429782509803772e-02 1.285994891077280045e-02 2.758405208587646484e-01 6.664553284645080566e-02 -2.820282801985740662e-02 -2.632089145481586456e-02 1.888531073927879333e-02 -4.894289746880531311e-02 1.243396475911140442e-01 -1.027166023850440979e-01 9.693684428930282593e-02 -5.490506440401077271e-02 -1.308563947677612305e-01 6.104093790054321289e-02 -2.110742032527923584e-03 -6.849262863397598267e-02 -3.645482286810874939e-02 1.697010360658168793e-02 -1.360203772783279419e-01 -7.177355140447616577e-02 -9.479478001594543457e-02 -7.155217975378036499e-02 5.308338627219200134e-02 1.042058132588863373e-02 -7.466825842857360840e-02 -2.612560056149959564e-02 7.059531752020120621e-03 1.408923268318176270e-01 5.645450204610824585e-03 -1.470619440078735352e-01 -1.423117816448211670e-01 1.125390678644180298e-01 -2.276487350463867188e-01 -9.781027585268020630e-02 4.590386897325515747e-02 3.321597725152969360e-02 3.128022328019142151e-02 -3.322624415159225464e-02 1.103302463889122009e-01 -6.246015429496765137e-02 1.057558134198188782e-02 -1.108283326029777527e-01 1.605786085128784180e-01 -4.882437735795974731e-02 5.396812036633491516e-02 6.457504630088806152e-02 1.035319641232490540e-01 7.914655655622482300e-02 -1.442003101110458374e-01 -1.593955606222152710e-01 8.926801383495330811e-02 -5.848108604550361633e-02 7.044800370931625366e-02
-8.014023303985595703e-02 9.163053706288337708e-03 -2.721584402024745941e-02 -1.516620367765426636e-01 1.474966257810592651e-01 -1.169176399707794189e-01 1.099282503128051758e-01 -9.954804927110671997e-02 -1.115857437252998352e-01 2.004910074174404144e-02 8.574421703815460205e-02 -2.699707262217998505e-02 -7.088460028171539307e-02 6.795474886894226074e-02 2.087451145052909851e-02 -2.645573019981384277e-02 9.450946748256683350e-02 2.084451764822006226e-01 -7.721936702728271484e-02 -1.816000044345855713e-01 4.271430149674415588e-02 -8.682282269001007080e-02 -7.586958259344100952e-02 -5.661085247993469238e-02 -4.265746474266052246e-02 3.396891802549362183e-02 7.977292686700820923e-02 -1.028937995433807373e-01 -7.685539871454238892e-02 -7.599157840013504028e-02 -7.715236395597457886e-02 5.194768309593200684e-02 5.612490233033895493e-03 4.100253805518150330e-02 -3.381541371345520020e-02 1.135188862681388855e-01 2.311984077095985413e-02 1.494291722774505615e-01 -1.559869199991226196e-01 -9.494756348431110382e-03 1.792056113481521606e-02 4.331050440669059753e-02 4.465150833129882812e-02 -1.238466240465641022e-03 6.849165260791778564e-02 2.722435072064399719e-02 -8.701982349157333374e-02 -9.926035068929195404e-03 -1.195265427231788635e-01 6.800896674394607544e-02 6.263615190982818604e-02 -5.017907824367284775e-03 -1.454612910747528076e-01 6.193006411194801331e-02 1.570327579975128174e-01 -1.116503477096557617e-01 -6.710945069789886475e-02 -7.527820020914077759e-02 -2.618667855858802795e-02 6.473699957132339478e-02
3.874665126204490662e-02 2.416880428791046143e-02 -1.863610744476318359e-01 1.787048205733299255e-02 -9.636572003364562988e-02 4.118127003312110901e-02 1.983032077550888062e-01 -1.313167661428451538e-01 -1.203958038240671158e-02 1.047670245170593262e-01 -2.646637521684169769e-02 -6.858138740062713623e-02 3.221950959414243698e-03 -5.581821873784065247e-02 -5.519563704729080200e-02 -3.538348525762557983e-02 -1.986513659358024597e-02 -9.293307363986968994e-02 -2.531378529965877533e-02 -2.360278069972991943e-01 1.452069133520126343e-01 6.506662070751190186e-02 -1.213081330060958862e-01 -2.511909464374184608e-03 1.040005385875701904e-01 -4.918235354125499725e-03 3.056005761027336121e-02 1.053630635142326355e-01 -8.369962126016616821e-02 1.264544320292770863e-03 3.404540475457906723e-03 -1.729203015565872192e-01 -1.266432926058769226e-03 -1.324125099927186966e-02 -9.544403105974197388e-02 -3.189089149236679077e-02 -8.425505459308624268e-02 1.173494085669517517e-01 1.108812987804412842e-01 1.205834224820137024e-01 1.298236846923828125e-01 -1.521267648786306381e-02 -2.652583457529544830e-02 -7.625797390937805176e-02 -4.192301630973815918e-02 1.951002329587936401e-01 5.631658714264631271e-03 3.498664870858192444e-02 -1.711146533489227295e-02 -8.316110074520111084e-02 -5.248697474598884583e-02 -8.989405632019042969e-02 4.763776063919067383e-02 -4.546141996979713440e-02 4.310267511755228043e-03 2.077889256179332733e-02 7.710426300764083862e-02 1.287273317575454712e-01 -5.507657304406166077e-02 -1.015550047159194946e-01
9.646967053413391113e-02 4.115092009305953979e-02 1.077147275209426880e-01 -2.735614180564880371e-01 -1.105202063918113708e-01 -8.998558856546878815e-03 3.431240841746330261e-02 1.193180158734321594e-01 -1.105266436934471130e-01 -3.745734691619873047e-02 -6.933704484254121780e-03 1.110382750630378723e-01 -2.595773153007030487e-02 -6.097377464175224304e-02 -3.426118940114974976e-02 -2.339196507818996906e-04 -1.348585169762372971e-02 -3.948283568024635315e-02 -1.893362551927566528e-01 -2.287387102842330933e-02 7.143345475196838379e-02 -9.144529700279235840e-02 -2.481080032885074615e-02 8.937669545412063599e-02 -9.862706065177917480e-02 -6.907720118761062622e-02 7.341485470533370972e-02 -7.935292273759841919e-02 -2.879114076495170593e-02 -3.780508041381835938e-02 -7.552638649940490723e-02 9.236742556095123291e-02 3.418383002281188965e-02 1.210282146930694580e-01 1.343433558940887451e-01 -9.513578563928604126e-02 -4.954306408762931824e-03 7.556129992008209229e-02 5.372498929500579834e-02 -7.457926869392395020e-02 -4.943531751632690430e-02 2.693011164665222168e-01 -3.998542204499244690e-02 -1.533877104520797729e-01 -1.602415181696414948e-02 2.815522067248821259e-02 1.178740859031677246e-01 -6.370322406291961670e-02 9.198550879955291748e-02 4.432984068989753723e-02 -8.133335411548614502e-02 -1.725766956806182861e-01 -1.736170798540115356e-01 1.154209896922111511e-01 7.957940548658370972e-02 2.506273984909057617e-01 4.246659576892852783e-02 1.164318025112152100e-01 -7.770150899887084961e-02 1.325125098228454590e-01
7.560449093580245972e-02 1.821608394384384155e-01 8.352731168270111084e-02 5.962821841239929199e-02 3.275442123413085938e-02 -2.932677604258060455e-02 3.311757370829582214e-02 1.264188718050718307e-02 3.550983592867851257e-02 -2.285056980326771736e-03 -7.509127259254455566e-02 -8.991882205009460449e-02 -2.703711092472076416e-01 1.206138804554939270e-01 -2.298194449394941330e-04 1.326690614223480225e-02 1.038137599825859070e-01 1.002915129065513611e-01 1.226433217525482178e-01 -1.032251790165901184e-01 2.034175097942352295e-01 -8.026487380266189575e-02 3.027232363820075989e-03 5.275266990065574646e-02 -2.707646787166595459e-02 -4.390449449419975281e-02 1.615299843251705170e-02 1.004432812333106995e-01 -3.048290684819221497e-02 5.530652124434709549e-03 2.244886942207813263e-02 -1.347943842411041260e-01 -3.159242495894432068e-02 1.513369102030992508e-02 4.889221861958503723e-02 2.714730240404605865e-02 -6.546550989151000977e-02 -4.069791175425052643e-03 -6.476141512393951416e-02 -7.577235251665115356e-02 1.026178360916674137e-03 -2.698796242475509644e-02 8.760290592908859253e-02 4.927238076925277710e-02 6.728371977806091309e-02 -1.404690556228160858e-02 1.335438191890716553e-01 -5.704082548618316650e-02 -9.178292751312255859e-02 1.684658601880073547e-02 1.105511412024497986e-01 2.999985963106155396e-02 9.132715314626693726e-02 1.334499567747116089e-01 8.621175773441791534e-03 6.913855671882629395e-02 -2.263025753200054169e-02 8.068385720252990723e-02 -1.494438648223876953e-01 7.072782516479492188e-02
-4.527472332119941711e-02 -3.286116570234298706e-02 2.566783316433429718e-02 -7.964665442705154419e-02 1.854544579982757568e-01 -6.812188029289245605e-02 1.061404645442962646e-01 9.945737570524215698e-02 2.060455456376075745e-02 1.118150446563959122e-02 1.266365647315979004e-01 9.324856847524642944e-02 4.847960546612739563e-02 -2.054546326398849487e-01 2.208520891144871712e-03 3.435774892568588257e-02 -1.032175272703170776e-01 -1.276197135448455811e-01 9.660533815622329712e-02 -5.492683500051498413e-02 7.667220383882522583e-02 -3.153572976589202881e-02 3.664015978574752808e-02 -1.009934321045875549e-01 -5.048135295510292053e-02 -2.537409774959087372e-02 -1.492400467395782471e-02 8.847599476575851440e-02 -2.695858180522918701e-01 -2.612447179853916168e-02 -5.285397544503211975e-02 -1.171179041266441345e-01 -6.153494492173194885e-02 -3.125509247183799744e-02 -1.891060173511505127e-01 4.919593408703804016e-02 -1.019742339849472046e-01 -1.897191703319549561e-01 4.376134276390075684e-02 2.597074210643768311e-02 1.973660588264465332e-01 -9.025694802403450012e-03 1.144346222281455994e-01 -1.171331852674484253e-02 2.625444531440734863e-02 -4.600476473569869995e-02 1.995598971843719482e-01 1.413974016904830933e-01 -1.948306709527969360e-02 5.689951404929161072e-02 -1.558009767904877663e-03 1.802317202091217041e-01 -3.512900322675704956e-02 -1.164274811744689941e-01 -3.642502054572105408e-02 1.226292923092842102e-01 -8.719813823699951172e-02 9.999160654842853546e-03 -9.603435546159744263e-02 6.383159756660461426e-02
1.673341989517211914e-01 -1.020667478442192078e-01 -2.924731969833374023e-01 1.070111021399497986e-01 -1.528675556182861328e-01 -5.957955494523048401e-02 -5.083141475915908813e-02 8.408693969249725342e-02 4.093138128519058228e-02 -7.725129276514053345e-02 3.869256749749183655e-02 -5.252043902873992920e-02 -6.633034907281398773e-03 2.301888726651668549e-02 1.036874055862426758e-01 1.482226103544235229e-01 8.144708722829818726e-02 -8.037535101175308228e-02 1.662009805440902710e-01 -1.068265642970800400e-02 -4.065453633666038513e-02 3.545901179313659668e-02 2.028616368770599365e-01 1.053610891103744507e-01 -1.084418892860412598e-01 9.420821815729141235e-02 -4.827904980629682541e-03 -1.532139927148818970e-01 -2.216108143329620361e-02 1.230763420462608337e-01 1.660475581884384155e-01 -1.676518023014068604e-01 -1.995149999856948853e-02 8.617171645164489746e-02 2.050113305449485779e-02 -4.232412576675415039e-02 -6.877141445875167847e-02 -5.328685417771339417e-02 -1.193474680185317993e-01 -1.777843199670314789e-02 9.753782302141189575e-02 2.769254706799983978e-02 -2.002238109707832336e-02 -1.301551312208175659e-01 3.485889732837677002e-02 1.800131052732467651e-01 2.957884594798088074e-02 2.373470179736614227e-02 -2.149120345711708069e-02 -6.758541613817214966e-02 3.460451960563659668e-02 -3.903270885348320007e-02 1.974579133093357086e-02 -1.740041375160217285e-01 6.125197559595108032e-02 -3.615240752696990967e-02 -6.227453798055648804e-02 -8.272321522235870361e-02 2.030693367123603821e-02 -8.334157057106494904e-03
1.442919820547103882e-01 -6.695034354925155640e-02 2.231669723987579346e-01 1.482180953025817871e-01 9.112960845232009888e-02 -3.641772270202636719e-02 1.072092354297637939e-01 -3.607241064310073853e-02 -2.569037675857543945e-02 -5.377286300063133240e-02 -4.337139055132865906e-02 1.252309978008270264e-01 3.121787123382091522e-02 5.402425676584243774e-02 9.886515140533447266e-02 1.403923034667968750e-01 2.016199678182601929e-01 1.293071955442428589e-01 -2.120584622025489807e-02 -3.353739529848098755e-02 -1.612728238105773926e-01 1.571731418371200562e-01 7.403940707445144653e-02 -5.460536852478981018e-02 -9.263406693935394287e-02 4.917604103684425354e-02 -9.039052575826644897e-02 7.384190708398818970e-02 1.446313709020614624e-01 -6.669406592845916748e-02 -1.221757233142852783e-01 6.277121137827634811e-03 -8.555901050567626953e-02 1.105777453631162643e-02 -4.671258479356765747e-02 -3.671191632747650146e-02 1.330823451280593872e-01 -4.500935971736907959e-02 -6.732115149497985840e-02 7.695519179105758667e-02 -1.324571389704942703e-02 4.644305258989334106e-02 -6.709859520196914673e-02 -8.259391412138938904e-03 1.021545752882957458e-01 -1.006190702319145203e-01 2.312779054045677185e-02 -1.293273456394672394e-02 6.824631989002227783e-02 -1.274042725563049316e-01 -4.502961412072181702e-02 -6.904705613851547241e-02 7.526140660047531128e-02 -1.284400075674057007e-01 3.447763994336128235e-02 7.765244692564010620e-02 -4.550150409340858459e-02 8.762773126363754272e-02 6.615152209997177124e-02 9.850557893514633179e-02
6.764823198318481445e-02 -1.051863096654415131e-02 -1.501244455575942993e-01 7.494469173252582550e-03 1.544445902109146118e-01 4.284513741731643677e-02 -5.517342314124107361e-02 -2.831419371068477631e-02 1.171044185757637024e-01 -5.485692992806434631e-03 1.156055703759193420e-01 -8.725682646036148071e-02 1.674507260322570801e-01 -2.487547695636749268e-02 -1.652820259332656860e-01 2.886289171874523163e-02 4.536827281117439270e-02 3.037542849779129028e-02 -8.710510283708572388e-02 1.802810728549957275e-01 -1.965911388397216797e-01 -1.404820755124092102e-02 -2.232532575726509094e-02 1.547811087220907211e-02 -1.972968317568302155e-02 2.437606267631053925e-02 6.847253441810607910e-02 4.351820331066846848e-03 5.667633935809135437e-02 -1.191051974892616272e-01 -9.169369190931320190e-02 -2.935840748250484467e-02 1.503766980022192001e-02 5.684658512473106384e-02 -2.400341257452964783e-02 2.035321481525897980e-02 6.383016239851713181e-03 -6.351985782384872437e-02 3.894981741905212402e-02 -6.872111558914184570e-02 -2.041536942124366760e-02 -4.132994264364242554e-02 -8.626258373260498047e-02 -2.649119496345520020e-02 3.377290070056915283e-02 -9.484879672527313232e-03 4.194903746247291565e-02 -7.958774268627166748e-02 -9.485930949449539185e-02 1.000997126102447510e-01 3.227131068706512451e-02 4.034491139464080334e-04 2.074955962598323822e-02 -1.161001920700073242e-01 -3.568578884005546570e-02 -2.962723001837730408e-02 2.371001057326793671e-02 -1.122975442558526993e-02 -1.504771132022142410e-02 6.819925457239151001e-02
1.105873957276344299e-01 -9.121542423963546753e-02 7.419929374009370804e-03 5.644847825169563293e-02 -2.436126815155148506e-03 -7.263538986444473267e-02 1.328025199472904205e-02 -1.254331320524215698e-01 9.315893985331058502e-03 -2.707039751112461090e-02 -1.233482211828231812e-01 7.198630273342132568e-02 -1.434812396764755249e-01 5.101220682263374329e-02 -2.613249719142913818e-01 -2.796989306807518005e-02 -1.064833179116249084e-01 -1.221970748156309128e-02 8.360344171524047852e-02 9.730057354317978024e-05 5.863776430487632751e-02 -1.135945785790681839e-02 6.276565790176391602e-02 -1.966449171304702759e-01 4.227330500725656748e-04 3.023528307676315308e-02 -3.897973895072937012e-02 3.566307201981544495e-02 1.528530418872833252e-01 -1.319330185651779175e-01 -2.452331595122814178e-03 1.112866625189781189e-01 -5.809703841805458069e-02 1.169078424572944641e-02 -5.353957414627075195e-02 -7.102282345294952393e-02 -1.216620672494173050e-02 -5.749538168311119080e-02 -7.410236448049545288e-02 1.197937950491905212e-01 -1.816615313291549683e-01 4.499612748622894287e-02 -2.526544407010078430e-02 1.242805868387222290e-01 5.155695602297782898e-02 1.632585078477859497e-01 4.550104029476642609e-03 -1.695818081498146057e-02 2.935417927801609039e-02 -3.364429250359535217e-02 -1.247143149375915527e-01 -3.667389973998069763e-02 5.550365895032882690e-02 1.487665995955467224e-02 4.139436408877372742e-02 1.809454150497913361e-02 -1.053542271256446838e-01 1.885581389069557190e-02 2.179681137204170227e-02 1.455738991498947144e-01
-9.904004633426666260e-02 -5.496821179986000061e-02 1.375073101371526718e-02 1.038290709257125854e-01 6.639505177736282349e-02 -8.819819986820220947e-02 -1.448148116469383240e-02 1.520316451787948608e-01 1.815157532691955566e-01 6.532115489244461060e-02 -5.302651226520538330e-02 -9.806281886994838715e-03 2.139089396223425865e-03 -5.369049310684204102e-02 -2.019924968481063843e-01 4.902758821845054626e-02 -1.479334682226181030e-01 3.079418279230594635e-02 -5.664809793233871460e-02 4.539502412080764771e-02 -1.479511409997940063e-01 3.238893346861004829e-03 -1.173392459750175476e-01 5.128997564315795898e-02 -9.268517792224884033e-02 3.400049358606338501e-02 -2.443840056657791138e-01 -3.095256723463535309e-02 -6.922946311533451080e-03 -1.340241879224777222e-01 -5.310096777975559235e-03 1.364328116178512573e-01 4.525420442223548889e-02 4.366232082247734070e-02 7.460417598485946655e-02 -2.558730356395244598e-02 -9.740739129483699799e-03 1.892027072608470917e-02 -2.801067382097244263e-02 5.300389975309371948e-02 -5.300169065594673157e-02 2.862883917987346649e-02 2.242432832717895508e-01 -5.999497324228286743e-02 4.703670740127563477e-03 -2.272200956940650940e-02 4.030700400471687317e-02 -4.694138467311859131e-02 8.024521917104721069e-02 2.726666443049907684e-02 1.072372794151306152e-01 -1.551166921854019165e-01 -1.066717952489852905e-01 2.563737146556377411e-02 -8.677104860544204712e-02 2.861784026026725769e-02 6.068767607212066650e-02 1.052870675921440125e-01 3.246578946709632874e-02 1.613807119429111481e-02
5.062980577349662781e-02 -8.063121140003204346e-02 -1.480066925287246704e-01 -2.407600358128547668e-02 1.048896554857492447e-02 1.335071921348571777e-01 2.033461183309555054e-01 -1.268020365387201309e-02 9.780263900756835938e-02 3.054937161505222321e-02 4.506470635533332825e-02 6.708706915378570557e-02 -2.717867307364940643e-02 -5.727252457290887833e-03 -1.286557526327669621e-04 6.141872331500053406e-02 -4.137515649199485779e-02 1.907480321824550629e-02 1.993434736505150795e-03 -7.770319283008575439e-02 1.035219356417655945e-01 -7.964222878217697144e-02 1.000976413488388062e-01 -9.914205968379974365e-02 2.808416634798049927e-02 8.659756928682327271e-02 -6.041985750198364258e-02 -7.374485582113265991e-02 6.489389576017856598e-03 2.038160562515258789e-01 1.091847545467317104e-03 1.591062732040882111e-02 -6.278292089700698853e-02 -1.319285035133361816e-01 3.707863390445709229e-02 1.747152954339981079e-01 -1.003741174936294556e-01 1.100328266620635986e-01 1.668441742658615112e-01 -9.156312048435211182e-02 -3.517201635986566544e-03 9.737298637628555298e-02 -1.752837300300598145e-01 9.470065683126449585e-02 -3.173098340630531311e-02 1.115562301129102707e-02 -6.482038646936416626e-02 1.058489456772804260e-02 -3.023337759077548981e-02 -5.027426406741142273e-02 -2.751201950013637543e-02 1.642583906650543213e-01 -8.778877556324005127e-02 -8.030240982770919800e-02 5.443287640810012817e-02 9.336960315704345703e-02 1.851700246334075928e-02 -1.164242178201675415e-01 1.618732810020446777e-01 5.243300646543502808e-02
-1.377386152744293213e-01 -9.617904573678970337e-02 8.640902489423751831e-02 -1.099789887666702271e-01 1.367281675338745117e-01 7.288451492786407471e-02 3.179048374295234680e-02 -4.761935397982597351e-02 -8.392530493438243866e-03 1.401642709970474243e-02 -2.053679972887039185e-01 -9.244766831398010254e-02 -9.246121346950531006e-02 -5.607447028160095215e-02 5.067545175552368164e-02 9.972609579563140869e-02 -2.423269115388393402e-02 5.253243073821067810e-02 -2.676282264292240143e-02 2.680151537060737610e-02 5.075119435787200928e-03 2.163503505289554596e-02 -8.720662444829940796e-02 -7.854890427552163601e-04 3.522000834345817566e-02 1.217206716537475586e-01 4.343567416071891785e-03 -7.773303240537643433e-02 -5.796812474727630615e-02 -3.063469752669334412e-02 -8.687900006771087646e-02 -1.053755264729261398e-02 -5.768350884318351746e-02 2.537577599287033081e-02 1.627229452133178711e-01 5.222395807504653931e-02 5.666114017367362976e-02 -1.595683693885803223e-01 5.224289000034332275e-02 -4.109868779778480530e-02 -4.453628137707710266e-02 -5.432505160570144653e-02 -4.731372371315956116e-02 -8.151557296514511108e-02 1.547557488083839417e-02 -1.789637506008148193e-01 -1.941704563796520233e-02 -1.201467663049697876e-01 -2.171664983034133911e-01 8.947381377220153809e-02 3.187170624732971191e-02 -7.342129945755004883e-02 -1.318694557994604111e-02 -8.151298761367797852e-02 3.144383430480957031e-02 -1.294675096869468689e-02 1.371635645627975464e-01 1.424802839756011963e-01 -7.662914693355560303e-02 -9.943569451570510864e-02
5.903154984116554260e-02 -1.528158634901046753e-01 -1.087533086538314819e-01 -1.159259453415870667e-01 -1.608584821224212646e-01 -1.344529818743467331e-02 1.291562020778656006e-01 1.244510989636182785e-02 2.895640442147850990e-03 -6.275871396064758301e-02 5.246656015515327454e-02 -9.239817038178443909e-03 -1.336698830127716064e-01 1.236800253391265869e-01 2.070140093564987183e-02 1.088068261742591858e-02 -1.404059082269668579e-01 3.208399191498756409e-02 6.586411595344543457e-02 4.229269549250602722e-02 4.203777387738227844e-02 3.153747692704200745e-02 -8.063507080078125000e-02 -4.477817937731742859e-02 9.897160530090332031e-02 -6.157127767801284790e-02 -3.739755973219871521e-02 -4.732841253280639648e-02 2.238330841064453125e-01 1.148809567093849182e-01 -1.049312800168991089e-01 -4.651774838566780090e-02 -2.367294132709503174e-01 -8.992377668619155884e-02 -6.746131926774978638e-02 3.073978424072265625e-02 -1.298318654298782349e-01 9.206213057041168213e-02 1.110087782144546509e-01 5.661714356392621994e-03 7.739030756056308746e-03 -1.474125683307647705e-02 1.087596043944358826e-01 8.738048374652862549e-02 -8.626633882522583008e-02 1.494813710451126099e-01 -8.539102971553802490e-02 -2.274741381406784058e-01 -6.868126988410949707e-02 8.887235075235366821e-02 1.177124679088592529e-01 -7.576004415750503540e-02 3.689587861299514771e-02 -6.920080631971359253e-02 -8.465807884931564331e-02 8.342854678630828857e-02 -6.765962392091751099e-02 -1.059432178735733032e-01 -1.844953298568725586e-01 3.063344769179821014e-02
