1.759377308189868927e-02 -3.010658547282218933e-03 -6.643314380198717117e-03 -6.390120834112167358e-03 2.428339794278144836e-03 -2.338007651269435883e-02 -2.667576819658279419e-02 -9.302206337451934814e-03 -2.010353654623031616e-02 -1.404512114822864532e-02 -1.346198376268148422e-02 -1.386169996112585068e-02 2.092272276058793068e-03 -4.725873004645109177e-03 6.409890484064817429e-03 1.161423232406377792e-02 -1.005054451525211334e-02 9.828018955886363983e-03 4.374312236905097961e-03 -2.667035441845655441e-03 4.705834202468395233e-03 8.089872077107429504e-03 2.016703225672245026e-02 1.228853594511747360e-03 1.218356937170028687e-02 -8.121851831674575806e-03 1.887381076812744141e-02 -1.681856811046600342e-02 -1.871753856539726257e-02 -3.736164653673768044e-03 8.257857523858547211e-03 2.101144194602966309e-02 -5.477355793118476868e-03 -6.064617540687322617e-03 -3.666567057371139526e-02 2.111566253006458282e-02 -1.123932283371686935e-02 -6.156404502689838409e-03 1.390133518725633621e-02 -7.082454394549131393e-03 1.247881073504686356e-02 -1.492120698094367981e-02 -1.787323690950870514e-02 -2.150203287601470947e-02 -1.162465568631887436e-02 5.263164639472961426e-03 -9.480269625782966614e-03 2.665845677256584167e-02 -1.376351527869701385e-02 1.826019398868083954e-02 2.412962168455123901e-02 1.714712381362915039e-02 1.495355088263750076e-02 5.129375960677862167e-03 2.836618572473526001e-03 1.291445735841989517e-02 1.394269336014986038e-02 -3.480035439133644104e-02 -1.612226478755474091e-03 1.419485919177532196e-02 -3.062904346734285355e-03 -1.821271330118179321e-02 -1.289584394544363022e-02 -7.860944606363773346e-03 7.428085897117853165e-03 2.047323063015937805e-02 1.456046476960182190e-02 -1.267295330762863159e-02 -4.929725546389818192e-03 1.052626967430114746e-02 1.331925392150878906e-02 6.988033652305603027e-03 -2.014850964769721031e-03 1.217027846723794937e-02 -2.726597012951970100e-04 -2.791892038658261299e-03 7.871767506003379822e-03 -4.021714441478252411e-03 1.318585220724344254e-02 -1.938066072762012482e-02 8.455939590930938721e-03 -1.838567107915878296e-02 8.364269509911537170e-03 1.606293022632598877e-02 -1.959963701665401459e-02 -6.368332076817750931e-03 1.825421303510665894e-02 -4.099312704056501389e-03 6.083194632083177567e-03 -2.715806709602475166e-03 -1.044558011926710606e-03 -5.196204292587935925e-04 1.746433204971253872e-03 -3.892919514328241348e-03 1.447676494717597961e-02 -6.541957147419452667e-03 -4.299892578274011612e-03 -3.488012123852968216e-03 2.719179913401603699e-02 -1.817084662616252899e-02 1.057279109954833984e-02 -1.234853453934192657e-02 1.048328820616006851e-02 3.963864583056420088e-04 -1.580082625150680542e-02 7.559690624475479126e-03 1.698575355112552643e-02 -1.481862738728523254e-02 -2.111380221322178841e-03 -8.703028783202171326e-03 -3.255478339269757271e-03 -1.711194775998592377e-02 7.037536124698817730e-04 -1.997976936399936676e-02 7.965633645653724670e-03 2.203113026916980743e-02 -2.252316288650035858e-02 8.390235016122460365e-04 6.442685611546039581e-03 1.247176341712474823e-02 -1.751072704792022705e-02 -6.991683971136808395e-03 2.073547802865505219e-02 -7.293897680938243866e-03 -1.178139541298151016e-02 1.448629610240459442e-02 -3.137463936582207680e-03 -1.164664607495069504e-02 -1.435394957661628723e-02 2.550144679844379425e-02 1.747779897414147854e-03 -5.692150443792343140e-04 4.332229218562133610e-05 6.360707804560661316e-03 5.971157923340797424e-03 4.926391993649303913e-04 -5.029689986258745193e-03 -1.286310516297817230e-02 -1.477572694420814514e-02 -1.249046251177787781e-02 -9.446099400520324707e-03 -1.479304023087024689e-02 -7.163341622799634933e-03 -3.349660197272896767e-03 -1.376440003514289856e-02 2.784941578283905983e-03 -1.826323219574987888e-03 -9.358192328363656998e-04 7.445158553309738636e-04 -9.757360443472862244e-03 3.161558881402015686e-03 -4.788894206285476685e-03 6.571506382897496223e-04 1.094789989292621613e-02 1.385173201560974121e-02 5.760683678090572357e-03 -2.363923378288745880e-02 -2.550651878118515015e-02 4.742585588246583939e-03 -4.549484699964523315e-03 -1.023957389406859875e-03 -1.137117855250835419e-02 2.749775536358356476e-03 1.273867022246122360e-02 2.703673951327800751e-02 2.007103897631168365e-02 4.254739542375318706e-05 5.331337451934814453e-03 -1.196754630655050278e-02 -9.122541086981073022e-05 -6.941327359527349472e-03 -1.291923783719539642e-02 -5.114850588142871857e-03 -5.092505365610122681e-03 1.954801566898822784e-02 4.896622151136398315e-03 -1.492587965913116932e-03 4.038839135318994522e-03 1.449928246438503265e-02 -1.488372031599283218e-02 -5.498487502336502075e-03 1.573241688311100006e-02 8.586123003624379635e-04 -7.643653661943972111e-04 5.161178763955831528e-03 1.627354999072849751e-03 1.461989246308803558e-02 3.414841368794441223e-02 6.428043823689222336e-03 1.868382841348648071e-02 -3.767278511077165604e-03 -1.432701013982295990e-02 3.816570853814482689e-03 5.842415150254964828e-03 -2.313793450593948364e-02 1.484944019466638565e-02 2.287673205137252808e-02 -1.884137839078903198e-02 -4.855801351368427277e-03 7.070076651871204376e-03 1.940492913126945496e-02 2.800382673740386963e-02 4.785321652889251709e-03 2.148070558905601501e-02 -1.215900015085935593e-02 -8.171242079697549343e-04 9.069996885955333710e-03 9.072288870811462402e-03 -2.795122936367988586e-02 -7.405187934637069702e-03 1.340084802359342575e-02 -9.543372318148612976e-03 9.900266304612159729e-03 -2.528293617069721222e-02 -1.209731679409742355e-02 -7.445840630680322647e-03 3.204363957047462463e-02 1.183598302304744720e-02 -1.499361824244260788e-02 -1.624602824449539185e-02 -1.182519085705280304e-02 1.026222854852676392e-02 1.020572599372826517e-04 -4.200338153168559074e-04 -2.011056244373321533e-02 -1.109133567661046982e-02 5.437411018647253513e-04 -2.313690632581710815e-02 6.078768987208604813e-03 2.643550559878349304e-02 1.905826292932033539e-02 1.150511298328638077e-02 4.100420919712632895e-04 1.264809630811214447e-03 1.464497949928045273e-02 9.422127157449722290e-03 -5.655165761709213257e-03 -1.255366858094930649e-02 -1.708104624412953854e-03 -2.115339413285255432e-02 2.874447591602802277e-02 -3.834863752126693726e-02 1.676103286445140839e-02 -9.364319033920764923e-03 -3.309573233127593994e-02 -1.583164907060563564e-03 2.043406479060649872e-02 -4.467021301388740540e-02 -2.089521661400794983e-02 4.190142732113599777e-03 -1.251888927072286606e-03 5.090892664156854153e-04 -2.947295550256967545e-03 -4.181192722171545029e-03 2.017074078321456909e-02 -4.651498515158891678e-03
-1.058056671172380447e-02 -2.780699357390403748e-02 -3.834974253550171852e-03 1.943238265812397003e-02 1.208082027733325958e-02 6.519752088934183121e-03 -3.902022435795515776e-04 -1.729593798518180847e-02 8.664165623486042023e-03 2.588678896427154541e-02 -1.389382313936948776e-02 -6.218726281076669693e-03 -4.008372500538825989e-02 -4.440428223460912704e-03 -4.609876850736327469e-05 1.321539399214088917e-03 3.002938069403171539e-02 5.619246046990156174e-03 -3.856432810425758362e-02 1.123062334954738617e-02 -7.381925825029611588e-03 3.209961112588644028e-03 1.537146419286727905e-02 -1.270571141503751278e-03 -9.877502918243408203e-03 -3.782984800636768341e-03 1.680631830822676420e-04 -9.512582793831825256e-03 -1.045064534991979599e-02 2.168264053761959076e-02 7.681689690798521042e-03 8.538286201655864716e-03 1.394124422222375870e-02 -1.239027827978134155e-02 3.741852240636944771e-03 9.054287336766719818e-03 9.051695466041564941e-03 -2.430610917508602142e-02 1.503149163909256458e-03 3.975020721554756165e-02 1.485596597194671631e-02 -1.492884568870067596e-02 -1.466609910130500793e-02 -4.776897374540567398e-03 -3.579897456802427769e-04 1.826554350554943085e-02 -1.094974670559167862e-02 -2.741915732622146606e-02 -7.880571298301219940e-03 1.086454465985298157e-02 1.707928813993930817e-02 -2.807439304888248444e-03 -1.711862906813621521e-02 -7.435007020831108093e-03 7.034635636955499649e-03 -1.442255359143018723e-02 4.136655479669570923e-03 -2.911843545734882355e-02 -2.355054579675197601e-02 2.062399871647357941e-02 -1.589157967828214169e-03 -9.592060931026935577e-03 -1.158510427922010422e-02 -9.053607471287250519e-03 4.208914935588836670e-03 2.130385860800743103e-02 2.237380109727382660e-02 4.928504582494497299e-03 -1.700870506465435028e-02 2.904664725065231323e-02 -9.372008964419364929e-03 -1.014511100947856903e-02 6.038062740117311478e-03 2.187050879001617432e-02 6.919409614056348801e-03 -1.371011510491371155e-02 1.941230893135070801e-02 -5.300971679389476776e-03 3.664157120510935783e-03 -7.623554207384586334e-03 1.535533927381038666e-02 -1.872811280190944672e-02 -2.421480044722557068e-02 1.933850347995758057e-02 -3.306670114398002625e-02 -7.868675515055656433e-03 1.074987836182117462e-02 9.393628686666488647e-03 -9.057833813130855560e-03 1.534306793473660946e-03 1.955467648804187775e-02 2.768591279163956642e-03 7.955810055136680603e-03 2.230874076485633850e-02 -3.913383930921554565e-03 6.846978794783353806e-03 -9.938700124621391296e-03 1.108580641448497772e-02 2.040329389274120331e-02 -2.033030427992343903e-02 -1.600305922329425812e-02 1.780824176967144012e-02 1.232411991804838181e-02 3.009771928191184998e-02 7.637044414877891541e-03 -1.176140457391738892e-02 2.080282382667064667e-02 -3.465716168284416199e-02 -2.636580727994441986e-03 1.273731049150228500e-02 1.726905442774295807e-02 -7.080045528709888458e-03 -2.256491035223007202e-02 -1.652337796986103058e-02 -1.871090382337570190e-02 -2.088498137891292572e-02 8.775498135946691036e-04 -2.374065108597278595e-02 -8.158769458532333374e-03 -2.026312239468097687e-02 -2.896054461598396301e-02 3.145950287580490112e-02 -7.213745731860399246e-03 3.369717625901103020e-03 1.019225083291530609e-02 2.729416824877262115e-02 1.061224192380905151e-02 -2.685288200154900551e-03 1.891858130693435669e-02 1.631041243672370911e-02 -2.638264559209346771e-02 1.159721426665782928e-02 1.297149155288934708e-02 -1.360374130308628082e-02 -3.693658392876386642e-03 5.271761678159236908e-03 -1.919921487569808960e-02 7.291772402822971344e-03 -2.454000932630151510e-04 -3.437231853604316711e-02 -6.207927130162715912e-03 -1.964906603097915649e-02 -9.553140029311180115e-03 -5.519847385585308075e-03 1.847404427826404572e-02 -5.635716486722230911e-03 1.983716385439038277e-03 -1.835173554718494415e-02 2.018229104578495026e-02 -6.464027683250606060e-04 -2.527594938874244690e-02 1.883207238279283047e-03 -7.389190606772899628e-03 7.330635096877813339e-03 1.670730300247669220e-02 2.591273188591003418e-02 1.287614647299051285e-02 -3.075674176216125488e-02 -1.291404291987419128e-02 1.421582885086536407e-02 -9.101535193622112274e-03 7.781095337122678757e-04 -5.570741370320320129e-03 2.760232239961624146e-02 3.001513518393039703e-02 -1.144313719123601913e-02 9.440035559237003326e-03 3.407666226848959923e-03 3.395220497623085976e-03 1.315025798976421356e-02 -2.690867893397808075e-02 -8.879778906702995300e-03 -1.686737313866615295e-02 4.626542795449495316e-03 -2.340556494891643524e-02 -6.851595826447010040e-03 2.121886052191257477e-02 2.575160190463066101e-02 3.077838942408561707e-02 -2.077109552919864655e-02 -1.021317113190889359e-02 2.418293058872222900e-02 2.534309402108192444e-02 6.138694589026272297e-04 1.522465981543064117e-02 2.866877475753426552e-03 4.042895510792732239e-02 2.866422384977340698e-02 8.381741936318576336e-04 1.066966168582439423e-02 -2.598822861909866333e-02 5.146246869117021561e-03 2.919380320236086845e-03 2.136760205030441284e-02 1.802392303943634033e-02 -1.815257780253887177e-02 -4.507004749029874802e-03 4.857889143750071526e-04 -1.268558111041784286e-02 1.628935337066650391e-02 3.371998295187950134e-02 -1.632592640817165375e-02 3.458577767014503479e-02 9.904089383780956268e-03 -1.032832358032464981e-02 2.508533746004104614e-02 9.037587791681289673e-03 -3.289417596533894539e-03 -9.265639819204807281e-04 -1.952416449785232544e-02 1.391095016151666641e-02 -3.520571067929267883e-02 -4.628802649676799774e-03 -5.442127585411071777e-03 -2.865584194660186768e-02 4.919304046779870987e-03 4.652420524507761002e-03 1.923926756717264652e-03 -3.366170916706323624e-03 -1.521102990955114365e-02 5.597476847469806671e-03 2.647870220243930817e-02 1.203984860330820084e-02 -1.529068965464830399e-02 -1.681734621524810791e-02 -3.690485609695315361e-03 -5.965192336589097977e-03 -1.851449534296989441e-02 1.270146481692790985e-02 2.212507650256156921e-02 -2.164519950747489929e-02 3.420613473281264305e-03 -6.079683080315589905e-04 -8.036968298256397247e-03 -1.750326342880725861e-02 2.030922332778573036e-04 -1.099605206400156021e-02 1.872670277953147888e-02 -1.319118542596697807e-03 -4.683639388531446457e-03 4.248008131980895996e-02 -7.430114317685365677e-03 2.569243311882019043e-02 -4.457446187734603882e-02 -1.732408767566084862e-03 2.864931710064411163e-02 5.829271674156188965e-02 -2.109212428331375122e-02 1.201169472187757492e-02 -1.514546759426593781e-02 3.788056084886193275e-03 -2.305970527231693268e-03 2.883858513087034225e-03 -5.781725049018859863e-03 1.827340945601463318e-02 2.686217799782752991e-02
-8.747979998588562012e-03 1.041025761514902115e-02 -1.785034313797950745e-02 6.857121363282203674e-03 1.934376545250415802e-02 -1.127029210329055786e-02 4.124930128455162048e-03 1.377883180975914001e-02 -3.728570649400353432e-03 5.445517133921384811e-03 1.509106252342462540e-02 -2.515843138098716736e-02 7.770483382046222687e-03 2.153030829504132271e-03 -1.411752589046955109e-02 5.319826304912567139e-03 -2.598637714982032776e-03 2.047495543956756592e-02 -9.360977448523044586e-03 -3.646251047030091286e-03 -8.007498458027839661e-03 4.772775806486606598e-03 2.188609354197978973e-02 5.767929367721080780e-03 -1.872394583187997341e-03 6.356339436024427414e-03 1.546041853725910187e-02 7.957594469189643860e-03 -3.205562755465507507e-02 -1.487143058329820633e-02 -2.057310007512569427e-02 1.653943210840225220e-02 -1.348526682704687119e-02 -2.631670609116554260e-02 -2.530298382043838501e-02 -8.954054675996303558e-03 -7.060612551867961884e-03 -3.920531272888183594e-02 -7.357437629252672195e-03 -1.437542680650949478e-02 -2.266499400138854980e-02 3.582289814949035645e-02 -2.265888080000877380e-02 -5.600486183539032936e-04 3.735738992691040039e-02 3.130801767110824585e-02 1.606648415327072144e-02 6.261666305363178253e-03 1.695256680250167847e-02 9.654666297137737274e-03 2.266825363039970398e-02 7.262233644723892212e-03 1.907712034881114960e-02 1.876049488782882690e-02 -4.970640409737825394e-03 -6.357487873174250126e-04 2.261105738580226898e-02 -7.674615364521741867e-03 1.441671885550022125e-02 1.958946138620376587e-02 -9.943450801074504852e-03 -1.715536601841449738e-02 9.345676749944686890e-03 4.218324029352515936e-04 -2.892679907381534576e-02 -3.022489137947559357e-03 8.257326669991016388e-03 1.148436404764652252e-02 2.963943406939506531e-02 3.539009392261505127e-02 1.122033968567848206e-02 2.730154665187001228e-03 1.360784471035003662e-02 -1.938934624195098877e-02 6.153991911560297012e-03 1.627535000443458557e-02 -1.773840561509132385e-02 -5.366453900933265686e-03 -1.040648575872182846e-02 -2.159491879865527153e-03 2.240998670458793640e-02 2.608363749459385872e-03 -7.167296484112739563e-03 2.281675487756729126e-02 -3.598516061902046204e-02 -5.089169833809137344e-03 1.697058230638504028e-02 -1.850726641714572906e-02 2.066337876021862030e-02 2.261630259454250336e-02 1.984627731144428253e-02 1.992670632898807526e-02 -2.211749320849776268e-03 -1.422660890966653824e-02 -2.576150931417942047e-02 -1.726758433505892754e-03 -9.469696669839322567e-04 -2.610914595425128937e-02 -2.549845725297927856e-03 -2.189642935991287231e-02 -8.344335481524467468e-03 -5.059321876615285873e-03 1.760763861238956451e-02 3.242433303967118263e-03 -2.209918759763240814e-02 -9.047542698681354523e-03 9.456769563257694244e-03 -1.240099407732486725e-02 1.404401031322777271e-03 -6.955265998840332031e-03 1.171709224581718445e-02 1.179075799882411957e-02 8.989400230348110199e-03 -1.502775773406028748e-02 -2.022708579897880554e-02 -5.463197827339172363e-03 -1.029707305133342743e-02 -1.333369966596364975e-02 2.008773386478424072e-03 -2.024748176336288452e-02 4.304480273276567459e-03 3.378038108348846436e-02 2.192046493291854858e-02 -1.746427454054355621e-02 1.304655708372592926e-02 -1.894714683294296265e-02 -1.943553611636161804e-02 1.885527744889259338e-02 -1.312203332781791687e-02 -5.969078047201037407e-04 2.429444156587123871e-02 8.926467038691043854e-03 -2.418223582208156586e-02 1.041318848729133606e-02 -3.974606748670339584e-03 3.544211387634277344e-02 -1.962997019290924072e-02 6.679726298898458481e-03 -2.994892373681068420e-02 -1.519566494971513748e-02 3.667202545329928398e-03 2.211090736091136932e-02 1.872328296303749084e-02 1.386446598917245865e-02 4.166636615991592407e-03 -1.668984815478324890e-02 1.885277405381202698e-02 1.982228271663188934e-02 3.329497529193758965e-03 -3.317492455244064331e-02 -2.413925528526306152e-02 -2.778478711843490601e-02 2.118597738444805145e-02 -2.157921716570854187e-02 -1.445862581022083759e-03 -6.245251279324293137e-03 1.215295400470495224e-02 2.492876083124428988e-04 -2.150699868798255920e-02 2.525355294346809387e-02 2.341261832043528557e-03 -2.378523722290992737e-02 3.135679522529244423e-03 -3.409825265407562256e-02 4.609921481460332870e-03 1.083992514759302139e-02 -1.321557164192199707e-02 9.705845266580581665e-03 1.209579524584114552e-03 3.202678402885794640e-03 -9.245515801012516022e-03 -2.042026259005069733e-02 -1.556318160146474838e-02 -7.926576770842075348e-03 -2.283383347094058990e-02 2.583451196551322937e-02 7.268089684657752514e-04 -8.343489025719463825e-05 1.787651889026165009e-02 3.400533646345138550e-02 -2.357898652553558350e-02 -4.628285299986600876e-03 -1.419643685221672058e-02 -3.114168718457221985e-02 -9.353177621960639954e-03 1.919345557689666748e-02 -1.020971126854419708e-02 -1.047562714666128159e-02 1.282098237425088882e-03 1.394301746040582657e-02 -6.588543299585580826e-03 -2.200652286410331726e-02 -2.963763102889060974e-02 -8.324925438500940800e-04 4.260329529643058777e-03 7.549998350441455841e-03 1.745865494012832642e-02 2.650766447186470032e-02 -7.335954345762729645e-03 -5.318883806467056274e-03 1.991309970617294312e-02 -4.896941129118204117e-03 2.153251320123672485e-02 2.340775355696678162e-02 -5.866559688001871109e-03 1.580485329031944275e-02 -2.389274165034294128e-02 8.534569293260574341e-03 5.476698745042085648e-03 -2.428394928574562073e-02 2.803232055157423019e-03 -7.167890726123005152e-05 1.757512427866458893e-02 -1.089424267411231995e-02 7.188939489424228668e-03 -2.282237634062767029e-02 1.838234020397067070e-04 7.869272492825984955e-03 -2.404748462140560150e-03 1.194400060921907425e-02 8.097034296952188015e-04 -2.396410331130027771e-02 7.144961506128311157e-03 8.948093163780868053e-04 -8.805145509541034698e-03 1.208486128598451614e-02 -8.296087384223937988e-03 -1.427187677472829819e-02 1.325529254972934723e-02 6.644568406045436859e-03 -6.155550945550203323e-03 -1.487599592655897141e-02 -1.797978021204471588e-02 -1.427555922418832779e-02 3.533910214900970459e-02 -1.499518938362598419e-02 9.499327861703932285e-04 -1.366156619042158127e-02 -3.952177241444587708e-02 2.048134244978427887e-02 -5.637140944600105286e-03 -7.826849818229675293e-03 3.194118663668632507e-02 -2.482296340167522430e-02 1.351971458643674850e-02 1.752915233373641968e-02 3.829483687877655029e-02 -1.088145771063864231e-03 9.363662451505661011e-03 1.386758219450712204e-02 1.230500638484954834e-02 1.748380810022354126e-02 3.350138291716575623e-02 -6.966903805732727051e-03 -2.522053197026252747e-02 -1.144599542021751404e-02
-1.725601759972050786e-04 -3.370683407410979271e-03 -7.314073154702782631e-04 1.561260782182216644e-03 1.177985500544309616e-02 -1.161476131528615952e-03 -1.854079077020287514e-03 2.562726149335503578e-03 -6.942514330148696899e-03 5.903774406760931015e-03 8.252483676187694073e-04 1.978534273803234100e-03 1.341260597109794617e-02 -2.885346487164497375e-02 6.589980795979499817e-03 -8.189919404685497284e-03 6.699522957205772400e-03 1.160626579076051712e-02 -1.932637020945549011e-02 -6.030994467437267303e-03 -1.455992367118597031e-02 1.345627475529909134e-02 -4.799125716090202332e-03 7.731653749942779541e-03 2.493687439709901810e-03 -9.174072183668613434e-03 5.275330506265163422e-03 -1.075411029160022736e-02 -8.321272209286689758e-03 1.067614369094371796e-02 6.653247401118278503e-03 1.391987409442663193e-02 -3.685939591377973557e-03 -3.257096931338310242e-02 3.399019828066229820e-03 3.307941602542996407e-03 1.953566074371337891e-02 1.441366877406835556e-02 -3.467818489298224449e-03 -5.614440422505140305e-03 -1.374917104840278625e-02 -1.347199175506830215e-02 1.911286823451519012e-02 5.644547287374734879e-03 1.281612459570169449e-02 1.599081791937351227e-02 2.081911079585552216e-02 2.878040832001715899e-04 1.244472991675138474e-02 4.245006013661623001e-03 -3.979215864092111588e-03 8.929105475544929504e-03 1.493539661169052124e-02 -7.700770627707242966e-03 -9.279240854084491730e-03 -6.258205510675907135e-03 -1.096226181834936142e-02 3.145088674500584602e-03 1.689104922115802765e-02 -3.943102434277534485e-03 -1.652892865240573883e-02 -5.730015691369771957e-03 4.495198372751474380e-03 -6.286922376602888107e-03 -7.532704155892133713e-03 -1.307696662843227386e-02 5.645880475640296936e-03 3.355317749083042145e-03 -5.243659485131502151e-03 5.303132347762584686e-03 -9.762525558471679688e-03 4.936193581670522690e-03 5.008577369153499603e-03 1.650052890181541443e-02 3.002792596817016602e-03 2.743992581963539124e-02 2.921449486166238785e-03 -9.897703304886817932e-03 -1.050799060612916946e-02 8.067561313509941101e-03 -1.500782743096351624e-02 4.225825145840644836e-02 -3.936647437512874603e-03 -3.772283962462097406e-04 -1.874579861760139465e-02 1.262203603982925415e-02 -1.097639929503202438e-02 -9.691984392702579498e-03 2.448043553158640862e-03 -4.929974093101918697e-04 2.845729701220989227e-03 4.295905586332082748e-03 -9.800003841519355774e-03 -8.250770159065723419e-03 1.089282426983118057e-02 -1.855730079114437103e-02 1.441105850972235203e-03 1.008480694144964218e-02 -1.749714277684688568e-02 -1.054625771939754486e-02 6.401445716619491577e-03 -1.018828526139259338e-02 -9.425674565136432648e-03 1.458583772182464600e-02 -2.471072599291801453e-02 -2.249862253665924072e-02 3.823581384494900703e-03 1.501468289643526077e-02 -1.604169979691505432e-02 1.372556388378143311e-02 -2.179894410073757172e-02 -9.206738322973251343e-03 8.705804124474525452e-03 1.484628766775131226e-02 -3.804417094215750694e-03 -3.176427679136395454e-03 4.181141499429941177e-03 -9.040261618793010712e-03 1.351419743150472641e-02 -2.480756491422653198e-02 8.867748081684112549e-03 6.671682000160217285e-03 1.653106068260967731e-03 -1.218498032540082932e-02 3.764025121927261353e-02 -3.252030164003372192e-02 -1.007971167564392090e-02 -7.686748635023832321e-03 6.459973752498626709e-03 4.856284707784652710e-03 8.454326540231704712e-03 -1.348532922565937042e-02 1.955448649823665619e-02 7.429400458931922913e-03 -2.924791164696216583e-02 3.553406335413455963e-03 1.216237898916006088e-02 -3.217214718461036682e-02 -5.237093195319175720e-03 -2.913027070462703705e-02 1.643821783363819122e-02 1.875802874565124512e-02 -9.707137942314147949e-03 1.993207493796944618e-03 8.988546207547187805e-03 2.530870027840137482e-03 -3.473080461844801903e-03 4.116277769207954407e-02 -4.718885757029056549e-03 -2.712575346231460571e-02 7.529749069362878799e-03 -3.310600528493523598e-03 9.343707002699375153e-03 -6.563964765518903732e-03 -1.834544166922569275e-02 -2.406306378543376923e-02 1.348770456388592720e-03 -9.216532111167907715e-03 2.940285252407193184e-03 1.400314830243587494e-02 1.329856179654598236e-02 -1.839054375886917114e-02 4.240835085511207581e-02 -2.048965170979499817e-02 7.899707183241844177e-03 -8.584723807871341705e-03 4.509036988019943237e-02 3.634757362306118011e-03 -1.742606423795223236e-02 -2.598230727016925812e-03 -1.227926649153232574e-02 2.958130650222301483e-02 -2.968871966004371643e-02 -4.644325934350490570e-03 -7.229472976177930832e-03 -2.240844257175922394e-02 -1.083404850214719772e-02 7.926585152745246887e-03 -4.438714683055877686e-02 2.020583301782608032e-02 8.244162425398826599e-03 -5.868419073522090912e-03 1.134487055242061615e-02 1.196320867165923119e-03 1.385760959237813950e-03 1.073695998638868332e-02 2.905066066887229681e-04 -1.415183953940868378e-02 -6.755921058356761932e-03 1.378917787224054337e-02 -2.335879765450954437e-02 2.659548772498965263e-03 -5.074159242212772369e-03 -6.405690684914588928e-03 -3.072735667228698730e-02 2.647032029926776886e-02 3.962551802396774292e-02 6.249254103749990463e-03 -6.945358123630285263e-03 -1.061621122062206268e-02 -1.459363941103219986e-02 -1.729745068587362766e-03 6.500472780317068100e-03 3.657794513856060803e-05 -9.105840697884559631e-03 -1.407803781330585480e-02 -1.372240763157606125e-02 2.027792297303676605e-02 -1.174710039049386978e-02 -1.671150140464305878e-02 1.133223304350394756e-05 1.232806779444217682e-02 1.999978534877300262e-02 -4.864371381700038910e-03 6.558618973940610886e-03 7.953132502734661102e-03 -2.279157750308513641e-02 -1.587909995578229427e-03 1.131987478584051132e-02 -2.815130539238452911e-02 -1.103660441003739834e-03 -2.808562014251947403e-03 -4.711008165031671524e-03 -5.064023192971944809e-03 -1.883081905543804169e-02 1.232154667377471924e-02 -2.044076099991798401e-02 1.532146148383617401e-02 -3.552858717739582062e-03 2.207868266850709915e-03 -2.977017080411314964e-03 2.280831709504127502e-02 -5.494351498782634735e-04 -7.008635904639959335e-03 1.806537620723247528e-02 7.204581517726182938e-03 7.312659639865159988e-03 7.420137524604797363e-03 -1.872686110436916351e-02 -7.959921844303607941e-03 -1.230813656002283096e-02 2.276560291647911072e-02 -2.415695693343877792e-03 -1.652451232075691223e-02 -1.594229415059089661e-02 -8.954952470958232880e-03 2.851524855941534042e-03 -2.531330566853284836e-03 -1.321549154818058014e-02 -1.394174643792212009e-03 1.085870340466499329e-02 1.358365174382925034e-02 -1.420109532773494720e-03 -2.042269101366400719e-03 -1.517431903630495071e-02 -1.232815533876419067e-02
-3.005445469170808792e-03 -1.119704265147447586e-02 6.529917009174823761e-03 8.748715627007186413e-04 1.157973520457744598e-02 2.626831457018852234e-02 6.610379554331302643e-03 -1.527055725455284119e-02 8.896741783246397972e-04 2.001522853970527649e-02 1.279854029417037964e-02 -1.266894675791263580e-02 2.903268113732337952e-02 5.536213866434991360e-04 2.886109519749879837e-03 1.785109937191009521e-02 -1.103026443161070347e-03 5.285052582621574402e-02 -2.744206041097640991e-02 2.081454545259475708e-02 -2.156035229563713074e-02 3.346105664968490601e-02 -6.432485301047563553e-03 -1.593635999597609043e-03 1.330694183707237244e-02 5.259910225868225098e-02 -2.536487393081188202e-02 -1.549417432397603989e-02 -1.044492982327938080e-02 6.611468270421028137e-03 1.328137144446372986e-02 2.529698051512241364e-02 -2.367114357184618711e-04 -3.906243294477462769e-02 7.194191683083772659e-03 -8.330467157065868378e-03 -4.233090206980705261e-03 2.166222408413887024e-02 1.693984493613243103e-02 -2.671071514487266541e-02 1.471612323075532913e-02 1.280647609382867813e-02 6.775160320103168488e-03 4.942766856402158737e-03 2.868413925170898438e-02 2.004151791334152222e-02 2.434961870312690735e-02 1.470613386482000351e-02 3.292056173086166382e-02 2.441869117319583893e-02 2.697214297950267792e-02 2.615624666213989258e-02 1.702295034192502499e-03 2.008727937936782837e-02 1.721744239330291748e-02 -8.864088915288448334e-03 -3.410712233744561672e-04 1.639343053102493286e-02 3.236308461055159569e-03 -1.337713655084371567e-02 -2.797815017402172089e-02 -2.319962345063686371e-02 4.955748561769723892e-03 3.470303118228912354e-02 -2.190146595239639282e-02 -3.694646432995796204e-02 4.480905458331108093e-02 1.620464771986007690e-02 -1.466883812099695206e-02 2.458823658525943756e-02 2.181452140212059021e-02 1.368544623255729675e-02 -3.407165408134460449e-02 9.417454712092876434e-03 -7.238333113491535187e-03 -9.144234936684370041e-04 -1.672712899744510651e-02 -1.570453867316246033e-02 9.870072826743125916e-03 2.147025614976882935e-02 -1.477710157632827759e-02 -5.842130049131810665e-04 -1.644229330122470856e-02 -1.686419919133186340e-02 3.133565559983253479e-02 2.635690616443753242e-03 -4.370070528239011765e-03 -1.364790834486484528e-02 2.531672269105911255e-02 9.820457547903060913e-03 1.546088792383670807e-02 2.152868732810020447e-02 -7.450208533555269241e-03 -3.078125603497028351e-02 -2.293353434652090073e-03 -7.188488729298114777e-03 -1.376451924443244934e-02 -3.796494798734784126e-03 -1.582689769566059113e-02 2.151526138186454773e-02 -5.336048081517219543e-03 -3.004002571105957031e-02 1.533868256956338882e-02 -3.387656295672059059e-03 -8.338185027241706848e-03 -8.902769768610596657e-04 1.282835379242897034e-03 3.100894857197999954e-03 1.907239202409982681e-03 -4.568532167468219995e-04 -4.254859406501054764e-03 1.999539323151111603e-02 4.810065031051635742e-03 9.065600461326539516e-04 -9.519697166979312897e-03 -1.785543718142434955e-04 -1.166621595621109009e-02 -5.349313374608755112e-03 -3.400820493698120117e-02 1.966401934623718262e-02 -3.457003831863403320e-02 -5.524498876184225082e-03 5.224522203207015991e-03 -1.878784224390983582e-02 1.304385811090469360e-02 -2.740814816206693649e-03 -1.405521016567945480e-02 -2.003838540986180305e-03 3.164531663060188293e-02 -1.109353033825755119e-03 -1.617636531591415405e-02 1.292508793994784355e-03 5.746845621615648270e-03 3.395107761025428772e-02 2.135001309216022491e-02 2.740063890814781189e-02 -2.344942651689052582e-02 -3.205424919724464417e-02 1.036258041858673096e-02 8.982683531939983368e-03 -9.336134418845176697e-03 1.904494129121303558e-02 1.999240834265947342e-03 1.276170928031206131e-02 1.505354885011911392e-02 -2.045857347548007965e-02 7.482645567506551743e-03 -1.606122218072414398e-02 2.981786243617534637e-02 -7.983024232089519501e-03 -3.701156703755259514e-03 -2.050604671239852905e-02 -1.874775625765323639e-02 1.795667037367820740e-02 -1.707025244832038879e-02 8.208313025534152985e-03 -1.635755784809589386e-02 -5.878678709268569946e-02 -2.773209474980831146e-03 1.068276911973953247e-02 -1.495449151843786240e-02 -5.244850646704435349e-03 7.544331601820886135e-04 -9.539300226606428623e-04 -7.550690788775682449e-03 -1.263837423175573349e-02 -1.110697165131568909e-02 -8.369505405426025391e-03 -2.333856374025344849e-02 -6.140185520052909851e-03 -3.051296994090080261e-02 -3.775150515139102936e-03 -4.171730205416679382e-02 -1.868715323507785797e-02 2.194504253566265106e-02 6.413689814507961273e-03 -7.599128293804824352e-04 -3.279590979218482971e-02 -3.025885485112667084e-02 2.403673902153968811e-02 -2.394095208728685975e-04 -9.616383351385593414e-03 -3.302642842754721642e-03 -2.554769255220890045e-02 3.373013436794281006e-02 -1.107013202272355556e-03 -4.784067627042531967e-03 -4.969492927193641663e-02 -2.839789912104606628e-02 1.066945679485797882e-02 -1.980326883494853973e-02 -4.178545251488685608e-02 -2.053960599005222321e-02 1.785250194370746613e-02 -1.439042389392852783e-02 -1.391132362186908722e-02 -8.408647961914539337e-03 -7.192199584096670151e-03 -2.946433797478675842e-02 2.839917689561843872e-02 4.691004753112792969e-03 1.396693009883165359e-02 1.457159966230392456e-02 -9.666876867413520813e-03 2.945897867903113365e-03 1.635966263711452484e-02 -1.072177197784185410e-03 1.971950754523277283e-02 1.339471805840730667e-02 4.316340386867523193e-02 3.693157108500599861e-03 -8.679424412548542023e-03 7.398464716970920563e-03 7.642461918294429779e-03 -1.686072908341884613e-02 -6.575922947376966476e-03 -4.046472534537315369e-02 2.754944935441017151e-02 -9.635039605200290680e-03 1.716949045658111572e-02 -2.660446916706860065e-04 7.463686633855104446e-03 -7.270212750881910324e-03 -3.544958308339118958e-03 5.502637848258018494e-02 3.275390714406967163e-02 6.148133426904678345e-03 -7.713024388067424297e-04 2.869925089180469513e-02 -2.411384321749210358e-02 1.393402647227048874e-02 -1.993469893932342529e-02 4.693704191595315933e-03 -1.752636767923831940e-02 2.079264447093009949e-02 -2.503368444740772247e-02 -2.207092754542827606e-02 -1.966634392738342285e-02 -4.780559614300727844e-02 -2.670483849942684174e-02 -3.476950572803616524e-03 -1.541681005619466305e-03 -7.030768319964408875e-03 -1.833452098071575165e-02 3.382961824536323547e-02 1.211891137063503265e-02 1.308804261498153210e-03 7.811998482793569565e-03 2.032062225043773651e-02 1.042242348194122314e-02 2.692660549655556679e-03 -2.257766434922814369e-03 2.173782512545585632e-02 -1.517496723681688309e-02 -2.546618133783340454e-02 -2.015537396073341370e-02
-1.314405351877212524e-02 -2.131988853216171265e-02 -3.831069916486740112e-03 -3.730609780177474022e-03 -4.891151096671819687e-03 1.274979114532470703e-02 -4.040331020951271057e-02 5.140758119523525238e-03 4.843249451369047165e-03 1.747283822624012828e-04 -7.389646954834461212e-03 -1.918348670005798340e-02 -6.633648648858070374e-03 -1.238583587110042572e-02 -1.310321874916553497e-02 -2.443567477166652679e-02 3.174944221973419189e-02 -4.076932091265916824e-03 -3.289129817858338356e-03 -2.002529613673686981e-02 2.815305069088935852e-02 -2.307552471756935120e-02 9.721380047267302871e-05 6.046232301741838455e-03 2.114609815180301666e-02 -3.477038443088531494e-02 3.630847437307238579e-03 1.597632840275764465e-02 1.330166123807430267e-02 2.808842249214649200e-02 -3.983811009675264359e-03 6.971424445509910583e-03 -1.068014837801456451e-02 -3.387176431715488434e-03 3.212132677435874939e-02 4.641617648303508759e-03 -7.193570956587791443e-03 3.859838936477899551e-03 1.651239767670631409e-02 1.249940693378448486e-02 -1.019274629652500153e-02 -3.798110876232385635e-03 -1.066009793430566788e-02 -1.434781495481729507e-02 -1.800970919430255890e-02 4.415377974510192871e-03 -2.963087521493434906e-02 -3.706273064017295837e-02 -1.368125434964895248e-02 1.097779721021652222e-02 -1.683065481483936310e-02 -2.266785688698291779e-02 -9.820983745157718658e-03 8.651992306113243103e-03 9.708764962852001190e-03 1.802919359761290252e-05 7.006792351603507996e-03 -3.757153637707233429e-03 2.025781897827982903e-03 1.772972941398620605e-02 -4.816650412976741791e-03 2.231638180091977119e-03 -5.622788332402706146e-03 6.990370806306600571e-03 -7.821697741746902466e-03 4.759149625897407532e-02 -1.313391700387001038e-02 1.355521474033594131e-02 7.358231116086244583e-03 -1.606406643986701965e-02 -3.063301846850663424e-04 8.545449003577232361e-03 -2.336286008358001709e-02 -8.386257104575634003e-03 -6.816542241722345352e-03 2.823020098730921745e-03 3.334579989314079285e-02 -1.260584779083728790e-02 1.066119037568569183e-02 -2.565698511898517609e-02 -1.517161726951599121e-03 7.960592396557331085e-03 2.119977213442325592e-02 1.131095850723795593e-04 2.027178555727005005e-02 -1.666336134076118469e-02 1.467043720185756683e-02 -4.346318542957305908e-03 -2.234189212322235107e-02 -1.232188008725643158e-02 -5.486889742314815521e-03 -2.456830069422721863e-02 8.366073481738567352e-03 1.211909577250480652e-02 -1.043016836047172546e-02 3.663722798228263855e-02 -1.067909132689237595e-02 -2.655626647174358368e-02 8.655147626996040344e-03 -4.570418968796730042e-03 2.179672243073582649e-03 2.857855707406997681e-02 -1.678587286733090878e-03 2.737184986472129822e-02 -2.685392647981643677e-02 2.963200677186250687e-03 2.446783520281314850e-02 -1.414064690470695496e-02 -1.211878098547458649e-02 6.850345060229301453e-03 -4.358625970780849457e-03 5.893671885132789612e-03 -6.048006471246480942e-03 -9.984311647713184357e-03 2.152655459940433502e-02 -2.744503086432814598e-03 -1.880813390016555786e-02 5.552336107939481735e-03 4.589091055095195770e-03 -2.303597144782543182e-02 2.741158939898014069e-02 5.510268267244100571e-03 -1.076145470142364502e-02 1.950574293732643127e-02 -2.912374772131443024e-02 8.551847189664840698e-03 7.446562871336936951e-03 -1.311452314257621765e-02 -4.376679658889770508e-03 1.402977388352155685e-02 -6.565870717167854309e-04 3.376512322574853897e-03 -7.687745150178670883e-03 -1.332615222781896591e-02 1.116663217544555664e-02 2.979979617521166801e-03 -4.981379024684429169e-04 1.794365607202053070e-02 2.279681526124477386e-02 2.802446670830249786e-02 -1.215588953346014023e-02 -2.221842482686042786e-02 -4.592671524733304977e-03 -1.717516966164112091e-02 1.228627166710793972e-03 1.170105393975973129e-02 5.042534787207841873e-03 1.734154671430587769e-02 -9.524052031338214874e-03 -1.723210699856281281e-02 -2.978617697954177856e-02 4.724760074168443680e-03 1.328382082283496857e-02 -5.108297336846590042e-03 1.146171241998672485e-03 3.228801768273115158e-03 1.636215858161449432e-02 -1.789489947259426117e-02 -1.338152121752500534e-02 -5.281774327158927917e-03 4.003847017884254456e-03 3.909073770046234131e-02 -2.052308619022369385e-02 -1.174321398138999939e-03 1.944392733275890350e-02 1.305923238396644592e-02 -1.717165857553482056e-02 -8.246113546192646027e-03 1.008041296154260635e-02 -8.656483143568038940e-03 1.484602969139814377e-02 -1.129631977528333664e-02 2.520848065614700317e-03 1.511390507221221924e-02 9.473305195569992065e-03 -1.159448549151420593e-02 -6.414136849343776703e-03 1.721194759011268616e-02 4.945858381688594818e-03 -1.713049970567226410e-02 -1.287235878407955170e-02 -1.740103005431592464e-03 -9.098831564188003540e-03 9.965654462575912476e-03 1.306600496172904968e-02 1.387004012940451503e-04 2.275347523391246796e-02 1.527475938200950623e-02 1.728328876197338104e-02 -4.142042715102434158e-03 2.159530669450759888e-02 -1.096358173526823521e-03 6.450255168601870537e-04 -1.250653294846415520e-03 1.370120700448751450e-02 -1.420163176953792572e-02 -3.061214461922645569e-02 -3.928950056433677673e-03 1.907455734908580780e-02 -2.472058497369289398e-02 2.553859725594520569e-02 -2.792762126773595810e-03 2.311296761035919189e-02 -1.970344595611095428e-02 8.317841216921806335e-03 -1.593183539807796478e-02 -1.400254480540752411e-02 -9.365241043269634247e-03 1.133056078106164932e-02 -1.883979141712188721e-02 -7.963146199472248554e-04 -1.579728443175554276e-03 2.106339298188686371e-02 -1.698955334722995758e-02 9.584007784724235535e-03 3.094877582043409348e-03 -1.188866235315799713e-02 8.850959129631519318e-03 6.635989993810653687e-03 -2.284267218783497810e-03 -2.085296437144279480e-02 8.865809999406337738e-03 -5.684896837919950485e-03 -1.013775914907455444e-02 -3.305477276444435120e-02 2.604104112833738327e-03 3.269576467573642731e-03 -5.704046692699193954e-03 -1.358058582991361618e-02 4.026772920042276382e-03 1.429012743756175041e-03 2.227472886443138123e-02 -1.959284301847219467e-03 -4.520494956523180008e-03 -3.250106796622276306e-02 1.477441191673278809e-02 1.302824541926383972e-02 -2.410406246781349182e-03 3.114444389939308167e-02 -2.265709638595581055e-02 7.277606055140495300e-03 -5.755823571234941483e-03 -6.987724918872117996e-03 4.164583981037139893e-03 -2.248525805771350861e-02 3.531589638441801071e-03 -3.496167948469519615e-03 -2.503241412341594696e-02 2.083887532353401184e-02 -2.539833309128880501e-03 -1.729573495686054230e-02 7.549768779426813126e-03 1.158209983259439468e-02 -7.419046945869922638e-03 6.610210053622722626e-03 3.504117252305150032e-03
-5.005458835512399673e-03 -2.700812742114067078e-02 -1.182315219193696976e-02 -8.083201013505458832e-03 8.164049126207828522e-03 -7.601721212267875671e-03 9.219399653375148773e-03 2.585727255791425705e-03 -1.295837573707103729e-03 3.923562914133071899e-02 -2.318605547770857811e-03 2.306658960878849030e-02 1.300745643675327301e-02 1.774329692125320435e-02 -9.924904443323612213e-03 2.819527871906757355e-02 -8.071533404290676117e-03 1.847110502421855927e-02 -4.704646766185760498e-03 1.212798897176980972e-02 -5.755451042205095291e-03 -2.013169415295124054e-02 1.430723629891872406e-02 -5.933247506618499756e-03 -2.788487588986754417e-03 -6.310422439128160477e-03 3.891224041581153870e-03 -3.582180012017488480e-03 -1.024437416344881058e-02 -9.107389487326145172e-03 2.418275456875562668e-03 4.927691537886857986e-03 8.690446615219116211e-03 -1.024529989808797836e-02 8.976433426141738892e-03 -3.474330157041549683e-02 6.792300846427679062e-03 9.485736489295959473e-03 -5.598930642008781433e-03 -6.336219608783721924e-03 -6.679643876850605011e-03 1.777814514935016632e-02 -3.691803431138396263e-03 -2.860103920102119446e-02 4.126932937651872635e-03 -9.428920224308967590e-03 -4.699037235695868731e-04 -2.456861839164048433e-04 1.724136993288993835e-02 7.313554175198078156e-03 3.231842769309878349e-03 -6.754479836672544479e-03 3.234802978113293648e-03 1.300055626779794693e-02 -9.658286347985267639e-03 -1.643596100620925426e-03 2.814214210957288742e-03 1.483536791056394577e-02 4.179690498858690262e-03 -1.227194815874099731e-02 2.390271285548806190e-03 -1.187052344903349876e-03 3.812894923612475395e-03 5.856369156390428543e-03 5.787796806544065475e-03 -8.450292982161045074e-03 2.267144247889518738e-02 3.648728830739855766e-03 1.390917878597974777e-02 7.740254979580640793e-03 -5.838708952069282532e-03 -1.111211441457271576e-02 2.482296666130423546e-03 -1.079658605158329010e-02 2.648129872977733612e-02 -2.733279950916767120e-03 9.021680802106857300e-03 -1.184554025530815125e-02 -1.936771720647811890e-02 1.423353794962167740e-02 -1.342521607875823975e-02 2.390456385910511017e-02 1.622740738093852997e-02 4.545995034277439117e-03 8.946031332015991211e-03 1.006400212645530701e-02 -2.234635315835475922e-02 -9.740008972585201263e-03 8.737931028008460999e-03 4.721403121948242188e-03 4.762054886668920517e-03 3.975779190659523010e-02 1.170687284320592880e-02 -3.227986022830009460e-02 1.504404190927743912e-02 -2.808610734064131975e-04 -2.151989145204424858e-03 3.138719825074076653e-03 -2.124630473554134369e-02 2.654746174812316895e-02 -9.032948873937129974e-03 -1.857969723641872406e-02 -1.943479641340672970e-03 -2.497269597370177507e-04 -6.068292539566755295e-03 -1.148291770368814468e-02 -1.265753991901874542e-02 -1.511677727103233337e-02 -8.052507415413856506e-03 2.017418108880519867e-02 1.409652875736355782e-03 -2.006875723600387573e-02 1.510233338922262192e-02 -1.721037668175995350e-03 3.175820689648389816e-03 -1.126231160014867783e-02 1.605310477316379547e-02 2.284509129822254181e-03 -3.895912086591124535e-03 2.073628641664981842e-02 -6.921400316059589386e-03 4.730817396193742752e-03 5.289856810122728348e-03 -1.510416809469461441e-02 3.414902836084365845e-03 -1.685057394206523895e-02 2.601973712444305420e-03 4.403882659971714020e-03 8.052253164350986481e-03 -8.304387331008911133e-03 -6.016956176608800888e-03 7.515855599194765091e-03 -7.252593524754047394e-03 2.461809432134032249e-03 -6.777012022212147713e-04 -3.653580322861671448e-03 -2.044746465981006622e-02 -1.889764796942472458e-03 -2.690038876608014107e-03 2.718205330893397331e-03 -2.280999533832073212e-02 7.812079042196273804e-03 -1.249453052878379822e-03 -8.373240940272808075e-03 2.057757414877414703e-02 -1.779201440513134003e-02 9.316827636212110519e-04 5.058613605797290802e-03 1.298464648425579071e-02 2.318976819515228271e-02 -7.307277061045169830e-03 -2.914179302752017975e-02 -5.673672538250684738e-03 7.604184793308377266e-04 1.265170983970165253e-02 1.679525151848793030e-02 1.171019114553928375e-02 1.136395521461963654e-02 -1.105625834316015244e-02 1.951396279036998749e-02 1.672307029366493225e-02 -2.265752665698528290e-02 1.131973136216402054e-02 -1.430674083530902863e-02 -2.114712260663509369e-02 -1.267913915216922760e-02 8.125724270939826965e-03 -3.892684727907180786e-02 3.374563902616500854e-02 -5.958777852356433868e-03 2.859360538423061371e-02 -9.318021126091480255e-03 -6.948777940124273300e-03 1.215922832489013672e-02 -1.282055396586656570e-02 7.362209260463714600e-03 -7.344249635934829712e-03 -1.613515429198741913e-02 4.594759084284305573e-04 -7.153210695832967758e-03 1.041107997298240662e-02 7.464703172445297241e-03 -9.977472946047782898e-03 1.246860600076615810e-03 1.341170631349086761e-02 6.490457803010940552e-03 -2.876090817153453827e-02 -1.772469468414783478e-02 -1.006310060620307922e-02 1.525007933378219604e-02 1.790655218064785004e-02 -1.755087287165224552e-03 5.057704634964466095e-03 -8.430615998804569244e-03 1.825005933642387390e-02 -3.009854629635810852e-02 3.329911828041076660e-02 -8.461336605250835419e-03 2.068144641816616058e-02 5.184004083275794983e-03 -2.585370792075991631e-03 -1.467050518840551376e-02 1.061193551868200302e-02 -1.926862820982933044e-02 -1.752826734445989132e-03 -7.531595882028341293e-03 2.695988165214657784e-03 1.340595725923776627e-02 2.960872277617454529e-02 9.210684336721897125e-03 -1.667420379817485809e-02 2.881838753819465637e-02 -1.956665329635143280e-02 -4.027501679956912994e-03 -1.113603590056300163e-03 -8.009970188140869141e-04 -9.151748381555080414e-03 -4.036908037960529327e-03 -2.446500957012176514e-02 9.079530835151672363e-03 -1.082341419532895088e-03 -6.324592046439647675e-03 -1.063472311943769455e-02 1.197899878025054932e-02 1.877200230956077576e-02 1.178098190575838089e-02 6.481935270130634308e-03 -9.919874370098114014e-03 1.797691918909549713e-02 3.260958765167742968e-04 7.308904081583023071e-03 -9.352202527225017548e-03 -4.118025244679301977e-04 -1.385966874659061432e-02 -5.479259416460990906e-03 -1.307232119143009186e-02 -1.529685221612453461e-02 -2.101694978773593903e-02 -8.947024121880531311e-03 -6.134171504527330399e-03 -1.034375652670860291e-02 -3.001272212713956833e-03 1.039424724876880646e-02 -1.106674503535032272e-02 1.059271302074193954e-02 -1.419209130108356476e-02 -1.779282814823091030e-03 1.740301959216594696e-04 1.053886581212282181e-02 -2.208593301475048065e-03 -4.336889367550611496e-03 -1.443605963140726089e-02 2.642562147229909897e-03 1.665898971259593964e-02 -4.216387751512229443e-04 -1.908231154084205627e-02
1.198115106672048569e-02 4.374164622277021408e-03 3.402597829699516296e-02 -3.669795021414756775e-02 4.718610551208257675e-03 7.005527149885892868e-04 -1.687102951109409332e-03 2.662445232272148132e-02 4.441092256456613541e-03 -1.524411886930465698e-02 9.274139069020748138e-03 -1.279972679913043976e-02 3.108679130673408508e-02 5.805758293718099594e-03 2.248762641102075577e-03 1.082673296332359314e-02 -1.855720207095146179e-02 -4.792447201907634735e-03 1.215444970875978470e-02 4.950639791786670685e-03 1.637060381472110748e-02 -6.785158999264240265e-03 1.820711418986320496e-02 -2.060240879654884338e-02 1.875901967287063599e-02 2.128457836806774139e-02 -8.110298775136470795e-03 9.285829961299896240e-03 3.024728270247578621e-03 -5.788323003798723221e-03 5.436406005173921585e-03 9.694377891719341278e-03 -2.235685847699642181e-02 -6.315537728369235992e-03 -2.999220415949821472e-02 -2.386544272303581238e-02 -2.617975883185863495e-02 -3.068324411287903786e-03 9.198879823088645935e-03 -2.976454235613346100e-02 -6.711794063448905945e-03 1.729230023920536041e-02 -2.398272976279258728e-02 9.702531620860099792e-03 2.310653962194919586e-02 1.250066421926021576e-02 -2.133962407242506742e-04 3.572284057736396790e-02 3.872730210423469543e-02 -4.975512158125638962e-03 -5.883505567908287048e-03 3.774659417103976011e-04 5.416315514594316483e-03 2.137628011405467987e-02 1.482428517192602158e-02 1.812624000012874603e-02 1.917942543514072895e-03 1.364690158516168594e-02 7.798548787832260132e-03 -1.464584469795227051e-02 4.671248141676187515e-03 4.278888553380966187e-02 -9.046954102814197540e-03 1.053182873874902725e-02 1.486718095839023590e-02 -1.423126435838639736e-03 -1.780036650598049164e-02 8.602631278336048126e-03 -1.629497855901718140e-02 -1.737156510353088379e-02 -8.954504504799842834e-03 6.954549811780452728e-03 -2.070284076035022736e-02 -3.373359143733978271e-02 -6.586732342839241028e-03 9.710222482681274414e-03 -1.284710783511400223e-02 -4.281206987798213959e-03 -1.805555261671543121e-02 2.231713570654392242e-02 -2.993034012615680695e-02 -8.906418457627296448e-03 -9.588348679244518280e-03 -1.022077072411775589e-02 1.361264009028673172e-02 2.666279859840869904e-02 -2.424265816807746887e-02 2.413447713479399681e-03 2.512991242110729218e-02 3.614645451307296753e-03 9.185226634144783020e-03 4.542619455605745316e-03 1.565956510603427887e-02 -2.066896110773086548e-02 9.010971523821353912e-03 -2.221108227968215942e-02 -1.097266213037073612e-03 -2.336030825972557068e-02 1.543809892609715462e-03 -7.269389461725950241e-03 -6.731014233082532883e-03 -2.380239218473434448e-02 2.124578692018985748e-02 -2.975456602871417999e-02 -3.394080325961112976e-02 3.178914310410618782e-03 -1.021262258291244507e-03 6.319996435195207596e-03 7.799725979566574097e-03 9.843034669756889343e-03 -1.023852173238992691e-02 3.752709133550524712e-03 1.911594718694686890e-02 -6.535165011882781982e-03 -1.021203212440013885e-02 3.839646652340888977e-02 2.099671214818954468e-02 7.234359625726938248e-03 9.670560248196125031e-03 1.136166136711835861e-02 -3.715623915195465088e-02 -2.031425200402736664e-02 3.387953620404005051e-04 -2.048037946224212646e-03 -2.586531266570091248e-02 -1.584487967193126678e-03 -7.335660047829151154e-03 -1.107545103877782822e-02 9.952331893146038055e-03 6.193841109052300453e-04 4.897132515907287598e-03 4.927922040224075317e-03 4.466133657842874527e-03 1.979269646108150482e-02 -7.458269828930497169e-04 -7.128576282411813736e-03 -1.878626830875873566e-02 2.576181292533874512e-02 -3.857957944273948669e-02 3.269699634984135628e-03 -1.062387600541114807e-02 2.308820933103561401e-02 8.476576767861843109e-03 8.974755182862281799e-04 -5.664927512407302856e-02 1.241201255470514297e-02 -1.190865878015756607e-03 -1.536457519978284836e-02 -3.052069619297981262e-02 -4.425970255397260189e-04 -6.053656339645385742e-03 -3.107141517102718353e-02 1.980849076062440872e-03 1.585632003843784332e-02 1.707729697227478027e-02 -3.991602454334497452e-03 1.937698386609554291e-02 1.454308442771434784e-02 -1.724028727039694786e-03 -2.874878700822591782e-03 -1.337675284594297409e-02 6.265753414481878281e-03 1.192538347095251083e-02 -2.644908986985683441e-02 -1.530030462890863419e-02 -9.917761199176311493e-03 2.226756769232451916e-04 9.329364635050296783e-03 -1.526232436299324036e-02 3.124098107218742371e-02 -2.960216253995895386e-03 -3.464814648032188416e-02 -5.305877886712551117e-03 -4.316720005590468645e-04 3.449249267578125000e-02 1.017069164663553238e-02 -2.631594240665435791e-02 -1.664716936647891998e-02 -1.945122517645359039e-02 4.383606836199760437e-03 6.969230715185403824e-03 -1.333833299577236176e-02 -2.388273924589157104e-02 -2.779057016596198082e-03 -1.014339039102196693e-03 -5.633153486996889114e-03 -3.146579861640930176e-02 -2.096009906381368637e-03 5.005225073546171188e-03 1.958415284752845764e-02 -6.867609452456235886e-03 -2.253506891429424286e-02 -6.183546036481857300e-03 -1.908914558589458466e-02 -1.363008376210927963e-02 1.525799045339226723e-03 1.991575956344604492e-02 -6.333427038043737411e-03 -1.332553662359714508e-02 -2.807489130645990372e-03 1.290516182780265808e-02 4.777565598487854004e-03 -2.065530233085155487e-02 2.723623765632510185e-03 -8.112454786896705627e-03 -8.310510776937007904e-03 -8.951024152338504791e-03 5.050008185207843781e-03 -5.606766324490308762e-03 2.833596989512443542e-02 7.762913592159748077e-03 2.734698727726936340e-02 2.474259817972779274e-03 -2.340519567951560020e-03 2.737610135227441788e-03 2.255199709907174110e-03 -6.544326432049274445e-03 2.252754382789134979e-02 -1.324083004146814346e-02 2.017479576170444489e-02 -1.710782386362552643e-02 -1.413761638104915619e-02 7.011562120169401169e-03 1.474890671670436859e-02 4.362575709819793701e-02 1.745592616498470306e-02 1.808292232453823090e-02 5.036967806518077850e-03 8.647002279758453369e-03 -2.392610162496566772e-02 9.269000031054019928e-03 5.304503720253705978e-03 -1.496788300573825836e-02 -1.634234189987182617e-02 -2.625533146783709526e-03 -5.347938742488622665e-03 3.772070165723562241e-03 -2.616479247808456421e-02 9.107438963837921619e-04 4.932163283228874207e-03 -4.788463190197944641e-02 7.462657522410154343e-03 2.338303253054618835e-03 3.334845229983329773e-02 4.504335112869739532e-03 -1.027107797563076019e-02 -1.504095178097486496e-02 8.776584640145301819e-03 -9.873322211205959320e-03 6.854773033410310745e-03 9.738046675920486450e-03 -3.190291812643408775e-03 2.370887063443660736e-02 5.649487022310495377e-03 -1.180500816553831100e-02 -3.341332450509071350e-02
-4.489965736865997314e-03 6.550344405695796013e-04 2.586657367646694183e-02 -5.804106127470731735e-03 -3.684487566351890564e-02 -6.577307824045419693e-03 -1.746149361133575439e-02 1.898011751472949982e-02 -5.105966236442327499e-03 1.378625282086431980e-03 -1.226505916565656662e-02 2.222710847854614258e-02 -1.292125321924686432e-02 6.337902043014764786e-03 -8.803624659776687622e-03 -4.635079298168420792e-03 2.591378986835479736e-03 -2.146465890109539032e-02 5.756095517426729202e-03 -2.950389636680483818e-03 2.439919486641883850e-02 1.799715869128704071e-02 -2.166848629713058472e-02 -1.078492868691682816e-02 -8.942087297327816486e-04 1.306330505758523941e-02 -1.214166637510061264e-02 -1.135102007538080215e-02 1.054166164249181747e-02 1.665350794792175293e-02 1.650497503578662872e-02 -1.907454279717057943e-04 -1.173375267535448074e-02 -2.473908849060535431e-02 1.041332818567752838e-02 5.960934329777956009e-03 1.041133800754323602e-04 4.772176966071128845e-02 2.359346672892570496e-02 1.610713265836238861e-02 1.047445810399949551e-03 -1.981423236429691315e-02 1.861115172505378723e-02 2.345649339258670807e-02 -1.352793816477060318e-02 2.263841684907674789e-03 9.305218700319528580e-04 1.108421944081783295e-02 -1.107463613152503967e-02 -2.463833428919315338e-03 -6.981796585023403168e-03 3.370321588590741158e-03 -2.776025794446468353e-04 -3.289226442575454712e-02 6.578084430657327175e-04 1.532874442636966705e-02 -1.304669864475727081e-02 -9.032681584358215332e-03 -1.608413457870483398e-02 -1.576066575944423676e-02 2.523714676499366760e-02 -6.842107046395540237e-03 -3.322288102935999632e-04 1.835673861205577850e-02 -1.578403823077678680e-02 1.991963014006614685e-02 4.536101187113672495e-05 -1.257414091378450394e-02 -1.212107297033071518e-02 -1.246030721813440323e-02 -2.576294913887977600e-02 6.794353015720844269e-03 -9.638418443500995636e-03 1.862111873924732208e-02 -1.839853939600288868e-03 -3.295083530247211456e-03 -4.093743395060300827e-03 7.664746604859828949e-03 -7.451506797224283218e-03 9.538923390209674835e-03 -2.799306064844131470e-02 -8.654404431581497192e-03 -1.302181743085384369e-02 -7.806792389601469040e-03 1.434844639152288437e-02 2.416358701884746552e-02 -1.283222436904907227e-02 1.116411667317152023e-02 -2.024091593921184540e-02 -7.774984464049339294e-03 -3.422969952225685120e-02 -2.123524434864521027e-02 -2.057754434645175934e-02 -5.159066524356603622e-03 -9.957375936210155487e-03 -2.329738251864910126e-02 -1.111854519695043564e-02 2.847825922071933746e-02 2.295645698904991150e-02 -1.966589502990245819e-02 8.910823613405227661e-03 4.304870963096618652e-04 -1.937082968652248383e-02 1.364358514547348022e-02 -1.013408787548542023e-02 -9.276070632040500641e-03 -5.088647454977035522e-02 8.140032179653644562e-03 -6.523325107991695404e-03 5.173131357878446579e-03 -1.641356758773326874e-02 -2.646814391482621431e-04 -6.192697212100028992e-03 1.594185829162597656e-02 2.320287050679326057e-03 1.427684258669614792e-02 -5.297649651765823364e-03 -1.695157028734683990e-02 1.562647521495819092e-02 2.400259952992200851e-03 5.367491859942674637e-03 -1.523712556809186935e-02 -6.761292461305856705e-04 1.053226925432682037e-02 1.695065759122371674e-02 -3.033098997548222542e-03 2.205316163599491119e-02 -3.254431858658790588e-02 -1.419338211417198181e-02 5.408870521932840347e-03 -1.772669784259051085e-04 -8.669857867062091827e-03 2.083223871886730194e-02 1.184270437806844711e-02 1.873416826128959656e-03 -2.172366902232170105e-02 3.225841000676155090e-02 -4.426828585565090179e-03 -8.084617555141448975e-03 -1.948933862149715424e-02 3.276863601058721542e-03 1.213259343057870865e-02 -1.021949481219053268e-02 -8.332667872309684753e-03 -4.073215182870626450e-03 -1.180417835712432861e-02 -4.041303414851427078e-03 3.762016538530588150e-03 -2.614741958677768707e-02 7.757368031889200211e-03 1.443310175091028214e-02 7.977974601089954376e-03 1.206754706799983978e-02 2.775004878640174866e-02 -3.418162092566490173e-02 -3.073200769722461700e-02 -2.333734370768070221e-02 3.412532620131969452e-03 3.459011018276214600e-02 -2.154778502881526947e-02 -7.492357864975929260e-03 -1.107777096331119537e-02 2.828809618949890137e-02 2.432592213153839111e-02 1.507206819951534271e-02 -1.876856759190559387e-02 2.948968671262264252e-02 -1.875061541795730591e-03 6.292155012488365173e-03 1.522325724363327026e-02 1.716351695358753204e-02 3.546078503131866455e-02 3.250131383538246155e-03 1.859755255281925201e-02 1.100546959787607193e-02 -7.206024602055549622e-03 -1.405816245824098587e-02 2.065622946247458458e-03 -2.902852743864059448e-02 -1.554350927472114563e-02 2.170926891267299652e-02 -1.272509992122650146e-02 -2.731690742075443268e-02 1.135547365993261337e-02 1.362463179975748062e-02 -2.863626927137374878e-03 7.847178727388381958e-03 -1.155658159404993057e-02 1.089185103774070740e-02 -3.592783119529485703e-03 -1.564272120594978333e-02 7.986353710293769836e-03 2.056319825351238251e-02 1.892275176942348480e-02 6.958145182579755783e-03 4.929208196699619293e-03 2.778520807623863220e-02 -4.454645793884992599e-03 2.464032499119639397e-03 -1.202280051074922085e-03 -1.312556909397244453e-03 -7.227053865790367126e-04 3.056095214560627937e-03 -1.340544689446687698e-02 -1.153123681433498859e-03 -1.019594259560108185e-02 7.463582791388034821e-03 3.409643832128494978e-04 -1.283445209264755249e-02 -2.667075023055076599e-03 -1.985345594584941864e-02 -2.899608807638287544e-03 -3.248290158808231354e-03 2.411207556724548340e-02 1.537062227725982666e-02 3.637070581316947937e-02 -2.399917505681514740e-02 1.859146915376186371e-02 1.639623753726482391e-02 1.194578362628817558e-03 1.178280077874660492e-02 -7.173811318352818489e-04 -2.230741456151008606e-02 8.191351662389934063e-04 -2.946519665420055389e-02 -2.818378852680325508e-03 5.034638103097677231e-03 1.666016690433025360e-02 -2.734210900962352753e-02 -9.747909381985664368e-03 2.035864256322383881e-02 1.420315820723772049e-02 6.619906052947044373e-04 1.545314560644328594e-03 -5.866856314241886139e-03 1.897189393639564514e-02 -9.543661028146743774e-03 2.181913703680038452e-02 1.515908725559711456e-02 -4.643469117581844330e-03 3.340281173586845398e-02 -5.978623521514236927e-04 -2.398132346570491791e-02 3.155843354761600494e-03 -3.012158675119280815e-03 -2.686989493668079376e-02 -1.626227982342243195e-02 -1.640671165660023689e-03 -1.709627173840999603e-02 4.448765423148870468e-03 -4.677958786487579346e-03 -1.109789963811635971e-02 -1.863086037337779999e-02 7.619516924023628235e-03 -4.019395913928747177e-03 7.954621687531471252e-04
-1.125817373394966125e-02 5.242849234491586685e-03 -3.980739507824182510e-03 5.295680835843086243e-03 -2.762800455093383789e-02 2.524573542177677155e-02 2.610961208119988441e-03 1.274593453854322433e-02 -1.658000610768795013e-02 2.434672089293599129e-03 7.546986453235149384e-04 1.625657640397548676e-02 4.449957981705665588e-03 1.138281356543302536e-02 -1.383999455720186234e-02 1.058862451463937759e-02 8.658817037940025330e-03 2.917385194450616837e-03 -8.771929424256086349e-04 1.790838688611984253e-02 6.387463305145502090e-03 1.329912245273590088e-02 -1.952422596514225006e-02 -1.480625011026859283e-02 -1.560502965003252029e-02 3.418369963765144348e-02 -2.339904662221670151e-03 7.710400968790054321e-04 -2.298941835761070251e-02 -2.475323854014277458e-03 9.865815751254558563e-03 -3.010816872119903564e-03 -1.213786751031875610e-02 3.652971936389803886e-03 -1.333709689788520336e-03 7.282983511686325073e-03 1.036410976666957140e-04 1.662408187985420227e-02 8.313816972076892853e-03 -1.127935759723186493e-02 1.164308283478021622e-02 2.335981000214815140e-03 -1.214348804205656052e-02 2.157829469069838524e-03 1.170399412512779236e-02 2.363452920690178871e-03 -1.100202742964029312e-02 8.384060114622116089e-03 2.311037154868245125e-03 -5.565272644162178040e-03 2.325304970145225525e-02 -3.739185165613889694e-03 1.322284061461687088e-02 -1.849617250263690948e-02 -1.371993217617273331e-03 9.425963275134563446e-03 -2.122664824128150940e-02 5.359088070690631866e-03 -1.027640327811241150e-02 -1.494294125586748123e-02 2.927260287106037140e-02 -1.063041109591722488e-02 -8.047143928706645966e-03 2.091506309807300568e-02 -2.217996865510940552e-02 6.076513323932886124e-03 -1.732027344405651093e-02 -3.769516013562679291e-03 -4.267735872417688370e-03 2.683300292119383812e-03 -4.630802664905786514e-03 -1.571971178054809570e-02 2.662039594724774361e-03 7.461065892130136490e-03 -2.558024134486913681e-03 -8.603041991591453552e-03 -2.105370629578828812e-03 -1.485446002334356308e-03 -1.137417461723089218e-02 2.103222720324993134e-02 -1.942928414791822433e-03 -2.562825102359056473e-03 3.478884929791092873e-03 -2.062025293707847595e-02 3.489880636334419250e-02 8.573251776397228241e-03 -1.238345820456743240e-02 1.871255110017955303e-03 1.169191207736730576e-02 -2.344049280509352684e-03 -2.205212833359837532e-03 8.707849308848381042e-03 -4.711308516561985016e-03 -4.157239105552434921e-03 -1.860284805297851562e-02 8.526070043444633484e-03 -4.976195283234119415e-03 6.963102612644433975e-03 -5.865290295332670212e-03 -1.290307659655809402e-02 -5.871600937098264694e-03 -1.268068701028823853e-02 -9.794152574613690376e-04 -3.423142712563276291e-03 9.904320351779460907e-03 -8.482648059725761414e-03 -6.130308844149112701e-03 -7.670209743082523346e-03 1.294484268873929977e-02 -3.008435014635324478e-03 2.056687697768211365e-02 3.013825602829456329e-02 -9.195582009851932526e-03 -1.063190773129463196e-02 -2.536796219646930695e-02 6.250822916626930237e-03 -7.535574957728385925e-03 -2.111191861331462860e-02 -1.903117634356021881e-02 7.953635416924953461e-03 -8.190008811652660370e-03 -3.958078566938638687e-03 1.328450534492731094e-02 8.040443994104862213e-03 1.310573308728635311e-03 4.721130710095167160e-03 -7.688790559768676758e-03 -2.713419962674379349e-03 -1.067739794962108135e-03 -1.875004172325134277e-02 9.335963986814022064e-03 -2.709578024223446846e-03 1.204194128513336182e-02 1.020155008882284164e-02 5.118651315569877625e-03 -9.854693897068500519e-03 9.711214341223239899e-03 2.626750618219375610e-03 2.533273538574576378e-03 -1.355158630758523941e-02 6.156849209219217300e-03 2.686902321875095367e-02 7.679777219891548157e-03 -3.206186462193727493e-03 1.749237184412777424e-03 -1.527867838740348816e-02 3.352334897499531507e-04 -2.238675951957702637e-02 -1.223182072862982750e-03 -5.929052829742431641e-03 7.941151969134807587e-03 -4.214930348098278046e-03 -1.444013789296150208e-02 2.234072424471378326e-02 -1.648996211588382721e-02 -9.822527877986431122e-03 -2.026129886507987976e-02 -3.260951489210128784e-02 2.071127109229564667e-02 -1.302907336503267288e-02 -1.618156954646110535e-02 4.060373175889253616e-03 1.903054863214492798e-02 3.465694561600685120e-02 -5.407626274973154068e-03 -1.186601817607879639e-02 -8.274437859654426575e-03 -2.007947675883769989e-02 9.144159033894538879e-03 6.047977600246667862e-03 3.689661854878067970e-03 3.135558508802205324e-04 -1.799098588526248932e-02 -1.428204006515443325e-03 4.936332814395427704e-03 1.758607104420661926e-02 -1.336393877863883972e-02 -7.330324151553213596e-04 -1.511867973022162914e-03 -1.501256506890058517e-02 1.259768009185791016e-02 -3.400513203814625740e-03 -3.231273964047431946e-02 -9.430442005395889282e-03 1.913756690919399261e-02 1.474708504974842072e-02 -4.287757724523544312e-02 -6.332339253276586533e-03 1.733864657580852509e-02 -1.405452750623226166e-02 -1.473754295147955418e-03 -3.823766019195318222e-03 9.191957302391529083e-03 2.330922521650791168e-02 -4.510126076638698578e-03 -4.727178253233432770e-03 -5.923864897340536118e-03 -1.829641871154308319e-02 -1.634864322841167450e-02 1.157779805362224579e-02 1.308681722730398178e-02 -2.425879240036010742e-03 -9.911946021020412445e-03 -1.228535175323486328e-02 6.721293553709983826e-03 6.675357464700937271e-03 3.680457593873143196e-03 2.279194444417953491e-02 9.168067015707492828e-03 2.504441887140274048e-02 -6.673199124634265900e-03 2.951099886558949947e-04 -2.135087177157402039e-02 1.581568643450737000e-02 -1.083744503557682037e-02 1.929233409464359283e-02 -1.482577528804540634e-02 3.355513140559196472e-02 1.494450215250253677e-02 2.249586954712867737e-02 2.091841585934162140e-02 2.681880025193095207e-03 1.291717519052326679e-03 -1.547871856018900871e-03 6.125117652118206024e-03 4.031286016106605530e-02 5.100573878735303879e-03 -9.538261219859123230e-03 1.500684861093759537e-02 -3.350839763879776001e-02 -1.491362880915403366e-02 -7.671774830669164658e-03 5.693137180060148239e-03 -7.327314466238021851e-03 1.543026138097047806e-02 7.681756746023893356e-03 -2.328708022832870483e-02 9.894886985421180725e-03 1.309634768404066563e-03 -7.512495853006839752e-03 1.484259846620261669e-03 -4.781180061399936676e-03 1.599401421844959259e-02 4.768575541675090790e-03 4.336358234286308289e-02 7.989905774593353271e-03 9.620944038033485413e-03 -7.015983283054083586e-05 1.225860137492418289e-02 8.976953104138374329e-03 1.004328485578298569e-02 -1.048652175813913345e-02 1.000557653605937958e-02 -2.175215259194374084e-02 -5.013501737266778946e-03 -8.804329670965671539e-03
-2.437407150864601135e-02 2.177190408110618591e-02 6.542650051414966583e-03 -1.679168269038200378e-02 -1.152048469521105289e-03 1.774169068085029721e-04 -1.488810684531927109e-02 2.391366660594940186e-02 -1.815117523074150085e-02 1.208363659679889679e-02 4.853804130107164383e-03 1.452949829399585724e-02 2.240023761987686157e-02 6.445545237511396408e-03 2.008408866822719574e-02 2.511956728994846344e-03 3.693600371479988098e-02 -2.562624961137771606e-02 -1.780319586396217346e-02 -2.288196422159671783e-02 1.288947463035583496e-02 1.114931050688028336e-02 -4.631926119327545166e-02 6.962630432099103928e-03 -1.942428527399897575e-03 1.182960625737905502e-02 2.421858487650752068e-03 -2.545658685266971588e-02 -3.920020535588264465e-03 -6.383375264704227448e-03 -4.985233768820762634e-03 -9.575691074132919312e-03 -5.218905396759510040e-03 -1.056504249572753906e-02 9.217630140483379364e-03 -1.213416457176208496e-02 1.852997811511158943e-03 1.307300757616758347e-02 -1.655446179211139679e-02 2.296532504260540009e-02 3.135723248124122620e-02 -6.488703191280364990e-03 3.569307038560509682e-03 1.833897270262241364e-02 -1.915514934808015823e-03 -1.371636148542165756e-02 2.843457274138927460e-02 -2.806644886732101440e-02 -8.746206760406494141e-03 -5.103487987071275711e-03 2.301891893148422241e-02 1.126124057918787003e-02 8.597687818109989166e-03 2.354384167119860649e-03 9.080656804144382477e-03 -1.266263052821159363e-02 -8.081495761871337891e-04 2.584198862314224243e-02 6.917269434779882431e-03 1.788160647265613079e-03 8.858081884682178497e-03 8.888266049325466156e-03 -1.493378821760416031e-02 -5.543386578210629523e-05 -3.522430080920457840e-03 -1.208528783172369003e-02 -4.679465666413307190e-03 2.907420275732874870e-03 -2.853673510253429413e-02 5.802374744234839454e-06 -2.127052098512649536e-02 2.001430839300155640e-02 5.612863693386316299e-03 7.582083344459533691e-03 5.976809654384851456e-03 4.420845583081245422e-02 1.122888550162315369e-02 1.799150370061397552e-02 2.299563400447368622e-02 9.978215210139751434e-03 -1.242963504046201706e-02 1.966283470392227173e-02 -2.873359620571136475e-02 -2.643420547246932983e-02 5.628386512398719788e-03 -6.233118940144777298e-03 7.487205788493156433e-03 -5.981329362839460373e-03 8.659815415740013123e-03 1.782981492578983307e-02 -9.227989241480827332e-03 -7.982603274285793304e-03 -1.290826406329870224e-02 -6.513807456940412521e-03 1.463870424777269363e-02 -1.580340601503849030e-02 5.343885626643896103e-03 2.988519333302974701e-02 -6.797605194151401520e-03 3.793652728199958801e-02 5.026306584477424622e-02 7.268259767442941666e-03 -3.439189121127128601e-02 1.425283029675483704e-02 4.687919467687606812e-02 -1.445163879543542862e-02 2.934644930064678192e-03 9.807578288018703461e-03 -3.472432121634483337e-02 2.336509712040424347e-02 6.482776254415512085e-03 7.333987392485141754e-03 1.995567791163921356e-02 -6.933559197932481766e-03 1.172201521694660187e-02 3.743881732225418091e-02 2.207456342875957489e-02 -3.408340737223625183e-02 2.545545622706413269e-02 -2.203547209501266479e-02 3.918177634477615356e-02 -2.314199507236480713e-02 -4.720185883343219757e-03 5.008264444768428802e-03 -1.479316223412752151e-02 3.353311913087964058e-03 -7.710562087595462799e-03 -2.362915873527526855e-02 -2.216099295765161514e-03 -1.748416759073734283e-02 -2.043479494750499725e-02 -9.148756042122840881e-03 -5.725935567170381546e-03 1.296486891806125641e-02 -9.606677107512950897e-03 1.198078505694866180e-02 2.050801925361156464e-02 -1.327808015048503876e-02 1.004903856664896011e-02 -1.331328996457159519e-03 2.836154215037822723e-02 1.810311526060104370e-02 -4.559258464723825455e-03 -8.724985644221305847e-03 1.227405201643705368e-02 -3.499344363808631897e-02 -6.765882018953561783e-03 1.502671279013156891e-02 -3.496460244059562683e-02 -5.485295318067073822e-03 8.240835741162300110e-03 4.513013642281293869e-03 -3.806978091597557068e-02 -3.965911269187927246e-02 5.353777669370174408e-03 -2.686886303126811981e-02 -1.013421732932329178e-02 3.018011711537837982e-02 -7.127127610146999359e-03 1.783886365592479706e-02 -3.164538741111755371e-02 -3.961258567869663239e-03 7.475181017071008682e-03 1.205696316901594400e-04 -8.786754682660102844e-03 1.072465162724256516e-02 2.982839383184909821e-02 -1.795694977045059204e-02 -2.618446014821529388e-02 -1.411660667508840561e-02 2.231981046497821808e-02 3.330546617507934570e-02 1.258583087474107742e-02 -3.135423734784126282e-02 3.135368973016738892e-02 1.343864295631647110e-02 -6.826134398579597473e-03 -2.141554653644561768e-02 -3.222269564867019653e-02 -2.298988215625286102e-02 8.243155665695667267e-03 1.861677691340446472e-02 -2.739558368921279907e-02 2.543772570788860321e-02 1.023690868169069290e-02 -2.277262043207883835e-03 -3.261679783463478088e-03 -7.137246895581483841e-03 -2.539099007844924927e-02 -5.445659160614013672e-03 8.918067440390586853e-03 1.264576800167560577e-02 1.804186403751373291e-02 -6.294967606663703918e-03 -2.854142710566520691e-02 2.647425234317779541e-02 -3.158210590481758118e-02 -6.820906419306993484e-03 -2.699248492717742920e-03 -1.677935570478439331e-02 3.611306427046656609e-03 -2.035514451563358307e-02 -2.504127472639083862e-02 -1.886609382927417755e-02 -1.463093678466975689e-03 -3.722354769706726074e-02 -3.055347315967082977e-02 2.853391692042350769e-02 -8.730486035346984863e-03 8.576041087508201599e-03 -3.271031379699707031e-02 -5.236324854195117950e-03 -8.807081729173660278e-03 -6.999095901846885681e-03 1.909247413277626038e-02 3.351347288116812706e-03 -3.828695043921470642e-02 4.205977544188499451e-03 2.151028020307421684e-03 -2.561662904918193817e-02 -2.236577682197093964e-02 4.029186815023422241e-02 -6.059372331947088242e-03 -5.231688264757394791e-03 -3.951075021177530289e-03 -4.743360448628664017e-03 -2.997185662388801575e-02 4.382719099521636963e-02 8.309756405651569366e-03 -3.684158902615308762e-03 5.941437091678380966e-03 -1.128067262470722198e-02 -3.213088493794202805e-03 -4.398406017571687698e-03 5.405056290328502655e-03 7.381538394838571548e-03 -6.415953859686851501e-03 1.440540142357349396e-02 -1.879390445537865162e-03 -1.279356074519455433e-03 -1.179272192530333996e-03 1.457743160426616669e-02 -2.901951316744089127e-03 2.415801584720611572e-02 -1.994829438626766205e-02 3.265609731897711754e-03 -3.830587863922119141e-02 4.420712124556303024e-03 -1.023047044873237610e-02 5.565186962485313416e-03 -1.493145944550633430e-03 -1.110354438424110413e-02 -6.187766324728727341e-03 -2.894608536735177040e-03 -3.267985209822654724e-02 -2.364262752234935760e-02
-1.766391098499298096e-02 5.524211563169956207e-03 5.821076221764087677e-03 2.600683597847819328e-03 -9.401617571711540222e-03 1.147514674812555313e-02 1.210111938416957855e-02 2.342762425541877747e-02 -7.516462821513414383e-03 1.406487263739109039e-02 1.156892254948616028e-02 2.287775836884975433e-02 1.460538525134325027e-02 -1.492672972381114960e-02 5.804049316793680191e-03 -1.571961119771003723e-02 1.488211005926132202e-02 1.029632333666086197e-02 -6.949491333216428757e-03 2.051766263321042061e-03 2.343172952532768250e-02 -6.218716967850923538e-03 -1.483105029910802841e-02 -8.327062241733074188e-03 8.436163887381553650e-03 1.737223565578460693e-02 -2.640265598893165588e-02 1.980421319603919983e-02 6.755244918167591095e-03 -2.088232431560754776e-03 -6.320416927337646484e-03 1.844425423769280314e-04 -2.575206942856311798e-02 8.209162391722202301e-03 1.495594345033168793e-02 -2.679826878011226654e-02 1.073368825018405914e-03 3.251660615205764771e-02 3.955468069761991501e-03 1.088665705174207687e-02 -1.498356834053993225e-02 -3.384520532563328743e-03 -5.384508054703474045e-03 -3.963230643421411514e-03 7.007529493421316147e-03 2.126808837056159973e-02 -8.515914902091026306e-03 -9.959894232451915741e-03 6.932164542376995087e-03 -5.368722137063741684e-03 2.235959470272064209e-02 -2.165386639535427094e-02 1.344099827110767365e-02 1.074356585741043091e-02 7.487521506845951080e-03 1.922189025208353996e-03 -7.031816057860851288e-03 8.735925075598061085e-04 1.013004966080188751e-02 6.493315566331148148e-03 -6.903077010065317154e-03 1.129611674696207047e-02 -4.038071259856224060e-02 1.572744175791740417e-02 1.047729630954563618e-03 -1.567360386252403259e-02 -1.636557467281818390e-02 1.966269873082637787e-02 2.022232860326766968e-03 -6.492924410849809647e-03 -3.204550221562385559e-02 1.802480663172900677e-03 -2.427654806524515152e-03 -6.523547694087028503e-03 2.149172499775886536e-02 2.315683849155902863e-02 2.473742328584194183e-02 -1.916228095069527626e-03 -6.522505078464746475e-03 5.793939810246229172e-03 -7.333127781748771667e-03 3.272159397602081299e-02 -2.204724773764610291e-02 -3.660835092887282372e-03 3.353105857968330383e-02 3.354946896433830261e-02 -5.913563538342714310e-03 -7.190854754298925400e-03 -1.522776857018470764e-02 -2.623087912797927856e-02 6.167320534586906433e-03 3.624862758442759514e-03 1.585557498037815094e-02 -1.740541495382785797e-02 6.996585056185722351e-03 1.906646229326725006e-02 -8.038076572120189667e-03 -7.077909074723720551e-03 -1.734045147895812988e-02 2.712054364383220673e-02 2.034319192171096802e-02 1.135042961686849594e-02 -1.573643088340759277e-02 9.830630384385585785e-03 1.610141247510910034e-02 9.937611408531665802e-03 -9.739242494106292725e-03 7.138150744140148163e-03 5.779947619885206223e-03 4.010303318500518799e-02 -1.380974240601062775e-02 1.509996689856052399e-02 1.906299404799938202e-02 -7.271043490618467331e-03 -1.067082397639751434e-02 3.155188169330358505e-03 1.957607455551624298e-03 -9.982748888432979584e-03 2.031202800571918488e-02 6.735264789313077927e-03 1.896593719720840454e-02 -1.167467329651117325e-02 -2.102955058217048645e-02 -1.079932507127523422e-02 3.409841738175600767e-04 -2.531258575618267059e-02 -5.050882697105407715e-03 -1.594939269125461578e-02 6.294611841440200806e-03 -2.966998377814888954e-03 1.509518362581729889e-02 1.581301353871822357e-02 1.206243410706520081e-03 3.899279050529003143e-03 6.772320717573165894e-03 2.390364184975624084e-02 1.062938477843999863e-02 -2.078848518431186676e-02 1.394548453390598297e-03 -1.071814796887338161e-03 -3.760681021958589554e-03 -1.462407503277063370e-02 1.498920470476150513e-02 -1.138896797783672810e-03 -2.445086836814880371e-02 4.884530324488878250e-03 3.182776970788836479e-03 9.131990373134613037e-03 -1.501910039223730564e-03 -2.657956071197986603e-02 -7.766879629343748093e-03 2.988430205732584000e-03 4.704144317656755447e-03 1.621925458312034607e-02 6.352915894240140915e-03 -1.962477155029773712e-02 -4.665631335228681564e-03 -8.503906428813934326e-03 -8.720168843865394592e-03 1.280447468161582947e-02 -3.523856401443481445e-03 -1.121564209461212158e-02 1.560255233198404312e-02 -1.753782108426094055e-02 2.389834448695182800e-02 -7.951408624649047852e-03 -1.584463194012641907e-02 -1.925650238990783691e-02 -3.877633064985275269e-02 -1.028990745544433594e-02 1.296141277998685837e-02 1.913904398679733276e-02 3.059825627133250237e-03 -1.600579824298620224e-03 -7.420014124363660812e-03 -3.143019601702690125e-02 -2.425958402454853058e-02 1.327449548989534378e-02 -2.497540414333343506e-02 -7.821191102266311646e-03 1.908754371106624603e-02 1.007673237472772598e-02 -1.276884507387876511e-02 -2.619347069412469864e-03 2.633621916174888611e-03 -2.760484442114830017e-02 -2.655550837516784668e-02 -1.122490409761667252e-02 -2.619987539947032928e-02 9.058568626642227173e-03 5.978158675134181976e-03 1.902127987705171108e-03 2.400008495897054672e-03 -3.884121309965848923e-03 -1.201163884252309799e-02 -1.350958552211523056e-02 2.082482725381851196e-02 -2.977764932438731194e-03 -4.817813169211149216e-03 -2.118941629305481911e-03 -8.485582657158374786e-03 1.151149813085794449e-02 -3.192046284675598145e-02 1.077227946370840073e-02 -2.703707665205001831e-02 -7.038581650704145432e-03 -6.432833615690469742e-03 1.227367483079433441e-02 -2.763599390164017677e-03 -2.278244821354746819e-03 2.140594087541103363e-02 1.525115035474300385e-02 -2.674318850040435791e-02 -1.692714402452111244e-03 6.463628262281417847e-03 -1.579187624156475067e-02 -3.074253350496292114e-02 -5.824759136885404587e-04 8.987556211650371552e-03 3.145097196102142334e-02 1.995418593287467957e-02 9.070396423339843750e-03 -2.239779569208621979e-02 -1.235179509967565536e-02 1.119131874293088913e-02 3.609889745712280273e-02 8.799181319773197174e-03 2.250596694648265839e-02 1.281924545764923096e-03 -5.739060696214437485e-03 1.381608564406633377e-02 1.875345595180988312e-02 2.324634045362472534e-02 4.140305332839488983e-03 -3.459691535681486130e-03 2.436631545424461365e-02 -1.536757568828761578e-03 -3.844898194074630737e-03 3.545479848980903625e-03 8.804102428257465363e-03 -2.351527474820613861e-02 2.503594197332859039e-02 -8.347936905920505524e-03 7.027511019259691238e-03 3.513876348733901978e-03 4.692415241152048111e-03 -1.668146997690200806e-02 -1.025852188467979431e-02 -1.497374498285353184e-03 5.418035667389631271e-03 -1.067280583083629608e-02 2.105300873517990112e-02 2.556976489722728729e-02 8.583299815654754639e-03 -5.297404248267412186e-03 -1.968573778867721558e-02
8.737507276237010956e-03 4.303728789091110229e-02 -2.469727303832769394e-03 2.959370985627174377e-02 -1.642792299389839172e-02 1.320580020546913147e-03 -1.837235176935791969e-03 2.576019801199436188e-02 2.971488237380981445e-02 1.772520691156387329e-02 -1.459556398913264275e-03 1.075563486665487289e-02 -1.112653035670518875e-02 -2.518289349973201752e-02 -7.518948055803775787e-03 -1.583884120918810368e-03 1.873527280986309052e-02 -2.357435412704944611e-02 1.189253013581037521e-02 1.056359987705945969e-02 6.009036209434270859e-03 2.820501103997230530e-03 -1.053773332387208939e-02 6.664292886853218079e-03 -2.206223644316196442e-02 7.322142831981182098e-03 2.082474529743194580e-03 -2.426764927804470062e-03 2.796370722353458405e-02 1.277571823447942734e-02 -1.849598251283168793e-02 -1.530575659126043320e-02 -6.039491854608058929e-03 1.770484074950218201e-02 1.882263924926519394e-03 4.635796416550874710e-03 6.744520738720893860e-03 8.739721961319446564e-03 -1.168319210410118103e-02 1.567508280277252197e-02 8.896349929273128510e-03 -2.707662060856819153e-03 2.024339744821190834e-03 2.405029907822608948e-02 9.526916779577732086e-03 -8.873013779520988464e-03 4.292393568903207779e-04 -8.663827902637422085e-04 1.265752594918012619e-02 4.368537105619907379e-03 -1.362129580229520798e-02 4.824378527700901031e-03 -1.462871953845024109e-02 -3.608286147937178612e-03 1.269658934324979782e-02 -1.274978369474411011e-02 -6.691424641758203506e-03 2.037083543837070465e-02 -7.949891500174999237e-03 -6.864721886813640594e-03 1.151987444609403610e-02 -4.832117818295955658e-03 -8.521295152604579926e-03 2.952130977064371109e-03 6.629614159464836121e-03 -1.078781951218843460e-02 -1.697814464569091797e-02 -4.969171248376369476e-03 -1.241808012127876282e-02 -1.756560243666172028e-02 -6.216472014784812927e-03 -1.484722085297107697e-02 -7.285312167368829250e-04 2.013725414872169495e-02 5.984131712466478348e-03 -2.400200441479682922e-02 -2.614329755306243896e-02 1.016774773597717285e-02 -4.237036220729351044e-03 -8.260138332843780518e-03 8.101274259388446808e-03 -3.630838915705680847e-02 -1.068568322807550430e-02 -4.259280394762754440e-03 2.308956906199455261e-02 -1.122420001775026321e-02 -7.106649689376354218e-03 1.041237963363528252e-03 -2.207973599433898926e-02 -1.038467232137918472e-02 -3.464465262368321419e-03 1.530487835407257080e-02 -8.001406677067279816e-03 1.196803338825702667e-02 -2.781747840344905853e-02 1.552473194897174835e-02 1.729114563204348087e-03 -9.781984612345695496e-03 4.052740987390279770e-03 1.063345838338136673e-02 -1.472183782607316971e-02 1.620527915656566620e-02 -3.786314278841018677e-03 -1.196213159710168839e-02 3.665690775960683823e-03 -3.591146669350564480e-04 -1.049072667956352234e-02 1.524370512925088406e-03 6.130352616310119629e-03 -1.442249305546283722e-02 6.294385530054569244e-03 1.497714221477508545e-02 -1.799788512289524078e-02 2.223085425794124603e-02 -3.006108663976192474e-02 9.889438748359680176e-03 8.977083489298820496e-03 3.684074850752949715e-03 6.402161670848727226e-04 5.991847719997167587e-03 4.136035684496164322e-03 9.124194271862506866e-03 -2.157953381538391113e-02 -1.932906359434127808e-02 2.218817127868533134e-03 1.619717339053750038e-03 -5.591889377683401108e-03 5.544998683035373688e-03 -8.951405063271522522e-03 -2.571917697787284851e-02 6.153838708996772766e-03 -1.247311010956764221e-02 4.959364887326955795e-03 -9.916602633893489838e-03 -6.736089941114187241e-03 3.163392655551433563e-03 2.062666043639183044e-02 1.857954077422618866e-02 1.427083159796893597e-03 4.548961296677589417e-03 1.574763096868991852e-02 1.960499910637736320e-03 -1.531375292688608170e-02 -1.094905752688646317e-02 5.845210514962673187e-03 -9.546677581965923309e-03 4.967548302374780178e-04 -4.258613567799329758e-03 -1.471070479601621628e-02 -9.054447524249553680e-03 3.095817286521196365e-03 6.849207915365695953e-03 1.329678110778331757e-02 1.790768001228570938e-03 -8.646472357213497162e-03 -1.387871988117694855e-02 4.759046714752912521e-03 -1.284217368811368942e-02 2.364241890609264374e-02 6.495132111012935638e-03 -2.523285569623112679e-03 3.848485881462693214e-03 3.311173291876912117e-03 1.962165161967277527e-02 6.110888789407908916e-04 -6.317562656477093697e-05 3.295046044513583183e-03 1.381267793476581573e-02 -7.888104766607284546e-03 -3.455199184827506542e-04 -3.297372907400131226e-02 -1.524906201666453853e-05 1.027043629437685013e-02 -1.486022677272558212e-02 -5.242297891527414322e-03 4.930438008159399033e-03 -9.971296414732933044e-03 8.176551200449466705e-03 -1.618362963199615479e-02 1.367634814232587814e-02 2.993549685925245285e-03 -2.356285788118839264e-02 9.470634162425994873e-03 8.011113968677818775e-04 3.484864253550767899e-03 4.902430810034275055e-04 5.259540397673845291e-03 -4.714457783848047256e-03 3.685695119202136993e-04 -2.442585118114948273e-02 -2.641634829342365265e-02 1.597126759588718414e-02 -1.192291892948560417e-04 4.177390038967132568e-02 -6.209005950950086117e-04 3.054118249565362930e-03 -2.535473182797431946e-02 1.516162510961294174e-02 -2.932459488511085510e-02 -9.723334573209285736e-03 -9.951470419764518738e-03 -6.717796437442302704e-03 -1.185194030404090881e-02 -2.344682579860091209e-03 -8.912401273846626282e-03 1.210163626819849014e-02 -1.094939000904560089e-02 -5.977893248200416565e-03 -5.422097165137529373e-03 1.203597616404294968e-02 -4.056107718497514725e-03 -3.149578813463449478e-03 -4.212492611259222031e-03 5.724893417209386826e-04 3.687053686007857323e-03 7.508801296353340149e-03 1.970592187717556953e-03 -8.226502686738967896e-03 2.337045222520828247e-02 -2.558718994259834290e-02 2.926078625023365021e-02 7.314930553548038006e-04 2.640844509005546570e-02 -2.950255945324897766e-02 -2.278495114296674728e-03 1.156368665397167206e-02 2.108994685113430023e-02 1.502924831584095955e-03 2.004802459850907326e-03 -1.689301244914531708e-02 -2.271451987326145172e-02 -1.953108981251716614e-02 1.238835859112441540e-03 -4.982847254723310471e-03 -4.193825181573629379e-03 -4.926871508359909058e-03 -8.591237477958202362e-03 9.430408477783203125e-03 -1.365156844258308411e-02 1.466520782560110092e-02 -1.687273324932903051e-04 1.711342600174248219e-03 -1.477328781038522720e-02 2.238242328166961670e-02 1.554037909954786301e-02 -1.142700947821140289e-02 -2.672587055712938309e-03 1.798339560627937317e-02 -3.724071430042386055e-03 2.233789488673210144e-02 -1.483246404677629471e-02 -2.428782870993018150e-03 1.838884199969470501e-03 -2.463027276098728180e-02 -3.480128478258848190e-03 7.303424179553985596e-03
1.884554745629429817e-03 6.187533494085073471e-03 8.362442255020141602e-03 -1.204223465174436569e-02 5.786410532891750336e-03 -8.045198395848274231e-03 3.323127049952745438e-03 -1.778226718306541443e-02 1.343981642276048660e-02 -9.445903822779655457e-03 -5.982283037155866623e-03 7.642142008990049362e-03 -1.207407005131244659e-02 -1.117102522403001785e-02 -6.802298128604888916e-03 2.710187342017889023e-03 -4.271163605153560638e-03 -9.439890272915363312e-03 4.841509275138378143e-03 -1.894901623018085957e-03 -3.871457185596227646e-03 -1.461323001421988010e-03 -1.695336773991584778e-02 -1.422927994281053543e-02 -8.081273175776004791e-03 -2.073129406198859215e-03 2.662742976099252701e-03 -4.375300370156764984e-03 2.598650753498077393e-02 -6.951838266104459763e-03 1.088510733097791672e-02 1.184489298611879349e-02 8.829237893223762512e-03 8.210564963519573212e-03 1.028798148036003113e-02 -2.069653570652008057e-02 1.483142114011570811e-04 -1.297936122864484787e-02 1.007477380335330963e-02 -5.560222081840038300e-03 -7.805825211107730865e-03 1.232618652284145355e-02 2.987566404044628143e-03 -1.280533801764249802e-02 -1.505392231047153473e-02 -2.127688936889171600e-02 7.954414002597332001e-03 6.148820277303457260e-03 -1.242598332464694977e-02 -2.225006232038140297e-03 7.454473525285720825e-03 -1.788532594218850136e-03 -1.005768310278654099e-02 7.638665265403687954e-04 1.281954161822795868e-02 6.408005952835083008e-03 1.832102984189987183e-02 -2.437741309404373169e-02 1.861966773867607117e-02 2.269146032631397247e-03 -5.459786858409643173e-03 3.680605441331863403e-03 -5.473102442920207977e-03 -1.317189354449510574e-02 9.999690577387809753e-03 9.914406575262546539e-03 1.028207689523696899e-02 1.106064487248659134e-02 -9.607460349798202515e-03 -4.544407594949007034e-03 4.830111749470233917e-03 -1.406173314899206161e-02 9.630276821553707123e-03 -1.284882542677223682e-03 -8.106543682515621185e-03 -5.099894013255834579e-03 1.524683553725481033e-02 7.643207442015409470e-03 2.212219499051570892e-02 9.456000290811061859e-03 1.518665347248315811e-02 -1.118602510541677475e-02 5.387103650718927383e-03 7.492882199585437775e-03 -4.303324967622756958e-03 -2.280609309673309326e-02 1.858666888438165188e-03 -1.414953265339136124e-03 6.533687002956867218e-03 1.492727082222700119e-02 5.228619091212749481e-03 1.538524404168128967e-03 2.435850538313388824e-02 1.494387630373239517e-02 1.136933919042348862e-02 -9.007048793137073517e-03 1.310261618345975876e-02 -3.681265050545334816e-03 6.643392611294984818e-03 -5.145510658621788025e-04 -7.440578658133745193e-03 -7.702967617660760880e-03 -2.013641875237226486e-03 -1.887455023825168610e-02 2.618259005248546600e-02 2.119781821966171265e-02 2.421337924897670746e-02 -2.252175239846110344e-03 3.292189445346593857e-03 1.281853765249252319e-02 1.359525509178638458e-02 -1.593912579119205475e-02 -2.188683487474918365e-02 9.892394766211509705e-03 -6.346182897686958313e-03 9.330976754426956177e-03 6.841010181233286858e-04 1.807839795947074890e-02 -1.829358935356140137e-02 -6.655856268480420113e-04 -1.130178291350603104e-02 -1.204686239361763000e-02 -1.481272652745246887e-02 -1.260340400040149689e-02 -1.151254586875438690e-02 -4.444827325642108917e-03 9.345310740172863007e-03 -6.620136555284261703e-03 1.275812089443206787e-02 2.260845713317394257e-02 -8.982297964394092560e-03 3.699148306623101234e-03 -1.619884185492992401e-02 -2.228763327002525330e-02 1.722040027379989624e-02 2.890895411837846041e-04 -1.309457886964082718e-02 1.892134733498096466e-02 -1.310891658067703247e-02 4.561862442642450333e-03 6.961446721106767654e-03 5.566554144024848938e-03 -2.576149534434080124e-03 -1.002283021807670593e-02 6.586039904505014420e-03 7.809590548276901245e-03 -2.783155441284179688e-02 -1.543464511632919312e-02 8.247909136116504669e-03 2.034625038504600525e-02 -4.894196521490812302e-03 -1.264147646725177765e-02 -4.356988647487014532e-04 9.066689759492874146e-03 -1.939250389114022255e-03 1.748388074338436127e-02 2.848798409104347229e-03 6.069967523217201233e-03 -1.734102703630924225e-02 -2.525379322469234467e-02 -7.159879896789789200e-04 2.105096913874149323e-02 -2.727752551436424255e-02 -7.177971769124269485e-03 -2.106418646872043610e-02 -1.373696420341730118e-02 -7.175117731094360352e-03 2.715749200433492661e-03 -4.941701423376798630e-03 -5.944442935287952423e-03 4.760198760777711868e-03 -2.210181020200252533e-02 5.487753078341484070e-03 -5.342215299606323242e-03 8.034353144466876984e-03 3.576058195903897285e-03 8.497197180986404419e-03 -5.626488476991653442e-03 1.381661370396614075e-02 -5.778923165053129196e-03 -9.613767266273498535e-03 -4.399377503432333469e-04 -9.744431008584797382e-04 -1.308317575603723526e-02 -1.755554415285587311e-02 -3.187658498063683510e-03 -2.433335222303867340e-02 1.244361884891986847e-02 -2.273391932249069214e-03 5.451923236250877380e-03 2.403248474001884460e-02 7.047333754599094391e-03 -8.872347534634172916e-04 -1.448807679116725922e-02 4.431671404745429754e-04 1.667874306440353394e-02 -1.342604309320449829e-02 6.767958402633666992e-03 2.495451131835579872e-03 1.294053625315427780e-02 -1.569490763358771801e-03 1.257846504449844360e-02 -4.285716917365789413e-03 -1.650583464652299881e-03 -9.199927560985088348e-03 -8.301788009703159332e-03 -1.346461847424507141e-02 -9.319390170276165009e-03 1.603364199399948120e-02 1.999006047844886780e-02 5.172298755496740341e-03 -1.609150669537484646e-03 -2.041745185852050781e-02 -1.625769585371017456e-02 -1.858806423842906952e-02 -1.054774876683950424e-02 -1.169182709418237209e-03 1.092873886227607727e-02 6.570848636329174042e-04 7.939599454402923584e-03 -1.976661197841167450e-02 -1.437703147530555725e-03 7.739418651908636093e-03 -4.418782424181699753e-03 2.590073086321353912e-02 1.160389091819524765e-02 1.852216385304927826e-02 1.875243894755840302e-02 1.789173460565507412e-03 1.554853282868862152e-02 1.071635447442531586e-02 -1.324868411757051945e-03 1.524950610473752022e-03 -2.452822867780923843e-03 1.875487715005874634e-02 -1.358773210085928440e-03 1.314228121191263199e-02 3.876207396388053894e-03 9.786785580217838287e-03 -1.747460849583148956e-02 2.218911657109856606e-03 -2.597117330878973007e-03 -3.868067171424627304e-03 7.931838044896721840e-04 -3.817404620349407196e-03 -9.254531934857368469e-03 -2.042230917140841484e-03 4.023174289613962173e-03 7.539229933172464371e-03 7.708186749368906021e-03 -1.599477604031562805e-02 1.477600540965795517e-02 9.199197520501911640e-04 -3.813790390267968178e-03 2.119896560907363892e-02 2.935576252639293671e-03
-2.701872587203979492e-02 -1.681181602180004120e-02 2.067539840936660767e-02 -1.002244418486952782e-03 2.021339908242225647e-02 6.566838826984167099e-03 8.057374507188796997e-03 1.271797809749841690e-02 -1.245735585689544678e-02 -1.622834056615829468e-02 3.908859565854072571e-03 -7.512790150940418243e-03 -3.752802265807986259e-03 1.210452802479267120e-02 7.547172252088785172e-03 -2.148904092609882355e-02 -7.145922281779348850e-04 -8.486363105475902557e-03 -1.116473344154655933e-03 1.226402260363101959e-02 2.353245578706264496e-02 -1.598210074007511139e-02 7.013287860900163651e-03 -1.086896937340497971e-02 -4.426678176969289780e-03 -6.841961294412612915e-03 5.875354399904608727e-04 9.979627095162868500e-03 1.628519594669342041e-02 -5.643742159008979797e-03 -8.442988619208335876e-03 1.131302397698163986e-02 5.623334087431430817e-03 -1.367900706827640533e-02 -7.790750823915004730e-03 3.853808157145977020e-03 -6.288917269557714462e-03 -1.667092181742191315e-02 9.800026193261146545e-03 1.130692288279533386e-02 -2.184357866644859314e-02 -2.169815590605139732e-03 -1.496709603816270828e-02 1.456745062023401260e-02 6.399130914360284805e-03 7.155587896704673767e-03 -1.601839810609817505e-02 3.543148515745997429e-03 -1.292877271771430969e-02 -1.078394055366516113e-02 7.584337727166712284e-04 -1.544373761862516403e-02 5.127042997628450394e-03 1.186417415738105774e-02 9.403566829860210419e-03 -1.295809727162122726e-02 1.392324548214673996e-02 6.963796913623809814e-03 -1.703150919638574123e-03 9.898062795400619507e-03 -2.528543351218104362e-03 2.659791382029652596e-03 -6.794855464249849319e-03 1.509580994024872780e-03 -1.611800305545330048e-02 3.515180945396423340e-02 -5.152060184627771378e-03 2.521318569779396057e-02 -1.206529140472412109e-02 -1.592867821455001831e-02 -8.776123635470867157e-03 -8.255195803940296173e-03 1.951673417352139950e-03 4.372588824480772018e-03 -9.492027573287487030e-03 2.990742400288581848e-02 1.578486524522304535e-02 3.243845188990235329e-03 -4.784949414897710085e-04 5.928045604377985001e-03 -3.067838028073310852e-02 4.692436195909976959e-03 -9.731741622090339661e-03 1.470538787543773651e-02 -1.098888646811246872e-02 1.320903096348047256e-02 3.938566893339157104e-03 1.120723038911819458e-02 -2.045522443950176239e-02 8.204705081880092621e-03 2.746313437819480896e-02 -7.270321715623140335e-03 2.788901515305042267e-02 -2.706740342546254396e-04 1.543145067989826202e-02 1.492000371217727661e-02 8.737940341234207153e-03 2.021411620080471039e-02 -2.466663019731640816e-03 3.326867939904332161e-03 1.433360390365123749e-02 1.860573329031467438e-02 1.085562445223331451e-02 1.742120273411273956e-02 5.837601609528064728e-03 -1.024076342582702637e-02 7.520346902310848236e-03 6.764025893062353134e-03 2.218702808022499084e-03 7.520327810198068619e-03 -5.844575352966785431e-03 3.264927770942449570e-03 -3.152801468968391418e-02 -6.060170941054821014e-03 9.387611411511898041e-03 -7.547461893409490585e-03 1.544920075684785843e-02 -3.360816743224859238e-03 5.557274818420410156e-02 -1.416278071701526642e-02 -1.973695866763591766e-02 -1.775004155933856964e-02 -1.542409230023622513e-02 -7.475314196199178696e-03 -5.142895970493555069e-03 3.545445390045642853e-03 1.612121821381151676e-03 -1.396942511200904846e-02 1.350754406303167343e-02 2.822061069309711456e-02 3.416698193177580833e-03 2.765729464590549469e-02 1.102964486926794052e-02 -2.777680195868015289e-02 1.056500524282455444e-02 -1.129258982837200165e-02 1.161644328385591507e-02 3.210804238915443420e-02 -1.029613520950078964e-02 -2.667317353188991547e-02 -2.601725049316883087e-03 -1.674528419971466064e-02 -6.601134315133094788e-03 -2.297764644026756287e-03 -1.731144450604915619e-02 -4.163125064224004745e-03 7.581819780170917511e-03 8.645001798868179321e-03 -1.672717742621898651e-02 -1.589177758432924747e-03 -2.675065025687217712e-02 -8.266333490610122681e-03 -2.900414168834686279e-03 3.247470827773213387e-03 2.520755864679813385e-03 -1.423482783138751984e-02 1.112887356430292130e-02 2.611276879906654358e-02 -2.211475744843482971e-02 1.332121528685092926e-02 -5.219059996306896210e-03 1.939776586368680000e-03 -1.154846046119928360e-02 6.913919933140277863e-04 -1.881629345007240772e-03 4.476132337003946304e-03 2.717906981706619263e-02 -5.083826836198568344e-03 -2.032106742262840271e-02 -1.019968837499618530e-02 -1.445209141820669174e-03 -5.096808075904846191e-03 3.826158819720149040e-03 -4.413351416587829590e-03 1.612514816224575043e-02 -6.509453058242797852e-03 6.621303968131542206e-03 6.519266404211521149e-03 -6.753626745194196701e-03 -9.553698822855949402e-03 2.265123883262276649e-03 -1.851972565054893494e-02 1.224448252469301224e-02 -1.984996907413005829e-02 6.180153228342533112e-03 1.697029918432235718e-02 4.383865278214216232e-03 1.241897419095039368e-02 -6.720068398863077164e-03 1.318179443478584290e-02 -2.147230133414268494e-02 -1.361785829067230225e-02 -7.991283200681209564e-05 -9.013108909130096436e-03 2.277376875281333923e-02 -3.446185437496751547e-04 7.681493181735277176e-03 -1.088329870253801346e-02 1.022633817046880722e-02 -6.611020769923925400e-03 1.341329980641603470e-02 2.663472667336463928e-03 6.693501956760883331e-03 5.522042512893676758e-03 -1.530160941183567047e-02 -1.524438243359327316e-02 -1.391784474253654480e-02 -6.298182532191276550e-03 2.492719562724232674e-03 -8.748784661293029785e-03 1.804653368890285492e-02 -8.417971432209014893e-03 -3.932858631014823914e-02 3.852817695587873459e-03 2.655973285436630249e-02 1.829010993242263794e-02 -1.295361202210187912e-03 9.231702424585819244e-03 -1.669192337431013584e-03 3.196845063939690590e-03 9.262808453058823943e-05 -5.006569437682628632e-03 -2.534027770161628723e-02 -7.857300341129302979e-03 -2.002929523587226868e-02 -1.832459494471549988e-02 -6.964261177927255630e-03 1.548007410019636154e-02 7.804519031196832657e-03 9.727366268634796143e-04 -2.584971953183412552e-04 2.392813190817832947e-02 3.775229561142623425e-04 -5.471130367368459702e-03 -1.588979549705982208e-02 6.151970941573381424e-03 3.115616552531719208e-02 8.189349435269832611e-03 -1.447136886417865753e-02 5.038757342845201492e-03 -2.342940540984272957e-03 -3.725844668224453926e-03 9.189569391310214996e-03 7.103104609996080399e-03 -1.341631542891263962e-02 -5.041990429162979126e-03 -1.640278100967407227e-02 -1.437496300786733627e-02 -2.582734078168869019e-02 -1.976459985598921776e-03 2.525970805436372757e-03 -2.911284798756241798e-03 3.656722372397780418e-03 1.807508058845996857e-02 -2.853361517190933228e-02 1.308749057352542877e-02
