-1.074033677577972412e-01 5.112710967659950256e-02 -1.055737882852554321e-01 -1.014615669846534729e-01 6.286554969847202301e-03 1.604983359575271606e-01 -4.740270599722862244e-02 1.183099597692489624e-01 1.299004852771759033e-01 2.158406525850296021e-01 1.411668807268142700e-01 7.953768223524093628e-02 5.110517516732215881e-02 7.043506950139999390e-02 -7.548923790454864502e-02 2.771242754533886909e-03 1.559342145919799805e-01 7.010116241872310638e-03 7.725267112255096436e-02 -7.930056308396160603e-04 1.256780177354812622e-01 -1.809960305690765381e-01 3.057178854942321777e-02 -2.799254609271883965e-03 1.558982729911804199e-01 1.198061853647232056e-01 9.361702203750610352e-02 2.216264605522155762e-02 -3.249542787671089172e-02 6.766096502542495728e-02 1.064391434192657471e-01 -7.861195132136344910e-03 -4.735590517520904541e-02 1.329274475574493408e-01 -1.775373704731464386e-02 8.968450874090194702e-02 1.348510533571243286e-01 1.927442401647567749e-01 -4.527112469077110291e-02 -1.806253194808959961e-01 1.057368665933609009e-01 2.142847143113613129e-02 7.480504363775253296e-02 1.117649599909782410e-01 -1.191470399498939514e-01 -7.452936843037605286e-04 -1.299098730087280273e-01 -5.980372894555330276e-03 7.597093284130096436e-02 -1.319374609738588333e-02 -9.181657433509826660e-02 3.232059255242347717e-02 -3.554971143603324890e-02 4.311231896281242371e-02 2.791699022054672241e-02 -1.163433790206909180e-01 1.101198792457580566e-01 -1.228918060660362244e-01 -3.505523130297660828e-02 -3.501844778656959534e-02 -9.429318457841873169e-02 -1.051863804459571838e-01 6.079313158988952637e-02 4.134830459952354431e-02 7.133408635854721069e-02 1.820748895406723022e-01 7.836763560771942139e-02 1.774036884307861328e-01 1.085985228419303894e-01 4.953591153025627136e-02 -4.632010310888290405e-02 -1.177683174610137939e-01 -4.008601978421211243e-02 2.491047233343124390e-02 -1.520467996597290039e-01 -9.313935041427612305e-02 -4.930298402905464172e-02 -3.554616868495941162e-02 -2.982944017276167870e-03 3.800154849886894226e-02 -5.188817903399467468e-02 8.715923875570297241e-02 -7.246739231050014496e-03 -6.033327057957649231e-02 5.128799378871917725e-02 -3.035089559853076935e-02 1.119957119226455688e-02 2.725488319993019104e-02 3.759416192770004272e-02 1.018929481506347656e-01 4.072795808315277100e-02 -7.635590434074401855e-02 6.980085372924804688e-02 5.154662206768989563e-02 3.938617557287216187e-02 1.316202282905578613e-01 6.781926751136779785e-02 -5.663827806711196899e-02 1.642727851867675781e-02 6.811913847923278809e-02 -4.482566379010677338e-03 -2.251320332288742065e-01 5.767957493662834167e-02 -4.687928780913352966e-02 2.249179407954216003e-02 2.520923875272274017e-02 7.295189797878265381e-02 -3.034927137196063995e-02 -4.933367297053337097e-02 -1.024639829993247986e-01 7.654111087322235107e-02 -2.813803218305110931e-02 7.859125733375549316e-02 -1.369881629943847656e-01 6.728328764438629150e-02 -6.816635280847549438e-02 1.145275658927857876e-03 7.406025379896163940e-02 -4.875493794679641724e-02 -2.665348537266254425e-02 -9.115363471210002899e-03 7.532783597707748413e-02 5.093571543693542480e-02 1.370742022991180420e-01 -1.563543230295181274e-01 -1.468877643346786499e-01 1.372611075639724731e-01 -1.707398891448974609e-01 1.317016482353210449e-01 -1.213286072015762329e-01 2.580184303224086761e-02 1.916584558784961700e-02 4.081051331013441086e-03 2.280676178634166718e-02 -1.727603375911712646e-01 -2.158749103546142578e-02 2.434625662863254547e-02 6.199904531240463257e-02 4.750241711735725403e-02 4.184167087078094482e-02 2.935920096933841705e-02 1.742974668741226196e-01 2.776469103991985321e-02 -1.100106909871101379e-01 9.392429143190383911e-02 2.092163776978850365e-04 -8.732199668884277344e-02 -7.576905936002731323e-02 -7.469592243432998657e-02 2.970410697162151337e-02 4.984966292977333069e-02 -1.134329587221145630e-01 -7.803725544363260269e-03 3.231828159186989069e-04 2.805614471435546875e-01 2.297553792595863342e-02 1.091790795326232910e-01 4.616839811205863953e-02 2.090713232755661011e-01 1.002570316195487976e-01 1.428444683551788330e-01 6.216424662852659822e-05 6.083199381828308105e-02 5.201578512787818909e-02 7.610404491424560547e-02 3.184798359870910645e-02 -1.291613187640905380e-02 4.481809213757514954e-02 6.066168658435344696e-03 -8.824041485786437988e-02 -1.043175309896469116e-01 -1.041803285479545593e-01 5.373857542872428894e-02 3.693442791700363159e-02 8.136993646621704102e-02 2.783112823963165283e-01 7.868359982967376709e-02 -9.098176658153533936e-02 -9.915925562381744385e-02 6.871845573186874390e-02 -1.061219125986099243e-01 -1.226633694022893906e-02 -4.898934066295623779e-02 -5.442772433161735535e-02 -4.585908353328704834e-02 7.322207838296890259e-02 2.576128542423248291e-01 -1.462529301643371582e-01 -8.793227374553680420e-02 1.055727228522300720e-01 6.128610670566558838e-02 -1.431390643119812012e-02 -1.037158593535423279e-01 1.610521785914897919e-02 1.204354874789714813e-02 -4.229636862874031067e-02 5.064488947391510010e-02 6.578510254621505737e-02 -8.169288747012615204e-03 -5.609425902366638184e-02 7.981567084789276123e-02 9.911540895700454712e-02 1.506510004401206970e-02 -3.010069020092487335e-03 9.611714631319046021e-02 1.635200381278991699e-01 2.606829628348350525e-02 3.532001376152038574e-02 -1.745140552520751953e-01 1.774279922246932983e-01 -9.427555650472640991e-02 -1.028375793248414993e-02 1.192783415317535400e-01 4.894644021987915039e-02 8.604764938354492188e-02 -4.539471119642257690e-02 -7.662203162908554077e-02 -7.652182877063751221e-02 -2.957650832831859589e-02 7.817242294549942017e-02 -1.223656684160232544e-01 9.635402262210845947e-02 6.177088245749473572e-02 -4.311928153038024902e-02 1.382682919502258301e-01 1.325173825025558472e-01 -3.412788733839988708e-02 -3.181940689682960510e-02 1.399197429418563843e-01 -2.873251214623451233e-03 -6.330299377441406250e-02 -4.637042584363371134e-04 8.490760624408721924e-02 -4.734917730093002319e-02 -1.623103022575378418e-01 -1.412633359432220459e-01 4.246953874826431274e-02 -1.322062760591506958e-01 1.367420051246881485e-02 1.361645758152008057e-02 5.919290333986282349e-02 -1.131576299667358398e-01 6.128476932644844055e-02 1.782556027173995972e-01 1.619141697883605957e-01 -9.271141886711120605e-02 -6.568494439125061035e-02 -1.042408198118209839e-01 9.611630439758300781e-02 -3.566518798470497131e-02 8.582532405853271484e-02 -5.683463066816329956e-02 -4.473205283284187317e-02 6.375007331371307373e-02 -9.970568865537643433e-02 -7.695760577917098999e-04
1.145685184746980667e-02 1.972002387046813965e-01 -2.599376142024993896e-01 -1.569407992064952850e-02 -1.149095818400382996e-01 2.571498416364192963e-02 5.736289545893669128e-02 -2.235869318246841431e-02 -8.999598771333694458e-02 -4.025349393486976624e-02 1.609998792409896851e-01 1.962329819798469543e-02 1.219606772065162659e-01 -1.242155283689498901e-01 2.436860501766204834e-01 7.548648864030838013e-02 -3.085291571915149689e-02 -2.913198806345462799e-02 2.057876437902450562e-01 1.041899695992469788e-01 -1.379684358835220337e-02 -1.575131714344024658e-02 -1.824546605348587036e-02 5.662556365132331848e-02 4.161649197340011597e-02 -1.390715092420578003e-01 -2.803097851574420929e-02 -7.856852374970912933e-03 3.068952262401580811e-02 1.597521305084228516e-01 1.094666644930839539e-01 1.676687449216842651e-01 -9.683493524789810181e-02 -7.449883222579956055e-02 -1.294215768575668335e-01 -1.175600513815879822e-01 -2.062159031629562378e-02 9.721114486455917358e-02 4.067884385585784912e-02 9.674626588821411133e-02 9.771412611007690430e-02 4.542371630668640137e-02 2.130310796201229095e-02 1.215141937136650085e-01 2.190415188670158386e-02 -7.776127755641937256e-02 1.345329824835062027e-02 -1.667951792478561401e-01 -5.423643067479133606e-02 4.317879676818847656e-02 -4.562928527593612671e-02 1.738225109875202179e-02 9.427207522094249725e-03 -6.918229628354310989e-03 1.172146424651145935e-01 8.996631018817424774e-03 3.665159270167350769e-02 -1.102992054075002670e-02 1.204320136457681656e-02 -1.907346099615097046e-01 1.101253628730773926e-01 -8.393532782793045044e-02 6.747414171695709229e-02 -2.366719208657741547e-02 -2.031970322132110596e-01 1.854612529277801514e-01 1.782220155000686646e-01 1.336913108825683594e-01 -1.208807826042175293e-01 -4.433158785104751587e-02 -6.418505311012268066e-02 3.232172131538391113e-02 -3.547607362270355225e-02 1.294400542974472046e-01 4.306044057011604309e-02 4.144151881337165833e-02 2.482161819934844971e-01 2.708083763718605042e-02 -1.490620430558919907e-02 -7.272483408451080322e-02 7.070254534482955933e-02 -3.569391742348670959e-02 1.547258198261260986e-01 1.395846307277679443e-01 -8.231882750988006592e-02 -1.218333616852760315e-01 6.974425166845321655e-02 -3.327636793255805969e-02 -1.349185109138488770e-01 9.949680417776107788e-02 7.865472137928009033e-02 -4.977523908019065857e-02 -6.237285211682319641e-03 -2.180898003280162811e-02 1.430875970982015133e-03 1.136544346809387207e-01 2.378354594111442566e-02 4.343743994832038879e-02 8.763867616653442383e-02 8.790681511163711548e-02 7.413724064826965332e-02 4.422532021999359131e-02 9.455692954361438751e-03 -1.848324574530124664e-02 -2.500069327652454376e-02 -6.900418549776077271e-02 6.651478260755538940e-02 -6.475338339805603027e-02 2.601703628897666931e-02 9.291231632232666016e-03 1.006510201841592789e-02 -3.393847495317459106e-02 6.101791933178901672e-02 8.871727436780929565e-02 1.841723471879959106e-01 5.099570378661155701e-02 1.233509778976440430e-01 -2.075310945510864258e-01 -1.095276474952697754e-01 1.118045207113027573e-02 3.313770517706871033e-02 1.446436941623687744e-01 -1.304137855768203735e-01 1.002862006425857544e-01 -7.038140296936035156e-02 6.605491787195205688e-02 7.508047670125961304e-02 -9.855954349040985107e-02 9.717958979308605194e-03 8.387017995119094849e-02 3.022396750748157501e-02 -1.115791723132133484e-01 -5.742477625608444214e-02 4.795435816049575806e-02 1.379178166389465332e-01 -1.916385442018508911e-02 -5.608608946204185486e-02 5.918041244149208069e-02 5.517140403389930725e-02 -3.223551809787750244e-02 6.551032513380050659e-02 1.397105772048234940e-02 -7.049586623907089233e-02 -4.752265289425849915e-02 -6.446222960948944092e-02 -2.045605629682540894e-01 -1.564960628747940063e-01 -2.361822687089443207e-02 -1.024743840098381042e-01 -5.431520938873291016e-02 6.406853348016738892e-02 1.775024682283401489e-01 9.038440138101577759e-02 1.474085152149200439e-01 -1.504705697298049927e-01 6.535140424966812134e-02 1.907226815819740295e-02 1.761671528220176697e-02 3.534580394625663757e-02 -1.940864254720509052e-03 -7.839163392782211304e-02 4.882191121578216553e-02 -2.763761905953288078e-03 -1.378797274082899094e-02 -2.585721202194690704e-02 5.418547242879867554e-02 1.534056812524795532e-01 1.430224161595106125e-02 2.318567782640457153e-02 1.537289191037416458e-02 -3.010767325758934021e-02 -7.013023644685745239e-02 1.199446525424718857e-02 2.169220708310604095e-02 -1.719458587467670441e-02 1.095394194126129150e-01 4.006659984588623047e-02 -5.303627997636795044e-02 -4.776442795991897583e-02 2.099102288484573364e-01 -8.391594886779785156e-02 1.816108375787734985e-01 -3.537534922361373901e-02 9.459269791841506958e-02 -1.233789697289466858e-01 4.868917539715766907e-02 1.481733471155166626e-01 1.936955563724040985e-02 1.574192047119140625e-01 -3.551679477095603943e-02 -1.181127130985260010e-01 5.093284696340560913e-02 -1.351913996040821075e-02 -5.330590903759002686e-02 -6.879827380180358887e-02 -1.438983976840972900e-01 3.775786235928535461e-02 -5.093366280198097229e-02 1.239968314766883850e-01 -7.936877012252807617e-02 -7.826535403728485107e-02 9.578429162502288818e-02 4.057117272168397903e-03 1.284011751413345337e-01 -1.645486615598201752e-02 -4.242175817489624023e-02 -4.722946137189865112e-02 -8.528837561607360840e-02 -8.861117810010910034e-02 -4.836919903755187988e-02 -7.196805090643465519e-04 1.497546285390853882e-01 1.507033109664916992e-01 4.247299954295158386e-02 -1.203385591506958008e-01 -4.660644754767417908e-02 7.248881459236145020e-02 3.765080496668815613e-02 -1.809816956520080566e-01 1.495615392923355103e-02 1.607021838426589966e-01 -1.867789030075073242e-01 -7.000529766082763672e-02 4.011703655123710632e-02 2.024652902036905289e-03 -2.221869491040706635e-02 -1.567502617835998535e-01 2.503570914268493652e-02 2.743011340498924255e-02 -2.329420857131481171e-02 1.281828805804252625e-02 1.484162658452987671e-01 -1.246023178100585938e-01 6.412105262279510498e-02 9.325405210256576538e-02 6.006067618727684021e-02 8.153182268142700195e-02 1.430172622203826904e-01 -1.123774517327547073e-02 -9.069448709487915039e-02 9.985683113336563110e-02 3.282644972205162048e-02 9.595374017953872681e-02 7.204747945070266724e-02 -5.551791191101074219e-02 -1.833007670938968658e-02 -6.930167973041534424e-02 1.928725466132164001e-02 1.379488110542297363e-01 -1.863993890583515167e-02 -3.508131206035614014e-02 -6.043188273906707764e-02 6.554918363690376282e-03 -2.284905016422271729e-01 -3.837273269891738892e-02 5.606365948915481567e-02
4.511480033397674561e-02 6.423252075910568237e-02 -2.408880293369293213e-01 1.271587014198303223e-01 6.400733441114425659e-02 5.148558691143989563e-02 1.228100582957267761e-01 -8.231508731842041016e-02 -1.783019676804542542e-02 2.456671185791492462e-02 -6.298080086708068848e-02 8.320883661508560181e-02 -2.354941330850124359e-03 -1.362232211977243423e-02 1.653056144714355469e-01 -5.245506390929222107e-02 -2.520450577139854431e-02 2.997464314103126526e-02 -1.451172679662704468e-01 -4.708158969879150391e-02 -1.270800232887268066e-01 6.767203658819198608e-02 -2.547120675444602966e-02 6.824292242527008057e-02 4.228965938091278076e-02 -3.755523636937141418e-02 -8.421213179826736450e-02 2.577140033245086670e-01 -2.608671411871910095e-02 -1.024803444743156433e-01 -5.439385771751403809e-02 2.816551737487316132e-02 -3.466803953051567078e-02 1.181761696934700012e-01 -1.513439714908599854e-01 8.981648087501525879e-02 -9.480208903551101685e-02 1.341180056333541870e-01 -1.099400818347930908e-01 1.929219216108322144e-01 1.462386269122362137e-02 3.481743857264518738e-02 -6.408132612705230713e-03 2.119991928339004517e-01 5.297392979264259338e-02 6.423816084861755371e-02 -1.785573363304138184e-01 8.449280261993408203e-02 2.435209415853023529e-02 4.551878571510314941e-02 -4.084284417331218719e-03 3.412531223148107529e-03 -7.749217003583908081e-02 5.781444255262613297e-03 -1.645828410983085632e-02 4.218764975666999817e-02 -4.620113968849182129e-02 6.623131781816482544e-02 -1.956473104655742645e-02 -1.089880391955375671e-01 -1.165081411600112915e-01 -9.908551350235939026e-03 -1.559387743473052979e-01 1.973753236234188080e-02 -2.615860663354396820e-02 -1.028130725026130676e-01 -1.500598527491092682e-02 1.163484975695610046e-01 -1.169367432594299316e-01 5.889308825135231018e-02 2.355962991714477539e-02 -6.392472237348556519e-02 1.740020215511322021e-01 -2.705262228846549988e-02 2.896958589553833008e-02 -6.330984085798263550e-02 -7.084171473979949951e-02 -3.399916738271713257e-02 1.080116331577301025e-01 1.370617002248764038e-01 8.265808969736099243e-02 7.313556969165802002e-02 -5.834102258086204529e-02 2.319551110267639160e-01 -1.017094776034355164e-02 9.995650500059127808e-02 -9.468564763665199280e-03 -5.228280276060104370e-02 5.370503664016723633e-02 -3.391757979989051819e-02 7.756230980157852173e-02 9.107015281915664673e-02 1.337171792984008789e-01 1.111782807856798172e-02 -3.448987752199172974e-02 -1.041617942973971367e-04 8.919826894998550415e-02 3.784064576029777527e-02 1.327516790479421616e-02 -9.235262125730514526e-02 1.203141063451766968e-01 6.154624372720718384e-02 1.049304008483886719e-01 -5.491037853062152863e-03 4.219966381788253784e-02 -1.105990707874298096e-01 -7.836761884391307831e-03 -3.976965323090553284e-02 1.535960882902145386e-01 -3.038579411804676056e-02 2.090307623147964478e-01 6.313791126012802124e-02 3.462222963571548462e-02 1.044825166463851929e-01 1.406669616699218750e-01 -6.043221801519393921e-02 -5.342820659279823303e-02 -6.179718673229217529e-02 1.001812294125556946e-01 7.598165422677993774e-02 2.180844545364379883e-01 1.051511764526367188e-01 3.236981481313705444e-02 1.311200410127639771e-01 -8.848644047975540161e-02 -3.372413106262683868e-03 -8.412048965692520142e-02 3.040622361004352570e-02 -4.983741044998168945e-02 9.413343667984008789e-02 5.219322443008422852e-02 2.115088850259780884e-01 9.359097480773925781e-02 5.066973716020584106e-02 -3.934878483414649963e-02 2.332279831171035767e-01 -2.141362242400646210e-02 1.693865098059177399e-02 -3.503715619444847107e-02 -6.040856987237930298e-02 6.168395653367042542e-02 1.144219040870666504e-01 7.909040898084640503e-02 9.214284271001815796e-02 -3.121165558695793152e-02 -7.940211147069931030e-02 -4.977426305413246155e-02 -1.311689894646406174e-02 -1.848096773028373718e-02 -1.825136095285415649e-01 -5.753602460026741028e-02 -5.301080271601676941e-02 -1.877038180828094482e-02 1.703163832426071167e-01 5.283892154693603516e-02 -1.044470742344856262e-01 -1.303051225841045380e-02 -1.206822972744703293e-02 -1.348040648736059666e-03 -3.809501230716705322e-02 -1.030436903238296509e-02 -2.535711228847503662e-02 3.904316201806068420e-02 -2.676887810230255127e-02 4.325584322214126587e-02 6.311906035989522934e-03 1.868718303740024567e-02 -9.277760237455368042e-02 -4.396217316389083862e-02 -3.291893377900123596e-02 1.072661727666854858e-01 -4.830754187423735857e-04 3.473174571990966797e-02 1.885598711669445038e-02 8.056793361902236938e-02 -2.029499970376491547e-02 1.713585853576660156e-02 1.499063670635223389e-01 8.217548020184040070e-03 -7.905127480626106262e-03 2.975817024707794189e-02 -7.214426994323730469e-02 1.377536170184612274e-02 -1.751378923654556274e-01 -2.788066864013671875e-02 1.836749142967164516e-03 3.891604021191596985e-02 -8.385856635868549347e-03 -6.510285288095474243e-02 -1.459319517016410828e-02 8.254536241292953491e-02 -3.177792578935623169e-02 2.299984730780124664e-02 -7.136666215956211090e-03 -9.270030260086059570e-02 -9.395863860845565796e-03 -9.455064684152603149e-02 2.688897773623466492e-02 -7.164908945560455322e-02 4.875264316797256470e-02 -9.064055979251861572e-02 -7.172196172177791595e-03 4.036657139658927917e-02 -1.889172792434692383e-01 -9.276470541954040527e-02 -8.004312962293624878e-02 1.711329966783523560e-01 -1.109694875776767731e-02 -1.031384542584419250e-01 5.232681869529187679e-04 -1.196557097136974335e-02 1.096996739506721497e-01 5.071925744414329529e-02 -5.161480512470006943e-03 1.507390439510345459e-01 1.919277161359786987e-01 -1.108558252453804016e-01 1.279043965041637421e-02 -2.343032211065292358e-01 -1.029958482831716537e-02 -1.365659832954406738e-01 2.691763453185558319e-02 -8.250062167644500732e-02 -1.357289254665374756e-01 7.770749274641275406e-03 7.913491129875183105e-02 3.631997620686888695e-03 -8.931507170200347900e-02 -8.167475461959838867e-02 -1.798271685838699341e-01 6.834534555673599243e-02 1.126858592033386230e-02 1.186436340212821960e-01 -1.094893887639045715e-01 -4.370116628706455231e-03 8.529897034168243408e-02 3.545339405536651611e-02 -3.805213794112205505e-02 1.442133933305740356e-01 1.022226288914680481e-01 4.279603809118270874e-02 2.161783576011657715e-01 -3.715194016695022583e-02 -7.220639288425445557e-02 4.966113343834877014e-02 1.791701316833496094e-01 -5.149020627140998840e-02 -2.214059606194496155e-02 1.840839833021163940e-01 7.119513303041458130e-02 -1.530512571334838867e-01 1.566709205508232117e-02 -8.792869746685028076e-02 1.644323170185089111e-01 1.314512640237808228e-01 -2.100290916860103607e-02
-8.232366293668746948e-03 1.364585310220718384e-01 -6.287141889333724976e-02 -1.085723713040351868e-01 3.099591471254825592e-02 -4.630051180720329285e-02 -1.213061287999153137e-01 9.917119145393371582e-02 3.093168325722217560e-02 2.125710099935531616e-01 -3.936183825135231018e-02 -4.752711579203605652e-02 1.283965110778808594e-01 6.872601807117462158e-02 1.945166140794754028e-01 3.425950929522514343e-02 -3.884780779480934143e-02 -8.615462481975555420e-02 -7.249131053686141968e-02 1.367018073797225952e-01 -1.553354859352111816e-01 -1.108910441398620605e-01 6.049759103916585445e-04 1.126904785633087158e-01 1.750364154577255249e-01 2.985053695738315582e-02 7.599947601556777954e-02 4.654610529541969299e-02 5.454595759510993958e-02 -1.178697720170021057e-01 -1.043650321662425995e-02 9.809247404336929321e-02 -3.949129581451416016e-02 -1.329032033681869507e-01 1.620413362979888916e-01 2.788402885198593140e-02 -1.876310445368289948e-03 -4.617332667112350464e-02 -4.691218957304954529e-02 2.720640227198600769e-02 -4.731830675154924393e-03 1.261470168828964233e-01 1.158190742135047913e-01 4.321504011750221252e-02 6.037355586886405945e-02 4.372475668787956238e-02 -2.009822055697441101e-02 -2.604767493903636932e-02 3.122332319617271423e-02 -1.375980228185653687e-01 -7.975051552057266235e-02 -2.909084968268871307e-02 -2.880845218896865845e-02 -4.515304416418075562e-02 4.329837113618850708e-02 -5.918948724865913391e-02 -7.181892544031143188e-02 -2.723042108118534088e-02 4.661254957318305969e-02 4.778627306222915649e-02 2.868344448506832123e-02 -7.676907628774642944e-02 2.231483161449432373e-02 6.969195604324340820e-02 2.858575060963630676e-02 -1.936098635196685791e-01 1.415237039327621460e-01 -2.265017479658126831e-01 2.309057675302028656e-02 3.403607755899429321e-02 8.292654156684875488e-02 1.537223532795906067e-02 -6.068316474556922913e-02 5.511559545993804932e-02 1.703013926744461060e-01 1.462111622095108032e-01 1.040393859148025513e-01 -5.984996445477008820e-03 -1.666100323200225830e-01 8.406345546245574951e-02 -2.688165009021759033e-02 6.016996875405311584e-02 -4.080000892281532288e-02 4.319470003247261047e-02 -5.883929133415222168e-02 -8.196078240871429443e-03 7.220367342233657837e-02 -3.350814431905746460e-02 -1.438238024711608887e-01 8.036685734987258911e-02 -3.850662335753440857e-02 2.458063364028930664e-01 -1.180489286780357361e-01 9.168650209903717041e-02 4.147760197520256042e-02 -7.610562443733215332e-02 -1.161193624138832092e-01 6.398200988769531250e-02 -2.104175090789794922e-02 1.234630271792411804e-01 1.519085168838500977e-01 1.252088844776153564e-01 -1.518364399671554565e-01 8.361219614744186401e-02 5.007917806506156921e-02 5.873980000615119934e-02 -1.247668415307998657e-01 -2.441496402025222778e-01 1.114975363016128540e-01 -9.983444958925247192e-02 -1.069509014487266541e-01 -2.834753878414630890e-02 5.522008985280990601e-02 2.750003710389137268e-02 -1.052175089716911316e-01 1.512805223464965820e-01 1.512783169746398926e-01 -1.056387787684798241e-03 1.903717406094074249e-02 6.431380659341812134e-02 7.864176481962203979e-02 4.113536328077316284e-02 1.651046723127365112e-01 -3.750624507665634155e-02 -4.251566529273986816e-02 1.058939471840858459e-01 -7.869651168584823608e-02 -1.561362389475107193e-02 4.849286004900932312e-02 8.160898089408874512e-02 -1.552380900830030441e-02 -2.173486948013305664e-01 8.267208188772201538e-02 -3.105269931256771088e-02 -7.195488363504409790e-02 2.033087015151977539e-01 7.967662066221237183e-02 -7.698598504066467285e-02 1.588081009685993195e-02 4.840159416198730469e-02 1.190834492444992065e-02 -4.676248645409941673e-04 -2.012688294053077698e-02 -9.436432272195816040e-02 2.127195149660110474e-02 7.832342386245727539e-02 -2.930456830654293299e-04 -3.179403766989707947e-02 -1.160530969500541687e-01 -2.665520459413528442e-02 3.914885222911834717e-02 -5.260322242975234985e-02 1.125422213226556778e-02 5.635076388716697693e-02 4.057870805263519287e-02 -2.947244979441165924e-02 6.978509575128555298e-02 -3.180051222443580627e-02 -2.331505343317985535e-02 1.434228271245956421e-01 2.765962779521942139e-01 -1.178949838504195213e-03 -9.862919151782989502e-02 -2.154474556446075439e-01 2.028119564056396484e-02 2.577929757535457611e-02 -1.470234245061874390e-01 1.917956918478012085e-01 -9.836267679929733276e-03 1.644367426633834839e-01 8.415022492408752441e-02 7.602512487210333347e-04 4.491474851965904236e-02 1.423904486000537872e-02 7.858283817768096924e-03 1.432944685220718384e-01 -5.210775509476661682e-02 6.270223855972290039e-02 8.021561056375503540e-02 3.540521860122680664e-02 1.162151806056499481e-02 -2.080299891531467438e-02 6.435631960630416870e-02 -5.793311074376106262e-02 -1.648173481225967407e-02 1.037050131708383560e-02 2.198329009115695953e-02 1.078588292002677917e-01 -1.596670448780059814e-01 8.280286937952041626e-02 -9.944880753755569458e-02 -8.988856524229049683e-02 6.115276366472244263e-03 5.526599474251270294e-03 2.479344420135021210e-02 6.123951449990272522e-02 5.364492163062095642e-02 7.541117072105407715e-02 -3.210689872503280640e-02 3.242855891585350037e-02 7.826096564531326294e-02 -2.915049344301223755e-02 2.068295888602733612e-02 -9.961375594139099121e-02 2.184927277266979218e-02 1.139930039644241333e-01 1.437096949666738510e-02 -1.150737702846527100e-01 4.823425039649009705e-02 -5.145112052559852600e-02 -9.186184406280517578e-02 1.015405654907226562e-01 -5.430683121085166931e-02 7.139208167791366577e-02 5.903076753020286560e-02 9.924408793449401855e-02 9.138572216033935547e-02 2.383549138903617859e-02 -6.726986914873123169e-02 -2.774184336885809898e-03 1.662225276231765747e-01 -2.116315811872482300e-02 -3.449216485023498535e-02 1.619331724941730499e-02 5.488649755716323853e-02 -6.619269400835037231e-02 -1.526453997939825058e-02 1.052531972527503967e-01 5.263841897249221802e-02 -1.209646537899971008e-01 -1.160464286804199219e-01 5.448580253869295120e-03 -3.790405765175819397e-02 9.117204695940017700e-02 3.936287388205528259e-02 -1.473756730556488037e-01 1.707623898983001709e-01 1.427586283534765244e-02 2.958786115050315857e-02 8.576920628547668457e-02 -9.012258052825927734e-02 -1.144404485821723938e-01 -4.133280366659164429e-02 8.871053159236907959e-02 7.777609676122665405e-02 7.044998556375503540e-02 -5.206717923283576965e-02 -4.351144284009933472e-02 -1.887267231941223145e-01 2.295944094657897949e-02 1.097907796502113342e-01 6.229316815733909607e-02 -2.054166607558727264e-02 1.052188947796821594e-01 -2.015573084354400635e-01 9.178508818149566650e-02
3.600304573774337769e-02 4.996714368462562561e-02 1.219520047307014465e-01 1.722404807806015015e-01 4.051065072417259216e-02 1.139439046382904053e-01 8.606608957052230835e-02 -1.532565057277679443e-02 5.267904698848724365e-02 -4.441637080162763596e-03 8.127594366669654846e-03 -2.207295782864093781e-02 -2.665865980088710785e-02 1.627701669931411743e-01 6.111653149127960205e-02 -1.185075715184211731e-01 -3.023066185414791107e-02 1.058905571699142456e-01 3.873763605952262878e-02 6.919237226247787476e-02 -9.550508111715316772e-02 -1.473280973732471466e-02 -5.853144079446792603e-02 6.328450888395309448e-02 1.973534561693668365e-02 -1.050239279866218567e-01 1.422607600688934326e-01 2.736494317650794983e-02 7.131956517696380615e-02 9.137303382158279419e-02 -6.423670053482055664e-02 1.318379957228899002e-02 -2.360632829368114471e-02 1.494906842708587646e-01 -1.413849927484989166e-02 -5.911628529429435730e-02 -8.144046366214752197e-02 -9.243382513523101807e-02 -9.097765386104583740e-02 -1.072941347956657410e-01 1.313682552427053452e-02 -7.795736193656921387e-02 9.686513245105743408e-02 -1.323593556880950928e-01 1.510569006204605103e-01 -1.469287574291229248e-01 -1.885535418987274170e-01 8.638987317681312561e-03 -1.814557611942291260e-02 -6.681859493255615234e-02 -5.067769065499305725e-02 -4.969740286469459534e-02 -1.753437682054936886e-04 -5.000401288270950317e-03 -7.326833903789520264e-02 2.687235362827777863e-03 -8.739518374204635620e-02 3.057610616087913513e-02 -4.041257873177528381e-02 6.521160155534744263e-02 -1.300487853586673737e-02 -2.248903363943099976e-01 -6.773770600557327271e-02 -1.322032660245895386e-01 -4.672234132885932922e-02 1.851459443569183350e-01 1.735213026404380798e-02 -5.694920569658279419e-02 -3.412914648652076721e-02 -3.463328629732131958e-02 8.949311077594757080e-02 1.633012890815734863e-01 8.384189754724502563e-02 5.129835009574890137e-02 4.660378396511077881e-02 1.449955347925424576e-02 -8.842906914651393890e-03 -1.913120299577713013e-01 1.061216592788696289e-01 -4.439529031515121460e-02 -1.506247650831937790e-02 2.212891587987542152e-03 -4.739130288362503052e-02 -2.302549965679645538e-02 6.270919740200042725e-02 -1.287957131862640381e-01 -1.377688749926164746e-04 1.301910728216171265e-01 7.530349493026733398e-02 2.179252542555332184e-02 -1.140025407075881958e-01 8.453636616468429565e-02 -9.132350236177444458e-02 1.790039390325546265e-01 3.364258259534835815e-02 -7.938347011804580688e-02 -4.048810806125402451e-03 -1.462087780237197876e-01 9.185279160737991333e-02 -8.355904370546340942e-02 -2.130366675555706024e-02 5.521248653531074524e-02 -2.010530419647693634e-02 -2.374844253063201904e-01 2.326833829283714294e-02 -4.841670393943786621e-02 8.798269182443618774e-02 1.459120362997055054e-01 2.314568869769573212e-02 -1.334961801767349243e-01 -4.124481230974197388e-02 1.087376922369003296e-01 2.843048237264156342e-02 1.056696102023124695e-01 9.207805991172790527e-02 4.530204087495803833e-02 -4.827338829636573792e-02 8.046208880841732025e-03 8.047538995742797852e-02 1.203321665525436401e-01 6.878706067800521851e-02 -1.487926840782165527e-01 -4.362958669662475586e-02 -1.035691946744918823e-01 -9.423345327377319336e-02 1.908137090504169464e-02 3.052339889109134674e-02 2.624730765819549561e-02 -1.051200777292251587e-01 -5.206006765365600586e-02 -3.795956447720527649e-02 -1.843569725751876831e-01 -2.415182441473007202e-02 -5.478909611701965332e-02 1.533736195415258408e-02 -3.271509334444999695e-02 3.980322217103093863e-04 -9.623807854950428009e-03 -1.646231561899185181e-01 1.409317106008529663e-01 1.023620516061782837e-01 1.746969372034072876e-01 5.262682214379310608e-02 -1.912457495927810669e-02 -5.691626667976379395e-02 -1.035379543900489807e-01 -7.842365652322769165e-02 -2.446767836809158325e-01 -2.289521694183349609e-02 5.006692558526992798e-02 -5.567216500639915466e-02 6.321884691715240479e-02 3.982136771082878113e-02 2.450629919767379761e-01 -1.676662825047969818e-02 1.321830451488494873e-01 -3.300806507468223572e-02 1.114056035876274109e-01 1.196427196264266968e-01 5.552056804299354553e-02 2.466238290071487427e-02 1.101520434021949768e-01 -6.858897209167480469e-02 1.726321280002593994e-01 -1.127743273973464966e-01 -6.257005780935287476e-02 -9.598103910684585571e-02 1.762815564870834351e-02 -6.273339688777923584e-02 -3.218830004334449768e-02 -1.974213682115077972e-02 -1.869944855570793152e-03 4.257087036967277527e-02 1.491886228322982788e-01 -5.396531894803047180e-02 -1.122509539127349854e-01 1.241377219557762146e-01 5.864184722304344177e-02 2.921377494931221008e-02 1.067232117056846619e-01 3.283302858471870422e-02 -6.046085432171821594e-02 -4.141863808035850525e-02 -1.250049215741455555e-03 7.200279831886291504e-02 -1.086087971925735474e-01 -2.989284694194793701e-02 -8.171827346086502075e-02 -8.277849107980728149e-02 -1.095885559916496277e-01 -1.154732797294855118e-02 -3.193165734410285950e-02 8.055231720209121704e-02 9.340670704841613770e-02 8.701355010271072388e-02 8.493420481681823730e-02 -7.780039310455322266e-02 1.907662451267242432e-01 -4.467022791504859924e-02 4.714522510766983032e-02 3.354961052536964417e-02 -1.969812214374542236e-01 -1.560217142105102539e-01 -1.016424074769020081e-01 1.376808881759643555e-01 -5.472863093018531799e-02 -1.024256576783955097e-03 -2.937434986233711243e-02 8.271097391843795776e-02 7.476478070020675659e-02 -5.854424461722373962e-02 8.128972724080085754e-03 -8.782107383012771606e-02 1.202123165130615234e-01 -6.099685654044151306e-02 -1.260764151811599731e-01 7.484117895364761353e-02 -1.572175174951553345e-01 5.982040241360664368e-02 8.482748270034790039e-02 -8.030068874359130859e-02 4.359587654471397400e-02 -1.490818522870540619e-02 8.319537341594696045e-02 -8.487109094858169556e-02 5.438522249460220337e-02 -1.081361547112464905e-01 -6.524810940027236938e-02 -3.243102878332138062e-02 -8.149764686822891235e-02 5.136127024888992310e-02 -1.087075695395469666e-01 -2.404396235942840576e-02 5.578386411070823669e-02 -1.153824180364608765e-01 1.176330074667930603e-01 -2.742422278970479965e-03 -9.904467314481735229e-02 2.007972151041030884e-01 -6.889351457357406616e-02 -7.176364958286285400e-02 -1.630554795265197754e-01 7.847508788108825684e-02 7.152975350618362427e-02 -9.004973690025508404e-04 4.401490464806556702e-02 -1.096229329705238342e-01 1.078030765056610107e-01 1.197836771607398987e-01 -7.155963778495788574e-02 -6.559643894433975220e-02 -2.309136837720870972e-02 -9.588664025068283081e-02 -1.270571053028106689e-01 -6.066397950053215027e-02 1.061865165829658508e-01
4.473716393113136292e-02 -9.588546305894851685e-02 1.744942665100097656e-01 -1.691403090953826904e-01 -1.239348128437995911e-01 -2.623897511512041092e-03 -2.461293786764144897e-01 7.570958137512207031e-02 -2.067826390266418457e-01 4.407515376806259155e-02 -3.691206220537424088e-03 5.481262877583503723e-02 3.151530772447586060e-02 1.210795789957046509e-01 6.412662565708160400e-02 -6.076835468411445618e-02 -1.103280112147331238e-02 -1.225902792066335678e-02 5.838494375348091125e-02 6.316354125738143921e-02 1.437866687774658203e-01 -7.263822481036186218e-03 -1.507510989904403687e-01 -9.675659984350204468e-02 -1.064862161874771118e-01 -3.202278912067413330e-02 5.831829831004142761e-02 2.028228491544723511e-01 2.369130961596965790e-02 1.006934791803359985e-01 -5.704684555530548096e-02 -1.796768307685852051e-01 3.944923356175422668e-02 -1.388868093490600586e-01 -6.582409143447875977e-02 4.842629283666610718e-02 -1.782250255346298218e-01 3.690357878804206848e-02 -9.844651818275451660e-02 -1.226191874593496323e-03 -9.623386710882186890e-02 -2.317789755761623383e-02 7.963991910219192505e-02 -9.030156768858432770e-03 -9.352751076221466064e-02 -9.558723121881484985e-02 1.707670465111732483e-02 5.855485796928405762e-02 -1.305160224437713623e-01 1.073362156748771667e-01 -8.346253633499145508e-02 4.101851582527160645e-02 -8.255478926002979279e-03 1.501517295837402344e-01 -5.728930234909057617e-02 1.339153200387954712e-01 -3.913527354598045349e-03 -5.757386237382888794e-02 1.074814982712268829e-02 -8.716087043285369873e-02 3.706187754869461060e-02 -4.606605693697929382e-02 -6.022031605243682861e-02 2.151024527847766876e-02 -1.984276622533798218e-01 -1.856638304889202118e-02 -1.550171151757240295e-02 -2.495612576603889465e-02 1.070146113634109497e-01 1.930272728204727173e-01 1.639657653868198395e-02 1.284380909055471420e-02 -2.035896778106689453e-01 -2.320960164070129395e-02 1.071625351905822754e-01 1.072380170226097107e-01 -1.854811459779739380e-01 2.055822173133492470e-03 2.193905645981431007e-03 2.816135063767433167e-03 1.151695176959037781e-01 8.032932877540588379e-02 -3.442325070500373840e-02 8.002227544784545898e-02 -1.480543985962867737e-03 7.794363796710968018e-02 1.063272058963775635e-01 -6.884779036045074463e-02 6.633816659450531006e-02 3.042557463049888611e-02 1.703130602836608887e-01 -1.055295486003160477e-02 -1.468526571989059448e-01 1.115650683641433716e-02 8.046344667673110962e-02 -3.730590268969535828e-02 -3.241167590022087097e-02 -6.164558231830596924e-02 1.063313484191894531e-01 2.888308279216289520e-02 4.728316143155097961e-02 -9.788146242499351501e-03 1.391380000859498978e-02 8.374244906008243561e-03 9.715083986520767212e-03 -1.351231336593627930e-02 5.844927579164505005e-02 1.096000969409942627e-01 5.151480063796043396e-02 1.338078677654266357e-01 2.094197571277618408e-01 3.256484121084213257e-02 -2.285750582814216614e-02 1.435741335153579712e-01 8.613857626914978027e-02 1.871950179338455200e-02 1.256699413061141968e-01 3.347774222493171692e-02 -5.287892371416091919e-02 -1.805303618311882019e-02 -1.286401897668838501e-01 -3.127753734588623047e-02 7.019232958555221558e-02 1.080396100878715515e-01 -1.451104320585727692e-02 1.895755063742399216e-03 -7.888384908437728882e-02 3.963277488946914673e-02 1.114132478833198547e-01 6.490450352430343628e-02 -5.130352824926376343e-02 2.541449107229709625e-02 -1.288729012012481689e-01 -1.031358838081359863e-01 1.982114277780056000e-03 -1.192633211612701416e-01 1.992893069982528687e-01 -2.574156410992145538e-02 3.330254461616277695e-03 -1.000827103853225708e-01 1.599652320146560669e-02 -1.852738903835415840e-03 1.133009046316146851e-01 -8.096008747816085815e-02 6.483066827058792114e-03 1.059328392148017883e-01 -6.627599149942398071e-02 -3.899414837360382080e-02 -4.871223121881484985e-02 -1.126726418733596802e-01 1.126223430037498474e-01 -7.498050108551979065e-04 -1.261504888534545898e-01 7.498763501644134521e-02 2.070727795362472534e-01 7.546962006017565727e-04 4.619694501161575317e-02 5.703283473849296570e-02 2.660163678228855133e-02 4.846583306789398193e-02 1.057189479470252991e-01 -3.645080327987670898e-02 2.517608739435672760e-02 2.787416242063045502e-02 -6.300414353609085083e-02 2.593879587948322296e-02 6.972065567970275879e-02 3.846828639507293701e-02 -6.802960485219955444e-02 1.311227530241012573e-01 2.234379760921001434e-02 -1.532103400677442551e-02 8.637772500514984131e-02 -4.638759046792984009e-02 1.999664902687072754e-01 1.504900753498077393e-01 8.871881663799285889e-02 2.339050173759460449e-02 -7.491702586412429810e-02 5.677992105484008789e-02 -1.108422875404357910e-01 6.467138975858688354e-02 -9.106817096471786499e-02 -5.465424153953790665e-03 -3.010403923690319061e-02 -1.601462811231613159e-02 -2.467317879199981689e-01 1.697359532117843628e-01 -9.814087301492691040e-03 -2.371163666248321533e-02 -3.768229484558105469e-02 1.258981525897979736e-01 1.013291329145431519e-01 9.239798784255981445e-02 8.527619764208793640e-03 6.259543448686599731e-02 1.303381770849227905e-01 -1.683003455400466919e-01 -4.402927309274673462e-02 -6.282512098550796509e-02 -4.878320172429084778e-02 -2.642098665237426758e-01 1.150287464261054993e-01 -3.075260110199451447e-02 -2.722066268324851990e-02 -9.420505166053771973e-02 -5.037176981568336487e-02 -1.135813370347023010e-01 -5.584096163511276245e-02 9.717815369367599487e-02 2.117387484759092331e-03 8.180551975965499878e-02 -3.028934076428413391e-02 -3.149474412202835083e-02 6.007537245750427246e-02 -1.360954530537128448e-02 -1.106109619140625000e-01 -2.258911915123462677e-02 7.239996455609798431e-03 -1.231025755405426025e-01 -9.595406055450439453e-02 -2.409230731427669525e-02 2.548560872673988342e-02 6.775823980569839478e-02 1.895765308290719986e-03 -9.277905523777008057e-02 8.125909417867660522e-02 -3.917397186160087585e-02 6.146359443664550781e-02 1.558522433042526245e-01 6.402716040611267090e-02 -1.794615760445594788e-03 -1.655564308166503906e-01 4.765890911221504211e-02 -3.994954749941825867e-02 1.463440656661987305e-01 7.613596320152282715e-02 -1.653448119759559631e-02 -6.519293785095214844e-02 1.497454792261123657e-01 -9.099263697862625122e-02 4.575707763433456421e-02 3.195763565599918365e-03 -1.143665462732315063e-01 -7.482618093490600586e-02 -3.913145884871482849e-02 2.464598231017589569e-02 2.323848009109497070e-02 1.095909029245376587e-01 -5.004949402064085007e-03 -8.122254908084869385e-02 1.717992424964904785e-01 -1.541001349687576294e-02 -1.450950745493173599e-02 -4.717508703470230103e-02 -5.036365240812301636e-02
5.356882512569427490e-02 2.857205271720886230e-02 4.372129216790199280e-02 6.935410667210817337e-03 1.133204065263271332e-02 4.670257121324539185e-02 7.884494960308074951e-02 5.245238915085792542e-02 1.193794608116149902e-02 8.654949814081192017e-02 -3.148733079433441162e-02 -3.229650110006332397e-02 1.067951321601867676e-01 6.352467834949493408e-02 -1.061387509107589722e-01 -6.878715474158525467e-03 2.372896112501621246e-02 1.045839395374059677e-03 -7.163704931735992432e-02 7.427421957254409790e-02 -9.826616942882537842e-02 9.537848085165023804e-02 -2.617751061916351318e-02 -9.151464700698852539e-02 -1.142183765769004822e-01 9.725047647953033447e-02 9.808201342821121216e-02 -1.093367859721183777e-01 -5.004572123289108276e-02 -8.386538177728652954e-02 -5.541881546378135681e-02 -2.198776416480541229e-02 3.300152346491813660e-02 1.044616550207138062e-01 1.221852004528045654e-01 2.103629708290100098e-02 -5.215951427817344666e-02 3.622878342866897583e-02 2.080439627170562744e-01 -1.736427694559097290e-01 -1.725822389125823975e-01 8.704211562871932983e-02 1.464625895023345947e-01 1.123359277844429016e-01 -5.441314727067947388e-02 -4.501808434724807739e-02 -1.634343154728412628e-02 -1.288112252950668335e-01 8.178236335515975952e-02 -1.319813281297683716e-01 -1.167419031262397766e-01 -8.015836030244827271e-02 4.414035752415657043e-02 -5.606092140078544617e-02 5.486942827701568604e-02 1.737418919801712036e-01 1.097942441701889038e-01 9.783696383237838745e-02 2.389543503522872925e-02 -1.325134467333555222e-02 8.580133318901062012e-03 3.122428245842456818e-02 4.407807067036628723e-02 -1.555028408765792847e-01 7.199121266603469849e-02 3.685720637440681458e-02 -4.295660927891731262e-02 -4.260759055614471436e-02 -3.905721381306648254e-02 1.194208487868309021e-01 3.667141497135162354e-02 2.347563952207565308e-02 9.712441265583038330e-02 -5.863242223858833313e-02 1.885573752224445343e-02 5.704358685761690140e-03 -8.790438063442707062e-03 -1.157208234071731567e-01 -9.766324609518051147e-02 8.797319978475570679e-02 -1.050242334604263306e-01 -3.022151626646518707e-02 -7.343728840351104736e-02 4.375509172677993774e-02 6.564418226480484009e-02 -5.474511906504631042e-02 -7.204117625951766968e-02 -6.504404544830322266e-02 -2.309028804302215576e-02 -7.274388521909713745e-02 2.045795470476150513e-01 -6.072637811303138733e-02 1.809947192668914795e-01 1.570211797952651978e-01 -7.157124578952789307e-02 1.102822348475456238e-01 -1.743564382195472717e-02 4.718416929244995117e-02 5.953915044665336609e-02 -1.713514141738414764e-02 1.672130674123764038e-01 1.082603931427001953e-01 -1.371841691434383392e-02 -7.917349785566329956e-02 1.801784522831439972e-02 1.042838692665100098e-01 3.712859004735946655e-02 9.446246922016143799e-02 -1.250239759683609009e-01 -1.512992233037948608e-01 -3.010582178831100464e-02 -1.764916181564331055e-01 -9.840781986713409424e-02 1.533357501029968262e-01 1.070389971137046814e-01 -1.831677407026290894e-01 6.724016857333481312e-04 -5.465152859687805176e-02 -3.394505940377712250e-03 -4.140214994549751282e-02 -1.521352231502532959e-01 -1.786976605653762817e-01 1.272798329591751099e-01 1.162250488996505737e-01 -2.021742016077041626e-01 1.080070529133081436e-02 -2.275454103946685791e-01 -8.323458582162857056e-02 -9.849569201469421387e-02 2.034088224172592163e-01 7.526083849370479584e-03 -2.081372141838073730e-01 1.650320142507553101e-01 7.355616986751556396e-02 1.387697551399469376e-02 -3.075303323566913605e-02 1.320917308330535889e-01 6.728591769933700562e-02 1.448775082826614380e-01 -2.655323187354952097e-04 -1.934601180255413055e-02 2.744400314986705780e-02 5.331758037209510803e-02 9.719353402033448219e-04 2.439077571034431458e-02 -5.386436358094215393e-02 1.706810109317302704e-02 4.806416481733322144e-02 -1.124028712511062622e-01 7.080215215682983398e-02 1.140108481049537659e-01 -6.665936857461929321e-02 -3.669143095612525940e-02 5.821550264954566956e-02 -1.933506131172180176e-02 -3.028515353798866272e-02 -7.115992903709411621e-02 -1.444416213780641556e-02 -2.106652222573757172e-02 3.670185431838035583e-02 -1.374535961076617241e-03 7.528595626354217529e-02 2.084530889987945557e-03 4.433897510170936584e-02 -3.469266369938850403e-02 -9.144195169210433960e-02 2.376521751284599304e-02 -4.637892544269561768e-02 2.154452539980411530e-02 -2.380977198481559753e-02 3.069469518959522247e-02 -7.630760222673416138e-02 -1.987496390938758850e-02 2.779774181544780731e-02 3.935684263706207275e-02 1.692024670774117112e-04 -1.768397092819213867e-01 3.686869144439697266e-02 1.867992579936981201e-01 1.123561263084411621e-01 6.624224036931991577e-02 3.389832004904747009e-02 3.675461933016777039e-02 -3.623435273766517639e-02 4.446129873394966125e-02 1.019771546125411987e-01 -8.481144160032272339e-02 2.798981778323650360e-02 9.801585972309112549e-02 -1.357199251651763916e-02 3.375752270221710205e-02 5.865996330976486206e-02 -1.521946042776107788e-01 3.836293891072273254e-02 -9.677423536777496338e-02 7.633644621819257736e-03 -2.633022610098123550e-03 6.489131599664688110e-02 2.687672525644302368e-02 -1.599154472351074219e-01 -4.800292477011680603e-02 5.669061467051506042e-02 4.631107300519943237e-02 1.221804544329643250e-01 -1.920446939766407013e-02 -2.637029811739921570e-02 3.864559903740882874e-02 6.039263308048248291e-02 -8.346051722764968872e-02 -2.879744395613670349e-02 1.735509335994720459e-01 4.943800717592239380e-02 -6.155528128147125244e-03 1.308555454015731812e-01 -1.400850713253021240e-01 8.278869837522506714e-02 -1.889760047197341919e-01 -1.468167826533317566e-02 1.732317209243774414e-01 1.794924400746822357e-02 1.980336755514144897e-02 -3.576081246137619019e-02 -1.039329767227172852e-01 -6.801087409257888794e-02 -1.162395346909761429e-02 -1.020079627633094788e-01 -1.065852046012878418e-01 1.088275164365768433e-01 3.734810650348663330e-02 6.306748837232589722e-02 6.225115433335304260e-02 3.388966247439384460e-02 -2.069398313760757446e-01 9.832461923360824585e-02 -2.297953367233276367e-01 1.268179565668106079e-01 1.691874712705612183e-01 -8.868236094713211060e-03 1.876712962985038757e-02 -8.100988715887069702e-02 1.999709010124206543e-01 4.001874476671218872e-02 -4.799830261617898941e-03 7.433147728443145752e-02 -1.748220250010490417e-02 1.047211140394210815e-01 4.172687605023384094e-02 -1.737613976001739502e-01 -3.249552845954895020e-02 7.420496642589569092e-02 1.033026352524757385e-02 5.543374270200729370e-02 1.006916090846061707e-01 1.522960811853408813e-01 1.177533864974975586e-01 -9.346533566713333130e-03
2.156638652086257935e-01 1.271659880876541138e-01 -1.553711742162704468e-01 1.949355751276016235e-02 1.503306329250335693e-01 6.596082448959350586e-02 -7.256150711327791214e-03 -8.971244096755981445e-02 -3.184358775615692139e-02 8.909521251916885376e-02 4.580481722950935364e-02 6.193056236952543259e-03 1.608554832637310028e-02 -3.150408342480659485e-02 -8.090709149837493896e-02 -7.376297563314437866e-02 -8.428273350000381470e-02 2.453773282468318939e-02 1.600692048668861389e-02 1.164726242423057556e-01 2.667312696576118469e-02 -1.054779067635536194e-01 -1.297372579574584961e-01 -1.694897264242172241e-01 2.174440175294876099e-01 1.782838068902492523e-02 -4.336237162351608276e-02 -1.733998209238052368e-02 4.561774805188179016e-02 7.540389429777860641e-03 5.055322125554084778e-02 -1.246451437473297119e-01 -4.970128834247589111e-02 3.279868885874748230e-02 1.146140769124031067e-01 9.629712998867034912e-02 6.732555478811264038e-02 3.463426232337951660e-02 4.127973318099975586e-02 5.970098450779914856e-02 -1.069001574069261551e-02 -3.304388141259551048e-03 1.041778773069381714e-01 6.119920313358306885e-02 -5.873690918087959290e-02 3.728407248854637146e-02 7.719805836677551270e-02 -8.716092258691787720e-02 -9.271056950092315674e-02 4.611889645457267761e-02 1.769192218780517578e-01 1.203488707542419434e-01 1.931673288345336914e-01 6.187678128480911255e-02 -1.326133608818054199e-01 -4.044474335387349129e-04 1.230919733643531799e-01 3.603185340762138367e-02 -1.471890509128570557e-01 5.586893111467361450e-02 5.665232613682746887e-02 -6.937723141163587570e-03 -1.043556183576583862e-01 1.348687261343002319e-01 -7.255020085722208023e-03 -5.800088495016098022e-02 -3.875581175088882446e-02 9.612780809402465820e-02 2.324490696191787720e-01 5.877621471881866455e-03 1.080650687217712402e-01 1.313114464282989502e-01 -3.615985810756683350e-02 1.500109583139419556e-01 1.012346819043159485e-01 1.328117251396179199e-01 1.884446144104003906e-01 -9.329942613840103149e-02 1.612767577171325684e-02 -2.375302091240882874e-02 1.270664930343627930e-01 4.588256776332855225e-02 4.642287269234657288e-02 -6.326723843812942505e-02 -2.688663452863693237e-02 -1.129686087369918823e-02 9.661936014890670776e-02 -1.107455417513847351e-01 -1.196353286504745483e-01 4.348291084170341492e-02 1.146215647459030151e-01 6.937930732965469360e-02 1.385629475116729736e-01 -1.342615038156509399e-01 -9.027719497680664062e-02 -1.320511288940906525e-02 1.440648641437292099e-02 -1.106127500534057617e-01 -2.079597115516662598e-02 -1.452248245477676392e-01 -9.131718426942825317e-02 -1.196618899703025818e-01 -5.300945416092872620e-02 1.310146301984786987e-01 3.662284836173057556e-02 -3.835662081837654114e-02 -1.237343717366456985e-02 -2.608011290431022644e-02 4.942026734352111816e-02 -4.098035395145416260e-02 1.257881708443164825e-02 -2.194883674383163452e-01 6.727337092161178589e-02 9.497302584350109100e-03 -5.130477622151374817e-02 9.724921546876430511e-03 -3.235150873661041260e-02 6.545985490083694458e-02 2.530924379825592041e-01 1.054338589310646057e-01 -7.962261885404586792e-02 -9.736150503158569336e-02 -2.015770040452480316e-02 6.474605947732925415e-02 -5.991032347083091736e-02 -4.435889795422554016e-02 5.721335485577583313e-02 9.120946377515792847e-02 5.338355898857116699e-03 1.186125427484512329e-01 -8.814020454883575439e-02 1.238043755292892456e-01 8.474487811326980591e-02 8.107264339923858643e-02 3.261091560125350952e-02 -6.565557420253753662e-02 -8.318773657083511353e-02 -1.324167195707559586e-02 -8.845521509647369385e-02 -7.436233758926391602e-02 1.544264405965805054e-01 5.121476575732231140e-02 -2.884113974869251251e-02 6.201425567269325256e-02 -3.406711854040622711e-03 7.422982156276702881e-02 2.034163475036621094e-01 -1.830028742551803589e-01 -3.343137446790933609e-03 3.878958895802497864e-02 5.376728624105453491e-02 2.299759350717067719e-02 6.991662085056304932e-02 3.824926912784576416e-03 4.580829292535781860e-02 2.392035676166415215e-03 -6.085188314318656921e-02 1.479467153549194336e-01 -1.159657686948776245e-01 -4.113463684916496277e-02 -1.730506122112274170e-01 1.917862147092819214e-01 6.551656126976013184e-02 9.185362607240676880e-02 5.454514175653457642e-02 -2.868250384926795959e-02 -2.285643666982650757e-02 -1.061438843607902527e-01 -4.319669306278228760e-02 2.430076524615287781e-02 7.537129335105419159e-03 -2.548678405582904816e-02 5.445253476500511169e-02 2.771032042801380157e-02 1.203159913420677185e-01 6.853142380714416504e-02 -1.867537349462509155e-01 -2.817413769662380219e-02 1.113198474049568176e-01 -3.433539345860481262e-02 1.495339870452880859e-01 6.805396825075149536e-02 -1.391012966632843018e-01 3.888955339789390564e-02 5.984211806207895279e-03 1.923461630940437317e-02 9.307428449392318726e-02 -8.667251467704772949e-02 1.500577386468648911e-02 -9.727700799703598022e-02 -2.507541701197624207e-02 1.305583771318197250e-02 -1.108531206846237183e-01 -1.546354740858078003e-01 1.055845841765403748e-01 7.718065381050109863e-02 -9.134662151336669922e-02 -3.598942188546061516e-03 -5.847200006246566772e-02 9.476162493228912354e-02 -1.651076972484588623e-01 -6.785454601049423218e-02 -5.380290374159812927e-02 4.302093759179115295e-02 -5.740042310208082199e-03 -1.906280405819416046e-02 7.209575176239013672e-02 -1.028904616832733154e-01 2.425427548587322235e-03 -8.254364877939224243e-02 -1.104513183236122131e-01 1.593623682856559753e-02 1.078022271394729614e-01 -1.295321993529796600e-02 2.841996960341930389e-02 7.058500498533248901e-02 -2.929514460265636444e-02 -1.223585978150367737e-01 -4.731304198503494263e-02 -6.589992344379425049e-02 1.548812687397003174e-01 4.403892438858747482e-03 7.047375291585922241e-02 2.335699088871479034e-02 -1.404050290584564209e-01 2.137225568294525146e-01 9.367966651916503906e-02 8.670347929000854492e-02 1.777800470590591431e-01 -3.291640803217887878e-02 9.877736121416091919e-02 3.822628408670425415e-02 -9.483583271503448486e-02 -1.668649539351463318e-02 1.177195087075233459e-01 8.375249803066253662e-02 7.588820997625589371e-03 -6.049940735101699829e-02 -1.027091778814792633e-02 1.116680875420570374e-01 -1.412584930658340454e-01 1.955618709325790405e-01 9.618875384330749512e-02 1.122401431202888489e-01 -4.589631687849760056e-03 4.087769612669944763e-02 1.570029109716415405e-01 1.887009665369987488e-02 -9.388598799705505371e-02 4.050116613507270813e-02 -1.382612902671098709e-02 4.524620994925498962e-02 -2.230340614914894104e-02 -1.268427670001983643e-01 -1.070459857583045959e-01 -4.908525571227073669e-02
-6.606592237949371338e-02 2.510122396051883698e-02 -1.839528828859329224e-01 -6.057904660701751709e-02 8.032061159610748291e-03 1.246929392218589783e-01 1.635983139276504517e-01 9.202221781015396118e-02 1.240368634462356567e-01 -6.158958375453948975e-02 -1.418109238147735596e-02 1.767251491546630859e-01 1.642341464757919312e-01 6.323863565921783447e-02 4.562511667609214783e-02 -6.313542276620864868e-02 6.353164464235305786e-02 4.401426017284393311e-02 4.095373302698135376e-02 7.877099514007568359e-02 -3.862672299146652222e-02 -3.643524274230003357e-02 4.502119868993759155e-02 -2.412389405071735382e-02 -7.627361267805099487e-02 8.695474267005920410e-02 1.108342856168746948e-01 -3.255945444107055664e-02 9.044082462787628174e-02 1.127469241619110107e-01 1.627323478460311890e-01 -4.411583766341209412e-03 2.618861943483352661e-02 1.094991862773895264e-01 1.839863695204257965e-02 8.788824826478958130e-02 -2.989649772644042969e-01 4.171283543109893799e-02 -1.081655025482177734e-01 2.362966164946556091e-02 5.720769613981246948e-02 -5.136574059724807739e-02 -7.946880534291267395e-03 -1.169152744114398956e-02 -7.307504862546920776e-02 4.349866881966590881e-02 5.794069916009902954e-02 1.054483726620674133e-01 9.714253828860819340e-04 3.169295564293861389e-02 1.753695607185363770e-01 -1.120568737387657166e-01 9.054837375879287720e-02 1.356043219566345215e-01 -1.586443334817886353e-01 1.053806692361831665e-01 7.307610474526882172e-03 4.380176588892936707e-02 -1.185507550835609436e-01 -1.185694988816976547e-02 -7.806415855884552002e-02 1.322783678770065308e-01 1.104319542646408081e-01 4.212054237723350525e-02 5.168983340263366699e-02 4.413646087050437927e-02 7.707004994153976440e-02 3.678339347243309021e-02 4.779708106070756912e-03 3.845548629760742188e-02 -1.552560627460479736e-01 1.043440327048301697e-01 2.329495735466480255e-02 9.838426113128662109e-02 3.371157050132751465e-01 1.074853725731372833e-02 3.376698354259133339e-03 -1.263255346566438675e-02 4.527479037642478943e-02 6.868448853492736816e-02 -1.929469853639602661e-01 -7.007069140672683716e-02 -7.285145670175552368e-02 1.365796010941267014e-02 1.241205539554357529e-02 1.067514419555664062e-01 7.529506832361221313e-02 -1.009411066770553589e-01 -1.403821110725402832e-01 1.942497305572032928e-02 3.088016808032989502e-02 -9.392978996038436890e-02 3.078910754993557930e-03 -1.080865114927291870e-01 -1.865912228822708130e-01 -1.011764928698539734e-01 3.234228119254112244e-02 2.347178310155868530e-01 -3.957633394747972488e-03 3.777208738029003143e-03 1.519513130187988281e-02 -8.527196943759918213e-03 -4.311250895261764526e-02 4.577473551034927368e-02 1.395589411258697510e-01 1.162198111414909363e-01 1.183183491230010986e-01 -4.946017637848854065e-03 4.795924294739961624e-03 8.458368480205535889e-02 3.588318359106779099e-03 1.352598220109939575e-01 -4.205652698874473572e-02 9.826516360044479370e-02 9.944333694875240326e-03 2.809858508408069611e-02 5.168314650654792786e-02 -1.493123639374971390e-02 -5.339818820357322693e-02 -1.082926522940397263e-02 1.129413321614265442e-01 -9.623945504426956177e-02 8.311948925256729126e-02 -4.085648432374000549e-02 -1.179797053337097168e-01 8.744850009679794312e-02 1.119038760662078857e-01 1.405378710478544235e-02 -4.126790538430213928e-02 5.458042770624160767e-02 8.936446160078048706e-02 -5.977012589573860168e-02 7.436427474021911621e-02 -1.731267198920249939e-02 -4.913159180432558060e-03 2.749665081501007080e-02 -1.891616918146610260e-02 -1.235063001513481140e-02 5.434108898043632507e-03 1.187998875975608826e-01 -2.827200479805469513e-02 4.555590078234672546e-02 -8.526689559221267700e-02 -1.885814033448696136e-02 -9.987469762563705444e-02 8.657734096050262451e-02 6.947471201419830322e-02 -2.793203853070735931e-02 -9.146609902381896973e-02 -5.253471434116363525e-02 4.256673902273178101e-02 8.866897225379943848e-02 -1.061229929327964783e-01 1.104956343770027161e-01 1.231647133827209473e-01 1.678601205348968506e-01 -1.179188117384910583e-02 -1.774675957858562469e-02 -1.016153022646903992e-01 -1.083587631583213806e-01 2.323947474360466003e-02 -1.245923340320587158e-01 5.614646524190902710e-02 -6.593295931816101074e-02 -1.200713217258453369e-01 -4.750518873333930969e-02 -3.869128227233886719e-02 9.883011132478713989e-02 1.441607177257537842e-01 -6.197705492377281189e-02 1.566688418388366699e-01 -1.380789577960968018e-01 -6.544730812311172485e-02 1.955302245914936066e-02 3.667832165956497192e-02 7.059907913208007812e-02 2.464083284139633179e-01 2.413615956902503967e-02 1.000286862254142761e-01 -2.141090333461761475e-01 -4.599710926413536072e-02 6.638377159833908081e-02 2.138447482138872147e-03 1.003973651677370071e-02 5.068285018205642700e-02 -6.602886319160461426e-02 7.059389259666204453e-03 -1.295793950557708740e-01 1.301018334925174713e-02 -4.617570340633392334e-02 -1.020893305540084839e-01 5.712000653147697449e-02 -9.802798740565776825e-04 5.816620588302612305e-02 1.719121485948562622e-01 -1.507047116756439209e-01 3.303574398159980774e-02 -2.350105494260787964e-01 4.881956055760383606e-02 -1.301906257867813110e-01 7.553938776254653931e-02 5.443381890654563904e-02 -7.713831216096878052e-02 1.411954523064196110e-03 3.117560595273971558e-02 -2.652194723486900330e-02 7.986924052238464355e-02 1.761563271284103394e-01 7.630895078182220459e-02 -7.647734880447387695e-02 -4.261527955532073975e-02 2.145522646605968475e-02 -1.694248802959918976e-02 7.807349413633346558e-02 1.031870394945144653e-01 -3.634335473179817200e-02 -2.714616060256958008e-02 -1.022508144378662109e-01 7.354559749364852905e-02 5.410916171967983246e-03 7.450111955404281616e-02 5.128145217895507812e-02 1.265200227499008179e-01 1.292842626571655273e-01 5.190289765596389771e-02 -2.069638669490814209e-01 -9.144341200590133667e-02 1.626005209982395172e-02 -4.620947688817977905e-02 -7.061205804347991943e-02 -4.467817395925521851e-02 -7.497155666351318359e-02 2.709790505468845367e-02 -1.775795519351959229e-01 1.578247523866593838e-03 2.904618158936500549e-02 -3.693969920277595520e-02 -8.088824152946472168e-02 -2.122184075415134430e-02 -1.312046796083450317e-01 -3.558793291449546814e-02 -1.287498231977224350e-02 3.187187388539314270e-02 3.695185109972953796e-02 -8.711675181984901428e-03 -6.241934373974800110e-02 8.601429313421249390e-02 -2.088290639221668243e-02 -6.637205928564071655e-02 2.736716866493225098e-01 -2.830877900123596191e-02 -1.182363741099834442e-02 -2.598261833190917969e-02 1.409465353935956955e-02 -7.427200209349393845e-03 3.121965937316417694e-02
-8.332364261150360107e-02 1.392176598310470581e-01 6.573862582445144653e-02 -1.335202367044985294e-03 7.920942455530166626e-02 -1.040963008999824524e-01 5.381939187645912170e-02 -9.636967629194259644e-02 -3.147679567337036133e-02 1.513170301914215088e-01 -3.751781582832336426e-02 6.955756992101669312e-02 5.674715340137481689e-02 2.520398981869220734e-02 -1.182351708412170410e-01 2.754414826631546021e-02 1.679876446723937988e-01 -1.545258611440658569e-01 -5.129146203398704529e-02 8.528833836317062378e-02 -3.725432232022285461e-02 -4.100872948765754700e-02 5.710724368691444397e-02 4.397548735141754150e-03 3.898974508047103882e-02 -7.551142573356628418e-02 5.054713785648345947e-02 1.199902668595314026e-01 -1.035592630505561829e-01 -9.715353697538375854e-02 3.230197355151176453e-02 7.362579554319381714e-02 -1.659013181924819946e-01 3.029630705714225769e-02 2.548787742853164673e-02 -3.623045980930328369e-02 6.244925782084465027e-02 3.731912747025489807e-02 2.542790770530700684e-02 -4.372533410787582397e-02 -2.893258258700370789e-02 6.116389483213424683e-02 3.164683654904365540e-02 5.589075013995170593e-02 -8.077581226825714111e-02 2.678138762712478638e-02 7.091072946786880493e-02 6.815817952156066895e-02 -8.830472826957702637e-02 4.623121395707130432e-02 3.549586981534957886e-02 -2.511806413531303406e-02 6.699580699205398560e-03 9.432562440633773804e-02 -4.813516139984130859e-02 8.702775090932846069e-02 8.912658691406250000e-02 -8.642490208148956299e-02 1.081354022026062012e-01 -1.261816471815109253e-01 -6.312610954046249390e-02 -5.431466549634933472e-02 -4.227213934063911438e-02 6.610827893018722534e-02 7.859965413808822632e-02 -7.707402110099792480e-03 -5.196288600564002991e-02 1.748341321945190430e-02 -2.042301148176193237e-01 4.677319899201393127e-02 5.949062854051589966e-02 -4.537153616547584534e-02 -6.381231360137462616e-03 -3.629311546683311462e-02 -1.060776785016059875e-01 5.381200090050697327e-02 -7.452193647623062134e-02 1.619088463485240936e-02 -4.020369425415992737e-02 -1.721765547990798950e-01 5.570611730217933655e-02 -1.400828808546066284e-01 1.432026028633117676e-01 3.522647917270660400e-02 -4.151991754770278931e-02 1.345704076811671257e-03 5.212190747261047363e-02 4.775645211338996887e-03 8.393030613660812378e-02 2.887466922402381897e-02 -2.562134899199008942e-02 3.641346096992492676e-02 -5.084927380084991455e-02 3.131296113133430481e-02 2.209589183330535889e-01 9.618072211742401123e-02 7.750388979911804199e-02 8.298660814762115479e-02 -6.762104108929634094e-03 7.900607585906982422e-02 3.652907907962799072e-02 3.940844442695379257e-03 -2.628867328166961670e-02 -3.854990750551223755e-02 -7.201144099235534668e-02 9.581802785396575928e-02 -1.753779500722885132e-02 9.782566130161285400e-02 -1.051621735095977783e-01 -3.667030110955238342e-02 -4.526991769671440125e-02 6.261361390352249146e-02 6.470166146755218506e-02 4.860446974635124207e-02 -5.655990447849035263e-03 -1.269571781158447266e-01 1.539351791143417358e-01 1.198763847351074219e-01 -6.991793215274810791e-02 -6.738078594207763672e-02 -1.483052689582109451e-02 -6.257236003875732422e-02 2.394122630357742310e-01 -7.858854532241821289e-02 -1.638112515211105347e-01 1.035578176379203796e-01 -7.971674948930740356e-02 4.209868609905242920e-02 -5.700263753533363342e-02 1.319860760122537613e-02 1.387461870908737183e-01 -1.534898485988378525e-02 6.455508619546890259e-02 6.400832533836364746e-02 7.224399596452713013e-02 -7.357013225555419922e-02 -5.871815234422683716e-02 5.266246199607849121e-02 -1.355497259646654129e-02 -1.786775290966033936e-01 -1.035074964165687561e-01 -6.642005592584609985e-02 -2.842018939554691315e-02 9.737836569547653198e-02 -2.108393236994743347e-02 -3.554740175604820251e-02 2.207433991134166718e-02 3.633327409625053406e-02 2.814081264659762383e-03 -2.765313982963562012e-01 -5.175156891345977783e-02 2.894878853112459183e-03 -3.390321740880608559e-03 1.264168471097946167e-01 -1.512728035449981689e-01 -5.112887825816869736e-03 1.163527648895978928e-02 7.788360863924026489e-02 -3.420601412653923035e-02 -3.602350130677223206e-02 -9.677696228027343750e-02 -5.779631063342094421e-02 1.272979825735092163e-01 1.293250918388366699e-01 -7.662538439035415649e-02 1.293575167655944824e-01 -6.056085973978042603e-02 1.244917064905166626e-01 9.379447251558303833e-02 1.114417463541030884e-01 6.620001047849655151e-02 -9.772189706563949585e-02 -1.060863956809043884e-01 2.522538304328918457e-01 -6.165148317813873291e-02 -1.276519894599914551e-02 4.185919091105461121e-02 -9.686910361051559448e-02 -1.209981814026832581e-01 -4.583046957850456238e-02 1.614945977926254272e-01 2.323113195598125458e-02 1.003544777631759644e-02 -5.946051701903343201e-02 -1.665055900812149048e-01 -8.422653377056121826e-02 1.897125989198684692e-01 1.287345681339502335e-02 -8.085223287343978882e-02 -2.633438445627689362e-02 -4.013125598430633545e-02 5.985881015658378601e-02 -9.504193067550659180e-02 -3.358044102787971497e-02 5.387056246399879456e-02 -2.177125066518783569e-01 8.740685135126113892e-02 -2.414499223232269287e-02 -1.028268411755561829e-01 2.802859805524349213e-02 2.445294708013534546e-02 -1.835104525089263916e-01 -4.132834076881408691e-02 -6.971579790115356445e-02 2.083857208490371704e-01 -9.526493400335311890e-02 -4.504363983869552612e-02 9.170607477426528931e-02 3.943770006299018860e-02 -1.012698188424110413e-01 4.125628620386123657e-02 5.653911456465721130e-02 -6.315259635448455811e-02 4.848858807235956192e-03 -2.036369778215885162e-02 -4.992704838514328003e-03 1.649974584579467773e-01 -2.005647271871566772e-01 -4.843364655971527100e-02 1.432887185364961624e-02 7.750312238931655884e-02 8.607179671525955200e-02 8.948549628257751465e-02 1.792588382959365845e-01 -4.184704273939132690e-02 7.657322287559509277e-02 1.088284701108932495e-01 1.419112738221883774e-02 -5.486485362052917480e-02 1.489756107330322266e-01 -3.088854625821113586e-02 -1.986602693796157837e-02 7.296797633171081543e-02 -7.338931784033775330e-03 -2.871353551745414734e-02 7.517552375793457031e-02 1.174084767699241638e-01 1.246668584644794464e-02 1.240228265523910522e-01 1.051752939820289612e-01 -2.574331359937787056e-03 -2.026525512337684631e-02 -1.121175885200500488e-01 1.094304099678993225e-01 1.049350425601005554e-01 -1.234672889113426208e-01 1.889203935861587524e-01 2.933537401258945465e-02 -1.896221190690994263e-01 -1.486635357141494751e-01 -2.453398145735263824e-02 -5.731513723731040955e-02 -4.815274477005004883e-02 1.006459072232246399e-02 7.943610846996307373e-02 -1.502837836742401123e-01
6.845671683549880981e-02 4.925999045372009277e-02 -8.460749685764312744e-02 -2.886535041034221649e-02 -1.105831563472747803e-01 2.332930266857147217e-02 -1.710411459207534790e-01 -1.607075482606887817e-01 -4.150627553462982178e-02 2.469725459814071655e-01 2.629170194268226624e-02 1.178086176514625549e-01 -3.696312010288238525e-02 -2.267609722912311554e-02 1.250000745058059692e-01 9.805498644709587097e-03 1.793321222066879272e-01 3.261331096291542053e-02 2.774702012538909912e-02 -4.551799967885017395e-02 -8.450061082839965820e-02 3.027813732624053955e-01 2.885177172720432281e-02 2.393331233179196715e-04 1.363714225590229034e-02 3.940431401133537292e-02 4.719464853405952454e-02 -7.638145238161087036e-02 -1.841188520193099976e-01 4.161531850695610046e-02 5.404186621308326721e-02 -1.112595945596694946e-01 4.297547042369842529e-02 2.288674749433994293e-02 4.195749387145042419e-02 2.994073741137981415e-02 1.916490197181701660e-01 3.676278516650199890e-02 -1.054368615150451660e-01 -9.529428184032440186e-02 -1.438480149954557419e-02 -9.319037944078445435e-02 1.145181953907012939e-01 9.573141485452651978e-02 7.178438454866409302e-02 1.669598966836929321e-01 -9.324622154235839844e-02 -4.250098764896392822e-02 -8.268444985151290894e-02 1.016848310828208923e-01 -4.975994676351547241e-02 3.885704558342695236e-03 -1.061464892700314522e-03 -8.096931129693984985e-02 1.530927419662475586e-01 -3.847009316086769104e-02 7.840158417820930481e-03 6.420481204986572266e-02 4.394493997097015381e-03 -9.962739050388336182e-02 -6.789439916610717773e-02 4.220544546842575073e-02 -6.427580863237380981e-02 3.973778709769248962e-02 1.979417353868484497e-02 7.282628118991851807e-02 4.368562716990709305e-03 -1.453484296798706055e-01 -1.157980933785438538e-01 -4.162995517253875732e-02 1.012341752648353577e-01 3.752640914171934128e-03 -6.357499957084655762e-02 -7.903240621089935303e-02 1.597575396299362183e-01 -1.600947976112365723e-02 -5.473623052239418030e-02 1.008444055914878845e-01 -6.255941838026046753e-02 -1.239768695086240768e-02 6.902972608804702759e-02 -1.375262141227722168e-01 -5.318988114595413208e-02 7.211530208587646484e-02 -5.481577292084693909e-02 -1.191182360053062439e-01 -1.558154374361038208e-01 7.324048131704330444e-02 1.391308009624481201e-01 -1.174476295709609985e-01 -5.830481275916099548e-02 -1.269514709711074829e-01 8.427185006439685822e-03 -2.456974610686302185e-02 -6.764233112335205078e-02 6.894212216138839722e-02 -6.367497146129608154e-02 5.093541368842124939e-02 -1.654723584651947021e-01 -2.286271564662456512e-02 -1.386713981628417969e-01 3.742796182632446289e-02 7.083368301391601562e-02 4.470748454332351685e-02 -4.878825321793556213e-02 -9.841579943895339966e-02 5.001774430274963379e-02 7.682017236948013306e-02 9.184417873620986938e-02 3.762634471058845520e-02 -5.330584198236465454e-02 -2.420530654489994049e-02 -2.777846157550811768e-02 -7.532262802124023438e-02 -1.642245501279830933e-01 -3.236262872815132141e-02 1.081389933824539185e-01 -3.406821191310882568e-02 1.708699949085712433e-02 4.797415062785148621e-02 -9.644779562950134277e-02 2.220951206982135773e-02 -1.928772777318954468e-01 3.977707028388977051e-02 -6.652668863534927368e-02 -2.170357480645179749e-02 3.991585597395896912e-02 8.645403385162353516e-02 -1.907901465892791748e-01 -5.562743917107582092e-02 3.554710373282432556e-02 -3.704034164547920227e-02 -3.748463094234466553e-02 -8.067237585783004761e-02 2.132380604743957520e-01 1.627264916896820068e-01 -3.627846762537956238e-02 9.109184890985488892e-02 4.279546905308961868e-03 -3.866437822580337524e-02 5.591611936688423157e-02 5.085127428174018860e-02 5.502898991107940674e-02 -1.336115449666976929e-01 3.403281047940254211e-02 6.983143091201782227e-02 1.000772565603256226e-01 1.399655938148498535e-01 1.035296469926834106e-01 1.185906901955604553e-01 4.789305478334426880e-02 2.616393938660621643e-02 -9.846139699220657349e-02 1.411228477954864502e-01 -2.446581795811653137e-02 -1.186024174094200134e-01 6.660539656877517700e-02 -1.060202866792678833e-01 -1.150858923792839050e-01 1.286834180355072021e-01 1.375115243718028069e-03 1.256406772881746292e-02 2.730716951191425323e-02 5.272875353693962097e-02 -1.230473071336746216e-02 -1.810800842940807343e-02 1.598345115780830383e-02 -6.170830130577087402e-02 7.915978878736495972e-02 1.903441399335861206e-01 -7.853032648563385010e-02 -4.960249364376068115e-02 4.573597759008407593e-02 7.503353059291839600e-02 1.620694398880004883e-01 3.892784565687179565e-02 9.275257587432861328e-02 6.990627199411392212e-02 3.327667340636253357e-02 -5.500786378979682922e-02 7.707801461219787598e-02 -7.678422145545482635e-03 -1.201105117797851562e-02 8.889723569154739380e-02 1.087975576519966125e-01 -1.057661250233650208e-01 3.917896002531051636e-02 1.436187047511339188e-02 -8.463749289512634277e-02 -6.098853796720504761e-02 -2.663853764533996582e-02 8.544959127902984619e-02 1.166188567876815796e-01 1.417399197816848755e-01 1.861057877540588379e-01 2.954899333417415619e-02 -3.114216588437557220e-02 -4.614834114909172058e-02 1.425108909606933594e-01 -9.946788661181926727e-03 3.889377415180206299e-02 1.051625609397888184e-01 1.048676786012947559e-03 2.030238360166549683e-01 1.480232328176498413e-01 -1.090229973196983337e-01 -1.126006394624710083e-01 -1.303470507264137268e-02 -2.991669811308383942e-02 -2.481156401336193085e-02 -6.673095375299453735e-02 7.877535372972488403e-02 -1.201710700988769531e-01 -2.131759934127330780e-02 -4.880584403872489929e-02 5.706161633133888245e-02 1.119582634419202805e-02 -1.161132082343101501e-01 -1.489788591861724854e-01 -1.059305388480424881e-02 4.569929093122482300e-02 1.310074031352996826e-01 -9.440226107835769653e-02 -6.356950104236602783e-02 5.821860581636428833e-02 -1.982151716947555542e-02 1.050226092338562012e-01 4.410390928387641907e-02 3.416203707456588745e-02 -4.631854221224784851e-02 -2.181494981050491333e-02 -1.327117830514907837e-01 -2.775789499282836914e-01 -9.092863649129867554e-02 -1.629085540771484375e-01 3.482675924897193909e-02 -2.043828219175338745e-01 -1.818073913455009460e-02 6.584959477186203003e-02 8.347029983997344971e-02 -2.259747125208377838e-02 -6.700763851404190063e-02 1.468966603279113770e-01 8.282396942377090454e-02 -4.078420251607894897e-02 2.265845425426959991e-02 7.026406377553939819e-02 -2.336728759109973907e-02 6.312194466590881348e-02 5.392706766724586487e-02 3.514794260263442993e-02 -7.269327528774738312e-03 -9.759843349456787109e-02 1.644183695316314697e-02 -5.356585979461669922e-02 -3.335561230778694153e-02
1.284095048904418945e-01 -1.006246507167816162e-01 5.869353562593460083e-02 3.660014271736145020e-02 4.378167167305946350e-02 4.955034330487251282e-02 -7.370021939277648926e-02 6.847218424081802368e-02 -2.392455236986279488e-03 -1.416798830032348633e-01 -1.185424998402595520e-02 2.537882030010223389e-01 2.691502869129180908e-01 -1.396268755197525024e-01 1.248889416456222534e-01 -7.186496164649724960e-03 -1.448377072811126709e-01 1.091746240854263306e-01 3.305943310260772705e-02 -4.640916362404823303e-03 -9.707345627248287201e-03 1.296575367450714111e-01 -9.932515770196914673e-02 2.769511658698320389e-03 2.268764190375804901e-02 1.754947192966938019e-02 -9.361795149743556976e-03 5.724541842937469482e-02 1.299845427274703979e-01 -5.065188556909561157e-02 5.105895176529884338e-02 -4.892869852483272552e-03 -2.308748811483383179e-01 2.541076205670833588e-02 3.080124966800212860e-02 -8.458341658115386963e-02 -8.746268227696418762e-03 1.891079843044281006e-01 -2.879967726767063141e-02 -3.401178866624832153e-02 1.223440691828727722e-01 2.370401471853256226e-01 7.553897332400083542e-03 3.326496854424476624e-02 -1.054161116480827332e-01 5.951013416051864624e-02 8.024968206882476807e-02 -4.085979983210563660e-02 -9.293947368860244751e-02 -7.486928999423980713e-02 9.535682946443557739e-02 -3.587279468774795532e-02 3.495423495769500732e-02 -6.295109540224075317e-02 -6.760760396718978882e-02 -1.718029379844665527e-02 -3.363248193636536598e-03 1.491367965936660767e-01 -1.196591481566429138e-01 6.891050189733505249e-02 2.159841125831007957e-03 2.288202568888664246e-02 -5.196996405720710754e-02 -4.948012903332710266e-02 -9.941162168979644775e-02 1.077742688357830048e-02 8.800658583641052246e-02 -1.383237168192863464e-02 5.017325282096862793e-02 -3.490707650780677795e-02 6.662365794181823730e-02 -1.326066702604293823e-01 -2.747913450002670288e-02 -1.155590042471885681e-01 6.945457309484481812e-02 -1.012706980109214783e-01 1.316162645816802979e-01 1.041046455502510071e-01 -5.036798119544982910e-02 4.643216729164123535e-02 1.439618170261383057e-01 -1.177098751068115234e-01 1.649607867002487183e-01 7.637988030910491943e-02 1.585851013660430908e-01 7.838885299861431122e-03 -1.842147260904312134e-01 1.837049797177314758e-02 6.518081575632095337e-02 2.579359151422977448e-02 -2.857615426182746887e-02 2.091798372566699982e-02 2.297979407012462616e-02 3.635879547800868750e-04 1.290218085050582886e-01 -1.444550752639770508e-01 1.041591912508010864e-01 4.971614480018615723e-02 8.717227727174758911e-02 -6.005017831921577454e-02 1.457636952400207520e-01 6.340984255075454712e-02 -1.610023081302642822e-01 9.031390771269798279e-03 4.832967184484004974e-03 9.222220629453659058e-02 -3.076094947755336761e-02 8.680794388055801392e-02 7.262216508388519287e-02 -1.730586439371109009e-01 3.174275904893875122e-02 -8.279914036393165588e-03 -2.134544774889945984e-02 -9.915450587868690491e-03 1.147127449512481689e-01 -4.055325686931610107e-02 8.423355221748352051e-02 5.986427888274192810e-02 1.309521496295928955e-01 1.219778209924697876e-01 1.443078368902206421e-02 1.895211040973663330e-01 -5.012530460953712463e-02 -8.636665344238281250e-02 1.762498356401920319e-02 1.735637779347598553e-03 -2.813664637506008148e-02 -6.769281625747680664e-02 5.336439609527587891e-02 7.326944172382354736e-02 -6.247846037149429321e-02 -1.377161145210266113e-01 3.302055224776268005e-02 -1.046161204576492310e-01 3.602545941248536110e-03 5.002775415778160095e-02 6.256621330976486206e-02 -6.672504544258117676e-02 3.242201358079910278e-02 1.260847300291061401e-01 -1.714045368134975433e-02 -5.350683629512786865e-02 1.686148792505264282e-01 3.775259107351303101e-02 1.173109561204910278e-01 -1.366167142987251282e-02 -7.436970621347427368e-02 1.010110750794410706e-01 -5.545777734369039536e-03 1.580935120582580566e-01 5.004168674349784851e-02 -3.601501137018203735e-02 1.412378530949354172e-02 -7.047330029308795929e-03 -5.210396274924278259e-02 3.700041770935058594e-02 9.709980338811874390e-03 9.012558311223983765e-02 -2.796781063079833984e-02 -2.222408801317214966e-01 8.054683357477188110e-02 -8.528936654329299927e-02 -3.540406934916973114e-03 5.438197031617164612e-02 7.946879416704177856e-02 -7.573322206735610962e-02 -1.702924445271492004e-02 -1.489715576171875000e-01 6.243537366390228271e-02 -1.334327757358551025e-01 -1.388182193040847778e-01 -4.917208850383758545e-02 1.743258833885192871e-01 -1.310498863458633423e-01 5.486591532826423645e-02 1.085885837674140930e-01 -2.709696441888809204e-02 -1.129211783409118652e-01 -8.361150324344635010e-02 1.424993481487035751e-02 -1.923271417617797852e-01 3.859949856996536255e-02 -2.807790040969848633e-02 4.409997537732124329e-02 -6.637970358133316040e-02 3.566709160804748535e-02 2.201171405613422394e-02 1.359167098999023438e-01 -4.583677276968955994e-02 -5.815592408180236816e-02 2.350316345691680908e-01 6.493116170167922974e-02 -9.493435174226760864e-02 1.827692054212093353e-02 1.665115207433700562e-01 -1.135079786181449890e-01 1.167051400989294052e-02 -7.967933267354965210e-02 -1.782836169004440308e-01 1.385469585657119751e-01 -2.618053741753101349e-02 6.422502547502517700e-02 -1.462198197841644287e-01 7.470586895942687988e-02 -8.284606039524078369e-02 1.226578373461961746e-02 5.257851630449295044e-02 1.416378021240234375e-01 4.600320756435394287e-02 -6.256895512342453003e-02 1.395922005176544189e-01 6.485629826784133911e-03 9.653190523386001587e-02 1.910278201103210449e-01 -1.108521148562431335e-01 -1.592986732721328735e-01 7.376017421483993530e-02 -4.092980548739433289e-02 5.591143667697906494e-02 -3.998318687081336975e-02 -8.269526809453964233e-02 9.203211963176727295e-02 -7.205250859260559082e-02 6.270371377468109131e-02 5.221534892916679382e-02 7.802453637123107910e-02 9.539350122213363647e-02 -1.250071357935667038e-02 -6.529240310192108154e-02 -2.623547613620758057e-02 -3.553164005279541016e-02 4.654692113399505615e-02 -9.443419054150581360e-03 -1.012919992208480835e-01 -4.109001904726028442e-02 -1.312192995101213455e-02 -6.767157465219497681e-02 -3.528656961861997843e-04 2.874315902590751648e-02 7.869589142501354218e-03 -3.194219991564750671e-02 7.890645414590835571e-02 -4.113975539803504944e-02 2.603554539382457733e-02 1.245418712496757507e-01 9.375541657209396362e-02 7.835040986537933350e-02 8.985295891761779785e-02 -1.497670561075210571e-01 -2.264851629734039307e-01 2.247739024460315704e-02 1.611690074205398560e-01 -2.380670979619026184e-02 4.183167591691017151e-02 2.003942243754863739e-02 -9.095839411020278931e-02
1.776600331068038940e-01 4.765278473496437073e-02 -1.442427840083837509e-02 -2.140806466341018677e-01 -5.844542756676673889e-02 -9.888119529932737350e-04 6.077912822365760803e-02 -2.227407507598400116e-02 -1.370197813957929611e-02 1.953014582395553589e-01 1.033244375139474869e-02 -5.432052537798881531e-02 -1.399334371089935303e-01 3.294453024864196777e-02 -1.151266042143106461e-02 -1.372371986508369446e-02 -1.828890144824981689e-01 1.381064206361770630e-01 1.737772673368453979e-01 -8.113285899162292480e-02 5.647714063525199890e-02 1.570874303579330444e-01 2.876101434230804443e-02 -9.832589887082576752e-03 3.736825287342071533e-02 -2.727448754012584686e-02 8.132628351449966431e-02 1.040117815136909485e-01 -1.254077106714248657e-01 5.432367324829101562e-02 -1.292768120765686035e-01 4.338889196515083313e-02 -1.378066255711019039e-03 -1.240163519978523254e-01 -1.481636464595794678e-01 -1.375124510377645493e-02 -2.405160292983055115e-02 7.243651151657104492e-02 7.840721309185028076e-02 -1.745830662548542023e-02 -1.862135529518127441e-02 -2.000801414251327515e-01 -1.678730696439743042e-01 1.137993037700653076e-01 -1.040601916611194611e-02 -3.169292211532592773e-02 -3.583665564656257629e-02 6.471453607082366943e-02 7.000721991062164307e-02 -3.384151309728622437e-02 6.929165124893188477e-02 2.655809558928012848e-02 -4.715880751609802246e-02 1.593365520238876343e-01 7.836452871561050415e-02 -3.267733752727508545e-02 7.223427295684814453e-02 -1.088221650570631027e-02 1.011579707264900208e-01 -4.492261633276939392e-02 -5.315390229225158691e-02 8.521126210689544678e-02 1.086783315986394882e-02 -1.289968043565750122e-01 9.438886493444442749e-02 -1.497175693511962891e-01 -5.850588530302047729e-02 -1.861264854669570923e-01 1.517200767993927002e-01 -6.188036501407623291e-02 -1.775249689817428589e-01 5.553867667913436890e-02 1.102518513798713684e-01 -7.351087778806686401e-02 -1.210586577653884888e-01 1.246555447578430176e-01 -5.224315449595451355e-02 -7.109420746564865112e-02 4.270708933472633362e-02 6.437312066555023193e-02 -4.103616811335086823e-03 -2.845414541661739349e-02 3.028102591633796692e-02 -4.835918080061674118e-03 1.049831733107566833e-01 -8.402796834707260132e-02 -1.134805083274841309e-01 -1.369388680905103683e-02 1.410091575235128403e-02 1.281147897243499756e-01 -4.481080174446105957e-02 2.060228586196899414e-01 2.074816226959228516e-01 7.106418162584304810e-02 1.809742115437984467e-02 1.017720326781272888e-01 -1.306117326021194458e-02 -1.692043431103229523e-02 -3.567904606461524963e-02 8.504734933376312256e-02 1.409667637199163437e-02 6.769481301307678223e-02 6.335120648145675659e-02 -2.612827578559517860e-03 -1.071121543645858765e-01 2.004291862249374390e-02 -1.370664220303297043e-02 6.952772289514541626e-02 -3.856778889894485474e-02 2.012094706296920776e-01 -9.878771379590034485e-03 -8.717149496078491211e-03 -1.883519999682903290e-02 3.012261912226676941e-02 4.884316027164459229e-02 -7.811541855335235596e-02 1.053889244794845581e-01 -4.366630315780639648e-02 1.799011230468750000e-01 2.248961478471755981e-02 5.490089952945709229e-02 5.004968866705894470e-02 6.059974059462547302e-02 4.388197883963584900e-02 1.326946318149566650e-01 8.654306083917617798e-02 3.103550896048545837e-02 -1.927785761654376984e-02 -8.677092939615249634e-02 -7.446644455194473267e-02 1.032573357224464417e-01 2.032966911792755127e-02 -1.364739537239074707e-01 1.792139932513237000e-02 8.079984784126281738e-02 -3.096903488039970398e-02 7.221224717795848846e-03 -7.688211742788553238e-03 9.739827364683151245e-02 8.023990690708160400e-02 5.389577522873878479e-02 -4.686006903648376465e-02 -3.335094451904296875e-02 5.350041761994361877e-02 5.711874738335609436e-02 4.276392236351966858e-02 -4.143610224127769470e-02 -1.318384408950805664e-01 4.302242770791053772e-02 3.785431757569313049e-02 9.633118659257888794e-02 1.064862087368965149e-01 -1.528859436511993408e-01 6.722813844680786133e-02 -1.912576705217361450e-02 -2.450243756175041199e-02 -8.811488002538681030e-02 8.195488154888153076e-02 -3.425696166232228279e-03 -1.683447510004043579e-01 -1.916332393884658813e-01 -5.919528007507324219e-02 -3.073700470849871635e-03 -1.098653897643089294e-01 9.649722836911678314e-03 8.568055927753448486e-02 2.756170742213726044e-02 -3.088029287755489349e-02 -4.786468669772148132e-02 -2.100514061748981476e-02 4.516158252954483032e-02 2.804615907371044159e-02 6.551565974950790405e-02 -1.262592971324920654e-01 3.244585241191089153e-04 2.487758249044418335e-01 8.171658962965011597e-02 -5.141224712133407593e-02 -5.585127696394920349e-02 -5.826292186975479126e-02 -9.177338331937789917e-02 -7.401567697525024414e-02 -1.140890941023826599e-01 9.590168483555316925e-03 7.211038470268249512e-02 -8.487602323293685913e-02 6.481255590915679932e-02 -9.184876084327697754e-02 -1.926158368587493896e-01 -1.164278015494346619e-01 -1.496900152415037155e-02 1.514529064297676086e-02 1.276010721921920776e-01 1.894723176956176758e-01 6.990071386098861694e-02 -6.817840039730072021e-02 -2.379087544977664948e-02 8.764721453189849854e-02 5.271610617637634277e-02 8.609972149133682251e-02 -7.286360953003168106e-03 2.546097384765744209e-03 -1.253367960453033447e-02 -3.275433927774429321e-02 -1.513941492885351181e-02 -3.335282951593399048e-02 -2.472345530986785889e-02 -7.857400178909301758e-02 2.620093896985054016e-02 -8.122517913579940796e-02 4.255665838718414307e-02 1.217600330710411072e-01 1.627773195505142212e-01 2.046819776296615601e-01 -2.869003824889659882e-02 1.669925078749656677e-02 -1.586540341377258301e-01 1.261299103498458862e-02 -5.119623988866806030e-02 -2.583426423370838165e-02 1.530988663434982300e-01 7.518349587917327881e-02 4.738971125334501266e-03 1.482123434543609619e-01 -2.693369612097740173e-02 3.036164343357086182e-01 1.495685521513223648e-02 7.248558104038238525e-02 6.657192111015319824e-02 8.461765199899673462e-02 7.650391757488250732e-02 9.484093636274337769e-02 3.825391829013824463e-02 1.713094413280487061e-01 -1.530701760202646255e-02 -8.167785406112670898e-02 -3.893624618649482727e-02 1.216571591794490814e-02 -1.300398558378219604e-01 -2.292850166559219360e-01 4.297680035233497620e-02 -4.387927055358886719e-02 5.452776327729225159e-02 1.323505192995071411e-01 -1.253543198108673096e-01 2.223404590040445328e-03 4.144493117928504944e-02 -1.245956122875213623e-01 -1.025768145918846130e-01 3.938101977109909058e-02 6.515105813741683960e-02 9.322340600192546844e-03 -1.453199088573455811e-01 1.252488493919372559e-01 4.390536248683929443e-02 6.443798542022705078e-02
-5.318977311253547668e-02 -1.361146420240402222e-01 -8.723915368318557739e-02 6.904609501361846924e-02 -1.061174795031547546e-01 -7.881178706884384155e-02 -7.054734975099563599e-02 1.060050502419471741e-01 7.513912767171859741e-02 1.366250365972518921e-01 1.024636849761009216e-01 -6.646370142698287964e-02 5.187065526843070984e-02 6.973078101873397827e-02 3.084756620228290558e-02 -6.089826673269271851e-02 -2.231057435274124146e-01 1.908169537782669067e-01 -6.394527852535247803e-02 3.146238997578620911e-02 2.591392584145069122e-02 -2.212903834879398346e-02 -1.543819904327392578e-01 -7.860270142555236816e-02 6.411317735910415649e-02 -7.583163678646087646e-02 1.407644804567098618e-02 -1.050857901573181152e-01 4.661721736192703247e-02 1.864101551473140717e-02 -8.182302862405776978e-02 7.023849338293075562e-02 4.211815074086189270e-02 -7.393407076597213745e-02 6.473190337419509888e-02 1.448638644069433212e-02 1.449147518724203110e-02 -1.024284139275550842e-01 1.218722201883792877e-02 -1.530762016773223877e-01 2.768484503030776978e-02 8.786102384328842163e-02 1.987416483461856842e-02 2.758318558335304260e-03 2.437079884111881256e-02 1.104858517646789551e-01 2.889534458518028259e-02 -6.544908881187438965e-02 -1.503871977329254150e-01 5.831227451562881470e-02 -5.402554944157600403e-02 6.587518006563186646e-02 8.434765785932540894e-02 -7.252117246389389038e-02 1.860871762037277222e-01 3.290978074073791504e-02 -4.417663440108299255e-02 4.451581463217735291e-02 2.917585335671901703e-02 -8.802730590105056763e-02 -2.266058512032032013e-02 1.308431327342987061e-01 -3.781106323003768921e-02 -1.123054474592208862e-01 -3.731520846486091614e-02 -1.720990613102912903e-02 6.273531168699264526e-02 2.037483900785446167e-01 -1.022583097219467163e-01 1.114238053560256958e-01 -6.777026690542697906e-03 2.302529066801071167e-01 -3.105185739696025848e-02 7.578292489051818848e-02 -1.306350082159042358e-01 1.781657040119171143e-01 -4.357286915183067322e-02 2.172635197639465332e-01 2.023144215345382690e-01 1.495510935783386230e-01 -1.526476256549358368e-02 1.631767861545085907e-02 3.155687078833580017e-02 8.114574849605560303e-02 8.652687817811965942e-02 -6.021257117390632629e-02 -8.263967186212539673e-02 1.170920953154563904e-01 4.321142099797725677e-03 2.791426144540309906e-02 1.411967128515243530e-01 -3.357262164354324341e-02 3.827256849035620689e-03 5.502087622880935669e-02 -1.803011260926723480e-02 1.076293885707855225e-01 -5.447680503129959106e-02 -6.729849427938461304e-02 1.230610162019729614e-01 -2.586598880589008331e-02 1.196021884679794312e-01 -2.591250697150826454e-03 -5.528853088617324829e-02 -5.867388099431991577e-02 -1.039565950632095337e-01 6.785593181848526001e-02 4.239413887262344360e-03 1.513331681489944458e-01 2.654707804322242737e-02 -3.396007418632507324e-02 -1.207764353603124619e-02 3.212489932775497437e-02 2.223092503845691681e-02 5.826873332262039185e-02 -1.106985956430435181e-01 -1.160973832011222839e-01 -1.381476521492004395e-01 5.293752998113632202e-02 1.227078959345817566e-01 2.383208423852920532e-01 6.153690442442893982e-02 4.657282680273056030e-02 2.833696641027927399e-02 -1.146001368761062622e-01 3.856916353106498718e-02 8.107710629701614380e-02 1.536756753921508789e-03 -8.946233987808227539e-02 -1.776000112295150757e-01 -5.006780847907066345e-03 -6.796752661466598511e-02 1.681850850582122803e-01 1.594218164682388306e-01 1.678342223167419434e-01 -8.473572880029678345e-02 -1.130312494933605194e-02 -1.137770861387252808e-01 7.122476398944854736e-02 1.001214608550071716e-01 2.339886501431465149e-02 7.314031571149826050e-02 -9.455750137567520142e-02 -1.309346705675125122e-01 -3.251315653324127197e-02 1.593672931194305420e-01 6.651576608419418335e-02 5.648272857069969177e-02 7.831178605556488037e-02 1.338321566581726074e-01 -1.276345998048782349e-01 3.461557626724243164e-02 -5.959923565387725830e-02 -1.229903548955917358e-01 6.531668454408645630e-02 9.771276265382766724e-02 -1.570488512516021729e-01 1.305064111948013306e-01 -8.984315395355224609e-02 6.855072081089019775e-02 -1.291490495204925537e-01 1.324748992919921875e-02 5.410858616232872009e-02 -2.355030551552772522e-02 1.558932512998580933e-01 7.030653208494186401e-02 1.115038394927978516e-01 -2.191527001559734344e-02 6.028888747096061707e-02 -1.895347237586975098e-02 -2.571235410869121552e-02 7.052437216043472290e-02 -6.430219858884811401e-02 1.304168161004781723e-02 9.220461547374725342e-02 2.783330716192722321e-02 8.072005957365036011e-02 3.675411641597747803e-02 6.562171876430511475e-02 4.033247008919715881e-02 -8.376428857445716858e-03 5.108981579542160034e-02 -1.912739574909210205e-01 -9.778446704149246216e-02 1.226285025477409363e-01 -1.735731773078441620e-02 -4.636722058057785034e-02 7.817252725362777710e-02 1.019924953579902649e-01 3.003295138478279114e-02 -9.086251258850097656e-02 -9.797753393650054932e-02 -2.157134190201759338e-02 -2.318422868847846985e-02 -4.093024879693984985e-03 -7.227504998445510864e-02 -1.560694426298141479e-01 -1.464018076658248901e-01 -6.101544201374053955e-02 -4.117770865559577942e-02 7.525853812694549561e-02 6.881188601255416870e-02 -1.353244930505752563e-01 -8.254152536392211914e-02 7.857125997543334961e-02 1.028296574950218201e-01 2.029435485601425171e-01 4.509817063808441162e-02 1.377963870763778687e-01 5.426289513707160950e-02 1.181988567113876343e-01 8.769700676202774048e-02 -7.336081564426422119e-02 5.555639415979385376e-02 -1.190602406859397888e-01 1.204382851719856262e-01 2.520603593438863754e-03 8.622150123119354248e-02 2.012189179658889771e-01 5.198551341891288757e-02 -1.141333431005477905e-01 1.695489436388015747e-01 5.668026860803365707e-04 -6.847639381885528564e-02 6.713005900382995605e-02 1.489005610346794128e-02 -2.001879215240478516e-01 9.440532885491847992e-04 -4.826149344444274902e-02 -4.017209634184837341e-02 2.513452805578708649e-02 4.122920334339141846e-02 -1.853752136230468750e-02 1.277362369000911713e-02 -8.367166668176651001e-02 2.651444822549819946e-02 1.986800879240036011e-02 7.681889086961746216e-02 -6.337986886501312256e-02 -7.262784242630004883e-02 -3.486310690641403198e-02 -1.222803071141242981e-01 -1.086049452424049377e-01 -2.193282917141914368e-02 -3.993854299187660217e-02 -2.764088101685047150e-02 -1.498861983418464661e-02 -1.391243189573287964e-01 6.015188619494438171e-02 2.010682038962841034e-02 2.196394372731447220e-03 -1.026698127388954163e-01 6.010272353887557983e-02 -4.816035181283950806e-02 4.265380278229713440e-02 -5.230512842535972595e-02 -1.881073229014873505e-02
-1.309770792722702026e-01 6.533358991146087646e-02 -6.360310316085815430e-02 -1.569166779518127441e-02 -4.333410412073135376e-02 -1.371231377124786377e-01 -5.596116650849580765e-03 8.481587469577789307e-02 -9.342773258686065674e-02 -1.183912530541419983e-02 2.716686762869358063e-02 2.466449514031410217e-03 -4.208093509078025818e-03 1.210852619260549545e-02 -6.479367613792419434e-02 -3.433237969875335693e-02 -3.069725073873996735e-02 5.372837185859680176e-02 2.341372333467006683e-02 -2.830257080495357513e-02 4.221907816827297211e-03 1.375792771577835083e-01 -7.093545049428939819e-02 1.661196947097778320e-01 -1.037300825119018555e-01 -7.114367093890905380e-03 -1.605731807649135590e-02 -2.837693504989147186e-02 4.719492048025131226e-02 1.104058772325515747e-01 -9.370511770248413086e-02 1.206182911992073059e-01 -7.996783405542373657e-02 -4.887589439749717712e-02 -1.079951822757720947e-01 7.957416772842407227e-02 -2.893043495714664459e-02 1.434333901852369308e-02 4.801088199019432068e-02 8.475215733051300049e-02 -3.930501989088952541e-04 6.870821863412857056e-02 -6.862662732601165771e-02 -1.797312647104263306e-01 6.683365441858768463e-03 -1.037142723798751831e-01 -2.201005443930625916e-02 1.031396538019180298e-01 6.494779884815216064e-02 -3.911317139863967896e-02 3.941697254776954651e-02 -1.021223049610853195e-02 -4.043049365282058716e-02 -9.217537939548492432e-02 8.728495985269546509e-02 1.220924705266952515e-01 4.301800206303596497e-02 -6.376329064369201660e-02 -5.816589295864105225e-02 -4.702438041567802429e-02 -7.787288725376129150e-02 2.801490761339664459e-02 -3.709566965699195862e-02 9.005094319581985474e-02 6.725755985826253891e-03 1.519998013973236084e-01 4.752198874484747648e-04 1.235931217670440674e-01 7.767322659492492676e-02 2.513876259326934814e-01 1.451311856508255005e-01 2.325619198381900787e-02 -1.058781519532203674e-01 9.609762579202651978e-03 -4.184359684586524963e-02 7.165250182151794434e-02 1.145670842379331589e-02 2.783304452896118164e-02 4.552315920591354370e-02 -1.243246421217918396e-01 1.358063668012619019e-01 -2.187096476554870605e-01 4.307202249765396118e-02 5.748298764228820801e-02 -2.454557642340660095e-02 -1.311210542917251587e-02 -1.320514827966690063e-01 -1.262969896197319031e-02 3.436226025223731995e-02 -1.113670878112316132e-03 -2.167813852429389954e-02 7.663907017558813095e-03 -1.084863990545272827e-01 -2.993778558447957039e-03 -3.183772787451744080e-02 -4.460470378398895264e-02 4.048905521631240845e-02 -8.037639409303665161e-02 -1.667668223381042480e-01 1.617867499589920044e-01 1.502179652452468872e-01 -2.355692684650421143e-01 2.343218959867954254e-02 -6.485470384359359741e-02 2.368728397414088249e-03 1.812547631561756134e-02 1.169212460517883301e-01 -4.267888143658638000e-03 2.273470759391784668e-01 -9.002209454774856567e-02 -3.058528900146484375e-02 2.785123586654663086e-01 -8.511227369308471680e-02 -1.260949857532978058e-02 3.538806736469268799e-02 3.191180527210235596e-02 3.146405145525932312e-02 1.942226588726043701e-01 3.850378096103668213e-02 1.043155193328857422e-01 6.736285984516143799e-03 -7.408009469509124756e-02 1.318022049963474274e-02 1.790531165897846222e-02 -5.453493073582649231e-02 -3.037014277651906013e-03 1.127076968550682068e-01 1.483035981655120850e-01 2.875845134258270264e-02 1.450586915016174316e-01 -3.256049752235412598e-02 -7.335439324378967285e-02 8.737051486968994141e-02 9.949529170989990234e-02 1.404892206192016602e-01 2.871948666870594025e-02 8.413591235876083374e-02 -6.798904389142990112e-02 -3.763625631108880043e-03 -1.735114455223083496e-01 -4.582478106021881104e-02 -3.013328090310096741e-02 4.455384612083435059e-02 8.170964568853378296e-02 1.060409694910049438e-01 2.056770026683807373e-02 -5.978288128972053528e-02 -9.501251578330993652e-02 5.173663049936294556e-02 1.174934953451156616e-01 -2.409881725907325745e-02 -1.394680049270391464e-02 -6.878501921892166138e-02 -4.672227799892425537e-02 4.021437093615531921e-02 4.320441931486129761e-02 -3.135900944471359253e-02 5.216034501791000366e-02 6.670293956995010376e-02 -9.301328659057617188e-02 -8.820298314094543457e-02 -4.056978505104780197e-03 1.437641121447086334e-02 -7.001099735498428345e-02 -8.399698138236999512e-02 -4.496567696332931519e-02 3.679852187633514404e-02 1.582712680101394653e-01 -7.320425473153591156e-03 8.397783339023590088e-02 4.553869366645812988e-02 -1.198009401559829712e-01 7.829835265874862671e-02 2.463362365961074829e-02 7.468238472938537598e-02 -2.685351856052875519e-02 -1.702044904232025146e-01 -8.570278063416481018e-03 2.581346631050109863e-01 -5.771736800670623779e-02 -4.524938762187957764e-03 -6.931123207323253155e-04 2.331464141607284546e-01 1.098074987530708313e-01 1.272359341382980347e-01 2.436403185129165649e-02 -1.477156393229961395e-02 6.717069447040557861e-02 -6.788943707942962646e-02 5.861837044358253479e-02 1.733228005468845367e-02 -1.220258623361587524e-01 -5.042424425482749939e-02 1.599671095609664917e-01 -6.181114539504051208e-02 1.517577469348907471e-01 -9.422084689140319824e-02 -3.123475611209869385e-02 -5.007424950599670410e-02 2.413199841976165771e-02 -5.788006633520126343e-02 1.322923749685287476e-01 -1.013433188199996948e-01 -9.362279623746871948e-02 4.135037586092948914e-02 1.007419228553771973e-01 -1.803741455078125000e-01 -5.968535318970680237e-03 -2.909686416387557983e-02 2.605217508971691132e-02 1.116270944476127625e-01 -6.305834650993347168e-02 1.599910110235214233e-01 9.463876485824584961e-02 -6.662930548191070557e-02 1.043665558099746704e-01 2.514231391251087189e-02 -1.698090583086013794e-01 -2.056028228253126144e-03 1.789823919534683228e-01 1.181715577840805054e-01 7.689323276281356812e-02 1.109262779355049133e-01 -1.131702447310090065e-03 6.315420567989349365e-02 1.292431056499481201e-01 -4.283255897462368011e-03 -1.762615330517292023e-02 1.411026269197463989e-01 9.133353084325790405e-02 4.646775126457214355e-02 5.729669705033302307e-03 -5.070417001843452454e-02 -5.879124253988265991e-02 1.746388077735900879e-01 -9.371653199195861816e-02 2.210264466702938080e-02 7.685266435146331787e-02 -1.438087821006774902e-01 7.883129268884658813e-02 1.347601711750030518e-01 -1.633891277015209198e-02 -2.100683934986591339e-02 -1.298494753427803516e-03 5.493462085723876953e-02 1.874848008155822754e-01 -8.815423399209976196e-02 -1.119493246078491211e-01 6.213649734854698181e-02 7.212661206722259521e-02 -7.329742610454559326e-02 -2.036063373088836670e-01 -6.474048644304275513e-02 3.047941252589225769e-02 1.280817948281764984e-02 -3.448971360921859741e-02
