-1.778079569339752197e-02 -1.713499724864959717e-01 -1.455907970666885376e-01 -7.617263495922088623e-02 -1.618098281323909760e-02 -1.756671816110610962e-02 -7.750356569886207581e-03 1.627178937196731567e-01 1.461626868695020676e-02 1.531817317008972168e-01 -3.395979478955268860e-02 3.628874942660331726e-02 3.212529793381690979e-02 -3.889361396431922913e-02 -9.796275198459625244e-02 -1.341187804937362671e-01 -3.945064917206764221e-02 -2.380734495818614960e-02 -2.584562003612518311e-01 3.879758715629577637e-02 -2.883862145245075226e-02 7.065353542566299438e-02 -3.030258119106292725e-01 7.742115855216979980e-02 2.385249733924865723e-02 -3.916670382022857666e-01 3.348481953144073486e-01 -8.841664344072341919e-02 5.199760198593139648e-02 7.815489172935485840e-02 6.430505961179733276e-02 -7.593782246112823486e-02 -8.733776211738586426e-02 4.741510748863220215e-02 -1.013442315161228180e-02 -5.035240948200225830e-02 -1.673863977193832397e-01 7.746394723653793335e-02 7.709247618913650513e-02 1.323712617158889771e-01 2.728641033172607422e-01 3.742615506052970886e-02 4.014118015766143799e-02 -5.903166718780994415e-03 4.154106602072715759e-03 7.697094976902008057e-02 -3.667627274990081787e-01 5.420169234275817871e-02 -3.607858344912528992e-02 -2.041277140378952026e-01 1.205297335982322693e-01 -7.146656513214111328e-02 9.782542288303375244e-02 -8.210968226194381714e-03 -1.586422920227050781e-01 -2.297800481319427490e-01 2.568933926522731781e-02 1.551558524370193481e-01 -4.635298624634742737e-02 6.492057442665100098e-02 5.958972126245498657e-02 -5.308270454406738281e-01 -5.064928159117698669e-02 -2.174184322357177734e-01 4.841913469135761261e-03 -5.602042656391859055e-03 1.036963909864425659e-01 -1.118936692364513874e-03 -4.229784607887268066e-01 8.183193206787109375e-02 -2.410015910863876343e-01 -1.137207001447677612e-01 -1.333026438951492310e-01 -3.152451664209365845e-02 -4.454339668154716492e-02 -2.739775180816650391e-01 5.469279736280441284e-02 5.780521035194396973e-02 8.365582674741744995e-02 2.430960536003112793e-02 4.404704272747039795e-02 -1.318688690662384033e-01 9.386890567839145660e-03 1.830978244543075562e-01 -9.591838717460632324e-02 5.703051015734672546e-02 -8.140320330858230591e-02 9.023288637399673462e-02 3.880986571311950684e-02 -2.955412492156028748e-02 -2.142466418445110321e-02 7.186665199697017670e-03 1.345017105340957642e-01 9.885768592357635498e-02 -6.447851657867431641e-01 -3.895720094442367554e-02 -3.433796763420104980e-01 1.598207503557205200e-01 -1.145245358347892761e-01 9.597780555486679077e-02 4.848902300000190735e-02 1.940395385026931763e-01 -3.508724272251129150e-02 1.575865149497985840e-01 -1.441050469875335693e-01 -9.502793103456497192e-02 1.754551380872726440e-01 8.950176090002059937e-02 4.312979429960250854e-02 1.202411279082298279e-01 1.710330992937088013e-01 -3.162584453821182251e-02 -2.815642952919006348e-02 -2.167572081089019775e-01 -5.079627409577369690e-02 -3.907929062843322754e-01 1.624878644943237305e-01 7.096024230122566223e-03 -4.788707941770553589e-02 1.329730357974767685e-02 -5.880858376622200012e-02 2.475900053977966309e-01 -9.396397322416305542e-02 -1.989624500274658203e-01 1.468250155448913574e-01 -7.483994960784912109e-02 9.966426342725753784e-02 -1.020460277795791626e-01 6.553262472152709961e-02 4.698992148041725159e-02 -3.377019986510276794e-02 -1.470689922571182251e-01 2.335136681795120239e-01 7.428291440010070801e-02 8.272932469844818115e-02 6.213577836751937866e-02 -8.343473076820373535e-02 3.630800917744636536e-02 2.259027063846588135e-01 3.501912206411361694e-02 -5.130909010767936707e-02 -7.877937704324722290e-02 5.693731829524040222e-03 1.682074368000030518e-01 1.031108498573303223e-01 -1.271014660596847534e-01 1.562306135892868042e-01 4.201954975724220276e-02 1.983180344104766846e-01 -9.656035900115966797e-02 2.235911414027214050e-02 -6.698878109455108643e-02 -3.563832864165306091e-02 -3.075139783322811127e-02 -1.335625499486923218e-01 -2.461731880903244019e-01 1.451919078826904297e-01 1.832764446735382080e-01 1.310739070177078247e-01 -1.337918192148208618e-01 -2.543556503951549530e-02 8.459830284118652344e-02 -8.974138647317886353e-02 -1.727040112018585205e-02 -2.806909196078777313e-02 1.511928439140319824e-01 7.297983765602111816e-02 1.090304404497146606e-01 -8.122927695512771606e-02 -5.520068407058715820e-01 1.392825692892074585e-01 6.028238683938980103e-02 7.665932178497314453e-02 1.872367225587368011e-02 -1.517246663570404053e-01 -1.900064051151275635e-01 2.502234652638435364e-02 1.927867531776428223e-01 1.789519935846328735e-01 -1.412284225225448608e-01 1.204166561365127563e-01 -1.298182010650634766e-01 -1.807786971330642700e-01 -8.699518442153930664e-02 -3.192784488201141357e-01 9.396500885486602783e-02 -1.064770370721817017e-01 7.060818374156951904e-02 -5.569984018802642822e-02 4.602995887398719788e-02 3.897261247038841248e-02 -7.953953742980957031e-02 1.462923884391784668e-01 -5.890918374061584473e-01 -1.348551362752914429e-01 2.796642109751701355e-02 1.374001055955886841e-01 -8.815798163414001465e-01 1.037452667951583862e-01 1.230409368872642517e-01 -5.394924059510231018e-02 -1.028548628091812134e-01 -1.994205079972743988e-02 -7.259885221719741821e-02 3.073285706341266632e-02 1.993683353066444397e-02 -1.153747923672199249e-02 -6.968596577644348145e-02 1.099335104227066040e-01 -1.732767745852470398e-02 -1.409856528043746948e-01 2.782054804265499115e-02 -3.028380218893289566e-03 1.969943046569824219e-01 9.904209524393081665e-02 -2.560102380812168121e-02 7.637750823050737381e-03 2.129215300083160400e-01 9.406317770481109619e-02 -2.317725121974945068e-01 1.534226834774017334e-01 -1.554470509290695190e-01 1.885418780148029327e-02 2.849905937910079956e-02 3.662320598959922791e-02 -1.291928291320800781e-01 8.590750396251678467e-02 9.671867638826370239e-02 -7.799742370843887329e-02 4.789495095610618591e-02 -1.348689496517181396e-01 4.192386567592620850e-02 8.087179809808731079e-02 -2.612832374870777130e-02 5.376340821385383606e-02 -3.250536695122718811e-02 3.495226800441741943e-02 2.184015884995460510e-02 3.738038986921310425e-02 -9.358522295951843262e-02 -1.717148125171661377e-01 2.524947188794612885e-02 4.399182647466659546e-02 2.069463022053241730e-02 -1.212772820144891739e-02 -9.623391926288604736e-02 -7.985864579677581787e-02 -3.328991234302520752e-01 -9.790732525289058685e-03 -1.509592235088348389e-01 6.690152455121278763e-03 1.468952596187591553e-01 8.829070627689361572e-02 -3.516526520252227783e-02 1.595023125410079956e-01 7.528250664472579956e-02
3.378878161311149597e-02 8.734229952096939087e-02 -4.969286918640136719e-02 2.110524624586105347e-01 1.387771964073181152e-01 -6.518406420946121216e-02 -1.458363980054855347e-01 -3.654637932777404785e-02 9.890834242105484009e-02 1.025017648935317993e-01 -1.975118219852447510e-01 -1.316567976027727127e-02 -1.189034432172775269e-01 7.638476788997650146e-02 1.310313493013381958e-01 8.048969320952892303e-03 -5.854482576251029968e-02 -7.803823333233594894e-03 -2.133795917034149170e-01 5.172415450215339661e-02 -7.052468508481979370e-02 6.014155596494674683e-02 -1.656535416841506958e-01 2.203103713691234589e-02 4.550064355134963989e-02 -2.265786528587341309e-01 -3.132067322731018066e-01 2.965366281569004059e-02 -1.805303245782852173e-01 8.320972323417663574e-02 -1.889905035495758057e-01 1.194191798567771912e-01 -5.122715607285499573e-03 -9.908979386091232300e-02 -4.459758475422859192e-02 -6.850303150713443756e-03 -6.475094705820083618e-02 -9.883782826364040375e-03 -1.384003274142742157e-02 2.332834340631961823e-02 -3.559051454067230225e-02 -1.414045970886945724e-02 7.345098257064819336e-02 2.505798637866973877e-02 -5.168019607663154602e-02 -6.366348266601562500e-02 -2.498288303613662720e-01 3.195692226290702820e-02 -1.015059929341077805e-02 5.360870063304901123e-02 4.432700946927070618e-02 2.363392859697341919e-01 4.219374805688858032e-02 1.284329295158386230e-01 2.346996776759624481e-02 -2.278665266931056976e-02 5.991764739155769348e-02 -3.825172036886215210e-02 -1.779356226325035095e-02 -6.711971014738082886e-02 -9.774520248174667358e-02 1.947811245918273926e-02 1.329048443585634232e-02 1.091286092996597290e-01 9.320511668920516968e-02 4.499249160289764404e-02 4.653928428888320923e-02 6.576598971150815487e-04 -1.035352572798728943e-01 -2.146199643611907959e-01 -3.987963870167732239e-02 1.176184415817260742e-01 1.199100315570831299e-01 1.284197717905044556e-01 -4.404876232147216797e-01 -3.564527258276939392e-02 -1.547389328479766846e-01 1.075686812400817871e-01 -3.019022522494196892e-03 8.424025028944015503e-02 -8.194063603878021240e-02 -1.364143844693899155e-02 -9.080339223146438599e-02 6.382049468811601400e-05 -9.723254479467868805e-03 1.310785710811614990e-01 1.246433006599545479e-03 1.612198799848556519e-01 -9.600917249917984009e-02 -1.817727461457252502e-02 1.394556164741516113e-01 -6.658510118722915649e-02 -4.855496436357498169e-02 -8.145263791084289551e-02 -5.722582936286926270e-01 2.572965025901794434e-01 -3.430320322513580322e-01 7.648540288209915161e-02 -5.877235159277915955e-02 -4.039132222533226013e-02 6.855046004056930542e-02 -1.296901237219572067e-02 2.773102186620235443e-02 -1.291993856430053711e-01 1.237176284193992615e-01 6.475064903497695923e-02 -2.281708642840385437e-02 5.302824079990386963e-02 1.224982067942619324e-01 1.627358235418796539e-02 -1.559569537639617920e-01 1.710657146759331226e-03 -2.095034345984458923e-02 -1.647451668977737427e-01 9.930499829351902008e-03 -1.747564040124416351e-02 -8.374215662479400635e-02 4.543552175164222717e-03 -3.530028089880943298e-02 -1.895230263471603394e-01 1.924220658838748932e-02 -3.184428811073303223e-01 7.087473571300506592e-02 -1.108846664428710938e-01 -3.436203673481941223e-02 -9.245581179857254028e-02 5.802770704030990601e-02 -8.313906379044055939e-03 -3.147105127573013306e-02 -1.492055952548980713e-01 1.266155838966369629e-01 -5.916384235024452209e-02 1.313779056072235107e-01 2.260554023087024689e-02 2.507356107234954834e-01 -1.318260878324508667e-01 -3.159442171454429626e-02 8.865930885076522827e-02 1.052885409444570541e-02 -2.287237159907817841e-02 -2.197629027068614960e-02 -1.190839186310768127e-01 4.470622912049293518e-02 1.765318214893341064e-01 4.787191748619079590e-02 -4.361741244792938232e-01 -1.300943344831466675e-01 -6.668434292078018188e-02 3.303464129567146301e-02 4.209242388606071472e-02 2.503615617752075195e-02 -9.153681993484497070e-02 5.591816827654838562e-02 -7.788262329995632172e-03 -1.160618811845779419e-01 1.873251795768737793e-02 1.608656533062458038e-02 4.040716961026191711e-02 -8.167633414268493652e-02 2.155777998268604279e-02 -2.241207472980022430e-02 -4.715884849429130554e-02 -2.029147893190383911e-01 -5.265389755368232727e-02 7.568194717168807983e-02 -1.141481027007102966e-01 8.696610108017921448e-03 8.843451738357543945e-02 -8.685589767992496490e-03 -2.011554986238479614e-01 -2.538045942783355713e-01 1.226455718278884888e-02 5.487343668937683105e-02 -1.398959159851074219e-01 -1.436515003442764282e-01 -4.528293386101722717e-02 2.757444744929671288e-03 -3.258678913116455078e-01 1.356442570686340332e-01 -5.955725535750389099e-02 1.783665269613265991e-01 -1.373444031924009323e-02 -8.088297396898269653e-02 1.028809789568185806e-02 -9.409277699887752533e-03 -9.632294625043869019e-02 -7.723495364189147949e-02 9.026009589433670044e-02 6.273527443408966064e-02 6.376703083515167236e-02 -2.988475188612937927e-02 2.658126316964626312e-02 8.695100992918014526e-02 -3.866957426071166992e-01 1.240202486515045166e-01 2.088155411183834076e-02 1.045071557164192200e-01 -4.547029733657836914e-01 1.454164623282849789e-03 -1.214885618537664413e-02 -2.283304557204246521e-02 1.958376169204711914e-02 -3.778956085443496704e-02 -2.513425424695014954e-02 1.561618894338607788e-01 1.264475882053375244e-01 -6.651962548494338989e-02 4.337208345532417297e-02 7.654172182083129883e-02 -9.013535827398300171e-02 -2.337428480386734009e-01 -1.126537322998046875e-01 -1.227565109729766846e-01 5.308490991592407227e-02 5.988788232207298279e-02 2.150149270892143250e-02 4.432808607816696167e-02 -5.876750685274600983e-03 1.685455441474914551e-02 4.161964356899261475e-02 2.307704389095306396e-01 -4.388577044010162354e-01 1.372485142201185226e-02 -7.611989229917526245e-02 -2.069646865129470825e-01 4.458758980035781860e-02 1.486404091119766235e-01 -8.952692151069641113e-02 -1.729440391063690186e-01 8.584108948707580566e-02 -1.184298172593116760e-01 -1.448284368962049484e-03 1.828227043151855469e-01 -3.477192670106887817e-02 -1.479167677462100983e-02 -4.697849974036216736e-02 3.775900229811668396e-02 -4.656663164496421814e-02 -1.177044119685888290e-02 -1.142153292894363403e-01 -9.699112176895141602e-02 -1.686701923608779907e-01 3.877422213554382324e-02 6.407559663057327271e-02 6.765612959861755371e-02 1.453824639320373535e-01 -1.114619337022304535e-02 -6.809215992689132690e-02 1.486134976148605347e-01 2.223476069048047066e-03 -7.604169845581054688e-02 -5.562163144350051880e-02 5.429820716381072998e-02 -8.732740581035614014e-02 -4.581753537058830261e-02 5.755702033638954163e-02
1.600299403071403503e-02 1.613457202911376953e-01 -5.820751562714576721e-02 2.713190019130706787e-02 -2.318752184510231018e-02 8.733117580413818359e-02 1.365744769573211670e-01 -6.579599529504776001e-02 2.111818194389343262e-01 9.542077034711837769e-02 -2.890528738498687744e-01 -5.767979472875595093e-02 8.481258153915405273e-02 -4.280744865536689758e-02 1.321684569120407104e-01 5.695166811347007751e-02 7.646072655916213989e-02 1.186015084385871887e-02 -2.301527708768844604e-01 9.778444468975067139e-02 -7.997380942106246948e-02 7.888810336589813232e-02 -7.248335331678390503e-02 1.953170448541641235e-01 1.159516721963882446e-01 5.558684002608060837e-03 -2.926954329013824463e-01 -2.114651352167129517e-02 9.067783504724502563e-02 7.271701842546463013e-02 5.474302172660827637e-02 1.738871447741985321e-02 -5.310153588652610779e-02 -1.112957373261451721e-01 1.210729964077472687e-02 -9.859902411699295044e-02 1.230783239006996155e-01 2.259807437658309937e-01 -1.322682797908782959e-01 5.017813295125961304e-02 5.415086075663566589e-02 1.182979494333267212e-01 -8.760737627744674683e-02 -1.255401968955993652e-01 -2.594857849180698395e-02 -9.904015809297561646e-02 -1.704112291336059570e-01 1.618835143744945526e-02 1.487439274787902832e-01 4.346191883087158203e-02 9.121360629796981812e-02 1.190424337983131409e-01 -1.571609973907470703e-01 1.008934676647186279e-01 -1.405173540115356445e-01 2.576974965631961823e-02 1.459056278690695763e-03 -4.553844034671783447e-02 2.663032524287700653e-02 -1.433206051588058472e-01 1.594436913728713989e-01 -1.812093853950500488e-01 -2.091335654258728027e-01 3.606035187840461731e-02 1.380748301744461060e-01 -3.018896467983722687e-02 2.663240768015384674e-02 1.234656423330307007e-01 -4.720994830131530762e-01 1.116521507501602173e-01 1.125143766403198242e-01 -1.945794001221656799e-02 5.017729848623275757e-02 1.064501777291297913e-01 -1.879839152097702026e-01 2.931137569248676300e-02 -2.445795759558677673e-02 -1.786460131406784058e-01 5.641783401370048523e-02 5.749746412038803101e-02 1.092961151152849197e-02 -4.010231420397758484e-02 6.648503243923187256e-02 -1.286736689507961273e-02 5.283329263329505920e-02 7.244421169161796570e-03 9.786224365234375000e-02 1.102860271930694580e-01 3.385829925537109375e-02 -3.400005027651786804e-02 -4.585429280996322632e-02 5.975276604294776917e-02 5.877145100384950638e-03 1.587792485952377319e-02 -3.341567814350128174e-01 2.687216363847255707e-02 -6.258017569780349731e-02 2.698695473372936249e-02 -8.759944885969161987e-02 5.208870768547058105e-02 -6.793404370546340942e-02 1.300923079252243042e-01 -1.454182267189025879e-01 -6.015359610319137573e-02 -4.637663438916206360e-02 4.259277880191802979e-02 3.478917293250560760e-03 -8.269568532705307007e-02 -1.036278679966926575e-01 -5.264644324779510498e-02 1.187773197889328003e-01 1.505471020936965942e-01 -1.871963292360305786e-01 -9.999155253171920776e-02 1.610054373741149902e-01 -2.402505278587341309e-02 1.037605479359626770e-01 2.506563067436218262e-01 -7.801906019449234009e-02 1.574441976845264435e-02 6.242469698190689087e-02 1.502122543752193451e-02 -7.237583398818969727e-02 -6.727501749992370605e-02 5.966361612081527710e-02 6.782843731343746185e-03 4.821393266320228577e-02 -1.844723075628280640e-01 -4.138525575399398804e-02 5.659226328134536743e-02 -2.175805345177650452e-02 1.593552157282829285e-02 1.171818524599075317e-01 -2.531085535883903503e-02 1.155951432883739471e-02 2.894404344260692596e-02 1.043866127729415894e-01 1.860132813453674316e-02 -1.967546716332435608e-02 1.227538064122200012e-01 5.923043563961982727e-02 7.008080929517745972e-02 -5.270183831453323364e-02 4.595592990517616272e-02 -2.550949901342391968e-02 -3.784673288464546204e-02 -9.911410510540008545e-02 -7.224120944738388062e-02 1.381605416536331177e-01 1.559332199394702911e-02 -6.028742343187332153e-02 -1.027224659919738770e-01 -3.774901106953620911e-02 -3.911925479769706726e-02 -1.108220815658569336e-01 2.258193865418434143e-02 -1.815264672040939331e-01 -8.218020945787429810e-02 -1.802234947681427002e-01 1.391453295946121216e-01 -7.712192833423614502e-02 2.483425103127956390e-02 5.486242938786745071e-03 2.272179871797561646e-01 1.291288342326879501e-02 -6.139358505606651306e-02 4.265200346708297729e-03 -7.098254561424255371e-02 -5.823153629899024963e-02 -6.240930035710334778e-02 -2.782978415489196777e-01 -1.679048091173171997e-01 -1.881934143602848053e-02 -4.888622090220451355e-02 2.700459398329257965e-02 4.729704931378364563e-02 8.294753730297088623e-02 6.093711778521537781e-02 -8.447503298521041870e-02 -1.532210111618041992e-01 -4.634292796254158020e-02 -5.872822925448417664e-02 1.178235113620758057e-01 1.051034256815910339e-01 -2.126175910234451294e-02 -1.823840849101543427e-02 8.877523988485336304e-02 -3.501612227410078049e-03 4.122796654701232910e-02 -1.312303096055984497e-01 2.555724792182445526e-02 -4.928847774863243103e-02 -5.882777273654937744e-02 -1.170313954353332520e-01 1.538532203994691372e-03 -1.234942972660064697e-01 1.481154710054397583e-01 -3.024465143680572510e-01 -7.746600080281496048e-03 -6.458723545074462891e-02 5.015365406870841980e-02 1.097307950258255005e-01 8.685225993394851685e-02 -4.242056235671043396e-02 1.006797254085540771e-01 -2.144038118422031403e-02 -1.787842810153961182e-01 3.831230849027633667e-02 1.965025812387466431e-02 3.257558448240160942e-03 -1.899302005767822266e-01 1.218924857676029205e-02 -2.164576761424541473e-02 3.136388212442398071e-02 1.428699940443038940e-01 -1.227824389934539795e-01 -4.851629957556724548e-02 9.242331981658935547e-02 2.326491475105285645e-02 -4.875161871314048767e-02 1.740956865251064301e-02 -8.959101140499114990e-02 -3.430939838290214539e-02 -6.671037524938583374e-02 -1.816208660602569580e-01 -1.018961369991302490e-01 -7.473656442016363144e-03 -4.640600527636706829e-04 -2.990170940756797791e-02 9.831240028142929077e-02 1.138656660914421082e-01 -3.832916542887687683e-02 8.019901067018508911e-02 -4.395690280944108963e-03 -3.554619476199150085e-02 -2.902334555983543396e-02 -1.197464987635612488e-01 7.187904417514801025e-02 -7.298622280359268188e-02 -3.012733459472656250e-01 -1.396443694829940796e-01 -2.633040584623813629e-02 1.499307006597518921e-01 7.381177693605422974e-02 9.548273682594299316e-02 1.535902470350265503e-01 -5.063453689217567444e-02 -8.185455948114395142e-02 6.865211576223373413e-02 8.746104687452316284e-02 -1.529443562030792236e-01 6.840253621339797974e-02 -2.015613615512847900e-01 9.329086542129516602e-02 9.602637588977813721e-02 -6.237361207604408264e-02
-4.381972551345825195e-02 -3.209479153156280518e-02 5.227158591151237488e-02 1.710332930088043213e-01 5.764799565076828003e-02 -1.340809650719165802e-02 -8.748669922351837158e-02 2.390753477811813354e-02 9.573311358690261841e-02 1.402396522462368011e-02 -5.482708662748336792e-02 1.073338538408279419e-01 1.742507144808769226e-02 -1.123602688312530518e-01 5.010839668102562428e-04 -7.771800458431243896e-02 1.686701774597167969e-01 9.415221214294433594e-02 -2.164092361927032471e-01 3.397467359900474548e-02 4.535026103258132935e-02 1.631477288901805878e-02 -1.670215427875518799e-01 -6.510957330465316772e-02 1.033426970243453979e-01 -5.115009471774101257e-02 -2.377653270959854126e-01 -9.734325855970382690e-02 6.997861713171005249e-02 8.517064899206161499e-02 -6.351614743471145630e-02 1.043085567653179169e-02 -8.039759099483489990e-02 5.678680911660194397e-02 1.519421953707933426e-02 2.029392868280410767e-01 8.310022950172424316e-02 3.451575990766286850e-03 7.970235892571508884e-04 -2.713905461132526398e-02 1.191106513142585754e-01 7.261110097169876099e-02 2.072533220052719116e-01 1.570579856634140015e-01 -2.810908854007720947e-01 5.747430771589279175e-02 -3.761671185493469238e-01 8.172064088284969330e-03 9.306097403168678284e-03 -4.173389170318841934e-03 -8.359763771295547485e-02 -3.078581392765045166e-02 4.298797994852066040e-02 9.247132390737533569e-02 7.933375984430313110e-02 -4.197619855403900146e-02 1.676226109266281128e-01 1.120380684733390808e-01 3.787690401077270508e-02 -7.671623025089502335e-03 9.310927242040634155e-02 -6.024954468011856079e-02 -8.866461366415023804e-02 8.224231749773025513e-02 1.216047257184982300e-02 -2.617389559745788574e-01 -1.425636708736419678e-01 5.578793585300445557e-02 -3.969543278217315674e-01 1.577148772776126862e-02 -1.353134773671627045e-02 -2.529276348650455475e-02 7.869174331426620483e-02 1.537354737520217896e-01 -4.385911822319030762e-01 -1.101430505514144897e-02 8.178986608982086182e-02 6.702785938978195190e-02 2.423676103353500366e-02 -4.884809255599975586e-02 6.223646923899650574e-02 8.372611552476882935e-02 -4.889022558927536011e-02 -7.100448012351989746e-02 -3.484535217285156250e-02 -2.836527489125728607e-02 -5.533020012080669403e-03 8.670053631067276001e-02 -1.222191080451011658e-01 2.429882436990737915e-02 3.188979253172874451e-02 -1.306143701076507568e-01 1.513539254665374756e-01 -3.727343678474426270e-02 -3.877254128456115723e-01 3.057050053030252457e-03 -1.675529778003692627e-01 -7.094939798116683960e-02 5.165968090295791626e-03 9.661107510328292847e-02 -2.068647881969809532e-03 -3.174459561705589294e-02 1.486705690622329712e-01 9.848675131797790527e-02 3.783974796533584595e-02 2.582447603344917297e-03 -7.546184211969375610e-02 4.394255578517913818e-02 -1.102581918239593506e-01 9.345110505819320679e-02 -1.304170340299606323e-01 -1.234791576862335205e-01 -1.075565144419670105e-01 -1.221070662140846252e-01 6.892978399991989136e-02 -1.538732349872589111e-01 1.274597495794296265e-01 1.573685109615325928e-01 -8.716669864952564240e-03 -3.983340412378311157e-02 -4.234278108924627304e-03 -1.290438920259475708e-01 1.062665134668350220e-01 -3.419501706957817078e-02 2.875601127743721008e-02 6.487888097763061523e-02 5.769599601626396179e-02 8.733227103948593140e-02 6.195548549294471741e-02 1.400888152420520782e-02 -6.725994497537612915e-02 2.759270742535591125e-02 -6.820057332515716553e-02 -1.068522110581398010e-01 1.875229738652706146e-02 6.727529317140579224e-02 6.277355551719665527e-02 9.687057137489318848e-02 -3.776144236326217651e-02 -1.082389429211616516e-01 4.827298969030380249e-02 -9.857733547687530518e-02 -7.797766476869583130e-02 -1.219395431689918041e-03 -1.690447516739368439e-02 -2.627344131469726562e-01 -1.605078577995300293e-01 -3.417965769767761230e-02 3.923788666725158691e-02 -8.359725470654666424e-04 8.816068619489669800e-02 -8.819786831736564636e-03 -1.024483367800712585e-01 -2.227969700470566750e-03 -1.542216986417770386e-01 1.053605079650878906e-01 2.668015845119953156e-02 8.297925442457199097e-02 -1.860263347625732422e-01 -8.855497837066650391e-02 -1.802051514387130737e-01 -5.504324100911617279e-03 -1.806064993143081665e-01 -5.167236551642417908e-02 -2.443759515881538391e-02 -1.110551133751869202e-01 1.456868946552276611e-01 1.787415333092212677e-02 -1.892566084861755371e-01 -1.269454807043075562e-01 -2.273684889078140259e-01 3.546400368213653564e-02 1.031912043690681458e-01 1.323000248521566391e-02 1.407204568386077881e-01 1.593549549579620361e-01 -1.397353969514369965e-02 -4.032501950860023499e-02 9.935959428548812866e-02 -2.435317933559417725e-01 3.012595139443874359e-02 -9.997975826263427734e-02 -6.627419590950012207e-02 5.314399674534797668e-02 -1.941385120153427124e-01 4.057630896568298340e-02 -8.144698292016983032e-02 -1.346491929143667221e-02 4.405816143844276667e-04 -3.451643511652946472e-02 -8.424010872840881348e-02 -9.199813008308410645e-02 9.237334132194519043e-02 -4.588940739631652832e-01 1.405314803123474121e-01 1.301850229501724243e-01 -7.141458988189697266e-02 -3.630933761596679688e-01 5.450846627354621887e-02 3.481908887624740601e-02 1.417862810194492340e-02 1.115169841796159744e-02 -8.740180730819702148e-02 -1.173345595598220825e-01 5.514993146061897278e-02 -1.346750557422637939e-01 -1.893428340554237366e-02 -1.798845678567886353e-01 3.656148444861173630e-03 -2.360632568597793579e-01 -9.333577007055282593e-02 -2.324522286653518677e-02 3.060078807175159454e-02 5.339882522821426392e-02 1.188842654228210449e-01 -3.440549969673156738e-02 1.267980635166168213e-01 -2.070678025484085083e-02 -1.107193082571029663e-01 -5.182924121618270874e-02 1.593200564384460449e-01 -3.190400004386901855e-01 -1.147706285119056702e-01 -9.753116965293884277e-02 -1.484010666608810425e-01 -2.905823290348052979e-03 -2.652122825384140015e-02 6.588358432054519653e-02 1.080193445086479187e-01 -4.668731242418289185e-02 -2.751465141773223877e-01 -5.571726709604263306e-02 1.008680462837219238e-01 6.180606782436370850e-02 1.338240653276443481e-01 2.446332015097141266e-02 1.374554783105850220e-01 5.600169301033020020e-02 -4.269302263855934143e-02 -7.004877179861068726e-02 2.575239539146423340e-01 -1.055135279893875122e-01 -8.107752352952957153e-02 1.082266047596931458e-01 3.765960782766342163e-02 -2.669830573722720146e-03 4.254850000143051147e-02 -3.230450674891471863e-02 1.592843085527420044e-01 -5.933880433440208435e-02 -3.016630113124847412e-01 3.400922566652297974e-02 1.524176914244890213e-03 3.234387934207916260e-02 -6.269463151693344116e-02 6.534540094435214996e-03
-5.003266502171754837e-03 6.072072684764862061e-02 3.849729150533676147e-02 5.560278519988059998e-02 -5.581609904766082764e-02 -8.246857672929763794e-02 -1.530503183603286743e-01 -4.551921412348747253e-02 -1.426757723093032837e-01 1.001684367656707764e-02 -8.974827080965042114e-02 -2.054445631802082062e-02 5.146363377571105957e-02 2.133411914110183716e-02 5.134192109107971191e-02 -3.243428766727447510e-01 1.159261018037796021e-01 -1.377901583909988403e-01 -1.165942102670669556e-01 1.690706051886081696e-02 1.399656534194946289e-01 4.922131076455116272e-02 -8.347692340612411499e-02 1.319006532430648804e-01 1.327410992234945297e-02 3.738515824079513550e-02 -8.194141834974288940e-02 7.747204601764678955e-02 3.377652913331985474e-02 -1.574660837650299072e-02 -1.188255921006202698e-01 -7.430012524127960205e-02 -1.259301900863647461e-01 2.673938572406768799e-01 -6.685365736484527588e-02 6.831431761384010315e-03 -5.559567362070083618e-02 1.110479608178138733e-01 -1.170971617102622986e-01 -6.316578388214111328e-02 6.511717289686203003e-02 -5.837946757674217224e-02 9.101752191781997681e-02 2.392778396606445312e-01 -1.193792931735515594e-02 3.964474052190780640e-02 -3.404209911823272705e-01 -6.930230557918548584e-02 -2.112441230565309525e-03 -4.747055098414421082e-02 7.991802692413330078e-02 -1.183610484004020691e-01 -2.627730742096900940e-02 -7.773782592266798019e-03 -8.306954801082611084e-02 -4.886945709586143494e-02 4.869760572910308838e-02 1.752840280532836914e-01 6.849058717489242554e-02 3.212250024080276489e-02 1.092581674456596375e-01 -2.219307273626327515e-01 -1.001253444701433182e-02 -1.011804770678281784e-02 -3.033429011702537537e-02 -4.701957404613494873e-01 -2.453933842480182648e-02 4.661498963832855225e-02 -1.250158101320266724e-01 1.773248016834259033e-01 4.196579754352569580e-02 -2.412456870079040527e-01 -8.475103229284286499e-02 -1.366841197013854980e-01 -1.200875714421272278e-01 -4.914210736751556396e-02 5.018379911780357361e-02 1.358582824468612671e-01 -4.665207862854003906e-02 -6.232240051031112671e-02 8.114881068468093872e-02 -8.140166103839874268e-02 4.065405204892158508e-02 -6.955440342426300049e-02 6.235916912555694580e-02 2.544930577278137207e-01 -1.001090258359909058e-01 -1.901085078716278076e-01 -8.328218013048171997e-03 -1.760577261447906494e-01 -3.720502927899360657e-02 -2.836636500433087349e-03 -2.030396163463592529e-01 -1.967401057481765747e-01 -2.524534761905670166e-01 -8.328290283679962158e-02 -4.815297946333885193e-02 3.917694464325904846e-02 4.462169855833053589e-02 1.121558845043182373e-01 6.957262754440307617e-02 3.201191499829292297e-02 8.686359226703643799e-02 2.545403875410556793e-02 -4.500290669966489077e-04 8.689726144075393677e-02 1.782876998186111450e-01 -1.810114458203315735e-02 -4.684559255838394165e-02 -6.524000316858291626e-02 -1.775017231702804565e-01 8.325717598199844360e-02 -2.707597613334655762e-01 -1.273670643568038940e-01 9.543023258447647095e-02 -2.004458904266357422e-01 1.924106776714324951e-01 -1.155027449131011963e-01 -8.146777749061584473e-02 1.345127820968627930e-02 -7.451252080500125885e-03 1.745794527232646942e-02 -1.593410223722457886e-01 -4.192619919776916504e-01 2.283241450786590576e-01 -4.182993993163108826e-02 3.342250362038612366e-02 1.338154375553131104e-01 5.964202061295509338e-02 -3.752262890338897705e-02 -7.058697938919067383e-02 -2.290362417697906494e-01 3.092721663415431976e-02 2.335840910673141479e-01 3.386132046580314636e-02 4.646090418100357056e-02 1.828882843255996704e-01 -2.325792610645294189e-02 -7.600703090429306030e-02 -3.445567190647125244e-02 -3.505306318402290344e-02 -1.245047450065612793e-01 1.479229480028152466e-01 4.496635869145393372e-02 1.661933213472366333e-01 -1.717391014099121094e-01 1.459720879793167114e-01 -3.804458677768707275e-02 2.434659153223037720e-01 -6.824295222759246826e-02 -7.611843198537826538e-02 -7.858850806951522827e-02 -1.616774499416351318e-01 -1.162743270397186279e-01 2.430107444524765015e-01 -2.340841107070446014e-02 -1.583340317010879517e-01 2.994719520211219788e-02 -1.912469118833541870e-01 -1.892651021480560303e-01 1.222016438841819763e-01 -3.811275959014892578e-02 4.336868599057197571e-02 -1.279910355806350708e-01 -2.436051331460475922e-02 3.770450130105018616e-03 -1.832592934370040894e-01 6.436088681221008301e-02 2.251863107085227966e-02 -2.496906369924545288e-01 -2.265863865613937378e-01 -6.983062624931335449e-02 4.014611989259719849e-02 -1.662169769406318665e-02 -8.315940946340560913e-02 -3.442161679267883301e-01 -2.082609236240386963e-01 -1.158694773912429810e-01 1.460992824286222458e-02 -1.990873664617538452e-01 -1.179710626602172852e-01 -2.762563824653625488e-01 -1.240399256348609924e-01 6.187761947512626648e-02 5.346746183931827545e-03 -1.050130426883697510e-01 2.857821621000766754e-02 1.399866044521331787e-01 -1.048935502767562866e-01 6.273005902767181396e-02 -9.023240953683853149e-02 -7.345938682556152344e-02 -1.554903760552406311e-02 -2.648415863513946533e-01 -1.933166980743408203e-01 -4.763239622116088867e-02 5.898544192314147949e-02 -1.373067051172256470e-01 2.664271555840969086e-02 6.584478169679641724e-02 1.221223250031471252e-01 8.956851810216903687e-02 -3.193605691194534302e-02 -2.610410377383232117e-02 1.803131252527236938e-01 2.309178560972213745e-01 1.608481705188751221e-01 -1.682363003492355347e-01 -2.416541986167430878e-02 -3.123115561902523041e-02 -1.342207789421081543e-01 5.994622409343719482e-02 -6.175007298588752747e-02 6.254350394010543823e-02 -4.687547683715820312e-03 1.379360705614089966e-01 -1.991552561521530151e-01 -3.541678423061966896e-03 -1.382214203476905823e-02 -1.547528356313705444e-01 3.925540298223495483e-02 -1.797879934310913086e-01 -2.326113581657409668e-01 3.872237727046012878e-02 -3.597131073474884033e-01 2.427992224693298340e-02 9.455456584692001343e-02 3.210687264800071716e-02 -1.185666024684906006e-01 -5.660336017608642578e-01 -6.945592164993286133e-02 1.179597340524196625e-02 1.592901945114135742e-01 1.252605020999908447e-01 2.410224080085754395e-02 2.307945303618907928e-02 1.044017672538757324e-01 -9.939660131931304932e-02 -7.132002711296081543e-02 9.203934669494628906e-02 5.291322991251945496e-02 5.656197294592857361e-02 3.995684161782264709e-02 -3.959002718329429626e-02 -2.205277830362319946e-01 8.951225131750106812e-02 -9.913548082113265991e-02 -1.995176821947097778e-02 -3.298463299870491028e-02 1.237166821956634521e-01 -1.731976270675659180e-01 -2.067516297101974487e-01 -2.816184237599372864e-02 -2.843944728374481201e-02 3.030684590339660645e-02 -1.362246572971343994e-01
-8.042740076780319214e-02 -1.268890351057052612e-01 -9.665194898843765259e-02 1.290706992149353027e-01 8.561762422323226929e-02 5.568328872323036194e-02 -2.308143861591815948e-02 1.254473328590393066e-01 1.404313743114471436e-01 4.139257967472076416e-02 1.437960565090179443e-02 -1.000692620873451233e-01 6.530896574258804321e-02 -7.621801644563674927e-02 -8.568497002124786377e-02 2.064372878521680832e-03 9.882613271474838257e-02 1.599149256944656372e-01 -1.897822469472885132e-01 6.877120584249496460e-02 6.533883512020111084e-02 1.040702313184738159e-02 2.591397985816001892e-02 1.323981583118438721e-01 1.441510766744613647e-01 -1.417457610368728638e-01 -3.399659395217895508e-01 -1.542544811964035034e-01 -1.200051307678222656e-01 -7.221380621194839478e-02 -6.391528993844985962e-02 -1.043232008814811707e-01 -3.708978742361068726e-02 -1.899291574954986572e-02 -8.290321566164493561e-03 6.773843616247177124e-02 -1.569474041461944580e-01 -8.699169754981994629e-02 -2.800922393798828125e-01 5.802416801452636719e-02 -9.999980032444000244e-02 -1.274361507967114449e-03 7.221315056085586548e-02 1.922116726636886597e-01 -3.351280465722084045e-02 1.477670371532440186e-01 -3.759922981262207031e-01 1.023700311779975891e-01 1.953794062137603760e-01 2.451671846210956573e-02 -5.507163703441619873e-02 -1.003716513514518738e-01 -6.392870843410491943e-02 -1.692198589444160461e-02 -2.595406025648117065e-02 1.187069639563560486e-01 -8.279339224100112915e-02 -1.385172903537750244e-01 8.106465637683868408e-02 1.313516795635223389e-01 -7.621720433235168457e-02 -1.426744163036346436e-01 1.081663891673088074e-01 2.805217914283275604e-02 7.806215435266494751e-02 -5.289092659950256348e-01 -1.205199118703603745e-02 2.110059931874275208e-02 -2.577997446060180664e-01 1.398842930793762207e-01 1.696674898266792297e-02 -1.735683530569076538e-01 -1.001904904842376709e-01 1.258626431226730347e-01 -2.238940745592117310e-01 4.628123715519905090e-02 1.141131520271301270e-01 -1.032125055789947510e-01 6.913586705923080444e-02 1.129223257303237915e-01 -2.798752486705780029e-02 5.010677850805222988e-04 -5.614692717790603638e-02 2.614441514015197754e-02 -5.090511217713356018e-02 2.015761733055114746e-01 -9.720963425934314728e-03 7.178623974323272705e-02 -9.429639577865600586e-02 5.447407811880111694e-02 -4.743641614913940430e-02 -1.599578112363815308e-01 5.297213792800903320e-02 -1.004557963460683823e-02 -3.489829599857330322e-01 3.193274606019258499e-03 -1.045541930943727493e-02 -1.238171309232711792e-01 1.039223596453666687e-01 -2.507194578647613525e-01 -1.979159656912088394e-03 9.426234662532806396e-02 1.326090246438980103e-01 -8.847726508975028992e-03 1.049286872148513794e-01 1.876211375929415226e-03 -4.791363608092069626e-03 1.372714936733245850e-01 -8.095080405473709106e-02 -5.596552509814500809e-03 -2.230042126029729843e-03 1.019481495022773743e-01 5.366723611950874329e-02 -1.400349140167236328e-01 -3.877224773168563843e-02 -6.091707572340965271e-02 8.421393483877182007e-02 -8.931878209114074707e-02 1.140864416956901550e-01 -9.351026266813278198e-02 1.831504255533218384e-01 -2.360331118106842041e-01 2.558384835720062256e-02 -1.964380294084548950e-01 1.283783931285142899e-02 4.687985405325889587e-02 2.136001363396644592e-02 4.818068072199821472e-02 1.306483522057533264e-02 1.465561240911483765e-01 1.951936818659305573e-02 2.640505880117416382e-02 -2.009646594524383545e-02 -1.410559117794036865e-01 1.289050579071044922e-01 6.123789772391319275e-02 2.455055015161633492e-03 -1.672928333282470703e-01 -7.481303066015243530e-02 -7.364759594202041626e-02 -1.733201742172241211e-02 -2.727651298046112061e-01 2.011121809482574463e-02 1.650088578462600708e-01 1.032855827361345291e-03 -6.564556621015071869e-03 -1.868543773889541626e-01 9.075814741663634777e-04 -6.565564125776290894e-02 -5.718599073588848114e-03 5.287557467818260193e-02 3.205896168947219849e-02 -7.781545072793960571e-02 -2.543348632752895355e-02 2.323617227375507355e-03 -4.014626890420913696e-02 2.985669113695621490e-02 5.957573279738426208e-02 3.594356402754783630e-02 -9.047561138868331909e-02 7.923816889524459839e-02 1.060806587338447571e-01 -1.098650470376014709e-01 -1.089966744184494019e-01 7.758608460426330566e-02 1.048607602715492249e-01 5.373232811689376831e-02 3.504554554820060730e-02 2.936006709933280945e-02 -9.030347317457199097e-02 1.954853162169456482e-02 9.512204676866531372e-02 4.195760190486907959e-02 -3.528224304318428040e-02 -1.816276088356971741e-02 -3.058388084173202515e-02 1.421964466571807861e-01 1.247108057141304016e-01 3.233762690797448158e-03 -1.483527272939682007e-01 6.374513357877731323e-02 3.234305083751678467e-01 -1.865424811840057373e-01 4.904353991150856018e-02 -1.352802366018295288e-01 -6.007245741784572601e-03 -1.434090286493301392e-01 -2.565462375059723854e-03 2.131143398582935333e-02 -1.320644915103912354e-01 -8.610679209232330322e-02 -1.294629871845245361e-01 7.667084038257598877e-02 -4.405893981456756592e-01 -6.611946970224380493e-02 1.711280643939971924e-02 3.197836875915527344e-02 -1.851572245359420776e-01 -8.323826640844345093e-02 -4.217903316020965576e-02 1.168011501431465149e-01 1.251126527786254883e-01 -6.294658780097961426e-02 7.723478227853775024e-02 -1.474415417760610580e-02 -2.251379378139972687e-02 1.058124080300331116e-01 1.340325623750686646e-01 -1.866380423307418823e-01 -1.238362342119216919e-01 -5.244937911629676819e-02 3.060549497604370117e-02 2.168294787406921387e-01 -3.341825446113944054e-03 3.985724598169326782e-02 3.416837379336357117e-02 8.317168056964874268e-02 6.308785825967788696e-02 -7.537420094013214111e-02 -1.799181848764419556e-01 -9.177745878696441650e-02 -5.721513181924819946e-02 -6.777333468198776245e-02 -4.822052270174026489e-02 1.465202867984771729e-01 -2.099584192037582397e-01 -3.449752926826477051e-02 2.349783778190612793e-01 -8.645269274711608887e-02 2.686310373246669769e-02 2.858015010133385658e-03 1.888105720281600952e-01 -4.854224994778633118e-02 5.710089206695556641e-02 2.265270799398422241e-02 2.058603604382369667e-05 -1.018463820219039917e-01 -7.754988968372344971e-02 1.745398156344890594e-02 1.126176118850708008e-01 -1.126714199781417847e-01 2.945229783654212952e-02 -8.172804862260818481e-02 -6.687553226947784424e-02 2.325069345533847809e-02 1.738708764314651489e-01 8.398132771253585815e-02 -2.338377535343170166e-01 8.880259841680526733e-02 -2.197847962379455566e-01 6.771387904882431030e-02 1.521877944469451904e-02 -5.330675467848777771e-02 6.722655892372131348e-02 7.284053415060043335e-02 -3.063581511378288269e-02
-8.226315490901470184e-03 -2.550052478909492493e-02 1.071737781167030334e-01 -4.781290888786315918e-02 -1.063129231333732605e-01 4.507955163717269897e-02 -1.273301988840103149e-01 4.289453476667404175e-02 1.116915196180343628e-01 -1.674859039485454559e-02 -1.570471674203872681e-01 -1.792967505753040314e-02 -6.282272189855575562e-02 3.388753393664956093e-03 -1.063609048724174500e-01 -8.122047036886215210e-02 8.184730261564254761e-02 -4.412775114178657532e-02 -7.385649681091308594e-01 -4.308552015572786331e-03 5.051127076148986816e-02 -3.644394502043724060e-02 -1.752706430852413177e-02 -8.476204425096511841e-02 1.089520156383514404e-01 -2.570799887180328369e-01 -3.340133130550384521e-01 9.323277324438095093e-02 -1.747777014970779419e-01 1.499154418706893921e-01 1.138616576790809631e-01 -1.055478956550359726e-02 5.068124085664749146e-02 -8.213075250387191772e-02 3.323486074805259705e-02 1.262210756540298462e-01 1.006262525916099548e-01 -6.305063515901565552e-02 -1.890632510185241699e-02 -5.992156267166137695e-02 1.013315320014953613e-01 -5.067238584160804749e-02 8.263929933309555054e-02 1.177602037787437439e-01 1.005029901862144470e-01 -1.178234890103340149e-01 -4.494049400091171265e-02 5.868089385330677032e-03 -1.077367067337036133e-01 -4.624040424823760986e-02 7.332482188940048218e-02 9.848338365554809570e-02 -2.888231538236141205e-02 1.919019371271133423e-01 -1.249838694930076599e-01 -1.493158042430877686e-01 1.079441457986831665e-01 1.489992439746856689e-01 -3.772345557808876038e-02 -2.896913699805736542e-02 4.547460749745368958e-02 1.938858926296234131e-01 -9.933117032051086426e-02 9.512255340814590454e-02 1.066453475505113602e-02 1.969247907400131226e-01 5.619942676275968552e-03 -9.068264812231063843e-02 -3.684924542903900146e-01 -7.311226427555084229e-02 -5.366296693682670593e-02 -4.666188731789588928e-02 1.537578832358121872e-02 -1.062195375561714172e-01 -5.174075365066528320e-01 -3.395051881670951843e-02 2.525333501398563385e-02 -6.062684580683708191e-02 1.013827472925186157e-01 -1.572376191616058350e-01 -1.286010071635246277e-02 1.089022979140281677e-01 -1.486307382583618164e-01 -1.402752939611673355e-02 1.865288466215133667e-01 1.305309832096099854e-01 3.871144726872444153e-02 1.934926360845565796e-01 6.552198436111211777e-03 -8.104336261749267578e-02 1.352489292621612549e-01 -1.090875342488288879e-01 -2.390703000128269196e-02 9.030902385711669922e-02 -5.382997989654541016e-01 2.165098302066326141e-02 -9.364445507526397705e-02 6.810066103935241699e-02 -3.364848718047142029e-02 -2.426864355802536011e-01 1.290753930807113647e-01 6.354328244924545288e-03 -1.329703629016876221e-01 3.499540500342845917e-03 -1.344292014837265015e-01 2.243871986865997314e-01 -9.783787280321121216e-02 4.053666256368160248e-03 -9.299243241548538208e-02 5.109361186623573303e-02 9.373345412313938141e-03 -1.686739362776279449e-02 -9.718374907970428467e-02 -2.283945828676223755e-01 -1.217610314488410950e-01 3.849710151553153992e-02 -1.327817291021347046e-01 -4.909861460328102112e-02 -1.076773926615715027e-02 -1.419192254543304443e-01 1.154269278049468994e-01 -2.451564371585845947e-01 -4.691316187381744385e-02 9.353394806385040283e-02 -2.204639166593551636e-01 5.452792719006538391e-02 3.859271854162216187e-02 1.481001526117324829e-01 -9.300010651350021362e-02 -8.471179753541946411e-02 1.757441759109497070e-01 2.723150420933961868e-03 5.565170198678970337e-02 -1.663620397448539734e-02 -7.089321035891771317e-03 -8.199149370193481445e-02 2.012750878930091858e-02 -7.169532030820846558e-02 -9.478504210710525513e-02 -1.162932137958705425e-03 1.452778130769729614e-01 -8.395247161388397217e-02 3.269917145371437073e-02 5.196025222539901733e-02 7.254754006862640381e-02 -6.088799238204956055e-01 -4.346576333045959473e-01 9.391435980796813965e-02 -2.284703776240348816e-02 3.944171965122222900e-02 1.147680953145027161e-01 5.957861244678497314e-02 -3.645600751042366028e-02 -7.782983034849166870e-02 -4.173016175627708435e-02 7.011825591325759888e-02 4.938080906867980957e-02 1.064047738909721375e-01 -1.028140820562839508e-02 -3.957230225205421448e-02 2.711085416376590729e-02 3.460932523012161255e-02 -9.886905550956726074e-02 -7.419314980506896973e-02 -2.963153459131717682e-02 5.315961688756942749e-02 1.800284236669540405e-01 -4.973402246832847595e-03 2.915824763476848602e-02 -1.490711867809295654e-01 -2.390303462743759155e-01 -1.879405602812767029e-02 -4.874494299292564392e-02 8.982650190591812134e-02 1.702239960432052612e-01 -2.634792029857635498e-02 -9.656969457864761353e-02 5.022589862346649170e-02 -6.440796703100204468e-02 -5.014891177415847778e-02 6.449928879737854004e-02 -8.297875523567199707e-02 2.334200739860534668e-01 8.726745098829269409e-02 -4.306018352508544922e-01 -5.402740091085433960e-02 -7.367226481437683105e-02 -2.537650428712368011e-02 7.695518434047698975e-02 5.623508617281913757e-02 8.789248764514923096e-02 -4.122693091630935669e-02 -8.521261066198348999e-02 -2.858405709266662598e-01 -1.559937559068202972e-02 -7.427643984556198120e-02 -1.224077306687831879e-02 -3.538378775119781494e-01 1.497608423233032227e-01 -1.683414541184902191e-02 -1.125895231962203979e-01 6.865713745355606079e-02 -9.461523965001106262e-03 3.678617253899574280e-02 3.522314876317977905e-02 -1.076729595661163330e-02 -1.193335652351379395e-01 -1.558612585067749023e-01 1.225654408335685730e-01 1.041889470070600510e-02 -2.992716133594512939e-01 -3.649286925792694092e-02 -1.270743012428283691e-01 2.099712938070297241e-01 -1.606816798448562622e-02 9.766461700201034546e-02 1.464016586542129517e-01 1.353104505687952042e-02 1.790297962725162506e-02 -3.060406148433685303e-01 -2.581216208636760712e-02 -3.330015838146209717e-01 7.240179181098937988e-02 -1.754163205623626709e-02 -9.587185084819793701e-02 1.178143620491027832e-01 -3.104992583394050598e-02 1.292273700237274170e-01 -8.853837102651596069e-02 1.471567153930664062e-01 -6.781768053770065308e-02 1.992879062891006470e-02 -3.443713486194610596e-02 6.849326193332672119e-02 -1.779099255800247192e-01 -1.153892129659652710e-01 5.454805493354797363e-02 6.795046501792967319e-04 -8.439628034830093384e-02 -3.384109959006309509e-02 2.623194083571434021e-02 -3.679646877571940422e-03 -3.753683716058731079e-02 -5.721889436244964600e-03 7.586342096328735352e-02 1.210258677601814270e-01 -1.230629011988639832e-01 7.967496663331985474e-02 -9.963659569621086121e-03 5.407640337944030762e-02 7.706064730882644653e-02 -2.668948471546173096e-02 1.219420805573463440e-01 2.937320619821548462e-02 2.404935192316770554e-03 1.015550456941127777e-02
-8.910023421049118042e-02 2.799624204635620117e-01 -5.247426033020019531e-02 1.630234764888882637e-03 -1.367324497550725937e-02 -1.256899721920490265e-02 2.538528442382812500e-01 -2.939184755086898804e-02 -7.328736130148172379e-03 9.275656193494796753e-02 1.952077746391296387e-01 1.355019360780715942e-01 -5.415919050574302673e-02 9.680289775133132935e-02 -1.142045762389898300e-02 -2.238878011703491211e-01 -2.035181671380996704e-01 -1.008680313825607300e-01 -2.222819253802299500e-03 1.158070042729377747e-01 -1.576520130038261414e-02 8.659727871417999268e-02 2.232657372951507568e-01 7.810242474079132080e-02 8.014523424208164215e-03 1.560673117637634277e-01 -4.432154819369316101e-02 1.766374111175537109e-01 -1.538493633270263672e-01 1.675903610885143280e-02 -4.761182516813278198e-02 -2.029220201075077057e-02 1.766215637326240540e-02 7.230242341756820679e-02 1.880814880132675171e-01 -4.068541899323463440e-02 -7.414554059505462646e-02 1.157151907682418823e-01 4.022500663995742798e-02 -7.003085315227508545e-02 8.308580517768859863e-02 7.898783311247825623e-03 -1.317680180072784424e-01 1.734453290700912476e-01 1.908869855105876923e-02 -3.139439597725868225e-02 -6.118622422218322754e-02 -4.251841921359300613e-03 6.955908238887786865e-02 6.108341738581657410e-02 -1.408171933144330978e-02 1.067998073995113373e-02 -5.421919003129005432e-02 3.384125977754592896e-02 -3.972614556550979614e-02 1.078586652874946594e-02 -4.742745775729417801e-03 1.330713927745819092e-02 2.623189426958560944e-02 -2.696597576141357422e-02 5.980325862765312195e-03 1.390505880117416382e-01 1.510212421417236328e-01 4.284306988120079041e-02 1.225852500647306442e-02 -6.464974582195281982e-02 1.835994422435760498e-02 -1.043534353375434875e-01 -1.706416755914688110e-01 2.697045728564262390e-02 -4.324933141469955444e-02 1.834414005279541016e-01 1.028884723782539368e-01 -1.689607501029968262e-01 -1.424617469310760498e-01 6.503373384475708008e-02 6.899622827768325806e-02 1.866375841200351715e-02 9.124843776226043701e-02 -1.480202376842498779e-01 9.983649104833602905e-02 3.837354108691215515e-02 4.327701777219772339e-02 -5.164556577801704407e-02 1.885419338941574097e-02 1.264769583940505981e-01 4.452612623572349548e-02 5.948043987154960632e-02 -4.429270327091217041e-02 -2.451382577419281006e-02 1.783329993486404419e-01 -4.894523695111274719e-02 7.616153359413146973e-02 1.636085845530033112e-02 -1.835611462593078613e-01 5.450631957501173019e-03 -1.329646855592727661e-01 -3.797775134444236755e-02 -4.036119952797889709e-02 -3.502548113465309143e-02 -2.533057630062103271e-01 1.178179383277893066e-01 6.799060851335525513e-03 9.131456911563873291e-02 -2.039908617734909058e-02 -3.725570812821388245e-02 5.031513515859842300e-03 6.106807664036750793e-02 2.523240447044372559e-02 -2.044634819030761719e-01 9.589481167495250702e-03 2.703269422054290771e-01 -4.780530557036399841e-02 -5.229239165782928467e-02 -2.852014265954494476e-02 5.031390488147735596e-02 -3.540690243244171143e-02 -5.202346667647361755e-02 4.937853664159774780e-03 -6.415181607007980347e-02 -1.400756835937500000e-01 2.951405644416809082e-01 1.302661001682281494e-01 -2.770978584885597229e-02 1.441667675971984863e-01 -9.084056317806243896e-02 -3.697203472256660461e-02 -1.723816692829132080e-01 -2.644024556502699852e-03 6.438118219375610352e-02 -6.775910500437021255e-03 -1.624228805303573608e-02 4.457225278019905090e-02 -1.020304709672927856e-01 1.017630994319915771e-01 1.557673234492540359e-02 -2.090916223824024200e-02 -3.775756806135177612e-02 -1.029070913791656494e-01 -4.960859194397926331e-02 6.559199094772338867e-02 6.841896474361419678e-02 -4.524356871843338013e-02 -3.143595159053802490e-02 -1.117685064673423767e-01 -6.288298964500427246e-02 7.923368364572525024e-02 -1.170603111386299133e-01 -7.820712774991989136e-02 -4.018784314393997192e-02 3.933431580662727356e-04 1.023360118269920349e-01 3.023786470293998718e-03 -1.047712564468383789e-01 -4.997027665376663208e-02 5.240448936820030212e-02 -1.892008073627948761e-02 -1.285374611616134644e-01 2.057035081088542938e-02 -8.808119595050811768e-02 -8.992210775613784790e-02 -1.827004738152027130e-02 1.025116220116615295e-01 -1.070434004068374634e-01 6.044658273458480835e-02 -2.836301364004611969e-02 4.365760367363691330e-03 3.754193335771560669e-02 -7.148639857769012451e-02 6.761147081851959229e-02 1.163482069969177246e-01 -4.752265661954879761e-02 -1.262512989342212677e-02 8.041534572839736938e-02 7.183825969696044922e-02 -9.100428968667984009e-02 -5.070104449987411499e-02 -6.944362819194793701e-02 -1.364053785800933838e-02 -5.397548899054527283e-02 -9.328477084636688232e-02 -1.096229348331689835e-02 1.001034900546073914e-01 5.631199106574058533e-03 -2.227628603577613831e-02 2.688011527061462402e-02 4.235611483454704285e-02 -9.404052048921585083e-02 -7.121033966541290283e-02 1.782024204730987549e-01 -1.128089427947998047e-01 -3.322220873087644577e-03 -2.675182744860649109e-02 -5.011607706546783447e-02 2.586653828620910645e-02 5.495722964406013489e-02 -1.341992318630218506e-01 1.781783066689968109e-02 -1.736043766140937805e-02 1.101457793265581131e-02 5.665408819913864136e-02 -3.022836893796920776e-02 -9.172089397907257080e-02 1.528979390859603882e-01 -7.090038061141967773e-02 1.710514165461063385e-02 -3.652389720082283020e-02 -1.751001775264739990e-01 -1.462527178227901459e-02 -1.460520327091217041e-01 -4.983638599514961243e-02 7.771378010511398315e-02 1.032479479908943176e-01 1.106617972254753113e-02 -9.242477267980575562e-02 1.580758951604366302e-03 -1.766867339611053467e-01 -2.154718240490183234e-04 1.951618939638137817e-01 7.407703250646591187e-02 8.847650885581970215e-02 -6.012894958257675171e-02 5.902536585927009583e-02 -4.993867874145507812e-02 -8.788861334323883057e-02 3.891266882419586182e-02 -5.471402406692504883e-02 8.206310868263244629e-02 -4.759439080953598022e-02 -1.904573105275630951e-02 1.891811639070510864e-01 -1.036838293075561523e-01 -5.225688219070434570e-03 6.002844497561454773e-02 1.242174208164215088e-01 -1.412258297204971313e-01 -7.479203492403030396e-02 1.250930875539779663e-01 1.243507210165262222e-02 -7.750073075294494629e-02 -1.131424903869628906e-01 -5.986185371875762939e-02 -6.035989522933959961e-02 5.052164569497108459e-02 -4.529697075486183167e-02 6.028847396373748779e-02 5.743749067187309265e-02 1.866974383592605591e-01 -6.458070129156112671e-02 -1.111636832356452942e-01 -1.577112474478781223e-03 -2.592796273529529572e-02 4.387218505144119263e-02 7.053034007549285889e-02 6.455114483833312988e-02 -2.758096344769001007e-02
-3.635096177458763123e-02 9.485192596912384033e-02 6.551959365606307983e-02 -5.656662210822105408e-02 -3.334126994013786316e-02 -5.606350302696228027e-02 -1.487031877040863037e-01 1.736188977956771851e-01 1.367078721523284912e-02 5.966957286000251770e-02 -2.508601248264312744e-01 1.277732104063034058e-02 8.986143022775650024e-02 -6.403424590826034546e-02 -7.024092134088277817e-03 3.897671122103929520e-03 1.750333011150360107e-01 -1.317278444766998291e-01 -5.434150695800781250e-01 -9.713372588157653809e-02 -4.065952822566032410e-02 4.196531139314174652e-03 1.702321767807006836e-01 -9.305778890848159790e-02 2.627091296017169952e-02 -1.009800508618354797e-01 -2.948235869407653809e-01 1.916472464799880981e-01 -1.638670563697814941e-01 -1.069424599409103394e-01 -4.348155483603477478e-02 4.579443112015724182e-02 8.198432624340057373e-02 -4.940642043948173523e-03 -1.360310316085815430e-01 -6.041766609996557236e-03 -3.471122309565544128e-02 -1.089962422847747803e-01 3.686690703034400940e-02 -1.630702763795852661e-01 6.931749731302261353e-02 4.770523682236671448e-02 2.224647998809814453e-02 -1.451038173399865627e-03 -1.265100389719009399e-01 6.515467166900634766e-02 -7.950969040393829346e-02 -1.435333304107189178e-02 -2.002968937158584595e-01 -1.143823564052581787e-02 -4.260519519448280334e-02 -4.207413271069526672e-02 -7.481570355594158173e-03 8.875346183776855469e-02 -7.630076259374618530e-03 -1.000029221177101135e-01 3.016720525920391083e-02 2.753364481031894684e-02 -1.527174264192581177e-01 -4.158760886639356613e-03 -8.420648425817489624e-02 -6.216154992580413818e-02 9.755630791187286377e-02 2.182161435484886169e-02 1.319188326597213745e-01 1.127769574522972107e-01 6.809672713279724121e-02 -2.087891250848770142e-01 -2.899385690689086914e-01 -1.273944228887557983e-01 -1.173524037003517151e-01 1.171222180128097534e-01 -5.533119197934865952e-03 -1.748490321915596724e-04 -3.746060729026794434e-01 -1.941086649894714355e-01 2.641851897351443768e-04 -4.716893658041954041e-02 8.572294376790523529e-03 1.751350052654743195e-02 -1.930315420031547546e-02 3.088377416133880615e-02 2.022147029638290405e-01 -7.762607932090759277e-02 -1.565662026405334473e-02 1.070282608270645142e-01 6.632655113935470581e-02 1.628644913434982300e-01 -7.757742423564195633e-03 8.846525102853775024e-03 9.189630299806594849e-02 -2.046676576137542725e-01 -3.374583320692181587e-04 1.299851238727569580e-01 -4.148299396038055420e-01 7.642959803342819214e-02 -2.993586957454681396e-01 -7.972816936671733856e-03 4.916984960436820984e-02 -2.457485161721706390e-02 2.686046995222568512e-02 -4.596047103404998779e-02 -1.041812971234321594e-01 -3.833414986729621887e-02 1.091935858130455017e-01 3.642262145876884460e-02 -9.888634830713272095e-02 -7.092396169900894165e-02 1.087695211172103882e-01 7.072334736585617065e-02 4.512705281376838684e-02 -9.907212108373641968e-03 -1.667563915252685547e-01 -1.042744591832160950e-01 5.563009902834892273e-02 -2.225852571427822113e-02 -1.930146664381027222e-01 1.024719923734664917e-01 -1.217622831463813782e-01 1.002912595868110657e-02 2.008138224482536316e-02 -3.010968267917633057e-01 -1.211594417691230774e-01 -6.062092259526252747e-02 4.422945901751518250e-02 1.073270291090011597e-02 -3.263278305530548096e-02 -1.028151363134384155e-01 -4.112587310373783112e-03 -1.142133846879005432e-01 9.160052984952926636e-02 -1.625120453536510468e-02 1.120188459753990173e-02 8.184848725795745850e-02 1.106052249670028687e-01 -8.068741112947463989e-02 -1.661332882940769196e-02 -1.150852888822555542e-01 4.707392677664756775e-02 -7.280758116394281387e-03 1.056066527962684631e-01 -1.088336333632469177e-01 1.043340773321688175e-03 -1.851099282503128052e-01 9.115361422300338745e-02 -2.763535976409912109e-01 -6.940527260303497314e-02 1.713996678590774536e-01 6.493857502937316895e-02 1.297281235456466675e-01 2.569358944892883301e-01 2.173379063606262207e-02 -5.029832571744918823e-02 6.570284068584442139e-02 -5.039911717176437378e-02 -2.145856246352195740e-02 -4.069947823882102966e-02 -1.490762084722518921e-01 9.641235228627920151e-04 2.462899498641490936e-02 5.846661329269409180e-02 8.434898406267166138e-02 4.302932694554328918e-02 -9.331426769495010376e-02 1.676277965307235718e-01 1.558435708284378052e-02 6.705928593873977661e-02 -6.063434854149818420e-02 2.648492809385061264e-03 9.250072389841079712e-02 -2.518487870693206787e-01 -8.208101987838745117e-02 2.373352646827697754e-02 -1.284417659044265747e-01 8.923999220132827759e-02 1.082533970475196838e-01 4.420118778944015503e-02 -5.956222489476203918e-02 7.641884684562683105e-02 -1.284982115030288696e-01 -1.051082164049148560e-01 2.666347846388816833e-02 1.009440869092941284e-01 1.120793819427490234e-01 -3.219919502735137939e-01 1.038656085729598999e-01 2.687243185937404633e-02 6.314075738191604614e-02 1.314689815044403076e-01 8.875126391649246216e-02 2.270564064383506775e-02 -1.522857602685689926e-02 -1.174005120992660522e-01 -5.112420320510864258e-01 3.869841806590557098e-03 9.350995719432830811e-02 -8.055000752210617065e-02 -2.192842960357666016e-01 1.860526204109191895e-01 -8.898780494928359985e-02 -9.077381342649459839e-02 8.038486540317535400e-02 -1.103165745735168457e-01 -1.497427374124526978e-02 -5.270950123667716980e-02 3.805509069934487343e-03 7.314539700746536255e-02 -1.143195480108261108e-02 4.894299805164337158e-02 -6.778754293918609619e-02 -1.953593790531158447e-01 -4.337374493479728699e-02 -5.509389564394950867e-02 8.099311590194702148e-02 6.871781498193740845e-02 -1.730908900499343872e-01 6.791415065526962280e-02 9.423477202653884888e-02 -5.453993007540702820e-02 -2.215828150510787964e-01 -5.721317138522863388e-03 -3.607763648033142090e-01 -1.604576036334037781e-02 -1.312589198350906372e-01 -1.842816732823848724e-02 9.614120423793792725e-02 4.575661569833755493e-02 -2.512824721634387970e-03 4.579592123627662659e-02 -1.211880743503570557e-01 -7.292057573795318604e-02 2.706571482121944427e-03 3.643155796453356743e-03 -1.231845766305923462e-01 -9.441407769918441772e-02 -2.089531905949115753e-02 4.924950748682022095e-02 -2.366621606051921844e-02 1.201190948486328125e-01 1.867383271455764771e-01 1.361911147832870483e-01 1.614896655082702637e-01 9.126224368810653687e-02 -1.158160492777824402e-01 2.474394291639328003e-01 9.841742366552352905e-02 2.006946131587028503e-02 1.103649288415908813e-01 -4.512740997597575188e-04 1.794880926609039307e-01 -4.785276576876640320e-02 1.454262733459472656e-01 3.816515952348709106e-02 5.920191109180450439e-02 -5.041228979825973511e-02 -8.471593260765075684e-03
7.210803776979446411e-02 4.255709424614906311e-02 6.111993268132209778e-02 2.064941823482513428e-01 1.110446639358997345e-02 9.880664944648742676e-02 -2.304822504520416260e-01 6.273528188467025757e-02 4.686937853693962097e-02 -1.529584527015686035e-01 7.595527917146682739e-02 5.933146551251411438e-02 -1.836991310119628906e-01 1.463921461254358292e-02 -6.945465505123138428e-02 -2.568895816802978516e-01 -7.414026558399200439e-02 -1.007649898529052734e-01 -7.936958968639373779e-02 -7.804036885499954224e-02 2.391722053289413452e-02 -2.678645960986614227e-02 -1.749604195356369019e-01 1.825718767940998077e-02 -2.192327231168746948e-01 -5.515142530202865601e-02 -2.072584033012390137e-01 -1.823092848062515259e-01 3.535541519522666931e-02 6.893577426671981812e-02 -5.368222668766975403e-02 -1.176851466298103333e-01 -8.499918878078460693e-02 5.940065160393714905e-02 4.504508152604103088e-02 4.140708129853010178e-03 5.421649664640426636e-02 7.258251309394836426e-02 -4.910255968570709229e-02 -6.864622235298156738e-02 8.149462938308715820e-02 -2.200656756758689880e-02 2.679189201444387436e-03 1.869855970144271851e-01 -6.711049377918243408e-02 -6.846480071544647217e-03 -4.119078814983367920e-01 -3.988948836922645569e-02 -8.036147058010101318e-02 -9.766406379640102386e-03 -2.145631937310099602e-03 -4.468246549367904663e-02 -2.925372449681162834e-03 3.379311040043830872e-02 3.813844919204711914e-02 5.297232419252395630e-02 5.485354922711849213e-03 -9.209889918565750122e-02 7.018166035413742065e-02 5.804868042469024658e-02 2.612132020294666290e-02 -3.636716902256011963e-01 2.861117757856845856e-02 -3.188289701938629150e-02 -6.389681249856948853e-02 -4.071664512157440186e-01 -1.314797550439834595e-01 -3.981478139758110046e-02 -1.997110396623611450e-01 7.665805518627166748e-02 5.337977409362792969e-02 1.418599393218755722e-02 -2.793170046061277390e-03 -1.194194927811622620e-01 -1.393218338489532471e-01 5.521871149539947510e-02 -6.555359810590744019e-02 1.583708524703979492e-01 3.979147225618362427e-02 1.897585839033126831e-01 1.867191940546035767e-01 -1.239829137921333313e-01 5.598078668117523193e-02 -6.587474048137664795e-02 1.737781614065170288e-01 -6.651179492473602295e-02 -2.021547779440879822e-02 9.958801418542861938e-02 2.721395194530487061e-01 -5.477322638034820557e-02 -8.226501196622848511e-02 -1.328375190496444702e-02 2.958844602108001709e-02 -6.535239517688751221e-02 -4.590609669685363770e-01 1.607260555028915405e-01 3.434851765632629395e-02 7.721623033285140991e-02 8.151364326477050781e-02 -4.406500142067670822e-03 2.631736919283866882e-02 1.433164775371551514e-01 2.634827513247728348e-03 3.858143463730812073e-02 -4.112338647246360779e-02 1.339043378829956055e-01 -1.003895550966262817e-01 -3.579545393586158752e-02 1.968029141426086426e-01 -1.586258038878440857e-02 1.548038572072982788e-01 7.577198743820190430e-02 -9.436462074518203735e-02 -2.276236657053232193e-03 1.696359179913997650e-02 -3.374611735343933105e-01 1.238329261541366577e-01 3.184537962079048157e-02 2.429241091012954712e-01 2.045327052474021912e-02 1.752043515443801880e-02 -2.542448639869689941e-01 -1.021034549921751022e-02 -2.113505154848098755e-01 1.367513835430145264e-01 -8.949592709541320801e-02 1.766094267368316650e-01 -5.355367437005043030e-02 1.372828483581542969e-01 3.355577960610389709e-02 -1.496019810438156128e-01 -8.769970387220382690e-02 -4.262916371226310730e-02 -1.444395780563354492e-01 6.904967129230499268e-02 -7.333415746688842773e-02 9.957253187894821167e-02 1.085338890552520752e-01 5.747487396001815796e-02 -3.545786440372467041e-02 2.082403376698493958e-02 -2.059706598520278931e-01 -9.814474731683731079e-02 4.462962597608566284e-02 -2.514001913368701935e-02 -3.466963171958923340e-01 -7.086779177188873291e-02 -9.509769827127456665e-02 1.767754405736923218e-01 7.276180386543273926e-02 1.740794330835342407e-01 7.142297178506851196e-02 -1.440786272287368774e-01 -1.143034920096397400e-01 3.771404549479484558e-02 7.443845272064208984e-02 1.582130976021289825e-02 -7.346326112747192383e-02 2.697661705315113068e-02 -6.187623739242553711e-02 -6.902617402374744415e-03 1.297147199511528015e-02 -1.229186803102493286e-01 -1.508331745862960815e-01 1.007886528968811035e-01 4.353719949722290039e-02 2.708138711750507355e-02 -8.293167501688003540e-02 6.425062566995620728e-02 -9.526746720075607300e-02 -2.538744732737541199e-02 1.873218268156051636e-01 2.906950414180755615e-01 -2.111010104417800903e-01 -5.437733978033065796e-02 -4.634716361761093140e-02 6.744898110628128052e-02 -2.005319446325302124e-01 2.719223871827125549e-02 -1.426636576652526855e-01 -1.897456869482994080e-02 -1.113587394356727600e-01 -2.996484339237213135e-01 -8.743379265069961548e-02 -3.593086730688810349e-03 -7.689344137907028198e-02 -2.380220890045166016e-01 1.299962699413299561e-01 7.600694149732589722e-02 2.562430687248706818e-02 8.841226994991302490e-02 -3.076359629631042480e-02 -4.543486516922712326e-03 -5.263309478759765625e-01 8.259864896535873413e-02 5.347412079572677612e-02 1.346404254436492920e-01 -2.633105218410491943e-01 -1.875281520187854767e-02 2.341371774673461914e-02 5.845738947391510010e-02 -2.528822794556617737e-02 4.680941812694072723e-03 2.002938464283943176e-02 1.647378504276275635e-01 -4.127894993871450424e-03 1.026984229683876038e-01 -1.369674354791641235e-01 -6.320606172084808350e-02 -5.860555544495582581e-02 -5.009898543357849121e-02 -1.094958931207656860e-01 -1.349939964711666107e-02 -1.049910392612218857e-02 4.807931929826736450e-02 1.424373984336853027e-01 3.128318861126899719e-02 4.906831309199333191e-02 1.669911444187164307e-01 -8.563952147960662842e-02 1.603392362594604492e-01 -4.486638307571411133e-01 -6.016098335385322571e-02 -4.503325745463371277e-02 -1.912742704153060913e-01 -3.346855565905570984e-02 -1.008290201425552368e-01 9.209298342466354370e-02 2.000638283789157867e-02 -1.936140209436416626e-01 -3.274355456233024597e-02 -3.034503571689128876e-02 -8.416271209716796875e-02 1.121438592672348022e-01 -1.594424545764923096e-01 7.506433129310607910e-02 -5.523068457841873169e-02 5.092179402709007263e-02 -2.107949256896972656e-01 -9.951659291982650757e-02 1.156316883862018585e-02 7.442785054445266724e-02 7.289159297943115234e-02 2.767665870487689972e-02 -1.346527715213596821e-03 8.725284039974212646e-02 7.735812664031982422e-02 -6.321549415588378906e-02 -1.430476158857345581e-01 -7.425858173519372940e-03 -3.255895152688026428e-02 -3.141151368618011475e-02 -9.247388690710067749e-03 -6.647141277790069580e-02 3.105469606816768646e-02 9.021742641925811768e-02
-1.046166941523551941e-01 -1.201051007956266403e-02 8.420857787132263184e-02 9.445101767778396606e-02 -5.924354773014783859e-03 5.922290310263633728e-02 -2.106088846921920776e-01 2.378534898161888123e-02 1.129373461008071899e-01 -4.662299901247024536e-02 -5.552215129137039185e-02 -3.474935423582792282e-03 -4.194274172186851501e-02 6.727417558431625366e-02 1.080679148435592651e-01 8.764041960239410400e-02 4.427891597151756287e-02 9.397510439157485962e-02 1.635605469346046448e-03 1.499382406473159790e-01 5.576973315328359604e-03 -1.730024814605712891e-02 -9.849009662866592407e-02 -4.984214529395103455e-02 -6.722241640090942383e-02 1.390082091093063354e-01 -2.542445063591003418e-01 -1.817093193531036377e-01 -3.653723001480102539e-02 -9.908100037137046456e-05 4.969317466020584106e-02 -1.128107830882072449e-01 -1.187602132558822632e-01 6.827797740697860718e-02 8.375860005617141724e-02 -4.014633968472480774e-02 -5.184589698910713196e-02 -1.383681595325469971e-02 -4.468888044357299805e-02 4.611926618963479996e-03 -1.401730179786682129e-01 9.536539763212203979e-02 -4.817978665232658386e-02 9.749588370323181152e-02 -6.401643902063369751e-02 1.768881222233176231e-03 -3.606775403022766113e-01 9.670060873031616211e-02 5.264811217784881592e-02 -4.539657384157180786e-02 5.603868141770362854e-02 1.505485773086547852e-01 1.619821637868881226e-01 8.070584386587142944e-02 -1.335997320711612701e-02 -1.131362244486808777e-01 1.637613475322723389e-01 2.403125315904617310e-01 -5.535985156893730164e-02 7.131840288639068604e-02 -3.563138097524642944e-02 -4.967441558837890625e-01 1.360840648412704468e-01 2.850021235644817352e-02 1.379551738500595093e-01 -3.475048243999481201e-01 -3.005526587367057800e-02 4.598126187920570374e-02 -1.950327903032302856e-01 9.688071906566619873e-02 6.775619834661483765e-02 -3.576446324586868286e-02 2.018304616212844849e-01 -2.676882222294807434e-02 -1.626399606466293335e-01 1.887588798999786377e-01 8.484662324190139771e-02 1.196048408746719360e-01 -7.931033521890640259e-02 2.558063482865691185e-03 2.043123543262481689e-02 2.523806691169738770e-02 -1.769665628671646118e-01 -4.691452533006668091e-02 -6.674575619399547577e-03 -9.475509822368621826e-02 3.192456439137458801e-02 2.963921613991260529e-02 4.636945948004722595e-02 -8.442830294370651245e-02 -7.054274529218673706e-02 -5.619039759039878845e-02 -1.343646347522735596e-01 -6.710339337587356567e-03 -5.052959322929382324e-01 1.135331764817237854e-01 -7.753314822912216187e-02 -9.529758989810943604e-02 -1.039691716432571411e-01 1.578795537352561951e-02 -1.133699268102645874e-01 -6.548766512423753738e-03 1.614397019147872925e-01 8.739259093999862671e-02 6.940096151083707809e-03 -1.347906049340963364e-02 -7.475259155035018921e-02 9.041921049356460571e-02 -8.191275596618652344e-02 -8.609009534120559692e-02 -3.771658241748809814e-02 -2.029130235314369202e-02 -2.191511243581771851e-01 -7.709407061338424683e-02 7.772763818502426147e-02 -2.076331824064254761e-01 1.364135295152664185e-01 -1.853172332048416138e-01 3.249577805399894714e-02 7.027383428066968918e-03 -2.320021204650402069e-02 -1.730973124504089355e-01 2.847492881119251251e-02 -2.472480833530426025e-01 -3.122413344681262970e-02 -6.676486879587173462e-02 7.398081570863723755e-02 1.893505007028579712e-01 -1.242102906107902527e-01 -6.606798619031906128e-02 3.570287674665451050e-02 -1.248885542154312134e-01 -6.166563183069229126e-02 1.096041798591613770e-01 7.613775134086608887e-02 1.119774654507637024e-01 1.008377596735954285e-01 4.547559842467308044e-02 1.079742386937141418e-01 -4.870162904262542725e-02 1.924104429781436920e-02 -1.912759840488433838e-01 5.698237195611000061e-02 2.131758071482181549e-02 -5.989750474691390991e-02 -4.526802003383636475e-01 4.480410739779472351e-02 6.494685262441635132e-02 5.315187573432922363e-02 3.691700473427772522e-02 6.451642513275146484e-02 5.124263931065797806e-03 -1.590276658535003662e-01 -8.514285087585449219e-02 1.634309999644756317e-02 6.848142296075820923e-02 -2.555250748991966248e-02 -1.605728715658187866e-01 -2.284451201558113098e-02 7.990908622741699219e-02 -1.761164516210556030e-01 3.843443840742111206e-02 1.859907433390617371e-02 -1.146428585052490234e-01 -9.000677615404129028e-02 2.526886574923992157e-02 -2.820397019386291504e-01 -8.442914485931396484e-02 6.849898397922515869e-02 -1.682350933551788330e-01 -1.630387157201766968e-01 1.715626418590545654e-01 1.139885745942592621e-03 1.263873577117919922e-01 6.198069825768470764e-02 -2.098115533590316772e-01 -2.752553485333919525e-02 -1.939198970794677734e-01 -1.023705154657363892e-01 -1.302122473716735840e-01 7.021571695804595947e-02 1.599113829433917999e-02 -1.684409826993942261e-01 -1.493329554796218872e-01 -5.268082022666931152e-02 3.768762946128845215e-02 -1.368960738182067871e-01 1.983964443206787109e-02 -6.764594465494155884e-03 -8.138549327850341797e-02 8.844827860593795776e-02 -1.483912318944931030e-01 -1.128149032592773438e-01 -5.060097575187683105e-01 -6.464881356805562973e-03 1.143724545836448669e-01 3.856601566076278687e-02 -2.411276847124099731e-01 3.553581610321998596e-02 1.029473766684532166e-01 -5.498836934566497803e-02 -5.078389495611190796e-02 1.274154633283615112e-01 7.251356542110443115e-02 2.981736324727535248e-02 2.352789230644702911e-02 5.967264622449874878e-02 3.947304934263229370e-02 8.283190429210662842e-02 -2.603131532669067383e-01 -1.228999122977256775e-01 -6.586667895317077637e-02 2.068003825843334198e-02 -8.898357301950454712e-02 4.410336539149284363e-02 2.081418484449386597e-01 -5.667067319154739380e-02 7.452514022588729858e-02 1.371970474720001221e-01 -2.803196199238300323e-02 1.440125852823257446e-01 -1.348688453435897827e-01 -1.501679122447967529e-01 -7.757216691970825195e-02 -1.444927603006362915e-01 -1.194673180580139160e-01 -1.530863940715789795e-01 1.329841464757919312e-01 -2.217333018779754639e-01 -4.586317390203475952e-02 -1.258406490087509155e-01 5.100978165864944458e-02 5.263090878725051880e-02 -7.221088558435440063e-02 7.525441795587539673e-02 1.644651144742965698e-01 -1.311620138585567474e-02 -6.763252615928649902e-02 -3.662231937050819397e-02 5.198411643505096436e-03 9.493123739957809448e-02 -9.612827003002166748e-02 5.427063629031181335e-02 8.046828210353851318e-02 8.783338963985443115e-02 6.548697501420974731e-02 -5.196824204176664352e-03 1.279449909925460815e-01 6.184390746057033539e-03 1.493448317050933838e-01 5.288139358162879944e-02 2.654713578522205353e-02 -9.497562795877456665e-02 7.711888849735260010e-02 -1.357728689908981323e-01 1.010664552450180054e-01
2.687671687453985214e-03 4.270408302545547485e-02 -2.121168002486228943e-02 1.961916685104370117e-01 8.424017578363418579e-03 -1.874082982540130615e-01 1.268751174211502075e-01 1.241875588893890381e-01 -1.051766425371170044e-01 -7.868646085262298584e-02 1.314254105091094971e-01 -8.096048608422279358e-03 5.029648169875144958e-02 1.220615208148956299e-02 3.702056407928466797e-02 3.014894947409629822e-02 -7.526011765003204346e-02 2.032271958887577057e-02 -6.390090100467205048e-03 1.236352398991584778e-01 1.243265047669410706e-01 -1.102167591452598572e-01 -1.029684916138648987e-01 1.358189433813095093e-01 5.422268062829971313e-02 -5.767570808529853821e-02 -6.817338615655899048e-02 -1.785918474197387695e-01 -1.761654950678348541e-02 4.196580126881599426e-02 -9.755888581275939941e-02 3.019039891660213470e-02 -4.010587930679321289e-02 1.997918635606765747e-01 -6.424163933843374252e-03 1.811128556728363037e-01 -1.025475934147834778e-01 7.033411879092454910e-03 -9.000097215175628662e-02 1.664108932018280029e-01 4.106336273252964020e-03 -5.900230258703231812e-02 -1.302601993083953857e-01 1.199868395924568176e-01 5.166567116975784302e-02 1.118058413267135620e-01 -2.503987848758697510e-01 3.870359435677528381e-02 1.266753971576690674e-01 -5.420509725809097290e-02 1.539000589400529861e-02 -5.446654930710792542e-02 -3.071143478155136108e-02 -5.816966667771339417e-02 -1.021020635962486267e-01 2.632269449532032013e-02 1.456811428070068359e-01 -7.211274653673171997e-02 4.188140854239463806e-02 1.362671107053756714e-01 6.816123425960540771e-02 -3.349402248859405518e-01 -3.692393749952316284e-02 -1.592363864183425903e-01 -2.862031385302543640e-02 -2.651373445987701416e-01 -7.644270360469818115e-02 -3.630813583731651306e-02 -1.189447715878486633e-01 1.365086901932954788e-02 -7.298853993415832520e-02 3.299060463905334473e-02 1.140799373388290405e-01 9.302774071693420410e-02 -4.424813389778137207e-01 2.009558677673339844e-01 1.072884425520896912e-01 1.589186638593673706e-01 -3.707079216837882996e-02 3.462430834770202637e-02 -1.165881231427192688e-01 -4.710784927010536194e-02 -1.256961524486541748e-01 9.145411849021911621e-02 -5.954726412892341614e-02 -1.217292398214340210e-01 6.235473975539207458e-02 1.141153797507286072e-01 -5.328114330768585205e-02 -3.023845702409744263e-02 6.384499371051788330e-02 5.085825920104980469e-02 -9.730585664510726929e-02 -7.031470537185668945e-02 -2.983312010765075684e-01 -2.502769231796264648e-01 -4.340856894850730896e-02 1.429303586483001709e-01 1.144288033246994019e-01 1.282539963722229004e-01 -3.543563559651374817e-02 7.010514289140701294e-02 8.554231375455856323e-02 1.128851771354675293e-01 -6.954127550125122070e-02 -3.798738820478320122e-03 8.396559208631515503e-02 1.162481456995010376e-01 -8.860713243484497070e-02 -8.918619155883789062e-02 1.839952021837234497e-01 -2.164735272526741028e-02 -9.701491892337799072e-02 -1.511835902929306030e-01 2.329331040382385254e-01 -3.317684233188629150e-01 1.413157880306243896e-01 4.068826138973236084e-02 1.726366952061653137e-02 2.267134189605712891e-02 1.311553418636322021e-01 -8.278953842818737030e-03 -4.611726850271224976e-02 -2.688476741313934326e-01 5.194705724716186523e-02 -8.518218249082565308e-02 -8.100592531263828278e-03 2.380505017936229706e-02 1.022098027169704437e-02 2.999488636851310730e-02 6.434163451194763184e-02 1.146538481116294861e-01 -1.449087113142013550e-01 -7.807334512472152710e-02 -3.337389975786209106e-02 -6.328888237476348877e-02 3.811357170343399048e-02 -9.532018005847930908e-02 4.084066301584243774e-02 6.093194708228111267e-02 -8.045709133148193359e-02 -1.071835868060588837e-02 7.389374822378158569e-02 -3.744466602802276611e-02 8.607986383140087128e-03 -1.675051003694534302e-01 -6.016606092453002930e-02 -9.283313527703285217e-03 -4.849299788475036621e-02 4.689700528979301453e-02 -1.310932338237762451e-01 3.760805353522300720e-02 1.140502467751502991e-01 1.509786024689674377e-02 -1.507088840007781982e-01 -6.860096752643585205e-02 -2.293511293828487396e-02 -1.694817468523979187e-02 -1.268004328012466431e-01 5.764138326048851013e-02 2.912905253469944000e-02 1.139948423951864243e-02 5.632806196808815002e-02 1.010291948914527893e-01 -6.299202889204025269e-02 9.795132279396057129e-02 3.972730040550231934e-02 -1.483431756496429443e-01 8.885078132152557373e-03 -1.487385332584381104e-01 -5.444172769784927368e-02 -6.895860284566879272e-02 4.873954132199287415e-02 -6.842936575412750244e-02 1.146751195192337036e-01 5.792031437158584595e-02 1.708020120859146118e-01 5.625018477439880371e-02 -8.137130737304687500e-02 6.999287009239196777e-02 3.323730826377868652e-02 4.803477600216865540e-02 -1.219748612493276596e-02 -5.245187133550643921e-02 -5.803488567471504211e-02 -5.865713581442832947e-02 5.333829321898519993e-04 1.472626477479934692e-01 -2.950164675712585449e-01 1.264242231845855713e-01 2.977012470364570618e-02 -5.404668673872947693e-02 -1.231012940406799316e-01 -2.945381999015808105e-01 -7.659906893968582153e-02 -1.041303202509880066e-01 -1.316964775323867798e-01 -2.388975173234939575e-01 -1.630744040012359619e-01 1.414526402950286865e-01 8.796958625316619873e-02 5.629608035087585449e-02 9.168653935194015503e-02 1.882610656321048737e-02 -1.829937547445297241e-01 -6.593026686459779739e-03 2.154878079891204834e-01 1.314374059438705444e-01 6.002603843808174133e-02 -2.049262523651123047e-01 -2.179810106754302979e-01 -2.312713116407394409e-02 9.184470400214195251e-03 6.414826214313507080e-02 -1.659692972898483276e-01 -1.232005804777145386e-01 6.134609133005142212e-02 -1.026802361011505127e-01 2.213634923100471497e-02 -1.081182509660720825e-01 1.003324687480926514e-01 -4.983253404498100281e-02 -6.208625063300132751e-02 -1.466501355171203613e-01 -2.313562780618667603e-01 -5.973805487155914307e-02 4.769963398575782776e-02 -7.759210467338562012e-02 -1.582962423563003540e-01 2.822813950479030609e-02 5.266019329428672791e-02 9.659906476736068726e-02 3.976360335946083069e-02 2.518356442451477051e-01 -7.718472182750701904e-02 2.817228622734546661e-02 -1.835581511259078979e-01 2.978680729866027832e-01 -4.560650140047073364e-02 -8.440423756837844849e-02 4.553939774632453918e-02 1.229558438062667847e-01 2.175903646275401115e-03 -4.942480474710464478e-02 -9.935720264911651611e-02 3.398321568965911865e-02 -1.612676829099655151e-01 -5.010649561882019043e-02 9.416408836841583252e-02 -1.641774363815784454e-02 -1.340650469064712524e-01 -2.184044383466243744e-02 1.283912919461727142e-02 7.085334509611129761e-02 -1.524834781885147095e-01 1.763803213834762573e-01
1.043233796954154968e-01 -5.637220665812492371e-02 -5.238267779350280762e-02 4.837156832218170166e-02 1.665342971682548523e-02 1.767989993095397949e-02 1.554130855947732925e-02 -6.844221055507659912e-02 -1.081406883895397186e-02 1.005670800805091858e-02 -5.143879354000091553e-02 1.295354962348937988e-01 9.646527469158172607e-02 -9.542861580848693848e-02 9.354616701602935791e-02 -1.232548654079437256e-01 -3.053607791662216187e-02 -9.297944605350494385e-03 -1.815676540136337280e-01 -4.303397238254547119e-02 5.727836396545171738e-03 -1.101620867848396301e-01 7.187824230641126633e-04 4.987958446145057678e-02 -3.159802034497261047e-02 -4.985721409320831299e-02 -3.970535099506378174e-01 -1.713317334651947021e-01 -1.021115332841873169e-01 3.778928890824317932e-02 -1.212322935461997986e-01 1.248340755701065063e-01 -3.841676807496696711e-04 1.850748062133789062e-02 -7.591715455055236816e-02 6.791329383850097656e-02 1.006891876459121704e-01 -4.053500294685363770e-02 -6.145253404974937439e-02 -6.420495361089706421e-02 5.233012884855270386e-02 2.385147511959075928e-01 -1.656965613365173340e-01 9.167887270450592041e-02 -1.188808307051658630e-01 9.330623596906661987e-02 -2.751188874244689941e-01 1.912826895713806152e-01 8.612368255853652954e-02 -1.327499896287918091e-01 -1.682453975081443787e-02 1.455661058425903320e-01 2.921193465590476990e-02 1.603079400956630707e-02 7.636662572622299194e-02 -6.668300367891788483e-03 -2.545882575213909149e-02 1.853869259357452393e-01 4.561715200543403625e-02 8.532377332448959351e-02 -2.049444243311882019e-02 -1.835380941629409790e-01 -2.344229444861412048e-02 -4.748206958174705505e-02 3.525813668966293335e-02 -2.331084012985229492e-01 8.806971460580825806e-02 -1.793217100203037262e-02 -3.462594151496887207e-01 -1.210848391056060791e-01 -2.251948975026607513e-02 -4.638209193944931030e-02 1.724907010793685913e-02 1.680248230695724487e-02 -3.729612529277801514e-01 1.468286961317062378e-01 -2.866487205028533936e-02 -1.901449561119079590e-01 1.233885139226913452e-01 7.570063322782516479e-02 -4.538419842720031738e-02 -4.305888712406158447e-02 3.564299270510673523e-02 1.991400728002190590e-03 -1.004535183310508728e-01 4.463499784469604492e-02 -7.997415214776992798e-02 2.690280973911285400e-02 8.990748226642608643e-02 3.793383389711380005e-02 6.635434925556182861e-02 -5.718237534165382385e-02 6.552314758300781250e-02 1.173938289284706116e-01 -4.032272994518280029e-01 9.269352257251739502e-02 -2.383426725864410400e-01 1.504567563533782959e-01 -7.478682696819305420e-02 1.323529034852981567e-01 -7.270695269107818604e-02 4.061690345406532288e-02 7.156632840633392334e-02 1.619561910629272461e-01 -8.990688249468803406e-03 1.164519041776657104e-02 6.316813174635171890e-03 -5.559531599283218384e-02 -7.982593774795532227e-02 1.413573175668716431e-01 -6.220770254731178284e-02 -4.340492561459541321e-02 -7.937639951705932617e-02 -2.777361571788787842e-01 3.360981494188308716e-02 5.629677698016166687e-02 1.330869495868682861e-01 2.514474280178546906e-02 1.357564032077789307e-01 -1.428227424621582031e-01 8.064622431993484497e-02 -2.511103749275207520e-01 -2.566990070044994354e-02 -9.792995452880859375e-02 -8.981640636920928955e-02 -1.081462576985359192e-01 5.123078450560569763e-02 -1.605664193630218506e-01 7.197325676679611206e-02 1.847097277641296387e-01 1.964724808931350708e-01 -6.403400748968124390e-02 6.593924760818481445e-02 -1.252853274345397949e-01 -1.598060829564929008e-03 1.868917793035507202e-02 1.236981898546218872e-01 -1.131928116083145142e-01 -8.191242069005966187e-02 -1.311613917350769043e-01 4.967133328318595886e-02 -1.188754811882972717e-01 -9.605398029088973999e-02 1.093863844871520996e-01 -6.706392019987106323e-02 -4.107127189636230469e-01 -3.272751867771148682e-01 -4.283604025840759277e-02 -8.989211916923522949e-02 1.094244420528411865e-01 2.957412227988243103e-02 1.055560912936925888e-02 1.612667292356491089e-01 6.238661333918571472e-02 -4.755798354744911194e-02 -1.219175569713115692e-02 -1.971258595585823059e-02 1.151066273450851440e-01 -1.856304109096527100e-01 -3.827921301126480103e-02 1.194578856229782104e-01 -3.288227692246437073e-02 1.134805753827095032e-02 6.049205735325813293e-02 -8.213607221841812134e-02 -2.126674912869930267e-02 -3.996347635984420776e-02 6.241549551486968994e-02 -1.674041338264942169e-02 -1.040689498186111450e-01 -9.034354239702224731e-02 -1.209610775113105774e-01 8.155077695846557617e-02 1.077867001295089722e-01 3.734152019023895264e-02 -5.007231980562210083e-02 3.327257931232452393e-02 1.037596613168716431e-01 -6.949314475059509277e-02 -4.251439496874809265e-02 9.258085489273071289e-02 9.405377507209777832e-02 -5.609593540430068970e-02 -1.910129375755786896e-02 -2.715437114238739014e-01 4.010441526770591736e-02 3.389092907309532166e-02 4.611382633447647095e-02 5.280950665473937988e-02 1.460234820842742920e-02 3.513097390532493591e-02 2.295441925525665283e-03 -2.423614636063575745e-02 -3.642564713954925537e-01 6.798336654901504517e-02 -1.422816962003707886e-01 1.436486840248107910e-01 -4.504729509353637695e-01 1.097847893834114075e-01 1.021676659584045410e-01 3.981617093086242676e-02 7.982324063777923584e-02 -5.059843137860298157e-02 1.874279230833053589e-01 1.861532405018806458e-02 3.532354533672332764e-02 -8.342889137566089630e-03 -1.478457916527986526e-02 -9.703507274389266968e-02 1.068362146615982056e-01 -3.347412943840026855e-01 -2.019993495196104050e-03 -1.304959356784820557e-01 -1.772222225554287434e-03 2.998798899352550507e-02 -1.437759771943092346e-02 -1.150245033204555511e-02 -3.362475708127021790e-02 3.761356696486473083e-02 -8.064844459295272827e-02 1.999385282397270203e-02 -1.606750935316085815e-01 7.447751611471176147e-02 -2.331132628023624420e-02 -1.681402325630187988e-02 9.806059300899505615e-02 1.203823015093803406e-01 3.917566686868667603e-02 -3.061513230204582214e-02 -1.711411476135253906e-01 1.391888945363461971e-03 6.234577670693397522e-02 -1.248522400856018066e-01 4.049596935510635376e-02 3.378099203109741211e-02 1.820882111787796021e-01 7.436293363571166992e-02 -1.401100158691406250e-01 -4.241937771439552307e-02 -1.759042614139616489e-03 2.983663976192474365e-01 5.476880818605422974e-02 -1.005258858203887939e-01 3.763981163501739502e-02 3.984180837869644165e-02 3.066429682075977325e-02 -3.448382019996643066e-02 -6.245540454983711243e-02 5.520365387201309204e-02 -6.253281235694885254e-02 -3.276377171277999878e-02 3.100348869338631630e-03 -1.212703511118888855e-01 5.858613643795251846e-03 2.432838082313537598e-02 1.785917207598686218e-02
3.384376317262649536e-02 -1.864705085754394531e-01 -1.960891932249069214e-01 -2.553470991551876068e-02 -4.019534960389137268e-02 2.134817093610763550e-01 -9.518585354089736938e-02 1.073185577988624573e-01 -4.550526663661003113e-02 -1.181239355355501175e-02 1.097125932574272156e-01 -1.259174793958663940e-01 -2.033757418394088745e-02 -1.003424078226089478e-01 -1.583957672119140625e-01 1.018938496708869934e-01 -4.307791218161582947e-02 1.339389830827713013e-01 -5.407450795173645020e-01 -4.460429400205612183e-02 -6.433136016130447388e-02 5.637669935822486877e-02 2.336160540580749512e-01 -5.143087729811668396e-02 6.575438193976879120e-03 4.732856154441833496e-02 -5.773942917585372925e-02 1.406970620155334473e-01 -2.152682989835739136e-01 -8.631517179310321808e-03 8.584869652986526489e-02 1.267657428979873657e-01 5.636000260710716248e-02 1.011015102267265320e-01 -1.794002950191497803e-02 7.770913094282150269e-02 1.813702136278152466e-01 4.115846380591392517e-02 3.684516996145248413e-03 1.593259721994400024e-01 1.582169719040393829e-02 -6.076585128903388977e-02 -1.816504895687103271e-01 -1.215897724032402039e-01 2.373027801513671875e-01 -1.460248511284589767e-02 -1.420445293188095093e-01 1.588989943265914917e-01 -1.236821934580802917e-01 8.775062114000320435e-02 -4.823120683431625366e-02 6.378357112407684326e-02 8.374416083097457886e-02 1.714067906141281128e-01 -1.171796098351478577e-01 -1.732030361890792847e-01 -9.403510391712188721e-02 5.826507881283760071e-02 4.505009576678276062e-02 -4.117406904697418213e-03 1.044594310224056244e-02 1.747420579195022583e-01 -7.488214224576950073e-02 -6.506419926881790161e-02 1.114812958985567093e-02 1.465284079313278198e-01 4.229294881224632263e-02 -9.088940918445587158e-02 -3.767476975917816162e-01 -1.444978639483451843e-02 -2.060177922248840332e-02 -1.227943599224090576e-02 2.626449055969715118e-02 1.487185508012771606e-01 -1.720840483903884888e-01 -2.430958207696676254e-03 7.155124843120574951e-02 1.145208030939102173e-01 1.373351458460092545e-02 -1.007641926407814026e-01 6.010082364082336426e-02 -3.467826545238494873e-02 -3.686821088194847107e-02 -2.444353885948657990e-03 1.630905643105506897e-02 -8.632142096757888794e-02 -6.515051424503326416e-02 -5.578478425741195679e-02 -1.259669214487075806e-01 7.588838785886764526e-02 6.996076554059982300e-02 -2.660617828369140625e-01 -6.907046586275100708e-02 6.307417899370193481e-02 -1.141787022352218628e-01 8.356967568397521973e-02 -9.876864403486251831e-02 1.255300343036651611e-01 -8.502694964408874512e-02 1.080237701535224915e-02 -5.386175587773323059e-02 -2.379025332629680634e-02 7.774697244167327881e-02 1.538732051849365234e-01 1.226700693368911743e-01 1.004344522953033447e-01 3.579813241958618164e-02 -7.776445895433425903e-02 -2.906099520623683929e-02 9.816949814558029175e-02 -3.400775045156478882e-02 -1.455274373292922974e-01 -1.816905140876770020e-01 8.283236622810363770e-02 2.062994614243507385e-02 1.751810498535633087e-02 -1.294617503881454468e-01 -1.608227007091045380e-02 7.686392962932586670e-02 3.778202459216117859e-02 4.809259250760078430e-02 -9.057158231735229492e-02 -7.688430696725845337e-02 8.353999257087707520e-02 -5.638827010989189148e-02 -5.605361983180046082e-02 -3.624037373811006546e-03 1.366251260042190552e-01 4.462560638785362244e-02 3.070769086480140686e-02 1.970774084329605103e-01 4.968113079667091370e-02 6.763864308595657349e-02 1.007698103785514832e-02 -2.968195825815200806e-02 -1.130320280790328979e-01 -4.548947513103485107e-02 -4.511088877916336060e-02 1.351600605994462967e-02 -2.235196530818939209e-01 1.733074486255645752e-01 -1.681585162878036499e-01 2.056898362934589386e-02 -8.186895400285720825e-02 8.493991196155548096e-02 1.669114232063293457e-01 -2.056914865970611572e-01 -5.313393846154212952e-02 5.501386150717735291e-02 -1.319506168365478516e-01 1.656727679073810577e-02 -8.662907034158706665e-02 2.272195555269718170e-02 1.236408427357673645e-01 -6.774126738309860229e-02 -4.914740473031997681e-02 -2.768319472670555115e-02 -6.564372032880783081e-02 8.331666886806488037e-02 -8.504979312419891357e-02 1.537527516484260559e-02 -1.781962811946868896e-01 -1.706383936107158661e-02 2.238417789340019226e-02 -2.661170363426208496e-01 9.907964617013931274e-02 6.078753992915153503e-02 -1.181872114539146423e-01 3.473147284239530563e-03 6.266554817557334900e-03 5.901641026139259338e-02 8.895646780729293823e-02 -2.044447362422943115e-01 -8.964256383478641510e-03 1.329699158668518066e-01 9.201300144195556641e-02 2.073830515146255493e-01 -8.387889713048934937e-02 3.596439585089683533e-02 -1.293068677186965942e-01 -1.328041553497314453e-01 3.189804404973983765e-02 1.052436828613281250e-01 -1.144129112362861633e-01 -5.330479145050048828e-01 4.870078712701797485e-02 2.452095784246921539e-02 -1.803324557840824127e-02 -6.837452203035354614e-02 8.918613195419311523e-03 1.044859364628791809e-01 -5.917592905461788177e-03 1.167769432067871094e-01 -1.723106354475021362e-01 -5.593215674161911011e-02 2.458832599222660065e-02 2.670249156653881073e-02 -4.759242013096809387e-02 6.467024236917495728e-02 -4.061688482761383057e-02 2.210119180381298065e-02 1.757556200027465820e-01 5.475406721234321594e-02 1.265912055969238281e-01 4.976763203740119934e-02 1.128917336463928223e-01 -8.666659146547317505e-02 -2.209248486906290054e-03 -3.415754809975624084e-02 9.111874550580978394e-02 -7.844311743974685669e-02 -1.281017512083053589e-01 1.920353621244430542e-01 -7.395177334547042847e-02 8.774231374263763428e-02 -1.606044359505176544e-02 7.752933539450168610e-03 -9.602855890989303589e-03 7.326185703277587891e-02 -1.596326977014541626e-01 1.001497283577919006e-01 -9.209765493869781494e-02 5.681540444493293762e-02 -1.483711004257202148e-01 2.082577347755432129e-01 1.034207940101623535e-01 -6.173910200595855713e-02 -2.494620904326438904e-02 5.113891884684562683e-02 2.046780884265899658e-01 -9.042483754456043243e-03 -1.488366872072219849e-01 -5.593597888946533203e-02 -4.294156655669212341e-02 -4.303414002060890198e-02 -5.603872984647750854e-02 1.148136109113693237e-01 1.040889024734497070e-01 5.852092057466506958e-02 1.217302381992340088e-01 1.097076833248138428e-01 -5.652579292654991150e-02 1.351496726274490356e-01 4.870509356260299683e-02 -6.236750259995460510e-02 1.412522345781326294e-01 1.742829568684101105e-02 -3.758329525589942932e-02 1.015846654772758484e-01 -1.443668305873870850e-01 1.339136660099029541e-01 -1.605590805411338806e-02 7.616233825683593750e-02 -6.513080745935440063e-02 6.268449872732162476e-02 -6.680361926555633545e-02
-4.858284816145896912e-02 -1.087235957384109497e-01 7.853218168020248413e-02 7.044551521539688110e-02 1.379545927047729492e-01 3.920205682516098022e-02 8.407969959080219269e-03 -7.367307785898447037e-03 -2.035569958388805389e-02 7.218015938997268677e-02 -2.568620145320892334e-01 -3.226412460207939148e-02 3.483919054269790649e-02 -1.443979293107986450e-01 1.395385563373565674e-01 4.801330715417861938e-02 8.112105540931224823e-03 -5.840424913913011551e-03 -3.490192592144012451e-01 4.244140908122062683e-02 -2.147057056427001953e-01 8.286141604185104370e-02 -4.605236276984214783e-02 3.335882350802421570e-02 3.035815618932247162e-02 -2.036644816398620605e-01 -2.227928936481475830e-01 8.067903667688369751e-02 1.885053813457489014e-01 -2.213016338646411896e-02 7.839087396860122681e-02 -1.030744090676307678e-01 8.793696761131286621e-02 -2.416513860225677490e-01 -5.973008275032043457e-02 5.617991089820861816e-02 3.362085297703742981e-02 -3.226020559668540955e-02 3.493662551045417786e-02 -5.421792715787887573e-02 8.783113956451416016e-02 9.593669325113296509e-03 -1.390884965658187866e-01 -3.382154181599617004e-02 -5.871712043881416321e-02 -2.676019817590713501e-02 1.082473695278167725e-01 -1.882524974644184113e-02 3.676730766892433167e-02 -6.763499975204467773e-02 -4.978858679533004761e-02 -1.504035387188196182e-02 4.003572836518287659e-02 1.332955658435821533e-01 4.062479361891746521e-02 -7.326799631118774414e-02 1.135727316141128540e-01 1.815194822847843170e-02 1.118228584527969360e-01 1.577893793582916260e-01 -2.680527418851852417e-02 7.723379135131835938e-02 -5.998982489109039307e-02 -6.598071008920669556e-02 -5.881526321172714233e-02 1.797194331884384155e-01 9.135542809963226318e-02 -4.729518666863441467e-02 -2.646493315696716309e-01 -1.727837622165679932e-01 -1.629606485366821289e-01 2.634089067578315735e-02 -1.717756241559982300e-01 9.399282187223434448e-02 -5.332248210906982422e-01 -2.888667285442352295e-01 1.121626328676939011e-02 -1.281734406948089600e-01 6.896299123764038086e-02 -1.791183054447174072e-01 1.610864698886871338e-01 1.637028297409415245e-03 -8.359429240226745605e-02 2.561030909419059753e-02 7.149112224578857422e-02 -5.232166871428489685e-02 5.863109230995178223e-02 -3.184581175446510315e-02 -6.144252419471740723e-02 9.311574697494506836e-02 9.749035537242889404e-02 2.266875095665454865e-02 -3.575664712116122246e-03 2.726815938949584961e-01 -6.469666957855224609e-02 9.345456957817077637e-02 -1.362684667110443115e-01 2.411889284849166870e-01 -9.378134459257125854e-02 -1.314653307199478149e-01 -1.247493252158164978e-01 -1.906270384788513184e-01 -8.313503861427307129e-02 -2.091333717107772827e-01 2.692044712603092194e-02 9.959646314382553101e-02 -1.356600672006607056e-01 2.546091563999652863e-03 -3.968705609440803528e-02 9.296428412199020386e-02 3.755729878321290016e-03 8.890071511268615723e-02 -5.257195606827735901e-02 -2.042761147022247314e-01 9.655173867940902710e-03 1.559978276491165161e-01 -2.459071725606918335e-01 5.040755495429039001e-03 -8.518689125776290894e-02 -2.731706202030181885e-01 -1.750270724296569824e-01 -1.325050741434097290e-01 1.284350901842117310e-01 -1.170299574732780457e-01 -3.563350439071655273e-02 1.070894766598939896e-03 -5.634356662631034851e-02 -9.740670025348663330e-02 3.605081886053085327e-02 -1.126622557640075684e-01 -2.324919216334819794e-02 -1.400244329124689102e-02 4.442763328552246094e-02 4.530697315931320190e-02 1.112114191055297852e-01 -5.595378205180168152e-02 -2.778699435293674469e-02 -7.179777603596448898e-03 1.427612155675888062e-01 5.111833661794662476e-02 3.225871920585632324e-02 -1.682983636856079102e-01 4.274604469537734985e-02 -9.031923860311508179e-02 -9.678440168499946594e-03 -1.434805244207382202e-01 -3.759081661701202393e-01 -8.289705961942672729e-02 -8.350207656621932983e-02 -1.080451980233192444e-01 -9.625585377216339111e-02 -7.125379890203475952e-02 3.545236214995384216e-02 -2.007634378969669342e-02 -1.296816468238830566e-01 -5.889109522104263306e-02 4.212453216314315796e-02 -3.289138525724411011e-02 -9.127618372440338135e-02 -1.201483309268951416e-01 -1.020353212952613831e-01 2.517826110124588013e-02 2.188723348081111908e-02 8.972086012363433838e-02 1.232337430119514465e-01 2.676114998757839203e-02 6.881269812583923340e-02 -6.146191060543060303e-02 1.008386686444282532e-01 -7.457903772592544556e-02 -2.908465564250946045e-01 -1.315451860427856445e-01 1.005811765789985657e-01 -4.891430214047431946e-02 -8.745644241571426392e-02 -4.659287258982658386e-02 8.528455346822738647e-02 9.379909932613372803e-02 -2.249359786510467529e-01 -5.582043901085853577e-02 1.249309182167053223e-01 -2.084161899983882904e-02 8.831530809402465820e-02 -1.203026250004768372e-01 -2.132191658020019531e-01 1.428058743476867676e-01 -1.615046150982379913e-02 -1.776206493377685547e-01 1.366178989410400391e-01 -5.385975167155265808e-02 8.389816433191299438e-02 1.341014504432678223e-01 -1.077418774366378784e-01 -1.514372080564498901e-01 1.040356308221817017e-01 -9.617385268211364746e-02 3.833837434649467468e-02 -4.008129835128784180e-01 1.212128028273582458e-01 6.141874566674232483e-02 2.026926493272185326e-03 1.451786905527114868e-01 6.511974334716796875e-02 -1.507964581251144409e-01 -2.125016786158084869e-02 2.583692595362663269e-02 -4.011493176221847534e-03 7.456801086664199829e-02 4.430608358234167099e-03 3.768276050686836243e-02 -4.348997771739959717e-01 1.727707237005233765e-01 -1.052616760134696960e-01 1.766060590744018555e-01 -1.255167741328477859e-02 -6.853233277797698975e-02 -1.969822347164154053e-01 -5.236991122364997864e-02 -7.245571911334991455e-02 -1.096793711185455322e-01 8.519912511110305786e-02 -1.818032115697860718e-01 -1.158420145511627197e-01 -2.288973033428192139e-01 -4.984388872981071472e-02 -1.997775584459304810e-02 -3.076930344104766846e-02 -1.581373065710067749e-01 4.478417709469795227e-02 8.162192255258560181e-02 3.225234150886535645e-02 1.223974023014307022e-02 1.252152770757675171e-01 -3.435719385743141174e-02 1.085548400878906250e-01 -1.447622198611497879e-02 -1.150788739323616028e-01 -4.281169548630714417e-02 -2.921139448881149292e-02 -9.720663726329803467e-02 1.342169046401977539e-01 -7.549958676099777222e-02 3.462121635675430298e-02 8.807217329740524292e-02 -4.085795581340789795e-02 4.138977080583572388e-02 -4.671732429414987564e-03 -2.069832533597946167e-01 3.098506294190883636e-02 1.380474772304296494e-02 -1.358352303504943848e-01 1.310894936323165894e-01 3.546133637428283691e-02 -9.579807519912719727e-03 7.567124068737030029e-02 4.377514496445655823e-02
