-1.083858162164688110e-01 -3.879267349839210510e-02 7.035520672798156738e-02 8.014947175979614258e-02 6.753636896610260010e-02 1.676717698574066162e-01 -1.128202825784683228e-01 5.417606979608535767e-02 -7.265644520521163940e-02 -1.369745582342147827e-01 9.241271764039993286e-02 4.452061653137207031e-02 7.008394692093133926e-03 1.017350628972053528e-01 -2.306338399648666382e-03 -6.527138501405715942e-02 -1.494992971420288086e-01 7.204729318618774414e-02 2.299336344003677368e-02 -4.931540787220001221e-02 -1.472963690757751465e-01 1.461937129497528076e-01 -6.366892904043197632e-02 1.081686913967132568e-01 -1.124990731477737427e-02 1.829783916473388672e-01 5.585861951112747192e-02 -1.439710264094173908e-03 1.081190779805183411e-01 -6.526260077953338623e-02 -9.461385756731033325e-02 -1.026397272944450378e-01 7.062201201915740967e-02 7.246141135692596436e-02 -1.317663490772247314e-01 3.923887386918067932e-02 -4.702145978808403015e-02 1.175084784626960754e-01 -2.477283775806427002e-01 -2.847127914428710938e-01 -1.032180115580558777e-01 1.173611059784889221e-01 -1.329827401787042618e-02 -1.671323925256729126e-02 -2.302802205085754395e-01 -1.041826680302619934e-01 -1.352163702249526978e-01 1.116651743650436401e-01 1.434868425130844116e-01 -2.543869912624359131e-01 1.115622296929359436e-01 -2.213265299797058105e-01 1.318600028753280640e-01 1.088629662990570068e-01 1.093046292662620544e-01 1.707804352045059204e-01 -4.349968954920768738e-02 -2.778215706348419189e-01 -3.075183629989624023e-01 -1.168532446026802063e-01 -1.473131477832794189e-01 -1.435090694576501846e-02 -2.341471612453460693e-01 1.922369003295898438e-02 5.996302887797355652e-02 -6.662244349718093872e-02 -1.670790165662765503e-01 -8.675653487443923950e-02 -4.190844893455505371e-01 -8.963007479906082153e-02 -1.383449137210845947e-01 -1.332094669342041016e-01 -2.869621478021144867e-02 1.083640381693840027e-02 6.608011573553085327e-02 4.029143974184989929e-02 -1.585601121187210083e-01 4.646073281764984131e-02 6.291400641202926636e-02 -2.025459408760070801e-01 -6.916352361440658569e-02 1.665955334901809692e-01 5.618374794721603394e-02 8.164565078914165497e-03 -2.808600291609764099e-02 -2.453485503792762756e-03 -7.280655950307846069e-02 2.260555047541856766e-03 3.805457055568695068e-02 1.628332138061523438e-01 1.438132822513580322e-01 -1.325349360704421997e-01 -4.945924133062362671e-02 -3.357698768377304077e-02 -7.730031013488769531e-02 2.658396400511264801e-02 -2.720609605312347412e-01 -2.633934617042541504e-01 -1.862053945660591125e-02 4.878904297947883606e-02 8.627569675445556641e-02 -3.086378797888755798e-02 -1.508093476295471191e-01 -1.251662522554397583e-01 -1.761077642440795898e-01 -1.365540325641632080e-01 -7.691077888011932373e-02 -2.483169548213481903e-02 8.694381453096866608e-03 6.298006325960159302e-02 -1.111940070986747742e-01 -1.231829300522804260e-01 -6.069385260343551636e-02 1.561049092561006546e-02 6.407631933689117432e-02 -1.415605470538139343e-02 -1.899592578411102295e-01 -9.838026016950607300e-02 2.443150244653224945e-02 -1.171717345714569092e-01 -6.770247966051101685e-02 -5.114792585372924805e-01 3.922679126262664795e-01 2.726949192583560944e-02 -5.785626918077468872e-02 4.161690175533294678e-02 -1.593939960002899170e-01 7.312864810228347778e-02 2.287967503070831299e-02 -1.649059057235717773e-01 5.429076030850410461e-02 -1.948211789131164551e-01 4.972264170646667480e-02 1.115484759211540222e-01 -4.896366298198699951e-01 1.481001377105712891e-01 -2.108145505189895630e-02 4.920650273561477661e-02 3.395337611436843872e-02 -3.042083978652954102e-01 -1.337021887302398682e-01 1.131513416767120361e-01 1.005477160215377808e-01 -1.003994699567556381e-02 1.293984949588775635e-01 6.561027467250823975e-02 3.524350002408027649e-02 8.353683352470397949e-02 -1.765465438365936279e-01 1.588751748204231262e-02 6.027070805430412292e-02 8.270061016082763672e-02 -3.130406141281127930e-03 3.771747648715972900e-02 -1.144593283534049988e-01 -1.592367738485336304e-01 2.599734440445899963e-02 2.095552086830139160e-01 4.133522510528564453e-02 9.024776518344879150e-02 -1.452699862420558929e-02 2.028821595013141632e-02 -1.261451165191829205e-03 -8.517988957464694977e-03 -3.237044438719749451e-02 7.164718955755233765e-02 4.980623349547386169e-02 -4.412467032670974731e-02 1.548409014940261841e-01 1.360123008489608765e-01 -5.845746025443077087e-02 -6.460516899824142456e-02 3.500080853700637817e-02 1.089696288108825684e-01 -9.228153526782989502e-02 -1.034539341926574707e-01 -2.167437225580215454e-02 9.291634708642959595e-02 2.481925636529922485e-01 3.712300211191177368e-02 -6.184665113687515259e-02 9.614473581314086914e-02 3.707544505596160889e-02 -7.224158942699432373e-02 -4.182339087128639221e-02 1.950007677078247070e-01 -5.980838835239410400e-02 1.850099302828311920e-02 -1.144093275070190430e-01 -5.222259461879730225e-02 7.430359721183776855e-02 -2.709577046334743500e-02 3.693250194191932678e-02 4.949828982353210449e-02 -1.546480953693389893e-01 1.626521907746791840e-02 5.050824955105781555e-02 1.309018135070800781e-01 -2.315571308135986328e-01 1.951579377055168152e-02 1.342442817986011505e-02 -3.686476647853851318e-01 1.607419252395629883e-01 7.281962037086486816e-02 7.221799343824386597e-02 -7.528000324964523315e-02 -2.088124863803386688e-03 -2.295271307229995728e-02 3.058457933366298676e-02 1.016716584563255310e-01 1.303813420236110687e-02 6.294142454862594604e-02 1.780657172203063965e-01 1.960605829954147339e-01 -3.833347558975219727e-02 -4.773656651377677917e-02 -1.090625952929258347e-02 8.051626384258270264e-02 -3.180936723947525024e-02 -6.182137876749038696e-02 2.423630096018314362e-02 -4.752027094364166260e-01 8.185633271932601929e-02 6.732265464961528778e-03 -9.855107404291629791e-03 -2.000220566987991333e-01 -9.214997291564941406e-02 1.442438513040542603e-01 4.200703278183937073e-02 5.902673304080963135e-02 -1.291342079639434814e-01 -6.576741486787796021e-02 -1.257376819849014282e-01 7.304596900939941406e-02 -7.558269053697586060e-02 8.712944388389587402e-02 -1.763626337051391602e-01 -2.116727977991104126e-01 1.059162430465221405e-02 6.125909835100173950e-02 -6.235043704509735107e-02 2.503459341824054718e-02 4.269043356180191040e-02 -7.395664602518081665e-02 -1.349101308733224869e-03 7.932122796773910522e-03 7.064782828092575073e-02 4.613738134503364563e-02 -9.095928817987442017e-02 -9.180175513029098511e-02 7.842238247394561768e-02 -2.021573781967163086e-01 -1.433432251214981079e-01 -1.442204415798187256e-02 -3.611643239855766296e-02 -1.362726744264364243e-02
-2.421611249446868896e-01 1.526423543691635132e-02 3.266469016671180725e-02 -3.270455822348594666e-02 -1.109953001141548157e-01 -5.334682017564773560e-02 -8.988545089960098267e-02 4.489205032587051392e-02 9.781540930271148682e-02 -1.617267429828643799e-01 1.418204978108406067e-02 6.239881366491317749e-02 3.008246235549449921e-02 2.853895165026187897e-02 1.698482222855091095e-02 2.913379576057195663e-03 4.016086459159851074e-02 4.930853098630905151e-02 -1.613626927137374878e-01 -4.923058673739433289e-02 -1.235787849873304367e-02 1.420065015554428101e-01 8.956327103078365326e-03 -1.816609203815460205e-01 1.700865626335144043e-01 2.409588843584060669e-01 -1.110978126525878906e-01 2.065113335847854614e-01 1.762554794549942017e-02 -9.427381306886672974e-02 -8.097127079963684082e-03 -7.110279798507690430e-02 -2.621892141178250313e-03 5.162709578871726990e-02 8.473426103591918945e-02 2.654029056429862976e-02 -1.160425916314125061e-01 1.623382233083248138e-02 -2.801664769649505615e-01 9.004904329776763916e-02 -1.177829578518867493e-01 2.641766667366027832e-01 7.108819484710693359e-02 1.128952726721763611e-01 -5.787840485572814941e-02 -2.485572546720504761e-02 -1.150489374995231628e-01 2.893749251961708069e-02 8.226599544286727905e-02 8.049644529819488525e-02 -7.248149067163467407e-02 -1.155501976609230042e-01 -4.016227554529905319e-03 -2.361352369189262390e-02 1.334686577320098877e-01 -1.744062639772891998e-02 -3.628066927194595337e-02 -2.387283295392990112e-01 -1.704183407127857208e-02 8.480182150378823280e-04 -1.930412352085113525e-01 -5.210237950086593628e-02 -1.116322353482246399e-02 1.361788157373666763e-02 -2.062949240207672119e-01 5.116994027048349380e-03 -2.376648969948291779e-02 -1.314163208007812500e-01 -1.166823953390121460e-01 -7.238388061523437500e-02 2.027681469917297363e-02 -4.226863384246826172e-02 -1.845306903123855591e-01 -1.457257419824600220e-01 4.164950177073478699e-02 3.379649668931961060e-02 6.457377225160598755e-02 -7.433115504682064056e-03 -6.163830868899822235e-03 -4.767539352178573608e-02 -3.818608820438385010e-02 1.208576373755931854e-02 -1.391818970441818237e-01 7.849319837987422943e-03 -3.816640004515647888e-03 5.736466497182846069e-02 -2.494713664054870605e-02 -1.138889882713556290e-02 9.075182490050792694e-03 -1.012320220470428467e-01 -8.718750625848770142e-02 -2.873192913830280304e-02 4.303195048123598099e-03 2.185032218694686890e-01 -2.135889232158660889e-02 9.550109505653381348e-02 -1.235107854008674622e-01 -4.977681934833526611e-01 -1.262941118329763412e-02 9.111035615205764771e-02 -6.594001501798629761e-02 6.243239715695381165e-02 1.627692729234695435e-01 -9.446458518505096436e-02 -7.654972374439239502e-03 -1.410727202892303467e-01 -2.673858404159545898e-01 1.747552007436752319e-01 1.095679868012666702e-02 -1.412265002727508545e-02 -1.088237687945365906e-01 1.115226224064826965e-01 -9.376735240221023560e-02 1.860158741474151611e-01 -6.845016032457351685e-02 9.450829029083251953e-02 -4.227644205093383789e-02 2.060665488243103027e-01 7.775671780109405518e-02 -6.325120478868484497e-02 1.036243978887796402e-02 -8.937403559684753418e-01 -4.425188060849905014e-03 6.025329232215881348e-02 2.062272578477859497e-01 1.398475617170333862e-01 8.389443904161453247e-02 -9.783414006233215332e-02 6.382127106189727783e-02 -3.103209435939788818e-01 -1.879794597625732422e-01 1.676051132380962372e-02 6.903116405010223389e-02 1.129062101244926453e-02 -5.095233768224716187e-02 1.109569445252418518e-01 -9.885096549987792969e-02 -1.894172728061676025e-01 -1.019859537482261658e-01 3.389156237244606018e-02 -2.224306762218475342e-02 4.155896604061126709e-02 -1.780432462692260742e-01 1.017609387636184692e-01 -4.088332131505012512e-02 -2.065481394529342651e-01 1.552364975214004517e-01 3.849719092249870300e-02 -6.461075972765684128e-03 2.308541387319564819e-01 1.693581491708755493e-01 -1.600737571716308594e-01 1.014070659875869751e-01 -3.865923732519149780e-02 -1.219007819890975952e-01 -7.084024697542190552e-02 9.353012591600418091e-02 -1.143485307693481445e-01 -7.997472770512104034e-03 2.894374132156372070e-01 -9.239344298839569092e-02 1.256636083126068115e-01 -2.171201258897781372e-02 5.989776551723480225e-02 -5.892011895775794983e-02 -2.107151597738265991e-02 -9.193753451108932495e-02 1.594266146421432495e-01 -8.821396157145500183e-03 6.714607030153274536e-02 -9.483885020017623901e-02 1.957895308732986450e-01 3.366418555378913879e-02 2.323164790868759155e-02 -1.341292411088943481e-01 -1.166180595755577087e-01 1.284685432910919189e-01 -1.046785246580839157e-02 -8.043649606406688690e-03 -6.479642470367252827e-04 4.576236009597778320e-02 1.249748282134532928e-02 -1.416136920452117920e-01 -1.507584005594253540e-01 -7.374516129493713379e-02 1.221415102481842041e-01 -8.538788557052612305e-02 -1.074206307530403137e-01 2.166947275400161743e-01 -2.139827795326709747e-02 -6.841167807579040527e-02 -1.998428255319595337e-02 -7.176198810338973999e-02 4.541925713419914246e-02 -7.788849622011184692e-02 4.662861675024032593e-02 -6.681629456579685211e-04 -6.243341043591499329e-02 1.320003718137741089e-01 -4.826736636459827423e-03 1.268902122974395752e-01 -4.846624284982681274e-02 -1.187458261847496033e-01 -1.231368780136108398e-01 1.894640475511550903e-01 -7.247236371040344238e-02 -2.104851156473159790e-01 1.227273195981979370e-01 -1.587610393762588501e-01 -1.179630216211080551e-02 -4.326234757900238037e-02 1.580237001180648804e-01 -4.343265667557716370e-02 -4.849898163229227066e-03 -9.086950123310089111e-02 -5.417412146925926208e-02 3.319426998496055603e-02 7.698769122362136841e-02 6.528919097036123276e-03 -7.672646641731262207e-02 -1.159128770232200623e-01 -1.329381167888641357e-01 3.682389110326766968e-02 1.043857485055923462e-01 1.105434149503707886e-01 3.044524043798446655e-02 -1.532217115163803101e-01 1.087257452309131622e-02 -4.531490616500377655e-03 5.862402915954589844e-02 1.172198634594678879e-02 1.183729711920022964e-02 1.351186633110046387e-01 1.248143687844276428e-01 -6.759675592184066772e-02 1.488531380891799927e-01 -3.591204434633255005e-02 -1.365185528993606567e-01 8.608009666204452515e-02 7.286478579044342041e-02 -2.573091723024845123e-02 -1.674524098634719849e-01 1.823794543743133545e-01 6.556662172079086304e-02 -9.301085956394672394e-03 -3.176014870405197144e-03 -1.575428247451782227e-01 9.595574438571929932e-02 -3.733203113079071045e-01 -5.472437478601932526e-03 1.746071316301822662e-02 -1.181624010205268860e-01 8.714126050472259521e-02 -1.117344424128532410e-01 -1.925614029169082642e-01 -2.769018113613128662e-01
1.576488316059112549e-01 -1.393525898456573486e-01 -9.625826030969619751e-02 -8.813309483230113983e-03 -1.003852188587188721e-01 4.594806209206581116e-02 4.608067870140075684e-02 -1.679235603660345078e-03 -7.430727034807205200e-02 1.132921576499938965e-01 3.814201429486274719e-02 -5.765951424837112427e-02 -2.984437160193920135e-02 1.546226162463426590e-02 1.301106065511703491e-01 1.698037832975387573e-01 -1.455403417348861694e-01 -7.093118131160736084e-02 -1.291452348232269287e-02 8.257672190666198730e-02 -3.586572706699371338e-01 -4.541137814521789551e-02 1.659309864044189453e-02 9.902302920818328857e-02 -1.584696918725967407e-01 -1.366160809993743896e-01 -9.597501903772354126e-02 -1.502748578786849976e-01 -1.316905170679092407e-01 -6.177714094519615173e-02 -7.932075858116149902e-02 -9.835273027420043945e-02 8.841945230960845947e-02 2.144877985119819641e-02 2.039783596992492676e-01 1.834688149392604828e-02 -3.107148408889770508e-02 -1.117868348956108093e-01 9.085415303707122803e-02 -2.109758853912353516e-01 4.918393120169639587e-02 7.647918071597814560e-03 -1.068883761763572693e-01 5.767367407679557800e-02 7.097733020782470703e-02 -3.355506658554077148e-01 -6.079987809062004089e-02 8.770577609539031982e-03 -2.910386621952056885e-01 -4.228993877768516541e-02 2.611282840371131897e-02 1.093218009918928146e-02 1.154173538088798523e-01 -3.981900960206985474e-02 -1.143063008785247803e-01 -6.980313360691070557e-02 -2.156307101249694824e-01 2.270955964922904968e-02 8.669339865446090698e-02 1.294736564159393311e-01 -1.378418318927288055e-02 3.167032077908515930e-02 -2.187998890876770020e-01 1.718787103891372681e-02 -2.897085249423980713e-02 4.053391888737678528e-02 -1.346810460090637207e-01 1.076839938759803772e-01 -2.102119624614715576e-01 -1.610483229160308838e-01 8.436127752065658569e-02 4.518463462591171265e-02 4.734406992793083191e-02 8.378099650144577026e-02 9.217768162488937378e-02 -5.282883346080780029e-02 -1.317782141268253326e-02 -1.815387629903852940e-03 -3.635181114077568054e-03 -5.209926962852478027e-01 -9.437712281942367554e-02 3.890965366736054420e-03 1.650140061974525452e-02 -2.712404169142246246e-02 -7.576549053192138672e-02 -4.746495932340621948e-02 -1.268124133348464966e-01 1.386556774377822876e-01 1.662888377904891968e-01 -2.724080383777618408e-01 -1.334289163351058960e-01 2.054664641618728638e-01 -5.052330344915390015e-02 -2.057601958513259888e-01 -6.272353231906890869e-02 1.365741435438394547e-02 -3.754989802837371826e-02 7.194722443819046021e-02 3.748267143964767456e-02 5.624669417738914490e-02 5.622281506657600403e-02 -4.882166162133216858e-02 -1.677499562501907349e-01 4.351206496357917786e-02 -2.435422539710998535e-01 1.519033461809158325e-01 5.478699132800102234e-02 1.694438159465789795e-01 3.662459552288055420e-02 -6.473392993211746216e-02 1.101840212941169739e-01 1.152231097221374512e-01 -7.011166960000991821e-02 -1.935703903436660767e-01 -1.378585100173950195e-01 -7.713700085878372192e-02 7.350511103868484497e-02 3.831837326288223267e-02 8.568999357521533966e-03 -4.076814651489257812e-02 -1.288673728704452515e-01 -3.761919438838958740e-01 -1.674535572528839111e-01 -1.531874835491180420e-01 3.189182654023170471e-02 1.300078816711902618e-02 3.014601394534111023e-02 3.854287415742874146e-02 1.278664320707321167e-01 -5.213950295001268387e-03 7.956139743328094482e-02 2.977539598941802979e-02 5.511868372559547424e-02 -1.414727717638015747e-01 -1.883602887392044067e-01 1.906769536435604095e-02 -2.434225939214229584e-02 1.441772133111953735e-01 -1.180743947625160217e-01 -4.355490505695343018e-01 -3.863663226366043091e-02 2.340084314346313477e-02 1.908893696963787079e-02 -2.428612709045410156e-01 -1.784779727458953857e-01 -5.124459043145179749e-03 -1.412433385848999023e-02 -1.617559939622879028e-01 6.812009960412979126e-02 -2.218351364135742188e-01 8.396054804325103760e-02 2.089094072580337524e-01 -9.253249317407608032e-02 -1.973811388015747070e-01 -4.477803129702806473e-03 1.152657791972160339e-01 1.965048760175704956e-01 -1.116406079381704330e-02 -3.081351704895496368e-02 6.534535437822341919e-02 -3.473810479044914246e-02 3.631954267621040344e-02 1.694618165493011475e-02 1.887450367212295532e-01 4.768022149801254272e-02 7.820311002433300018e-03 2.240083664655685425e-01 -6.079947575926780701e-03 9.022930637001991272e-03 2.395754866302013397e-02 1.672445237636566162e-01 -2.731654606759548187e-02 1.673217304050922394e-02 -1.599497199058532715e-01 6.859046965837478638e-02 9.294833242893218994e-02 4.435725510120391846e-03 1.126657240092754364e-02 -5.271279718726873398e-03 -8.248572796583175659e-02 8.566394448280334473e-02 -8.892387896776199341e-02 7.207886874675750732e-02 6.165302172303199768e-02 1.015447899699211121e-01 2.594913169741630554e-02 4.746035486459732056e-02 1.643478721380233765e-01 -4.037540555000305176e-01 -6.264319270849227905e-02 1.680629514157772064e-02 -4.203861951828002930e-02 -8.530748635530471802e-02 -1.354606449604034424e-01 7.976686954498291016e-02 4.159758612513542175e-02 -8.076586760580539703e-03 8.859694749116897583e-02 -2.449843138456344604e-01 2.141550481319427490e-01 -7.520268112421035767e-02 -2.586155235767364502e-01 8.298355340957641602e-02 -4.505557939410209656e-02 8.918698877096176147e-02 -5.183660238981246948e-02 -6.848344951868057251e-02 8.547851443290710449e-02 3.537112101912498474e-02 1.661337316036224365e-01 4.864455014467239380e-02 7.410059869289398193e-02 -1.143750697374343872e-01 -6.954629719257354736e-02 -1.709659844636917114e-01 5.583087913691997528e-03 -3.016118332743644714e-02 3.773002699017524719e-02 3.707573562860488892e-02 1.746876686811447144e-01 1.056951731443405151e-01 -4.079682379961013794e-02 1.358472406864166260e-01 1.376056075096130371e-01 -1.548125445842742920e-01 -5.134680122137069702e-02 -4.888017475605010986e-02 -3.039932344108819962e-04 -2.528820559382438660e-02 1.160303205251693726e-01 4.897505417466163635e-02 -5.322280153632164001e-02 -3.049489576369524002e-03 2.207195200026035309e-02 -1.283616870641708374e-01 -1.420582365244626999e-02 -1.933833807706832886e-01 1.104937419295310974e-01 -1.592141687870025635e-01 4.036615788936614990e-02 -2.631827071309089661e-02 -1.369393318891525269e-01 -4.174211621284484863e-02 9.981871396303176880e-02 -6.833743304014205933e-02 1.115035489201545715e-01 2.138060983270406723e-03 -2.469475716352462769e-01 1.761800646781921387e-01 -9.298190474510192871e-02 -2.549943141639232635e-02 -1.691437885165214539e-02 -4.068908840417861938e-02 1.638914048671722412e-01 5.904812738299369812e-02 -4.286579042673110962e-02
-1.948785223066806793e-02 -1.459765713661909103e-02 1.127004101872444153e-01 2.134336158633232117e-02 -1.713119260966777802e-02 3.089836984872817993e-02 7.747376710176467896e-02 5.536484345793724060e-02 9.053269773721694946e-02 7.678344100713729858e-02 1.183892562985420227e-01 9.268648922443389893e-02 4.849869292229413986e-03 2.960131876170635223e-02 8.562432229518890381e-02 5.191481858491897583e-02 -8.066127449274063110e-02 -1.237478107213973999e-01 3.893832489848136902e-02 -5.947479605674743652e-02 -4.139180183410644531e-01 6.905105710029602051e-02 5.938722565770149231e-02 -1.849482022225856781e-02 5.618694052100181580e-02 -9.473844617605209351e-02 5.917435511946678162e-02 1.068184450268745422e-01 5.403836816549301147e-02 -8.056810498237609863e-02 1.020553801208734512e-02 2.867204509675502777e-02 -1.449425965547561646e-01 -5.948764830827713013e-02 2.886526659131050110e-02 -2.316880822181701660e-01 -1.295356303453445435e-01 -5.034666880965232849e-02 -1.522513777017593384e-01 -1.010060757398605347e-01 1.304292976856231689e-01 1.008020415902137756e-01 2.170455604791641235e-01 -1.391242891550064087e-01 9.707961976528167725e-02 -1.696762740612030029e-01 -2.392428666353225708e-01 1.407797336578369141e-01 -3.514073044061660767e-02 3.303986415266990662e-02 8.178585022687911987e-02 -1.613552719354629517e-01 4.290345311164855957e-02 9.934420883655548096e-02 1.421887725591659546e-01 1.126967817544937134e-01 -4.755913466215133667e-02 -1.614254415035247803e-01 5.476262047886848450e-02 -1.070545911788940430e-01 8.483053743839263916e-02 1.623556949198246002e-02 -1.134161129593849182e-01 -2.656971104443073273e-02 4.156680032610893250e-02 9.333772212266921997e-02 -1.706472337245941162e-01 8.745398372411727905e-02 -6.421557664871215820e-01 -9.946635365486145020e-02 -1.893045939505100250e-02 1.494193449616432190e-02 3.300862759351730347e-02 -2.168381772935390472e-02 -3.549377201125025749e-03 1.179265528917312622e-01 -2.702791802585124969e-02 -1.267242878675460815e-01 -2.340554818511009216e-02 -5.310763120651245117e-01 9.552937746047973633e-02 -7.241795212030410767e-02 -9.471929818391799927e-02 1.327473521232604980e-01 -9.958088397979736328e-02 -5.563087761402130127e-02 -7.330317795276641846e-02 -1.248380402103066444e-03 1.607816852629184723e-02 1.105789318680763245e-01 1.002129316329956055e-01 -1.270375102758407593e-01 -1.270496658980846405e-02 -1.238056346774101257e-01 3.634672611951828003e-02 -8.638112246990203857e-02 -3.715801537036895752e-01 -1.054441109299659729e-01 4.594264551997184753e-02 5.669218301773071289e-02 4.300847649574279785e-02 3.844324871897697449e-02 1.381345242261886597e-01 -1.187333185225725174e-02 -1.643299460411071777e-01 5.394924432039260864e-02 1.118963351473212242e-03 -2.883137948811054230e-02 -1.002210453152656555e-01 -1.905271708965301514e-01 -1.062117740511894226e-01 5.153169110417366028e-02 2.547474391758441925e-02 -7.222010940313339233e-02 1.256290730088949203e-02 1.270840466022491455e-01 -5.894530564546585083e-03 -1.714686490595340729e-02 1.979798972606658936e-01 -4.482337087392807007e-02 -4.188902080059051514e-01 -6.964403986930847168e-01 1.374513935297727585e-02 2.158124931156635284e-02 -1.092285960912704468e-01 3.937813639640808105e-02 5.125441402196884155e-02 1.120130047202110291e-01 -2.123480290174484253e-02 -2.500385940074920654e-01 3.639220446348190308e-02 1.959234327077865601e-01 -5.427580699324607849e-02 6.526532117277383804e-03 -3.335486054420471191e-01 -1.188800707459449768e-01 -2.329166829586029053e-01 -3.261482715606689453e-02 -1.335607320070266724e-01 -2.581295371055603027e-02 4.839057102799415588e-02 9.668672084808349609e-02 -9.730435907840728760e-02 -1.303090155124664307e-01 -8.394519239664077759e-02 -1.730427742004394531e-01 9.528139233589172363e-02 -2.401734143495559692e-02 3.454044833779335022e-02 -1.955109685659408569e-01 -5.750639364123344421e-02 8.745674043893814087e-02 1.043683812022209167e-01 5.103493854403495789e-02 4.265661910176277161e-02 -1.176864840090274811e-02 -1.476047933101654053e-01 3.707728534936904907e-02 -9.882136434316635132e-02 1.537327468395233154e-01 -5.329307541251182556e-02 4.815411288291215897e-03 -7.116400450468063354e-02 -6.862679868936538696e-02 3.178227925673127174e-04 3.124186396598815918e-02 2.227518707513809204e-02 4.438493773341178894e-02 1.537254601716995239e-01 3.787418454885482788e-02 2.821210399270057678e-02 1.858723163604736328e-01 -5.752752348780632019e-02 -7.953753322362899780e-02 1.270277500152587891e-01 -1.055049896240234375e-01 -3.595933318138122559e-02 2.795241586863994598e-02 3.194426372647285461e-02 2.633507829159498215e-03 3.912084922194480896e-02 -9.569972753524780273e-02 7.650831341743469238e-02 4.490755125880241394e-02 3.193221241235733032e-02 7.162956148386001587e-02 -1.332428455352783203e-01 -4.871580749750137329e-02 -1.108241826295852661e-01 1.293101161718368530e-01 6.654019933193922043e-03 3.656306117773056030e-02 -4.316658899188041687e-02 -4.298798739910125732e-02 -1.668693721294403076e-01 6.863538175821304321e-02 -2.157252281904220581e-02 3.703866153955459595e-02 2.024108916521072388e-02 9.599263221025466919e-02 1.351765543222427368e-01 -4.249444007873535156e-01 -4.210036993026733398e-02 -1.714361086487770081e-02 9.800924360752105713e-02 2.185014309361577034e-03 -7.535607367753982544e-02 -2.290411852300167084e-02 -1.224981620907783508e-01 9.184341877698898315e-02 -2.075743526220321655e-01 5.673586390912532806e-03 1.417419612407684326e-01 -1.975268721580505371e-01 -4.605269432067871094e-02 7.232178002595901489e-02 -9.032266587018966675e-02 -2.982683852314949036e-02 -2.307863906025886536e-02 -1.305773667991161346e-02 2.358232736587524414e-01 -8.921657502651214600e-02 6.958990544080734253e-02 6.140281260013580322e-02 1.413531601428985596e-01 -1.593246124684810638e-02 4.064036905765533447e-02 2.801529690623283386e-02 -1.135978400707244873e-01 4.478078335523605347e-02 9.843458235263824463e-02 1.182866916060447693e-01 3.214756026864051819e-02 1.192959696054458618e-01 9.664874523878097534e-02 4.239701665937900543e-03 -9.933587908744812012e-02 -3.004187718033790588e-02 1.582745164632797241e-01 -4.222463816404342651e-02 -7.491239346563816071e-03 1.300448272377252579e-02 5.808027461171150208e-02 -1.366010010242462158e-01 1.050936505198478699e-01 -4.688502103090286255e-02 -6.960263848304748535e-02 -4.830249026417732239e-02 -2.617088705301284790e-02 -5.245783552527427673e-02 -1.552910804748535156e-01 -1.867126524448394775e-01 -2.673912048339843750e-02 4.936708882451057434e-02 1.291535887867212296e-02 -1.220186823047697544e-03
-4.503243789076805115e-02 -3.113996051251888275e-02 1.448791474103927612e-01 -1.444988418370485306e-02 -8.914662897586822510e-02 1.657983213663101196e-01 3.507056459784507751e-02 2.725549414753913879e-02 8.797193877398967743e-03 -4.630077257752418518e-02 -1.302353590726852417e-01 -1.234759613871574402e-01 4.341777786612510681e-02 7.704862207174301147e-02 -4.862260073423385620e-02 6.741368025541305542e-02 9.191325306892395020e-02 6.620123237371444702e-02 1.627816818654537201e-02 -1.964815519750118256e-02 1.505863014608621597e-02 2.413986325263977051e-01 -7.128670811653137207e-03 -7.849950343370437622e-02 -5.525350943207740784e-02 2.267194166779518127e-02 -4.860006645321846008e-02 2.509373426437377930e-02 -8.369462192058563232e-02 -3.970894962549209595e-02 6.173871457576751709e-02 -7.238810509443283081e-02 1.252525858581066132e-02 7.611752301454544067e-02 -1.392364799976348877e-01 -9.485547244548797607e-02 4.592711478471755981e-02 9.927961230278015137e-02 1.317894905805587769e-01 1.969516724348068237e-01 1.109344586730003357e-01 1.508154999464750290e-02 -2.265719622373580933e-01 6.627105176448822021e-02 -1.212982460856437683e-01 -3.134924471378326416e-01 -1.235905587673187256e-01 -5.787164438515901566e-03 2.251356244087219238e-01 1.758723892271518707e-02 1.184050515294075012e-01 -2.126710116863250732e-01 -8.446497470140457153e-02 -1.102823466062545776e-01 1.129124760627746582e-01 -6.443994492292404175e-02 -2.877204678952693939e-02 -5.913480743765830994e-02 -1.066502928733825684e-02 -1.202912628650665283e-01 -1.659819670021533966e-02 -9.464553743600845337e-02 -1.127136871218681335e-01 -1.000215858221054077e-01 -2.791399881243705750e-02 -2.466426640748977661e-01 4.130341857671737671e-02 -8.642997592687606812e-02 -1.140228658914566040e-01 -1.802377030253410339e-02 1.126315668225288391e-01 -8.554013073444366455e-02 -8.024903386831283569e-02 -1.121046720072627068e-03 8.023013174533843994e-02 4.735649097710847855e-03 -7.260465621948242188e-02 -4.490198194980621338e-02 6.075252895243465900e-04 -1.714272052049636841e-01 7.346048485487699509e-03 -1.657629385590553284e-02 5.249282345175743103e-02 5.115067958831787109e-02 -1.138686854392290115e-02 2.082445174455642700e-01 -7.138929516077041626e-02 8.596158586442470551e-03 2.487482316792011261e-02 2.539708614349365234e-01 8.192390948534011841e-02 -1.388870924711227417e-01 1.434602588415145874e-01 1.651001744903624058e-03 2.599070407450199127e-02 1.475871820002794266e-02 1.014072149991989136e-01 -3.277305513620376587e-02 -8.681190013885498047e-02 -7.738438248634338379e-02 -1.098999846726655960e-02 -7.248403131961822510e-02 2.744540385901927948e-02 1.916090995073318481e-01 -1.065114736557006836e-01 -7.346890866756439209e-02 5.973202735185623169e-02 -8.313339948654174805e-02 -1.025706455111503601e-01 -1.650186441838741302e-02 -4.821724072098731995e-02 7.096226513385772705e-02 -4.110823944211006165e-02 1.109308153390884399e-01 1.710571646690368652e-01 1.270069032907485962e-01 -9.428196400403976440e-02 4.631544649600982666e-02 -1.323879323899745941e-02 -1.741349250078201294e-01 -9.933808445930480957e-02 -3.587905168533325195e-01 -7.825562730431556702e-03 -7.064837217330932617e-02 4.927002638578414917e-02 6.311722844839096069e-02 1.120720654726028442e-01 7.883147150278091431e-02 3.072441555559635162e-02 -1.262123733758926392e-01 1.344110220670700073e-01 -1.445874124765396118e-01 3.175722956657409668e-01 1.127016842365264893e-01 -2.236317396163940430e-01 -1.589068124303594232e-04 6.726683676242828369e-02 -6.312494724988937378e-02 -8.914878219366073608e-02 7.145895622670650482e-03 -1.124587953090667725e-01 -2.546352148056030273e-02 -2.591781504452228546e-02 7.870133966207504272e-02 -2.028858847916126251e-02 5.622152239084243774e-02 -1.180203333497047424e-01 -4.333480820059776306e-02 7.378756999969482422e-02 -3.558582440018653870e-02 8.611805737018585205e-03 1.743881963193416595e-02 -6.999786943197250366e-02 4.561765491962432861e-02 4.388432577252388000e-02 4.722988605499267578e-02 2.103963121771812439e-02 2.299881726503372192e-02 1.005184203386306763e-01 8.700652420520782471e-02 -1.881256997585296631e-01 6.132540851831436157e-02 -6.362124532461166382e-02 -1.881604455411434174e-02 6.451600044965744019e-02 1.217014156281948090e-02 -5.135578248882666230e-06 6.940872967243194580e-02 5.445406958460807800e-02 3.142697364091873169e-02 3.705510124564170837e-02 -1.711492687463760376e-01 -1.777605526149272919e-02 -1.772718727588653564e-01 -3.843953832983970642e-02 -1.624422892928123474e-02 -2.991609461605548859e-02 5.773609504103660583e-02 8.355559408664703369e-02 -6.224384903907775879e-02 -5.537590011954307556e-02 -3.874699771404266357e-02 1.553132832050323486e-01 5.827184766530990601e-02 -2.983022667467594147e-02 -3.706429898738861084e-02 -1.517571955919265747e-01 -2.505917251110076904e-01 4.042349755764007568e-02 1.426237225532531738e-01 9.022632241249084473e-02 1.486064959317445755e-02 6.035286351107060909e-04 8.542235195636749268e-02 -1.089585479348897934e-02 1.938550770282745361e-01 7.782084401696920395e-03 5.785723216831684113e-03 -6.799741834402084351e-02 -8.568789809942245483e-03 -3.538829460740089417e-02 2.456402927637100220e-01 -2.244907021522521973e-01 6.163719575852155685e-03 -2.256405353546142578e-02 -6.381022185087203979e-02 1.474468444939702749e-04 1.136634722352027893e-01 -6.524780392646789551e-02 -1.276327222585678101e-01 -5.311558395624160767e-02 5.080271884799003601e-02 -5.435701459646224976e-02 -4.820688813924789429e-02 -1.431701183319091797e-01 3.549110889434814453e-02 6.958191283047199249e-03 -3.044919483363628387e-02 -3.683823719620704651e-02 1.619385629892349243e-01 1.059515476226806641e-01 -1.124320179224014282e-01 2.407467961311340332e-01 -1.103862896561622620e-01 7.815760374069213867e-02 -1.677106320858001709e-02 -3.807171434164047241e-02 3.901204839348793030e-02 -1.222557276487350464e-01 7.111977785825729370e-02 -4.427285119891166687e-02 -5.353447422385215759e-02 -1.761158108711242676e-01 -1.843671798706054688e-01 -9.303312003612518311e-02 -7.669331878423690796e-02 -1.724946349859237671e-01 -6.391979288309812546e-03 1.093948706984519958e-01 3.739933669567108154e-02 -7.305246312171220779e-03 1.225667148828506470e-01 1.375654712319374084e-02 -1.038462296128273010e-01 -2.111445367336273193e-02 1.802501454949378967e-02 -9.931633621454238892e-02 -4.656757041811943054e-02 -2.886895649135112762e-02 2.142041362822055817e-02 1.364315897226333618e-01 9.459423273801803589e-02 2.346402406692504883e-02 2.312230318784713745e-02 1.532413959503173828e-01 5.795749276876449585e-02
7.641012966632843018e-02 1.457292884588241577e-01 -1.604835502803325653e-02 4.342849180102348328e-02 -2.596614831418264657e-05 -5.883466918021440506e-03 8.403842896223068237e-02 2.059874683618545532e-02 5.191437900066375732e-02 -3.885715827345848083e-02 -3.325031697750091553e-02 -1.676468923687934875e-02 2.095654048025608063e-02 3.674570843577384949e-02 1.498899906873703003e-01 1.071569025516510010e-01 -2.011252492666244507e-01 -9.693262726068496704e-02 8.126292377710342407e-02 4.953699558973312378e-02 -4.485054910182952881e-01 -7.949590682983398438e-02 2.297328561544418335e-01 9.733524173498153687e-02 -2.077429369091987610e-02 -2.139291614294052124e-01 -7.236196845769882202e-02 2.248035743832588196e-02 -1.234813630580902100e-01 -1.372970789670944214e-01 1.002226769924163818e-01 -1.064582243561744690e-01 1.131241843104362488e-01 6.052790209650993347e-02 6.873095408082008362e-03 -2.446715533733367920e-02 2.022307366132736206e-02 -9.650886058807373047e-02 1.643682569265365601e-01 -2.090448141098022461e-01 2.159030139446258545e-01 -6.942950189113616943e-02 -6.119062379002571106e-02 -6.698817759752273560e-02 -5.798330064862966537e-03 -4.089202880859375000e-01 -2.862912416458129883e-02 -1.044375896453857422e-01 -3.967799246311187744e-02 4.906364902853965759e-02 1.031940281391143799e-01 -2.263009101152420044e-01 9.951760619878768921e-02 7.495886180549860001e-03 -1.318548768758773804e-01 -4.950268939137458801e-02 4.163131117820739746e-03 -2.105300873517990112e-01 1.329605877399444580e-01 -5.192826688289642334e-02 -2.811043709516525269e-02 -1.232810914516448975e-01 3.387213125824928284e-02 1.955086551606655121e-02 -3.812796995043754578e-02 1.248940974473953247e-01 -2.206791192293167114e-02 -2.764019742608070374e-02 -4.382891356945037842e-01 -2.719998173415660858e-02 -4.438138753175735474e-02 1.598443388938903809e-01 -5.369816720485687256e-02 4.779146611690521240e-02 9.405429661273956299e-02 4.675013944506645203e-02 1.600137725472450256e-02 9.342514723539352417e-02 1.403270810842514038e-01 -4.223748445510864258e-01 6.288991123437881470e-02 -2.858730219304561615e-02 -7.114466745406389236e-03 1.005325838923454285e-01 -3.237012028694152832e-02 -9.800774604082107544e-02 -1.427551209926605225e-01 2.767862081527709961e-01 1.098847538232803345e-01 -1.720879822969436646e-01 1.442443132400512695e-01 1.346293557435274124e-02 4.492696747183799744e-02 -6.183345988392829895e-02 2.253900282084941864e-02 -1.012036576867103577e-01 -1.138394549489021301e-01 -3.059584796428680420e-01 9.673473425209522247e-03 -3.051611362025141716e-03 2.072395384311676025e-01 4.371669143438339233e-02 6.806473433971405029e-02 4.842592403292655945e-02 1.055691204965114594e-02 1.027707010507583618e-01 -6.592351198196411133e-02 5.593322589993476868e-02 3.912986442446708679e-02 -7.806653529405593872e-02 -1.342111080884933472e-01 -1.097937952727079391e-02 -5.666985362768173218e-02 -4.823660477995872498e-02 -2.598349153995513916e-01 6.300521641969680786e-02 -8.382087200880050659e-02 5.101705715060234070e-02 1.180452257394790649e-01 3.882837295532226562e-02 -1.546203494071960449e-01 -1.164616793394088745e-01 1.262841969728469849e-01 3.140956163406372070e-02 7.344849407672882080e-02 -9.923201054334640503e-02 1.018691807985305786e-01 -1.328191310167312622e-01 5.330448225140571594e-02 -1.542552262544631958e-01 -1.638158340938389301e-03 1.219644099473953247e-01 -2.131780795753002167e-02 4.045099020004272461e-02 -1.647829562425613403e-01 3.430311381816864014e-02 1.377402059733867645e-02 -2.020288631319999695e-02 -3.858035430312156677e-02 -3.802405595779418945e-01 2.399769611656665802e-02 -4.107071831822395325e-02 2.074633724987506866e-02 -7.959742099046707153e-02 -1.569680869579315186e-02 1.500522643327713013e-01 9.404067881405353546e-03 -1.338330060243606567e-01 -1.380262374877929688e-01 -3.782768547534942627e-02 -6.204701215028762817e-02 -3.651630878448486328e-02 6.822134554386138916e-02 1.652468144893646240e-01 2.764829248189926147e-02 -1.328256279230117798e-01 3.882012516260147095e-02 -2.027659565210342407e-01 -7.023762911558151245e-02 2.480242401361465454e-02 -5.014798790216445923e-02 2.888279967010021210e-02 -3.452867642045021057e-02 7.757901400327682495e-02 7.923053205013275146e-02 1.638193801045417786e-02 -1.439528353512287140e-02 3.703216835856437683e-02 1.259310692548751831e-01 -1.762324720621109009e-01 -4.082225263118743896e-02 1.302377283573150635e-01 -7.680649310350418091e-02 -1.884405016899108887e-01 6.277814973145723343e-03 1.133683174848556519e-01 9.836279600858688354e-02 -3.734447434544563293e-02 5.668615456670522690e-03 4.423788562417030334e-02 -4.457675095181912184e-04 -2.506522461771965027e-02 5.315518379211425781e-02 4.440553486347198486e-03 -1.296111345291137695e-01 -4.928424581885337830e-02 -2.572003006935119629e-02 8.668613433837890625e-02 -3.246484696865081787e-01 1.786361262202262878e-02 4.640598967671394348e-02 5.794335622340440750e-03 -2.875312231481075287e-03 -1.467351019382476807e-01 6.823861598968505859e-02 2.081484347581863403e-02 1.213318705558776855e-01 9.519144147634506226e-02 -2.170697003602981567e-01 2.826543338596820831e-02 1.492293030023574829e-01 -5.619233250617980957e-01 2.223939448595046997e-01 6.348677724599838257e-02 -1.256965659558773041e-02 -6.013371050357818604e-02 -2.562665846198797226e-03 5.324526131153106689e-02 1.067408919334411621e-01 -5.025470629334449768e-02 1.373063474893569946e-01 5.370673164725303650e-02 1.540693268179893494e-02 -1.828982867300510406e-02 2.362528741359710693e-01 6.200743373483419418e-04 -1.913914233446121216e-01 9.311937540769577026e-02 8.684751577675342560e-03 -3.762814402580261230e-02 -5.742968618869781494e-02 -1.685496717691421509e-01 -1.818797923624515533e-02 2.092630974948406219e-02 -4.690673947334289551e-02 -1.554688513278961182e-01 -8.872594684362411499e-02 1.701911687850952148e-01 -8.397177443839609623e-04 4.322450840845704079e-04 -5.145476758480072021e-02 8.556709624826908112e-03 1.490912120789289474e-02 6.978740543127059937e-02 -7.395548373460769653e-02 -6.187445670366287231e-02 -1.080857962369918823e-01 9.952128678560256958e-02 -1.430998295545578003e-01 9.019263088703155518e-02 5.058066453784704208e-03 -4.045112431049346924e-02 8.852197229862213135e-02 -5.807060375809669495e-02 4.417195171117782593e-02 -2.727817371487617493e-02 5.428453534841537476e-02 -6.718728691339492798e-02 -9.003727138042449951e-02 7.252698391675949097e-02 2.669693231582641602e-01 -1.486363410949707031e-01 -1.748489029705524445e-02 1.457858830690383911e-02 -5.435605347156524658e-02 -1.450793445110321045e-01
-2.550878562033176422e-02 2.267195284366607666e-02 1.315073168370872736e-04 -2.520685456693172455e-02 -8.493947237730026245e-02 -8.018358051776885986e-02 5.582362785935401917e-02 1.206952407956123352e-01 5.817932263016700745e-02 -2.461153315380215645e-03 -5.126633122563362122e-02 -4.112908244132995605e-02 -1.030508950352668762e-01 1.628104597330093384e-01 -3.940765187144279480e-02 4.078165069222450256e-02 -3.144483268260955811e-02 -2.414789348840713501e-01 7.805165648460388184e-02 -9.214491397142410278e-02 -2.999596297740936279e-01 -2.102155983448028564e-01 -1.881252601742744446e-02 -2.656901627779006958e-02 1.288212537765502930e-01 -1.154300272464752197e-01 -4.228888824582099915e-02 1.432553082704544067e-01 -8.147773146629333496e-02 -8.575871586799621582e-02 -2.988002635538578033e-02 -1.349260360002517700e-01 1.506960988044738770e-01 -6.288339942693710327e-02 6.104937940835952759e-02 1.551962494850158691e-01 5.036806315183639526e-02 7.892087101936340332e-02 1.396849453449249268e-01 -1.900534629821777344e-01 -2.269452661275863647e-01 2.126621454954147339e-01 1.619633585214614868e-01 -1.070055924355983734e-02 -6.264306604862213135e-02 -1.943927258253097534e-01 8.426771312952041626e-02 -1.562651544809341431e-01 -2.412637695670127869e-03 4.544932022690773010e-02 7.272803783416748047e-02 -2.846633270382881165e-02 1.052651461213827133e-02 -1.409193780273199081e-02 3.693579509854316711e-02 -8.904557675123214722e-03 -4.881625995039939880e-02 -2.532044053077697754e-01 -8.117228001356124878e-02 -7.278421521186828613e-02 -5.422243475914001465e-02 -3.735750680789351463e-03 1.009160652756690979e-02 1.181432977318763733e-02 2.046589106321334839e-01 7.389548420906066895e-02 -3.513066843152046204e-02 1.461209952831268311e-01 -4.979748129844665527e-01 -6.298251450061798096e-02 3.728971630334854126e-02 1.775730215013027191e-02 -2.120029479265213013e-01 5.323871597647666931e-02 1.054628118872642517e-01 -5.094867572188377380e-02 -2.116330340504646301e-02 4.484683647751808167e-02 -4.080145433545112610e-02 -2.148472219705581665e-01 1.608604192733764648e-01 -1.481112390756607056e-01 -1.387141495943069458e-01 1.073329821228981018e-01 2.260347157716751099e-01 -1.254675984382629395e-01 -8.387561887502670288e-02 2.172304987907409668e-01 4.027803614735603333e-02 -1.845136135816574097e-01 1.659069210290908813e-02 -3.280406817793846130e-02 -1.358204707503318787e-02 1.557675097137689590e-02 6.895662099123001099e-02 -1.198788173496723175e-02 -2.814083397388458252e-01 -1.729364544153213501e-01 2.290237843990325928e-01 3.039853274822235107e-02 -1.925251483917236328e-01 -3.606748953461647034e-02 -5.401485785841941833e-02 -2.042627781629562378e-01 -1.282116472721099854e-01 7.183458656072616577e-02 1.883382052183151245e-01 9.511442482471466064e-02 -2.898045442998409271e-02 5.344432592391967773e-02 -1.950910538434982300e-01 6.908491719514131546e-03 -1.722873188555240631e-02 7.758759707212448120e-02 -8.900418877601623535e-02 1.192934736609458923e-01 -6.922104209661483765e-02 -1.076435744762420654e-01 5.129591561853885651e-03 5.217206105589866638e-02 -3.603015244007110596e-01 -2.854048013687133789e-01 6.680521368980407715e-02 -1.120862066745758057e-01 1.856279075145721436e-01 -3.796567767858505249e-02 6.891983002424240112e-02 -2.994746528565883636e-02 5.133036524057388306e-02 -1.777966693043708801e-02 -4.520807042717933655e-02 -1.456478685140609741e-01 1.587273087352514267e-03 2.461100742220878601e-02 -6.189616769552230835e-02 8.140434324741363525e-02 -1.529972767457365990e-03 5.155651271343231201e-02 -6.319320201873779297e-02 -3.762171268463134766e-01 -1.840466260910034180e-02 5.755607038736343384e-02 5.086067318916320801e-02 -2.736816182732582092e-02 -5.125383660197257996e-02 4.272226244211196899e-02 1.174670979380607605e-01 1.386644989252090454e-01 4.984898120164871216e-02 -9.134607762098312378e-02 7.440280914306640625e-02 -1.513614412397146225e-02 1.690079830586910248e-02 6.717396527528762817e-02 5.221893638372421265e-02 -1.040340736508369446e-01 3.073196858167648315e-03 5.162536352872848511e-02 9.621151536703109741e-02 -1.296573877334594727e-01 9.168165177106857300e-02 1.736986488103866577e-01 1.587436906993389130e-02 7.358042150735855103e-02 3.048280067741870880e-02 -3.036489151418209076e-02 8.100200444459915161e-02 2.696305140852928162e-02 3.292544046416878700e-03 -1.195783540606498718e-01 6.740289926528930664e-02 -3.271478042006492615e-02 8.128874748945236206e-02 -1.322727501392364502e-01 7.440062612295150757e-02 -1.293376684188842773e-01 -1.063384190201759338e-01 -1.367212384939193726e-01 1.687301322817802429e-02 1.053881421685218811e-01 2.219648659229278564e-01 -1.504249591380357742e-02 5.020849406719207764e-03 5.417060479521751404e-02 1.629252918064594269e-02 3.188749076798558235e-03 9.670239686965942383e-02 -6.052019074559211731e-02 -1.553810685873031616e-01 -4.807842522859573364e-02 8.384741097688674927e-02 1.465000510215759277e-01 1.081947311758995056e-01 1.591649092733860016e-02 -4.226806759834289551e-02 1.329221129417419434e-01 -1.468485891819000244e-01 -4.861574992537498474e-02 -8.113892376422882080e-02 -3.784728050231933594e-02 2.979808486998081207e-02 -1.548605561256408691e-01 2.036228030920028687e-02 -8.131511509418487549e-02 -2.159710600972175598e-02 2.039753645658493042e-02 -6.288594007492065430e-02 -1.190657019615173340e-01 4.823232442140579224e-02 9.251796454191207886e-02 -1.780455373227596283e-02 -2.437393181025981903e-02 4.331893473863601685e-02 1.055000908672809601e-02 6.333646923303604126e-02 1.592858731746673584e-01 7.162801921367645264e-02 8.885709941387176514e-02 -1.040976271033287048e-01 2.131077088415622711e-02 -1.006946265697479248e-01 -7.930114120244979858e-02 -3.287817910313606262e-02 -5.723800510168075562e-02 -1.585134416818618774e-01 1.170329377055168152e-01 -4.377608001232147217e-02 -1.153469178825616837e-02 1.875287480652332306e-02 1.361063122749328613e-02 -1.883821003139019012e-02 1.530777383595705032e-02 4.578712210059165955e-02 2.838287036865949631e-03 1.304437499493360519e-02 8.322084695100784302e-02 -1.287578493356704712e-01 1.081968992948532104e-01 -2.435648739337921143e-01 -1.934307813644409180e-02 6.246795877814292908e-03 -5.444324016571044922e-02 -6.757687032222747803e-02 -2.130885235965251923e-02 2.164528965950012207e-01 5.510527268052101135e-02 -1.327959001064300537e-01 2.749772556126117706e-02 -1.373615413904190063e-01 9.681995958089828491e-02 -4.448370262980461121e-02 -1.195737496018409729e-01 7.455537468194961548e-02 -2.499400824308395386e-02 4.949150979518890381e-02 -2.407051473855972290e-01
-1.188256815075874329e-01 1.065139919519424438e-01 -8.374563604593276978e-02 1.131101846694946289e-01 7.798896729946136475e-02 -5.917971581220626831e-02 1.501349061727523804e-01 2.948807924985885620e-02 -4.953018948435783386e-02 7.148543000221252441e-02 -1.676727533340454102e-01 1.392427682876586914e-01 -1.654533785767853260e-03 -1.233762409538030624e-02 -1.508138179779052734e-01 -3.189574554562568665e-02 -3.732350096106529236e-02 -3.612083196640014648e-01 1.851171851158142090e-01 1.985601335763931274e-01 -2.650928497314453125e-01 5.709723383188247681e-02 1.971745863556861877e-02 -9.271940588951110840e-02 4.709134995937347412e-02 -3.348674252629280090e-02 -7.426182925701141357e-02 -1.450204551219940186e-01 1.513811349868774414e-01 7.547207176685333252e-02 4.244185611605644226e-02 8.349356800317764282e-02 -3.125560283660888672e-02 1.403917092829942703e-02 -3.300946578383445740e-02 8.362110704183578491e-02 1.491038948297500610e-01 -1.131242588162422180e-01 2.419829554855823517e-02 8.265389502048492432e-02 -7.891076803207397461e-02 2.912775054574012756e-02 1.668963283300399780e-01 -1.955243945121765137e-02 -9.294833987951278687e-02 -1.729672402143478394e-01 4.128431435674428940e-03 1.406105458736419678e-01 -1.734958402812480927e-02 -6.500948965549468994e-02 -9.694132208824157715e-02 -1.231406107544898987e-01 1.997959055006504059e-02 -2.534457854926586151e-02 9.375764429569244385e-02 -2.585715614259243011e-02 -2.342762798070907593e-01 -4.258948192000389099e-02 5.000178143382072449e-02 -1.938292197883129120e-02 2.421955578029155731e-02 -6.148627027869224548e-02 -5.248941015452146530e-03 9.300814568996429443e-02 -3.094403818249702454e-02 -1.441608462482690811e-02 -7.513394206762313843e-02 4.594980180263519287e-02 2.169572412967681885e-01 6.411318480968475342e-02 -1.328320205211639404e-01 2.105892263352870941e-02 -2.502492256462574005e-02 8.266966789960861206e-03 -8.589031547307968140e-02 4.212114494293928146e-03 -7.752785086631774902e-02 -7.476069033145904541e-02 1.279170811176300049e-01 -2.745030522346496582e-01 1.387899369001388550e-01 4.961876943707466125e-02 -5.884815752506256104e-02 1.046262383460998535e-01 1.775277554988861084e-01 6.476728618144989014e-02 5.919001623988151550e-02 1.236999630928039551e-01 1.177715435624122620e-01 -2.719716727733612061e-01 1.372977718710899353e-02 2.212858051061630249e-01 8.314190804958343506e-02 -8.271237835288047791e-03 1.184615939855575562e-01 1.380580067634582520e-01 1.684339642524719238e-01 1.640042811632156372e-01 -7.171364128589630127e-02 -1.449604630470275879e-01 -3.755431994795799255e-02 1.047581806778907776e-01 1.576405316591262817e-01 -1.145021742559038103e-04 2.184130698442459106e-01 -4.883037880063056946e-02 1.508177630603313446e-02 -4.689109046012163162e-03 1.405894160270690918e-01 5.904196575284004211e-02 2.321944013237953186e-02 2.321966290473937988e-01 2.276353538036346436e-01 6.830622255802154541e-02 -1.418345570564270020e-01 3.033024072647094727e-02 -1.727467179298400879e-01 -1.601672731339931488e-02 1.637607812881469727e-01 4.176479578018188477e-02 1.458670198917388916e-01 -1.309859156608581543e-01 -3.697308897972106934e-02 8.290825039148330688e-02 -1.319339275360107422e-01 -2.595201693475246429e-02 1.312912628054618835e-02 -1.095650270581245422e-01 7.759962230920791626e-02 3.045370802283287048e-02 -1.502191722393035889e-01 9.374578297138214111e-02 3.290237486362457275e-02 -1.194354370236396790e-01 -7.911231368780136108e-02 1.129198372364044189e-01 9.555193781852722168e-02 1.372607052326202393e-01 1.150876954197883606e-01 3.624876588582992554e-02 -3.552690520882606506e-02 -5.564074590802192688e-02 -9.089614264667034149e-03 6.667479872703552246e-02 1.353787183761596680e-01 -3.003456629812717438e-02 4.623956978321075439e-02 -1.339429765939712524e-01 -1.535747051239013672e-01 4.925635084509849548e-02 -2.871999889612197876e-02 3.749462962150573730e-02 4.531927034258842468e-02 6.897018849849700928e-02 7.188552618026733398e-02 5.608806386590003967e-02 -1.245613396167755127e-02 1.079998314380645752e-01 -3.229818865656852722e-02 -8.677527308464050293e-02 -1.997290644794702530e-03 -6.269556283950805664e-02 2.595633082091808319e-02 1.176380887627601624e-01 -1.580685377120971680e-02 1.583663821220397949e-01 -9.431102126836776733e-02 -5.230603739619255066e-02 2.853087186813354492e-01 1.827341690659523010e-02 7.551909983158111572e-02 6.254024058580398560e-02 -1.362938899546861649e-02 1.232578754425048828e-01 3.576592728495597839e-02 6.754456460475921631e-02 -3.291251510381698608e-02 8.547260612249374390e-02 1.048096865415573120e-01 7.204789668321609497e-02 2.160198241472244263e-02 -3.709109500050544739e-02 -1.657314151525497437e-01 -1.928602904081344604e-01 6.793517619371414185e-02 8.720695972442626953e-02 -2.584681808948516846e-01 -2.283292412757873535e-01 -8.556560426950454712e-02 9.669320285320281982e-02 1.329005509614944458e-01 2.622209675610065460e-02 -5.456774309277534485e-02 2.480870299041271210e-02 -1.767864972352981567e-01 -2.171490155160427094e-02 8.352831006050109863e-02 -3.630558773875236511e-02 1.806128025054931641e-01 6.823360919952392578e-02 -1.018078648485243320e-03 -1.797204017639160156e-01 -5.662619695067405701e-02 1.675698719918727875e-02 -2.383844181895256042e-02 -3.953797742724418640e-02 -1.693377792835235596e-01 8.048739284276962280e-02 -8.420607075095176697e-03 7.492587715387344360e-02 -1.901009003631770611e-03 -6.285054236650466919e-02 9.794241189956665039e-02 5.414254963397979736e-02 -6.184906885027885437e-02 1.812105625867843628e-02 9.463779628276824951e-02 1.094369813799858093e-01 1.008759960532188416e-01 -3.445082157850265503e-02 1.207121163606643677e-01 3.336330130696296692e-02 1.786906421184539795e-01 1.819220781326293945e-01 -3.936178982257843018e-02 -4.454270750284194946e-02 -6.273370236158370972e-02 8.905693888664245605e-02 1.905902773141860962e-01 1.606650091707706451e-02 -7.290153950452804565e-02 -1.158623322844505310e-01 -1.260330677032470703e-01 8.749119192361831665e-02 1.250218898057937622e-01 1.040896624326705933e-01 -6.431227177381515503e-02 1.179717853665351868e-01 -9.374614059925079346e-02 5.677878484129905701e-02 -4.041216522455215454e-02 -2.104566618800163269e-02 1.336629092693328857e-01 2.811514772474765778e-02 3.096559084951877594e-02 -2.737534604966640472e-02 -7.343441247940063477e-02 -4.442356154322624207e-02 -3.969342261552810669e-02 1.964614689350128174e-01 2.281302399933338165e-02 -5.820568650960922241e-03 -2.844374161213636398e-03 -1.864638365805149078e-02 -1.309458762407302856e-01 -1.667278707027435303e-01
-1.067154258489608765e-01 -2.939287014305591583e-02 8.940209448337554932e-02 9.293385595083236694e-02 -6.689390540122985840e-02 3.357265843078494072e-03 1.114226579666137695e-01 8.677434921264648438e-02 3.083664737641811371e-02 2.716042101383209229e-02 1.450073067098855972e-02 5.558405071496963501e-02 3.297672420740127563e-02 8.314351737499237061e-02 4.330037161707878113e-02 -1.785462908446788788e-02 -9.169177711009979248e-02 2.361740544438362122e-02 -1.047137528657913208e-01 1.348760351538658142e-02 -4.409185647964477539e-01 4.185400158166885376e-02 -2.974044531583786011e-02 -9.921776503324508667e-02 1.032803058624267578e-01 5.906573310494422913e-02 8.390393853187561035e-02 -6.680972874164581299e-02 -9.016853570938110352e-02 -2.687655016779899597e-02 7.516174577176570892e-03 -1.490635424852371216e-01 -4.045885056257247925e-02 1.377083957195281982e-01 -2.954769320785999298e-02 1.709485948085784912e-01 -1.218989640474319458e-01 -4.024996981024742126e-02 -1.307193934917449951e-01 -1.582242250442504883e-01 -4.363436996936798096e-02 -1.930871279910206795e-03 -4.037418961524963379e-02 6.245780363678932190e-02 1.174705009907484055e-02 -3.360354900360107422e-02 -9.423234313726425171e-02 1.504676137119531631e-02 -8.519569039344787598e-02 1.160759851336479187e-02 1.251479983329772949e-01 -1.201033666729927063e-01 6.985357962548732758e-03 -1.411096602678298950e-01 -9.763336181640625000e-02 -5.816816911101341248e-02 -6.205554679036140442e-02 -1.566336005926132202e-01 6.107577681541442871e-02 2.251991815865039825e-02 -1.835953891277313232e-01 7.217103987932205200e-02 -2.497847527265548706e-01 -5.773945897817611694e-02 -1.046833023428916931e-02 8.939491212368011475e-02 -9.246718138456344604e-02 1.584108024835586548e-01 -4.278372526168823242e-01 -5.016155540943145752e-02 -4.904242232441902161e-02 6.861215829849243164e-02 4.843730013817548752e-03 -1.080383211374282837e-01 1.288011968135833740e-01 -1.253712922334671021e-01 -6.356740742921829224e-02 3.979379311203956604e-02 6.567724049091339111e-02 -3.272037506103515625e-01 -7.358036935329437256e-02 -5.665725097060203552e-02 -1.608508676290512085e-01 1.615521870553493500e-02 -9.798886626958847046e-02 1.923648715019226074e-01 -2.765546552836894989e-02 1.557811498641967773e-01 -7.367791980504989624e-02 2.118312120437622070e-01 8.510312438011169434e-02 -1.235939003527164459e-02 -7.511330395936965942e-02 -8.155974745750427246e-02 -2.108539268374443054e-02 6.732735782861709595e-02 -2.243740856647491455e-01 -3.506820499897003174e-01 7.029408961534500122e-02 1.523928791284561157e-01 5.053979530930519104e-02 -7.194890081882476807e-02 6.382095813751220703e-02 -1.434965729713439941e-01 -1.394814103841781616e-01 6.587637215852737427e-02 6.730268150568008423e-02 1.458228826522827148e-01 1.510229110717773438e-01 -1.969463191926479340e-03 2.964916452765464783e-02 3.896104171872138977e-02 -7.880895584821701050e-02 -5.376384034752845764e-02 -5.204042792320251465e-02 -1.939737470820546150e-03 -8.875846862792968750e-02 -4.551037400960922241e-02 1.225452497601509094e-01 -5.429993197321891785e-02 -2.408709526062011719e-01 -3.533343970775604248e-01 -4.690889269113540649e-02 1.035872176289558411e-01 1.265736762434244156e-02 6.688819080591201782e-02 -3.366314619779586792e-02 1.800902336835861206e-01 3.753585368394851685e-02 -1.930212825536727905e-01 2.326996624469757080e-02 8.683870732784271240e-02 1.891304403543472290e-01 8.233357965946197510e-02 -1.359705328941345215e-01 -8.365703374147415161e-02 1.391439884901046753e-01 2.894164295867085457e-03 4.709859564900398254e-02 1.778946630656719208e-02 -1.195772737264633179e-02 2.319219857454299927e-01 -1.737080514430999756e-01 -3.136500716209411621e-02 3.591719269752502441e-02 1.131997630000114441e-01 7.585494965314865112e-02 4.695487022399902344e-02 -2.969825267791748047e-02 -1.189708895981311798e-02 1.837016642093658447e-02 -3.065096586942672729e-02 3.081386163830757141e-02 -4.048069566488265991e-02 1.228387504816055298e-01 -1.749132871627807617e-01 1.179771125316619873e-01 4.925797134637832642e-02 2.807792741805315018e-03 7.359104603528976440e-02 2.069534920156002045e-02 -2.829300798475742340e-02 -7.337702810764312744e-02 -2.995762508362531662e-03 9.430620819330215454e-02 1.758711338043212891e-01 -6.562028825283050537e-02 -7.697796076536178589e-02 -4.855683818459510803e-02 -6.074396148324012756e-02 7.097302004694938660e-03 -2.370447106659412384e-02 -1.445258259773254395e-01 -4.547317326068878174e-02 -1.268577855080366135e-02 1.029394045472145081e-01 -8.455751463770866394e-03 1.148463413119316101e-01 -5.481357499957084656e-02 1.593692451715469360e-01 -1.581332236528396606e-01 -1.335316747426986694e-01 -1.539516355842351913e-02 1.392522901296615601e-01 1.123254373669624329e-01 -5.444762296974658966e-03 -3.833097591996192932e-02 -1.519030928611755371e-01 -1.985435783863067627e-01 -1.768683493137359619e-01 -1.934680715203285217e-02 -5.162027478218078613e-02 4.574991762638092041e-02 2.149700187146663666e-02 -4.461267590522766113e-02 1.374734640121459961e-01 -6.511620245873928070e-03 6.629719585180282593e-02 -5.657098069787025452e-02 -7.666016370058059692e-02 -5.679600313305854797e-02 -4.706712067127227783e-01 1.445191204547882080e-01 1.440248042345046997e-01 -8.174915611743927002e-02 -2.373829483985900879e-02 -6.448494642972946167e-02 8.803560584783554077e-02 5.352817848324775696e-02 4.659210145473480225e-02 3.554686903953552246e-02 -1.563804298639297485e-01 -3.985380008816719055e-02 7.062298059463500977e-02 -3.739193454384803772e-02 1.926234364509582520e-01 -5.029663443565368652e-02 4.512112960219383240e-02 -1.306103318929672241e-01 -3.329314664006233215e-02 8.777142502367496490e-03 -1.970748752355575562e-01 1.976289451122283936e-01 3.425827622413635254e-02 1.171021908521652222e-01 -2.533239312469959259e-02 2.916055172681808472e-02 -1.922243274748325348e-02 5.066605284810066223e-02 -1.361209247261285782e-02 -1.499416958540678024e-02 8.098988980054855347e-02 1.238913238048553467e-01 1.322278231382369995e-01 4.407799988985061646e-02 7.638435065746307373e-02 4.409447312355041504e-02 -1.972673088312149048e-01 -3.781105205416679382e-02 1.354259438812732697e-02 -1.987870037555694580e-02 9.760215133428573608e-02 1.753814369440078735e-01 -1.602618545293807983e-01 -1.000641807913780212e-01 -9.392011910676956177e-02 2.360876882448792458e-03 -1.204742938280105591e-01 8.888699859380722046e-02 -2.171883732080459595e-02 8.968417346477508545e-02 -9.892950206995010376e-02 1.263935025781393051e-02 7.722259312868118286e-02 2.416785061359405518e-02 -5.083194747567176819e-02
2.873551473021507263e-02 2.444131067022681236e-03 2.813388034701347351e-02 -9.470550343394279480e-03 6.201798096299171448e-03 1.505583059042692184e-02 7.441557198762893677e-02 1.396663933992385864e-01 1.832244545221328735e-01 -5.793720856308937073e-02 -4.178354982286691666e-03 1.793389092199504375e-03 6.126913800835609436e-02 5.372021719813346863e-02 5.392288789153099060e-02 -4.426029976457357407e-03 -2.917662635445594788e-02 8.551583439111709595e-02 -4.043829068541526794e-02 2.376873604953289032e-02 -3.469027876853942871e-01 4.611193761229515076e-02 -2.273225225508213043e-02 -2.069418877363204956e-02 8.512590825557708740e-02 -1.498809158802032471e-01 2.202712232246994972e-03 -1.277083307504653931e-01 -8.808416873216629028e-02 -3.145783022046089172e-02 -2.196019887924194336e-02 -1.869734227657318115e-01 3.164431080222129822e-02 7.804790139198303223e-02 1.101979911327362061e-01 -2.282581664621829987e-02 1.606228947639465332e-02 1.643579304218292236e-01 5.010736733675003052e-02 -5.045777931809425354e-02 8.456434309482574463e-02 2.532836198806762695e-01 1.453710068017244339e-02 -1.688955165445804596e-02 -3.844155743718147278e-02 -2.074425816535949707e-01 -9.163516014814376831e-02 7.989140599966049194e-02 5.946588888764381409e-02 1.004015803337097168e-01 1.178594753146171570e-01 -9.400969743728637695e-02 -1.128120571374893188e-01 2.779862144961953163e-03 -9.229316562414169312e-02 -9.135128930211067200e-03 -1.810012459754943848e-01 -3.159967362880706787e-01 -1.195347979664802551e-01 7.200360298156738281e-02 1.481935530900955200e-01 7.835448719561100006e-03 -9.999711066484451294e-02 -1.079228073358535767e-01 -2.020790800452232361e-02 1.123576890677213669e-02 -6.421768665313720703e-02 -8.177641779184341431e-02 -4.790122509002685547e-01 -3.105589188635349274e-02 5.494270473718643188e-02 8.252413570880889893e-02 6.305092573165893555e-02 6.482216715812683105e-02 7.430988550186157227e-02 2.910412847995758057e-03 2.293703518807888031e-02 -2.102062664926052094e-02 1.880152821540832520e-01 -2.575522959232330322e-01 6.327733397483825684e-02 -5.882084742188453674e-02 -3.068090975284576416e-01 1.408300101757049561e-01 -2.328364253044128418e-01 3.350235521793365479e-02 -1.263398975133895874e-01 -9.787794202566146851e-03 1.365785836242139339e-03 5.604563280940055847e-02 3.766041621565818787e-02 6.852698326110839844e-02 8.374941535294055939e-03 -4.289886727929115295e-02 -2.020069770514965057e-02 7.633004337549209595e-02 -3.083996772766113281e-01 -1.091079339385032654e-01 -4.568694904446601868e-02 1.320110708475112915e-01 9.211640059947967529e-02 8.506549894809722900e-02 9.166187047958374023e-02 -1.004625931382179260e-01 -8.873276412487030029e-02 1.847224235534667969e-01 2.841944620013237000e-02 4.858443513512611389e-02 -2.947478927671909332e-02 2.935193292796611786e-02 -2.585032582283020020e-02 -5.235916003584861755e-02 1.048680096864700317e-01 -4.172614961862564087e-02 7.586111128330230713e-02 1.246702149510383606e-01 -8.741416782140731812e-02 -4.769681487232446671e-03 -1.566031388938426971e-02 6.087393965572118759e-03 -1.617222651839256287e-02 -3.245204985141754150e-01 1.832283288240432739e-01 -1.126950886100530624e-02 1.039852499961853027e-01 -5.559514835476875305e-02 9.375336766242980957e-02 -5.696407705545425415e-02 -1.341596543788909912e-01 -2.813557386398315430e-01 -2.221444854512810707e-03 3.035850636661052704e-02 -4.956472292542457581e-02 1.088307276368141174e-01 -3.729245364665985107e-01 6.167732924222946167e-02 -8.282206021249294281e-03 -9.944694116711616516e-03 3.395113348960876465e-02 -3.334755897521972656e-01 1.869442164897918701e-01 1.931239478290081024e-02 8.865819871425628662e-02 2.777258455753326416e-01 -2.472674101591110229e-02 3.043117560446262360e-02 2.019189000129699707e-01 1.345514804124832153e-01 -3.675078600645065308e-02 3.460607305169105530e-02 8.010105788707733154e-02 -1.291777938604354858e-01 5.142504349350929260e-02 -1.980371959507465363e-02 -1.274233497679233551e-02 2.518556080758571625e-02 1.570318639278411865e-01 -3.328706324100494385e-02 5.924855172634124756e-02 6.010780483484268188e-02 8.851623535156250000e-02 -1.033713445067405701e-01 3.700906410813331604e-02 1.908473670482635498e-02 -1.208284050226211548e-01 1.006300747394561768e-01 -1.671677827835083008e-01 1.378882769495248795e-02 4.018791764974594116e-02 1.256967931985855103e-01 -4.502277076244354248e-02 -1.003458574414253235e-01 7.166162878274917603e-02 -6.717550009489059448e-02 1.158313676714897156e-01 1.067592576146125793e-01 4.291185736656188965e-02 -1.286113709211349487e-01 6.111686676740646362e-02 -1.354565918445587158e-01 5.282355844974517822e-02 8.467444777488708496e-02 2.462662011384963989e-02 4.002781584858894348e-03 2.510663494467735291e-02 1.637859642505645752e-02 -8.980131894350051880e-02 5.044709146022796631e-02 -2.695244550704956055e-01 -6.034457683563232422e-02 1.617080904543399811e-02 -2.638734132051467896e-02 -2.977769076824188232e-02 1.237131282687187195e-01 3.113680332899093628e-02 9.678982198238372803e-03 4.296575486660003662e-02 3.948483988642692566e-02 -3.054515123367309570e-01 4.543498903512954712e-02 -2.811583504080772400e-02 -1.015532612800598145e-01 -7.710344344377517700e-02 -9.175378829240798950e-02 3.611681237816810608e-02 7.041451334953308105e-02 -1.042801737785339355e-01 6.906485557556152344e-02 1.802855916321277618e-02 -1.002107635140419006e-01 1.208510547876358032e-01 7.225452363491058350e-02 5.759001150727272034e-02 7.062743604183197021e-02 -6.032493710517883301e-02 1.868570409715175629e-02 4.637091234326362610e-02 1.801951788365840912e-02 -7.802177220582962036e-03 -4.994137212634086609e-02 -1.406707102432847023e-03 -1.287290155887603760e-01 2.187712490558624268e-02 1.747865788638591766e-02 -1.339534223079681396e-01 -5.463791266083717346e-02 -6.751890480518341064e-02 -8.552117645740509033e-02 1.739369630813598633e-01 -8.324320614337921143e-02 3.418779466301202774e-03 -7.818795740604400635e-02 9.991049021482467651e-02 1.699239760637283325e-01 3.112822957336902618e-02 -2.679864130914211273e-02 -7.373757660388946533e-02 4.525608196854591370e-02 -1.316354610025882721e-02 -8.584814518690109253e-02 -6.150615215301513672e-02 6.833802163600921631e-02 -5.663214623928070068e-02 3.388263983651995659e-03 1.263323128223419189e-01 1.429300010204315186e-02 -1.557529866695404053e-01 -1.040093079209327698e-01 2.060286328196525574e-02 9.362635761499404907e-02 1.712974160909652710e-02 -1.408658921718597412e-01 -1.170125380158424377e-01 -5.298719555139541626e-02 -6.344920024275779724e-03 -1.341244727373123169e-01
5.049045383930206299e-02 2.022911421954631805e-02 9.450889378786087036e-02 -1.668294370174407959e-01 1.095524355769157410e-01 -6.431660149246454239e-03 -1.189551055431365967e-01 2.262189239263534546e-02 1.209684237837791443e-01 -4.479166492819786072e-02 1.170720010995864868e-01 -9.546940214931964874e-03 1.466174516826868057e-02 6.233434379100799561e-02 1.017511561512947083e-01 6.670296937227249146e-02 -1.964391171932220459e-01 1.008535772562026978e-01 3.318376094102859497e-02 1.525749713182449341e-01 -3.874002099037170410e-01 -1.173808202147483826e-01 -6.943984329700469971e-02 -8.874174952507019043e-02 1.039429605007171631e-01 -1.966558098793029785e-01 -7.158860564231872559e-02 7.619529217481613159e-02 -9.789284318685531616e-02 -1.796676814556121826e-01 6.421877536922693253e-03 -1.642015278339385986e-01 4.022328555583953857e-02 -1.045396998524665833e-01 -4.665312543511390686e-02 -1.058293357491493225e-01 4.296881705522537231e-02 1.608052849769592285e-01 9.920953214168548584e-02 -1.265393942594528198e-02 1.922082901000976562e-02 -2.742741815745830536e-02 2.443548105657100677e-02 -2.866574004292488098e-02 -6.019829586148262024e-02 -6.414917856454849243e-02 9.300961345434188843e-02 -9.754065424203872681e-02 -3.971856459975242615e-02 1.182200945913791656e-02 3.960147500038146973e-02 4.810934886336326599e-03 -3.427205234766006470e-02 -6.482285261154174805e-02 1.985000669956207275e-01 1.017625555396080017e-01 4.267179220914840698e-02 -2.534746825695037842e-01 -4.617907851934432983e-02 4.266783595085144043e-02 -1.249102354049682617e-01 9.177021682262420654e-02 -1.049726232886314392e-01 -8.812803775072097778e-03 2.228683680295944214e-01 4.681527614593505859e-02 -1.551914662122726440e-01 7.760212570428848267e-02 -4.465932548046112061e-01 2.915872260928153992e-02 -1.217386350035667419e-01 4.678314551711082458e-02 1.498269289731979370e-01 2.850534394383430481e-02 5.760195851325988770e-02 -1.000840738415718079e-01 8.185570687055587769e-02 1.467371731996536255e-01 1.014966443181037903e-01 -1.133958995342254639e-02 -8.782399445772171021e-02 -2.955861575901508331e-02 -3.701548576354980469e-01 -9.338049590587615967e-02 7.751698046922683716e-02 1.242030262947082520e-01 -2.749923244118690491e-02 3.701522946357727051e-02 1.014775037765502930e-01 -1.188971549272537231e-01 7.021059840917587280e-02 -1.316680759191513062e-02 6.602941453456878662e-02 -6.702959537506103516e-02 1.570780873298645020e-01 -2.226891694590449333e-03 -2.450183779001235962e-01 -5.480710864067077637e-01 1.087736189365386963e-01 6.670096516609191895e-02 -4.015365988016128540e-02 1.102787405252456665e-01 -1.241980935446918011e-03 -2.093758732080459595e-01 3.325840085744857788e-02 9.374391287565231323e-02 -1.451860517263412476e-01 -1.123381853103637695e-01 3.587410598993301392e-02 8.677405118942260742e-02 -4.990249574184417725e-01 4.806643351912498474e-02 1.950151659548282623e-02 1.830938272178173065e-02 -3.512105345726013184e-02 1.139277033507823944e-02 7.430891692638397217e-02 6.996084004640579224e-02 -2.083080075681209564e-02 3.936187364161014557e-03 -1.422969847917556763e-01 -3.599148988723754883e-01 -1.361584104597568512e-02 9.602915495634078979e-02 -7.513962336815893650e-04 9.904331713914871216e-02 -2.878163009881973267e-02 1.296129971742630005e-01 7.568109780550003052e-02 -2.472818940877914429e-01 -1.640926450490951538e-01 9.600872546434402466e-02 -1.407213229686021805e-02 1.089293733239173889e-01 -1.948772817850112915e-01 5.890750885009765625e-02 5.567348748445510864e-02 -1.148390993475914001e-01 -6.292209774255752563e-02 -4.111471474170684814e-01 8.823149651288986206e-02 -2.057135477662086487e-02 1.625460237264633179e-01 -6.996376812458038330e-02 2.040535211563110352e-01 -4.857148975133895874e-02 5.432097241282463074e-02 1.865947395563125610e-01 -1.265723556280136108e-01 4.168818518519401550e-02 1.611667275428771973e-01 1.413507759571075439e-01 -6.117406487464904785e-02 2.323118597269058228e-02 1.164645235985517502e-02 -3.935456275939941406e-02 6.079927086830139160e-02 4.241976141929626465e-02 5.588204041123390198e-02 -4.950479045510292053e-02 5.878217145800590515e-02 5.808810889720916748e-02 3.735189139842987061e-02 9.457442164421081543e-02 5.032494291663169861e-02 1.771099716424942017e-01 -1.219737529754638672e-01 1.630582660436630249e-01 -3.110332228243350983e-02 2.765499055385589600e-01 1.230493038892745972e-01 1.365326810628175735e-02 -9.470690041780471802e-02 -8.973771333694458008e-02 -9.082693606615066528e-02 1.433681994676589966e-01 -6.076415628194808960e-02 -1.303319633007049561e-01 1.101384460926055908e-01 -7.142377644777297974e-02 2.160424441099166870e-01 7.197786122560501099e-02 4.550503939390182495e-02 -6.211605295538902283e-02 -7.198728621006011963e-02 -8.855876326560974121e-02 1.461099553853273392e-02 -3.809060156345367432e-02 5.566902086138725281e-02 1.465852465480566025e-02 5.402959883213043213e-02 -3.657076135277748108e-02 -7.535202056169509888e-02 -9.567550569772720337e-02 -1.425289511680603027e-01 1.957448273897171021e-01 -4.051893576979637146e-02 -7.237611711025238037e-02 -1.653140485286712646e-01 1.797384172677993774e-01 1.455993670970201492e-02 -2.429001033306121826e-01 4.154747352004051208e-02 9.532091021537780762e-02 4.484482482075691223e-02 -1.043440029025077820e-02 -4.621821269392967224e-02 -4.781499505043029785e-02 1.292013525962829590e-01 3.815731778740882874e-02 -4.728594794869422913e-02 7.324514538049697876e-02 9.009259194135665894e-02 -5.836515501141548157e-02 -8.779293298721313477e-02 3.571711108088493347e-02 5.164247378706932068e-02 8.998759835958480835e-02 -6.273130327463150024e-02 1.569626294076442719e-02 -8.340773731470108032e-02 -2.388473600149154663e-01 1.349830478429794312e-01 9.625527076423168182e-03 1.119292676448822021e-01 -3.436274453997612000e-02 -1.600094586610794067e-01 -6.942715495824813843e-02 -2.204683981835842133e-02 -5.884874239563941956e-02 -1.935520023107528687e-01 4.558545351028442383e-02 7.822561264038085938e-02 9.138542413711547852e-02 -3.085848642513155937e-03 1.122449040412902832e-01 -7.129176706075668335e-02 -1.021696850657463074e-01 -2.423389703035354614e-01 -2.069806121289730072e-02 1.824889928102493286e-01 4.836244136095046997e-02 -1.771065741777420044e-01 -7.745464798063039780e-03 -1.153772622346878052e-01 9.217956662178039551e-02 -6.435278058052062988e-02 -9.551425464451313019e-03 -8.943036943674087524e-02 -6.624896079301834106e-02 8.957999199628829956e-02 -4.788031429052352905e-02 -1.308182626962661743e-01 -8.833038061857223511e-02 5.438660085201263428e-02 -2.695806026458740234e-01
2.256065420806407928e-02 9.547235071659088135e-02 -2.351665124297142029e-02 1.218858510255813599e-01 6.325480341911315918e-02 1.577227935194969177e-02 -5.549351125955581665e-02 -3.684913972392678261e-04 -1.552595011889934540e-02 -7.468914240598678589e-02 2.354159057140350342e-01 7.328344881534576416e-02 2.874594740569591522e-02 4.264292120933532715e-02 -2.991716749966144562e-02 1.822240650653839111e-01 1.609511822462081909e-01 1.494987402111291885e-02 5.394931137561798096e-02 1.768528372049331665e-01 -1.166245117783546448e-01 1.927375197410583496e-01 -4.556454718112945557e-02 7.452141493558883667e-02 -1.713452488183975220e-01 1.627712547779083252e-01 4.050950519740581512e-03 9.582611918449401855e-02 2.549524046480655670e-02 -3.124079108238220215e-02 5.572944879531860352e-02 -6.976038217544555664e-02 -2.460236288607120514e-02 -8.700414001941680908e-02 2.298229336738586426e-01 9.660907089710235596e-02 6.083545461297035217e-02 1.976926624774932861e-02 6.388590484857559204e-02 9.388560056686401367e-02 -2.836835756897926331e-02 -1.192548349499702454e-01 -8.338961750268936157e-03 -2.046949602663516998e-02 -9.485994465649127960e-03 -2.241707742214202881e-01 9.646306931972503662e-02 -7.830137014389038086e-02 6.983323954045772552e-03 3.801871463656425476e-02 -9.908181428909301758e-02 -6.958904210478067398e-03 -4.521339014172554016e-02 -2.530454099178314209e-01 2.217563241720199585e-01 -2.204617410898208618e-01 -2.828805446624755859e-01 1.062002847902476788e-03 1.220571771264076233e-01 1.020488217473030090e-01 1.243491321802139282e-01 -7.196881622076034546e-02 1.127627119421958923e-01 -4.757896810770034790e-02 -2.395614236593246460e-02 7.025454938411712646e-02 9.260319173336029053e-02 -1.154547631740570068e-01 -1.286416947841644287e-01 2.255976945161819458e-01 -2.387542836368083954e-02 -5.546038597822189331e-02 -1.720749773085117340e-02 2.666109614074230194e-02 6.385297328233718872e-02 1.739922314882278442e-01 -6.917129456996917725e-02 -5.039180070161819458e-02 -1.616784557700157166e-02 -2.039735168218612671e-01 -3.794732689857482910e-02 -4.090374335646629333e-02 -8.299293369054794312e-02 3.176078572869300842e-02 9.086266160011291504e-02 1.209886148571968079e-01 -1.118726376444101334e-02 1.718570664525032043e-02 -4.735983535647392273e-02 -4.150669649243354797e-02 6.143809482455253601e-02 -3.324405476450920105e-02 -1.444305926561355591e-01 1.687653660774230957e-01 -1.905476301908493042e-01 9.806365706026554108e-04 1.122399717569351196e-01 -1.201255992054939270e-01 1.375054419040679932e-01 -1.998291909694671631e-02 6.117188930511474609e-02 -7.737583015114068985e-03 7.312675565481185913e-02 -8.298463374376296997e-02 -1.464999616146087646e-01 1.058388873934745789e-01 -1.009114682674407959e-01 -4.858262836933135986e-02 -5.856595560908317566e-02 -2.015450000762939453e-01 -1.018286421895027161e-01 1.402278691530227661e-01 3.684117272496223450e-02 1.334867626428604126e-01 3.950610384345054626e-02 -1.104037612676620483e-01 3.131260722875595093e-02 4.677986353635787964e-02 6.706097628921270370e-03 3.903643041849136353e-02 -1.695241220295429230e-02 -3.456592559814453125e-01 -1.433407068252563477e-01 -4.574674647301435471e-03 6.217598542571067810e-02 -9.158009290695190430e-02 1.122633218765258789e-01 -1.585338264703750610e-02 8.966046385467052460e-03 -1.420766562223434448e-01 -2.262909337878227234e-02 4.986525699496269226e-02 -9.062470495700836182e-02 -4.585177078843116760e-02 3.267966583371162415e-02 -5.298208445310592651e-02 7.276421040296554565e-02 -1.160288304090499878e-01 3.146961797028779984e-03 -7.261781394481658936e-02 1.027114689350128174e-01 8.185852319002151489e-02 -1.620760746300220490e-02 8.596646040678024292e-02 1.033271942287683487e-02 -7.544166594743728638e-02 -3.049893304705619812e-02 3.269815072417259216e-02 -3.571509942412376404e-02 8.754581212997436523e-02 4.943140968680381775e-02 -3.076844848692417145e-02 1.669467687606811523e-01 1.215755790472030640e-01 -2.833655662834644318e-02 -4.950624331831932068e-02 9.273991733789443970e-02 -7.131236046552658081e-02 -7.686262577772140503e-02 1.968594044446945190e-01 7.142984867095947266e-02 -7.676890492439270020e-02 1.088888943195343018e-01 1.348799318075180054e-01 1.543658040463924408e-02 -5.135092139244079590e-02 -3.958069253712892532e-03 2.039627637714147568e-03 2.164143770933151245e-01 -2.332722842693328857e-01 -1.666411310434341431e-01 -1.562966555356979370e-01 1.574449092149734497e-01 -3.646267578005790710e-02 2.346466854214668274e-02 2.056312374770641327e-02 -1.262964159250259399e-01 -1.145929913036525249e-03 -1.394065618515014648e-01 -8.446349948644638062e-02 1.057166233658790588e-01 1.296630948781967163e-01 1.169670186936855316e-02 1.245379447937011719e-01 -1.124371513724327087e-01 2.204460790380835533e-03 -8.461751043796539307e-02 9.140083938837051392e-02 -2.355966120958328247e-01 8.604314923286437988e-02 -1.459704786539077759e-01 3.868913650512695312e-02 1.579982638359069824e-01 -1.626626402139663696e-01 4.066792502999305725e-02 -2.484305948019027710e-02 -9.736127220094203949e-03 -8.399015665054321289e-02 1.662538796663284302e-01 -4.466363042593002319e-02 -1.179625093936920166e-01 1.312407106161117554e-01 -1.430664397776126862e-02 6.863515824079513550e-02 -5.898685380816459656e-02 -6.092341151088476181e-03 -1.729427576065063477e-01 4.018842801451683044e-02 -6.455372273921966553e-02 -3.429822251200675964e-02 7.716127485036849976e-02 1.117022614926099777e-02 -6.797433644533157349e-02 -2.987631782889366150e-02 -2.017811872065067291e-02 -1.717910468578338623e-01 -8.043914288282394409e-02 1.507886350154876709e-01 1.857559233903884888e-01 1.877383701503276825e-02 2.412931807339191437e-02 1.321693658828735352e-01 1.137466430664062500e-01 -1.132734343409538269e-01 1.319491565227508545e-01 -6.908097118139266968e-02 -1.085122022777795792e-02 -4.692374914884567261e-02 -5.581444501876831055e-02 1.506481021642684937e-01 1.856132149696350098e-01 3.142511099576950073e-02 -9.516155347228050232e-03 6.236505135893821716e-02 -1.608551107347011566e-02 6.550066918134689331e-02 2.089249342679977417e-01 -1.055241897702217102e-01 -1.039159521460533142e-01 8.321405947208404541e-02 -7.550542801618576050e-02 8.459372818470001221e-02 -1.035201847553253174e-01 2.078844010829925537e-01 1.589067513123154640e-03 1.239794790744781494e-01 1.778847351670265198e-02 8.471632748842239380e-02 -8.477249741554260254e-02 -4.039354249835014343e-02 -1.376562714576721191e-01 -2.504173107445240021e-02 1.439541429281234741e-01 -6.806718558073043823e-02 4.990778397768735886e-03 -9.579788148403167725e-02
-1.959665445610880852e-03 1.247881725430488586e-01 -8.569054305553436279e-03 4.443732276558876038e-02 -9.700819849967956543e-02 2.261050604283809662e-02 4.987127333879470825e-02 7.220906019210815430e-02 7.961673289537429810e-02 -1.596082448959350586e-01 -5.055427178740501404e-02 6.254561990499496460e-02 -1.369968522340059280e-03 6.072788313031196594e-02 2.954969415441155434e-03 -1.105754636228084564e-02 -2.386536449193954468e-01 8.795744180679321289e-02 -4.875116795301437378e-02 -6.071107089519500732e-02 3.513700067996978760e-01 3.254627063870429993e-02 9.897065907716751099e-02 9.410070255398750305e-03 5.862855538725852966e-02 1.288618296384811401e-01 -1.704498678445816040e-01 5.986670777201652527e-02 -1.259225755929946899e-01 -1.326238811016082764e-01 -4.716975614428520203e-02 -2.780554294586181641e-01 3.518660366535186768e-02 7.127062976360321045e-02 -1.375769972801208496e-01 5.152093991637229919e-02 -1.385009288787841797e-01 -9.034169465303421021e-02 -1.882325112819671631e-02 -2.342034131288528442e-01 -3.965523466467857361e-02 3.483667224645614624e-02 2.277743816375732422e-02 1.318292319774627686e-01 2.353641018271446228e-02 4.863651469349861145e-02 8.432642370462417603e-02 4.050311632454395294e-03 3.287518024444580078e-02 5.213196948170661926e-02 -5.123279988765716553e-02 1.453514117747545242e-02 8.595269173383712769e-02 9.091660031117498875e-04 5.236633867025375366e-02 1.493864692747592926e-02 2.474016994237899780e-01 -2.588295936584472656e-01 9.502574801445007324e-03 1.193247586488723755e-01 -5.661997571587562561e-02 1.386854499578475952e-01 -1.890164762735366821e-01 2.035039663314819336e-01 2.195062674582004547e-02 1.078813672065734863e-01 -7.380284368991851807e-02 -1.469851937144994736e-02 -2.070940881967544556e-01 2.086610347032546997e-02 7.488466054201126099e-02 -1.451506614685058594e-01 4.073588177561759949e-03 -1.885685771703720093e-01 -3.468264767434448004e-04 -2.140949666500091553e-02 2.293719500303268433e-01 -4.790493100881576538e-02 -2.195014245808124542e-02 2.502929270267486572e-01 -9.479795396327972412e-02 7.333049923181533813e-02 9.064760059118270874e-02 9.994494169950485229e-02 1.931768357753753662e-01 3.924206271767616272e-02 -1.776241883635520935e-02 5.590716004371643066e-02 -1.764497458934783936e-01 1.790310740470886230e-01 5.460262298583984375e-02 -7.428033649921417236e-02 -7.918103784322738647e-02 1.019477099180221558e-01 -5.949000827968120575e-03 8.151675015687942505e-02 2.671226975508034229e-04 9.993690252304077148e-02 1.161091029644012451e-02 -3.473647311329841614e-02 1.464337557554244995e-01 2.169402539730072021e-01 -5.145383626222610474e-02 2.208869755268096924e-01 -8.828719705343246460e-02 -7.856001704931259155e-02 1.120809912681579590e-01 2.665858156979084015e-02 -5.896013975143432617e-02 9.058573096990585327e-02 5.693407729268074036e-02 -2.123598009347915649e-02 1.493976563215255737e-01 1.551070809364318848e-02 9.018584340810775757e-02 -8.905057609081268311e-02 1.628114655613899231e-02 8.229009807109832764e-02 2.824339456856250763e-02 -1.223926022648811340e-01 -1.079771108925342560e-02 -3.652581945061683655e-02 -3.515901044011116028e-02 3.939858451485633850e-02 1.688138544559478760e-01 -1.442757099866867065e-01 -3.883064165711402893e-02 -4.068933799862861633e-02 -7.567260414361953735e-02 -5.081143975257873535e-01 -8.208787441253662109e-02 -1.363349054008722305e-02 -3.134761378169059753e-02 -5.299560353159904480e-02 1.028185337781906128e-02 9.074249863624572754e-02 1.541709750890731812e-01 -3.889488056302070618e-02 -1.893857121467590332e-02 -3.123728930950164795e-01 1.613910309970378876e-02 1.014868393540382385e-01 9.451886266469955444e-02 -1.672578155994415283e-01 1.239076703786849976e-01 -6.803081929683685303e-02 1.425985693931579590e-01 4.064211994409561157e-02 9.655752032995223999e-02 -1.083562225103378296e-01 -5.434258282184600830e-02 1.949198395013809204e-01 -1.358812153339385986e-01 -9.734538034535944462e-04 3.736767545342445374e-02 2.840557880699634552e-02 -6.816355139017105103e-02 -1.772334575653076172e-01 3.704461455345153809e-02 -4.487757384777069092e-02 3.971923515200614929e-02 -5.211341008543968201e-02 1.137604415416717529e-01 6.740559637546539307e-02 -6.558232940733432770e-03 1.170522533357143402e-02 6.669463589787483215e-03 1.224164739251136780e-01 6.013150513172149658e-02 2.297282665967941284e-01 -7.851301878690719604e-02 5.984785035252571106e-02 4.297214001417160034e-02 -6.103925406932830811e-02 -2.487421594560146332e-02 -1.956943608820438385e-02 -8.166006952524185181e-02 9.667246788740158081e-02 -4.011526331305503845e-02 -1.294574700295925140e-02 -6.434742361307144165e-02 -2.974282763898372650e-02 4.362361133098602295e-02 2.752100825309753418e-01 9.675101935863494873e-02 2.545207552611827850e-02 -9.727360680699348450e-03 2.413114532828330994e-02 1.041079685091972351e-01 6.309344619512557983e-02 -4.118211194872856140e-02 -2.006028145551681519e-01 6.797457486391067505e-02 2.157579511404037476e-01 -2.048316895961761475e-01 5.393600091338157654e-02 6.584961712360382080e-02 -1.455214470624923706e-01 -2.448893040418624878e-01 -4.520750045776367188e-02 7.660131156444549561e-02 2.210027277469635010e-01 1.772084385156631470e-01 -3.392532095313072205e-02 3.267995268106460571e-02 -2.007125131785869598e-02 2.413155436515808105e-01 -5.180700495839118958e-02 -2.281646579504013062e-01 7.888615131378173828e-02 -8.015087991952896118e-02 -6.912261992692947388e-02 1.482424437999725342e-01 -5.199004709720611572e-02 2.971453405916690826e-02 -6.499120499938726425e-03 7.450614124536514282e-02 7.815501838922500610e-02 -7.348637282848358154e-02 -4.309378191828727722e-02 7.974677719175815582e-03 -4.412530362606048584e-01 2.338586300611495972e-01 -7.678903639316558838e-02 -8.172480016946792603e-02 2.244765684008598328e-02 -1.351012103259563446e-02 1.170917972922325134e-01 -3.915966674685478210e-02 -1.535575389862060547e-01 -5.042972043156623840e-03 1.006079316139221191e-01 5.026549100875854492e-03 -5.983133241534233093e-02 1.032295525074005127e-01 9.288352727890014648e-02 1.298094093799591064e-01 -1.092498376965522766e-01 -1.390229351818561554e-02 -1.225675940513610840e-01 5.991196259856224060e-02 1.252802610397338867e-01 3.573003783822059631e-02 -7.604540791362524033e-03 5.626794695854187012e-02 -3.968937695026397705e-02 4.315093904733657837e-02 6.881815940141677856e-02 -3.174988925457000732e-02 3.996397182345390320e-02 2.067316472530364990e-01 4.713059403002262115e-03 -6.356819719076156616e-02 1.929349498823285103e-03 -5.765334237366914749e-03 -1.214170455932617188e-01
-1.113431993871927261e-02 -1.336954999715089798e-02 1.999831013381481171e-02 1.266656368970870972e-01 2.178428173065185547e-01 9.931112872436642647e-04 -5.829674750566482544e-02 1.155677214264869690e-01 5.273937806487083435e-02 -9.764353185892105103e-02 1.638071052730083466e-02 -3.494791314005851746e-02 -9.687835723161697388e-02 5.210176482796669006e-02 -4.342392459511756897e-02 1.473191976547241211e-01 2.597968839108943939e-02 -5.323425307869911194e-02 6.633415818214416504e-02 9.492800384759902954e-02 -5.178698152303695679e-02 5.441090837121009827e-02 -1.629338040947914124e-02 -9.134838730096817017e-02 -1.118949130177497864e-01 -2.161103039979934692e-01 -7.415582984685897827e-02 -7.339982688426971436e-02 2.475125342607498169e-02 -5.649959295988082886e-02 1.822462379932403564e-01 -1.564906388521194458e-01 1.756201125681400299e-02 2.436451800167560577e-02 1.331138610839843750e-02 -1.441265642642974854e-02 1.779197603464126587e-01 1.386327594518661499e-01 3.622648492455482483e-02 -2.782198488712310791e-01 -1.370480805635452271e-01 1.106660068035125732e-02 -1.436636745929718018e-01 -4.160880669951438904e-02 -1.049245446920394897e-01 -1.362449973821640015e-01 -5.112691223621368408e-02 9.633108973503112793e-02 -1.182627379894256592e-01 -1.837103255093097687e-02 -2.991737611591815948e-02 5.675936117768287659e-02 1.275451332330703735e-01 5.848543718457221985e-02 9.835704229772090912e-03 -1.409982237964868546e-02 -2.065065205097198486e-01 -8.283983916044235229e-02 -9.339974820613861084e-02 2.258102037012577057e-02 -8.494522422552108765e-02 -1.287981569766998291e-01 -1.458810269832611084e-01 -4.962524399161338806e-02 -4.171977564692497253e-02 1.009469702839851379e-01 -5.200732871890068054e-02 1.033891364932060242e-01 -4.722030460834503174e-01 -9.960960596799850464e-02 -6.582313030958175659e-02 -1.293385475873947144e-01 7.227615267038345337e-02 9.130795300006866455e-02 -4.190074652433395386e-02 -9.741140902042388916e-02 -1.527844965457916260e-01 8.706013113260269165e-02 1.881004869937896729e-02 -2.627619802951812744e-01 -5.767852533608675003e-03 7.794588804244995117e-02 8.378179371356964111e-02 -4.919256269931793213e-02 -1.631373167037963867e-01 6.424643099308013916e-02 -1.938889771699905396e-01 -6.285303831100463867e-02 5.153207574039697647e-03 1.143586114048957825e-01 1.282463818788528442e-01 9.987160563468933105e-03 -6.948896497488021851e-02 -1.785713136196136475e-01 6.105875596404075623e-03 -8.092722296714782715e-02 -1.650000810623168945e-01 -1.583944889716804028e-03 1.885612308979034424e-02 -3.489491064101457596e-03 3.565030172467231750e-02 1.521635204553604126e-01 1.326779276132583618e-01 -1.529905498027801514e-01 -2.267046831548213959e-02 1.005700454115867615e-01 1.600318253040313721e-01 3.539572283625602722e-02 -8.807878941297531128e-02 -5.040969699621200562e-02 -1.381053030490875244e-01 -9.075303375720977783e-02 -5.753962695598602295e-02 -1.009131595492362976e-01 8.925568312406539917e-02 3.612936660647392273e-02 2.190351672470569611e-02 2.250923216342926025e-01 1.894720047712326050e-01 1.759652495384216309e-01 -2.072919607162475586e-01 -1.507894098758697510e-01 -1.309362351894378662e-01 2.458151616156101227e-02 1.432649046182632446e-01 3.959932364523410797e-03 -5.199428997002542019e-04 -1.968666724860668182e-02 -1.399849504232406616e-01 -1.214828193187713623e-01 -6.024194881319999695e-02 1.215457022190093994e-01 2.595871388912200928e-01 -7.619276642799377441e-03 -1.015946045517921448e-01 1.665595336817204952e-03 7.951436564326286316e-03 -5.667173489928245544e-02 -2.753143431618809700e-03 -1.542463451623916626e-01 -1.181336641311645508e-01 -1.147414930164813995e-02 1.867220923304557800e-02 6.550439447164535522e-02 -5.592044815421104431e-02 -1.071953773498535156e-01 -4.496978968381881714e-02 -7.864931598305702209e-03 -4.619790241122245789e-02 -2.474388629198074341e-01 2.026161104440689087e-01 -6.481842696666717529e-02 -1.038293540477752686e-01 1.465145796537399292e-01 -1.385807059705257416e-02 8.117420971393585205e-02 2.660387381911277771e-02 1.124521866440773010e-01 8.503545075654983521e-02 -1.337460130453109741e-01 -1.353710889816284180e-01 1.016944926232099533e-02 -4.390995576977729797e-02 -6.019052863121032715e-02 1.612296514213085175e-02 1.131320819258689880e-01 -7.906203716993331909e-02 9.398730099201202393e-02 5.568302422761917114e-02 1.562527753412723541e-02 -6.089551001787185669e-02 1.862224489450454712e-01 2.215439528226852417e-01 -2.215321063995361328e-01 8.980090171098709106e-02 4.693872481584548950e-02 9.930407255887985229e-02 6.475538015365600586e-02 -1.152776405215263367e-01 1.132313907146453857e-01 -1.081621460616588593e-02 3.067929111421108246e-02 2.478717565536499023e-01 -1.008150130510330200e-01 1.590055041015148163e-02 7.981134578585624695e-03 9.903309866786003113e-03 4.824570193886756897e-02 2.948563173413276672e-02 -2.344793081283569336e-02 -4.955180361866950989e-02 -4.511266946792602539e-03 -1.043544635176658630e-01 -1.165994908660650253e-04 3.312398120760917664e-02 -1.230741757899522781e-02 -5.885329097509384155e-03 -9.889496862888336182e-02 -1.769988238811492920e-01 8.095694705843925476e-03 -5.615340545773506165e-03 -8.380062133073806763e-02 -1.269845291972160339e-02 3.857041150331497192e-02 1.082655563950538635e-01 -9.162858873605728149e-02 -4.743892699480056763e-03 -1.713378168642520905e-02 5.816061049699783325e-02 -9.501419030129909515e-03 -9.122410416603088379e-02 9.052038937807083130e-02 2.785597927868366241e-02 6.128243729472160339e-02 -8.438322693109512329e-03 1.302013695240020752e-01 -2.804211154580116272e-02 9.398944675922393799e-02 3.230911865830421448e-02 -1.580186337232589722e-01 3.936975076794624329e-02 -2.040147334337234497e-01 -1.349275708198547363e-01 6.050637736916542053e-02 -6.792102754116058350e-02 -2.754575386643409729e-02 -1.401100214570760727e-02 -1.172996833920478821e-01 4.986299946904182434e-02 -2.834009705111384392e-03 -1.194913964718580246e-02 -5.891979858279228210e-02 -1.103197336196899414e-01 4.839638248085975647e-02 6.540541350841522217e-02 -2.240535058081150055e-02 -5.149174015969038010e-03 -3.366604074835777283e-02 7.704639434814453125e-02 2.781843394041061401e-02 1.083160564303398132e-01 8.025809377431869507e-02 -6.658056378364562988e-02 -2.080656215548515320e-02 -4.515527561306953430e-02 9.049196541309356689e-02 9.695354849100112915e-02 -1.028135716915130615e-01 -3.596735745668411255e-02 -3.212209418416023254e-02 -1.124792695045471191e-01 1.812999397516250610e-01 -1.037603430449962616e-02 6.035787612199783325e-02 6.076089665293693542e-02 6.232835724949836731e-02
-1.665384918451309204e-01 3.281878679990768433e-02 7.139409333467483521e-02 -5.026332288980484009e-02 -1.045953333377838135e-01 1.624193489551544189e-01 4.910291731357574463e-02 1.039295941591262817e-01 -5.796787515282630920e-02 -9.415662288665771484e-02 1.281723380088806152e-01 9.350460022687911987e-02 -2.832794329151511192e-03 -4.754855856299400330e-02 3.002992644906044006e-02 5.761849507689476013e-02 -2.669737935066223145e-01 1.047256290912628174e-01 -4.396083299070596695e-03 -1.610571146011352539e-01 -1.874900013208389282e-01 6.770244240760803223e-02 1.129853427410125732e-01 -9.226327389478683472e-02 -7.301238179206848145e-02 6.808357685804367065e-02 1.696189194917678833e-01 9.707754105329513550e-02 1.628577560186386108e-01 -1.245953328907489777e-02 4.373395070433616638e-02 -5.087827146053314209e-02 -6.730019301176071167e-02 7.314036041498184204e-02 6.686666607856750488e-02 -1.846424937248229980e-01 -1.003953292965888977e-01 7.602747529745101929e-02 -1.487942636013031006e-01 1.860633641481399536e-01 -3.253563493490219116e-02 1.640367507934570312e-01 -1.184727717190980911e-02 -8.228443562984466553e-03 -7.956457883119583130e-02 -1.248562261462211609e-01 -9.409140795469284058e-02 -3.385664150118827820e-02 3.668972477316856384e-02 -1.344591081142425537e-01 -9.917117655277252197e-02 -2.612680196762084961e-01 1.641031801700592041e-01 2.380936965346336365e-02 9.691898524761199951e-02 3.185976296663284302e-02 -3.448557481169700623e-02 -2.344364970922470093e-01 -2.133884932845830917e-03 3.824772685766220093e-02 2.041198499500751495e-02 4.220306500792503357e-02 -1.108725741505622864e-01 9.831924736499786377e-02 -1.239218339323997498e-01 2.776793763041496277e-02 -5.600497126579284668e-02 -7.022321969270706177e-02 4.544837400317192078e-02 -6.825383752584457397e-02 -1.268381718546152115e-02 -5.641729012131690979e-02 -4.842289537191390991e-02 -1.415326148271560669e-01 4.854007065296173096e-02 9.553150087594985962e-02 -3.483633510768413544e-03 5.129051208496093750e-02 5.573466792702674866e-02 -1.367731392383575439e-01 1.102017387747764587e-01 -5.256817862391471863e-02 -2.981940209865570068e-01 4.775237292051315308e-02 1.434789784252643585e-02 6.988405436277389526e-02 1.369318515062332153e-01 4.679522663354873657e-02 -4.800644889473915100e-02 3.163583576679229736e-01 4.673001542687416077e-02 -1.835312461480498314e-03 -6.015852466225624084e-02 3.794412314891815186e-02 5.759852007031440735e-02 -5.261176079511642456e-02 -1.236493811011314392e-01 -1.703985929489135742e-01 4.769530147314071655e-02 2.874122187495231628e-02 2.336710132658481598e-02 -1.051536425948143005e-01 1.944610327482223511e-01 -1.038409490138292313e-02 -7.069737464189529419e-02 -5.205841362476348877e-02 5.563845485448837280e-02 7.079542428255081177e-02 -9.477210231125354767e-03 -4.188830405473709106e-02 -1.129519715905189514e-01 -1.535653136670589447e-02 1.053404528647661209e-02 -3.556671738624572754e-02 -4.530351143330335617e-03 -3.346524760127067566e-02 -1.097856387495994568e-01 -5.842416733503341675e-02 -1.217746138572692871e-01 -3.722578585147857666e-01 5.525830760598182678e-02 -4.700867831707000732e-01 -6.827995181083679199e-02 1.669877171516418457e-01 2.516269311308860779e-02 6.646269559860229492e-02 -3.801078349351882935e-02 5.092451721429824829e-02 -4.624390229582786560e-02 -7.502215355634689331e-02 6.372588872909545898e-02 2.906640246510505676e-02 4.587236046791076660e-02 4.180667176842689514e-02 -3.910414874553680420e-01 2.572624757885932922e-02 5.687375366687774658e-02 -1.227753534913063049e-01 7.121143490076065063e-02 1.120794191956520081e-01 -1.872808933258056641e-01 9.032969921827316284e-02 1.689443588256835938e-01 -4.779603797942399979e-03 9.608683735132217407e-02 -2.250675577670335770e-03 1.025248244404792786e-01 4.771503061056137085e-02 -7.962642610073089600e-02 1.162192374467849731e-01 1.410483866930007935e-01 2.005955018103122711e-02 9.829617291688919067e-02 -8.873230963945388794e-02 6.151863187551498413e-02 -1.587201058864593506e-01 7.989140599966049194e-02 5.301999300718307495e-02 2.336412668228149414e-01 -4.635647684335708618e-02 -6.226580962538719177e-02 3.553014248609542847e-02 -6.316568702459335327e-02 1.107462346553802490e-01 -1.422309726476669312e-01 -5.598813667893409729e-02 9.187722951173782349e-02 -7.950828969478607178e-02 -3.093694895505905151e-02 -5.207467358559370041e-03 -8.123259060084819794e-03 -8.105311542749404907e-02 9.972163289785385132e-02 -4.814362898468971252e-02 9.871598333120346069e-02 -2.046490013599395752e-01 2.694592997431755066e-02 2.408678829669952393e-02 1.731286942958831787e-01 9.932006895542144775e-02 -5.751158669590950012e-02 1.344778090715408325e-01 1.450704485177993774e-01 3.895399346947669983e-02 -1.521292179822921753e-01 5.736755207180976868e-02 -2.107191085815429688e-02 5.031691491603851318e-02 1.965901814401149750e-03 8.744081854820251465e-02 -5.538545921444892883e-02 -2.840561605989933014e-02 -8.562678098678588867e-02 7.474862039089202881e-02 -2.504561655223369598e-02 4.854045808315277100e-02 1.440568268299102783e-02 2.294508740305900574e-02 7.771927863359451294e-02 -7.483496796339750290e-03 9.872357547283172607e-02 -1.415654122829437256e-01 -9.353825449943542480e-02 6.491265445947647095e-02 -6.907570362091064453e-02 -1.444515883922576904e-01 -3.749810159206390381e-02 -9.639158844947814941e-02 1.041750907897949219e-01 -1.651085317134857178e-01 -1.207428872585296631e-01 -1.387864500284194946e-01 -1.263748039491474628e-03 -1.130413487553596497e-01 -8.184494078159332275e-02 -6.663575768470764160e-02 1.324292868375778198e-01 -8.361098915338516235e-02 1.358756870031356812e-01 -1.615281254053115845e-01 -1.539625972509384155e-01 -1.869559139013290405e-01 9.208115749061107635e-03 5.468196049332618713e-02 2.197291329503059387e-02 -2.429170720279216766e-02 -1.332624703645706177e-01 1.139516159892082214e-01 -1.833707839250564575e-02 1.781006902456283569e-01 -6.584817171096801758e-02 1.686512529850006104e-01 -1.066084951162338257e-01 -5.243950709700584412e-02 8.487460017204284668e-02 -5.893648788332939148e-02 9.429024159908294678e-02 5.789764970541000366e-02 9.147286415100097656e-02 6.441464275121688843e-02 7.028304785490036011e-02 4.205024242401123047e-02 1.497301608324050903e-01 -1.073745265603065491e-01 -1.375806033611297607e-01 -8.392294985242187977e-04 -1.548642814159393311e-01 9.743145853281021118e-02 -1.630958318710327148e-01 9.483873099088668823e-02 2.187048457562923431e-02 2.112168371677398682e-01 -6.938099861145019531e-02 3.252726793289184570e-02 -1.100816279649734497e-01 -2.129553258419036865e-01
