1.938941329717636108e-01
-1.202735025435686111e-02
1.727083474397659302e-01
1.930892914533615112e-01
1.743734180927276611e-01
-6.647012382745742798e-02
-1.464091241359710693e-01
1.185159757733345032e-01
1.853380352258682251e-01
9.702356159687042236e-02
-1.551614552736282349e-01
1.976919621229171753e-01
2.211918681859970093e-02
1.650755703449249268e-01
1.470193862915039062e-01
-8.353093266487121582e-02
2.350886762142181396e-01
-8.274732530117034912e-02
-6.492016464471817017e-02
1.555358618497848511e-01
1.697880029678344727e-01
2.176367044448852539e-01
-4.809485375881195068e-02
1.322949230670928955e-01
1.973391026258468628e-01
-1.241328492760658264e-01
-3.326067030429840088e-01
-6.401927769184112549e-02
-3.877839446067810059e-02
2.397725284099578857e-01
-2.734121680259704590e-02
-2.426018938422203064e-02
-9.920650720596313477e-02
-3.222201764583587646e-02
-1.127017065882682800e-01
2.223403751850128174e-01
1.916192620992660522e-01
-1.558809578418731689e-01
-1.414632350206375122e-01
-1.599649935960769653e-01
1.789449006319046021e-01
1.988796293735504150e-01
2.005176097154617310e-01
1.999756544828414917e-01
-8.146230131387710571e-02
2.098882198333740234e-01
-2.363075315952301025e-01
1.447735577821731567e-01
1.023488491773605347e-01
1.620081365108489990e-01
2.029647380113601685e-01
1.862783133983612061e-01
2.079293429851531982e-01
1.320456713438034058e-01
-6.562025751918554306e-03
1.520853769034147263e-02
1.926510632038116455e-01
1.929535418748855591e-01
-6.865197420120239258e-02
-1.522322297096252441e-01
-7.512348890304565430e-02
-2.656434662640094757e-02
2.188596576452255249e-01
1.867456734180450439e-01
2.268386334180831909e-01
-4.073715209960937500e-01
1.419059038162231445e-01
4.358956962823867798e-02
-9.983807057142257690e-02
1.567631214857101440e-01
5.093955993652343750e-02
8.188668638467788696e-02
1.909216493368148804e-01
1.696292608976364136e-01
-2.993069887161254883e-01
9.342072904109954834e-02
2.256357520818710327e-01
2.191754728555679321e-01
1.944397836923599243e-01
2.387117743492126465e-01
1.323645263910293579e-01
1.081819608807563782e-01
1.972078830003738403e-01
-5.818959698081016541e-02
2.209492176771163940e-01
2.126423120498657227e-01
1.736198365688323975e-01
2.173150628805160522e-01
1.440671384334564209e-01
1.373496949672698975e-01
2.449055314064025879e-01
-1.598110198974609375e-01
2.189218997955322266e-01
1.752914637327194214e-01
-2.468502372503280640e-01
2.304684221744537354e-01
-7.976058125495910645e-02
1.974511444568634033e-01
-1.175563596189022064e-02
-2.504873462021350861e-02
8.116246014833450317e-02
1.856670379638671875e-01
1.998199224472045898e-01
1.712294071912765503e-01
1.611018925905227661e-01
1.797760725021362305e-01
-1.140967532992362976e-01
1.110932528972625732e-01
-1.310382038354873657e-01
1.877148747444152832e-01
-6.920490413904190063e-02
1.770582944154739380e-01
-1.047710236161947250e-02
-8.374421298503875732e-02
1.198930367827415466e-01
-1.351295262575149536e-01
5.288270860910415649e-02
2.301685810089111328e-01
1.445819288492202759e-01
-8.235611021518707275e-02
1.773917078971862793e-01
-1.901568025350570679e-01
1.826935261487960815e-01
1.344509273767471313e-01
-2.184401750564575195e-01
1.771471649408340454e-01
2.294391393661499023e-01
1.532109528779983521e-01
1.427628397941589355e-01
1.898088306188583374e-01
8.808329701423645020e-02
1.358340382575988770e-01
1.674556285142898560e-01
2.785868942737579346e-02
1.581249088048934937e-01
1.774609982967376709e-01
1.821001470088958740e-01
1.839222609996795654e-01
7.964254170656204224e-02
-9.247834980487823486e-02
1.647356599569320679e-01
2.226154319941997528e-02
1.252495050430297852e-01
1.363174021244049072e-01
1.761992871761322021e-01
-3.890185058116912842e-01
-1.734303683042526245e-01
1.577887684106826782e-01
1.171954795718193054e-01
1.988402605056762695e-01
1.499783843755722046e-01
1.658656746149063110e-01
1.685895919799804688e-01
-5.525026470422744751e-02
-6.580996513366699219e-02
-3.879145160317420959e-02
2.049807906150817871e-01
2.015572637319564819e-01
-9.604617208242416382e-02
-1.310672461986541748e-01
-6.511411815881729126e-02
2.216049581766128540e-01
1.196293253451585770e-02
9.853506088256835938e-02
2.434732913970947266e-01
2.212488055229187012e-01
8.561841398477554321e-02
-1.187685579061508179e-01
2.014063745737075806e-01
-7.494674623012542725e-02
-1.770058572292327881e-01
-4.890239983797073364e-02
1.858002245426177979e-01
1.754266917705535889e-01
1.541198641061782837e-01
2.169572690036147833e-04
1.886631697416305542e-01
1.096073091030120850e-01
1.807784736156463623e-01
-4.999614134430885315e-02
1.270627975463867188e-01
-7.799583021551370621e-03
-2.294751703739166260e-01
1.289208829402923584e-01
-6.220496445894241333e-02
-1.092966124415397644e-01
-1.099089812487363815e-02
1.437737643718719482e-01
1.764097660779953003e-01
1.309146732091903687e-01
2.032487541437149048e-01
1.900738477706909180e-01
1.021820381283760071e-01
-3.717665076255798340e-01
2.065586894750595093e-01
1.954906135797500610e-01
1.613859385251998901e-01
-2.247659265995025635e-01
2.072677910327911377e-01
1.948442757129669189e-01
1.938693523406982422e-01
1.340948045253753662e-01
1.481042504310607910e-01
1.538998037576675415e-01
1.449589729309082031e-01
1.925304085016250610e-01
1.766706854104995728e-01
6.075608730316162109e-02
2.064981907606124878e-01
-3.424147889018058777e-02
-5.550116300582885742e-02
-1.841776631772518158e-02
-8.987455815076828003e-02
1.889977455139160156e-01
2.484483569860458374e-01
1.663342267274856567e-01
1.690759956836700439e-01
1.749310791492462158e-01
1.795759052038192749e-01
1.345036178827285767e-02
2.122186422348022461e-01
-2.193289399147033691e-01
-7.801128178834915161e-02
2.236654050648212433e-02
9.656833112239837646e-02
-2.706440538167953491e-02
1.463346034288406372e-01
1.700649559497833252e-01
-2.770566754043102264e-02
-1.424863934516906738e-01
-2.018370926380157471e-01
1.944945454597473145e-01
2.294007241725921631e-01
1.357415616512298584e-01
1.045386418700218201e-01
1.321670860052108765e-01
1.434964239597320557e-01
-1.385159492492675781e-01
-1.250334382057189941e-01
-7.655087113380432129e-02
2.536627352237701416e-01
-5.976637080311775208e-02
2.100503593683242798e-01
1.562318503856658936e-01
2.184682935476303101e-01
1.837763935327529907e-01
1.462615728378295898e-01
-1.389909833669662476e-01
1.624451279640197754e-01
2.216827869415283203e-01
-2.796279266476631165e-02
1.560921818017959595e-01
-1.029375270009040833e-01
-1.559437159448862076e-02
1.774245798587799072e-01
2.537187933921813965e-01
