-2.859323844313621521e-02 1.122115254402160645e-01 -4.361998438835144043e-01 4.350667297840118408e-01 7.187596708536148071e-02 -8.933644741773605347e-02 4.161374643445014954e-02 3.776615485548973083e-02 1.775592565536499023e-02 1.715032458305358887e-01 -1.245820373296737671e-01 6.599713861942291260e-02 -1.747601330280303955e-01 2.420875579118728638e-01 1.609666645526885986e-01 -1.695147901773452759e-01 2.140696719288825989e-02 -3.517418354749679565e-02 1.850348152220249176e-02 -5.479604378342628479e-02 -3.483608737587928772e-02 3.359912661835551262e-03 -3.393239155411720276e-02 4.746836051344871521e-02 -1.022690907120704651e-01 1.648597232997417450e-02 8.960772305727005005e-02 1.814072392880916595e-02 6.368317455053329468e-02 2.712818682193756104e-01 2.327316403388977051e-01 -5.871046707034111023e-02 8.227548748254776001e-02 1.331897974014282227e-01 5.819685757160186768e-02 -5.718082655221223831e-03 -3.425037721171975136e-03 6.518033146858215332e-02 -4.692202806472778320e-02 7.044914364814758301e-02 6.381170451641082764e-02 -1.748726330697536469e-02 -4.825434833765029907e-02 2.443869598209857941e-02 3.873143345117568970e-02 -1.647902838885784149e-02 7.547343522310256958e-02 -3.639879450201988220e-02 1.020996868610382080e-01 5.430030822753906250e-02 2.707997336983680725e-02 4.100606590509414673e-02 -4.332032054662704468e-02 -3.740592300891876221e-02 -2.316598407924175262e-02 6.667121779173612595e-03 3.217602893710136414e-02 3.848167136311531067e-02
2.077245712280273438e-01 1.084985509514808655e-01 -9.606190957129001617e-03 2.773825824260711670e-02 1.319312602281570435e-01 5.478876456618309021e-02 -9.203677624464035034e-02 1.543247699737548828e-01 -2.191555500030517578e-02 -1.657331734895706177e-02 -7.299539167433977127e-03 -1.319509297609329224e-01 2.459630742669105530e-02 -2.276663482189178467e-02 -5.533684790134429932e-02 7.699695229530334473e-02 2.009481936693191528e-02 8.593263477087020874e-02 3.603626787662506104e-02 -2.606314979493618011e-02 -1.573271304368972778e-02 5.945401266217231750e-02 -7.698560506105422974e-02 -5.238424614071846008e-02 7.940822094678878784e-02 3.638672083616256714e-02 -1.077976152300834656e-01 -4.312999173998832703e-02 1.550503820180892944e-02 1.407864987850189209e-01 7.472622394561767578e-02 9.069186635315418243e-03 1.011924743652343750e-01 -2.504063071683049202e-03 4.720589518547058105e-02 -7.136343512684106827e-03 1.382552981376647949e-01 1.988894492387771606e-01 3.585193678736686707e-02 -3.315411880612373352e-02 -2.858626469969749451e-02 2.818987891077995300e-02 -3.557000076398253441e-03 4.458283260464668274e-02 -5.560158565640449524e-02 3.513490408658981323e-02 -1.034532673656940460e-02 1.268252581357955933e-01 -3.169911354780197144e-02 -8.627386391162872314e-02 -9.937793761491775513e-02 2.736115641891956329e-02 -1.664923317730426788e-02 -2.937425486743450165e-02 -9.880777448415756226e-02 8.216336369514465332e-02 -3.283129632472991943e-02 3.490061208140105009e-04
9.449330158531665802e-03 3.097982406616210938e-01 -1.630799286067485809e-02 2.849836945533752441e-01 4.847306385636329651e-02 1.013322770595550537e-01 -9.702440351247787476e-02 -1.177876442670822144e-01 -8.818979561328887939e-02 1.989697664976119995e-02 -6.736924406141042709e-03 -2.657269500195980072e-02 6.691797077655792236e-02 -1.184983178973197937e-01 2.244366146624088287e-02 2.739186957478523254e-02 4.622687026858329773e-02 -1.952277868986129761e-02 -6.057572364807128906e-02 9.892500191926956177e-02 -6.006524898111820221e-03 -6.380654126405715942e-02 -4.423862323164939880e-03 -9.718171320855617523e-03 7.271415740251541138e-02 -2.806645631790161133e-02 1.654062233865261078e-02 1.048188284039497375e-01 1.051844563335180283e-02 7.950004935264587402e-02 -1.313790231943130493e-01 -9.446370601654052734e-02 -1.000143885612487793e-01 -2.009243704378604889e-02 7.890906184911727905e-02 -9.125578403472900391e-02 6.286553293466567993e-02 -9.090811759233474731e-02 6.471554934978485107e-02 -4.627453908324241638e-02 -4.329523816704750061e-02 -7.471036911010742188e-02 -5.503867566585540771e-02 -1.751635372638702393e-01 5.161124840378761292e-02 -9.724262170493602753e-03 7.041377574205398560e-02 -4.303416609764099121e-02 -1.384508237242698669e-02 4.918852075934410095e-02 -2.072038128972053528e-02 5.763484910130500793e-02 -1.241565719246864319e-01 -2.008170075714588165e-02 -1.894467696547508240e-02 -8.131296932697296143e-02 -7.578704506158828735e-03 2.941261045634746552e-02
1.786344200372695923e-01 2.688470184803009033e-01 -2.469849772751331329e-03 8.108317106962203979e-02 -3.328987956047058105e-02 3.920091316103935242e-03 -1.166310161352157593e-01 2.602853178977966309e-01 8.959496021270751953e-02 1.312579512596130371e-01 5.707854405045509338e-02 7.820243015885353088e-03 -2.695508860051631927e-02 -5.386549979448318481e-02 1.547504067420959473e-01 -6.357218325138092041e-02 -8.341792225837707520e-02 1.264404207468032837e-01 5.216404050588607788e-02 2.946075238287448883e-02 1.378512196242809296e-02 7.596155256032943726e-02 -4.546969756484031677e-02 1.642471402883529663e-01 -1.765321753919124603e-02 1.075507979840040207e-02 -2.901114057749509811e-03 8.140472322702407837e-02 -1.618281356059014797e-03 1.874846033751964569e-02 -5.826717987656593323e-02 -1.431428194046020508e-01 6.234833598136901855e-02 4.771458730101585388e-02 5.778593197464942932e-02 -4.820536822080612183e-03 1.683358289301395416e-02 -1.256820932030677795e-02 7.234126329421997070e-02 -1.000722777098417282e-02 3.354532644152641296e-02 -7.769279181957244873e-02 -6.087549775838851929e-02 -1.168989669531583786e-02 3.536184877157211304e-02 1.481777615845203400e-02 -8.005178533494472504e-03 -7.826407998800277710e-02 4.972604662179946899e-02 7.639998942613601685e-02 -2.028651768341660500e-03 -4.705828428268432617e-02 2.764689270406961441e-03 -8.526702225208282471e-02 -3.188607096672058105e-02 1.131868287920951843e-01 2.238646149635314941e-02 2.434348128736019135e-02
-3.854552283883094788e-02 -3.830705583095550537e-02 1.944078207015991211e-01 -1.403360664844512939e-01 1.621738970279693604e-01 -5.654406268149614334e-03 -2.218795008957386017e-02 -1.385822296142578125e-01 -1.159507706761360168e-01 -7.763921469449996948e-02 -3.442904725670814514e-02 1.883070468902587891e-01 1.611829269677400589e-03 -3.346365392208099365e-01 -5.211403220891952515e-02 8.800167590379714966e-02 7.712917029857635498e-02 5.622172728180885315e-02 -4.787225276231765747e-02 1.436468027532100677e-02 2.039843797683715820e-01 -1.207828801125288010e-02 -3.670718148350715637e-02 -1.144555807113647461e-01 6.423273682594299316e-02 9.298448264598846436e-02 1.565032452344894409e-02 -9.133489802479743958e-03 -2.175105661153793335e-01 -8.249335736036300659e-02 1.608362793922424316e-01 3.158613294363021851e-02 2.006088383495807648e-02 -2.631405368447303772e-02 -3.482368960976600647e-02 2.145210281014442444e-02 -8.587694913148880005e-02 4.830911755561828613e-02 1.645518094301223755e-02 5.706597492098808289e-02 -4.659067839384078979e-02 1.973556727170944214e-02 8.934550918638706207e-03 -1.241532154381275177e-02 1.302138715982437134e-01 8.983722329139709473e-02 -2.336840704083442688e-02 -5.073359981179237366e-02 -7.953988015651702881e-02 -4.965662956237792969e-02 4.684415459632873535e-02 -4.915770515799522400e-02 1.105235293507575989e-01 -2.443151921033859253e-02 2.933581359684467316e-02 -1.131929233670234680e-01 8.494052290916442871e-02 -1.253870427608489990e-01
4.456297680735588074e-02 -7.625573128461837769e-02 -1.187543347477912903e-01 3.841962516307830811e-01 5.766469053924083710e-03 -8.929411321878433228e-02 -5.127420276403427124e-02 2.927311658859252930e-01 7.555699441581964493e-03 -3.838033881038427353e-03 -1.914695203304290771e-01 -4.157540574669837952e-02 -1.957666128873825073e-03 2.333530969917774200e-02 -2.332131611183285713e-03 6.514784693717956543e-02 5.491436272859573364e-02 -4.866744205355644226e-02 -1.449220627546310425e-02 -6.711251288652420044e-02 -6.309068202972412109e-02 -2.560021355748176575e-02 4.561341833323240280e-03 2.667185477912425995e-02 -7.127512246370315552e-02 -7.194650825113058090e-04 -5.254436284303665161e-02 -5.433737486600875854e-02 -3.790076822042465210e-02 1.422510594129562378e-01 1.089418008923530579e-01 -1.369982361793518066e-01 1.388352066278457642e-01 -1.282815933227539062e-01 -1.292275171726942062e-02 7.949918508529663086e-02 1.002294272184371948e-01 1.907111555337905884e-01 3.936773911118507385e-02 -1.656061783432960510e-02 -7.271114736795425415e-02 -2.661032788455486298e-02 -4.220978170633316040e-02 3.879092633724212646e-02 -5.978400260210037231e-02 -4.212477803230285645e-02 -1.331685781478881836e-01 8.794789761304855347e-02 1.047769039869308472e-01 -6.717740558087825775e-03 8.835960924625396729e-02 -8.705633878707885742e-02 -2.198551036417484283e-02 -2.367593906819820404e-02 -3.668941929936408997e-02 1.910223998129367828e-02 6.499042361974716187e-02 -2.915549874305725098e-01
-7.404956966638565063e-02 3.769399225711822510e-01 4.732286185026168823e-02 -4.392576590180397034e-02 -1.240751668810844421e-01 8.542360365390777588e-02 -9.479214437305927277e-03 -3.037798590958118439e-02 1.963242143392562866e-01 -4.680585116147994995e-02 1.390044484287500381e-02 -9.966415166854858398e-02 1.763932779431343079e-02 1.089224666357040405e-01 6.055572628974914551e-02 -2.281672880053520203e-02 4.589002206921577454e-02 5.537256598472595215e-02 -9.803184121847152710e-02 -1.226687580347061157e-01 1.509013399481773376e-02 1.003416031599044800e-01 3.845751285552978516e-02 -1.249316409230232239e-01 -9.929683059453964233e-03 -7.426473498344421387e-02 -1.084812432527542114e-01 -3.499818220734596252e-02 1.718684658408164978e-02 2.715118229389190674e-03 5.556795746088027954e-02 2.626099251210689545e-02 8.620959520339965820e-02 4.529315978288650513e-02 7.346715033054351807e-02 1.810141280293464661e-02 2.539992891252040863e-02 1.031511276960372925e-01 -4.093704372644424438e-02 1.003227680921554565e-01 3.797021880745887756e-02 1.730213873088359833e-02 -6.513705849647521973e-02 3.417885303497314453e-02 4.956354945898056030e-02 -4.087977856397628784e-02 2.288318984210491180e-02 8.368270844221115112e-02 1.080730929970741272e-02 4.010570701211690903e-03 -6.243029609322547913e-02 -7.103604078292846680e-02 -4.309312626719474792e-02 -1.251034904271364212e-02 -2.720438316464424133e-02 1.108694747090339661e-01 -2.960393764078617096e-02 8.098845928907394409e-02
-3.114298284053802490e-01 3.589028865098953247e-02 6.986443698406219482e-02 -8.865324407815933228e-02 -2.196378819644451141e-02 2.107180505990982056e-01 -5.992620810866355896e-02 -1.748126298189163208e-01 8.974169194698333740e-02 -2.443010918796062469e-02 6.066651642322540283e-02 1.069158911705017090e-01 8.627968281507492065e-02 2.092946469783782959e-01 1.652456074953079224e-01 5.664897337555885315e-02 1.935506612062454224e-01 -6.147719686850905418e-04 3.634142922237515450e-03 9.212291985750198364e-02 -2.535791322588920593e-02 1.212129741907119751e-01 -5.967152118682861328e-02 -1.210078373551368713e-01 1.853395700454711914e-01 2.579964883625507355e-02 -5.429961159825325012e-02 -4.552716761827468872e-02 7.941660587675869465e-04 1.354134827852249146e-02 4.743833839893341064e-02 -7.956852763891220093e-02 1.090296357870101929e-01 1.059959381818771362e-01 -9.036244451999664307e-02 -1.238314509391784668e-01 -3.646309673786163330e-02 -5.160717666149139404e-02 6.984796375036239624e-02 -7.331216242164373398e-03 4.244113713502883911e-02 -7.847504690289497375e-03 4.303769394755363464e-02 5.888753011822700500e-02 -8.044750429689884186e-03 7.003355026245117188e-02 -1.080848276615142822e-02 1.479574441909790039e-01 -2.938387542963027954e-02 4.876187816262245178e-02 5.250136181712150574e-02 -2.930297516286373138e-03 9.783154726028442383e-02 -4.561472311615943909e-02 -1.181590631604194641e-01 1.129022426903247833e-02 5.976174771785736084e-02 -2.178125083446502686e-02
-1.966742426156997681e-01 -4.107810929417610168e-02 1.644875407218933105e-01 -1.409149616956710815e-01 -2.227317392826080322e-01 3.040718659758567810e-02 2.083331495523452759e-01 -1.971433311700820923e-01 9.785868227481842041e-02 -9.151170402765274048e-02 7.148653268814086914e-02 8.991212584078311920e-03 2.763792313635349274e-02 2.781147062778472900e-01 -3.337227180600166321e-02 1.573162972927093506e-01 1.065532490611076355e-02 -4.550664685666561127e-03 -1.532425452023744583e-02 4.441375378519296646e-03 9.066407382488250732e-02 -2.108799070119857788e-01 8.369357325136661530e-03 1.558977738022804260e-02 9.796251542866230011e-03 1.674518734216690063e-01 -1.527390908449888229e-03 -1.036805585026741028e-01 4.681020975112915039e-02 -1.089705973863601685e-01 2.954611368477344513e-02 -9.671248495578765869e-02 9.882785379886627197e-02 -3.951757401227951050e-02 -4.067085310816764832e-02 -3.376599401235580444e-02 1.870377063751220703e-01 1.422547847032546997e-01 -1.921980269253253937e-02 4.740223288536071777e-02 3.797208424657583237e-03 -2.429493330419063568e-02 4.673613235354423523e-02 6.385289877653121948e-02 1.314326003193855286e-02 -9.238473325967788696e-02 -1.996320299804210663e-02 -4.250428080558776855e-02 6.582959741353988647e-02 -3.533839061856269836e-02 -3.328831493854522705e-02 4.878910258412361145e-02 -4.137482866644859314e-02 -2.444750443100929260e-02 -4.441418871283531189e-02 9.606173262000083923e-03 -1.426692400127649307e-02 -4.767962172627449036e-02
1.116751059889793396e-01 -2.542479932308197021e-01 -1.576065868139266968e-01 1.672739088535308838e-01 -2.455654181540012360e-02 -2.589711360633373260e-02 -1.097043007612228394e-01 2.831911668181419373e-02 -1.093544736504554749e-01 1.650293767452239990e-01 7.276201993227005005e-02 2.813469432294368744e-02 -4.926060885190963745e-02 -2.025713175535202026e-01 1.280731894075870514e-02 1.292580068111419678e-01 8.609697222709655762e-02 6.897727400064468384e-02 1.338536012917757034e-02 1.087603904306888580e-02 -5.631985142827033997e-02 1.663160137832164764e-02 3.879775851964950562e-02 1.268887221813201904e-01 -4.558546096086502075e-02 -1.719081103801727295e-01 -7.644803263247013092e-03 8.379147201776504517e-02 -1.297358274459838867e-01 -3.559430688619613647e-02 4.007935896515846252e-02 1.632717847824096680e-01 -1.150734573602676392e-01 4.077300429344177246e-02 -1.818577945232391357e-02 4.599087685346603394e-02 3.894045948982238770e-02 -9.704191237688064575e-02 -4.653073102235794067e-02 3.267616406083106995e-02 -4.081759229302406311e-02 6.322120875120162964e-02 -3.173013031482696533e-02 -4.961723089218139648e-02 -4.655312746763229370e-02 -6.497359275817871094e-02 2.672056108713150024e-02 4.082472249865531921e-02 -1.334204226732254028e-01 -3.461662679910659790e-02 -6.214436143636703491e-03 4.141735378652811050e-03 2.103750035166740417e-02 -2.259380742907524109e-02 4.211024194955825806e-02 -4.637128207832574844e-03 -2.757639810442924500e-02 -6.273682415485382080e-02
-9.504772722721099854e-02 2.159285545349121094e-01 2.388898432254791260e-01 -1.273682713508605957e-02 4.804425686597824097e-02 -2.846264280378818512e-02 -3.818254452198743820e-03 6.437856703996658325e-02 -1.838775128126144409e-01 -2.161004990339279175e-01 1.288015246391296387e-01 -2.675026468932628632e-02 4.180056974291801453e-02 1.722861081361770630e-01 -1.065518334507942200e-01 2.352788299322128296e-02 -1.000430714339017868e-02 1.840129867196083069e-02 -2.548287250101566315e-02 -2.508049085736274719e-02 6.988717708736658096e-03 -6.829874962568283081e-02 -3.785507008433341980e-02 1.105777472257614136e-01 -1.839049719274044037e-02 -9.189739823341369629e-02 -4.105799645185470581e-02 -4.413488879799842834e-02 -4.545639827847480774e-02 -9.826925583183765411e-03 5.998593568801879883e-02 3.184675797820091248e-02 1.128907054662704468e-01 -4.742580000311136246e-03 -4.658544436097145081e-02 -5.971632152795791626e-02 1.310797780752182007e-01 9.494915604591369629e-02 9.750202298164367676e-02 -5.699985194951295853e-04 7.958722114562988281e-02 7.292891293764114380e-02 -1.365816802717745304e-03 -6.053486466407775879e-02 2.163913473486900330e-02 1.907866261899471283e-02 1.407516654580831528e-02 4.928863048553466797e-02 3.047552332282066345e-02 1.314580626785755157e-02 2.832103893160820007e-02 6.745696067810058594e-02 3.740723058581352234e-02 -1.067467778921127319e-02 1.287651211023330688e-01 4.101942479610443115e-02 6.247182190418243408e-02 -1.214093640446662903e-01
2.547049522399902344e-02 1.486930102109909058e-01 1.823486089706420898e-01 1.851836144924163818e-01 1.424525082111358643e-01 1.024408172816038132e-02 7.008036971092224121e-02 1.206318661570549011e-01 1.446895301342010498e-01 -1.992060244083404541e-01 2.974253613501787186e-03 1.774083673954010010e-01 7.453266531229019165e-02 -5.162176210433244705e-03 -1.275056749582290649e-01 3.905460238456726074e-02 -1.608354747295379639e-01 -7.173009216785430908e-02 2.346198819577693939e-02 4.670029506087303162e-02 -7.527008652687072754e-02 -6.007220596075057983e-02 -4.860838502645492554e-02 2.750201150774955750e-02 -1.328283846378326416e-01 -4.464133083820343018e-02 -7.484938204288482666e-02 -1.709105670452117920e-01 -5.635558813810348511e-02 -1.470371186733245850e-01 1.748039945960044861e-02 -2.041420787572860718e-01 -4.584751557558774948e-03 1.083706170320510864e-01 7.883824408054351807e-02 -6.488580256700515747e-02 -3.948426246643066406e-02 -1.267592981457710266e-02 3.621884807944297791e-02 5.843710526823997498e-02 -1.371133793145418167e-02 -5.290719866752624512e-02 3.490125387907028198e-02 -3.346623480319976807e-02 1.800313359126448631e-03 -8.963557332754135132e-02 3.764655813574790955e-02 2.418274804949760437e-02 1.956528052687644958e-02 9.728401154279708862e-02 -4.251723736524581909e-02 5.429727584123611450e-02 -9.898609668016433716e-02 2.004833146929740906e-02 -2.928309841081500053e-03 -1.428066054359078407e-03 -4.103697463870048523e-02 -1.103721465915441513e-02
2.346309646964073181e-02 3.873992264270782471e-01 -1.237404718995094299e-02 1.101610809564590454e-01 9.778398275375366211e-02 -3.704175353050231934e-02 1.194932237267494202e-01 -1.531710475683212280e-01 -2.364647835493087769e-01 -2.976975217461585999e-02 4.577737674117088318e-02 -7.076738029718399048e-02 -1.680947542190551758e-01 6.559846922755241394e-03 -3.879029676318168640e-02 1.172368973493576050e-02 -9.080267511308193207e-03 8.583506196737289429e-02 -5.367698147892951965e-02 -4.064143076539039612e-02 4.605324938893318176e-02 6.367640197277069092e-02 4.471092298626899719e-02 -1.014811079949140549e-02 -7.424662262201309204e-02 1.861853897571563721e-02 3.459098562598228455e-02 1.013132184743881226e-01 1.427735015749931335e-02 3.426309674978256226e-02 -7.743922527879476547e-03 -4.652163013815879822e-02 -4.130333196371793747e-03 5.161141231656074524e-02 -9.592204540967941284e-02 9.852124750614166260e-02 4.035861790180206299e-02 -9.685331583023071289e-02 -1.656075194478034973e-02 4.136431589722633362e-02 1.078465655446052551e-01 -1.118403747677803040e-01 -5.812472105026245117e-02 -1.223248708993196487e-02 1.198233738541603088e-01 -1.291393768042325974e-02 7.432023528963327408e-03 -1.892827264964580536e-02 -2.495103515684604645e-02 3.213724493980407715e-02 4.580428823828697205e-02 3.325267136096954346e-02 -1.398864784277975559e-03 1.094590574502944946e-01 6.119135022163391113e-02 -7.722001522779464722e-02 -9.179127402603626251e-03 7.494923775084316730e-04
5.239097774028778076e-02 1.947844922542572021e-01 1.451825955882668495e-03 3.057341463863849640e-02 -8.986384421586990356e-02 -1.151060387492179871e-01 3.592995181679725647e-02 1.293109953403472900e-01 -1.580555550754070282e-02 -3.414979204535484314e-02 -9.507863968610763550e-02 1.153254881501197815e-02 -2.576569095253944397e-02 -9.170930087566375732e-02 5.480892956256866455e-02 4.926467686891555786e-02 6.060013175010681152e-02 9.760028682649135590e-03 6.654851138591766357e-03 7.241299003362655640e-02 -1.182436719536781311e-01 -1.873031407594680786e-01 8.480244874954223633e-02 -1.204777508974075317e-01 4.064364731311798096e-02 -5.542292073369026184e-02 4.312442988157272339e-02 -7.468915078788995743e-03 1.283392459154129028e-01 -7.352183107286691666e-03 1.124493628740310669e-01 -6.032962724566459656e-02 1.302393805235624313e-02 5.199239030480384827e-02 -1.193889509886503220e-02 -4.260550066828727722e-02 3.382196277379989624e-02 4.293526336550712585e-02 7.778099924325942993e-02 8.937850594520568848e-02 5.960327014327049255e-02 5.449675489217042923e-03 -6.626784801483154297e-02 3.738678991794586182e-02 -2.439060248434543610e-02 1.438930630683898926e-02 2.861589938402175903e-02 2.874889760278165340e-04 1.413489878177642822e-02 -3.460283949971199036e-02 -5.573510751128196716e-02 -1.898026838898658752e-02 2.163994498550891876e-02 -1.043815817683935165e-02 1.127038523554801941e-02 1.436916925013065338e-02 2.733557857573032379e-02 -7.326219230890274048e-02
3.297162428498268127e-02 1.375329196453094482e-01 -1.209169328212738037e-01 3.700594604015350342e-02 -2.053724080324172974e-01 2.083739638328552246e-02 -7.708343863487243652e-02 -1.064798757433891296e-01 5.518376082181930542e-02 9.320901334285736084e-02 1.212912127375602722e-01 -5.470125004649162292e-02 1.325304657220840454e-01 2.795512676239013672e-01 1.484678089618682861e-01 -4.314860329031944275e-02 1.047220528125762939e-01 -6.855053454637527466e-02 -1.531283091753721237e-02 -1.645796932280063629e-02 5.205318331718444824e-02 2.821034006774425507e-02 3.499620035290718079e-02 6.240263115614652634e-03 6.831742823123931885e-02 1.749758230289444327e-04 4.252187535166740417e-02 1.002645939588546753e-01 5.917371250689029694e-03 6.307105720043182373e-02 7.132340967655181885e-02 6.841237097978591919e-02 -1.017902940511703491e-01 3.330289199948310852e-02 -1.337335165590047836e-02 -4.769517481327056885e-02 1.786958426237106323e-02 -2.478927932679653168e-02 -1.793180592358112335e-02 -4.498329013586044312e-02 7.564380019903182983e-02 1.651288941502571106e-02 -7.972790300846099854e-02 8.479104191064834595e-02 -2.973376400768756866e-02 -1.433548424392938614e-02 1.063069514930248260e-02 -1.065002381801605225e-02 -7.424008846282958984e-02 4.082117602229118347e-02 -3.355179727077484131e-02 -7.537211477756500244e-02 -6.636311113834381104e-02 -3.686899691820144653e-02 3.649020567536354065e-02 -3.809362533502280712e-04 -1.762352697551250458e-02 -1.450429856777191162e-02
-7.529467344284057617e-02 -1.083153188228607178e-01 5.292326584458351135e-02 -7.995827496051788330e-02 -3.528453409671783447e-01 -1.172217503190040588e-01 -1.722833812236785889e-01 3.956978023052215576e-02 7.334110885858535767e-02 -1.000062748789787292e-01 -7.804710417985916138e-02 8.134988136589527130e-03 -1.079861372709274292e-01 3.676382824778556824e-02 -9.156073629856109619e-02 -1.376232802867889404e-01 8.260311186313629150e-02 -3.240178152918815613e-02 -5.151848867535591125e-02 4.435130208730697632e-02 -6.370938569307327271e-02 2.693449333310127258e-02 -6.201609596610069275e-02 -2.027020975947380066e-02 -9.923955053091049194e-02 -1.842842996120452881e-02 -9.463010728359222412e-02 1.535589098930358887e-01 -6.269399821758270264e-02 -2.010573260486125946e-02 1.097091957926750183e-01 -1.301292032003402710e-01 2.905019000172615051e-02 1.678430289030075073e-01 8.363918960094451904e-02 3.149954229593276978e-02 4.866455867886543274e-02 6.190959736704826355e-02 3.542533144354820251e-02 2.735712798312306404e-03 6.406752020120620728e-02 -1.078459341078996658e-02 8.890523761510848999e-02 1.327264904975891113e-01 6.134326010942459106e-02 -9.611693769693374634e-02 -2.953325398266315460e-02 4.416906088590621948e-02 1.436445582658052444e-02 2.185758948326110840e-02 2.502178400754928589e-02 -5.536076426506042480e-02 -3.104293718934059143e-02 6.434743106365203857e-02 -3.160276683047413826e-03 3.752667224034667015e-03 -2.227542735636234283e-02 -8.976117707788944244e-03
1.656568497419357300e-01 -1.199483647942543030e-01 2.561129629611968994e-01 -1.352120190858840942e-01 1.694342344999313354e-01 8.724132180213928223e-02 -1.358081120997667313e-02 -2.410197407007217407e-01 -1.326307505369186401e-01 -5.174250900745391846e-02 3.153888508677482605e-02 1.101613137871026993e-02 5.925810337066650391e-02 -1.022946089506149292e-01 -4.704568535089492798e-02 3.389665484428405762e-02 2.887747250497341156e-02 5.836788564920425415e-02 -3.416670486330986023e-02 -2.797037921845912933e-02 -1.596648246049880981e-02 8.983054757118225098e-02 4.837664589285850525e-02 3.486978262662887573e-02 -1.206377968192100525e-01 -5.112181976437568665e-02 -1.812813989818096161e-02 -1.056420058012008667e-01 -3.552882969379425049e-01 -1.861782968044281006e-01 1.854347288608551025e-01 2.186316251754760742e-01 -1.474486887454986572e-01 2.009775340557098389e-01 4.371995851397514343e-02 2.046025916934013367e-02 3.829700127243995667e-02 1.703403517603874207e-02 -4.025000706315040588e-02 -2.062094956636428833e-02 5.408876016736030579e-02 2.699347771704196930e-02 4.306527227163314819e-02 3.894848003983497620e-02 -2.037773467600345612e-02 -8.708387613296508789e-03 1.488831043243408203e-01 -1.116484627127647400e-01 -1.490258425474166870e-01 6.288976967334747314e-02 7.107243686914443970e-02 8.909766562283039093e-03 4.150597006082534790e-02 4.215025901794433594e-02 4.075479228049516678e-03 -1.873741112649440765e-02 -2.394451294094324112e-03 1.909254789352416992e-01
-9.131460636854171753e-02 -1.141035556793212891e-01 -5.719182491302490234e-01 -1.727736555039882660e-02 -1.658789962530136108e-01 -7.487604767084121704e-02 -1.803305298089981079e-01 -8.486330509185791016e-02 2.928737178444862366e-02 1.228049769997596741e-01 -1.091488450765609741e-01 5.512052774429321289e-02 -2.106686495244503021e-02 3.773265751078724861e-03 -5.037488788366317749e-02 3.658170998096466064e-02 -2.080635353922843933e-02 -7.251533120870590210e-02 -6.491909176111221313e-02 4.024593904614448547e-02 2.775434777140617371e-02 -6.885807216167449951e-02 -1.332769449800252914e-02 6.900430470705032349e-02 5.343605950474739075e-02 -4.213496297597885132e-02 -1.084333192557096481e-02 2.288179844617843628e-02 3.756852447986602783e-01 6.636448949575424194e-02 -1.165757179260253906e-01 -2.418091893196105957e-01 1.605068147182464600e-01 -7.351668179035186768e-02 -5.021987855434417725e-02 1.363852061331272125e-02 -9.474730491638183594e-02 -4.616123065352439880e-02 -2.746217511594295502e-02 6.505628116428852081e-04 -4.360233619809150696e-02 -4.194050654768943787e-02 5.332918465137481689e-02 3.250598907470703125e-02 4.398072487674653530e-04 1.812076196074485779e-02 -1.028430461883544922e-01 9.400030970573425293e-02 1.585099697113037109e-01 -4.461345821619033813e-02 -1.820544339716434479e-02 -4.267304018139839172e-02 -1.003813557326793671e-02 -3.065992519259452820e-02 -5.931980907917022705e-03 -1.237593218684196472e-02 -2.312510646879673004e-02 -2.279737442731857300e-01
-1.776066124439239502e-01 4.326920211315155029e-01 -3.265425190329551697e-02 1.011029630899429321e-01 5.754854530096054077e-02 -6.204212456941604614e-02 1.018603332340717316e-02 -1.425543874502182007e-01 -4.039496928453445435e-02 7.607049494981765747e-02 2.807833813130855560e-02 2.515915781259536743e-02 2.466887794435024261e-02 1.450902521610260010e-01 -8.768511563539505005e-02 3.155364468693733215e-02 4.759067296981811523e-02 -5.078428238630294800e-02 3.859905153512954712e-02 3.471178561449050903e-02 -9.442413598299026489e-02 6.838772445917129517e-02 1.780537888407707214e-02 9.606336057186126709e-02 -7.535497099161148071e-02 1.313396394252777100e-01 2.137163840234279633e-02 -2.917172759771347046e-02 2.401530370116233826e-02 3.832522034645080566e-02 9.666143357753753662e-02 8.299398235976696014e-03 2.993057295680046082e-02 -3.378911316394805908e-02 8.134663850069046021e-02 2.954685129225254059e-02 -5.943788588047027588e-02 -1.232703402638435364e-02 1.304491236805915833e-02 1.116426847875118256e-02 2.234540693461894989e-02 8.078723400831222534e-02 8.735316991806030273e-02 1.879153549671173096e-01 4.439353942871093750e-02 3.157287836074829102e-02 -9.310665726661682129e-02 2.434363821521401405e-03 1.499757915735244751e-01 3.041631542146205902e-03 -1.067985668778419495e-01 2.402689307928085327e-02 3.451836109161376953e-02 -2.849850617349147797e-02 -1.393038779497146606e-02 1.063310578465461731e-01 4.715371504426002502e-02 -2.201560325920581818e-02
-1.482224762439727783e-01 8.896128833293914795e-02 3.779257461428642273e-02 -2.689715921878814697e-01 -2.922237515449523926e-01 -2.026665396988391876e-02 -1.126704588532447815e-01 8.891232311725616455e-02 -1.011489927768707275e-01 6.434023380279541016e-02 4.303143918514251709e-02 -1.620852798223495483e-01 -7.404720038175582886e-02 1.425079852342605591e-01 -1.146081835031509399e-01 -3.041847981512546539e-02 4.086002707481384277e-03 8.465630561113357544e-02 -3.289869800209999084e-02 4.359617829322814941e-02 2.927785553038120270e-02 5.394039303064346313e-02 -7.480485737323760986e-02 1.013479530811309814e-01 7.203027606010437012e-02 -8.546390384435653687e-02 -3.539207950234413147e-02 -7.722731679677963257e-02 -4.937403276562690735e-02 -3.661802969872951508e-03 6.196263432502746582e-02 -1.253437101840972900e-01 1.518035680055618286e-01 2.598098479211330414e-02 1.574455387890338898e-02 -8.861078880727291107e-03 1.384549774229526520e-03 9.003125876188278198e-02 4.122839495539665222e-02 -5.062587559223175049e-02 2.022807113826274872e-02 1.648507080972194672e-02 3.743369132280349731e-02 -2.080436237156391144e-02 -3.165043890476226807e-02 8.120339363813400269e-02 5.767429992556571960e-02 -3.122969530522823334e-02 -5.594872310757637024e-02 5.395007133483886719e-02 -1.246976666152477264e-02 -1.162670031189918518e-01 1.363222394138574600e-02 2.587455324828624725e-02 -6.471656262874603271e-02 -1.454304456710815430e-01 -5.387373268604278564e-02 -3.338682278990745544e-02
-2.868698909878730774e-02 -2.635484635829925537e-01 -2.501526772975921631e-01 -1.298536211252212524e-01 -2.751121222972869873e-01 1.949933543801307678e-02 -2.544643357396125793e-02 -5.310044623911380768e-03 3.024917654693126678e-02 -5.938484333455562592e-03 -8.022820693440735340e-04 -1.819833996705710888e-03 -2.719660289585590363e-02 -1.309244036674499512e-01 -1.526559740304946899e-01 -3.765064477920532227e-02 1.735753007233142853e-02 -3.921527788043022156e-02 -1.142661366611719131e-02 9.411422535777091980e-03 -3.401333466172218323e-02 -1.907924562692642212e-02 5.020537413656711578e-03 -3.422345966100692749e-02 -5.279158428311347961e-02 -5.148019641637802124e-03 -5.858271848410367966e-03 -3.247110918164253235e-02 -1.281370669603347778e-01 3.956449627876281738e-01 6.459412723779678345e-02 -3.457617759704589844e-01 -1.759799122810363770e-01 -1.132767572999000549e-01 -7.440056651830673218e-02 -2.646524086594581604e-02 -8.455187082290649414e-02 -7.317901402711868286e-02 1.867639599367976189e-03 4.071799921803176403e-04 -6.266602873802185059e-02 -4.650609195232391357e-02 5.102119222283363342e-02 4.521336033940315247e-02 1.358733512461185455e-03 -1.647355780005455017e-02 -1.588596850633621216e-01 -9.543931484222412109e-02 2.172484695911407471e-01 -1.173913665115833282e-02 -5.757097620517015457e-03 -2.448823302984237671e-02 4.223423544317483902e-03 -4.114456474781036377e-02 -3.646530210971832275e-02 -3.193259611725807190e-02 -4.463442310225218534e-04 1.906692534685134888e-01
1.066850721836090088e-01 3.404997289180755615e-02 2.186832129955291748e-01 -1.605870723724365234e-01 2.961036004126071930e-02 -7.775000482797622681e-02 6.471360474824905396e-02 -1.640872955322265625e-01 1.961808204650878906e-01 3.538871183991432190e-02 1.661198027431964874e-02 1.947161257266998291e-01 7.323920726776123047e-02 1.742266863584518433e-01 1.528969705104827881e-01 6.763403117656707764e-02 1.733123809099197388e-01 1.354793319478631020e-03 3.067285753786563873e-02 -1.280578784644603729e-02 1.550836861133575439e-01 1.438789516687393188e-01 6.679400056600570679e-02 2.351563051342964172e-02 -8.133228868246078491e-02 1.646200753748416901e-02 -9.429201483726501465e-02 6.826944649219512939e-02 -6.127379834651947021e-02 2.876697666943073273e-02 -1.015324592590332031e-01 3.531471639871597290e-02 1.369547694921493530e-01 -8.097334206104278564e-02 -1.796424984931945801e-01 7.132072001695632935e-02 2.327174395322799683e-01 5.898173153400421143e-02 -3.597766160964965820e-02 -2.978443913161754608e-02 2.327866107225418091e-02 4.014553502202033997e-02 -3.915620967745780945e-02 -7.949219644069671631e-02 -4.480855539441108704e-02 7.887645810842514038e-02 3.749203681945800781e-02 -1.962235942482948303e-02 -1.604272238910198212e-02 -7.094649225473403931e-02 -1.055098846554756165e-01 -5.214431881904602051e-02 -2.579225786030292511e-02 7.366126775741577148e-02 2.770506590604782104e-02 5.718963965773582458e-02 7.270781695842742920e-02 1.422961205244064331e-01
5.004820600152015686e-02 3.307791352272033691e-01 2.683212608098983765e-02 -1.350689828395843506e-01 2.379039861261844635e-02 -6.721708923578262329e-03 8.599434979259967804e-03 3.417272567749023438e-01 1.159660331904888153e-02 1.024885475635528564e-01 6.225320324301719666e-02 -2.871344983577728271e-02 -4.695779085159301758e-02 1.901735812425613403e-01 1.275265067815780640e-01 2.376737631857395172e-02 -2.837151475250720978e-02 7.051821798086166382e-02 -5.862445756793022156e-02 4.351000860333442688e-02 1.301329433917999268e-01 -6.198738515377044678e-02 -2.504460699856281281e-02 -2.649860829114913940e-02 1.540229655802249908e-02 -1.540756672620773315e-01 1.057682093232870102e-02 4.350874107331037521e-03 -2.451058849692344666e-02 -2.633467875421047211e-02 3.831422328948974609e-02 6.279676686972379684e-03 2.006490230560302734e-01 -1.210355572402477264e-02 -1.290697883814573288e-02 -1.414266675710678101e-01 1.946766972541809082e-01 6.432020664215087891e-02 -5.938127636909484863e-02 -4.013571143150329590e-02 -8.972775191068649292e-03 2.345684543251991272e-02 1.868188008666038513e-02 -4.032174125313758850e-02 1.610227078199386597e-01 1.970449835062026978e-02 -9.652268886566162109e-02 6.063611805438995361e-02 -9.168615192174911499e-02 2.425163798034191132e-02 -4.291709885001182556e-02 -1.424693968147039413e-02 7.571596652269363403e-02 6.240055710077285767e-02 8.591425418853759766e-02 -5.847877636551856995e-02 5.031254142522811890e-02 4.891178011894226074e-01
6.584262102842330933e-02 -1.484627276659011841e-01 -5.272842049598693848e-01 2.035254985094070435e-02 -1.721755117177963257e-01 -8.735336363315582275e-03 2.400272712111473083e-02 2.786448784172534943e-02 -1.337297074496746063e-02 3.178064525127410889e-02 -6.880503892898559570e-02 3.084921836853027344e-02 -1.483382433652877808e-01 -3.104526735842227936e-02 -2.387282252311706543e-02 -1.124133989214897156e-01 -5.033073946833610535e-02 -7.231561094522476196e-02 7.059787213802337646e-02 7.648799568414688110e-02 -4.607257246971130371e-02 -3.157481923699378967e-02 1.859438233077526093e-02 -5.013896524906158447e-02 1.022617965936660767e-01 8.644028007984161377e-02 -5.184181034564971924e-02 1.201702579855918884e-01 -1.918682157993316650e-01 2.613343298435211182e-01 1.166217699646949768e-01 -1.672148704528808594e-01 2.176742851734161377e-01 2.757675014436244965e-02 4.685400053858757019e-02 -3.070339327678084373e-03 -7.169708609580993652e-02 -6.489891558885574341e-02 1.102405786514282227e-02 2.611083164811134338e-02 -1.797981187701225281e-02 -4.645458981394767761e-02 -6.591281294822692871e-02 -8.580689132213592529e-02 -5.117394030094146729e-02 3.948462381958961487e-02 -1.964533887803554535e-02 1.558811217546463013e-01 1.014504879713058472e-01 -5.189856141805648804e-02 -9.460792690515518188e-02 -6.435474008321762085e-02 -3.959085419774055481e-02 1.003427430987358093e-01 8.322758972644805908e-02 2.776978537440299988e-02 5.370958521962165833e-02 5.981064401566982269e-03
-2.564904838800430298e-02 2.674666643142700195e-01 -5.362426489591598511e-02 -1.482301354408264160e-01 1.302540451288223267e-01 2.042631618678569794e-02 -4.683462530374526978e-02 1.506533771753311157e-01 -1.066129878163337708e-01 -1.328035742044448853e-01 4.598753154277801514e-02 -4.838797450065612793e-02 1.082519814372062683e-02 1.539478078484535217e-03 3.279530629515647888e-02 9.927558898925781250e-02 3.643913567066192627e-02 6.243954971432685852e-02 3.495631739497184753e-02 2.098974399268627167e-02 -2.091811038553714752e-02 2.697784267365932465e-02 -2.339699678122997284e-02 2.000224441289901733e-01 -9.706152230501174927e-02 -4.737762734293937683e-02 4.084555804729461670e-02 -1.759532690048217773e-01 1.421543806791305542e-01 -1.546036731451749802e-02 8.122923225164413452e-02 3.236502036452293396e-02 1.815153807401657104e-01 -3.496875241398811340e-02 -7.668329030275344849e-02 2.058358490467071533e-01 1.720799803733825684e-01 5.976828560233116150e-02 1.188944131135940552e-01 -4.286642372608184814e-02 -1.312344223260879517e-01 -8.875949680805206299e-02 1.441113837063312531e-02 4.281875863671302795e-02 3.298321366310119629e-02 -4.718836024403572083e-02 -1.532471086829900742e-02 -4.415220394730567932e-02 -2.624835819005966187e-02 -2.078109420835971832e-02 -8.518648892641067505e-02 1.589732058346271515e-02 -7.799501717090606689e-02 -1.490907836705446243e-02 4.351100884377956390e-03 4.842730984091758728e-02 2.348495909245684743e-04 1.716249436140060425e-02
1.691191829741001129e-02 2.105087786912918091e-02 1.455240547657012939e-01 3.570569157600402832e-01 -2.296580933034420013e-02 -8.034966886043548584e-02 8.056429028511047363e-02 3.117547929286956787e-01 3.168492019176483154e-01 9.056252241134643555e-02 1.622454449534416199e-02 -3.454225882887840271e-02 -8.616726845502853394e-02 5.480065941810607910e-02 6.711350381374359131e-02 -9.787538647651672363e-02 3.854401409626007080e-02 5.701501853764057159e-03 5.962678417563438416e-02 -6.400723755359649658e-02 5.811301618814468384e-02 9.927413612604141235e-02 -3.921272605657577515e-02 1.123317629098892212e-01 -9.578619152307510376e-02 9.761061519384384155e-02 4.821296036243438721e-02 -1.033512130379676819e-02 -4.970838502049446106e-02 -8.976296335458755493e-02 -3.701527789235115051e-02 1.818070858716964722e-01 2.750171124935150146e-01 8.629310177639126778e-04 2.161247283220291138e-02 -2.067726105451583862e-02 2.120784819126129150e-01 4.105298593640327454e-02 1.520605850964784622e-02 2.368096075952053070e-02 -1.693579927086830139e-02 3.155831247568130493e-02 8.127926290035247803e-02 6.576108932495117188e-02 2.914791740477085114e-02 -2.110218629240989685e-03 3.932330757379531860e-02 5.665756389498710632e-02 -1.503594964742660522e-01 -4.322613775730133057e-02 3.171936422586441040e-02 -2.334364317357540131e-02 1.029233634471893311e-02 -2.261197566986083984e-02 -1.139877922832965851e-02 -3.113181330263614655e-02 -3.328965976834297180e-03 -8.159604668617248535e-02
2.127070426940917969e-01 1.039702892303466797e-01 -1.568383909761905670e-02 1.204393245279788971e-02 2.497634589672088623e-01 -1.452344954013824463e-01 -1.469485163688659668e-01 -1.290434896945953369e-01 -4.001469016075134277e-01 -3.893785551190376282e-02 1.368521153926849365e-01 -4.721786454319953918e-02 -4.665247723460197449e-02 1.195055246353149414e-01 1.369313299655914307e-01 1.568744517862796783e-02 7.960458099842071533e-02 1.358632743358612061e-01 4.829047992825508118e-02 -8.596187084913253784e-02 -2.174953818321228027e-01 5.481624603271484375e-02 1.255354657769203186e-02 -1.315427422523498535e-01 -2.089771330356597900e-01 7.865009456872940063e-02 8.938752859830856323e-02 4.563640430569648743e-02 3.160566985607147217e-01 -1.871655695140361786e-02 -3.350342391058802605e-03 5.495675653219223022e-02 1.715107709169387817e-01 1.395493596792221069e-01 3.389232978224754333e-02 1.235405262559652328e-02 1.830049604177474976e-01 4.302132502198219299e-02 -2.782915253192186356e-03 -1.217943578958511353e-01 2.815779298543930054e-04 9.136892855167388916e-02 -8.736592531204223633e-02 8.148014545440673828e-02 6.871529668569564819e-02 -6.609951704740524292e-02 -4.805399850010871887e-02 1.161968559026718140e-01 2.343313768506050110e-02 -1.317053381353616714e-02 -4.635559744201600552e-04 -6.229221820831298828e-02 6.945907603949308395e-03 -1.525274664163589478e-02 1.841294206678867340e-02 -3.933225944638252258e-02 1.639730762690305710e-03 1.911213696002960205e-01
-5.933794006705284119e-02 -1.782122105360031128e-01 3.037158213555812836e-02 5.139251425862312317e-02 6.560153514146804810e-02 -7.655141502618789673e-02 -5.487314239144325256e-02 2.979796528816223145e-01 2.757619321346282959e-01 1.842359155416488647e-01 -1.239629462361335754e-01 2.711701020598411560e-02 -1.551037579774856567e-01 3.435244783759117126e-02 -1.970219891518354416e-03 -7.288697175681591034e-03 -3.697571810334920883e-03 7.148254662752151489e-02 -7.035671919584274292e-02 -4.203442856669425964e-02 2.596915140748023987e-02 1.184484213590621948e-01 -4.254452884197235107e-03 8.637655526399612427e-02 3.534661978483200073e-02 2.305305935442447662e-02 1.308769285678863525e-01 9.574069082736968994e-02 2.807663977146148682e-01 -1.597431004047393799e-01 -6.033224239945411682e-02 5.995438620448112488e-02 1.271990537643432617e-01 6.333101540803909302e-02 5.074547231197357178e-02 2.782763168215751648e-02 9.804498404264450073e-02 3.410038724541664124e-02 1.229771971702575684e-01 -8.146478794515132904e-03 6.866978853940963745e-02 2.039661444723606110e-02 7.996156811714172363e-02 8.981336839497089386e-03 4.124777019023895264e-02 -1.921484991908073425e-02 9.881012886762619019e-02 -4.085651412606239319e-02 -3.761322237551212311e-03 4.556232318282127380e-02 -6.227370724081993103e-02 1.113016996532678604e-02 4.265328403562307358e-03 2.189743705093860626e-02 1.334894448518753052e-01 1.598560810089111328e-01 1.076075583696365356e-01 -8.497664332389831543e-02
5.710136145353317261e-02 5.795698240399360657e-02 4.642218947410583496e-01 1.654640287160873413e-01 -8.875945210456848145e-02 -1.207702308893203735e-01 1.950813978910446167e-01 1.049930974841117859e-01 8.912300318479537964e-02 -1.380403637886047363e-01 1.621917784214019775e-01 -5.331235006451606750e-02 -8.237443119287490845e-02 4.863059148192405701e-02 9.274228662252426147e-02 1.017807889729738235e-02 -2.758539654314517975e-02 3.880188986659049988e-02 -4.532227665185928345e-02 -1.412096619606018066e-01 -2.607538923621177673e-02 -1.643096446059644222e-03 -2.528799697756767273e-02 1.093811318278312683e-01 -1.238091755658388138e-02 1.058500707149505615e-01 -6.646942347288131714e-02 4.193416610360145569e-02 2.763698697090148926e-01 -2.395517975091934204e-01 4.106731154024600983e-03 9.329177439212799072e-02 6.178684532642364502e-02 -5.001174658536911011e-02 -8.209122717380523682e-02 -4.958942905068397522e-02 -1.261130124330520630e-01 -9.334268420934677124e-02 -1.500729238614439964e-03 1.076428312808275223e-02 -6.461855373345315456e-04 7.063176482915878296e-02 6.089218333363533020e-02 -9.050390869379043579e-02 -2.958562225103378296e-02 6.309471558779478073e-03 -3.895527124404907227e-02 2.157969400286674500e-02 -4.219438135623931885e-02 4.395673424005508423e-02 -5.076271295547485352e-02 -1.974700205028057098e-02 -7.317578792572021484e-02 8.301363885402679443e-02 7.260217517614364624e-02 1.786676421761512756e-02 1.548085454851388931e-02 1.931052058935165405e-01
3.525081276893615723e-02 -1.605138629674911499e-01 2.764292359352111816e-01 -4.844282194972038269e-02 -1.671454496681690216e-02 7.385493069887161255e-02 3.416369110345840454e-02 -1.403936464339494705e-02 1.373885944485664368e-02 3.193806111812591553e-02 -2.136983163654804230e-02 -5.474927276372909546e-02 3.842822089791297913e-02 2.200633753091096878e-03 -8.147791028022766113e-02 -2.741076052188873291e-01 -1.368650048971176147e-01 6.200722232460975647e-02 -5.139032006263732910e-02 4.500036314129829407e-02 3.917316347360610962e-02 -7.573761790990829468e-02 -1.538038346916437149e-02 -4.140461981296539307e-02 5.865910649299621582e-02 2.724156156182289124e-02 -4.891041666269302368e-03 -3.615359961986541748e-02 -4.131006002426147461e-01 5.040165781974792480e-02 -1.368992179632186890e-01 1.563703715801239014e-01 1.215200871229171753e-01 -1.043302845209836960e-02 -5.619641765952110291e-02 3.006030991673469543e-02 1.052541658282279968e-02 -6.556640379130840302e-03 -6.993567198514938354e-02 3.946193680167198181e-02 -8.779368549585342407e-02 -9.830014407634735107e-02 1.196132674813270569e-01 1.307229138910770416e-02 -6.659875810146331787e-02 3.107316233217716217e-02 1.651337742805480957e-02 6.324821710586547852e-02 -1.741696298122406006e-01 -6.998865865170955658e-03 -4.426303133368492126e-02 -1.963455229997634888e-01 -6.214935705065727234e-02 -2.196592465043067932e-02 -3.457923233509063721e-02 1.200181082822382450e-03 1.390780210494995117e-01 2.980029024183750153e-02
-8.195707947015762329e-02 1.446156650781631470e-01 -4.701782763004302979e-02 2.496526017785072327e-02 -1.703957617282867432e-01 -1.215391755104064941e-01 -5.311628058552742004e-02 1.119636595249176025e-01 -3.882462531328201294e-02 -1.322796046733856201e-01 -7.023120671510696411e-02 -1.402400713413953781e-02 1.106463670730590820e-01 7.445243652909994125e-03 8.203808101825416088e-05 -6.119548529386520386e-02 1.019177492707967758e-02 1.288719326257705688e-01 8.931291848421096802e-02 -2.458735369145870209e-03 9.876099228858947754e-02 1.288369148969650269e-01 -4.333368316292762756e-02 -6.492743641138076782e-02 -6.587582826614379883e-02 -7.497744262218475342e-02 -2.776375599205493927e-02 -1.651625731028616428e-03 4.702388122677803040e-02 6.125373393297195435e-02 7.025455590337514877e-03 1.101574823260307312e-01 3.159538656473159790e-02 -1.445460915565490723e-01 8.306150324642658234e-03 -1.631866395473480225e-01 1.496689766645431519e-01 2.213117480278015137e-02 -7.764382660388946533e-02 -2.348452433943748474e-02 1.222707480192184448e-01 3.718710318207740784e-02 1.002618148922920227e-01 8.039286732673645020e-02 -3.290322422981262207e-02 1.504511106759309769e-02 -4.020680673420429230e-03 -6.462220102548599243e-02 6.846753414720296860e-03 1.068831384181976318e-01 -4.324419796466827393e-02 8.912003785371780396e-02 -2.539751306176185608e-02 9.549212455749511719e-02 8.042184263467788696e-02 -8.292639255523681641e-02 1.462390925735235214e-02 -1.578205078840255737e-01
-5.292914435267448425e-02 -3.829186409711837769e-02 3.415217101573944092e-01 -3.929248154163360596e-01 1.476216763257980347e-01 -2.781549654901027679e-02 9.567186981439590454e-02 -2.556773722171783447e-01 -3.182828426361083984e-02 -1.348873972892761230e-01 -2.024969644844532013e-02 1.545019000768661499e-01 1.668143272399902344e-01 -3.236774206161499023e-01 -1.677598208189010620e-01 8.157060481607913971e-03 -3.071137703955173492e-02 -7.611013948917388916e-02 -2.625622041523456573e-02 -8.688471280038356781e-03 2.852585457731038332e-04 -7.184741646051406860e-02 1.915250718593597412e-02 -2.454154565930366516e-02 4.582432098686695099e-03 -3.942799195647239685e-02 1.486903708428144455e-02 -6.850616633892059326e-02 -2.827031016349792480e-01 -7.597616314888000488e-02 -1.029742136597633362e-01 7.917252928018569946e-02 -1.083659753203392029e-01 -8.531685918569564819e-02 -8.148848079144954681e-03 7.634781301021575928e-03 -7.718962430953979492e-02 -2.005592547357082367e-02 1.067805755883455276e-02 2.742673642933368683e-02 -2.806178666651248932e-02 9.489344432950019836e-03 8.676706254482269287e-02 5.336071923375129700e-02 -3.098817728459835052e-02 8.349396288394927979e-03 -2.069744653999805450e-02 -8.356630057096481323e-02 -4.489089176058769226e-02 -1.286146882921457291e-02 2.281458675861358643e-02 3.544101864099502563e-02 1.125833834521472454e-03 -1.210901141166687012e-02 -1.711300387978553772e-02 3.241762518882751465e-02 6.595165003091096878e-03 -1.075695678591728210e-01
-6.039603427052497864e-02 3.018873333930969238e-01 4.738560412079095840e-03 2.457919567823410034e-01 1.950217485427856445e-01 3.954698517918586731e-02 -2.720080874860286713e-02 1.408673077821731567e-01 -7.107014954090118408e-02 -1.654347926378250122e-01 5.521514266729354858e-02 3.988463059067726135e-02 -1.105765327811241150e-01 1.300697922706604004e-01 4.004575312137603760e-02 5.081782490015029907e-02 1.126280054450035095e-02 -8.176161348819732666e-02 -1.115060895681381226e-01 2.730995602905750275e-02 2.127718180418014526e-01 -1.499748975038528442e-01 -2.987944334745407104e-02 1.674399152398109436e-02 -2.113671004772186279e-01 -1.178917065262794495e-01 -2.066923677921295166e-02 -5.297550186514854431e-02 -1.658797636628150940e-02 -1.192556694149971008e-01 -6.926311552524566650e-02 6.646272540092468262e-02 -9.420303255319595337e-02 -9.537849575281143188e-02 -1.046057697385549545e-02 8.127228356897830963e-03 -2.508327364921569824e-02 6.848394870758056641e-02 -1.107248142361640930e-01 -2.699934132397174835e-02 3.225653618574142456e-02 6.154242530465126038e-02 9.917157888412475586e-02 7.549259811639785767e-02 5.818901211023330688e-02 6.265908479690551758e-02 -3.727859631180763245e-02 4.674123227596282959e-02 3.722996264696121216e-02 -1.572401225566864014e-01 -1.174721270799636841e-01 7.461701333522796631e-02 -5.502806231379508972e-02 -4.146228078752756119e-03 -4.899438098073005676e-02 -1.216958239674568176e-01 1.695521548390388489e-02 6.734923925250768661e-03
-1.448641624301671982e-02 3.431333601474761963e-01 5.631860345602035522e-02 4.335188493132591248e-02 -2.319253422319889069e-02 5.305452644824981689e-02 2.571507915854454041e-02 -1.387099921703338623e-01 -1.016728729009628296e-01 6.604593992233276367e-02 3.125659748911857605e-02 -5.353169888257980347e-02 5.767131969332695007e-02 1.304366439580917358e-01 3.056327812373638153e-02 -7.385904341936111450e-02 2.106657950207591057e-03 -4.064789786934852600e-02 2.209368720650672913e-02 1.642472594976425171e-01 -6.308226287364959717e-02 -8.275087922811508179e-03 1.484483014792203903e-02 -5.149334669113159180e-02 1.179858818650245667e-01 -2.464905148372054100e-03 -1.786061376333236694e-02 -1.021215468645095825e-01 1.597924977540969849e-01 -4.505645483732223511e-02 -1.218245830386877060e-02 -5.260149389505386353e-02 1.741453856229782104e-01 5.469882488250732422e-02 1.828792691230773926e-02 8.271510899066925049e-02 1.018489748239517212e-01 -7.325270026922225952e-02 2.909477986395359039e-02 8.394926786422729492e-02 -2.855768986046314240e-02 1.240002084523439407e-02 -2.087559737265110016e-02 -6.628534942865371704e-02 -6.847653537988662720e-02 -3.158087655901908875e-02 -1.928324811160564423e-02 7.700157165527343750e-02 1.156580299139022827e-01 6.552425771951675415e-02 5.974862724542617798e-02 1.276717185974121094e-01 8.561460673809051514e-02 1.166692897677421570e-01 6.054418534040451050e-02 -7.743346691131591797e-02 -3.329004161059856415e-03 -1.182372421026229858e-01
-1.791375875473022461e-01 -1.772352159023284912e-01 -1.506193429231643677e-01 6.083826720714569092e-02 -2.282706797122955322e-01 -8.096120320260524750e-03 -8.630120009183883667e-02 6.335476040840148926e-02 9.629674255847930908e-02 -1.479553878307342529e-01 -1.705321520566940308e-01 1.637439280748367310e-01 1.047301962971687317e-01 5.401802435517311096e-02 -1.279791910201311111e-02 1.150560006499290466e-01 -8.067379891872406006e-02 1.675258949398994446e-02 2.821712289005517960e-03 7.521091029047966003e-03 -1.160511970520019531e-01 1.525752712041139603e-02 -3.763752803206443787e-02 -9.667038917541503906e-02 2.704330533742904663e-02 -1.238604709506034851e-01 5.103655159473419189e-02 -1.351478695869445801e-01 9.509157389402389526e-03 9.352284669876098633e-02 1.850273758172988892e-01 1.334246546030044556e-01 2.982654422521591187e-02 4.567230120301246643e-03 -4.944317415356636047e-02 2.021075226366519928e-02 -7.008597999811172485e-02 1.067349538207054138e-01 1.437664479017257690e-01 6.522107124328613281e-02 -3.155935555696487427e-02 4.512189701199531555e-02 -1.808541566133499146e-01 4.434756468981504440e-03 -1.696969568729400635e-02 -3.030921705067157745e-02 9.450230002403259277e-02 1.682168543338775635e-01 -9.354410320520401001e-02 1.024528741836547852e-01 -3.062646836042404175e-02 -5.043209344148635864e-02 2.469144947826862335e-02 5.440362263470888138e-03 2.436726167798042297e-02 -2.259139902889728546e-02 9.380017966032028198e-02 -4.409542307257652283e-02
2.581275254487991333e-02 2.367626875638961792e-02 -1.718082129955291748e-01 -1.644921004772186279e-01 -1.819769889116287231e-01 -8.594100177288055420e-02 5.882680416107177734e-02 1.728625893592834473e-01 -1.635837852954864502e-01 -2.058150246739387512e-02 2.067665010690689087e-02 8.619966683909296989e-04 -3.507186099886894226e-02 -1.020770594477653503e-01 5.855466052889823914e-02 -4.859272763133049011e-02 -1.746161282062530518e-01 1.799466274678707123e-02 3.242239356040954590e-02 3.021844103932380676e-02 -1.237598657608032227e-01 -2.462778240442276001e-02 1.134041976183652878e-02 -3.140870481729507446e-02 -1.447197645902633667e-01 7.424419373273849487e-02 4.515211656689643860e-02 5.942771583795547485e-02 -1.046006903052330017e-01 1.492961030453443527e-02 -1.302827745676040649e-01 -3.860794380307197571e-02 1.593440473079681396e-01 -1.430752724409103394e-01 -5.250673741102218628e-02 -2.745479717850685120e-02 6.507664918899536133e-02 5.225008726119995117e-02 4.350005090236663818e-02 3.752820938825607300e-02 -5.261824652552604675e-02 1.276593655347824097e-01 5.290206149220466614e-02 -1.550160720944404602e-02 2.220081165432929993e-03 4.476518183946609497e-02 -9.720519185066223145e-02 -1.308914739638566971e-02 1.265341192483901978e-01 2.195399440824985504e-02 -4.501284658908843994e-02 1.839056983590126038e-02 2.438186667859554291e-02 2.722340635955333710e-02 1.434207148849964142e-02 1.013310719281435013e-02 8.430990576744079590e-02 1.654418706893920898e-01
-1.166350170969963074e-01 -2.749168574810028076e-01 -1.146304085850715637e-01 -1.538861840963363647e-01 -1.093067824840545654e-01 1.533075608313083649e-02 -2.803419157862663269e-02 1.990823745727539062e-01 -4.552421346306800842e-02 -1.671510338783264160e-01 -7.913368940353393555e-02 -7.424068450927734375e-02 8.999186009168624878e-02 -8.209495991468429565e-02 -5.729556828737258911e-02 -5.211352929472923279e-02 5.604383721947669983e-02 1.172989457845687866e-01 1.095437929034233093e-01 -1.412871181964874268e-01 8.042173832654953003e-02 -7.979831570992246270e-05 -4.288072232156991959e-03 -3.421534318476915359e-03 -4.074436798691749573e-02 2.579589746892452240e-02 4.526181891560554504e-02 -4.886254295706748962e-02 -2.501443028450012207e-02 2.754138037562370300e-02 1.684818603098392487e-02 8.880437910556793213e-02 3.018126823008060455e-02 1.695888042449951172e-01 -3.274238482117652893e-02 1.712847128510475159e-02 -6.796780973672866821e-02 -1.095563638955354691e-02 -3.902357816696166992e-02 4.878741502761840820e-02 2.659313194453716278e-02 1.103911623358726501e-01 2.771736979484558105e-01 1.782475709915161133e-01 1.235039308667182922e-01 6.255272775888442993e-02 -2.432876825332641602e-02 -9.998179227113723755e-02 7.249730825424194336e-02 -6.342058628797531128e-02 3.828877815976738930e-04 -8.361670188605785370e-04 -3.568146750330924988e-02 1.577316224575042725e-02 -3.152121976017951965e-02 -1.129847019910812378e-02 -5.882606655359268188e-02 -7.041101902723312378e-02
-2.119747251272201538e-01 -1.848580390214920044e-01 8.404766023159027100e-02 -2.346637099981307983e-01 1.705191731452941895e-01 -4.966731369495391846e-02 -7.900030352175235748e-03 -2.719834446907043457e-01 -1.334627121686935425e-01 -1.014784257858991623e-02 7.062605023384094238e-02 2.846185304224491119e-02 9.217512607574462891e-02 -1.796443164348602295e-01 1.319195777177810669e-01 2.369525469839572906e-02 -2.058597281575202942e-02 1.047234684228897095e-01 7.708167191594839096e-03 1.705184020102024078e-02 -2.566993050277233124e-02 7.338388264179229736e-02 -8.755565620958805084e-03 9.438699483871459961e-02 7.798511534929275513e-02 8.667135238647460938e-02 3.338008373975753784e-02 5.774334445595741272e-02 -1.432489138096570969e-02 9.285616874694824219e-02 1.834993511438369751e-01 -5.991039797663688660e-02 2.199245430529117584e-02 -4.102024435997009277e-02 -7.034026784822344780e-04 5.352559685707092285e-02 4.328135401010513306e-03 4.589198529720306396e-02 5.602976679801940918e-02 -1.092402357608079910e-02 3.469732403755187988e-02 -8.374061435461044312e-02 4.488089680671691895e-02 1.942043602466583252e-01 -9.897226840257644653e-02 -5.577752366662025452e-02 -2.831899933516979218e-02 2.842197380959987640e-02 -5.014327913522720337e-02 -7.998789101839065552e-02 -1.521686613559722900e-01 -6.019451469182968140e-02 -4.364594817161560059e-02 -1.504751015454530716e-02 4.096436873078346252e-02 -7.110066711902618408e-02 -2.312626130878925323e-02 1.141600385308265686e-01
1.587985903024673462e-01 -2.901530265808105469e-01 -4.567146301269531250e-01 -2.861534953117370605e-01 -1.956526786088943481e-01 -6.574080139398574829e-02 7.541968673467636108e-02 2.045051157474517822e-01 7.229044288396835327e-02 7.952389866113662720e-02 8.378924429416656494e-02 4.970657639205455780e-03 -1.377648562192916870e-01 -2.983593195676803589e-02 5.964462831616401672e-02 8.341347426176071167e-02 1.025872156023979187e-01 -2.171272784471511841e-02 -2.753697708249092102e-02 5.181296262890100479e-03 -2.117979377508163452e-01 1.406116336584091187e-01 -6.646835803985595703e-02 1.125107780098915100e-01 5.889467895030975342e-02 4.094666987657546997e-02 1.503846421837806702e-02 -7.975562661886215210e-02 -3.433960080146789551e-01 8.835858851671218872e-02 -1.046448573470115662e-01 -9.302935749292373657e-02 3.987071663141250610e-02 3.191384673118591309e-02 -6.735275685787200928e-02 -4.182559251785278320e-02 -8.227560669183731079e-02 -5.321238562464714050e-02 5.827092751860618591e-02 -1.321825385093688965e-02 -5.326895043253898621e-02 -1.158514432609081268e-02 8.563111536204814911e-03 -7.304904609918594360e-02 -2.553821913897991180e-02 -2.793718874454498291e-02 -4.315684549510478973e-03 -9.181445464491844177e-03 -2.494174428284168243e-02 1.729258708655834198e-02 2.206619363278150558e-03 -2.908017672598361969e-02 -9.236322715878486633e-03 4.288167506456375122e-02 1.090342774987220764e-01 -8.107373863458633423e-02 -1.002235617488622665e-02 2.625816874206066132e-02
6.984214484691619873e-02 -7.433979958295822144e-02 5.352661013603210449e-01 1.943291425704956055e-01 4.486028477549552917e-02 -3.227448835968971252e-02 1.231339573860168457e-01 2.269389331340789795e-01 1.440933942794799805e-01 -3.668058663606643677e-02 8.149078488349914551e-02 -1.429187715984880924e-03 2.018021652474999428e-03 -2.546034194529056549e-02 8.383464068174362183e-02 -5.579204112291336060e-02 2.150180935859680176e-02 -1.358923036605119705e-02 2.278627827763557434e-03 -4.727249965071678162e-03 -3.140276670455932617e-02 1.832503825426101685e-02 -3.115324536338448524e-03 2.223124355077743530e-02 1.654949970543384552e-02 3.932632878422737122e-02 1.364225428551435471e-02 -3.804549947381019592e-02 2.085521072149276733e-01 -1.503245234489440918e-01 -2.077886164188385010e-01 2.081135660409927368e-01 1.610045880079269409e-01 -6.307412683963775635e-02 5.801701918244361877e-03 3.315890580415725708e-02 9.465208649635314941e-02 3.292983397841453552e-02 5.265785846859216690e-03 -3.922121832147240639e-04 3.117852844297885895e-02 4.268791899085044861e-02 -3.244386985898017883e-02 -2.998923882842063904e-02 4.152041301131248474e-02 -1.201820094138383865e-02 -2.583883330225944519e-02 4.962590709328651428e-02 -1.339947432279586792e-01 -3.085023909807205200e-02 -3.800291195511817932e-02 -3.158007282763719559e-03 -2.007534727454185486e-02 -1.058940496295690536e-02 4.430356901139020920e-03 -8.816595189273357391e-03 1.122008729726076126e-02 -2.227839678525924683e-01
5.083705112338066101e-02 3.195112049579620361e-01 -3.566661104559898376e-02 1.755405962467193604e-01 -1.906318813562393188e-01 5.972527712583541870e-02 3.983526304364204407e-02 -1.015946641564369202e-01 -1.274497341364622116e-02 8.022625744342803955e-02 -1.444491557776927948e-02 3.284826874732971191e-02 -2.456340007483959198e-02 8.535242825746536255e-02 -7.780116796493530273e-02 -8.287469297647476196e-02 6.274264887906610966e-04 2.712109312415122986e-02 2.861161157488822937e-02 -1.204233430325984955e-02 3.207298694178462029e-03 -8.027365058660507202e-02 5.397100374102592468e-02 1.529115438461303711e-01 3.205096721649169922e-02 2.365271933376789093e-02 -8.056762814521789551e-02 -7.833555340766906738e-02 9.602957218885421753e-02 -1.057067606598138809e-02 -1.323336511850357056e-01 -5.394686385989189148e-02 -1.700381282716989517e-03 -2.613323274999856949e-03 9.456423670053482056e-02 9.245853126049041748e-02 -4.328233376145362854e-02 -9.229040890932083130e-02 4.299432784318923950e-02 -4.457627609372138977e-02 -3.108442574739456177e-02 -7.509143650531768799e-02 -3.423732519149780273e-02 -6.140618585050106049e-03 -1.582260802388191223e-02 -5.925546586513519287e-02 -8.146376349031925201e-03 -8.075925521552562714e-03 -1.172704100608825684e-01 -2.527825906872749329e-02 -1.250022500753402710e-01 -7.922903634607791901e-03 6.549789756536483765e-02 6.240792945027351379e-02 -2.601322159171104431e-02 -2.743150852620601654e-02 4.922800231724977493e-03 7.782730460166931152e-02
-6.305902265012264252e-03 -2.315287590026855469e-01 1.821329146623611450e-01 -6.492763757705688477e-02 4.391424059867858887e-01 9.104838967323303223e-02 -2.643993683159351349e-02 -6.440844386816024780e-02 -3.889116644859313965e-02 2.326208911836147308e-02 6.072055548429489136e-02 -7.878077030181884766e-02 1.189684644341468811e-01 2.403934895992279053e-01 -3.180659562349319458e-02 1.742229014635086060e-01 -7.905547320842742920e-02 8.295027911663055420e-02 6.671712617389857769e-04 -9.481409937143325806e-02 3.821467235684394836e-02 -8.964169025421142578e-02 -3.727344423532485962e-02 -7.661595195531845093e-02 -7.630911469459533691e-02 -2.485970966517925262e-02 8.763883262872695923e-02 2.717163972556591034e-02 -1.916484534740447998e-01 2.830973640084266663e-02 -1.331652142107486725e-02 1.323596835136413574e-01 2.413463033735752106e-02 1.122681125998497009e-01 2.274345979094505310e-02 -5.108574405312538147e-02 -5.910706892609596252e-02 7.526105735450983047e-03 -1.332260295748710632e-02 -2.560766972601413727e-02 -1.025285385549068451e-02 -1.012537255883216858e-01 -1.665096729993820190e-02 1.133678629994392395e-01 -2.681809291243553162e-02 1.932777650654315948e-02 1.968186348676681519e-01 -6.090410053730010986e-02 -1.206337511539459229e-01 1.958019658923149109e-02 2.673653140664100647e-02 9.176593273878097534e-02 -2.800703281536698341e-03 9.329108893871307373e-02 9.187729656696319580e-02 -1.061727758496999741e-02 6.129831448197364807e-02 -5.733773112297058105e-02
-9.726247750222682953e-03 1.948952525854110718e-01 4.035480320453643799e-02 1.492472440004348755e-01 -1.185408532619476318e-01 -8.601137250661849976e-02 1.958656124770641327e-03 -1.256782910786569118e-03 -2.300479216501116753e-03 -5.890619754791259766e-02 -1.035838499665260315e-01 1.590468138456344604e-01 -4.611464217305183411e-02 -1.658557951450347900e-01 -6.638476252555847168e-02 1.498988568782806396e-01 -4.444567114114761353e-02 3.592709079384803772e-02 -9.371627867221832275e-02 -1.358392648398876190e-02 -1.422377228736877441e-01 -2.485138736665248871e-02 1.326762046664953232e-02 -2.612016908824443817e-02 -9.487635642290115356e-02 6.058030202984809875e-02 -7.519079837948083878e-03 -9.768564254045486450e-02 1.025692448019981384e-01 1.547286193817853928e-02 1.626529842615127563e-01 1.150899305939674377e-01 -1.184789687395095825e-01 5.430594831705093384e-02 8.267506025731563568e-03 5.444673821330070496e-02 -8.160191774368286133e-02 -2.880787663161754608e-02 -7.939717173576354980e-02 -4.537116736173629761e-02 7.464876025915145874e-02 -5.155058577656745911e-02 -1.071626245975494385e-01 -8.961412310600280762e-02 -1.244901195168495178e-01 3.768889605998992920e-02 -1.866957545280456543e-02 -1.989300362765789032e-02 -6.420966982841491699e-02 1.088872775435447693e-01 -2.875288389623165131e-02 -1.560015790164470673e-02 3.958258405327796936e-02 3.705751523375511169e-02 6.534168124198913574e-02 -6.657975725829601288e-03 5.964364856481552124e-02 9.274559468030929565e-02
2.067681252956390381e-01 2.502022385597229004e-01 -9.068373590707778931e-02 1.836244463920593262e-01 -1.016616821289062500e-01 2.130281366407871246e-02 -9.325575828552246094e-02 1.595186591148376465e-01 9.291850775480270386e-02 1.607582904398441315e-02 -6.121278926730155945e-02 -8.593942970037460327e-03 6.897547282278537750e-04 -1.206679493188858032e-01 4.520528391003608704e-02 5.462282523512840271e-02 -2.771181287243962288e-03 5.544279143214225769e-02 -7.430521398782730103e-02 -6.626078486442565918e-02 -7.905107736587524414e-02 -2.552030421793460846e-02 3.586382046341896057e-02 -9.079433232545852661e-02 -6.916737556457519531e-02 -4.807113856077194214e-02 1.743877120316028595e-02 -8.295314386487007141e-03 6.680819392204284668e-02 3.549888357520103455e-02 8.930007368326187134e-02 -4.628071933984756470e-02 6.489878892898559570e-02 -3.594562411308288574e-02 4.239191487431526184e-02 -1.871689409017562866e-02 -8.513465523719787598e-02 4.939798638224601746e-02 -7.141040265560150146e-02 -5.364764947444200516e-03 -5.906048417091369629e-02 -1.187819018959999084e-01 3.772731497883796692e-02 2.359802275896072388e-02 -1.231863908469676971e-02 7.618895173072814941e-02 6.969537935219705105e-04 1.179450005292892456e-01 -1.851710863411426544e-02 4.714198410511016846e-02 4.531118273735046387e-02 2.328909933567047119e-02 -1.176627259701490402e-02 -7.368606328964233398e-02 7.694013416767120361e-02 7.261809706687927246e-02 -1.625468023121356964e-02 3.477470204234123230e-02
-6.692679226398468018e-02 1.668335050344467163e-01 -9.424367547035217285e-02 -8.231037855148315430e-02 -1.269160956144332886e-01 -3.212613984942436218e-02 -1.451280340552330017e-02 1.866678893566131592e-01 -7.123968750238418579e-02 -6.907905638217926025e-02 -7.655501365661621094e-02 -1.739493571221828461e-03 1.242878511548042297e-01 1.417627930641174316e-01 -1.815474405884742737e-02 -9.112949669361114502e-02 -1.007821485400199890e-01 -2.305443584918975830e-02 -1.197347044944763184e-02 -1.220556069165468216e-02 -5.514146760106086731e-02 3.845891356468200684e-02 6.882954388856887817e-02 4.626161605119705200e-02 -2.177906930446624756e-01 1.856258064508438110e-01 4.451044835150241852e-03 -1.535470783710479736e-01 6.778001040220260620e-02 1.698815822601318359e-01 5.311038717627525330e-02 1.457372028380632401e-02 1.131790280342102051e-01 1.170344874262809753e-01 8.623068034648895264e-02 -2.854860201478004456e-02 -1.263147890567779541e-01 -5.544837564229965210e-02 5.413462349679321051e-05 -2.092512324452400208e-02 -1.360973343253135681e-02 2.532519213855266571e-02 3.421806916594505310e-02 7.678255438804626465e-02 6.811999529600143433e-02 2.856810204684734344e-02 1.493809223175048828e-01 9.088608622550964355e-02 -2.222762256860733032e-02 2.980652265250682831e-02 7.091050967574119568e-03 -7.883755117654800415e-02 -8.939230814576148987e-03 2.588914521038532257e-02 6.989144533872604370e-02 -1.382027100771665573e-02 6.392879039049148560e-02 -3.781233727931976318e-02
-5.451210960745811462e-02 4.471610113978385925e-02 -1.425583362579345703e-01 -2.723851203918457031e-01 -4.514368623495101929e-02 -4.204781726002693176e-02 -7.402792572975158691e-02 -2.031577378511428833e-01 -2.239869534969329834e-01 1.757773458957672119e-01 -3.616541251540184021e-02 2.816892974078655243e-02 -4.130174219608306885e-02 -1.782272905111312866e-01 -1.158120036125183105e-01 -5.130267888307571411e-02 -1.358206104487180710e-02 4.322809632867574692e-03 -1.816563121974468231e-02 -2.676591277122497559e-02 -4.181890562176704407e-02 9.248600900173187256e-02 -7.250584661960601807e-03 2.804113179445266724e-02 5.840584263205528259e-02 3.025595471262931824e-02 1.851643435657024384e-02 5.292237550020217896e-02 -3.088891804218292236e-01 1.100385934114456177e-01 8.111549168825149536e-02 -2.180949412286281586e-02 -3.319179117679595947e-01 5.611455440521240234e-02 9.621748700737953186e-03 4.105407744646072388e-03 -6.645869463682174683e-02 2.134197019040584564e-02 -4.058608040213584900e-02 7.081084884703159332e-03 2.218415588140487671e-02 -1.842220313847064972e-02 -7.392983138561248779e-02 -3.018357791006565094e-02 -2.608002861961722374e-03 -2.229063538834452629e-03 2.431441098451614380e-02 -1.533613502979278564e-01 -4.478179384022951126e-03 3.877490758895874023e-02 2.119749784469604492e-02 -2.513030357658863068e-02 1.836120337247848511e-02 -2.155479043722152710e-02 -1.562581956386566162e-02 -1.736710965633392334e-02 -2.523019351065158844e-02 1.244826093316078186e-01
-7.119701709598302841e-03 -8.114657551050186157e-02 -1.894577741622924805e-01 -2.394709438085556030e-01 -5.744096264243125916e-02 -9.269914031028747559e-02 -1.901983618736267090e-01 -2.870362997055053711e-01 -3.809116482734680176e-01 -3.316785022616386414e-02 -7.096714526414871216e-02 -6.910850107669830322e-02 5.839855223894119263e-02 -1.345048397779464722e-01 1.317172963172197342e-02 -6.562095368281006813e-04 3.841409087181091309e-02 -2.058519423007965088e-02 5.426638200879096985e-02 8.475036360323429108e-03 -8.795297890901565552e-02 -9.489118307828903198e-02 6.762208789587020874e-02 -1.082929968833923340e-01 -1.322119869291782379e-02 1.304784556850790977e-03 -6.543275713920593262e-02 1.852090843021869659e-02 -2.528202831745147705e-01 -9.519183076918125153e-03 1.474148929119110107e-01 -1.095230430364608765e-01 -1.141180768609046936e-01 3.977495071012526751e-04 -7.143232226371765137e-02 -5.221416428685188293e-02 4.327943921089172363e-02 3.824504092335700989e-02 -6.090538203716278076e-02 8.831862360239028931e-03 6.213212758302688599e-02 -3.732647746801376343e-02 -9.040014445781707764e-02 3.884689137339591980e-02 2.993274293839931488e-02 -9.959210455417633057e-02 -3.370610252022743225e-02 -4.903119802474975586e-02 -1.595899835228919983e-02 4.662821814417839050e-02 2.862113341689109802e-02 -2.426582574844360352e-02 3.545987978577613831e-02 3.017306327819824219e-03 -5.136392544955015182e-03 -1.284632738679647446e-02 -5.339429713785648346e-03 -7.999541610479354858e-02
9.276833385229110718e-02 5.175591111183166504e-01 -2.422861196100711823e-02 1.461988836526870728e-01 1.369903385639190674e-01 8.751633018255233765e-02 1.326889544725418091e-01 1.683582365512847900e-02 -8.969800174236297607e-02 6.910506635904312134e-02 3.733406215906143188e-02 -6.382038444280624390e-02 -6.905633490532636642e-03 5.553506687283515930e-02 -4.961689561605453491e-02 1.442007124423980713e-01 -3.545164689421653748e-02 8.610417693853378296e-02 3.442898765206336975e-02 4.987239371985197067e-03 -1.248504500836133957e-02 2.457321435213088989e-02 -4.773270338773727417e-02 -2.373052574694156647e-02 -2.043276280164718628e-02 2.692963555455207825e-02 -1.383992098271846771e-02 -2.952081523835659027e-02 9.105282835662364960e-03 4.255780950188636780e-02 1.457605063915252686e-01 -1.055118516087532043e-01 -3.759754076600074768e-02 1.520167849957942963e-02 1.970685087144374847e-02 -4.375850036740303040e-02 1.010748967528343201e-01 1.449010521173477173e-01 -6.262639909982681274e-02 -5.028850957751274109e-02 -5.408620834350585938e-02 -4.833884164690971375e-02 6.378772854804992676e-02 6.921690702438354492e-02 -5.597007647156715393e-02 4.461273923516273499e-02 -3.557199612259864807e-02 -3.321546688675880432e-02 -4.324204102158546448e-02 5.005439743399620056e-02 2.614472620189189911e-02 5.715616047382354736e-03 1.390347752021625638e-04 -1.888294331729412079e-02 -2.730370499193668365e-02 -4.792565852403640747e-02 3.540391474962234497e-02 -5.798165500164031982e-02
-3.159990161657333374e-02 -1.797378659248352051e-01 3.055211305618286133e-01 4.895507544279098511e-02 1.191083714365959167e-01 -1.342341024428606033e-02 2.261256575584411621e-01 8.503950387239456177e-02 -2.753309607505798340e-01 -2.039329707622528076e-01 3.557580336928367615e-02 -1.532295066863298416e-02 -1.547082960605621338e-01 2.076997011899948120e-01 1.678655296564102173e-01 1.062819212675094604e-01 -4.241689667105674744e-02 1.609685271978378296e-02 -3.941086679697036743e-02 -8.752673864364624023e-03 -1.291025727987289429e-01 -1.614743769168853760e-01 -5.645473487675189972e-03 1.546464487910270691e-02 -3.268013149499893188e-02 3.177480399608612061e-02 -2.560738287866115570e-02 2.978874370455741882e-02 5.948617681860923767e-02 -1.339618712663650513e-01 6.826858222484588623e-02 2.222071886062622070e-01 -8.795347809791564941e-02 3.793692588806152344e-02 -1.449926290661096573e-02 2.765862084925174713e-02 -8.325763046741485596e-02 7.835418730974197388e-02 8.639445155858993530e-02 -1.991153508424758911e-02 5.012179538607597351e-02 -8.930201642215251923e-03 -2.152857929468154907e-02 -7.614100724458694458e-02 -2.151530049741268158e-02 1.077527459710836411e-02 7.993956655263900757e-02 -1.713935472071170807e-02 -1.270315647125244141e-01 -3.546491637825965881e-02 2.916923724114894867e-03 -9.562181308865547180e-03 2.059078216552734375e-02 1.288276910781860352e-02 7.238099724054336548e-02 -1.066205091774463654e-02 -2.604729682207107544e-02 8.274853229522705078e-02
2.184551395475864410e-02 2.348610609769821167e-01 -2.688722452148795128e-03 2.131980657577514648e-01 -1.307597309350967407e-01 2.783058397471904755e-02 -6.440880894660949707e-02 -2.534746378660202026e-02 -1.224906072020530701e-01 1.586751826107501984e-02 -1.371717005968093872e-01 1.280988007783889771e-01 2.286795377731323242e-01 3.096145950257778168e-02 -2.630276605486869812e-03 1.195157393813133240e-01 -2.213463559746742249e-02 -2.404428645968437195e-02 5.194563418626785278e-03 7.667550444602966309e-02 1.207839027047157288e-01 -2.291515842080116272e-02 -1.506567001342773438e-02 1.568446606397628784e-01 -1.100793927907943726e-01 2.943037077784538269e-02 -2.356621623039245605e-02 -1.350450515747070312e-01 3.875759616494178772e-02 -5.904270801693201065e-03 3.501027449965476990e-02 -1.299816519021987915e-01 1.244216635823249817e-01 -1.541263889521360397e-02 5.458214506506919861e-02 -8.806457370519638062e-02 4.447595681995153427e-03 -1.840543746948242188e-02 1.228474974632263184e-01 2.338163740932941437e-02 7.021827623248100281e-03 -5.755181238055229187e-02 -2.968329470604658127e-03 6.039847433567047119e-02 -3.896282613277435303e-02 4.729863628745079041e-02 4.910465329885482788e-02 4.579428210854530334e-02 -1.404046267271041870e-02 -1.159967780113220215e-01 1.012339368462562561e-01 3.523462265729904175e-02 -8.448608964681625366e-02 3.140829131007194519e-02 -4.622407257556915283e-03 6.101911514997482300e-02 8.733083307743072510e-02 -1.617749184370040894e-01
1.550451014190912247e-02 -1.982948742806911469e-02 8.916541934013366699e-02 6.171618774533271790e-02 9.844526648521423340e-02 2.142655290663242340e-02 -1.123996526002883911e-01 -3.450326919555664062e-01 -1.448597460985183716e-01 2.546042576432228088e-02 -5.776183679699897766e-02 -4.605424404144287109e-02 -5.007033422589302063e-02 -1.647402048110961914e-01 -3.124345652759075165e-02 -4.786472767591476440e-02 -1.271365908905863762e-03 -3.422307968139648438e-02 2.105130068957805634e-02 -8.714720606803894043e-02 5.030672624707221985e-02 4.429268091917037964e-02 -4.203100875020027161e-02 -4.511637985706329346e-02 2.494422532618045807e-02 -1.080551147460937500e-01 6.417854875326156616e-02 -3.719060868024826050e-02 1.624529361724853516e-01 3.030635416507720947e-02 -8.617486804723739624e-02 -1.324391085654497147e-02 9.177193045616149902e-02 1.036772653460502625e-01 6.784003973007202148e-02 2.620753459632396698e-02 4.211185872554779053e-02 -1.700852364301681519e-01 2.696701698005199432e-02 -5.744279548525810242e-02 -1.919725351035594940e-02 1.378263067454099655e-02 2.900131419301033020e-02 -9.231808781623840332e-02 4.205817729234695435e-02 -8.287430740892887115e-03 1.260880474001169205e-02 1.183875426650047302e-01 4.776718094944953918e-02 -1.450743805617094040e-02 4.970112442970275879e-02 -4.581361263990402222e-02 5.094356834888458252e-02 -3.612082451581954956e-02 -1.823063008487224579e-02 4.410458728671073914e-02 -2.404892258346080780e-02 3.522395342588424683e-02
-1.121600866317749023e-01 -3.808229789137840271e-02 -2.619412839412689209e-01 -2.380193769931793213e-01 -1.091693788766860962e-01 -6.074247881770133972e-02 2.628206647932529449e-02 -1.560682505369186401e-01 7.183656096458435059e-02 8.799177408218383789e-02 -4.143706709146499634e-02 5.421052873134613037e-02 -1.518961042165756226e-01 -2.693303227424621582e-01 -1.613601148128509521e-01 -1.027873679995536804e-01 -2.872271649539470673e-02 -2.935415692627429962e-02 5.781128071248531342e-03 2.514007315039634705e-02 1.572793349623680115e-02 -8.206567913293838501e-02 1.329331425949931145e-03 3.605161607265472412e-02 -5.815337970852851868e-02 -8.719735778868198395e-03 -6.774386391043663025e-03 1.294403150677680969e-02 -4.536241292953491211e-01 8.460019528865814209e-02 -9.807237237691879272e-02 -2.106348425149917603e-01 -1.634282171726226807e-01 -3.146714717149734497e-02 -9.295505285263061523e-02 -4.790549725294113159e-02 3.465995658189058304e-03 1.384105812758207321e-02 3.191998926922678947e-03 -9.718105866340920329e-05 -2.234171517193317413e-02 -2.751911233644932508e-04 3.583060204982757568e-02 -6.604739278554916382e-02 5.997539497911930084e-03 -2.224738895893096924e-02 -2.243058755993843079e-02 -1.605592519044876099e-01 1.308186948299407959e-01 3.349243104457855225e-02 3.769395872950553894e-02 -4.901974927634000778e-03 2.609948627650737762e-02 3.546800464391708374e-02 -3.413060447201132774e-03 -3.473219275474548340e-02 3.504913300275802612e-03 -1.301983594894409180e-01
7.141514867544174194e-02 3.902828097343444824e-01 -1.296668201684951782e-01 6.842464208602905273e-02 2.542600035667419434e-01 6.038154289126396179e-02 -2.080635400488972664e-03 5.112767219543457031e-02 -1.297257244586944580e-01 4.822396207600831985e-03 -3.049596026539802551e-02 3.263756632804870605e-02 3.022912703454494476e-02 6.998323649168014526e-02 -1.516348496079444885e-02 -6.791811436414718628e-02 -6.040755659341812134e-02 -2.722329087555408478e-02 3.287696465849876404e-02 -2.845547161996364594e-02 7.488805055618286133e-02 1.811813190579414368e-02 2.106516994535923004e-02 -6.716403365135192871e-02 9.037230163812637329e-02 1.219451986253261566e-02 -9.145306795835494995e-02 -1.204982493072748184e-02 3.976317867636680603e-02 -4.399516154080629349e-03 -3.994092345237731934e-02 -3.542711213231086731e-02 5.665809661149978638e-02 -1.096386611461639404e-01 -2.440287172794342041e-02 3.261004388332366943e-02 1.693187095224857330e-02 8.442722260951995850e-02 5.784321110695600510e-03 6.595624238252639771e-02 -1.196159608662128448e-02 -8.519818633794784546e-02 8.916411548852920532e-02 9.805518388748168945e-02 -2.716649137437343597e-02 4.547940194606781006e-02 -2.664279378950595856e-02 1.749037392437458038e-02 4.681221023201942444e-02 -2.762098424136638641e-02 8.972908370196819305e-03 -2.168146148324012756e-02 -6.800938397645950317e-02 2.786408737301826477e-02 4.143175482749938965e-02 6.144603714346885681e-02 -8.049603551626205444e-02 -7.369833532720804214e-03
-7.327690254896879196e-03 3.515989482402801514e-01 -9.686744958162307739e-02 2.063775993883609772e-02 1.946707516908645630e-01 -9.142714738845825195e-02 -2.210508659482002258e-02 -5.972045660018920898e-02 5.213234573602676392e-02 -3.612983226776123047e-02 6.981279700994491577e-03 6.407377123832702637e-02 4.086063057184219360e-02 3.614760190248489380e-02 1.610297858715057373e-01 -3.198900446295738220e-02 -5.804181564599275589e-04 1.007995456457138062e-01 -1.516342815011739731e-02 -2.313550561666488647e-02 1.437351256608963013e-01 5.500949919223785400e-02 8.201736956834793091e-02 -6.806025654077529907e-02 -4.670342803001403809e-02 1.059746295213699341e-01 6.923152506351470947e-02 -6.317220628261566162e-02 1.197092160582542419e-01 -7.150196284055709839e-02 1.234999112784862518e-02 -2.029228769242763519e-02 -8.105687052011489868e-02 -1.941280998289585114e-02 4.601705446839332581e-02 5.953120812773704529e-02 -6.157966330647468567e-02 4.706380888819694519e-03 -5.440183728933334351e-02 -2.823774330317974091e-02 -2.338267490267753601e-02 -6.325625628232955933e-02 -6.501637399196624756e-02 -2.877788059413433075e-02 3.048468567430973053e-02 -1.841663941740989685e-02 -8.256353437900543213e-02 -1.144233420491218567e-01 1.643524877727031708e-02 4.905914887785911560e-03 5.183070898056030273e-03 1.942626014351844788e-02 6.375470012426376343e-02 2.914891578257083893e-02 -3.332873061299324036e-02 -2.833831356838345528e-03 3.839541599154472351e-02 1.147855445742607117e-01
1.313496939837932587e-02 -1.157133951783180237e-01 4.122555255889892578e-01 5.738991126418113708e-02 3.434045910835266113e-01 2.058822959661483765e-01 1.011487767100334167e-01 1.946264645084738731e-03 -8.257155120372772217e-02 -3.499106317758560181e-02 5.878963321447372437e-02 4.026897251605987549e-02 -3.002491034567356110e-02 3.340195715427398682e-01 6.395611166954040527e-02 8.855740725994110107e-02 8.465205132961273193e-02 -7.089452445507049561e-02 3.175250440835952759e-02 -1.410877145826816559e-02 -9.821053594350814819e-03 3.901747241616249084e-02 3.863973915576934814e-02 -2.583224140107631683e-02 5.173273384571075439e-02 3.330787643790245056e-02 3.375415876507759094e-02 5.449860170483589172e-02 -1.674777269363403320e-01 -1.579915285110473633e-01 4.674277082085609436e-02 6.891754269599914551e-02 1.941910535097122192e-01 2.696187049150466919e-02 4.384882748126983643e-02 3.801808133721351624e-02 3.467417554929852486e-03 5.089199542999267578e-02 -2.369493059813976288e-02 -3.073018044233322144e-02 4.894768819212913513e-02 -6.150867417454719543e-02 6.861597299575805664e-02 -2.478078380227088928e-02 -1.325173676013946533e-02 -3.470112755894660950e-02 3.057935461401939392e-02 6.767152249813079834e-02 -3.624622896313667297e-02 -3.493583574891090393e-02 2.923141466453671455e-03 5.166554078459739685e-02 1.023573148995637894e-02 -3.812482208013534546e-02 -2.385492250323295593e-02 7.483556866645812988e-02 2.652932889759540558e-02 2.959804534912109375e-01
2.053513377904891968e-01 -7.169862091541290283e-02 -1.493876427412033081e-01 -3.285084366798400879e-01 -3.402761742472648621e-02 8.690439164638519287e-03 -1.034081205725669861e-01 -4.179881513118743896e-01 -1.187550947070121765e-01 -1.183400582522153854e-02 5.198453739285469055e-02 2.352771908044815063e-02 5.066734924912452698e-02 4.475174937397241592e-03 -2.608420513570308685e-02 -1.233192309737205505e-01 8.182962238788604736e-02 -2.787465043365955353e-02 -4.596395045518875122e-02 -2.114278730005025864e-03 3.698220476508140564e-02 1.421905774623155594e-02 -1.648327708244323730e-02 -5.697448505088686943e-04 1.150265932083129883e-01 -2.190587483346462250e-02 3.690506890416145325e-02 4.223504289984703064e-02 -1.846414357423782349e-01 1.738682538270950317e-01 2.058423459529876709e-01 -5.776339769363403320e-02 -2.266048491001129150e-01 -4.893454164266586304e-02 -2.575062448158860207e-03 -5.590109527111053467e-02 4.425995051860809326e-03 -9.497856348752975464e-02 -4.872562567470595241e-05 -1.576275378465652466e-02 -3.518017381429672241e-02 1.104282028973102570e-02 -3.033029660582542419e-02 -7.585937157273292542e-03 3.107127733528614044e-02 -2.326065860688686371e-02 -6.252828985452651978e-02 -6.380514800548553467e-02 -1.920927315950393677e-02 1.032138708978891373e-02 5.729155614972114563e-02 -2.464066445827484131e-02 2.293545007705688477e-02 -9.903653711080551147e-02 1.442528795450925827e-03 -1.558282878249883652e-02 -1.058256626129150391e-02 5.699428915977478027e-02
-1.689741015434265137e-01 -9.648168459534645081e-03 -5.278298854827880859e-01 -3.464791476726531982e-01 -3.753487952053546906e-03 -4.915271326899528503e-02 -3.267069905996322632e-02 -3.920417428016662598e-01 -9.931930154561996460e-02 1.332429889589548111e-02 -8.792842179536819458e-02 4.161826521158218384e-02 4.249506443738937378e-02 -1.336858570575714111e-01 -8.550376445055007935e-02 -7.655539363622665405e-02 5.789233744144439697e-02 4.281651973724365234e-02 -6.090822070837020874e-02 3.664296492934226990e-02 -3.513365238904953003e-02 -4.868790879845619202e-02 2.084096893668174744e-03 -5.348528549075126648e-02 4.851735755801200867e-02 1.843578368425369263e-02 -1.006376463919878006e-02 -1.398974936455488205e-02 -1.181434541940689087e-01 1.057726740837097168e-01 1.526956111192703247e-01 -6.275965273380279541e-02 -2.458672076463699341e-01 4.662740975618362427e-02 -2.058365382254123688e-02 -4.916296806186437607e-03 2.763830311596393585e-02 5.585083737969398499e-02 -4.843535646796226501e-02 3.797450289130210876e-02 2.617728710174560547e-02 -5.577800422906875610e-02 -5.178527534008026123e-02 3.166661784052848816e-02 -2.355777658522129059e-02 -2.528193220496177673e-02 2.792300470173358917e-02 -1.505988687276840210e-01 2.053696289658546448e-02 4.058517515659332275e-02 1.717522926628589630e-02 -8.751564659178256989e-03 1.242176163941621780e-02 1.698675379157066345e-02 -1.570261083543300629e-03 -7.564760278910398483e-03 3.221264109015464783e-02 -4.056115821003913879e-02
-4.572119936347007751e-02 -3.820559009909629822e-02 1.885589957237243652e-01 -2.575265765190124512e-01 1.318007111549377441e-01 -4.137847945094108582e-02 -1.708734314888715744e-03 -9.739872813224792480e-02 -1.920314878225326538e-01 -7.461977005004882812e-02 -4.453783854842185974e-02 2.426651678979396820e-02 9.662102162837982178e-02 -2.229206264019012451e-01 -1.496665775775909424e-01 7.715573906898498535e-02 2.050649188458919525e-02 -3.004797268658876419e-03 -1.407425943762063980e-02 6.292922422289848328e-03 4.902261495590209961e-02 -4.599449783563613892e-02 -1.390994060784578323e-02 -3.607888892292976379e-02 -7.518252730369567871e-02 -9.738559834659099579e-03 -1.897327951155602932e-03 -6.035481393337249756e-02 -2.281587421894073486e-01 -2.926819324493408203e-01 2.222924828529357910e-01 2.110421955585479736e-01 -2.889910340309143066e-01 4.714634269475936890e-02 3.523869067430496216e-02 7.035227958112955093e-03 -5.157817155122756958e-02 3.776064515113830566e-02 -7.128098513931035995e-03 5.506858229637145996e-03 4.172497987747192383e-02 5.501852557063102722e-02 -4.082926549017429352e-03 -1.823620870709419250e-02 -2.433783002197742462e-02 1.730085536837577820e-02 8.120592683553695679e-02 -1.098265796899795532e-01 -8.076283335685729980e-02 1.145065296441316605e-02 2.925096824765205383e-02 2.749980986118316650e-02 -1.082016038708388805e-03 9.592812508344650269e-03 -7.523118518292903900e-03 4.865572229027748108e-02 1.453303638845682144e-02 1.757936775684356689e-01
5.085207894444465637e-02 -1.250578612089157104e-01 4.107394814491271973e-01 2.872398495674133301e-01 3.087479807436466217e-02 1.040624380111694336e-01 2.223472446203231812e-01 5.753717571496963501e-02 -5.887550115585327148e-02 -2.680263295769691467e-02 -3.802901133894920349e-02 2.176995761692523956e-02 -1.546029467135667801e-02 1.802940964698791504e-01 1.644449234008789062e-01 3.896468132734298706e-02 1.754754595458507538e-02 -3.796304017305374146e-02 -1.690132892690598965e-03 -6.076839193701744080e-02 -2.596682496368885040e-02 -1.244090497493743896e-02 1.245937496423721313e-02 -1.477266661822795868e-02 -1.092227548360824585e-01 1.014728471636772156e-01 -1.677232421934604645e-02 -8.746056258678436279e-02 2.058888226747512817e-01 -1.322998665273189545e-02 -2.407811582088470459e-03 2.016556262969970703e-01 1.061132177710533142e-01 4.032929986715316772e-02 7.113656401634216309e-02 8.288943767547607422e-02 4.068341851234436035e-02 3.127898648381233215e-02 5.461800470948219299e-02 4.889690876007080078e-02 -1.071766018867492676e-02 -2.503894455730915070e-02 8.240293711423873901e-02 3.077274374663829803e-02 2.062075026333332062e-02 -1.713067758828401566e-03 1.837443746626377106e-02 2.624363079667091370e-02 -1.215404048562049866e-01 -1.707898802123963833e-03 7.211911492049694061e-03 1.813773810863494873e-02 1.602447405457496643e-02 3.729304671287536621e-02 -2.843597531318664551e-02 1.381690893322229385e-02 4.258400760591030121e-03 -5.078122019767761230e-02
1.092264428734779358e-01 1.624955683946609497e-01 1.530752982944250107e-02 -9.020741283893585205e-02 -2.736429683864116669e-02 -1.635452210903167725e-01 -1.397718340158462524e-01 1.503953039646148682e-01 -6.292735785245895386e-02 -4.153743758797645569e-02 5.211354419589042664e-02 -7.813804596662521362e-02 1.913346583023667336e-03 -9.706579893827438354e-02 -1.731092929840087891e-01 -6.074615195393562317e-02 -2.216187119483947754e-02 2.855435758829116821e-02 -7.296616584062576294e-02 -2.443187683820724487e-02 -1.416083872318267822e-01 8.644594997167587280e-02 3.081552125513553619e-02 -1.105284690856933594e-01 -1.798260211944580078e-01 -5.260455608367919922e-02 -3.178343549370765686e-02 2.919786237180233002e-02 -2.495287209749221802e-01 -1.633780775591731071e-03 -1.047055348753929138e-01 -8.502017706632614136e-02 6.540711969137191772e-02 2.699283324182033539e-02 4.561964049935340881e-02 2.183430828154087067e-03 6.436676532030105591e-02 7.682112604379653931e-02 6.037930399179458618e-02 -1.103889420628547668e-01 7.351742684841156006e-02 2.505724504590034485e-02 -2.243378758430480957e-02 -8.023144304752349854e-02 -5.439988453872501850e-04 2.653335779905319214e-02 9.680799394845962524e-02 1.125562861561775208e-01 9.507435560226440430e-02 -8.332039415836334229e-02 1.194301545619964600e-01 1.101534068584442139e-01 -1.047300081700086594e-02 -2.971036545932292938e-02 -1.937661133706569672e-02 -6.071583181619644165e-02 -3.560540080070495605e-02 2.188067324459552765e-02
-3.878533840179443359e-02 -2.246291786432266235e-01 1.924188733100891113e-01 -6.719707511365413666e-03 -5.512195825576782227e-02 -4.537268355488777161e-02 8.829340338706970215e-03 5.935061350464820862e-02 -2.233916195109486580e-03 -4.209836199879646301e-02 5.521153286099433899e-02 3.665951639413833618e-02 1.387563794851303101e-01 5.581656098365783691e-02 5.822960287332534790e-02 -9.046304970979690552e-02 1.171343326568603516e-01 8.010946959257125854e-02 2.155494294129312038e-04 4.194875061511993408e-02 -2.261381037533283234e-02 -5.294927209615707397e-02 7.911434024572372437e-02 -2.866187877953052521e-02 -4.279832169413566589e-02 -3.257542476058006287e-02 2.395975962281227112e-02 -3.543888451531529427e-04 4.263730347156524658e-01 -1.921788007020950317e-01 4.280753806233406067e-02 2.380477041006088257e-01 8.176270127296447754e-02 -7.211861759424209595e-02 -2.560794353485107422e-02 3.253980306908488274e-03 -1.235809735953807831e-02 2.199736237525939941e-02 -2.645450830459594727e-02 2.424591220915317535e-03 2.653020806610584259e-02 4.160060361027717590e-02 -6.395186483860015869e-02 -5.547181516885757446e-02 3.159733116626739502e-02 -1.546425744891166687e-02 2.298974804580211639e-02 1.036435216665267944e-01 -8.788242936134338379e-02 -4.036562889814376831e-02 -3.025390440598130226e-03 1.859254390001296997e-02 -2.464751712977886200e-02 3.870125114917755127e-02 5.496923625469207764e-02 3.401299938559532166e-03 1.379762496799230576e-02 1.861700266599655151e-01
-3.690383210778236389e-02 1.076716482639312744e-01 1.034066006541252136e-01 1.160380616784095764e-01 -3.162486851215362549e-01 4.762649536132812500e-02 -4.063144326210021973e-02 2.820178307592868805e-02 -1.330732088536024094e-02 -5.775531381368637085e-02 -2.672784030437469482e-03 4.437190666794776917e-02 1.591911762952804565e-01 -4.675614461302757263e-02 -1.282417178153991699e-01 1.129177734255790710e-01 4.400803893804550171e-02 9.799946844577789307e-02 8.805817365646362305e-02 -3.607949987053871155e-02 3.873141482472419739e-02 1.623901128768920898e-01 9.525927901268005371e-02 4.240565374493598938e-02 -1.399317234754562378e-01 -1.538479775190353394e-01 5.196733400225639343e-03 2.515717037022113800e-02 1.620664000511169434e-01 2.262477762997150421e-02 -2.263212762773036957e-02 1.326271295547485352e-01 -1.544209849089384079e-02 6.306620687246322632e-02 4.850858822464942932e-02 -2.463521063327789307e-02 8.259245008230209351e-02 5.435689166188240051e-02 -3.678604587912559509e-02 1.807750016450881958e-02 3.769046440720558167e-02 -4.831015318632125854e-02 1.328278928995132446e-01 1.621583849191665649e-02 1.616488210856914520e-02 -5.748191848397254944e-02 7.430784404277801514e-02 4.170360509306192398e-03 -3.874778002500534058e-02 -3.699602931737899780e-02 7.357960939407348633e-02 8.082076907157897949e-03 3.897833824157714844e-02 9.622942656278610229e-02 -2.955558337271213531e-02 6.680368632078170776e-02 9.234766662120819092e-02 1.100020948797464371e-02
-5.219512432813644409e-02 -9.769502282142639160e-02 5.127698779106140137e-01 7.523220777511596680e-02 4.600163176655769348e-02 -4.039671644568443298e-02 1.263641864061355591e-01 1.163927242159843445e-01 -8.762782067060470581e-02 1.280825734138488770e-01 1.732204109430313110e-02 1.494472473859786987e-02 1.608781963586807251e-01 -1.909094117581844330e-02 -3.886967897415161133e-02 -3.627281170338392258e-03 3.718258813023567200e-03 5.577858164906501770e-02 7.198615372180938721e-02 -4.797400534152984619e-02 3.081294707953929901e-02 1.050624996423721313e-01 1.391800004057586193e-03 -7.406001444905996323e-03 2.709930203855037689e-02 1.151798642240464687e-04 -4.692008346319198608e-02 7.671918720006942749e-02 3.803689479827880859e-01 -3.905915468931198120e-02 4.007153213024139404e-02 1.776095181703567505e-01 5.497854575514793396e-02 -8.044942468404769897e-02 1.911381073296070099e-02 9.086021222174167633e-03 -1.623007208108901978e-01 -6.407210230827331543e-02 -3.415283560752868652e-02 -4.650749638676643372e-02 -4.090644046664237976e-02 5.809576809406280518e-02 3.540963307023048401e-02 8.476905059069395065e-04 -3.432886302471160889e-02 -1.236139610409736633e-02 1.088361837901175022e-03 5.914419889450073242e-02 -4.689615964889526367e-02 4.689249768853187561e-02 -9.185481816530227661e-03 -2.130803465843200684e-02 3.607323020696640015e-02 1.133702509105205536e-02 9.282276965677738190e-03 6.109417229890823364e-02 2.906876429915428162e-02 8.712160587310791016e-02
-1.001167595386505127e-01 -8.146734535694122314e-02 -7.416339963674545288e-02 2.230873107910156250e-01 1.015146970748901367e-01 8.375938981771469116e-02 2.020981907844543457e-01 1.474794298410415649e-01 7.803966104984283447e-02 9.775415062904357910e-02 9.615379571914672852e-02 8.180201053619384766e-02 -3.003137651830911636e-03 1.409627348184585571e-01 9.116438776254653931e-02 1.658084690570831299e-01 -9.726371616125106812e-02 3.604250401258468628e-02 6.075794249773025513e-02 7.120712101459503174e-02 1.304236501455307007e-01 8.558291941881179810e-03 7.711393386125564575e-02 -2.027663774788379669e-02 -3.161136759445071220e-03 -4.000134393572807312e-02 -6.426962465047836304e-02 -6.476386636495590210e-02 -4.626398533582687378e-02 -7.188750803470611572e-02 2.299426943063735962e-01 -3.261174634099006653e-02 1.476495265960693359e-01 -1.672226563096046448e-02 -1.895418018102645874e-02 -6.070789322257041931e-02 2.010915726423263550e-01 5.185027047991752625e-02 5.422550439834594727e-02 1.456719730049371719e-02 -2.402785234153270721e-02 -5.895811319351196289e-02 1.410455554723739624e-01 -2.200144808739423752e-03 9.581659734249114990e-02 2.940163575112819672e-02 -5.010419338941574097e-02 1.429336029104888439e-03 -1.192748919129371643e-02 -2.708874829113483429e-02 4.904880747199058533e-02 5.656893365085124969e-03 -1.343666855245828629e-02 -4.053819552063941956e-02 1.012062840163707733e-02 -2.864122763276100159e-02 7.041555643081665039e-02 3.417663872241973877e-01
-1.969595849514007568e-01 2.834959626197814941e-01 8.315857499837875366e-02 6.453148275613784790e-02 -2.260313779115676880e-01 1.460302341729402542e-02 -1.162198632955551147e-01 8.532933890819549561e-02 9.173123538494110107e-02 3.951303288340568542e-02 -2.712203003466129303e-02 -9.379986673593521118e-02 -1.110442653298377991e-01 -5.033937841653823853e-02 4.912087321281433105e-02 -1.204558014869689941e-01 5.438186228275299072e-02 4.570869728922843933e-02 2.644681185483932495e-02 -5.780969560146331787e-02 -1.065359115600585938e-01 -3.075784770771861076e-03 -2.380968257784843445e-02 8.909702301025390625e-02 -1.473904550075531006e-01 7.327774912118911743e-02 -5.372358858585357666e-02 8.217807859182357788e-02 1.338161379098892212e-01 -1.255893707275390625e-01 -2.287658397108316422e-03 -3.603100031614303589e-02 1.265183687210083008e-01 5.273980274796485901e-02 -4.470965638756752014e-02 4.415484517812728882e-02 3.647673130035400391e-02 -3.501530038192868233e-03 -7.312476634979248047e-02 2.089811302721500397e-02 2.224173583090305328e-02 4.149886593222618103e-02 1.777076125144958496e-01 9.162306785583496094e-02 -2.556609734892845154e-02 3.319676965475082397e-02 2.589195780456066132e-02 -2.646148577332496643e-02 7.033415883779525757e-02 1.178995743393898010e-01 -3.805638849735260010e-02 5.630615726113319397e-02 -6.462107598781585693e-02 6.561156362295150757e-02 7.182120531797409058e-02 -6.249817088246345520e-02 2.304076403379440308e-02 5.521264672279357910e-02
-7.361143082380294800e-02 -6.704761832952499390e-02 4.753121733665466309e-02 1.076004356145858765e-01 -3.753945827484130859e-01 1.302289515733718872e-01 -1.383983939886093140e-01 -1.070566847920417786e-02 -2.846842072904109955e-02 1.419255435466766357e-01 7.046533282846212387e-03 -5.661346018314361572e-02 -1.321939229965209961e-01 1.009589135646820068e-01 3.928423300385475159e-02 1.133494377136230469e-01 -6.724689155817031860e-02 -5.655646789819002151e-03 -7.156052161008119583e-03 8.447212725877761841e-02 2.072077244520187378e-02 2.505974844098091125e-02 -9.017404168844223022e-02 2.578265778720378876e-02 -1.059823483228683472e-02 -6.593693792819976807e-02 9.629761427640914917e-02 -7.053588330745697021e-02 -8.265613764524459839e-02 -2.800939381122589111e-01 3.868610411882400513e-02 -5.840777233242988586e-02 6.094032526016235352e-02 1.992457956075668335e-01 1.127126961946487427e-01 6.581777334213256836e-02 2.932641655206680298e-02 5.200288072228431702e-02 1.655066944658756256e-02 -2.638959884643554688e-02 -5.426480621099472046e-02 5.991448089480400085e-02 5.316334217786788940e-02 -8.625388145446777344e-02 -1.010331958532333374e-01 -5.368487443774938583e-03 9.138915687799453735e-02 6.599917262792587280e-02 6.189535930752754211e-02 6.576807796955108643e-02 8.405611664056777954e-02 -5.207618698477745056e-03 2.728914096951484680e-02 4.766184091567993164e-02 5.750407464802265167e-03 8.716705255210399628e-03 4.244596697390079498e-03 -5.073300749063491821e-02
5.554499477148056030e-02 -1.003479510545730591e-01 3.283039629459381104e-01 -4.004408046603202820e-02 -3.361345082521438599e-02 -2.264681831002235413e-02 -9.228755533695220947e-02 -3.803977370262145996e-02 -3.823891654610633850e-02 1.280121654272079468e-01 -9.132280945777893066e-03 2.386509254574775696e-02 1.447634845972061157e-01 1.360906958580017090e-01 8.576650917530059814e-02 2.913234829902648926e-01 1.423700898885726929e-01 -1.434300001710653305e-02 -3.073325194418430328e-02 -2.827501669526100159e-02 -1.118326783180236816e-01 -1.072944700717926025e-01 -8.447633683681488037e-02 4.497029259800910950e-02 -4.187855497002601624e-02 -1.075113415718078613e-01 8.270198106765747070e-02 -8.530459366738796234e-03 3.589872717857360840e-01 4.930489230901002884e-03 1.062632258981466293e-02 2.526133358478546143e-01 -9.008109569549560547e-03 -1.138631533831357956e-02 -4.948615562170743942e-03 -1.438408507965505123e-03 -5.847597029060125351e-03 6.737047340720891953e-03 -5.173493921756744385e-02 -6.775467190891504288e-03 -1.120139379054307938e-03 1.101243570446968079e-01 -5.435548350214958191e-02 2.349620498716831207e-02 -6.285886466503143311e-02 -2.508278936147689819e-02 -2.542161755263805389e-02 4.356635734438896179e-03 -1.085490658879280090e-01 3.026596968993544579e-03 -1.058097630739212036e-01 2.760165743529796600e-02 7.626793533563613892e-02 -3.223346173763275146e-02 -1.909340918064117432e-02 -1.653486862778663635e-02 7.627695798873901367e-02 -8.526656031608581543e-02
