2.342377603054046631e-02 -5.989936366677284241e-02 -1.714661717414855957e-01 5.278053879737854004e-02 -9.529515355825424194e-02 6.158446427434682846e-03 9.353100508451461792e-02 -1.312977261841297150e-02 7.897542417049407959e-02 5.725939944386482239e-02 -7.406098768115043640e-03 2.039496041834354401e-02 3.696619346737861633e-02 -1.270680129528045654e-01 -1.106494665145874023e-01 7.749822456389665604e-03 -1.052296757698059082e-01 1.047498825937509537e-02 -2.021758258342742920e-01 1.965339183807373047e-01 -5.133300274610519409e-02 -4.670165013521909714e-03 1.846155896782875061e-02 2.376331202685832977e-02 2.680048812180757523e-03 2.062635309994220734e-02 5.061045289039611816e-02 9.181421250104904175e-03 -1.488668620586395264e-01 -2.026352286338806152e-02 -7.529924064874649048e-02 2.031629532575607300e-01 -2.341711223125457764e-01 -8.552957326173782349e-02 1.768137663602828979e-01 2.687593735754489899e-02 7.226346433162689209e-02 8.735646307468414307e-02 -4.010248184204101562e-02 -6.147436797618865967e-02 2.211402654647827148e-01 3.108662366867065430e-02 1.190548017621040344e-01 1.536641567945480347e-01 1.523778438568115234e-01 -2.453028410673141479e-02 -4.920783918350934982e-03 -2.947902306914329529e-02 3.375683724880218506e-02 -9.512830525636672974e-02 9.951887279748916626e-02 -2.458089590072631836e-02 2.537404932081699371e-02 -1.457729935646057129e-01 -6.635192036628723145e-02 4.983905702829360962e-02 1.939438469707965851e-02 8.640703745186328888e-03 1.358355954289436340e-02 -4.018850624561309814e-02 -4.504193365573883057e-02 1.861866377294063568e-02 1.380815804004669189e-01 1.073914021253585815e-01 7.170303165912628174e-02 5.704840645194053650e-03 -2.551805227994918823e-02 -4.720462113618850708e-02 -9.671349078416824341e-02 9.007562696933746338e-02 -1.619459688663482666e-02 1.002611145377159119e-01 1.407966911792755127e-01 1.466046273708343506e-01 2.936770208179950714e-02 -2.897990308701992035e-02 9.898629784584045410e-02 -1.617062464356422424e-02 4.113652184605598450e-02 -1.116861104965209961e-01 3.697854280471801758e-02 -2.276462689042091370e-02 3.618745505809783936e-02 -1.276232600212097168e-01 -3.612581640481948853e-03 -7.052487879991531372e-02 -3.706744639202952385e-03 1.148786693811416626e-01 4.919581860303878784e-02 1.814510077238082886e-01 2.682213671505451202e-02 5.165617913007736206e-02 1.153137758374214172e-01 -5.106197670102119446e-02 -3.244959190487861633e-02 -3.791180253028869629e-02 -7.549817860126495361e-02 -8.672269433736801147e-02 -4.633811861276626587e-02 -1.934086680412292480e-01 -3.308425471186637878e-02 7.875482738018035889e-02 1.392985284328460693e-01 -6.782329175621271133e-03 7.114978879690170288e-02 6.328552216291427612e-02 8.200158365070819855e-03 1.513740979135036469e-02 1.486459374427795410e-01 -3.850049152970314026e-02 -8.802904933691024780e-02 8.677264302968978882e-02 1.266609504818916321e-02 7.191305607557296753e-02 1.102997921407222748e-02 7.984326779842376709e-02 3.630243241786956787e-02 -8.447617292404174805e-02 -3.306487202644348145e-02 -7.856686413288116455e-02 5.215705931186676025e-02 1.421815529465675354e-02 -1.209218129515647888e-01 2.460389863699674606e-03 -3.744185715913772583e-02 -1.697057187557220459e-01 -9.292405098676681519e-02 6.192591413855552673e-02 -4.956408962607383728e-02 -8.327152580022811890e-02 -9.470196813344955444e-02 -6.129005923867225647e-02 -1.306533068418502808e-01 -2.909235656261444092e-01 -6.110029667615890503e-02 5.314154177904129028e-02 -4.441284015774726868e-02 1.011805757880210876e-01 -1.578851193189620972e-01 1.058591455221176147e-01 -3.771197423338890076e-02 -5.963529273867607117e-02 -5.506882444024085999e-02 1.938873156905174255e-02 -1.020669490098953247e-01 2.573448419570922852e-02 7.676818966865539551e-02 7.027975469827651978e-02 -3.057225141674280167e-03 -1.670516878366470337e-01 3.796572610735893250e-02 -7.435587048530578613e-02 -5.359234753996133804e-03 1.278216987848281860e-01 -1.946735382080078125e-02 3.580837743356823921e-03 8.998946845531463623e-02 9.162149578332901001e-02 1.010119989514350891e-01 9.923037141561508179e-02 -2.928535640239715576e-02 -3.386827558279037476e-02 5.227259919047355652e-02 2.975325658917427063e-02 8.764965087175369263e-02 8.519156277179718018e-02 5.538413301110267639e-02 3.945396840572357178e-02 6.980454176664352417e-02 2.619493938982486725e-02 8.530049771070480347e-02 7.818134129047393799e-02 -2.741843648254871368e-02 8.369968086481094360e-02 -1.709756106138229370e-01 -9.996539354324340820e-02 7.302771508693695068e-02 6.675775349140167236e-02 1.647419631481170654e-01 -8.368211798369884491e-03 -6.297051161527633667e-02 -6.405790150165557861e-02 1.852287501096725464e-01 -2.242233976721763611e-02 -3.874268010258674622e-02 5.224533006548881531e-02 1.948962807655334473e-01 -2.269953861832618713e-02 5.965262651443481445e-02 -2.020256780087947845e-02 -3.131366893649101257e-02 1.823057234287261963e-01 9.915714710950851440e-02 -1.238449737429618835e-01 5.759969726204872131e-02 1.053302884101867676e-01 -3.395186364650726318e-02 -3.299771621823310852e-02 1.260665506124496460e-01 5.940464511513710022e-02 2.290397882461547852e-02 5.956439673900604248e-02 1.921234577894210815e-01 -2.619896270334720612e-02 8.192522451281547546e-03 1.417516381479799747e-03 -2.130814595147967339e-03 -5.688042938709259033e-02 1.329498924314975739e-02 1.460061222314834595e-01 -2.421875484287738800e-02 -7.256700843572616577e-02 1.955560147762298584e-01 6.309264153242111206e-02 1.394562125205993652e-01 -5.030414462089538574e-02 -1.198737397789955139e-01 2.150097489356994629e-01 4.095102101564407349e-02 -5.668028071522712708e-02 -2.279604822397232056e-01 5.120150744915008545e-02 1.206367462873458862e-01 -7.696758955717086792e-02 -1.159073263406753540e-01 -2.077714167535305023e-02 1.318772733211517334e-01 8.447585254907608032e-02 4.803694412112236023e-02 6.223293952643871307e-03 1.044553071260452271e-01 -3.820201009511947632e-02 -1.941116303205490112e-01 1.470909863710403442e-01 -7.990949600934982300e-02 -1.475752145051956177e-01 -3.788172453641891479e-02 8.338726311922073364e-02 2.023506909608840942e-02 -9.657909162342548370e-03 -7.063877582550048828e-02 -1.794292964041233063e-02 1.007403433322906494e-01 3.429947420954704285e-03 -6.920536607503890991e-02 -1.716465316712856293e-02 -1.047525852918624878e-01 4.668273031711578369e-02 2.121568098664283752e-02 -1.986107379198074341e-01 2.033998966217041016e-01 -8.490904420614242554e-02 7.503216713666915894e-02 1.083172261714935303e-01 3.629274666309356689e-02 -3.549849987030029297e-02
-7.545755710452795029e-03 1.451461464166641235e-01 -2.874744497239589691e-02 2.286230027675628662e-01 8.859010785818099976e-02 4.487499967217445374e-02 -3.948438540101051331e-02 5.870059877634048462e-02 5.325297638773918152e-02 -5.855005234479904175e-02 -7.812918722629547119e-02 6.945720314979553223e-02 -8.682160079479217529e-02 -2.240579128265380859e-01 -7.606720924377441406e-02 1.362413018941879272e-01 -8.495795726776123047e-02 -1.755686253309249878e-01 -5.096597131341695786e-03 5.519529338926076889e-03 3.392187133431434631e-02 1.110731884837150574e-01 5.061355605721473694e-02 -8.932386338710784912e-02 -2.088941782712936401e-01 3.108730912208557129e-02 -9.729130566120147705e-02 9.987647086381912231e-02 7.055236026644706726e-03 -4.857129883021116257e-03 1.095484197139739990e-01 5.387750640511512756e-02 4.149024933576583862e-02 1.256773807108402252e-02 -4.869833588600158691e-02 -2.200259640812873840e-02 -1.855440641520544887e-04 5.387980863451957703e-02 -6.485164631158113480e-03 7.184994756244122982e-04 7.798051089048385620e-02 -4.884763434529304504e-02 7.129123061895370483e-02 -2.335721440613269806e-02 -4.430883098393678665e-03 7.486592978239059448e-02 1.282461285591125488e-01 3.568315878510475159e-02 -2.222994565963745117e-01 -4.107617214322090149e-02 6.893572956323623657e-02 -1.295282393693923950e-01 -1.079617533832788467e-02 1.832375377416610718e-01 -2.595139667391777039e-02 1.340786367654800415e-01 4.346271231770515442e-02 8.368408679962158203e-02 1.109910309314727783e-01 -8.968076109886169434e-02 1.081692576408386230e-01 4.705311730504035950e-02 -1.215587332844734192e-01 1.450798064470291138e-01 -2.182163065299391747e-03 6.783977895975112915e-02 8.718887716531753540e-02 -5.557613819837570190e-02 5.343705043196678162e-02 7.523442059755325317e-02 -1.040546447038650513e-01 1.395914852619171143e-01 1.365875005722045898e-01 9.133145958185195923e-02 -2.440040186047554016e-02 3.842280432581901550e-02 2.733817324042320251e-02 1.905675418674945831e-02 1.384071558713912964e-01 -1.990692503750324249e-02 1.218436751514673233e-02 3.959654271602630615e-02 4.687537997961044312e-02 7.928604632616043091e-02 1.167922914028167725e-01 -3.578814119100570679e-02 -3.384134918451309204e-02 9.890687465667724609e-02 6.003358215093612671e-02 1.106652840971946716e-01 9.267045557498931885e-02 3.737123683094978333e-02 -7.085470482707023621e-03 3.599343448877334595e-02 -1.060352101922035217e-01 1.991796642541885376e-01 -1.592617928981781006e-01 9.122455120086669922e-02 7.077598571777343750e-02 -7.095530629158020020e-02 1.363809593021869659e-02 -1.503095328807830811e-01 6.037958897650241852e-03 1.636921018362045288e-01 -1.105962172150611877e-01 -9.017267823219299316e-02 -1.677256077527999878e-01 -8.690410293638706207e-03 -7.499957829713821411e-02 -7.929836958646774292e-02 9.067606180906295776e-02 -8.425906300544738770e-02 5.464202165603637695e-02 -4.600509535521268845e-03 1.471729427576065063e-01 8.232764154672622681e-02 -8.329542726278305054e-02 1.523128002882003784e-01 4.534568265080451965e-02 2.121250145137310028e-02 -2.303372137248516083e-02 2.266725897789001465e-01 9.927291423082351685e-03 -4.129112511873245239e-02 -5.350380204617977142e-03 4.296211898326873779e-02 -6.568903475999832153e-02 2.159957960247993469e-02 3.176947066094726324e-04 -7.297958433628082275e-02 -3.598184511065483093e-02 1.320091262459754944e-02 -2.878722734749317169e-02 1.428565476089715958e-02 -4.618815705180168152e-02 5.485153198242187500e-02 1.197461262345314026e-01 -5.049296841025352478e-02 7.946059852838516235e-02 1.057991534471511841e-01 -4.572751000523567200e-02 3.830591449514031410e-03 -2.026813626289367676e-01 -1.677632518112659454e-02 1.644200459122657776e-02 9.083940833806991577e-02 -8.259889483451843262e-02 -4.821810871362686157e-02 1.192281097173690796e-01 -1.416398733854293823e-01 2.586426436901092529e-01 5.131354928016662598e-02 -7.286247797310352325e-03 1.854765862226486206e-01 -2.588067352771759033e-01 -2.445308715105056763e-01 6.753135472536087036e-02 6.972978264093399048e-02 5.729290097951889038e-02 -4.873146116733551025e-02 -5.686647817492485046e-02 7.942758500576019287e-02 9.978314489126205444e-02 -6.385060958564281464e-03 -6.967185437679290771e-02 1.368391811847686768e-01 6.970462854951620102e-03 -8.942266926169395447e-03 7.834772765636444092e-02 3.910265490412712097e-02 -2.722033672034740448e-02 3.539475053548812866e-02 -4.196480661630630493e-02 1.516114221885800362e-03 -3.968546912074089050e-02 8.201906830072402954e-02 1.933047175407409668e-02 -6.012451276183128357e-02 -8.405057340860366821e-02 1.798856109380722046e-01 1.562769562005996704e-01 1.136702895164489746e-01 7.040107622742652893e-03 -1.234367191791534424e-01 -4.567634314298629761e-02 -1.176190450787544250e-01 7.607081532478332520e-02 1.079532802104949951e-01 -9.565832465887069702e-02 -6.078844144940376282e-02 2.917942591011524200e-02 8.041898161172866821e-02 1.090260744094848633e-01 3.822454065084457397e-02 8.076452463865280151e-02 -1.268300712108612061e-01 6.128592416644096375e-03 1.556297093629837036e-01 -1.730855926871299744e-02 -7.910813391208648682e-02 -1.772057823836803436e-02 9.533826261758804321e-02 4.874987527728080750e-02 1.487271394580602646e-02 -6.976160407066345215e-02 -1.323878318071365356e-01 1.048480346798896790e-01 6.235895305871963501e-02 -1.006888151168823242e-01 -2.717060968279838562e-02 7.327991724014282227e-02 6.859629601240158081e-02 -3.226111456751823425e-02 1.281582098454236984e-02 -1.160138025879859924e-01 -8.053484559059143066e-02 -4.681172780692577362e-03 -2.338655665516853333e-02 6.686642020940780640e-02 1.116452813148498535e-01 6.968665122985839844e-02 -4.081724956631660461e-02 6.913188844919204712e-02 -2.514987625181674957e-02 4.272751510143280029e-02 -9.044339507818222046e-02 -2.282112240791320801e-01 2.052801847457885742e-01 -1.869328618049621582e-01 -1.174486130475997925e-01 2.614551968872547150e-02 8.290664851665496826e-02 -9.333533048629760742e-02 -8.285275101661682129e-02 1.143870130181312561e-01 2.402257407084107399e-03 -1.033940464258193970e-01 4.718997702002525330e-02 -2.733584493398666382e-02 1.420426815748214722e-01 -1.896984130144119263e-02 -3.306698054075241089e-02 -3.169680759310722351e-02 3.673364967107772827e-02 -7.337490469217300415e-02 -5.602295696735382080e-02 1.509334146976470947e-01 6.401940481737256050e-04 7.050932198762893677e-02 -2.169256098568439484e-03 -1.231318935751914978e-01 1.337387319654226303e-02 -4.899141564965248108e-02 7.390315085649490356e-02 -1.264412105083465576e-01 1.188155263662338257e-01
-4.796203598380088806e-02 5.638481304049491882e-02 -1.053643897175788879e-01 -3.594720736145973206e-02 1.451262831687927246e-02 1.123804897069931030e-01 -8.182918280363082886e-02 -5.048761516809463501e-02 9.597414173185825348e-03 1.337436586618423462e-01 -1.956410706043243408e-02 1.224806755781173706e-01 8.590775728225708008e-02 -7.381713390350341797e-02 -4.662930592894554138e-02 -5.992760881781578064e-02 -1.242342405021190643e-02 -6.020216736942529678e-03 1.189818046987056732e-02 8.217637985944747925e-02 -6.708194315433502197e-02 -7.850303500890731812e-02 3.172454982995986938e-02 -3.800309076905250549e-02 1.065711975097656250e-01 -7.182620465755462646e-02 -3.237821161746978760e-02 -1.569308154284954071e-02 -2.107010595500469208e-02 -5.844537913799285889e-02 2.363077849149703979e-01 -6.731726694852113724e-03 6.721015274524688721e-02 -1.482870616018772125e-02 -1.654866337776184082e-01 2.295708656311035156e-02 -1.053114980459213257e-01 -1.447512954473495483e-01 -2.692627534270286560e-02 5.961695313453674316e-02 6.448410451412200928e-02 6.062469631433486938e-02 7.843744009733200073e-02 -6.188327074050903320e-02 7.545053493231534958e-03 6.141519546508789062e-02 6.436198018491268158e-03 -1.445701122283935547e-01 -8.236789703369140625e-02 9.043707698583602905e-02 -2.204178273677825928e-02 2.266734540462493896e-01 -8.526273816823959351e-02 -1.490506529808044434e-01 2.406475879251956940e-02 -5.923086032271385193e-02 4.234272614121437073e-02 -1.325728488154709339e-03 2.798620425164699554e-02 1.045658662915229797e-01 7.052814960479736328e-02 5.792798846960067749e-02 -1.923339217901229858e-01 4.471316933631896973e-02 9.880446642637252808e-02 1.213120892643928528e-01 -4.132455214858055115e-02 -2.403067424893379211e-02 1.198767051100730896e-01 -6.840758770704269409e-02 3.965483233332633972e-02 1.746013388037681580e-02 -1.639922112226486206e-01 9.558413177728652954e-02 -8.063097298145294189e-02 -3.011406399309635162e-02 2.645796835422515869e-01 2.379043959081172943e-02 1.663407310843467712e-02 6.213808897882699966e-03 -7.043982297182083130e-02 -1.150201540440320969e-02 3.183688595890998840e-02 -4.768042359501123428e-03 2.279236353933811188e-02 -2.167260050773620605e-01 6.467138230800628662e-02 1.869914084672927856e-01 -1.017253845930099487e-01 6.417730450630187988e-02 -1.223569586873054504e-01 1.758861839771270752e-01 1.080475375056266785e-01 8.024376630783081055e-02 -8.663129806518554688e-02 -2.171334922313690186e-01 -8.972302079200744629e-02 8.021336048841476440e-02 1.803654804825782776e-02 1.405145078897476196e-01 1.330783665180206299e-01 1.161721721291542053e-01 -1.192288473248481750e-01 -8.531896024942398071e-02 -3.441600501537322998e-02 7.425668090581893921e-02 -3.303415328264236450e-02 5.365479737520217896e-02 1.312009394168853760e-01 -1.296903491020202637e-01 -5.529552325606346130e-02 -8.022722788155078888e-03 -1.146244909614324570e-02 -2.849223325029015541e-03 -9.630221128463745117e-02 -1.078434288501739502e-01 8.345736563205718994e-02 8.062126487493515015e-02 -7.574161980301141739e-03 2.014320343732833862e-02 4.569540545344352722e-02 -1.141690369695425034e-02 -4.163769539445638657e-03 -2.967595495283603668e-02 -7.645994424819946289e-02 -4.386935010552406311e-02 5.152889713644981384e-02 1.814585924148559570e-01 5.651917681097984314e-02 -5.791969597339630127e-02 -6.822545081377029419e-02 -1.880887895822525024e-02 -1.483542323112487793e-01 2.306303381919860840e-02 -9.179892018437385559e-03 -5.110261961817741394e-02 1.402875781059265137e-01 -1.586500555276870728e-03 -6.297910958528518677e-02 5.425244942307472229e-02 3.906102105975151062e-02 1.305146664381027222e-01 -4.753779247403144836e-02 6.645689159631729126e-02 -2.187782526016235352e-02 -8.401762694120407104e-02 7.245584577322006226e-02 4.024516046047210693e-02 1.015442609786987305e-01 -9.857910126447677612e-02 -1.006188169121742249e-01 3.194306790828704834e-02 -5.388420075178146362e-02 -4.648923408240079880e-03 1.094311848282814026e-01 5.880226939916610718e-02 -1.521323919296264648e-01 1.149352341890335083e-01 3.493091464042663574e-02 -6.868024170398712158e-02 2.311281114816665649e-02 4.243508353829383850e-02 1.667870208621025085e-03 1.302502751350402832e-01 -9.510128945112228394e-02 6.604541093111038208e-02 3.946153074502944946e-02 -7.980515062808990479e-02 -2.609585225582122803e-02 1.848313510417938232e-01 7.448250800371170044e-02 -6.838943809270858765e-02 -5.686243623495101929e-02 -6.925733387470245361e-02 1.174127459526062012e-01 -1.294365823268890381e-01 -1.943147927522659302e-02 -9.419022127985954285e-03 -1.502206921577453613e-02 -1.885109245777130127e-01 7.478202134370803833e-02 1.493914723396301270e-01 -7.816122472286224365e-02 1.091665774583816528e-01 8.598470687866210938e-02 6.571368873119354248e-02 -4.474930837750434875e-02 9.686338901519775391e-02 -7.160554826259613037e-02 -4.571672901511192322e-02 -5.962302163243293762e-02 1.483142003417015076e-02 1.194755584001541138e-01 -1.457087993621826172e-01 9.965580701828002930e-02 3.628085181117057800e-02 -5.085660889744758606e-02 1.755402050912380219e-02 -2.324220724403858185e-03 -8.940238505601882935e-02 -2.788391895592212677e-02 -8.319459855556488037e-02 7.002078741788864136e-02 1.108533740043640137e-01 -1.099005267024040222e-01 -5.482708290219306946e-02 -2.463888376951217651e-02 4.443655535578727722e-02 7.747445255517959595e-02 2.401548475027084351e-01 -2.109763910993933678e-03 -2.041839063167572021e-02 5.243674293160438538e-02 -2.684584353119134903e-03 -8.587595820426940918e-02 -1.395539008080959320e-02 9.008184820413589478e-02 -5.865633487701416016e-02 3.472139686346054077e-02 5.568303912878036499e-02 1.061669215559959412e-01 1.045212075114250183e-01 -8.752850443124771118e-02 1.197676509618759155e-01 -3.331038355827331543e-02 1.326896697282791138e-01 1.310951113700866699e-01 1.231869589537382126e-02 -1.468831896781921387e-01 -8.068232983350753784e-02 -7.959376275539398193e-02 -1.130458787083625793e-01 1.627896130084991455e-01 6.500343233346939087e-02 1.390427201986312866e-01 1.034310311079025269e-01 4.188928380608558655e-02 1.017066240310668945e-01 -1.962253078818321228e-02 1.241319775581359863e-01 3.415754809975624084e-02 5.231001600623130798e-02 -1.583565920591354370e-01 1.987697614822536707e-04 8.846985548734664917e-02 1.346602290868759155e-01 1.768652945756912231e-01 1.375909447669982910e-01 9.134920686483383179e-02 -1.140369996428489685e-01 -1.435616314411163330e-01 1.362867951393127441e-01 -1.050632521510124207e-01 1.453834474086761475e-01 8.764204382896423340e-02 1.251508891582489014e-01
-6.088044866919517517e-02 4.045031219720840454e-02 -3.103985451161861420e-02 -3.332807868719100952e-02 9.792643785476684570e-02 3.636503592133522034e-02 -9.063856303691864014e-02 -1.106844767928123474e-01 1.358396559953689575e-01 -7.469615340232849121e-02 -5.352454632520675659e-02 -4.282429069280624390e-02 -1.308288872241973877e-01 1.721602305769920349e-02 1.448996514081954956e-01 1.453204303979873657e-01 -5.204991996288299561e-02 -4.749908298254013062e-02 6.920891255140304565e-02 -3.444179147481918335e-02 1.034105047583580017e-01 -1.154143363237380981e-02 -6.946334242820739746e-02 -4.860172048211097717e-02 -8.710667490959167480e-02 1.140217855572700500e-01 -6.984609644860029221e-03 7.005896419286727905e-02 5.333601683378219604e-02 5.072590429335832596e-04 -1.537573616951704025e-02 -2.208661288022994995e-03 5.740986391901969910e-02 -2.061458230018615723e-01 -2.364558540284633636e-02 9.688095748424530029e-02 5.898962542414665222e-02 6.817746162414550781e-02 -1.193786785006523132e-02 -1.469371933490037918e-02 -1.093370690941810608e-01 1.201060339808464050e-01 1.545274704694747925e-01 -2.127063572406768799e-01 -6.421121302992105484e-03 -1.703180745244026184e-02 -7.698448747396469116e-02 -1.443097293376922607e-01 1.211281493306159973e-01 9.804991632699966431e-02 1.167695671319961548e-01 1.690537184476852417e-01 3.209190443158149719e-02 1.648122668266296387e-01 3.107278980314731598e-02 5.493503436446189880e-02 -1.493880618363618851e-02 1.852216199040412903e-02 7.356664538383483887e-02 9.213250875473022461e-02 -4.952536895871162415e-02 9.076358377933502197e-02 8.104634284973144531e-02 2.668766677379608154e-02 1.490101665258407593e-01 7.036188989877700806e-02 -9.940773248672485352e-03 -6.092558428645133972e-02 9.409283846616744995e-02 -5.573700740933418274e-02 1.120266094803810120e-01 1.402085926383733749e-02 7.974063605070114136e-02 -7.115849107503890991e-02 1.259067207574844360e-01 -6.407379359006881714e-02 4.629829898476600647e-02 8.832475543022155762e-02 -1.103650871664285660e-02 -9.864621609449386597e-02 -7.889841683208942413e-03 -5.146847292780876160e-02 1.167887449264526367e-01 1.057649701833724976e-01 -5.889805778861045837e-02 -3.816437721252441406e-02 -1.511577665805816650e-01 -1.538506448268890381e-01 5.120342597365379333e-02 1.598565429449081421e-01 -5.022427067160606384e-02 9.773640334606170654e-02 -4.798041284084320068e-02 -3.809616714715957642e-02 3.340664133429527283e-02 -1.617641597986221313e-01 7.979999482631683350e-02 -1.597829163074493408e-01 -9.438353031873703003e-02 -1.812594532966613770e-01 1.975247077643871307e-02 3.578737750649452209e-02 -4.465485736727714539e-02 1.053142100572586060e-01 -4.335686564445495605e-02 8.525816723704338074e-03 9.396591037511825562e-02 -6.985652446746826172e-02 -1.306715607643127441e-01 9.282364696264266968e-02 -4.101906344294548035e-02 -9.771650284528732300e-02 -3.660764917731285095e-02 -8.202257007360458374e-02 5.637046694755554199e-02 4.886630922555923462e-02 -2.793915010988712311e-02 4.942112788558006287e-02 6.316193193197250366e-02 1.244045048952102661e-01 7.744730263948440552e-02 -1.143672466278076172e-01 -1.851235777139663696e-01 -2.946698106825351715e-02 1.048918515443801880e-01 -2.070486396551132202e-01 -1.038006395101547241e-01 -7.511144876480102539e-02 -4.146774485707283020e-02 7.114458829164505005e-02 1.067968085408210754e-01 2.673892490565776825e-02 1.030968315899372101e-02 -8.395187556743621826e-02 -8.745118230581283569e-02 5.710835382342338562e-02 7.365547120571136475e-02 -9.135448932647705078e-02 -6.225359439849853516e-02 -7.577835768461227417e-02 2.495122104883193970e-01 7.746904343366622925e-02 4.363033547997474670e-02 8.693604171276092529e-02 -1.396116018295288086e-01 1.192628741264343262e-01 -5.810790136456489563e-02 1.186922006309032440e-02 1.926390826702117920e-01 -9.085696935653686523e-02 2.200923487544059753e-02 1.267084032297134399e-01 -1.719703152775764465e-02 1.634335070848464966e-01 -6.821801513433456421e-02 -1.844861917197704315e-02 4.779599606990814209e-02 8.421444892883300781e-02 2.039027512073516846e-01 2.019057124853134155e-01 -5.162880755960941315e-03 -1.221395805478096008e-01 1.115537062287330627e-01 1.837999001145362854e-02 -6.467982381582260132e-02 6.581176072359085083e-02 9.718140959739685059e-02 6.684493273496627808e-02 -7.485599815845489502e-02 -6.140691787004470825e-02 -1.076176092028617859e-01 -1.173344999551773071e-01 -1.942947320640087128e-02 1.154418513178825378e-01 1.683916896581649780e-01 -6.462486088275909424e-02 1.251708120107650757e-01 1.344992872327566147e-02 1.186089706607162952e-03 -8.373471908271312714e-03 -2.753164246678352356e-02 -1.204795539379119873e-01 1.912374608218669891e-02 -1.087361108511686325e-02 -5.371501669287681580e-02 1.657232195138931274e-01 -6.813447177410125732e-02 -9.844341874122619629e-02 1.497607827186584473e-01 -5.202798917889595032e-02 -1.379712969064712524e-01 -8.645126968622207642e-02 1.806557923555374146e-01 -6.208112835884094238e-02 4.056008532643318176e-02 2.849065512418746948e-02 9.733445942401885986e-02 -4.653705283999443054e-02 -2.086022170260548592e-03 1.476892083883285522e-01 1.914025247097015381e-01 -7.726369798183441162e-02 8.711666613817214966e-02 7.274875789880752563e-02 8.843741565942764282e-02 -2.995756268501281738e-02 -2.643182687461376190e-02 4.531569778919219971e-02 9.894768148660659790e-02 -1.182012353092432022e-02 -4.839374742005020380e-04 1.555559635162353516e-01 -6.064620614051818848e-02 -5.961012095212936401e-02 1.613730639219284058e-01 4.871698096394538879e-02 5.791722610592842102e-02 2.418052591383457184e-02 7.859744876623153687e-02 -9.069891273975372314e-02 1.292053610086441040e-01 1.688918471336364746e-02 6.978733092546463013e-02 1.237155199050903320e-01 5.653958767652511597e-02 -3.360405564308166504e-02 -1.762789934873580933e-01 4.739161580801010132e-02 -4.641753155738115311e-03 -6.551806628704071045e-02 -7.681638002395629883e-02 2.506599426269531250e-01 1.214169152081012726e-02 -1.410638242959976196e-01 9.011279791593551636e-03 -1.967320451512932777e-03 -1.542010903358459473e-01 6.555980443954467773e-02 2.133919484913349152e-02 2.417477667331695557e-01 6.162337958812713623e-02 -1.405949983745813370e-02 -8.223677426576614380e-02 8.044619113206863403e-03 3.835550695657730103e-02 5.335274711251258850e-02 -1.305928528308868408e-01 -6.063292920589447021e-02 7.318738847970962524e-03 -5.087377503514289856e-03 -5.831161513924598694e-02 1.048056501895189285e-02 -8.910290151834487915e-02 -2.099482528865337372e-02 -8.709836006164550781e-02 1.661282591521739960e-02
1.395257096737623215e-02 -5.627411417663097382e-03 8.037878433242440224e-04 9.478592872619628906e-02 4.006957635283470154e-02 -1.887553036212921143e-01 -3.922339063137769699e-03 -6.897851079702377319e-02 1.108256205916404724e-01 1.247908473014831543e-01 -9.803200513124465942e-02 4.046962410211563110e-02 5.573796108365058899e-02 -2.400594949722290039e-02 1.035761460661888123e-01 -4.784051328897476196e-02 2.196554839611053467e-01 1.328638494014739990e-01 2.043827809393405914e-02 -1.429468952119350433e-02 1.280361115932464600e-01 -4.909224342554807663e-03 4.176231473684310913e-02 -4.398207366466522217e-02 -1.498392373323440552e-01 -5.111199617385864258e-02 -1.438785493373870850e-01 1.668224632740020752e-01 -1.190713513642549515e-02 1.217491105198860168e-01 -4.841452091932296753e-02 5.998432263731956482e-02 -1.416496373713016510e-02 -5.409151688218116760e-02 1.436320245265960693e-01 1.522507816553115845e-01 -9.128601104021072388e-02 -2.445809356868267059e-02 4.716790840029716492e-02 1.933266595005989075e-02 4.730251803994178772e-02 1.245393157005310059e-01 -5.029124766588211060e-02 6.566455215215682983e-02 2.322783768177032471e-01 -4.853818938136100769e-02 -5.076281353831291199e-02 9.825631976127624512e-02 1.792244240641593933e-02 6.178764253854751587e-02 -1.586530506610870361e-01 1.139152720570564270e-01 4.054390266537666321e-02 -2.186797372996807098e-02 5.180506780743598938e-02 -1.522174943238496780e-02 -6.805504858493804932e-02 -5.298244580626487732e-02 -5.958411842584609985e-02 -7.180203497409820557e-02 -6.014183163642883301e-03 -4.159796610474586487e-02 -1.197704393416643143e-02 1.755591034889221191e-01 -6.918127834796905518e-02 -4.762894473969936371e-03 2.102947831153869629e-01 -5.407490581274032593e-02 3.607271611690521240e-02 -1.783077865839004517e-01 5.415585637092590332e-02 6.700066477060317993e-02 1.660009287297725677e-02 -8.765061199665069580e-02 -1.397356986999511719e-01 1.313558686524629593e-02 -1.187203377485275269e-01 5.605229362845420837e-02 5.985738709568977356e-02 2.547171525657176971e-02 -2.158567495644092560e-02 -7.870255410671234131e-02 -3.092264197766780853e-02 1.078672483563423157e-01 -1.013984456658363342e-01 -2.085701003670692444e-02 8.911608159542083740e-02 -2.985777705907821655e-02 -7.748560607433319092e-02 4.892800003290176392e-02 -5.474095791578292847e-02 3.887432068586349487e-02 1.699999161064624786e-02 -3.021658211946487427e-02 -3.168288245797157288e-02 -3.959743678569793701e-02 9.352655708789825439e-02 -8.112168870866298676e-03 6.829986721277236938e-02 -1.997408270835876465e-02 1.026090532541275024e-01 -1.467936933040618896e-01 -1.095794141292572021e-01 -4.225005581974983215e-02 4.981496185064315796e-02 -1.527263522148132324e-01 -1.840119436383247375e-02 1.405415087938308716e-01 -6.192551553249359131e-02 7.751096785068511963e-02 1.688831448554992676e-01 -5.679671303369104862e-04 1.034836918115615845e-01 -7.599317282438278198e-02 -1.949194371700286865e-01 -1.029830947518348694e-01 -1.045541092753410339e-01 7.321779429912567139e-02 -8.084923028945922852e-02 -7.375030219554901123e-02 1.448442041873931885e-01 9.881281852722167969e-02 1.093006134033203125e-02 4.977067932486534119e-03 -4.917019233107566833e-02 1.010405421257019043e-01 -6.970286369323730469e-02 2.074262360110878944e-03 -2.882859669625759125e-03 1.835409924387931824e-02 7.736286520957946777e-02 -5.654432624578475952e-02 -1.060620546340942383e-01 -5.108481273055076599e-02 1.697316467761993408e-01 2.399567328393459320e-02 3.231919556856155396e-02 7.719761878252029419e-02 -1.009891857393085957e-03 2.305311858654022217e-01 1.244312450289726257e-01 -2.227148786187171936e-02 -3.595165163278579712e-02 -5.304609239101409912e-02 -1.454806700348854065e-02 -4.591513052582740784e-02 3.584036976099014282e-02 2.668779194355010986e-01 -2.803499065339565277e-02 6.854094564914703369e-02 2.712678536772727966e-02 -3.726883977651596069e-02 -1.069348305463790894e-01 1.591008007526397705e-01 4.425165057182312012e-02 -1.462147850543260574e-02 1.241750735789537430e-02 5.770798400044441223e-02 1.687672287225723267e-01 1.537952721118927002e-01 -1.775779277086257935e-01 -1.004243493080139160e-01 -6.921730935573577881e-02 5.324894934892654419e-02 1.295199096202850342e-01 9.302005171775817871e-02 3.441278263926506042e-02 1.462220996618270874e-01 1.002727821469306946e-01 -9.365468472242355347e-02 7.974445819854736328e-02 3.343270719051361084e-02 7.729578297585248947e-03 1.063127070665359497e-02 3.127970173954963684e-02 -6.173383817076683044e-02 -3.376752883195877075e-02 2.248329669237136841e-02 1.176191940903663635e-01 7.718425989151000977e-02 1.436673402786254883e-01 1.342395320534706116e-02 8.942712098360061646e-02 -9.128440171480178833e-02 -1.718560117296874523e-03 4.855267331004142761e-02 8.876940608024597168e-02 1.465528905391693115e-01 -3.995836898684501648e-02 -7.914215326309204102e-03 -7.728865742683410645e-02 -4.380857571959495544e-02 -1.510311812162399292e-01 -1.385275274515151978e-02 5.210137367248535156e-02 6.963000446557998657e-02 -8.179321885108947754e-02 -8.042095601558685303e-02 -3.696966171264648438e-02 -1.391381919384002686e-01 -4.770699888467788696e-02 -9.948109835386276245e-02 1.015234086662530899e-02 -6.484811753034591675e-02 1.797844171524047852e-01 6.966546177864074707e-02 8.724924176931381226e-02 8.635435253381729126e-02 -2.818464115262031555e-02 -3.135476959869265556e-03 -1.389996409416198730e-01 -1.128681525588035583e-01 -1.187918037176132202e-01 -5.875709932297468185e-03 2.622745372354984283e-02 1.682932302355766296e-02 6.073194555938243866e-03 -9.500907361507415771e-02 8.329375833272933960e-02 -2.086256630718708038e-02 7.895480841398239136e-02 6.486564129590988159e-02 1.458858978003263474e-02 -2.789251878857612610e-02 -2.150029316544532776e-02 -2.428814023733139038e-02 -2.158539369702339172e-02 4.110535234212875366e-02 -2.015509270131587982e-02 -1.883899718523025513e-01 -1.063016504049301147e-01 -4.427913948893547058e-02 9.293264150619506836e-02 -9.787917137145996094e-03 1.206358969211578369e-01 -3.656702488660812378e-02 1.442819684743881226e-01 1.693470776081085205e-02 8.269491791725158691e-02 9.699255228042602539e-02 -2.010331898927688599e-01 1.778911650180816650e-01 1.136897355318069458e-01 1.444418635219335556e-02 -3.252851963043212891e-02 2.509023807942867279e-02 1.082515716552734375e-01 -6.556697189807891846e-02 -2.173727750778198242e-02 -3.077282011508941650e-02 9.992319345474243164e-02 6.146429851651191711e-02 -1.056795567274093628e-01 -3.571922779083251953e-01 -1.320396810770034790e-01 7.488410174846649170e-02
7.244516164064407349e-02 2.184113860130310059e-01 1.045072823762893677e-01 -8.723199367523193359e-03 -1.805702894926071167e-01 1.400146037340164185e-01 2.568691037595272064e-02 -9.988076984882354736e-02 1.029991209506988525e-01 1.898946911096572876e-01 -1.742591522634029388e-02 7.118804007768630981e-02 -2.813873812556266785e-02 -3.769693896174430847e-02 7.447640597820281982e-02 1.238592043519020081e-01 -8.644659817218780518e-02 -3.968003671616315842e-03 1.734800338745117188e-01 -1.541408300399780273e-01 1.386672407388687134e-01 2.943329215049743652e-01 -1.072601601481437683e-01 2.712457068264484406e-02 1.757368445396423340e-03 -3.846628218889236450e-02 9.448695927858352661e-02 7.804764807224273682e-02 3.983012214303016663e-02 7.550159841775894165e-02 1.080110222101211548e-01 2.783596813678741455e-01 -3.958169743418693542e-02 -1.627732962369918823e-01 4.519294202327728271e-02 1.350297592580318451e-02 5.937295407056808472e-02 7.515402883291244507e-02 1.488343775272369385e-01 1.716383695602416992e-01 7.931289076805114746e-02 -9.276631288230419159e-03 -3.992079757153987885e-03 5.215943232178688049e-02 2.228735946118831635e-02 5.642305314540863037e-02 -3.886112198233604431e-02 5.836143344640731812e-02 1.390227377414703369e-01 -4.630427435040473938e-02 -8.976179361343383789e-02 -6.211867183446884155e-02 -1.982545480132102966e-02 1.882973127067089081e-02 6.044153869152069092e-02 -1.343092694878578186e-02 1.077626571059226990e-01 4.403387010097503662e-02 -1.209154725074768066e-01 2.417705766856670380e-02 9.187147766351699829e-02 4.974642023444175720e-02 -3.566900268197059631e-02 -6.041987985372543335e-02 -4.062895476818084717e-02 -7.141868025064468384e-02 -6.293720100075006485e-03 8.369506895542144775e-02 9.124203771352767944e-02 2.372126281261444092e-01 1.121108140796422958e-02 -8.154526352882385254e-02 -7.704514265060424805e-02 3.257202357053756714e-02 6.839524954557418823e-02 -4.397796001285314560e-03 -1.068330556154251099e-01 8.307845145463943481e-02 1.341384369879961014e-02 -1.866075396537780762e-02 3.021918470039963722e-03 -7.189430296421051025e-02 -2.196718007326126099e-02 1.213193461298942566e-01 8.939060568809509277e-02 -5.521044135093688965e-02 -2.245730757713317871e-01 -4.349971562623977661e-02 1.728376746177673340e-01 2.095875889062881470e-01 -2.291263453662395477e-02 2.433333694934844971e-01 2.004843764007091522e-02 7.263163104653358459e-03 1.401433814316987991e-02 -3.931561484932899475e-02 -1.956522911787033081e-01 -2.568879351019859314e-02 -7.276247441768646240e-02 8.912388235330581665e-02 -2.086645737290382385e-02 -2.367753162980079651e-02 1.814074218273162842e-01 -6.912127137184143066e-02 -7.181090116500854492e-02 4.018655419349670410e-02 -3.859916701912879944e-02 -3.225673362612724304e-02 1.214050352573394775e-01 -1.026466265320777893e-01 2.386272186413407326e-03 3.400708362460136414e-02 -1.935416758060455322e-01 5.343601107597351074e-02 3.265489265322685242e-02 4.415383189916610718e-02 -4.784730449318885803e-02 4.478271119296550751e-03 -1.345639079809188843e-01 2.485267817974090576e-02 8.367176353931427002e-02 -7.143285870552062988e-02 4.252841696143150330e-02 8.794509619474411011e-02 2.748968638479709625e-02 -1.429100986570119858e-02 1.579151488840579987e-02 -2.606118097901344299e-02 2.106373570859432220e-02 -4.838755726814270020e-02 1.275763064622879028e-01 6.149605289101600647e-02 -2.497551403939723969e-02 -5.414715409278869629e-02 -8.748199045658111572e-02 6.971073150634765625e-02 1.197656467556953430e-01 -2.186680585145950317e-02 -1.915856748819351196e-01 3.856683894991874695e-02 9.835841506719589233e-02 -6.921747326850891113e-02 1.606041379272937775e-02 -1.114513818174600601e-02 -3.860243363305926323e-03 -2.471754327416419983e-02 -1.542598903179168701e-01 2.035441696643829346e-01 -1.418387293815612793e-01 -9.206799417734146118e-02 1.697247475385665894e-02 -1.056162267923355103e-01 -2.737166173756122589e-02 1.347808539867401123e-01 2.585869096219539642e-02 -2.303837239742279053e-02 5.171538516879081726e-02 -9.667149186134338379e-02 -1.789946854114532471e-02 2.007442899048328400e-02 -9.191624820232391357e-03 1.305943578481674194e-01 1.027244925498962402e-01 -1.462317109107971191e-01 1.281778514385223389e-01 -8.148747682571411133e-02 -2.363909222185611725e-02 -7.372663170099258423e-02 -2.114499360322952271e-02 5.248989909887313843e-02 5.689398199319839478e-02 -4.351496696472167969e-02 -1.952443085610866547e-02 8.993702381849288940e-02 7.952914573252201080e-03 -1.227021068334579468e-01 5.287275183945894241e-03 -6.167563050985336304e-02 -1.114236423745751381e-03 -2.232714928686618805e-02 1.807276606559753418e-01 1.064583957195281982e-01 -1.617437899112701416e-01 -9.068338572978973389e-02 3.018041700124740601e-02 -8.921713382005691528e-02 8.538325130939483643e-02 6.199316587299108505e-03 3.213417658116668463e-04 1.364514417946338654e-02 6.139539554715156555e-02 1.066090166568756104e-01 1.290802508592605591e-01 -9.912191890180110931e-03 -9.098819643259048462e-02 -1.838872581720352173e-01 3.679282963275909424e-02 6.886962801218032837e-02 -5.122168734669685364e-02 2.826980687677860260e-02 8.062135428190231323e-03 -1.295261830091476440e-01 3.922833874821662903e-02 -3.686667978763580322e-02 1.163727492094039917e-01 5.259540677070617676e-02 -1.127553135156631470e-01 -5.475778877735137939e-02 -1.304514259099960327e-01 -9.618614614009857178e-02 -6.229797750711441040e-02 -1.589422225952148438e-01 3.490835800766944885e-02 -5.749258026480674744e-02 4.216526076197624207e-02 1.266049444675445557e-01 2.682718262076377869e-02 1.109798103570938110e-01 -1.134994626045227051e-01 3.750501200556755066e-02 1.163980551064014435e-02 -8.701722323894500732e-02 -1.169553622603416443e-01 1.197152212262153625e-02 7.002839446067810059e-02 1.253752261400222778e-01 -6.273716688156127930e-02 -1.997567713260650635e-01 1.257460415363311768e-01 1.106561571359634399e-01 2.250894345343112946e-02 7.528386544436216354e-03 6.526292115449905396e-02 -3.541037812829017639e-02 -4.762566462159156799e-02 2.702832967042922974e-02 1.194308847188949585e-01 -9.516749531030654907e-02 4.730850458145141602e-03 -8.980615437030792236e-02 -7.231165468692779541e-02 4.269685968756675720e-02 -1.453211903572082520e-01 -1.062494888901710510e-02 -5.499129183590412140e-03 7.867650687694549561e-02 -3.855649009346961975e-02 3.555940464138984680e-02 6.144537776708602905e-02 4.210546985268592834e-02 -4.811785370111465454e-02 3.566486760973930359e-02 7.864733785390853882e-02 5.685300100594758987e-03 1.427733004093170166e-01 -4.752695560455322266e-02
-7.463134080171585083e-02 3.984873369336128235e-02 -1.927046291530132294e-02 7.296247780323028564e-02 -7.601363956928253174e-02 1.553208231925964355e-01 9.216351807117462158e-02 -7.964542508125305176e-02 -3.167772665619850159e-02 7.034557871520519257e-03 -2.159394621849060059e-01 -8.562893420457839966e-02 1.132900118827819824e-01 2.929963357746601105e-02 1.292564123868942261e-01 -3.391294181346893311e-02 5.139049608260393143e-03 -4.029849916696548462e-02 1.898343414068222046e-01 4.479498788714408875e-02 1.095164939761161804e-01 7.645464688539505005e-02 -4.633710160851478577e-02 8.169968426227569580e-02 1.036890596151351929e-01 1.420801728963851929e-01 -1.212968677282333374e-01 -1.399266868829727173e-01 6.821656972169876099e-02 -3.089681500568985939e-03 7.449150085449218750e-02 1.581755653023719788e-02 -7.670748233795166016e-02 2.338507212698459625e-02 -6.149578839540481567e-02 1.020610481500625610e-01 -5.826220731250941753e-04 7.051173597574234009e-02 -2.856004424393177032e-02 -1.082173734903335571e-01 -6.630223244428634644e-02 -2.864345908164978027e-03 -8.438906073570251465e-02 3.855105862021446228e-02 -7.802440226078033447e-02 1.625364273786544800e-02 7.743150740861892700e-02 -3.695057705044746399e-02 1.058020815253257751e-01 1.601057872176170349e-02 -7.932103425264358521e-02 -1.605000644922256470e-01 -2.199833467602729797e-02 -3.124026767909526825e-02 -4.708333313465118408e-02 5.998978763818740845e-02 2.218545414507389069e-02 2.819555066525936127e-02 6.770911067724227905e-02 2.009300142526626587e-02 -3.827200829982757568e-02 4.227990284562110901e-02 -3.296136856079101562e-02 3.582876175642013550e-02 -3.986858204007148743e-02 -5.234073847532272339e-02 6.284960359334945679e-02 6.159092858433723450e-02 3.353241458535194397e-02 8.194210380315780640e-02 1.094201430678367615e-01 -2.158172428607940674e-02 -6.753534078598022461e-03 1.500615733675658703e-03 -2.488442696630954742e-02 -4.544351994991302490e-02 -3.860388323664665222e-02 4.412044212222099304e-02 9.866083040833473206e-03 -6.072545424103736877e-02 7.877966016530990601e-02 -1.606175005435943604e-01 1.105490326881408691e-01 -1.172817870974540710e-01 4.892198368906974792e-02 2.895246259868144989e-02 6.798310577869415283e-02 -3.895594552159309387e-02 -9.428252466022968292e-03 8.211501687765121460e-02 1.007247939705848694e-01 -2.314226627349853516e-01 2.843900918960571289e-01 5.219193920493125916e-02 -7.230211049318313599e-02 7.422035187482833862e-02 1.004047598689794540e-02 9.202733635902404785e-02 4.224444180727005005e-02 -1.921792775392532349e-01 3.802361339330673218e-02 4.052728042006492615e-02 1.272517628967761993e-02 -8.205149322748184204e-03 3.517942503094673157e-02 7.709975540637969971e-02 2.083617299795150757e-01 1.332776099443435669e-01 9.896792471408843994e-02 -2.831962332129478455e-02 -1.337353736162185669e-01 2.432104200124740601e-03 7.281918078660964966e-02 -5.740352720022201538e-02 2.693689987063407898e-02 -4.275939986109733582e-02 -4.545909166336059570e-02 9.735041111707687378e-02 9.170596301555633545e-02 -1.873660236597061157e-01 -1.936101615428924561e-01 -7.995669543743133545e-02 -9.817478060722351074e-02 -4.339735209941864014e-02 -7.354399561882019043e-02 1.748852431774139404e-02 -9.341376274824142456e-02 1.209276095032691956e-01 5.387993156909942627e-02 8.607506752014160156e-02 1.456719934940338135e-01 -1.402026563882827759e-01 1.229429841041564941e-01 -7.570064626634120941e-03 1.145202144980430603e-01 -1.678788475692272186e-02 3.537464141845703125e-02 -2.717156149446964264e-02 1.948585808277130127e-01 -1.004505679011344910e-01 1.732946932315826416e-02 -3.944790735840797424e-02 -1.665084995329380035e-02 1.030998900532722473e-01 1.275768876075744629e-01 2.340354584157466888e-02 -3.764007613062858582e-02 -3.809102997183799744e-02 3.975822590291500092e-03 -1.261279881000518799e-01 1.925175040960311890e-01 -4.219128936529159546e-02 -7.042430806905031204e-03 5.880952253937721252e-02 -1.363784670829772949e-01 -3.538665175437927246e-02 1.484092921018600464e-01 1.477368362247943878e-02 7.331137359142303467e-02 1.540141701698303223e-01 -1.121290326118469238e-01 -4.020784422755241394e-02 -2.697978354990482330e-02 1.292261034250259399e-01 6.559640169143676758e-02 -4.647065326571464539e-02 -6.824424117803573608e-02 -1.077986508607864380e-02 -1.456687314203009009e-04 1.246181651949882507e-01 -5.964087322354316711e-03 -5.690414458513259888e-02 1.078627333045005798e-01 -9.974973648786544800e-02 8.886487036943435669e-02 -2.007268965244293213e-01 -7.107844948768615723e-02 -1.851676963269710541e-02 -6.135194003582000732e-02 5.345266684889793396e-02 -2.066188864409923553e-02 -1.047755330801010132e-01 1.411358360201120377e-02 1.526934206485748291e-01 7.935402542352676392e-02 -2.591905184090137482e-02 -1.767083108425140381e-01 -2.680828236043453217e-02 5.114173144102096558e-02 7.367426902055740356e-02 2.006259262561798096e-01 6.173627823591232300e-02 2.406773902475833893e-02 5.446610972285270691e-02 3.902208805084228516e-02 -4.050114378333091736e-02 -5.541984736919403076e-02 4.198399558663368225e-02 1.444847434759140015e-01 -3.917543962597846985e-02 3.473621979355812073e-02 -3.906760364770889282e-02 -3.157924860715866089e-03 -7.933397591114044189e-02 2.139604985713958740e-01 -7.146412134170532227e-02 -1.652666777372360229e-01 -3.108341619372367859e-02 -3.768826276063919067e-02 -4.233494400978088379e-02 4.900643229484558105e-02 6.144898012280464172e-02 -9.148775786161422729e-02 -1.346453428268432617e-01 -2.002732455730438232e-01 2.568243443965911865e-02 8.757278323173522949e-02 9.181486070156097412e-02 -4.605204612016677856e-02 1.021299436688423157e-01 1.484007388353347778e-01 -3.051814623177051544e-02 8.797775954008102417e-02 3.712999075651168823e-02 -4.649548605084419250e-02 3.444828391075134277e-01 5.432331189513206482e-02 5.121268332004547119e-02 2.423526719212532043e-02 -5.995549261569976807e-02 -2.229863964021205902e-02 6.954310834407806396e-02 -9.126646071672439575e-02 7.648861035704612732e-03 -1.577292829751968384e-01 -4.125686734914779663e-02 -3.435584530234336853e-02 4.633514583110809326e-02 -3.041351959109306335e-02 1.096818521618843079e-01 -9.181095659732818604e-02 1.280119568109512329e-01 -1.202238053083419800e-01 2.919938787817955017e-02 1.625977307558059692e-01 -9.868100285530090332e-03 2.690737545490264893e-01 4.096828401088714600e-02 -7.307083904743194580e-02 -1.227191649377346039e-02 7.520253956317901611e-02 -7.877880707383155823e-03 -6.206435710191726685e-02 3.923441097140312195e-02 3.125682473182678223e-02 -2.233906881883740425e-03
-2.014952711760997772e-02 -8.671810477972030640e-02 -6.266675889492034912e-02 -1.073004305362701416e-01 -2.099455706775188446e-02 -9.687956422567367554e-02 5.189232993870973587e-03 -1.167955845594406128e-01 -8.018656075000762939e-02 -5.260149762034416199e-02 -4.186325706541538239e-03 4.733551293611526489e-02 3.662718087434768677e-02 -1.524293422698974609e-01 7.351438701152801514e-02 -1.680591106414794922e-01 4.632611200213432312e-02 -1.094670034945011139e-02 -4.634426161646842957e-02 -1.996343731880187988e-01 -1.285238564014434814e-01 -2.899725548923015594e-02 1.929480433464050293e-01 2.251509018242359161e-02 -5.783411487936973572e-02 -2.156435512006282806e-02 -1.778559386730194092e-02 -4.292603582143783569e-02 -6.802260130643844604e-02 -5.009759590029716492e-02 4.103689268231391907e-02 2.035091817378997803e-02 -2.042579948902130127e-01 -8.237320929765701294e-02 7.718471437692642212e-02 1.442838739603757858e-02 -1.420814171433448792e-02 9.537691622972488403e-02 7.852274924516677856e-03 6.343772262334823608e-02 -6.640487350523471832e-03 1.895122788846492767e-02 5.921325460076332092e-02 -6.128610298037528992e-02 6.568099558353424072e-02 -1.885682716965675354e-02 1.250318735837936401e-01 6.858707219362258911e-02 -2.925395965576171875e-02 -3.435926139354705811e-02 1.321426481008529663e-01 -3.033504262566566467e-02 -2.080256938934326172e-01 6.168312951922416687e-02 1.017606705427169800e-01 1.086779055185616016e-03 -5.233722180128097534e-02 4.734033346176147461e-02 1.681809425354003906e-01 -1.030952185392379761e-01 -1.936334222555160522e-01 7.305240631103515625e-02 -4.879023507237434387e-02 -3.371095284819602966e-02 1.311950106173753738e-02 3.498735651373863220e-02 -4.539748281240463257e-02 2.023103982210159302e-01 -3.648031502962112427e-03 -7.680082321166992188e-02 -1.147583648562431335e-01 1.064409986138343811e-01 1.657091453671455383e-02 -3.086681105196475983e-02 -3.269793093204498291e-02 -1.889402605593204498e-02 -4.227797687053680420e-02 4.492674767971038818e-02 1.351166632957756519e-03 8.989406377077102661e-02 -4.217738285660743713e-02 4.947328567504882812e-02 -1.989215463399887085e-01 -1.560791861265897751e-02 -1.491899695247411728e-02 5.557362921535968781e-03 -8.799212425947189331e-02 5.551012977957725525e-02 6.473575532436370850e-02 -8.609389513731002808e-02 -1.593564450740814209e-02 5.796933174133300781e-02 -2.679073438048362732e-02 8.606527000665664673e-03 -1.238055676221847534e-01 -9.040477871894836426e-02 5.281754303723573685e-03 4.382259026169776917e-02 -3.711053356528282166e-02 1.323691159486770630e-01 -8.562163263559341431e-02 -5.454342812299728394e-02 4.191454499959945679e-02 1.206630747765302658e-02 -7.123129069805145264e-02 9.120959788560867310e-02 3.845912963151931763e-02 -1.838285177946090698e-01 -2.933839894831180573e-02 6.840853393077850342e-02 2.698819339275360107e-02 -2.564011141657829285e-02 8.499196916818618774e-02 1.612929701805114746e-01 -5.161135271191596985e-02 9.196036309003829956e-02 -3.550403192639350891e-02 -8.139762282371520996e-02 2.037437409162521362e-01 -1.172849461436271667e-01 -8.230591192841529846e-03 -1.643231958150863647e-01 -2.087992615997791290e-02 -7.264882326126098633e-02 1.575541449710726738e-03 -2.753520850092172623e-03 8.749514236114919186e-04 1.948585063219070435e-01 1.266065835952758789e-01 -6.755423545837402344e-02 -1.059012115001678467e-02 -5.990098044276237488e-02 7.993324659764766693e-03 -2.058001793920993805e-02 -1.171624846756458282e-02 -2.907603085041046143e-01 -1.255607604980468750e-01 1.042036432772874832e-02 -2.001272886991500854e-02 3.606666252017021179e-02 -8.438543416559696198e-03 -1.895405054092407227e-01 -4.338898509740829468e-02 6.459064781665802002e-02 -8.390706777572631836e-02 1.456460207700729370e-01 -2.630454720929265022e-03 6.537289172410964966e-02 -1.053238753229379654e-02 -2.993144467473030090e-02 -6.015265360474586487e-02 2.365997619926929474e-02 -2.847965620458126068e-02 4.131414741277694702e-02 4.277096316218376160e-02 -1.399463117122650146e-01 -2.002914622426033020e-02 3.009288199245929718e-02 -8.916822820901870728e-02 1.600781828165054321e-01 6.081210449337959290e-03 1.065274402499198914e-01 -4.825795441865921021e-02 -1.263588014990091324e-02 9.577595442533493042e-02 -6.219045445322990417e-02 1.357971727848052979e-01 1.321848109364509583e-02 1.090467423200607300e-01 -4.407135769724845886e-02 -1.006924584507942200e-01 -1.324013434350490570e-02 4.502725228667259216e-02 4.056463018059730530e-02 2.150175161659717560e-02 -4.656321182847023010e-02 9.250877052545547485e-02 -8.512722700834274292e-02 7.397784292697906494e-02 1.535807996988296509e-01 1.195688545703887939e-01 -1.396604627370834351e-01 -1.293383091688156128e-01 4.014139622449874878e-02 -8.105784654617309570e-02 -1.075727120041847229e-01 -5.734033882617950439e-02 1.608249032869935036e-03 -3.613786399364471436e-02 -1.764740049839019775e-01 1.148583516478538513e-01 -1.328391581773757935e-01 9.101553261280059814e-02 5.001119896769523621e-02 7.397208362817764282e-02 7.632536441087722778e-02 -1.302275508642196655e-01 6.839843094348907471e-02 1.021480262279510498e-01 -1.079324856400489807e-01 -1.172885000705718994e-01 1.437939256429672241e-01 -2.173631824553012848e-02 -1.168592497706413269e-01 7.629610598087310791e-03 1.260063350200653076e-01 -1.173216849565505981e-03 7.180196046829223633e-02 1.730561107397079468e-01 1.403068304061889648e-01 -1.029404550790786743e-01 -9.377767145633697510e-02 5.989905446767807007e-02 5.166487768292427063e-02 5.262646451592445374e-02 1.551792472600936890e-01 6.132526695728302002e-02 1.017126161605119705e-02 5.561193823814392090e-02 1.061286181211471558e-01 1.446469575166702271e-01 -2.694409526884555817e-02 1.259407997131347656e-01 1.607961803674697876e-01 -1.842739246785640717e-02 2.207879349589347839e-02 -1.175774708390235901e-01 9.845467656850814819e-02 2.301021851599216461e-02 -6.324947625398635864e-02 -1.466623097658157349e-01 2.035624086856842041e-01 4.506366793066263199e-03 -1.071510091423988342e-01 8.300670236349105835e-02 4.691429901868104935e-03 1.101744696497917175e-01 -3.375815972685813904e-02 -1.192058473825454712e-01 -1.265782266855239868e-01 1.600396335124969482e-01 3.190628811717033386e-02 -1.078496649861335754e-01 1.497480273246765137e-01 6.608457118272781372e-02 1.064100861549377441e-01 -1.982224918901920319e-02 -5.837478488683700562e-02 -4.310280550271272659e-03 2.222447283565998077e-02 -2.871469035744667053e-02 1.126816570758819580e-01 1.913286186754703522e-02 -1.259486936032772064e-02 -1.552889216691255569e-02 -1.392148137092590332e-01
4.379975795745849609e-02 -4.774266853928565979e-02 3.304025623947381973e-03 4.320979490876197815e-02 1.277884393930435181e-01 1.077154651284217834e-02 4.513424262404441833e-02 -6.397829204797744751e-02 -1.600947082042694092e-01 3.700179606676101685e-02 6.939566135406494141e-02 -1.706415787339210510e-02 7.280004024505615234e-02 4.316452145576477051e-02 -7.043167017400264740e-03 1.708113402128219604e-02 8.909359166864305735e-05 6.774087250232696533e-02 3.076458815485239029e-03 1.375881284475326538e-01 2.838213555514812469e-02 -5.419406667351722717e-02 -4.841259866952896118e-02 3.156333789229393005e-02 -1.186731550842523575e-02 3.265669103711843491e-03 1.327314376831054688e-01 2.292832359671592712e-02 8.481638878583908081e-02 1.814268529415130615e-02 3.287853673100471497e-02 1.153783351182937622e-01 9.441097080707550049e-02 4.190879687666893005e-02 1.720779985189437866e-01 2.743597701191902161e-02 -5.961003899574279785e-02 7.953217625617980957e-02 -1.337531656026840210e-01 -5.779701471328735352e-02 -1.193696409463882446e-01 -7.449268549680709839e-02 6.665832549333572388e-02 -1.327907443046569824e-01 6.130903959274291992e-02 1.473012566566467285e-01 6.593242753297090530e-03 -5.187323689460754395e-02 5.460119619965553284e-02 3.004692494869232178e-02 -1.373011339455842972e-02 -4.303566738963127136e-02 -8.739098906517028809e-02 1.062449961900711060e-01 -1.673197895288467407e-01 8.906560018658638000e-03 1.402256041765213013e-01 8.514323085546493530e-02 2.251500338315963745e-01 2.732111886143684387e-02 1.441060751676559448e-01 1.891342550516128540e-02 5.906385183334350586e-02 -3.573179244995117188e-03 1.137832403182983398e-01 -7.665839046239852905e-03 4.075303673744201660e-02 -2.400245144963264465e-02 -2.317554689943790436e-02 7.804948091506958008e-02 -1.699237674474716187e-01 -2.589655667543411255e-02 6.962709128856658936e-02 -1.120993942022323608e-01 1.091248840093612671e-01 7.608520099893212318e-04 -7.922784239053726196e-02 1.294229179620742798e-01 3.013143502175807953e-02 3.211878538131713867e-01 -6.701834499835968018e-03 -3.105613775551319122e-02 -1.153173297643661499e-02 6.048190873116254807e-03 -8.136622607707977295e-02 -6.654442101716995239e-02 2.767383866012096405e-02 -1.053103804588317871e-01 1.366533245891332626e-02 -6.566384341567754745e-03 5.751176178455352783e-02 1.362875103950500488e-01 1.456470489501953125e-01 9.717199951410293579e-02 -3.083891421556472778e-02 -8.690749853849411011e-02 -9.066353738307952881e-02 -4.738632589578628540e-02 -7.200678437948226929e-02 6.419476866722106934e-02 1.381105184555053711e-01 4.293110221624374390e-02 7.959832996129989624e-02 1.899413205683231354e-02 8.586286753416061401e-02 7.416512072086334229e-02 1.244781631976366043e-02 9.981685876846313477e-02 -8.254274725914001465e-02 1.154937036335468292e-02 1.121098026633262634e-01 1.091445907950401306e-01 6.071300432085990906e-02 -3.606163337826728821e-02 5.004950612783432007e-02 1.240843012928962708e-01 5.731311812996864319e-02 -1.631598472595214844e-01 3.771877661347389221e-02 -4.911928623914718628e-02 9.269680827856063843e-02 1.120597198605537415e-01 -1.116000711917877197e-01 1.764359176158905029e-01 -2.460325881838798523e-02 -1.204305440187454224e-01 7.475972920656204224e-02 -1.623930968344211578e-02 9.589301794767379761e-02 2.312710732221603394e-01 -6.258027162402868271e-03 4.690876975655555725e-02 -9.650062769651412964e-02 9.936048835515975952e-02 1.702737808227539062e-01 -2.969088591635227203e-02 6.086176261305809021e-02 1.809803545475006104e-01 3.501757979393005371e-02 -1.035011932253837585e-01 1.324446946382522583e-01 1.013871505856513977e-01 -1.112308129668235779e-01 6.440924108028411865e-02 -1.643500328063964844e-01 1.038568317890167236e-01 -1.284441649913787842e-01 2.818049506458919495e-05 5.584513023495674133e-02 -1.455578655004501343e-01 -1.665201596915721893e-02 -5.054832994937896729e-02 -1.372204814106225967e-02 -3.267134353518486023e-02 -5.513937771320343018e-02 1.140913553535938263e-02 -5.278503149747848511e-02 -7.866439968347549438e-02 -7.051336765289306641e-02 -7.178304344415664673e-02 1.459345668554306030e-01 1.473550051450729370e-01 -7.984653860330581665e-02 1.534066256135702133e-02 -8.983383327722549438e-02 9.769801050424575806e-02 5.341079458594322205e-02 6.628946214914321899e-02 1.217172108590602875e-02 -2.445585094392299652e-02 -8.069119602441787720e-02 1.514811664819717407e-01 -5.364508554339408875e-02 -9.838655591011047363e-02 -1.921141743659973145e-01 -1.608535200357437134e-01 -1.408516764640808105e-01 3.583234734833240509e-03 -6.991206854581832886e-02 6.989724934101104736e-02 -3.705255687236785889e-02 1.212955340743064880e-01 -5.118776485323905945e-02 -7.078215479850769043e-02 5.541652813553810120e-02 6.183433532714843750e-02 6.681135296821594238e-02 -5.409077182412147522e-02 1.893749460577964783e-02 -1.117474958300590515e-01 2.535272836685180664e-01 -1.922822557389736176e-02 -9.764778614044189453e-02 7.470272481441497803e-02 -1.384710967540740967e-01 1.853247880935668945e-01 1.592292338609695435e-01 -2.718376554548740387e-02 -4.876036196947097778e-02 -1.139829978346824646e-01 6.803008913993835449e-02 -4.386942088603973389e-02 1.737595945596694946e-01 1.039514914155006409e-01 -5.741778388619422913e-02 4.861645400524139404e-02 -4.861500859260559082e-02 -8.630335330963134766e-02 2.554876357316970825e-02 5.520758405327796936e-02 1.178583577275276184e-01 -2.653466910123825073e-02 -7.065100222826004028e-02 -4.005850851535797119e-02 -5.150843411684036255e-02 -5.411517806351184845e-03 -1.083567738533020020e-01 7.065779529511928558e-03 -6.449502427130937576e-03 3.496717661619186401e-02 -5.782605335116386414e-02 4.110887274146080017e-02 5.172797292470932007e-02 -4.159012436866760254e-02 2.028066106140613556e-02 -2.098905295133590698e-01 -3.733310103416442871e-02 -4.754243418574333191e-02 1.506062448024749756e-01 -1.154467761516571045e-01 2.471170388162136078e-02 -1.471434440463781357e-02 9.275768697261810303e-02 1.093433983623981476e-02 1.846807003021240234e-01 -2.561981044709682465e-02 -1.226237695664167404e-02 1.994431950151920319e-02 -9.606472402811050415e-02 -5.105154123157262802e-04 -1.397479474544525146e-01 1.757753342390060425e-01 -1.152984946966171265e-01 1.329100131988525391e-02 1.469907760620117188e-01 4.150313511490821838e-02 7.916397601366043091e-02 -4.210944171063601971e-04 -1.446470171213150024e-01 3.790485486388206482e-02 -1.314988918602466583e-02 -3.919599205255508423e-02 -2.262818068265914917e-01 -9.737309813499450684e-02 -1.102786138653755188e-01 -5.725068598985671997e-02
-2.521094083786010742e-01 -1.086099296808242798e-01 1.098203212022781372e-01 1.818376630544662476e-01 2.304072491824626923e-02 1.194770354777574539e-02 -4.704521968960762024e-02 4.187653586268424988e-02 1.303270906209945679e-01 2.997562289237976074e-02 6.181257218122482300e-02 -9.503193199634552002e-02 1.930721290409564972e-02 9.359906613826751709e-02 1.426995452493429184e-02 -1.015982851386070251e-01 8.286336064338684082e-02 3.550175577402114868e-02 -4.184706509113311768e-02 7.319959998130798340e-02 -9.831805527210235596e-02 7.098133862018585205e-02 -9.567364118993282318e-03 -2.107014413923025131e-03 -1.197286620736122131e-01 -3.968346491456031799e-02 9.981671720743179321e-02 -1.536531597375869751e-01 -1.223699152469635010e-01 7.922558486461639404e-02 3.238405659794807434e-02 -5.206630751490592957e-02 4.647172242403030396e-02 1.210402920842170715e-01 -2.039349451661109924e-02 4.597814753651618958e-02 2.400101721286773682e-02 6.276429444551467896e-02 6.437064707279205322e-02 -5.488459486514329910e-03 -4.524295032024383545e-02 -1.399977505207061768e-01 4.694601520895957947e-02 -2.140067517757415771e-01 3.413552790880203247e-02 2.203365415334701538e-02 3.573385998606681824e-02 -1.486098319292068481e-01 1.582635492086410522e-01 6.120890006422996521e-02 4.934330657124519348e-02 1.075004935264587402e-01 1.162009909749031067e-01 7.578888535499572754e-02 -1.315955072641372681e-01 7.598926872014999390e-02 -2.109425608068704605e-03 -1.895735114812850952e-01 -1.145663484930992126e-01 1.159083005040884018e-02 4.315295442938804626e-02 3.049346432089805603e-02 -2.263084501028060913e-01 -3.668580949306488037e-02 -7.699462771415710449e-02 -1.717614680528640747e-01 -8.586785942316055298e-02 7.781144231557846069e-02 2.047855779528617859e-02 -2.191350795328617096e-02 4.045017808675765991e-02 -1.282094568014144897e-01 7.371748983860015869e-02 -1.610885001718997955e-02 -3.806699765846133232e-03 -8.928719907999038696e-04 4.545180499553680420e-02 4.476789385080337524e-03 -8.356202393770217896e-02 -4.215090721845626831e-02 -1.195635553449392319e-02 -6.980832666158676147e-02 1.052170246839523315e-01 -5.190072208642959595e-02 8.164113014936447144e-02 7.436944544315338135e-02 5.522294715046882629e-02 1.067608147859573364e-01 -1.128614917397499084e-01 1.463499218225479126e-01 1.442203857004642487e-02 -5.353799555450677872e-03 -1.109092123806476593e-02 2.856804803013801575e-02 3.356750309467315674e-02 -4.980948939919471741e-02 4.225059226155281067e-02 7.815194129943847656e-02 -8.755211532115936279e-02 -3.731266036629676819e-02 2.139855921268463135e-01 4.166801646351814270e-02 4.146030917763710022e-02 -5.190900340676307678e-02 1.409373711794614792e-02 4.087839275598526001e-02 -1.143092662096023560e-01 2.281364202499389648e-01 4.267589002847671509e-02 -9.461822919547557831e-03 5.627590231597423553e-03 -7.184366136789321899e-02 -5.006543174386024475e-02 -1.130479108542203903e-02 -9.222533553838729858e-02 1.758302748203277588e-01 -1.320931166410446167e-01 -3.923566639423370361e-02 5.116200447082519531e-02 1.794886291027069092e-01 1.331611573696136475e-01 -4.972519353032112122e-02 -6.689433753490447998e-02 -2.751830033957958221e-03 -6.675655487924814224e-03 7.107328623533248901e-02 1.809906959533691406e-02 2.020589709281921387e-01 1.114768311381340027e-01 -3.908810764551162720e-02 -7.385767996311187744e-02 1.419899314641952515e-01 3.859715163707733154e-02 4.052267223596572876e-02 -4.876591265201568604e-02 -2.893767319619655609e-02 1.284054964780807495e-01 -1.399520486593246460e-01 8.074191957712173462e-02 1.553580313920974731e-01 1.893152296543121338e-02 -1.398907788097858429e-02 -2.417931146919727325e-02 4.122377838939428329e-03 2.222951874136924744e-02 -8.021230995655059814e-02 -1.982016116380691528e-02 3.448986262083053589e-02 -1.682059615850448608e-01 1.096535939723253250e-02 1.755341701209545135e-02 -1.476741433143615723e-01 1.285158563405275345e-02 6.807778775691986084e-02 1.050704717636108398e-01 -1.328106522560119629e-01 -6.985507160425186157e-02 2.361078709363937378e-01 -6.031224504113197327e-02 2.099729031324386597e-01 6.234463304281234741e-02 2.265078760683536530e-02 1.870728097856044769e-02 1.497036684304475784e-02 -1.029411032795906067e-01 4.458604380488395691e-03 5.488696694374084473e-02 -5.355783179402351379e-02 -6.651595234870910645e-02 2.737289853394031525e-02 6.598984450101852417e-02 -4.067572578787803650e-02 2.127046585083007812e-01 7.644339930266141891e-03 8.128497749567031860e-02 1.153980940580368042e-01 -2.654973976314067841e-02 -1.279841214418411255e-01 -1.776690781116485596e-02 2.619056962430477142e-02 2.483817748725414276e-02 4.702618345618247986e-02 4.431356675922870636e-03 8.620804548263549805e-02 1.446213871240615845e-01 1.043845117092132568e-01 7.955243438482284546e-02 6.935797631740570068e-02 -3.012380003929138184e-02 -6.808100640773773193e-02 7.934802770614624023e-02 2.066699415445327759e-01 -5.211548134684562683e-02 5.968257039785385132e-02 -2.296330630779266357e-01 -6.213971227407455444e-02 2.415309995412826538e-01 4.609861224889755249e-02 -2.798871835693717003e-03 8.778093010187149048e-02 6.048383191227912903e-03 -4.320228472352027893e-02 -4.757495597004890442e-02 1.284450143575668335e-01 6.739903241395950317e-02 2.860708162188529968e-03 2.165287286043167114e-01 1.235727965831756592e-01 6.247257068753242493e-02 7.944323122501373291e-02 6.065887585282325745e-02 -7.497732341289520264e-02 -8.039052784442901611e-02 -6.535850465297698975e-02 -2.002554200589656830e-02 1.681324501987546682e-04 -1.235767155885696411e-01 7.855246961116790771e-02 -1.621075719594955444e-02 1.039634644985198975e-01 -1.097227334976196289e-01 1.031281575560569763e-01 -1.725948182865977287e-03 6.506814062595367432e-02 -2.951364964246749878e-02 -3.816838935017585754e-02 1.519714575260877609e-02 -5.274949967861175537e-02 8.897396177053451538e-02 1.916980370879173279e-02 -2.226947061717510223e-02 8.594148606061935425e-02 -1.262199580669403076e-01 2.675934322178363800e-02 2.560418657958507538e-02 -1.997086219489574432e-02 -4.908586665987968445e-02 -3.080495819449424744e-02 -1.583174616098403931e-01 2.991860359907150269e-02 4.923553019762039185e-02 -1.314796805381774902e-01 -9.897586703300476074e-02 3.242515027523040771e-01 -2.970306761562824249e-02 7.332345936447381973e-03 1.038628746755421162e-03 5.628249421715736389e-02 2.730545587837696075e-02 -4.029965400695800781e-02 5.212067067623138428e-02 2.655596099793910980e-02 1.629688590764999390e-01 -7.597816735506057739e-02 -2.414067275822162628e-02 -1.826200783252716064e-01
-7.045685499906539917e-02 1.944865733385086060e-01 -3.527428582310676575e-02 -2.720394113566726446e-04 -2.853632904589176178e-02 6.126871332526206970e-02 8.838954567909240723e-02 9.312314540147781372e-02 5.792130157351493835e-02 9.339027851819992065e-02 -3.813426569104194641e-02 5.072728544473648071e-02 -4.423920996487140656e-03 1.633428335189819336e-01 -5.507631972432136536e-02 -2.816700749099254608e-02 -4.931589355692267418e-04 1.840208191424608231e-03 1.995675265789031982e-02 -3.191672964021563530e-03 6.268964707851409912e-02 -1.016433164477348328e-02 1.294376552104949951e-01 -6.335539370775222778e-02 8.344081044197082520e-02 2.111825905740261078e-02 4.555166140198707581e-02 1.259175781160593033e-02 1.239284649491310120e-01 2.137434035539627075e-01 4.923588410019874573e-02 -1.101366803050041199e-01 9.079738706350326538e-02 8.260492980480194092e-02 1.183032765984535217e-01 -2.568909823894500732e-01 8.382663875818252563e-02 1.366448849439620972e-01 -2.680754289031028748e-02 6.372797489166259766e-02 4.663866013288497925e-02 -1.965903304517269135e-02 5.417541787028312683e-02 -1.621004939079284668e-02 4.179383814334869385e-02 2.780658937990665436e-02 -2.062412165105342865e-02 -5.260606855154037476e-02 -8.839114755392074585e-02 -5.914821475744247437e-02 3.424324095249176025e-02 -8.031986653804779053e-02 -8.514519780874252319e-02 -1.381639540195465088e-01 5.699603818356990814e-03 -1.027059108018875122e-01 5.555556854233145714e-04 9.176043421030044556e-02 -5.304510891437530518e-02 2.868162095546722412e-02 1.562679260969161987e-01 8.760596811771392822e-02 1.567497849464416504e-02 -5.852836649864912033e-03 -9.667214006185531616e-03 -8.906781673431396484e-02 -1.834658556617796421e-03 -1.330247968435287476e-01 -9.881438314914703369e-02 -9.341208636760711670e-02 -4.098362475633621216e-02 7.495281100273132324e-02 -5.386720970273017883e-02 9.535962343215942383e-02 1.075101196765899658e-01 -2.913522766903042793e-03 -8.760900050401687622e-02 -3.740297257900238037e-02 -1.007797718048095703e-01 -1.066842973232269287e-01 1.738864742219448090e-02 3.407420963048934937e-02 1.439195275306701660e-01 -6.585802417248487473e-03 -3.462645038962364197e-02 -5.179843679070472717e-02 -1.165402010083198547e-01 -1.829512603580951691e-02 -2.061364054679870605e-02 1.309234201908111572e-01 4.578866809606552124e-02 -1.916823722422122955e-02 1.093648746609687805e-01 -1.019462868571281433e-01 1.205774545669555664e-01 -1.261363178491592407e-01 -7.231736183166503906e-02 4.929925501346588135e-02 4.048006609082221985e-02 1.240565627813339233e-01 3.469089046120643616e-02 1.319621354341506958e-01 4.410981386899948120e-02 -7.710628956556320190e-02 7.405254989862442017e-02 1.531691402196884155e-01 -2.027418315410614014e-01 -8.907037228345870972e-02 -1.083228439092636108e-01 1.578516066074371338e-01 -2.593310177326202393e-02 6.732011679559946060e-03 1.024198681116104126e-01 9.201537817716598511e-02 9.577920287847518921e-02 1.059957668185234070e-01 1.318066418170928955e-01 6.992345303297042847e-02 8.029176294803619385e-02 1.313590258359909058e-02 1.255999058485031128e-01 4.752771928906440735e-02 -1.268197149038314819e-01 -1.401308178901672363e-01 3.331803530454635620e-02 -1.033893134444952011e-02 9.878040105104446411e-02 9.469892084598541260e-02 -2.455480769276618958e-02 4.152874462306499481e-03 7.307074964046478271e-02 9.488517791032791138e-02 2.312888503074645996e-01 4.151457175612449646e-02 4.038508608937263489e-02 1.314517259597778320e-01 -6.213986501097679138e-02 -1.310292184352874756e-01 6.175073608756065369e-02 1.473508775234222412e-02 -4.495918005704879761e-02 4.617501981556415558e-03 3.751111030578613281e-02 -4.750094935297966003e-02 9.568686783313751221e-02 -1.035100817680358887e-01 9.299743175506591797e-02 2.656450308859348297e-02 -6.772773712873458862e-02 -1.839909106492996216e-01 -6.506957858800888062e-02 3.776450082659721375e-02 3.709916397929191589e-02 7.575982250273227692e-03 -8.745964616537094116e-02 -6.604520231485366821e-02 1.423424333333969116e-01 1.482794284820556641e-01 -9.985568001866340637e-03 1.941850483417510986e-01 -5.364401265978813171e-02 -1.699035800993442535e-02 2.381629869341850281e-02 -7.094172388315200806e-02 1.637464761734008789e-01 1.823924332857131958e-01 -6.397110968828201294e-02 3.431651741266250610e-02 4.017157014459371567e-03 -6.359402090311050415e-02 -1.619617491960525513e-01 1.089717745780944824e-01 8.736865967512130737e-02 -4.703256115317344666e-02 1.304278224706649780e-01 4.760958254337310791e-02 6.542328745126724243e-02 -1.103535518050193787e-01 1.467512696981430054e-01 -7.725811749696731567e-02 1.304319202899932861e-01 -7.849209010601043701e-02 -8.986651897430419922e-02 5.707626417279243469e-02 -4.253935068845748901e-02 2.192444801330566406e-01 7.518175244331359863e-02 -1.848262697458267212e-01 6.180239468812942505e-02 -4.852206446230411530e-03 4.022761061787605286e-02 1.348345726728439331e-01 5.867748986929655075e-04 -1.085186749696731567e-01 -2.001799829304218292e-02 6.929233204573392868e-03 -1.549339443445205688e-01 -1.502546966075897217e-01 1.283174604177474976e-01 -3.948412835597991943e-02 4.735203459858894348e-02 6.444639712572097778e-02 1.613300479948520660e-02 3.540247306227684021e-02 -1.255255378782749176e-02 -8.363804966211318970e-02 1.210499852895736694e-01 -4.540519788861274719e-02 -1.419250369071960449e-01 -1.159579828381538391e-01 3.093095496296882629e-02 -1.463110893964767456e-01 -4.931654408574104309e-02 1.363789476454257965e-02 5.101431626826524734e-03 -1.155685633420944214e-02 1.059954166412353516e-01 -1.052489355206489563e-01 1.159249097108840942e-01 -1.074629202485084534e-01 9.404245764017105103e-02 3.647626191377639771e-02 -1.392623782157897949e-01 5.075380578637123108e-02 -2.065334171056747437e-01 -8.392517268657684326e-02 9.259335696697235107e-03 9.443525224924087524e-03 1.183345392346382141e-01 1.193578448146581650e-02 -6.355054676532745361e-02 1.661993861198425293e-01 -1.115481555461883545e-02 -7.643226534128189087e-02 4.382504522800445557e-02 -7.062870427034795284e-04 1.046941354870796204e-01 -4.092853516340255737e-02 1.101706698536872864e-01 -1.271653473377227783e-01 -8.367808908224105835e-02 -6.357832998037338257e-02 6.464617699384689331e-02 -3.430102020502090454e-02 -3.118452802300453186e-02 -1.416745930910110474e-01 1.032484471797943115e-01 8.531738072633743286e-02 6.808888912200927734e-02 -4.239529743790626526e-02 -1.097662523388862610e-01 -3.361983597278594971e-02 -1.810403466224670410e-01 1.107223406434059143e-01 -1.050604390911757946e-03 -1.206777989864349365e-01
4.439025744795799255e-02 4.730715230107307434e-02 4.041999951004981995e-02 -3.167245537042617798e-02 5.669888854026794434e-02 1.396341025829315186e-01 1.554737091064453125e-01 -2.426753193140029907e-02 -6.479040533304214478e-02 3.682136535644531250e-02 -9.338331222534179688e-02 7.668635807931423187e-03 9.237652271986007690e-02 -2.993015944957733154e-02 2.955758385360240936e-02 -1.186099126935005188e-01 -1.396113783121109009e-01 -9.055294096469879150e-02 1.224191933870315552e-01 -3.826567903161048889e-02 -9.971275180578231812e-02 8.241359144449234009e-02 -1.404159702360630035e-02 -1.208222657442092896e-01 1.900515891611576080e-02 -1.610764116048812866e-02 6.776404101401567459e-03 -3.113540112972259521e-01 7.073964923620223999e-02 -1.264933794736862183e-01 -1.752734482288360596e-01 5.579945817589759827e-02 -7.835081778466701508e-03 -1.039556115865707397e-01 1.505133509635925293e-01 -3.864276036620140076e-02 -1.769901961088180542e-01 -7.202911376953125000e-02 1.914642006158828735e-01 1.679477542638778687e-01 1.286889463663101196e-01 -6.699959188699722290e-02 6.012469157576560974e-02 6.549514085054397583e-02 -1.104656085371971130e-01 -1.277195364236831665e-01 -8.637714385986328125e-02 -1.729793660342693329e-02 2.717702090740203857e-02 -8.705687522888183594e-02 -1.066618040204048157e-01 6.222839653491973877e-02 -7.134068757295608521e-03 1.949174795299768448e-03 1.249200776219367981e-01 -1.269454956054687500e-01 7.914375513792037964e-02 1.027551293373107910e-01 9.331396222114562988e-02 1.366611570119857788e-01 1.326999515295028687e-01 1.114073470234870911e-01 2.884604781866073608e-02 -7.963011413812637329e-02 -2.000468373298645020e-01 -1.019154489040374756e-01 3.778403997421264648e-02 -6.653211265802383423e-02 1.308419853448867798e-01 -7.023030426353216171e-03 -8.736353367567062378e-02 4.500341042876243591e-02 6.380550563335418701e-02 2.407347261905670166e-01 7.802648842334747314e-02 2.283982634544372559e-01 -9.258906543254852295e-02 -3.921151626855134964e-03 -5.877218022942543030e-02 -3.282509371638298035e-02 -5.726443231105804443e-02 1.259508430957794189e-01 -6.714397668838500977e-02 -3.126223012804985046e-02 -8.391961455345153809e-03 8.742504566907882690e-02 2.184238433837890625e-01 -1.177558526396751404e-01 -4.119780845940113068e-03 1.052554696798324585e-01 -1.705671250820159912e-01 -3.283501788973808289e-02 -3.573149442672729492e-02 -9.102770686149597168e-02 -6.170932948589324951e-02 -1.271817088127136230e-02 2.957264892756938934e-02 7.268918305635452271e-02 2.232235483825206757e-02 -5.629958957433700562e-02 -7.441658060997724533e-03 -6.637621670961380005e-02 7.405000925064086914e-02 3.481489839032292366e-03 3.068247623741626740e-02 -1.166121512651443481e-01 -2.358138561248779297e-02 3.018134506419301033e-03 -4.423206206411123276e-03 -1.558731589466333389e-02 1.105364635586738586e-01 8.528655767440795898e-02 8.402545005083084106e-02 5.771096423268318176e-02 6.426423788070678711e-02 6.030523777008056641e-02 1.159709021449089050e-01 -5.047585815191268921e-02 -4.645847529172897339e-02 1.392655685776844621e-04 -1.840463653206825256e-02 5.537649244070053101e-02 -1.438017785549163818e-01 1.137809008359909058e-01 -3.959509730339050293e-02 8.197766728699207306e-03 -5.414852499961853027e-02 -7.280035316944122314e-02 -3.611951321363449097e-02 -8.398631215095520020e-02 1.042434014379978180e-02 -1.327565312385559082e-01 -9.362771175801753998e-03 8.039129525423049927e-02 3.268234059214591980e-02 1.050865277647972107e-01 -2.276111766695976257e-02 -3.256128355860710144e-02 5.533267185091972351e-02 5.105751752853393555e-02 -7.367579638957977295e-02 2.297597378492355347e-02 3.207286819815635681e-02 -1.142291650176048279e-01 -5.883140489459037781e-02 -6.912358850240707397e-02 -3.183833137154579163e-02 9.531276300549507141e-03 -1.223787199705839157e-02 -1.534071471542119980e-02 -4.895743913948535919e-03 4.802838340401649475e-02 1.926697418093681335e-02 -1.493312325328588486e-02 1.545403748750686646e-01 1.511060893535614014e-01 -8.240163326263427734e-02 4.775814246386289597e-03 3.090517781674861908e-02 1.835614889860153198e-01 -8.462765067815780640e-02 6.486026197671890259e-02 1.000834107398986816e-01 6.430747359991073608e-02 -1.159948557615280151e-01 1.037721633911132812e-01 -2.649415843188762665e-02 1.346555501222610474e-01 -4.578908160328865051e-02 -1.128168106079101562e-01 6.800597906112670898e-02 -1.173270493745803833e-01 7.251524925231933594e-02 1.510509103536605835e-02 3.045146120712161064e-03 6.594853475689888000e-03 -3.171943128108978271e-02 4.528718814253807068e-02 1.202850118279457092e-01 3.330617910251021385e-03 -1.179717108607292175e-01 -5.960669741034507751e-02 1.237909346818923950e-01 5.051148310303688049e-02 -1.743982359766960144e-02 -6.427578628063201904e-02 -6.259258836507797241e-02 8.239641785621643066e-02 -8.315612375736236572e-02 1.487892568111419678e-01 9.257835149765014648e-02 -7.987045496702194214e-02 1.211618259549140930e-01 -6.590536236763000488e-02 3.197831287980079651e-02 1.590046882629394531e-01 4.560946300625801086e-02 1.304987967014312744e-01 -1.279498338699340820e-01 -1.749675348401069641e-02 4.198035225272178650e-02 -6.521203555166721344e-03 5.623581260442733765e-02 1.107076704502105713e-01 1.202148571610450745e-02 -1.011219993233680725e-01 7.014960795640945435e-02 4.376859962940216064e-02 9.428949654102325439e-02 -4.966898635029792786e-02 1.092318370938301086e-01 -1.455664932727813721e-01 6.050111725926399231e-02 -1.079512313008308411e-01 -2.952205948531627655e-02 8.293031901121139526e-02 8.871038258075714111e-02 5.256779491901397705e-02 1.623678952455520630e-01 6.196070834994316101e-02 -4.163800179958343506e-02 -1.125003695487976074e-01 2.150833792984485626e-02 -3.508396446704864502e-02 1.007917970418930054e-01 1.083829626441001892e-01 -1.216485872864723206e-01 2.691428661346435547e-01 1.629803031682968140e-01 9.685473144054412842e-02 1.752552092075347900e-01 6.179183349013328552e-02 8.071677386760711670e-02 -2.257180772721767426e-02 5.701829493045806885e-02 1.017166450619697571e-01 3.820028621703386307e-03 4.697516188025474548e-02 1.498292684555053711e-01 -2.461487986147403717e-02 1.151528880000114441e-01 -1.052573472261428833e-01 3.020727820694446564e-02 1.051375865936279297e-01 1.147092729806900024e-01 3.816189989447593689e-02 -7.698554545640945435e-03 -3.348136320710182190e-02 1.390953361988067627e-01 -3.268017247319221497e-02 7.452859729528427124e-02 3.309626504778862000e-02 3.104241564869880676e-02 -1.319609023630619049e-02 -6.577845662832260132e-02 -1.027802750468254089e-01
7.339836657047271729e-02 1.473473012447357178e-01 1.745065897703170776e-01 -1.415985822677612305e-01 -6.349475681781768799e-02 -2.992473170161247253e-02 5.356178432703018188e-02 1.296154111623764038e-01 3.450114279985427856e-02 -8.736410737037658691e-02 1.018186956644058228e-01 -1.504323184490203857e-01 -1.834780573844909668e-01 6.897889077663421631e-02 -4.307864978909492493e-02 -5.026042088866233826e-02 -4.808414727449417114e-02 -2.554262056946754456e-02 -3.280144929885864258e-02 6.083450838923454285e-02 1.101248189806938171e-01 -7.802372425794601440e-02 1.444252729415893555e-01 1.307027190923690796e-01 -4.417543113231658936e-02 -1.987292319536209106e-01 1.406467240303754807e-02 -4.210721328854560852e-02 1.920165959745645523e-03 -9.775558859109878540e-02 6.190555915236473083e-02 -8.087300509214401245e-02 1.148549187928438187e-02 -7.123423274606466293e-03 6.558950245380401611e-02 -7.339213043451309204e-02 -1.133713647723197937e-01 -1.027866974472999573e-01 3.375978674739599228e-03 1.126402094960212708e-01 -2.400216087698936462e-02 1.572254896163940430e-01 -3.117058239877223969e-02 -8.822510391473770142e-02 9.021352231502532959e-02 -1.983289234340190887e-02 -1.929790526628494263e-02 -1.247848197817802429e-01 7.443574815988540649e-02 -1.413385421037673950e-01 2.087882161140441895e-01 5.551306903362274170e-02 -6.168468669056892395e-02 1.086128801107406616e-01 1.713550835847854614e-02 -1.360679324716329575e-02 1.073106005787849426e-01 1.477856189012527466e-01 1.334923207759857178e-01 -3.210860490798950195e-02 -1.308761537075042725e-02 -6.979113072156906128e-02 4.245150089263916016e-02 -4.289725795388221741e-02 2.215840853750705719e-02 7.405242417007684708e-03 4.351145587861537933e-03 7.171865552663803101e-02 -2.838401123881340027e-02 2.775465510785579681e-02 -1.911238580942153931e-01 8.315327763557434082e-02 -2.260125055909156799e-02 1.311605274677276611e-01 -1.230958774685859680e-01 1.505794525146484375e-01 -2.074159495532512665e-02 1.479335036128759384e-02 -5.004204437136650085e-02 -9.294196963310241699e-02 -6.495682150125503540e-02 -7.884348183870315552e-02 3.621841594576835632e-02 -6.350371241569519043e-02 6.653130799531936646e-02 1.941028684377670288e-01 -3.022728860378265381e-02 -7.766520231962203979e-02 -4.484851285815238953e-02 -3.850849345326423645e-02 2.099673748016357422e-01 -9.414784610271453857e-03 2.937474250793457031e-01 -8.537528105080127716e-03 -7.928407192230224609e-02 8.074134588241577148e-02 1.668143123388290405e-01 -8.657695353031158447e-02 -1.194809079170227051e-01 -5.470665171742439270e-02 -5.722772330045700073e-02 9.474615007638931274e-02 6.657631695270538330e-02 1.072594057768583298e-02 -1.442787945270538330e-01 -6.372271478176116943e-02 1.114942654967308044e-01 -9.490122646093368530e-02 1.687054783105850220e-01 4.936068132519721985e-02 -5.716436356306076050e-02 -7.108917087316513062e-02 -5.436421185731887817e-02 4.026507213711738586e-02 1.154779270291328430e-01 -1.597808748483657837e-01 -2.684821933507919312e-02 -3.237321972846984863e-02 -9.914164245128631592e-02 -1.168025378137826920e-02 7.777312770485877991e-03 -4.101927950978279114e-02 -2.275105752050876617e-02 -4.050434101372957230e-03 -1.653653383255004883e-01 2.919143065810203552e-02 -5.365811288356781006e-02 1.181275174021720886e-01 -4.981232807040214539e-02 1.080628335475921631e-01 -1.017821952700614929e-01 2.174190729856491089e-01 3.211278840899467468e-02 6.383936107158660889e-02 2.996815554797649384e-02 -7.049771398305892944e-02 8.111802488565444946e-02 1.241336204111576080e-02 -8.517874032258987427e-02 8.057620376348495483e-02 -6.177961360663175583e-03 2.172592580318450928e-01 -1.111354529857635498e-01 -8.609940856695175171e-02 1.021358072757720947e-01 -5.270081758499145508e-02 -9.448083490133285522e-02 -1.054012309759855270e-02 -6.869901716709136963e-02 2.948896493762731552e-03 -1.488259583711624146e-01 2.588589489459991455e-02 -4.732385277748107910e-02 -8.942941576242446899e-02 4.277047142386436462e-02 -9.299290925264358521e-02 -4.370564594864845276e-03 1.775641925632953644e-02 8.645302802324295044e-02 -7.698006927967071533e-02 -2.424261868000030518e-01 -5.539736896753311157e-02 8.750689774751663208e-02 4.314389452338218689e-02 7.611874490976333618e-02 -1.176790148019790649e-01 2.968322113156318665e-02 1.083340272307395935e-01 -1.263891905546188354e-01 -7.212818413972854614e-02 -7.979149231687188148e-04 5.547515302896499634e-02 2.886855229735374451e-02 -1.426643505692481995e-02 1.247834786772727966e-02 2.143240906298160553e-02 8.193636685609817505e-02 -8.268127217888832092e-03 2.075465023517608643e-02 7.722663134336471558e-02 3.323111310601234436e-02 6.108140200376510620e-02 4.445780068635940552e-02 -2.561440505087375641e-02 -3.908263146877288818e-02 4.967392981052398682e-02 -4.605449363589286804e-02 6.235223636031150818e-02 2.785105258226394653e-02 -1.619620472192764282e-01 -9.765204787254333496e-02 -6.634558737277984619e-02 5.953138321638107300e-02 -1.123771592974662781e-01 -4.450649395585060120e-02 -1.172992661595344543e-01 5.155085027217864990e-02 -2.110197395086288452e-02 5.417766794562339783e-02 9.985025227069854736e-02 5.699123069643974304e-02 -1.199162229895591736e-01 2.322216182947158813e-01 -1.728040724992752075e-01 4.352923948317766190e-03 -9.090937674045562744e-03 1.131891533732414246e-01 -2.285099588334560394e-02 -4.263546690344810486e-02 -6.955911219120025635e-02 -6.245629116892814636e-02 -3.212993219494819641e-02 1.046479446813464165e-03 2.326283603906631470e-02 -2.037851065397262573e-01 -7.030903548002243042e-02 -2.133139222860336304e-02 -9.659654647111892700e-02 1.579249799251556396e-01 -8.836072683334350586e-02 -5.595187097787857056e-02 -7.850600033998489380e-02 3.418404236435890198e-02 2.746420726180076599e-02 2.595799416303634644e-02 -4.488191101700067520e-03 1.029013842344284058e-01 5.261341482400894165e-02 1.021645441651344299e-01 -1.391725391149520874e-01 9.647727012634277344e-02 8.840085938572883606e-03 -3.800546750426292419e-02 8.672970533370971680e-02 -9.050604701042175293e-02 1.333852708339691162e-01 -3.365000709891319275e-02 -2.427514269948005676e-02 1.200397871434688568e-02 -5.372085422277450562e-02 -1.002249792218208313e-01 9.606231749057769775e-02 1.682051084935665131e-02 1.394061744213104248e-01 -7.029589265584945679e-02 1.794785708189010620e-01 2.922276267781853676e-03 -4.618236422538757324e-02 6.915028393268585205e-02 5.118984356522560120e-02 -5.957822501659393311e-02 5.233239755034446716e-02 -3.859844058752059937e-02 -8.755379915237426758e-02 8.331880718469619751e-02 8.306835591793060303e-02
5.791055411100387573e-02 7.839152961969375610e-02 -1.408478245139122009e-03 -1.022219308651983738e-03 -1.478274166584014893e-01 1.324605345726013184e-01 5.935668572783470154e-02 1.278160810470581055e-01 8.022960275411605835e-02 -8.766604214906692505e-02 -1.474061459302902222e-01 3.701062500476837158e-02 5.464119836688041687e-02 1.071067377924919128e-01 -7.797551155090332031e-02 -1.244675070047378540e-01 1.394644379615783691e-01 8.089174330234527588e-02 -8.630219846963882446e-02 8.639318495988845825e-02 -3.382922708988189697e-02 -1.663277447223663330e-01 -1.939459517598152161e-02 -5.151776224374771118e-02 -1.173483654856681824e-01 4.630437865853309631e-02 1.345994137227535248e-02 -9.686652570962905884e-02 2.591663599014282227e-02 -7.442850619554519653e-02 -1.272149533033370972e-01 -7.450349628925323486e-02 1.313881874084472656e-01 1.265848055481910706e-02 -1.211578249931335449e-01 9.658562391996383667e-02 7.859563827514648438e-02 -5.171873793005943298e-02 -6.125950440764427185e-02 -9.213720262050628662e-02 8.510936051607131958e-02 2.652889490127563477e-02 -4.763178527355194092e-02 4.260198771953582764e-02 7.677947729825973511e-02 2.690758183598518372e-02 -2.846965752542018890e-02 9.499283879995346069e-02 -3.346114978194236755e-02 1.084704250097274780e-01 1.002006456255912781e-01 6.098928675055503845e-02 2.545748092234134674e-02 -1.232492644339799881e-02 -6.164122023619711399e-04 -1.188246533274650574e-01 -1.317652501165866852e-02 2.373729087412357330e-02 -3.218138217926025391e-02 5.825376510620117188e-02 1.825702190399169922e-02 -3.522543236613273621e-02 4.856838285923004150e-02 -5.017568171024322510e-02 1.316249221563339233e-01 1.337365657091140747e-01 -2.185885049402713776e-02 -2.165376953780651093e-02 -5.131875351071357727e-02 -2.108726650476455688e-02 1.078124716877937317e-01 9.588392078876495361e-02 6.043795868754386902e-02 4.677807167172431946e-02 5.441727861762046814e-02 4.344219341874122620e-02 3.526205196976661682e-02 1.558063179254531860e-01 -1.431907992810010910e-02 -6.926240772008895874e-02 -2.848754525184631348e-01 1.104724705219268799e-01 -7.878603786230087280e-02 1.071866485290229321e-03 -1.952169835567474365e-01 -9.399770945310592651e-02 -2.877311594784259796e-02 -3.386799618601799011e-02 8.823073655366897583e-02 1.335321962833404541e-01 2.570634707808494568e-02 1.006000339984893799e-01 -1.958987861871719360e-01 -1.693492531776428223e-01 -1.523368209600448608e-01 3.532844036817550659e-02 2.202633209526538849e-02 1.970641165971755981e-01 1.221712771803140640e-02 1.609253883361816406e-01 9.677966684103012085e-02 -1.837477087974548340e-02 -5.666118115186691284e-02 5.016082152724266052e-02 -5.482087843120098114e-03 -4.278593882918357849e-02 -2.935918606817722321e-02 -2.992450445890426636e-02 1.552506000734865665e-03 -8.061118423938751221e-02 -7.035612314939498901e-02 -9.692065417766571045e-02 6.389096379280090332e-02 -9.401880949735641479e-02 7.598243653774261475e-02 4.885284602642059326e-02 -1.998184472322463989e-01 1.275251209735870361e-01 1.597396433353424072e-01 -6.408371031284332275e-02 -2.118377760052680969e-02 -4.227330908179283142e-02 -1.858338564634323120e-01 5.453092977404594421e-02 -1.078634783625602722e-01 9.246180951595306396e-02 8.373071998357772827e-02 7.044734805822372437e-02 -1.403357386589050293e-01 4.292865470051765442e-02 8.927383273839950562e-02 1.119816601276397705e-01 -6.077052652835845947e-02 -2.252875082194805145e-02 -6.441661715507507324e-02 8.915518224239349365e-02 -4.602643474936485291e-02 -8.709096908569335938e-02 1.319957077503204346e-01 -1.908055692911148071e-02 1.103323549032211304e-01 -3.343223407864570618e-02 -7.058693468570709229e-02 -7.117796689271926880e-02 8.092475682497024536e-02 1.006410643458366394e-02 1.816403307020664215e-02 -1.076100617647171021e-01 6.398106366395950317e-02 9.368042461574077606e-03 -5.775897204875946045e-02 -6.731291301548480988e-03 3.644625470042228699e-02 9.315533936023712158e-02 1.247816607356071472e-01 -3.123042732477188110e-02 -4.804101958870887756e-02 1.627240628004074097e-01 3.205607831478118896e-02 8.420003950595855713e-02 -2.601747028529644012e-02 4.992669448256492615e-02 3.356183180585503578e-03 -1.293459255248308182e-02 6.274823099374771118e-02 -2.057177713140845299e-03 1.405978202819824219e-01 1.107785031199455261e-01 3.573124855756759644e-02 9.073466062545776367e-02 6.315783411264419556e-02 -1.289943512529134750e-02 -1.102964282035827637e-01 -7.401889562606811523e-02 -2.032725811004638672e-01 -7.341554854065179825e-03 1.268529333174228668e-02 -1.499707102775573730e-01 1.574648544192314148e-02 -3.939493093639612198e-03 4.843006283044815063e-02 9.746685624122619629e-02 4.582475870847702026e-02 -1.771934702992439270e-02 -1.499577462673187256e-01 -9.657906368374824524e-03 -1.621731817722320557e-01 1.507639437913894653e-01 7.466094195842742920e-02 4.527895897626876831e-02 1.321834027767181396e-01 1.209171395748853683e-02 -7.280847430229187012e-02 1.359553337097167969e-01 9.980384260416030884e-02 -1.158707067370414734e-01 1.089328899979591370e-01 1.712485551834106445e-01 -8.888372685760259628e-04 -5.581089481711387634e-02 1.344505399465560913e-01 2.764099743217229843e-03 4.035011306405067444e-02 1.403255038894712925e-03 -7.437745574861764908e-03 -2.451842650771141052e-02 -5.248665437102317810e-02 -1.779460720717906952e-02 -1.008324846625328064e-01 -9.986167401075363159e-02 1.634586006402969360e-01 -4.709448292851448059e-02 2.488825097680091858e-02 -1.455441396683454514e-02 4.469479620456695557e-02 -2.230726182460784912e-02 -1.501574516296386719e-01 1.267447471618652344e-01 -1.181303486227989197e-01 -7.319757342338562012e-02 2.863173186779022217e-02 -8.276380598545074463e-02 1.290668845176696777e-01 5.373734980821609497e-02 2.975195273756980896e-02 -1.907731033861637115e-02 1.102725639939308167e-01 -2.034692913293838501e-01 4.562489688396453857e-03 -1.004678457975387573e-01 -5.123830214142799377e-02 1.986857503652572632e-02 1.286486387252807617e-01 -4.187178332358598709e-03 4.333816468715667725e-02 -6.085519120097160339e-02 1.435269564390182495e-01 -3.277644142508506775e-02 2.722501195967197418e-02 1.516709942370653152e-02 -7.320611923933029175e-02 7.163345813751220703e-02 -1.073073446750640869e-01 -2.377661317586898804e-02 -1.510685980319976807e-01 9.138156473636627197e-02 -3.433685377240180969e-02 -5.236727371811866760e-02 -2.723295055329799652e-02 2.473021149635314941e-01 2.077571600675582886e-01 -1.891862601041793823e-01 -2.090044878423213959e-02 9.245686233043670654e-02 -7.222359534353017807e-03 5.462302267551422119e-02
-7.480467110872268677e-02 -6.757940351963043213e-02 1.874594390392303467e-02 -1.568105518817901611e-01 -7.487688679248094559e-03 4.523654282093048096e-02 -1.764801330864429474e-02 -4.319450818002223969e-03 -9.791408665478229523e-03 1.453135162591934204e-01 -8.566782623529434204e-02 -1.684769839048385620e-01 -7.851897180080413818e-02 3.940819203853607178e-02 1.229221373796463013e-01 -3.638991340994834900e-02 -9.977433085441589355e-02 5.845116078853607178e-02 2.234984189271926880e-02 -3.832111880183219910e-02 -1.457031667232513428e-01 -9.029676765203475952e-02 -2.146050520241260529e-02 3.942823782563209534e-02 1.376560479402542114e-01 -2.755426336079835892e-03 3.090663440525531769e-02 2.669953405857086182e-01 1.221158802509307861e-01 -3.955256566405296326e-02 -4.537755250930786133e-02 -8.741319179534912109e-03 2.676605992019176483e-02 -1.768498569726943970e-01 -7.616598159074783325e-02 -2.713097957894206047e-03 8.901250548660755157e-03 -6.946913152933120728e-02 1.279821153730154037e-02 6.413952261209487915e-02 -2.694068476557731628e-02 -8.284818381071090698e-02 1.324318796396255493e-01 4.705252870917320251e-02 -8.378692716360092163e-02 1.448023021221160889e-01 -1.141487434506416321e-01 -3.946949169039726257e-02 -7.890087552368640900e-03 1.354825496673583984e-01 -5.260089412331581116e-02 1.360005000606179237e-03 1.028303280472755432e-01 6.805832684040069580e-02 -4.693784564733505249e-02 -6.427876651287078857e-02 2.486125230789184570e-01 -3.385212644934654236e-02 -1.042951550334692001e-02 -7.504718843847513199e-03 1.260349247604608536e-02 1.295571215450763702e-02 1.362268924713134766e-01 -3.819423168897628784e-02 3.642131015658378601e-02 -1.433629840612411499e-01 -5.662221461534500122e-02 3.270549699664115906e-02 4.358305037021636963e-02 2.039391249418258667e-01 1.552516072988510132e-01 2.029218524694442749e-01 9.245984256267547607e-02 6.872432678937911987e-02 -2.465320378541946411e-01 1.869917809963226318e-01 -1.582598090171813965e-01 3.491447540000081062e-03 5.923504382371902466e-02 1.297436505556106567e-01 1.282936781644821167e-01 -1.105032395571470261e-02 -4.389383643865585327e-02 -1.044224128127098083e-01 -4.010761156678199768e-02 3.107476793229579926e-02 -2.909417077898979187e-02 7.227163016796112061e-02 4.144883528351783752e-02 1.395814716815948486e-01 5.203469842672348022e-02 -2.281930111348628998e-02 -1.293982714414596558e-01 -8.932150900363922119e-03 3.724232688546180725e-02 -1.930183768272399902e-01 2.034626901149749756e-02 -6.525295227766036987e-02 1.199663802981376648e-01 -1.738084852695465088e-01 1.207446455955505371e-01 -2.118865773081779480e-02 2.787178009748458862e-02 -6.390666961669921875e-02 -6.915323436260223389e-02 -3.084858693182468414e-02 3.016995266079902649e-02 -1.108218505978584290e-01 -9.743734449148178101e-02 8.876990526914596558e-02 2.791609242558479309e-02 -1.075350567698478699e-01 2.372161671519279480e-02 3.583432734012603760e-02 -2.173694968223571777e-01 2.004456222057342529e-01 7.931282743811607361e-03 3.754357749130576849e-04 3.054578229784965515e-02 -1.428662538528442383e-01 -1.437103748321533203e-02 1.368342489004135132e-01 9.438543021678924561e-02 -2.613610215485095978e-02 -1.025863364338874817e-01 6.073343381285667419e-02 1.115470230579376221e-01 7.350830733776092529e-02 -1.508445478975772858e-02 1.364731639623641968e-01 -1.892372667789459229e-01 -5.675159767270088196e-02 8.772428147494792938e-03 -1.718427687883377075e-01 1.589571982622146606e-01 -1.075255200266838074e-01 -1.335156802088022232e-02 -5.663552135229110718e-02 -1.703439280390739441e-02 2.179137617349624634e-02 -1.708571240305900574e-02 1.286973655223846436e-01 1.106509491801261902e-01 -8.958061039447784424e-02 4.356596991419792175e-02 -1.057835519313812256e-01 9.858580678701400757e-02 -8.321737498044967651e-02 -2.216358110308647156e-02 1.191562190651893616e-01 9.640672802925109863e-02 7.936401665210723877e-02 4.567742720246315002e-02 1.000106930732727051e-01 5.088187754154205322e-02 -1.316433399915695190e-01 1.154188364744186401e-01 -5.915474146604537964e-02 2.270737290382385254e-02 -2.403112594038248062e-03 -1.152777895331382751e-01 -3.254514932632446289e-02 2.244085632264614105e-02 5.155913159251213074e-02 6.660941988229751587e-03 1.158047839999198914e-01 4.282810911536216736e-02 -8.529907464981079102e-02 2.225789800286293030e-02 -9.156232327222824097e-02 1.080006640404462814e-02 2.916432172060012817e-02 4.531038552522659302e-02 2.450714819133281708e-02 -1.653563976287841797e-02 1.754682958126068115e-01 -5.736881121993064880e-02 -4.129283875226974487e-02 1.252703517675399780e-01 1.060318276286125183e-01 8.798848092555999756e-02 2.364169992506504059e-02 7.404304295778274536e-02 6.964816898107528687e-02 -8.615752309560775757e-02 1.173757240176200867e-01 -9.561441838741302490e-03 5.805771797895431519e-02 1.232445333153009415e-02 1.655672118067741394e-02 7.859044522047042847e-02 5.922658834606409073e-03 5.350428074598312378e-02 -1.204135827720165253e-02 6.856704503297805786e-02 -1.765644997358322144e-01 -4.042550176382064819e-02 -5.146688595414161682e-02 1.660158187150955200e-01 -7.937647402286529541e-02 -1.345511525869369507e-01 9.110601991415023804e-02 -1.227747499942779541e-01 8.836726658046245575e-03 -3.501448407769203186e-02 3.070029057562351227e-02 -3.080772049725055695e-02 -5.316692218184471130e-02 -5.328985676169395447e-02 6.375779211521148682e-02 1.321902275085449219e-01 1.518779695034027100e-01 -1.781855374574661255e-01 -2.046608924865722656e-02 6.063452735543251038e-02 1.105778068304061890e-01 7.417208701372146606e-02 -2.862613834440708160e-02 -6.735147535800933838e-02 -2.680157311260700226e-02 -1.200626119971275330e-01 -6.291534006595611572e-02 -1.415960490703582764e-01 5.762860178947448730e-02 5.946885049343109131e-02 2.218436822295188904e-02 -6.248221546411514282e-02 3.130597248673439026e-02 -3.409361839294433594e-02 -1.887587830424308777e-03 1.168581098318099976e-01 -6.893055140972137451e-02 -4.523455351591110229e-02 5.236026272177696228e-02 6.148855388164520264e-02 -7.663641124963760376e-02 6.581807881593704224e-02 -5.700369924306869507e-02 -8.294297754764556885e-02 5.011801142245531082e-03 2.027086764574050903e-01 6.338320672512054443e-02 -3.402292355895042419e-02 7.013825327157974243e-02 9.002424031496047974e-02 2.066376209259033203e-01 -8.591774851083755493e-02 2.392522543668746948e-01 9.871019050478935242e-03 -4.194934852421283722e-03 -5.295944213867187500e-02 -1.258036643266677856e-01 -5.121899396181106567e-02 8.391066640615463257e-02 -7.008033245801925659e-02 8.091704547405242920e-02
