-2.334677129983901978e-01 -2.071393281221389771e-02 9.547751396894454956e-02 -1.892888918519020081e-02 -7.257342338562011719e-02 -1.068408191204071045e-01 -2.273135483264923096e-01 1.546761095523834229e-01 1.515630632638931274e-01 -1.433923654258251190e-02 1.593587175011634827e-02 -7.298894226551055908e-02 6.735593080520629883e-02 4.731038212776184082e-02 6.175523251295089722e-02 3.421514853835105896e-02 -9.177566505968570709e-03 1.385568268597126007e-02 1.814874857664108276e-01 1.833658963441848755e-01 1.401541233062744141e-01 5.640218034386634827e-02 6.200094521045684814e-02 -1.427986938506364822e-02 -8.254375308752059937e-02 -9.971636533737182617e-02 5.669128894805908203e-02 -5.942425131797790527e-02 -7.508166134357452393e-03 -1.385781913995742798e-01 -1.375518888235092163e-01 -1.599176600575447083e-02 2.111274898052215576e-01 -4.136876016855239868e-02 -1.621654927730560303e-01 9.423090144991874695e-03 -1.094209104776382446e-01 -2.017992585897445679e-01 -1.938820630311965942e-02 1.658467948436737061e-02 -1.164085865020751953e-01 2.022384107112884521e-01 -1.114280000329017639e-01 -5.506798252463340759e-02 6.973613053560256958e-02 -1.919070445001125336e-02 -1.892207004129886627e-02 2.090558111667633057e-01 6.802217662334442139e-02 -9.683815389871597290e-02 5.779064819216728210e-02 2.173757366836071014e-02 -3.149796649813652039e-02 -1.238817051053047180e-01 -1.302980165928602219e-02 -8.670725673437118530e-02 1.767986454069614410e-02 2.123015224933624268e-01
-7.014665752649307251e-02 6.622173637151718140e-02 8.103564381599426270e-02 -3.134195506572723389e-01 -2.762917429208755493e-02 -5.223082751035690308e-02 9.638037532567977905e-02 -1.256551295518875122e-01 8.618931472301483154e-02 -6.182792410254478455e-02 1.202710941433906555e-01 6.284920498728752136e-03 -9.658818691968917847e-02 1.511858850717544556e-01 1.152975633740425110e-01 -3.012476861476898193e-02 -1.427120296284556389e-03 1.176186054944992065e-01 -4.246684908866882324e-02 4.550940170884132385e-02 3.976646810770034790e-02 9.597121179103851318e-02 9.853740781545639038e-02 6.763637810945510864e-02 1.315105855464935303e-01 1.706526614725589752e-02 -9.376905858516693115e-02 -7.921704649925231934e-02 -1.659318804740905762e-02 2.625341527163982391e-02 1.851776540279388428e-01 8.241749368607997894e-03 -6.098303478211164474e-03 4.814083501696586609e-02 1.224528253078460693e-01 -4.093648400157690048e-03 7.350787520408630371e-02 5.447398498654365540e-02 1.444466039538383484e-02 -8.631091564893722534e-02 -1.980500519275665283e-01 -8.154575526714324951e-02 3.916634619235992432e-02 -1.115476060658693314e-02 5.482660979032516479e-02 -4.557862877845764160e-02 1.320983022451400757e-01 -1.125071495771408081e-01 -6.506484001874923706e-02 8.297538012266159058e-02 -2.862681075930595398e-02 -1.078184321522712708e-01 3.145173192024230957e-02 -1.356123201549053192e-02 -1.396251320838928223e-01 8.049390465021133423e-02 1.708170473575592041e-01 3.297047689557075500e-02
1.272586882114410400e-01 -8.621435612440109253e-02 7.966634631156921387e-02 -1.032842993736267090e-01 -7.924117892980575562e-02 -1.825575367547571659e-03 -7.372732460498809814e-02 8.380061388015747070e-02 -3.586328402161598206e-02 7.856127619743347168e-02 4.550526849925518036e-03 -1.511199772357940674e-01 -1.554368250072002411e-02 -1.204903982579708099e-02 1.769067943096160889e-01 1.168109476566314697e-01 1.671833917498588562e-02 2.617074847221374512e-01 -2.536382973194122314e-01 5.230529233813285828e-02 -1.331837773323059082e-01 1.643827185034751892e-02 -2.779345773160457611e-02 3.965957462787628174e-02 -1.309627443552017212e-01 -1.337425969541072845e-02 -3.143864870071411133e-02 8.887126296758651733e-02 3.180024679750204086e-03 -7.230218499898910522e-02 -1.482999175786972046e-01 -3.250782191753387451e-02 9.191323071718215942e-02 -1.156627386808395386e-01 -2.329373359680175781e-02 -8.426345884799957275e-02 -6.374828517436981201e-02 1.185601055622100830e-01 -6.394018977880477905e-02 7.503439486026763916e-02 6.003301963210105896e-02 -1.341942697763442993e-01 7.771663367748260498e-02 -2.247225679457187653e-02 5.045754835009574890e-03 -6.251040846109390259e-02 -4.720517992973327637e-02 -1.327774524688720703e-01 3.262278437614440918e-02 1.448737531900405884e-01 2.402557246387004852e-02 -9.188118390738964081e-03 5.118699744343757629e-02 -5.723816808313131332e-03 1.059364303946495056e-01 6.807232648134231567e-02 9.509067237377166748e-02 1.604966819286346436e-02
-7.843723148107528687e-02 1.503825932741165161e-01 3.437637984752655029e-01 1.347349397838115692e-02 9.907067753374576569e-03 3.801932930946350098e-02 1.428570225834846497e-02 -1.377263665199279785e-01 2.154102921485900879e-01 4.999519512057304382e-02 -2.239004895091056824e-02 1.263275742530822754e-01 -6.675928831100463867e-02 8.745547384023666382e-02 5.742213129997253418e-02 -3.712452948093414307e-02 3.689717850647866726e-04 -8.561052381992340088e-02 -1.137126684188842773e-01 1.372626423835754395e-02 5.844085291028022766e-02 -2.304345555603504181e-02 3.536849841475486755e-02 -1.159272622317075729e-02 5.512766540050506592e-02 6.107299029827117920e-02 -4.018283449113368988e-03 1.720262020826339722e-01 -1.580573036335408688e-03 -1.697211265563964844e-01 1.410343647003173828e-01 1.231400966644287109e-01 -5.488109216094017029e-02 -5.178952589631080627e-02 -1.551627833396196365e-02 1.294138580560684204e-01 9.345795959234237671e-02 -1.052347421646118164e-01 1.765961647033691406e-01 9.799873828887939453e-02 2.075123488903045654e-01 -2.290863990783691406e-01 -6.394034624099731445e-02 1.450242996215820312e-01 -5.981181561946868896e-02 6.323276460170745850e-02 1.272957678884267807e-02 -5.982903018593788147e-02 -2.210702598094940186e-01 -1.130425781011581421e-01 -2.936733514070510864e-02 -1.049891933798789978e-01 -6.205681245774030685e-03 2.009629085659980774e-02 1.875102892518043518e-02 -4.721686616539955139e-02 -3.122133202850818634e-02 2.317046523094177246e-01
7.604552060365676880e-02 -7.292595505714416504e-02 1.028127130120992661e-02 -4.082648828625679016e-02 -1.485251355916261673e-02 -8.645965158939361572e-02 -3.334302455186843872e-02 -7.456208765506744385e-02 2.418422996997833252e-01 1.074312068521976471e-02 2.219251357018947601e-02 1.488349307328462601e-02 1.255668103694915771e-01 -4.544039443135261536e-02 -1.291216257959604263e-02 -3.398451209068298340e-02 1.714686602354049683e-01 1.677148416638374329e-02 -1.295493990182876587e-01 5.496558919548988342e-02 2.040749341249465942e-01 -1.494343429803848267e-01 -4.862327501177787781e-02 -1.734891086816787720e-01 -7.750573754310607910e-02 -1.090914607048034668e-01 -1.473465096205472946e-02 -2.312619797885417938e-02 8.691449463367462158e-02 -4.974854737520217896e-02 6.868164241313934326e-02 5.408832803368568420e-02 1.413311660289764404e-01 3.858342021703720093e-02 2.617532573640346527e-02 3.168506314978003502e-03 3.477130457758903503e-02 6.801614165306091309e-02 2.313657104969024658e-02 1.304836869239807129e-01 -4.333986714482307434e-02 1.326282471418380737e-01 1.094206348061561584e-01 2.606469206511974335e-02 -1.045596823096275330e-01 -6.975392997264862061e-02 -4.537577182054519653e-02 3.646531328558921814e-02 2.781814709305763245e-02 5.944268777966499329e-02 1.798900961875915527e-02 -4.050811380147933960e-02 3.136271983385086060e-02 6.380390375852584839e-03 6.630998849868774414e-02 1.151382997632026672e-01 9.739407896995544434e-02 7.650528848171234131e-02
-3.832610324025154114e-02 1.091354191303253174e-01 -2.549192123115062714e-02 1.601091921329498291e-01 -4.550968762487173080e-03 -1.822436042129993439e-02 -3.524877503514289856e-02 3.315196558833122253e-02 8.239027857780456543e-02 2.253918536007404327e-02 -1.295414566993713379e-01 6.692850589752197266e-02 -4.786914959549903870e-02 -2.353984415531158447e-01 4.965266271028667688e-05 1.284867376089096069e-01 -9.734968096017837524e-02 1.115449331700801849e-02 -3.729752451181411743e-02 5.455147475004196167e-03 -1.314497292041778564e-01 -1.991658844053745270e-02 -7.591664791107177734e-02 -9.466961771249771118e-02 1.000947356224060059e-01 -6.770708411931991577e-02 1.248448416590690613e-01 -1.557236909866333008e-01 7.349752634763717651e-02 -1.007236838340759277e-01 -1.191702336072921753e-01 1.617750525474548340e-02 -1.263143122196197510e-01 1.618507131934165955e-02 -1.065194457769393921e-01 -9.893392026424407959e-02 1.189333759248256683e-02 -1.775879412889480591e-01 3.597936034202575684e-02 4.596322029829025269e-02 -9.847597032785415649e-02 -1.100411266088485718e-01 1.053119227290153503e-01 -9.739430993795394897e-02 7.032723724842071533e-02 4.734380543231964111e-02 6.901875138282775879e-02 2.969844453036785126e-02 -1.034642457962036133e-01 4.309814423322677612e-02 -1.870273947715759277e-01 -1.024511530995368958e-01 -4.511836916208267212e-02 -4.255742952227592468e-02 1.241835486143827438e-02 -1.673280633985996246e-02 -4.657651484012603760e-02 -1.569350063800811768e-01
1.119851246476173401e-01 4.153040423989295959e-02 2.432185411453247070e-01 4.741507768630981445e-02 5.746135953813791275e-03 6.472370773553848267e-02 -1.342620849609375000e-01 8.497267216444015503e-02 9.027265943586826324e-03 -2.057956010103225708e-01 -1.560985147953033447e-01 2.555221505463123322e-02 6.271220743656158447e-02 6.643089652061462402e-02 4.817865788936614990e-02 7.712881267070770264e-02 2.509507238864898682e-01 2.563493093475699425e-03 3.048670105636119843e-02 -5.315084010362625122e-02 -1.683208048343658447e-01 -1.365782469511032104e-01 7.411236409097909927e-03 1.089328341186046600e-02 7.185894995927810669e-02 2.127428725361824036e-02 8.722350001335144043e-02 -6.275472790002822876e-02 1.363649219274520874e-02 -8.540447801351547241e-02 -5.936486274003982544e-02 -3.126532211899757385e-02 -6.242591887712478638e-02 -2.074887789785861969e-02 -5.818349495530128479e-02 -9.707845002412796021e-02 3.994495421648025513e-02 5.974737461656332016e-03 4.474338889122009277e-02 2.788530895486474037e-03 -3.262582048773765564e-02 1.660633273422718048e-02 4.910554736852645874e-03 1.186545640230178833e-01 1.434912066906690598e-02 9.489530324935913086e-02 -8.226750418543815613e-03 1.170505285263061523e-01 1.956292241811752319e-01 -1.331402361392974854e-01 -1.089910715818405151e-01 -4.105400294065475464e-02 3.874362260103225708e-02 5.761142820119857788e-03 -2.420994453132152557e-02 -6.569214165210723877e-02 -6.191032007336616516e-02 -4.720832780003547668e-02
-5.948753654956817627e-02 8.833266049623489380e-02 -7.504358887672424316e-02 1.392818093299865723e-01 -2.544358968734741211e-01 2.868821844458580017e-02 3.558300808072090149e-02 9.472234547138214111e-02 1.129904314875602722e-01 -7.558550685644149780e-02 2.433921396732330322e-02 9.737496078014373779e-02 9.682344272732734680e-03 -1.248841825872659683e-02 5.541967600584030151e-02 -1.113566309213638306e-01 9.777090512216091156e-03 -1.308920234441757202e-02 -5.717191472649574280e-02 1.464838981628417969e-01 1.725925691425800323e-02 1.582832424901425838e-03 6.267853081226348877e-02 1.277337670326232910e-01 1.645126342773437500e-01 -1.430151164531707764e-01 -1.152191236615180969e-01 4.004741460084915161e-02 -3.709953278303146362e-02 1.667564921081066132e-02 1.346490681171417236e-01 -1.330561041831970215e-01 -1.812633872032165527e-01 7.762919366359710693e-02 6.215019896626472473e-02 -3.311531990766525269e-02 1.471334397792816162e-01 1.946645230054855347e-01 3.100159391760826111e-02 -2.537075057625770569e-02 -1.772341784089803696e-04 8.996178209781646729e-02 7.913843542337417603e-02 -1.336036920547485352e-01 3.771091997623443604e-02 3.871145099401473999e-02 -9.105663746595382690e-02 -7.352289557456970215e-02 1.846322715282440186e-01 -1.780023914761841297e-03 -1.683606058359146118e-01 -1.499836985021829605e-02 7.517981529235839844e-02 -1.021425239741802216e-02 -1.520039513707160950e-02 -1.119928155094385147e-02 7.811217010021209717e-02 1.006269976496696472e-01
-2.244173884391784668e-01 1.950948536396026611e-01 -5.084698647260665894e-02 -2.798811346292495728e-02 7.420768588781356812e-02 1.142853521741926670e-03 2.169127576053142548e-02 -1.880075484514236450e-01 8.044544607400894165e-03 2.321443893015384674e-02 1.517094075679779053e-01 2.756259590387344360e-02 -9.742683917284011841e-02 6.462595425546169281e-03 -7.377043366432189941e-02 -1.507574599236249924e-02 -4.696950316429138184e-02 -1.732158288359642029e-02 -5.402687191963195801e-02 1.922734454274177551e-02 5.726579949259757996e-02 -6.369930505752563477e-02 -1.022321209311485291e-01 -5.023338273167610168e-02 1.108181942254304886e-02 4.379609972238540649e-02 -1.783331669867038727e-02 1.698258682154119015e-03 -1.511266976594924927e-01 -5.088953673839569092e-02 3.620798140764236450e-02 -3.669080883264541626e-02 1.729360222816467285e-01 4.756696522235870361e-02 -6.007147580385208130e-02 7.018651068210601807e-02 5.324359610676765442e-02 -3.273682296276092529e-02 6.096556782722473145e-02 5.877717584371566772e-02 -5.235053971409797668e-02 -1.051919087767601013e-01 -7.570040971040725708e-02 -6.361839175224304199e-02 -1.085158511996269226e-01 6.803466379642486572e-02 4.556170478463172913e-02 1.081021651625633240e-01 -1.224929243326187134e-01 -1.108415052294731140e-02 2.059534937143325806e-02 -3.408361598849296570e-02 4.946818202733993530e-02 8.044496923685073853e-02 4.105009511113166809e-02 -1.143447309732437134e-01 4.389351978898048401e-02 1.172959879040718079e-01
2.343846671283245087e-02 1.070291027426719666e-01 -5.794095993041992188e-02 -1.011535003781318665e-01 -1.259554475545883179e-01 5.187625810503959656e-02 -6.787183135747909546e-02 2.774671837687492371e-02 -2.166319452226161957e-02 9.416197240352630615e-02 -4.189196228981018066e-02 7.041348516941070557e-02 -1.295962035655975342e-01 -1.467253118753433228e-01 6.686063855886459351e-02 9.219655767083168030e-03 1.780260950326919556e-01 1.557894051074981689e-01 -1.184399873018264771e-01 1.208410859107971191e-01 -1.099283769726753235e-01 -2.945631369948387146e-02 1.678089052438735962e-01 7.074487209320068359e-02 -1.336203813552856445e-01 2.131818830966949463e-01 -1.379480957984924316e-02 -1.350085139274597168e-01 4.189822450280189514e-02 3.005257109180092812e-03 -1.293154060840606689e-01 4.798935726284980774e-02 -1.550978273153305054e-01 5.001299083232879639e-02 -1.586878150701522827e-01 -3.696055850014090538e-03 5.800951644778251648e-02 -1.340733617544174194e-01 -9.064202755689620972e-02 1.845896430313587189e-02 -3.634364530444145203e-02 -6.256560981273651123e-02 -1.214630231261253357e-01 -6.550069898366928101e-03 1.421763151884078979e-01 -4.786775633692741394e-02 2.572942711412906647e-02 -4.159837588667869568e-02 -1.662568002939224243e-01 1.136629935353994370e-02 -5.610286071896553040e-02 5.772874876856803894e-02 1.901448704302310944e-03 3.422021400183439255e-03 2.292842417955398560e-02 9.037540107965469360e-02 7.958588004112243652e-02 5.964830052107572556e-03
-9.086528420448303223e-02 -2.242020703852176666e-02 1.441107243299484253e-01 1.412621885538101196e-01 -1.248261928558349609e-01 9.008581191301345825e-02 -9.067503362894058228e-02 3.259786963462829590e-02 1.127946078777313232e-01 -1.204046979546546936e-02 -4.698039963841438293e-02 7.824289053678512573e-02 -1.809726096689701080e-02 -3.689558804035186768e-02 4.197030328214168549e-03 -8.024267107248306274e-02 1.063267439603805542e-01 2.712770737707614899e-02 9.540642052888870239e-02 -1.248397603631019592e-01 -2.262178808450698853e-02 -1.724393665790557861e-01 -8.383056521415710449e-02 -1.141862645745277405e-01 -9.132242947816848755e-02 -1.311695203185081482e-02 7.124958187341690063e-02 -8.233004063367843628e-02 1.981302499771118164e-01 -1.290574111044406891e-02 -4.553873091936111450e-02 -6.150510162115097046e-02 1.812122762203216553e-01 9.567204862833023071e-02 -6.775986403226852417e-02 -4.315359890460968018e-02 -1.339766662567853928e-02 1.236921250820159912e-01 1.241048574447631836e-01 -1.647683046758174896e-02 2.488841861486434937e-02 6.584379822015762329e-02 1.069891303777694702e-01 8.180831372737884521e-02 -2.031818479299545288e-01 1.852360963821411133e-01 7.956884801387786865e-03 8.436629921197891235e-02 -1.123585477471351624e-01 7.541703432798385620e-02 1.217489913105964661e-01 6.817919015884399414e-02 7.667452841997146606e-02 2.555186673998832703e-02 -6.209519878029823303e-02 4.953848198056221008e-02 7.745031733065843582e-03 8.348403871059417725e-02
-6.687609106302261353e-02 2.376869320869445801e-01 -8.774938434362411499e-02 -1.606428325176239014e-01 2.322631655260920525e-03 -1.089871004223823547e-01 -2.686873674392700195e-01 -1.057580485939979553e-01 2.353850603103637695e-01 2.506533265113830566e-01 -1.457946896553039551e-01 8.263675123453140259e-02 1.850375086069107056e-01 6.365830451250076294e-02 -8.130133897066116333e-02 5.904752388596534729e-02 2.646324224770069122e-02 4.268262907862663269e-02 -1.001877114176750183e-01 -2.962317876517772675e-02 8.258530497550964355e-02 -9.904172271490097046e-03 2.792999520897865295e-02 -4.117144271731376648e-02 -7.312056422233581543e-02 -6.321222987025976181e-03 -8.988373726606369019e-02 3.302643448114395142e-02 4.199005290865898132e-02 9.959487617015838623e-02 -8.293319493532180786e-02 1.020499914884567261e-01 -4.870571196079254150e-03 4.402025416493415833e-02 -1.670461744070053101e-01 -3.446563333272933960e-02 -4.648965969681739807e-02 -1.722681149840354919e-02 4.057380184531211853e-02 -5.434086173772811890e-02 -2.760482020676136017e-02 -3.607447445392608643e-02 -7.145974040031433105e-02 -1.659317761659622192e-01 -1.362324953079223633e-01 5.462178587913513184e-02 1.273282989859580994e-02 -1.056057959794998169e-02 1.189639493823051453e-01 1.785745322704315186e-01 3.032905608415603638e-02 -4.033020138740539551e-02 1.966907531023025513e-01 6.504467688500881195e-03 -1.866021156311035156e-01 5.736763775348663330e-02 -8.406551182270050049e-02 2.557003311812877655e-02
3.444341197609901428e-02 7.212714105844497681e-02 1.181094720959663391e-01 1.783891618251800537e-01 1.408894956111907959e-01 -1.442862749099731445e-01 -2.293614484369754791e-02 -3.661357238888740540e-02 -7.304348051548004150e-02 -2.691650204360485077e-02 -5.576486140489578247e-02 -2.346911132335662842e-01 -2.586634755134582520e-01 -5.820849910378456116e-02 -8.408774435520172119e-02 -2.515434520319104195e-03 1.274262070655822754e-01 -2.488420903682708740e-02 1.119039431214332581e-01 -1.493064463138580322e-01 -4.871525987982749939e-02 1.921259909868240356e-01 -4.629436880350112915e-02 7.200052030384540558e-03 2.511889860033988953e-02 -2.361024171113967896e-02 8.662717789411544800e-02 -1.296289265155792236e-02 2.871508151292800903e-02 -2.188702374696731567e-01 2.053760141134262085e-01 6.646582484245300293e-02 1.449613422155380249e-01 9.707681834697723389e-02 -1.123822033405303955e-01 1.437787525355815887e-02 -1.487487405538558960e-01 1.280421614646911621e-01 -7.076572626829147339e-02 -7.701665163040161133e-03 -7.976076006889343262e-02 3.405098617076873779e-02 1.332484884187579155e-03 -5.233520269393920898e-02 1.011854931712150574e-01 9.490004926919937134e-02 3.433443978428840637e-02 -1.441538929939270020e-01 -6.954253464937210083e-02 4.124211892485618591e-02 -1.430456177331507206e-03 6.328397244215011597e-02 3.518467396497726440e-02 -7.481509447097778320e-02 -1.531208008527755737e-01 -6.532861292362213135e-02 8.911348134279251099e-02 1.390497982501983643e-01
1.479733455926179886e-02 7.944968342781066895e-02 -1.826958507299423218e-01 -1.455021202564239502e-01 4.149721935391426086e-02 9.318653494119644165e-02 -1.263216435909271240e-01 -2.309324890375137329e-01 2.931969799101352692e-02 2.692465670406818390e-02 -6.353756785392761230e-02 -6.148028001189231873e-02 -6.777308136224746704e-02 -8.037925511598587036e-02 -1.921979933977127075e-01 -1.570880413055419922e-02 1.669856160879135132e-01 8.905136957764625549e-03 -9.225715883076190948e-03 -6.261073797941207886e-02 7.018662989139556885e-02 1.873269379138946533e-01 -5.275886505842208862e-02 2.102248370647430420e-02 -1.119659841060638428e-01 -9.201582521200180054e-03 7.385800033807754517e-02 -1.327025443315505981e-01 -1.767359375953674316e-01 -8.303517475724220276e-03 1.574941165745258331e-02 -2.612333595752716064e-01 -1.098427176475524902e-01 -3.750971332192420959e-02 -6.044458970427513123e-02 1.091592907905578613e-01 -1.157376766204833984e-01 -5.788272246718406677e-03 7.396349310874938965e-02 6.954137235879898071e-02 8.737521618604660034e-02 8.401884883642196655e-02 9.106194972991943359e-02 7.070223242044448853e-02 2.237243950366973877e-02 5.538973957300186157e-02 -5.769313126802444458e-02 -5.960996076464653015e-02 -7.907938957214355469e-02 3.960831835865974426e-02 -1.609189957380294800e-01 -1.771579496562480927e-02 4.555763304233551025e-02 -4.621167853474617004e-02 -3.898762911558151245e-02 3.863380104303359985e-02 3.136081621050834656e-02 6.819103658199310303e-02
-1.606040894985198975e-01 4.323630407452583313e-02 6.235884875059127808e-02 -6.207155063748359680e-02 -1.878723949193954468e-01 -1.148627996444702148e-01 -1.468077767640352249e-02 2.202105708420276642e-02 1.660461537539958954e-02 3.336508944630622864e-02 4.740517958998680115e-02 1.162643581628799438e-01 4.692937806248664856e-02 9.336402267217636108e-02 -2.468241378664970398e-02 -1.170932687819004059e-02 6.979734450578689575e-02 -4.175802320241928101e-02 4.027076438069343567e-02 -4.623393341898918152e-02 1.462058871984481812e-01 7.562379539012908936e-02 2.013031579554080963e-02 1.573157310485839844e-02 6.965336948633193970e-02 -3.957280144095420837e-02 1.129766181111335754e-01 -1.620425283908843994e-01 -2.018445916473865509e-02 7.415384054183959961e-02 -5.349572002887725830e-02 -1.352052856236696243e-02 -1.153317317366600037e-01 -1.889326237142086029e-02 1.607223153114318848e-01 -2.372656464576721191e-01 3.981865942478179932e-02 -1.002841144800186157e-01 1.301561594009399414e-01 -2.759366296231746674e-02 -5.683156475424766541e-02 6.431137025356292725e-02 -8.876067399978637695e-02 7.051353156566619873e-02 3.535726666450500488e-01 1.291786227375268936e-02 -6.155679374933242798e-02 -4.463182762265205383e-02 -1.213547438383102417e-01 1.302299499511718750e-01 7.107793539762496948e-02 -3.332842513918876648e-02 1.251911371946334839e-01 2.450270811095833778e-03 2.215684577822685242e-02 5.328529514372348785e-03 5.014853179454803467e-02 -3.317277878522872925e-02
2.780197747051715851e-02 -2.955069020390510559e-02 -3.139308467507362366e-02 1.713659018278121948e-01 -1.494148671627044678e-01 -5.570864677429199219e-02 -2.097748219966888428e-03 -6.644874066114425659e-02 1.242650672793388367e-02 -6.665103137493133545e-02 -9.418151527643203735e-02 6.491882354021072388e-02 2.268713712692260742e-02 8.910223096609115601e-02 1.905585452914237976e-02 -1.147142425179481506e-01 -4.290238022804260254e-02 -6.585434824228286743e-02 -2.934344857931137085e-02 -5.857971962541341782e-03 1.073758006095886230e-01 3.719983622431755066e-02 3.792149946093559265e-02 5.680165067315101624e-02 6.811278313398361206e-02 -2.534990385174751282e-02 4.931023716926574707e-02 3.181808069348335266e-02 1.276875585317611694e-01 -1.092742681503295898e-01 3.439265489578247070e-02 1.328514665365219116e-01 1.206205859780311584e-01 -3.090772777795791626e-02 -2.486527524888515472e-02 -6.990477442741394043e-02 1.006879955530166626e-01 1.262533962726593018e-01 -3.505825996398925781e-02 8.599647879600524902e-02 6.012875959277153015e-02 -6.292168796062469482e-02 -3.293076902627944946e-02 -1.610461473464965820e-01 2.545675933361053467e-01 4.602378979325294495e-02 -2.313698828220367432e-02 1.711116284132003784e-01 -2.947543933987617493e-02 4.961432889103889465e-03 -7.931735366582870483e-02 2.071182429790496826e-02 -1.782807558774948120e-01 -1.632929034531116486e-02 3.704092651605606079e-02 1.923565007746219635e-02 -3.936673700809478760e-02 9.686010330915451050e-02
-1.303960680961608887e-01 6.477940827608108521e-02 -2.092707343399524689e-02 6.672933232039213181e-03 4.184682667255401611e-02 1.014742627739906311e-01 -3.204001486301422119e-02 -2.762743085622787476e-02 1.751449308358132839e-03 -2.537437900900840759e-02 -1.648213267326354980e-01 -1.105585172772407532e-01 3.149496391415596008e-02 3.243715036660432816e-03 -1.473637074232101440e-01 -1.397314816713333130e-01 1.004500761628150940e-01 -8.642887324094772339e-02 -6.423727422952651978e-02 9.109551459550857544e-02 -1.333140023052692413e-02 -1.160771027207374573e-01 -4.228517785668373108e-02 -1.754572987556457520e-02 -4.446875303983688354e-03 -6.129635497927665710e-03 3.016991354525089264e-02 -9.845999628305435181e-02 1.537902802228927612e-01 -6.078552454710006714e-02 1.621921956539154053e-01 5.339379236102104187e-02 2.396611124277114868e-01 -1.136820986866950989e-01 4.375252872705459595e-02 2.488810010254383087e-02 -4.002669081091880798e-02 1.661753207445144653e-01 -6.796237826347351074e-02 2.923840074799954891e-04 -3.770711645483970642e-02 -1.899040192365646362e-01 2.851993218064308167e-02 -5.655633285641670227e-02 -2.341239526867866516e-02 -8.308301120996475220e-02 -1.390135884284973145e-01 -2.238637208938598633e-02 -8.056940138339996338e-02 -1.487664785236120224e-02 2.700025402009487152e-02 -8.639539778232574463e-02 9.427894651889801025e-02 -1.432655304670333862e-01 4.426255822181701660e-02 4.480690881609916687e-02 5.613477900624275208e-03 1.460953950881958008e-01
-1.910762786865234375e-01 1.320850551128387451e-01 -9.311290830373764038e-02 1.397489905357360840e-01 -1.291376054286956787e-01 7.294787559658288956e-03 3.538026241585612297e-03 -6.575547158718109131e-02 -1.316888183355331421e-01 -1.692392677068710327e-01 5.384712480008602142e-03 -1.271391361951828003e-01 9.717363864183425903e-02 1.256287395954132080e-01 2.064124941825866699e-01 -9.281273186206817627e-02 -5.060595273971557617e-02 1.355281025171279907e-01 -4.358280450105667114e-02 -1.302590817213058472e-01 6.002445146441459656e-02 7.797147333621978760e-02 1.748299002647399902e-01 -1.173439770936965942e-01 -2.052013278007507324e-01 1.553879491984844208e-02 -9.183754771947860718e-02 -3.521097451448440552e-02 7.219120860099792480e-02 -8.445875719189643860e-03 3.517963737249374390e-02 -5.126670002937316895e-03 3.876568749547004700e-02 -5.805404111742973328e-02 -3.989042341709136963e-02 6.550575140863656998e-03 5.159137398004531860e-02 -6.785561889410018921e-02 3.202026337385177612e-02 -3.232675045728683472e-02 -9.980425238609313965e-02 -1.946040987968444824e-02 1.116822361946105957e-01 2.516587451100349426e-02 4.652877151966094971e-02 -7.757478952407836914e-02 1.032387763261795044e-01 -3.855189308524131775e-02 -7.817970961332321167e-02 -3.844308853149414062e-02 3.099051490426063538e-02 3.727046772837638855e-02 7.298683375120162964e-02 -2.409952729940414429e-01 1.224778890609741211e-01 -6.149997189640998840e-02 7.579644024372100830e-02 -7.426624000072479248e-02
6.234861910343170166e-02 1.851445436477661133e-01 -2.470843680202960968e-02 -3.935521841049194336e-02 -7.317227870225906372e-02 -1.077652201056480408e-01 1.723904758691787720e-01 -1.337689906358718872e-01 -3.851186484098434448e-02 1.684773899614810944e-02 5.277709662914276123e-02 5.876711755990982056e-02 -9.546579420566558838e-02 5.361466482281684875e-02 -1.275981366634368896e-01 8.477360010147094727e-02 -4.062646254897117615e-02 -6.384935695677995682e-03 -5.060153827071189880e-02 -5.408287048339843750e-02 5.271608382463455200e-02 -1.102011576294898987e-01 -1.316468268632888794e-01 -4.066735133528709412e-02 -4.841670766472816467e-02 -8.911266177892684937e-02 3.655777871608734131e-02 -1.347849518060684204e-01 -4.006671905517578125e-02 -9.147120872512459755e-04 1.113567575812339783e-01 -1.455796975642442703e-02 -7.594862580299377441e-02 -1.224173754453659058e-01 -1.011270508170127869e-01 -9.837051481008529663e-02 -7.085576653480529785e-02 4.775377456098794937e-03 -6.855667382478713989e-02 -5.219722539186477661e-02 -8.269097656011581421e-02 1.334579735994338989e-01 -1.043937355279922485e-01 1.439145654439926147e-01 1.382505595684051514e-01 1.249070540070533752e-01 7.146398723125457764e-02 -4.969963803887367249e-02 9.940367937088012695e-02 -4.823774471879005432e-02 9.830941259860992432e-02 5.803171545267105103e-02 6.785718351602554321e-02 2.372649125754833221e-02 5.900377780199050903e-02 1.196530554443597794e-02 8.984073251485824585e-02 1.689377613365650177e-02
-1.290357559919357300e-01 1.103370487689971924e-01 -1.678110212087631226e-01 -9.197146445512771606e-02 6.009608507156372070e-02 1.210433524101972580e-02 -9.048526734113693237e-02 1.103918626904487610e-01 -2.311454154551029205e-02 -3.195486590266227722e-02 4.157039523124694824e-02 1.638329995330423117e-04 9.487099200487136841e-02 2.193209379911422729e-01 -1.979717016220092773e-01 4.877608641982078552e-02 1.483295410871505737e-01 8.450909703969955444e-02 -1.519951373338699341e-01 4.690822958946228027e-02 -7.069543004035949707e-02 1.929082348942756653e-02 -2.708102762699127197e-02 -4.731310904026031494e-02 -1.279920786619186401e-01 4.335581883788108826e-02 -2.407521009445190430e-02 -2.268438786268234253e-02 1.059618592262268066e-02 1.084536164999008179e-01 7.580823451280593872e-02 -1.443860381841659546e-01 -4.091067239642143250e-02 -2.560154497623443604e-01 -2.753079123795032501e-02 -4.469871055334806442e-03 7.898605614900588989e-02 -4.490851238369941711e-02 1.145657375454902649e-01 1.953877694904804230e-02 -1.393983364105224609e-01 3.061943687498569489e-03 1.210584938526153564e-01 5.580786988139152527e-02 -3.147809207439422607e-02 1.261621415615081787e-01 -2.509296499192714691e-02 -1.799615621566772461e-01 -8.831423521041870117e-02 -1.552681177854537964e-01 -2.191169932484626770e-02 1.424168050289154053e-01 -9.263808280229568481e-02 1.774899289011955261e-02 -5.611903965473175049e-02 -4.955516755580902100e-02 7.164289057254791260e-02 1.003599092364311218e-01
-2.710653841495513916e-02 4.169674124568700790e-03 3.059741556644439697e-01 -3.614225983619689941e-02 6.564000248908996582e-02 -7.271730341017246246e-03 -1.271072626113891602e-01 -4.972114413976669312e-02 -9.060975164175033569e-02 -6.681718677282333374e-02 -1.242441087961196899e-01 -6.407827883958816528e-02 1.084443777799606323e-01 -9.022756665945053101e-02 1.242951080203056335e-01 2.509404346346855164e-02 -7.121292501688003540e-02 -1.163787022233009338e-01 5.255480855703353882e-02 -1.337728053331375122e-01 -1.608167588710784912e-01 -1.774959862232208252e-01 2.514184266328811646e-02 1.335447002202272415e-02 8.656827360391616821e-02 -5.012304708361625671e-02 5.028100311756134033e-02 7.532282616011798382e-04 1.005274951457977295e-01 -1.437540352344512939e-02 2.398751862347126007e-02 2.433004043996334076e-02 5.374403297901153564e-02 1.168671529740095139e-02 -1.087596453726291656e-02 -9.409083425998687744e-02 -9.845770150423049927e-02 2.324925549328327179e-02 -1.015284806489944458e-01 2.431763708591461182e-02 1.853735595941543579e-01 9.905846416950225830e-02 -1.170068308711051941e-01 1.800219528377056122e-02 4.903136566281318665e-02 -8.904695510864257812e-03 7.200595922768115997e-03 -1.191124543547630310e-01 1.705827307887375355e-03 -1.495305597782135010e-01 6.379462033510208130e-02 -7.213603705167770386e-02 -4.803528264164924622e-02 1.630691997706890106e-02 -1.588652431964874268e-01 -2.408448606729507446e-02 -1.422876678407192230e-02 2.669788524508476257e-02
-5.931225139647722244e-03 -2.076250873506069183e-02 -1.627942472696304321e-01 1.315533090382814407e-02 -1.914861798286437988e-02 9.948007017374038696e-02 7.557399105280637741e-03 1.362525206059217453e-02 8.104224107228219509e-04 -8.680716156959533691e-03 -3.669837862253189087e-02 1.256965249776840210e-01 -2.553925476968288422e-02 -5.102818831801414490e-02 -1.131656616926193237e-01 2.408957667648792267e-02 -1.841754838824272156e-02 -3.436528146266937256e-02 1.049151942133903503e-01 1.900183409452438354e-01 3.331194445490837097e-02 9.229321032762527466e-03 2.167364805936813354e-01 1.343129575252532959e-01 2.505886740982532501e-02 9.200965613126754761e-02 -8.514203876256942749e-02 2.288242802023887634e-02 -1.153479591012001038e-01 -2.627800032496452332e-02 6.050747632980346680e-02 1.421778947114944458e-01 2.172418124973773956e-02 4.496192559599876404e-02 -1.591354794800281525e-02 7.948742806911468506e-02 -1.428328752517700195e-01 -1.490041613578796387e-01 -2.336766421794891357e-01 8.933050185441970825e-02 -6.228956580162048340e-02 -6.058224290609359741e-02 7.049877196550369263e-02 8.634994179010391235e-02 -9.986695647239685059e-02 -7.440928369760513306e-02 6.061893701553344727e-02 -6.716604530811309814e-02 -8.149711787700653076e-02 1.263644248247146606e-01 6.859448552131652832e-02 -4.181917384266853333e-02 -1.594225466251373291e-01 -7.174945622682571411e-02 5.899253487586975098e-02 -5.894993431866168976e-03 -1.746852844953536987e-01 2.089939825236797333e-02
5.147947371006011963e-02 1.387638878077268600e-02 3.773659467697143555e-01 5.027749016880989075e-02 -5.704476684331893921e-02 9.482955560088157654e-03 1.700417399406433105e-01 -9.372280538082122803e-02 -6.736211478710174561e-02 6.697342265397310257e-03 8.906654268503189087e-02 -4.797713831067085266e-02 -7.461866736412048340e-02 9.407532215118408203e-02 -5.874032527208328247e-02 -1.226931661367416382e-01 -7.756426185369491577e-02 -1.719853840768337250e-02 1.491703540086746216e-01 4.773201420903205872e-02 1.695306785404682159e-02 -3.753666207194328308e-02 9.118448197841644287e-02 -1.064268872141838074e-01 -9.289205819368362427e-02 6.366442423313856125e-03 -5.807650834321975708e-02 -1.323274224996566772e-01 1.853335797786712646e-01 1.791835390031337738e-02 -6.780400872230529785e-02 2.463044673204421997e-01 -5.088416486978530884e-02 -4.195747524499893188e-02 -2.514241449534893036e-02 -3.095737658441066742e-02 -3.696589171886444092e-02 2.632493712007999420e-02 -8.985339850187301636e-02 4.560232535004615784e-02 9.431868046522140503e-02 3.950678184628486633e-02 -1.324930936098098755e-01 1.107206866145133972e-01 -1.327343583106994629e-01 -7.962845265865325928e-03 -3.369100019335746765e-02 1.131929457187652588e-01 -1.324152350425720215e-01 6.348431855440139771e-02 8.448892086744308472e-02 -3.346100822091102600e-02 -1.455703191459178925e-02 -1.173357367515563965e-01 -1.446207761764526367e-01 -5.739150196313858032e-02 4.307925701141357422e-02 7.735809683799743652e-02
-7.579627912491559982e-03 -8.214423432946205139e-03 -9.257261455059051514e-02 -4.857612401247024536e-02 1.694196090102195740e-02 1.148370578885078430e-01 -7.708983868360519409e-02 -4.242294281721115112e-02 -4.221653565764427185e-02 -5.912252143025398254e-02 6.313905119895935059e-02 -6.604059040546417236e-02 1.589979082345962524e-01 -1.356105655431747437e-01 2.034501284360885620e-01 2.177850455045700073e-01 1.312254220247268677e-01 -1.635296344757080078e-01 4.484544042497873306e-03 9.853819757699966431e-02 1.698018163442611694e-01 9.581581503152847290e-02 -1.543696038424968719e-02 2.246946468949317932e-02 -3.519859164953231812e-03 2.381204068660736084e-01 7.379183173179626465e-02 1.599459201097488403e-01 8.303274959325790405e-02 -9.288638085126876831e-02 -8.105559647083282471e-02 -1.614952981472015381e-01 3.506331006065011024e-03 1.124736741185188293e-01 1.523018926382064819e-01 -1.058062463998794556e-01 2.502256818115711212e-02 -3.747896850109100342e-02 -2.688091695308685303e-01 -7.894413918256759644e-02 7.597972452640533447e-02 3.244047239422798157e-02 -5.192575976252555847e-02 1.155076548457145691e-01 -3.573158383369445801e-02 5.197480320930480957e-03 1.476956307888031006e-01 -1.185027584433555603e-01 2.931240946054458618e-02 -6.099529564380645752e-02 4.755132645368576050e-02 1.602782905101776123e-01 -1.931420899927616119e-02 1.977945864200592041e-02 5.190322175621986389e-02 1.825214326381683350e-01 -7.161388546228408813e-02 1.767263114452362061e-01
3.254652768373489380e-02 -3.930735215544700623e-02 -1.963394284248352051e-01 7.956108450889587402e-02 5.691757053136825562e-02 -1.081373635679483414e-02 -1.118652001023292542e-01 6.532851606607437134e-03 -1.532817035913467407e-01 1.444173008203506470e-01 1.886098235845565796e-01 -1.827359199523925781e-03 -9.052009135484695435e-02 5.830975621938705444e-02 3.418768569827079773e-02 4.620094969868659973e-02 -9.587401896715164185e-02 -2.363364445045590401e-03 -4.605707898736000061e-02 5.016580969095230103e-02 1.844052039086818695e-02 5.633004382252693176e-02 4.045640677213668823e-02 6.030452251434326172e-02 3.785697743296623230e-02 -3.865784406661987305e-02 1.563193053007125854e-01 1.432531327009201050e-01 1.225594729185104370e-01 1.071627810597419739e-01 -5.185270309448242188e-02 -5.525308474898338318e-02 2.458002977073192596e-02 5.867362394928932190e-02 2.623679488897323608e-02 -9.770004451274871826e-02 7.389536499977111816e-02 -1.011588200926780701e-01 1.951708495616912842e-01 2.165994979441165924e-02 -1.060711890459060669e-01 1.411504745483398438e-01 -1.292613241821527481e-02 1.832626610994338989e-01 3.768723830580711365e-02 -5.552953109145164490e-02 2.314238063991069794e-02 5.986349284648895264e-02 -9.751145541667938232e-02 -9.425077587366104126e-03 1.831370294094085693e-01 -1.104658395051956177e-01 2.279845811426639557e-02 4.331118240952491760e-02 1.941272616386413574e-02 -9.406565688550472260e-03 -4.126723110675811768e-02 2.070320695638656616e-01
8.542405068874359131e-02 4.683941975235939026e-02 -8.184090256690979004e-02 -1.132680196315050125e-02 -3.140375774819403887e-04 -6.177039444446563721e-02 -4.225293919444084167e-02 -6.481484323740005493e-02 -1.818590797483921051e-02 1.444812119007110596e-01 5.427638068795204163e-02 5.507828202098608017e-03 -3.534734994173049927e-02 -4.956825077533721924e-02 9.662099927663803101e-02 1.542169004678726196e-01 4.879124835133552551e-02 8.967287093400955200e-02 4.872216284275054932e-02 -1.018966138362884521e-01 -1.395377069711685181e-01 7.069366425275802612e-02 4.426193982362747192e-02 -9.845162183046340942e-02 -1.463200002908706665e-01 -6.552679836750030518e-02 -4.053115844726562500e-03 -5.687507241964340210e-02 8.376497030258178711e-02 -1.072214841842651367e-01 9.577865898609161377e-02 -2.146650105714797974e-01 5.480641126632690430e-02 -2.371817268431186676e-02 -2.450747601687908173e-02 3.511922061443328857e-02 1.832171678543090820e-01 6.159078329801559448e-02 1.619114167988300323e-02 3.098184801638126373e-02 3.574726358056068420e-02 4.638594761490821838e-02 -1.861574202775955200e-01 5.410280823707580566e-02 -1.290538161993026733e-01 -4.077450931072235107e-02 6.125444546341896057e-02 5.636152625083923340e-02 1.674244254827499390e-01 -6.754153966903686523e-02 -7.583440840244293213e-02 -1.379895508289337158e-01 7.258414477109909058e-02 -4.207027330994606018e-02 -5.027689412236213684e-02 -1.521170232445001602e-02 1.793649233877658844e-02 -1.364855021238327026e-01
-1.770635098218917847e-01 1.014873236417770386e-01 -1.506162285804748535e-01 -1.463497579097747803e-01 -8.122627437114715576e-02 -1.771078109741210938e-01 1.289115250110626221e-01 1.170037165284156799e-01 6.716492120176553726e-03 1.114454418420791626e-01 -1.311524659395217896e-01 -4.081197548657655716e-03 8.932912349700927734e-02 -1.874072700738906860e-01 -1.169854253530502319e-01 2.793828584253787994e-02 2.118397504091262817e-01 -1.042293682694435120e-01 -8.466049097478389740e-03 9.194973111152648926e-02 -1.704287379980087280e-01 1.179827675223350525e-01 -5.962185934185981750e-02 -1.304819434881210327e-02 -4.440218582749366760e-02 -3.333928436040878296e-02 8.277022838592529297e-02 -8.396551012992858887e-02 1.785238087177276611e-01 -1.582700908184051514e-01 -8.349412679672241211e-02 -8.588489145040512085e-02 8.114229142665863037e-02 8.725140988826751709e-02 5.722241103649139404e-02 -2.639567665755748749e-02 -3.096383623778820038e-02 -8.083752542734146118e-02 -4.670175537467002869e-02 1.223859190940856934e-02 1.026917323470115662e-01 5.349544063210487366e-02 1.119365021586418152e-01 3.717379644513130188e-02 6.369193643331527710e-02 -9.704303927719593048e-03 -4.073726385831832886e-02 7.733047753572463989e-02 1.653590239584445953e-02 1.916261040605604649e-03 -1.506887227296829224e-01 -1.091767176985740662e-01 -1.369936168193817139e-01 1.566841006278991699e-01 6.592623144388198853e-02 -1.266433447599411011e-01 1.000945121049880981e-01 1.387819498777389526e-01
-3.834982961416244507e-02 1.977749764919281006e-01 -6.566999852657318115e-02 -8.735144138336181641e-02 -4.664639011025428772e-02 7.555104792118072510e-02 -2.256076633930206299e-01 -8.472453802824020386e-03 1.390188932418823242e-01 7.875462621450424194e-02 7.848193496465682983e-02 -1.057282462716102600e-01 2.057179659605026245e-01 -5.224360153079032898e-02 -4.095291718840599060e-02 3.642319515347480774e-02 1.315852254629135132e-01 -1.136856004595756531e-01 -1.007227413356304169e-02 -1.110426858067512512e-01 -1.036683470010757446e-01 -1.442821137607097626e-02 1.134095191955566406e-01 -4.526608809828758240e-02 -1.403605639934539795e-01 4.272468388080596924e-03 7.391639053821563721e-02 -1.071556285023689270e-01 1.178140845149755478e-02 7.384289987385272980e-03 5.775558948516845703e-02 1.996741443872451782e-02 -1.722905486822128296e-01 1.248606815934181213e-01 1.116344034671783447e-01 3.551117703318595886e-02 -2.078817784786224365e-02 4.912242665886878967e-02 7.764139771461486816e-02 -4.440169781446456909e-02 -9.720672667026519775e-02 4.945988580584526062e-02 5.480906367301940918e-02 2.353034541010856628e-02 8.307806565426290035e-04 1.035654637962579727e-02 -1.291019618511199951e-01 -1.143200621008872986e-01 -4.038437269628047943e-03 -3.973376005887985229e-02 1.236801408231258392e-02 1.115523204207420349e-01 1.035919189453125000e-01 7.943484187126159668e-02 2.540817251428961754e-03 -2.165491692721843719e-02 7.152421027421951294e-02 2.807403542101383209e-02
9.522315859794616699e-02 4.113007802516222000e-03 3.895249590277671814e-02 1.438498646020889282e-01 2.893110550940036774e-02 1.521278023719787598e-01 -2.267893701791763306e-01 -6.963180005550384521e-02 -1.291281878948211670e-01 -7.013896852731704712e-02 6.223607435822486877e-02 -5.186275392770767212e-02 -5.664989724755287170e-02 1.542606502771377563e-01 1.540634781122207642e-01 9.579201042652130127e-02 -1.047945991158485413e-01 1.708918623626232147e-02 -1.918249428272247314e-01 -1.894434988498687744e-01 6.446478515863418579e-02 4.811701923608779907e-02 2.971862815320491791e-02 -8.048910647630691528e-02 5.492605268955230713e-02 -4.326586052775382996e-02 8.427713811397552490e-02 5.004718899726867676e-03 8.312542736530303955e-02 6.862355023622512817e-02 4.353183135390281677e-02 -1.473760008811950684e-01 1.594057381153106689e-01 -1.741641461849212646e-01 -9.365975111722946167e-02 -8.151253312826156616e-02 1.266586184501647949e-01 -1.794683188199996948e-01 1.403642445802688599e-01 8.350111544132232666e-02 1.453324556350708008e-01 -1.249314323067665100e-01 -3.558116778731346130e-02 1.401658505201339722e-01 4.548471048474311829e-02 -7.554150372743606567e-02 -1.550461202859878540e-01 -5.453894380480051041e-03 -1.089663431048393250e-02 1.287649478763341904e-02 -5.285318568348884583e-02 -9.285254776477813721e-02 1.007613241672515869e-01 -4.055880382657051086e-02 8.886338025331497192e-02 -2.316591888666152954e-02 4.226213321089744568e-02 8.237391710281372070e-02
8.610315620899200439e-02 1.213401705026626587e-01 -1.160931661725044250e-01 -1.701162755489349365e-01 2.122632041573524475e-02 -5.978934839367866516e-02 8.352321386337280273e-02 6.576989311724901199e-03 1.884426176548004150e-02 8.091661334037780762e-02 9.783673286437988281e-02 -1.199333369731903076e-01 -3.548734262585639954e-02 5.952886864542961121e-02 -1.051920372992753983e-02 7.203079015016555786e-02 -8.413887768983840942e-02 3.428034484386444092e-02 -1.714944392442703247e-01 -5.298117548227310181e-02 1.845583766698837280e-01 4.458158835768699646e-02 1.114209145307540894e-01 -2.939906902611255646e-02 2.548629343509674072e-01 1.267157122492790222e-02 3.026279434561729431e-02 3.767358511686325073e-02 -1.589142084121704102e-01 -4.995164275169372559e-02 1.095890328288078308e-01 -1.805980205535888672e-01 -7.561244815587997437e-02 4.023666679859161377e-02 -1.359970122575759888e-01 -9.607388079166412354e-02 -3.915149718523025513e-02 2.895593829452991486e-02 -1.065518483519554138e-01 3.215914964675903320e-02 -1.063287165015935898e-02 -1.155336275696754456e-01 1.063961610198020935e-01 1.888340562582015991e-01 -6.981780380010604858e-02 1.841574460268020630e-01 6.880417466163635254e-02 6.712305545806884766e-02 1.250672619789838791e-02 -7.889705151319503784e-02 1.080664843320846558e-01 -6.737455725669860840e-02 -5.546932667493820190e-02 -1.856734044849872589e-02 4.648366570472717285e-02 -1.103013008832931519e-01 -6.278003007173538208e-02 6.119707599282264709e-02
-9.675850719213485718e-02 3.232471644878387451e-02 8.500690758228302002e-02 -4.580524284392595291e-03 4.327605664730072021e-02 -7.490290794521570206e-03 7.640955597162246704e-02 -2.117086499929428101e-01 -1.337637286633253098e-02 -1.063464805483818054e-01 -3.436546400189399719e-02 5.680761858820915222e-02 1.565571129322052002e-02 -3.503840044140815735e-02 -2.803511545062065125e-02 3.445464000105857849e-02 -1.246692016720771790e-01 -9.595498442649841309e-03 -9.254613518714904785e-02 4.498539492487907410e-02 -6.524266209453344345e-03 2.494695782661437988e-01 3.655634820461273193e-02 7.447604089975357056e-02 -1.262401789426803589e-01 7.580444682389497757e-03 1.471477448940277100e-01 1.697105541825294495e-02 1.192225441336631775e-01 -1.348315924406051636e-01 -1.147919967770576477e-01 2.186336927115917206e-02 -2.874024771153926849e-02 -9.377745538949966431e-02 -7.669070363044738770e-02 1.109623722732067108e-02 -8.390958607196807861e-02 -8.805627375841140747e-02 1.615461260080337524e-01 1.573619693517684937e-01 1.302088238298892975e-02 3.642605245113372803e-02 2.289645932614803314e-02 -7.224954664707183838e-02 -3.070897981524467468e-02 -7.920262217521667480e-02 -5.609261989593505859e-02 -8.652415871620178223e-02 5.841047316789627075e-02 -1.096428707242012024e-01 1.153778731822967529e-01 2.529311478137969971e-01 -7.819531485438346863e-03 6.346769165247678757e-03 2.654252015054225922e-02 -2.076230049133300781e-01 5.273422971367835999e-02 -2.774644829332828522e-02
7.904610037803649902e-02 5.238423496484756470e-02 1.915661245584487915e-01 -1.002405770123004913e-02 7.884476333856582642e-02 3.166739270091056824e-02 1.854462772607803345e-01 4.568942636251449585e-02 1.432853285223245621e-02 3.556240350008010864e-02 1.659413278102874756e-01 -1.048468798398971558e-01 -1.360648404806852341e-02 2.531060576438903809e-01 3.206968307495117188e-02 4.960237070918083191e-02 -3.561897203326225281e-02 -4.073812440037727356e-02 -9.678811579942703247e-02 -1.854941435158252716e-02 1.522448211908340454e-01 9.773915633559226990e-03 7.172421086579561234e-03 1.867930889129638672e-01 -3.837452456355094910e-02 -6.675800681114196777e-02 -9.475065022706985474e-02 3.006952442228794098e-02 8.219659328460693359e-02 -2.032175958156585693e-01 6.081186980009078979e-02 1.227562725543975830e-01 -2.328783720731735229e-01 7.155857235193252563e-02 -1.391613632440567017e-01 3.153659775853157043e-02 -9.955726563930511475e-02 1.710220240056514740e-02 -3.638085443526506424e-03 1.598214060068130493e-01 1.246701329946517944e-01 3.826836124062538147e-02 -2.932682819664478302e-02 -1.291729658842086792e-01 7.901129126548767090e-02 -4.531751573085784912e-02 -8.062319457530975342e-02 8.954344689846038818e-02 -1.787622570991516113e-01 1.909028440713882446e-01 -1.706243157386779785e-01 6.309169344604015350e-03 1.293560415506362915e-01 -2.228450775146484375e-02 7.444934546947479248e-02 8.740259334444999695e-03 5.698533263057470322e-03 3.126387670636177063e-02
2.420679852366447449e-02 -1.995108835399150848e-02 9.252679347991943359e-02 7.948711514472961426e-02 3.745950525626540184e-03 1.792949438095092773e-01 6.440814584493637085e-02 -1.482018083333969116e-01 1.067686080932617188e-01 1.374838780611753464e-02 -1.056567672640085220e-02 -1.386815011501312256e-01 1.601970195770263672e-01 6.034929677844047546e-02 -4.362571239471435547e-02 -2.699099481105804443e-02 7.119904458522796631e-02 8.366921544075012207e-02 -1.375450193881988525e-01 9.528145194053649902e-02 5.205227993428707123e-03 -2.647952176630496979e-02 -4.277694970369338989e-02 -9.904363006353378296e-02 -2.037459760904312134e-01 7.218555361032485962e-02 3.003305010497570038e-02 3.900041431188583374e-02 1.469001621007919312e-01 9.689242392778396606e-02 1.208483278751373291e-01 -1.388603635132312775e-02 1.601724326610565186e-01 1.459343582391738892e-01 9.305010735988616943e-02 -1.372957974672317505e-02 1.865963339805603027e-01 1.110255345702171326e-01 5.357498303055763245e-02 9.490239620208740234e-02 6.024328246712684631e-02 -7.566761225461959839e-02 -4.881722107529640198e-02 1.071975752711296082e-01 4.845030978322029114e-02 -1.418605167418718338e-02 -1.218475960195064545e-02 6.979847699403762817e-02 1.214721500873565674e-01 -1.144488751888275146e-01 -3.312126547098159790e-02 -1.666728109121322632e-01 4.138535633683204651e-02 -3.170980513095855713e-02 1.919658668339252472e-02 -4.820826649665832520e-02 1.374757569283246994e-02 2.473741173744201660e-01
-6.880980730056762695e-02 -5.784854292869567871e-03 -9.641148149967193604e-02 -3.065187670290470123e-02 1.583824902772903442e-01 2.924417145550251007e-02 2.093549259006977081e-02 4.652107134461402893e-02 -2.825187332928180695e-02 1.356439292430877686e-01 1.022175699472427368e-01 3.697763383388519287e-02 -2.276130951941013336e-02 9.543505311012268066e-02 -1.456417441368103027e-01 1.193780638277530670e-02 1.056939885020256042e-01 -9.972562640905380249e-02 -2.510005235671997070e-02 1.355955153703689575e-01 1.263651400804519653e-01 -1.494887471199035645e-02 -7.582020014524459839e-02 3.191371634602546692e-02 1.174384951591491699e-01 1.239576414227485657e-01 -6.950576603412628174e-02 -6.272833049297332764e-02 7.667780667543411255e-02 -4.231965634971857071e-03 -8.033176884055137634e-03 -5.238705314695835114e-03 -1.010503396391868591e-01 -1.135726869106292725e-01 1.101789176464080811e-01 1.367376297712326050e-01 3.113607689738273621e-02 -1.118035316467285156e-01 7.386269979178905487e-03 -7.214029878377914429e-02 4.754519462585449219e-02 -2.346077561378479004e-01 1.034518256783485413e-01 2.307001501321792603e-02 -9.269500151276588440e-04 -4.956220462918281555e-02 -7.497483491897583008e-02 1.057531759142875671e-01 6.783596426248550415e-02 7.724817842245101929e-02 -1.848257705569267273e-02 -1.652988195419311523e-01 7.262317836284637451e-02 7.829631865024566650e-02 -2.555387839674949646e-02 6.015410274267196655e-02 1.444423645734786987e-01 1.801894009113311768e-01
3.594299405813217163e-02 1.086914613842964172e-01 1.052797436714172363e-01 -4.371415823698043823e-02 1.162820160388946533e-01 -9.143336117267608643e-02 -3.863121941685676575e-02 1.841426193714141846e-01 -3.237872198224067688e-02 1.032171398401260376e-01 -4.083107411861419678e-02 -2.352222055196762085e-02 -6.446775048971176147e-02 9.050140157341957092e-03 -2.042553126811981201e-01 1.225010119378566742e-02 -1.093482375144958496e-01 2.744059562683105469e-01 -1.149358525872230530e-01 -7.442069053649902344e-02 -5.118492618203163147e-02 1.136460676789283752e-01 5.596606060862541199e-02 -8.592147380113601685e-02 -4.957735165953636169e-02 9.301133453845977783e-02 -1.838171295821666718e-02 9.902776032686233521e-02 5.773337557911872864e-02 1.623416319489479065e-02 1.493429690599441528e-01 1.059345304965972900e-01 -6.615367531776428223e-02 9.113691747188568115e-02 1.765356659889221191e-01 6.644409894943237305e-02 3.510480746626853943e-02 -4.385486245155334473e-02 -7.721963338553905487e-03 -3.222098574042320251e-02 6.702996045351028442e-02 5.637620761990547180e-02 -6.690089404582977295e-02 -3.124155662953853607e-02 -1.159456968307495117e-01 -4.958308488130569458e-02 1.783380210399627686e-01 3.212697431445121765e-02 7.492712140083312988e-02 7.624056190252304077e-02 -3.546471241861581802e-03 5.834730714559555054e-02 1.735659241676330566e-01 9.123932570219039917e-02 7.907728850841522217e-02 -1.669718176126480103e-01 -2.869402058422565460e-02 -2.379199117422103882e-02
3.198578720912337303e-03 -3.853779286146163940e-03 2.696487866342067719e-02 -7.798381149768829346e-02 -1.711566448211669922e-01 -7.298275083303451538e-02 6.660001724958419800e-02 5.859860219061374664e-03 -1.784694567322731018e-02 1.643416285514831543e-02 2.351215779781341553e-01 9.146671742200851440e-02 -1.596357971429824829e-01 -8.739854674786329269e-04 -4.331422224640846252e-02 8.113001286983489990e-02 9.330443106591701508e-03 2.015350945293903351e-02 -2.449228167533874512e-01 1.499485783278942108e-02 -1.097670570015907288e-01 -1.149813458323478699e-01 8.915936201810836792e-02 9.082209318876266479e-03 5.920121073722839355e-02 1.059903949499130249e-01 1.117416694760322571e-01 1.923251710832118988e-02 -1.579728722572326660e-01 1.293333619832992554e-01 1.887810081243515015e-01 -3.706397488713264465e-02 1.585045084357261658e-02 -2.065491080284118652e-01 8.156423270702362061e-02 1.332549154758453369e-01 -2.871162444353103638e-02 5.011105164885520935e-02 2.491827309131622314e-02 -1.294631063938140869e-01 -7.157609611749649048e-02 1.606591831659898162e-04 6.880673021078109741e-02 -2.834541499614715576e-01 1.684731692075729370e-01 1.472450196743011475e-01 -7.424258440732955933e-02 1.259392797946929932e-01 -9.657204896211624146e-02 2.898998185992240906e-02 -3.675750270485877991e-02 -3.478979459032416344e-03 3.163368999958038330e-02 2.264080941677093506e-01 3.450006619095802307e-02 1.815564930438995361e-01 1.115765646100044250e-01 2.234317362308502197e-02
3.496753424406051636e-02 8.067978918552398682e-02 9.066998213529586792e-02 4.025613144040107727e-02 1.628777831792831421e-01 -7.963870465755462646e-02 6.713503599166870117e-02 8.994881063699722290e-03 1.456625312566757202e-01 -1.059124991297721863e-02 -2.326120063662528992e-02 7.796041667461395264e-03 -4.591421782970428467e-02 5.586985498666763306e-02 -3.977632895112037659e-02 7.485204190015792847e-02 -2.127466052770614624e-01 1.174424290657043457e-01 1.331751197576522827e-01 1.224427819252014160e-01 -9.066685289144515991e-02 -1.990424543619155884e-01 3.129228949546813965e-02 1.058701127767562866e-01 4.035660251975059509e-02 1.083966419100761414e-01 -9.887263178825378418e-03 -8.303532004356384277e-02 4.637188464403152466e-02 6.612463295459747314e-02 -3.869405016303062439e-02 1.588863730430603027e-01 1.643756181001663208e-01 1.213800814002752304e-02 7.086925208568572998e-02 1.720265671610832214e-02 1.821033805608749390e-01 -3.262846916913986206e-02 -7.358817756175994873e-02 -1.030075177550315857e-01 5.381051078438758850e-02 -1.534199435263872147e-02 7.676782459020614624e-02 -2.830141456797719002e-03 7.417545188218355179e-03 2.039205431938171387e-01 -1.342669129371643066e-02 -2.293116971850395203e-02 -1.338661909103393555e-01 -1.214594542980194092e-01 -1.908682286739349365e-01 1.324992030858993530e-01 1.247492954134941101e-01 1.504413485527038574e-01 5.732293799519538879e-02 1.154195889830589294e-01 -8.137401193380355835e-03 -3.893594816327095032e-02
-1.477210372686386108e-01 -8.731085807085037231e-02 -9.338288009166717529e-02 -1.538355201482772827e-01 -6.857951730489730835e-02 1.032247394323348999e-01 -8.144075423479080200e-02 4.726219549775123596e-02 2.443222552537918091e-01 -7.104930281639099121e-02 1.495238989591598511e-01 -1.020175293087959290e-01 -1.369937658309936523e-01 5.481390282511711121e-03 3.717154264450073242e-02 8.305304497480392456e-02 -8.234602212905883789e-02 8.112730085849761963e-02 -1.563735678791999817e-02 -2.582219801843166351e-02 7.182087004184722900e-02 -6.695552729070186615e-03 -1.182044073939323425e-01 5.137124657630920410e-02 9.445688128471374512e-02 1.082786321640014648e-01 -2.546784654259681702e-02 -1.450061202049255371e-01 1.105753183364868164e-01 -1.289975177496671677e-02 -1.271167099475860596e-01 5.467487871646881104e-02 -9.856712818145751953e-02 -1.276723891496658325e-01 -1.316259503364562988e-01 6.919513642787933350e-02 1.746534109115600586e-01 -5.674987286329269409e-02 -8.834875375032424927e-02 1.175705865025520325e-01 9.481946937739849091e-03 1.335439682006835938e-01 1.134011298418045044e-01 -9.287475049495697021e-02 -3.783558309078216553e-02 1.904058605432510376e-01 -2.222759090363979340e-02 -9.010564535856246948e-02 1.873821765184402466e-01 1.006817072629928589e-02 9.743581712245941162e-02 3.251885995268821716e-02 -2.304170979186892509e-03 8.006269112229347229e-03 -9.010952711105346680e-02 -5.083073303103446960e-02 -3.569557517766952515e-02 3.372641280293464661e-02
4.633455350995063782e-02 2.352421544492244720e-02 1.358954459428787231e-01 2.336058206856250763e-02 2.582434751093387604e-02 -2.571085654199123383e-02 -1.425828486680984497e-01 -5.379098653793334961e-02 8.258718997240066528e-02 -1.209028251469135284e-02 5.278317257761955261e-02 -1.801522970199584961e-01 -2.355653606355190277e-02 -2.020307183265686035e-01 1.489469558000564575e-01 -6.861549615859985352e-02 1.524014919996261597e-01 -3.029517270624637604e-02 -7.662858068943023682e-02 1.929136179387569427e-02 -2.984048426151275635e-02 6.472479552030563354e-02 -3.112342208623886108e-02 -9.062150865793228149e-02 2.206940576434135437e-02 4.915232956409454346e-02 1.807231456041336060e-02 -1.259968876838684082e-01 -1.317750066518783569e-01 6.257086992263793945e-02 -5.728817358613014221e-02 1.131166145205497742e-01 1.180934906005859375e-01 1.148613616824150085e-01 2.562905102968215942e-02 -1.371318474411964417e-02 -3.387678787112236023e-02 -9.648392908275127411e-03 -2.211085520684719086e-02 -1.253649443387985229e-01 1.572781652212142944e-01 1.186691522598266602e-01 1.628655940294265747e-01 1.750545203685760498e-01 8.099000900983810425e-02 -2.884777821600437164e-02 -3.524351119995117188e-02 -2.134948410093784332e-02 -2.782476367428898811e-03 -5.047899670898914337e-03 7.467269897460937500e-02 -4.304088279604911804e-02 -2.594800293445587158e-02 -1.410051733255386353e-01 9.377133101224899292e-03 3.992501273751258850e-02 -1.216650679707527161e-01 1.108725965023040771e-01
6.936736404895782471e-02 -1.134944111108779907e-01 -3.335265442728996277e-02 -3.477031737565994263e-02 3.744133189320564270e-02 -1.107193082571029663e-01 -1.448999941349029541e-01 7.697828859090805054e-02 -1.136656403541564941e-01 1.229907795786857605e-01 3.822326660156250000e-02 1.407547444105148315e-01 -3.230378776788711548e-02 -9.691054373979568481e-02 -2.788743004202842712e-02 -8.908727020025253296e-02 -1.016843393445014954e-01 -8.031415939331054688e-02 3.483391553163528442e-02 -1.716833412647247314e-01 7.675755023956298828e-02 6.118896231055259705e-02 6.127045303583145142e-02 2.700893767178058624e-02 1.830882877111434937e-01 -3.839845955371856689e-02 -1.093422621488571167e-01 -3.557809814810752869e-02 -1.806083917617797852e-01 2.186961285769939423e-02 -3.982547298073768616e-02 4.718079417943954468e-02 -1.525415182113647461e-01 -2.103979513049125671e-02 4.262755438685417175e-02 -6.455306708812713623e-02 1.990895019844174385e-03 7.921037822961807251e-02 -5.793980881571769714e-02 7.734052091836929321e-02 -7.098203897476196289e-02 -1.134593114256858826e-01 -6.098847091197967529e-02 3.503171727061271667e-02 -1.526809483766555786e-01 3.907190263271331787e-02 1.796509698033332825e-02 -8.026102185249328613e-02 -1.405443698167800903e-01 4.701692610979080200e-02 1.075675636529922485e-01 -4.150100797414779663e-02 -5.974797904491424561e-02 4.357874393463134766e-02 3.846146166324615479e-02 -1.099144145846366882e-01 5.297468602657318115e-02 -7.053719460964202881e-02
-7.886680215597152710e-02 2.703934311866760254e-01 -1.653744727373123169e-01 -1.547444984316825867e-02 8.495637774467468262e-02 -2.189737111330032349e-01 6.089901924133300781e-02 1.658836193382740021e-02 2.029574662446975708e-02 -1.248735748231410980e-02 -4.275269433856010437e-02 7.213005423545837402e-02 1.382034365087747574e-02 -1.284808963537216187e-01 9.867035597562789917e-02 1.180002987384796143e-01 -2.456715330481529236e-02 1.083244606852531433e-01 7.400438934564590454e-02 1.281035840511322021e-01 1.536558568477630615e-01 -8.036361634731292725e-02 7.984361797571182251e-02 -1.200439482927322388e-01 -7.081057876348495483e-02 3.076377511024475098e-02 5.892063677310943604e-02 7.686469703912734985e-02 -3.130937367677688599e-02 2.790855430066585541e-02 8.471919596195220947e-02 -1.044469252228736877e-01 -8.370224386453628540e-02 1.461836993694305420e-01 -1.571552455425262451e-01 4.185640066862106323e-02 1.519281566143035889e-01 1.811903528869152069e-02 3.465186432003974915e-02 -3.578437864780426025e-02 1.447350084781646729e-01 1.150454953312873840e-02 -6.197769939899444580e-02 -9.750171750783920288e-02 1.035423204302787781e-01 7.346697896718978882e-02 1.262992322444915771e-01 -3.590695792809128761e-03 -3.925573080778121948e-03 1.685045659542083740e-01 9.128949046134948730e-02 -2.907165884971618652e-02 1.589754410088062286e-02 -1.477364730089902878e-02 1.229898855090141296e-01 -3.695360198616981506e-02 8.695014566183090210e-02 1.273462176322937012e-01
-1.820857971906661987e-01 7.979379594326019287e-02 4.776930809020996094e-02 -5.762040242552757263e-02 6.636517494916915894e-02 9.191318601369857788e-02 6.554229557514190674e-02 9.091468900442123413e-02 -9.153648465871810913e-02 6.412030756473541260e-02 -8.835532516241073608e-02 2.842144295573234558e-02 5.418427288532257080e-02 1.220835521817207336e-01 -5.167222395539283752e-02 1.279767453670501709e-01 -1.598490588366985321e-02 1.239671334624290466e-01 1.377507150173187256e-01 -2.349538803100585938e-01 3.077076515182852745e-03 5.084454640746116638e-02 3.189067170023918152e-02 -1.904619042761623859e-03 1.477124691009521484e-01 1.279376894235610962e-01 -1.074912622570991516e-01 1.660598218441009521e-01 -1.212893873453140259e-01 -1.038821786642074585e-01 1.867670007050037384e-02 7.571126520633697510e-02 1.592487394809722900e-01 -2.108273655176162720e-02 1.153323985636234283e-02 -8.192342519760131836e-02 -7.534141093492507935e-02 9.675879846327006817e-04 -4.949425160884857178e-02 9.635838866233825684e-02 4.909110721200704575e-03 5.232296511530876160e-02 -7.962193340063095093e-02 -3.427343443036079407e-02 3.473834320902824402e-02 -6.999000906944274902e-02 -1.375823281705379486e-02 5.537968873977661133e-02 -1.817625761032104492e-01 -1.838590018451213837e-02 9.433157742023468018e-03 -8.706536144018173218e-02 1.063395217061042786e-01 7.799293845891952515e-02 3.084273077547550201e-02 -1.249939650297164917e-01 3.975166007876396179e-02 1.253460794687271118e-01
1.196779236197471619e-01 2.494135946035385132e-01 4.883633553981781006e-02 -4.080738127231597900e-02 1.121240630745887756e-01 5.808166787028312683e-02 -4.788954183459281921e-02 2.021587640047073364e-01 1.578689068555831909e-01 -1.110402196645736694e-01 -2.619000524282455444e-02 1.116491779685020447e-01 -6.806622259318828583e-03 1.906505227088928223e-02 4.662131145596504211e-02 3.457875922322273254e-02 -1.176268756389617920e-01 -1.826397031545639038e-01 8.970816433429718018e-02 7.360934466123580933e-02 -5.003499984741210938e-02 1.039334535598754883e-01 1.978098303079605103e-01 6.950661074370145798e-03 -3.020371869206428528e-02 -2.515569329261779785e-01 -4.750446230173110962e-02 2.544706128537654877e-02 -6.035894528031349182e-02 4.181334748864173889e-03 4.804113879799842834e-02 -1.777532100677490234e-01 -1.423669457435607910e-01 1.161450445652008057e-01 1.298453286290168762e-02 1.044585779309272766e-01 7.904145866632461548e-02 3.208388760685920715e-02 7.188543677330017090e-02 -2.620535530149936676e-02 -5.618377402424812317e-02 -8.179368823766708374e-02 1.404945459216833115e-02 2.820646949112415314e-02 2.133158035576343536e-02 -3.788483887910842896e-02 6.897871196269989014e-02 -1.257158219814300537e-01 -7.512953877449035645e-02 1.934647560119628906e-02 6.304574012756347656e-02 1.374258995056152344e-01 1.667490787804126740e-02 -1.546134203672409058e-01 -8.165975660085678101e-02 1.337199211120605469e-01 4.866077005863189697e-02 5.079248920083045959e-03
2.125449851155281067e-02 1.924537420272827148e-01 3.027887642383575439e-02 -4.342287313193082809e-03 7.425017654895782471e-02 1.230199411511421204e-01 -8.879444748163223267e-02 8.838704787194728851e-03 1.759981065988540649e-01 -4.436143673956394196e-03 5.000341311097145081e-02 -1.236683130264282227e-01 -1.840322017669677734e-01 5.565908923745155334e-02 1.416995972394943237e-01 4.107569158077239990e-02 -3.701184689998626709e-02 1.149747520685195923e-01 1.639167964458465576e-02 1.352164298295974731e-01 3.447974100708961487e-02 1.543231774121522903e-02 -1.331999548710882664e-03 -6.333395093679428101e-02 7.450984418392181396e-02 5.766488239169120789e-02 -2.167482301592826843e-02 9.819353930652141571e-03 -1.079018861055374146e-01 -1.452986896038055420e-01 -1.499473303556442261e-01 1.452341824769973755e-01 1.683189417235553265e-03 -6.230176985263824463e-02 -6.629493087530136108e-02 2.269837073981761932e-02 1.057104952633380890e-02 1.723206937313079834e-01 6.740393489599227905e-02 -3.334225714206695557e-02 1.176227033138275146e-01 1.009031385183334351e-01 1.191621944308280945e-01 -4.772209003567695618e-02 -5.247629061341285706e-02 -4.301491659134626389e-03 1.224890053272247314e-01 4.897240549325942993e-02 8.402398973703384399e-02 1.720075309276580811e-02 6.767734885215759277e-02 -1.402819305658340454e-01 3.204829990863800049e-02 4.843407869338989258e-02 -7.325147837400436401e-02 4.481951519846916199e-02 -2.018087655305862427e-01 -2.787664765492081642e-03
-4.647148028016090393e-02 1.831226199865341187e-01 -8.134746551513671875e-02 -3.486758843064308167e-02 -5.278222635388374329e-02 -1.354257166385650635e-01 -7.717400044202804565e-02 -1.252226978540420532e-01 -4.721634835004806519e-02 7.665487378835678101e-02 -6.097948923707008362e-02 1.431329846382141113e-01 1.219017729163169861e-01 -4.436071217060089111e-02 -1.139975190162658691e-01 1.218327283859252930e-01 -2.451968006789684296e-02 -1.592911034822463989e-01 -6.846693903207778931e-02 -3.405331447720527649e-02 1.226639095693826675e-02 -9.686054289340972900e-02 1.231429446488618851e-02 1.840648055076599121e-02 -5.314971879124641418e-02 4.826632887125015259e-02 -3.383633494377136230e-02 2.769043669104576111e-02 -1.610294170677661896e-02 -1.591135412454605103e-01 1.052806675434112549e-01 7.743322849273681641e-02 -3.137994185090065002e-02 -5.164908245205879211e-02 1.802078783512115479e-01 -1.729574799537658691e-02 5.433167889714241028e-02 -2.646365389227867126e-02 -1.799924299120903015e-02 4.467567428946495056e-03 7.605174183845520020e-02 1.102145984768867493e-01 1.183009073138237000e-01 1.799438893795013428e-01 -9.058932214975357056e-02 -4.567788168787956238e-02 -2.525967359542846680e-02 -1.312286127358675003e-02 -2.123809158802032471e-01 1.263056602329015732e-02 -1.182675957679748535e-01 5.114966630935668945e-02 1.774275749921798706e-01 -8.837130665779113770e-02 2.102711610496044159e-02 4.086019471287727356e-02 -2.553919097408652306e-03 -1.333782076835632324e-01
-4.903423413634300232e-02 -1.953969448804855347e-01 -3.720850870013237000e-02 -2.959988079965114594e-02 2.899758331477642059e-02 -5.726024135947227478e-02 8.783129602670669556e-02 1.118425950407981873e-01 -8.627826720476150513e-02 -6.851232796907424927e-02 -5.251873657107353210e-02 1.394813600927591324e-02 -7.090658694505691528e-02 1.794410683214664459e-02 3.428778797388076782e-02 -1.469287425279617310e-01 -5.537074431777000427e-02 6.622754782438278198e-02 -3.675611317157745361e-02 4.743293975479900837e-04 1.049657091498374939e-01 8.073425292968750000e-02 7.921916246414184570e-02 -9.884490817785263062e-02 -4.309963807463645935e-02 9.971748292446136475e-02 -1.568321883678436279e-01 -1.430817972868680954e-02 -7.218278944492340088e-02 4.318542033433914185e-02 2.320531941950321198e-02 1.279300004243850708e-01 4.102588072419166565e-02 1.313152350485324860e-02 -1.138702556490898132e-01 -8.338852226734161377e-02 6.827183812856674194e-02 7.325446605682373047e-02 1.048720255494117737e-01 7.257024943828582764e-02 -3.811788931488990784e-02 2.571224868297576904e-01 -8.865258656442165375e-03 9.793387353420257568e-02 -1.635341644287109375e-01 -1.097059249877929688e-01 -2.185914516448974609e-01 -8.728363364934921265e-02 -4.294497519731521606e-02 -1.793929487466812134e-01 1.205155253410339355e-01 6.753893196582794189e-02 1.842733919620513916e-01 1.043762490153312683e-01 8.103358745574951172e-02 -6.621147040277719498e-03 -8.659648150205612183e-02 1.229464188218116760e-01
5.558781698346138000e-02 -8.870501071214675903e-02 -5.292158946394920349e-02 1.621697694063186646e-01 -2.135557830333709717e-01 -9.398128837347030640e-02 1.592907607555389404e-01 -1.422226279973983765e-01 -4.280342534184455872e-02 7.069107145071029663e-02 8.433524519205093384e-02 4.550873860716819763e-02 9.026463329792022705e-02 -1.690231412649154663e-01 -2.920929156243801117e-02 -9.241427481174468994e-02 -8.481111377477645874e-02 5.503625422716140747e-02 2.062485553324222565e-02 9.364418685436248779e-02 -8.028835058212280273e-02 -1.687457561492919922e-01 -3.944150730967521667e-02 -3.888529166579246521e-02 1.061374768614768982e-01 -6.254614889621734619e-02 -4.289169982075691223e-02 -6.701692938804626465e-02 1.620215773582458496e-01 -1.029983256012201309e-02 8.482024073600769043e-03 -9.435964375734329224e-02 7.510786503553390503e-02 3.524110466241836548e-02 -4.035324975848197937e-02 -3.598134964704513550e-02 -2.094659768044948578e-02 -7.806527614593505859e-02 4.709591716527938843e-02 -3.647870570421218872e-02 6.294954568147659302e-03 1.182503104209899902e-01 1.254099309444427490e-01 8.055005967617034912e-02 -4.905403126031160355e-03 -4.918780550360679626e-02 1.500129699707031250e-01 -1.092865467071533203e-01 2.482545329257845879e-03 9.368276596069335938e-02 1.151827126741409302e-01 1.363811343908309937e-01 -4.746865306515246630e-04 2.079387605190277100e-01 -1.106506586074829102e-02 -1.153116375207901001e-01 4.302545264363288879e-02 1.116005778312683105e-01
-1.130533590912818909e-01 9.953843802213668823e-02 1.014380082488059998e-01 -1.095776930451393127e-01 1.098576635122299194e-01 -4.697400610893964767e-03 -2.075119018554687500e-01 4.426256194710731506e-02 -5.990164354443550110e-02 -1.240875124931335449e-01 -8.014032989740371704e-02 -5.967329442501068115e-02 3.436030074954032898e-02 7.489455491304397583e-02 2.705759741365909576e-02 9.399148821830749512e-02 -3.849135711789131165e-03 -8.534176647663116455e-02 -1.139905652962625027e-03 5.042022094130516052e-02 -8.630353212356567383e-02 -9.197326004505157471e-02 7.723955810070037842e-02 1.586604863405227661e-02 -2.063690312206745148e-02 2.214477863162755966e-03 -7.519860565662384033e-02 -4.478588700294494629e-02 -1.073994580656290054e-02 -1.390740722417831421e-01 1.239932253956794739e-01 1.380040645599365234e-01 -8.190546929836273193e-02 -1.361798346042633057e-01 2.440128326416015625e-01 -1.166918054223060608e-01 1.487151533365249634e-01 -2.614849805831909180e-01 -1.248481720685958862e-01 1.507857739925384521e-01 -1.544433683156967163e-01 2.270325422286987305e-01 -2.118558436632156372e-02 6.342558655887842178e-03 7.474873214960098267e-02 1.395783573389053345e-01 -8.015625178813934326e-02 -1.300444155931472778e-01 1.354363840073347092e-02 9.657157212495803833e-02 1.335675120353698730e-01 -6.496661156415939331e-02 -3.973916172981262207e-02 1.278275102376937866e-01 -8.483200520277023315e-02 2.618023939430713654e-02 -6.169246882200241089e-02 5.769817903637886047e-02
-5.265484005212783813e-02 8.067455887794494629e-02 -4.203325882554054260e-02 -9.911394864320755005e-02 -3.048039507120847702e-03 -1.563095673918724060e-02 -2.915523946285247803e-02 -4.231000691652297974e-02 5.464055016636848450e-02 3.138078376650810242e-02 -1.803243011236190796e-01 -9.684668853878974915e-03 -9.780838340520858765e-02 -2.130780965089797974e-01 1.772473603487014771e-01 1.074611674994230270e-02 7.209942489862442017e-02 1.246103271842002869e-01 -8.369524031877517700e-02 -9.054526686668395996e-02 8.758907020092010498e-02 -5.873068701475858688e-03 -4.020677879452705383e-02 8.673776686191558838e-02 1.986686736345291138e-01 -3.008236736059188843e-02 -3.581555560231208801e-02 1.011608690023422241e-01 9.229677915573120117e-02 -1.868550777435302734e-01 1.093409806489944458e-01 8.938831090927124023e-02 -3.109334222972393036e-02 -1.036065369844436646e-01 9.464552626013755798e-03 -9.309938549995422363e-02 1.910392381250858307e-02 -9.046645462512969971e-02 3.276449441909790039e-02 -1.760423034429550171e-01 4.557128995656967163e-02 -1.343754082918167114e-01 -5.897984653711318970e-02 4.320960119366645813e-02 7.277794927358627319e-02 -1.025676727294921875e-01 4.847017303109169006e-02 -8.126697689294815063e-02 1.184967607259750366e-01 4.173387959599494934e-02 -1.622700504958629608e-02 5.872089788317680359e-02 -5.315018072724342346e-02 -1.050873193889856339e-02 -7.357782125473022461e-02 -1.561120897531509399e-01 -1.559582501649856567e-01 -7.051185518503189087e-02
1.706021130084991455e-01 1.235648319125175476e-01 9.560176730155944824e-02 6.121314689517021179e-02 -4.827162623405456543e-02 -1.272213365882635117e-02 -1.021240949630737305e-01 -3.929111361503601074e-02 -1.918106898665428162e-02 -1.181691959500312805e-01 -1.018049642443656921e-01 4.528618976473808289e-02 -7.686528842896223068e-03 6.171563640236854553e-02 -9.300610981881618500e-03 -1.225407570600509644e-01 3.187667578458786011e-02 -4.151372611522674561e-02 3.738848865032196045e-02 -3.239292278885841370e-02 -1.409305036067962646e-01 7.520899921655654907e-02 -2.249168418347835541e-02 -1.117362529039382935e-01 1.089762598276138306e-01 3.600060194730758667e-02 -6.997253745794296265e-02 6.152252480387687683e-02 1.360511481761932373e-01 -1.203057616949081421e-01 6.727081537246704102e-02 3.099052608013153076e-01 1.234147995710372925e-01 5.356146022677421570e-02 -5.171298980712890625e-02 1.970226019620895386e-01 -1.566867157816886902e-02 1.101726591587066650e-01 1.407615691423416138e-01 7.869250327348709106e-02 1.364541202783584595e-01 6.699540466070175171e-02 7.067456841468811035e-02 -2.603494189679622650e-02 -9.097177535295486450e-03 1.505101472139358521e-01 -4.588352516293525696e-02 9.018938243389129639e-02 -3.260889276862144470e-02 -3.353781253099441528e-02 3.596049547195434570e-02 6.037744134664535522e-02 -4.180493205785751343e-02 2.165595442056655884e-02 -4.826515913009643555e-02 -1.011216193437576294e-01 3.799594938755035400e-02 1.184009313583374023e-01
1.553179770708084106e-01 -1.103801429271697998e-01 4.926598444581031799e-02 -7.473374903202056885e-02 5.295126140117645264e-02 5.033883452415466309e-02 -6.476920843124389648e-02 6.827034801244735718e-02 -1.232908517122268677e-01 -2.927212603390216827e-02 -4.478872567415237427e-02 -5.411043018102645874e-02 -7.347166538238525391e-02 -1.602309495210647583e-01 -2.519660815596580505e-02 2.561357989907264709e-02 1.294509917497634888e-01 8.049698546528816223e-03 3.513676673173904419e-02 6.234464794397354126e-02 1.233076304197311401e-01 -1.208208799362182617e-01 1.610339432954788208e-01 9.129873663187026978e-02 -9.086229652166366577e-02 1.287302970886230469e-01 -1.016315221786499023e-01 -4.915462341159582138e-03 -2.079175263643264771e-01 -2.005263417959213257e-01 5.262502655386924744e-02 1.337552219629287720e-01 -1.610123962163925171e-01 -3.422081843018531799e-02 7.737986743450164795e-02 6.523107737302780151e-02 1.286218687891960144e-02 7.128825038671493530e-02 1.193141285330057144e-02 -2.253580242395401001e-01 3.884914144873619080e-02 3.288744017481803894e-02 -1.752949506044387817e-01 2.032339200377464294e-02 1.342313140630722046e-01 3.497115522623062134e-02 -3.957353159785270691e-02 -6.453054398298263550e-02 -2.869269065558910370e-02 -6.973841041326522827e-02 3.452818840742111206e-02 1.737496349960565567e-03 5.291954427957534790e-02 1.381829977035522461e-01 -4.920569807291030884e-02 1.518922392278909683e-02 -1.429364923387765884e-02 -6.237549334764480591e-02
1.067711561918258667e-01 1.484182029962539673e-01 4.556073993444442749e-02 2.243493348360061646e-01 1.253570318222045898e-01 9.875434637069702148e-02 4.846239928156137466e-03 9.219437092542648315e-02 -2.000392079353332520e-01 3.231651708483695984e-02 -5.378498136997222900e-02 -1.110774725675582886e-01 1.620129346847534180e-01 6.806735880672931671e-03 -1.325712502002716064e-01 -3.357749059796333313e-02 1.639931462705135345e-02 -6.440006941556930542e-02 -1.762799918651580811e-02 1.204103156924247742e-01 1.346792280673980713e-01 -2.408767864108085632e-02 -2.430357597768306732e-02 1.892704665660858154e-01 -1.628026599064469337e-03 1.078900024294853210e-01 -6.608056277036666870e-02 -3.167511522769927979e-02 1.879394240677356720e-02 5.480459704995155334e-02 8.418209105730056763e-02 8.208322525024414062e-02 -4.975235089659690857e-02 -2.858295047190040350e-04 7.093114405870437622e-02 4.645600169897079468e-02 9.068315476179122925e-02 5.697108432650566101e-02 7.106541842222213745e-02 -7.673995941877365112e-02 1.978032439947128296e-01 9.356962144374847412e-02 -2.381910197436809540e-02 7.017552107572555542e-02 -1.926054432988166809e-02 -9.723100066184997559e-02 -1.194488704204559326e-01 -1.538899689912796021e-01 3.844349458813667297e-02 5.980803072452545166e-02 3.780202195048332214e-02 -4.361537471413612366e-02 -7.099138200283050537e-02 3.120919689536094666e-02 -1.418887972831726074e-01 -5.924572050571441650e-02 1.048619151115417480e-01 8.453844487667083740e-02
-5.054646730422973633e-02 4.967174306511878967e-02 1.386481970548629761e-01 1.813396811485290527e-02 7.127934694290161133e-02 -2.239181995391845703e-01 -1.387367025017738342e-02 -8.596041798591613770e-02 2.118066698312759399e-01 -2.755565941333770752e-02 6.673596799373626709e-03 -5.358263850212097168e-02 6.367629021406173706e-02 -1.878036186099052429e-02 -7.642707228660583496e-02 -9.664367884397506714e-02 -1.431584060192108154e-01 5.879265721887350082e-03 6.674601882696151733e-02 5.429718270897865295e-02 -5.790518224239349365e-02 9.481061995029449463e-02 -8.654452860355377197e-02 1.009097136557102203e-02 -1.668490096926689148e-02 -1.060503646731376648e-01 -8.019707351922988892e-02 1.234471425414085388e-01 -1.124682873487472534e-01 6.237138062715530396e-03 -3.842081502079963684e-02 -5.225893855094909668e-02 -9.051082283258438110e-02 -1.910611987113952637e-01 -7.774012535810470581e-02 1.465538740158081055e-01 8.981726318597793579e-02 9.605722874402999878e-02 -5.219826474785804749e-02 -4.630206525325775146e-02 -8.230870217084884644e-02 -4.905375652015209198e-03 2.382633741945028305e-03 7.652034610509872437e-02 -4.578096419572830200e-02 -1.610724069178104401e-02 1.197672560811042786e-01 -1.145388931035995483e-02 -1.747665405273437500e-01 5.284854024648666382e-02 -1.640865355730056763e-01 8.902474492788314819e-02 -4.506834223866462708e-02 6.929834932088851929e-02 4.386140033602714539e-02 -4.437103122472763062e-02 -2.162396907806396484e-02 1.415687203407287598e-01
9.380355477333068848e-03 1.829695105552673340e-01 7.995563000440597534e-02 -9.092244319617748260e-03 2.524577081203460693e-02 -4.787193983793258667e-02 3.281407058238983154e-02 -1.690489053726196289e-01 6.178752332925796509e-02 -1.981112509965896606e-01 -6.646400690078735352e-02 -1.383569464087486267e-02 3.309524059295654297e-02 3.836139291524887085e-02 9.931952506303787231e-02 7.077325135469436646e-02 -1.357126384973526001e-01 -6.583032757043838501e-02 -2.088844776153564453e-02 -1.170856878161430359e-01 1.453308165073394775e-01 -1.220179274678230286e-01 -2.141098231077194214e-01 -6.293378770351409912e-02 1.720114648342132568e-01 1.179079860448837280e-01 3.000634722411632538e-02 7.360011339187622070e-02 4.670686647295951843e-02 -1.749509945511817932e-02 1.214958503842353821e-01 1.375384479761123657e-01 -5.415524169802665710e-02 4.558530822396278381e-02 -3.091439418494701385e-02 -8.655410259962081909e-02 5.584797635674476624e-02 -1.479529440402984619e-01 -3.021651133894920349e-02 4.948695749044418335e-02 -1.165934205055236816e-01 -2.779469452798366547e-02 -9.222502261400222778e-02 -5.501466616988182068e-02 -9.003797546029090881e-03 -1.376689821481704712e-01 6.712326407432556152e-02 -9.644502773880958557e-03 -2.260518819093704224e-01 -9.937098249793052673e-03 9.499429166316986084e-02 7.291369140148162842e-02 2.234636433422565460e-02 4.513249173760414124e-02 -1.592510193586349487e-02 1.132171601057052612e-01 2.877289243042469025e-02 4.960044100880622864e-02
3.617231547832489014e-02 -1.683487929403781891e-02 1.516203135251998901e-01 -8.274643868207931519e-02 -1.832426898181438446e-02 -7.960545271635055542e-02 3.558038920164108276e-02 -1.583095043897628784e-01 -3.642496652901172638e-03 1.097220554947853088e-02 -4.752006009221076965e-02 -1.603100448846817017e-01 -5.553802102804183960e-02 9.375859051942825317e-02 -1.805220544338226318e-02 -4.300516098737716675e-02 -1.223480328917503357e-02 -3.158368542790412903e-02 1.752046793699264526e-01 -1.998437382280826569e-02 3.375662118196487427e-02 -3.083494491875171661e-02 1.000385805964469910e-01 8.138368278741836548e-02 -4.041387513279914856e-02 -1.607374101877212524e-02 8.642317354679107666e-02 -3.227553516626358032e-02 -6.944157928228378296e-02 6.769922375679016113e-02 8.071826770901679993e-03 6.703067570924758911e-02 -3.295216336846351624e-02 1.098118908703327179e-02 -4.911774769425392151e-02 -7.878109067678451538e-02 9.614307433366775513e-02 7.470699399709701538e-02 -4.990603402256965637e-02 1.187358517199754715e-02 -4.047346860170364380e-02 -2.044669687747955322e-01 7.918397895991802216e-03 4.267836734652519226e-02 -8.897656202316284180e-02 5.310094356536865234e-02 -3.503885120153427124e-02 1.245311349630355835e-01 -8.299603313207626343e-02 -1.777237504720687866e-01 -6.309856195002794266e-03 4.053253680467605591e-02 -1.007046699523925781e-01 6.891224533319473267e-02 -6.345053762197494507e-02 9.138273447751998901e-02 4.688937589526176453e-02 -2.860647253692150116e-02
5.484666675329208374e-02 3.580810874700546265e-02 1.778731495141983032e-01 -7.002780586481094360e-02 -1.625317633152008057e-01 1.415944546461105347e-01 1.632302999496459961e-01 -6.837470829486846924e-02 -1.053164228796958923e-01 5.529886111617088318e-02 -2.766389846801757812e-01 -5.639507621526718140e-02 -1.415241807699203491e-01 -2.722185254096984863e-01 6.153939291834831238e-02 -3.377535194158554077e-02 -1.683876514434814453e-01 -1.150881722569465637e-01 1.359483897686004639e-01 -7.671025395393371582e-02 -7.141739130020141602e-02 1.925520412623882294e-02 -1.412778645753860474e-01 3.787707164883613586e-02 1.333703100681304932e-01 1.219257935881614685e-01 -3.790812566876411438e-02 6.782900542020797729e-03 -1.870332509279251099e-01 -6.603039801120758057e-02 -1.594740599393844604e-01 6.785176694393157959e-02 -3.549271821975708008e-02 -1.203149482607841492e-01 -5.531221628189086914e-02 7.963084429502487183e-02 3.926351666450500488e-02 -1.796198263764381409e-02 -7.604254875332117081e-03 -2.175038680434226990e-02 2.603946486487984657e-03 -5.641775205731391907e-02 -1.926406472921371460e-01 9.916108101606369019e-02 4.078086093068122864e-02 -8.060165680944919586e-03 9.713713079690933228e-03 1.128667443990707397e-01 -6.490975618362426758e-02 1.584442704916000366e-01 3.758101537823677063e-02 -1.221496909856796265e-01 8.152098208665847778e-02 9.872408956289291382e-02 7.597201503813266754e-03 4.509943723678588867e-02 1.919393055140972137e-02 -4.573174566030502319e-02
5.870233103632926941e-02 -2.115373462438583374e-01 1.481578797101974487e-01 -1.172900199890136719e-01 -1.628973484039306641e-01 -1.432513166218996048e-02 -7.813054323196411133e-02 9.541165083646774292e-02 1.103342548012733459e-01 -1.386574506759643555e-01 -5.441930145025253296e-02 4.425782337784767151e-02 -9.679445996880531311e-03 6.474086642265319824e-02 -1.046133637428283691e-01 1.222124136984348297e-02 -8.473141491413116455e-02 -1.624024659395217896e-02 9.720531851053237915e-02 2.255191467702388763e-02 7.564884144812822342e-03 2.195321209728717804e-02 1.008497029542922974e-01 -7.170879840850830078e-02 -4.944982752203941345e-02 3.193650767207145691e-02 8.760972879827022552e-03 2.053005546331405640e-01 1.496079843491315842e-02 -1.665906608104705811e-02 3.132149204611778259e-02 -5.064671486616134644e-02 9.966214187443256378e-03 -1.548892352730035782e-02 -1.972790062427520752e-01 -1.067411676049232483e-01 -2.044490128755569458e-01 3.754822537302970886e-02 8.527906239032745361e-02 -1.002870574593544006e-01 1.483723241835832596e-02 1.642693765461444855e-02 -1.187196299433708191e-01 -6.676679849624633789e-02 6.227164342999458313e-02 6.181096658110618591e-03 -4.171002074144780636e-04 1.022237464785575867e-01 -8.425685763359069824e-02 4.342506825923919678e-02 -3.615061938762664795e-02 9.776265174150466919e-02 -5.912537500262260437e-02 2.168400958180427551e-02 -1.929001510143280029e-02 -8.073776960372924805e-02 7.178304716944694519e-03 -5.986286699771881104e-02
1.963862031698226929e-02 -2.086018621921539307e-01 -1.550906430929899216e-02 1.173704024404287338e-02 2.369916439056396484e-01 -4.813376814126968384e-02 -7.181714288890361786e-03 -4.690018668770790100e-02 -1.441998779773712158e-01 -7.656180299818515778e-03 2.320756018161773682e-02 2.932192198932170868e-02 7.777751982212066650e-02 1.896580904722213745e-01 1.071280241012573242e-01 -4.492161050438880920e-02 -2.312480658292770386e-02 -1.346948649734258652e-02 -1.167750880122184753e-01 -1.931910514831542969e-01 -1.504592448472976685e-01 9.326902776956558228e-02 6.722436100244522095e-02 5.328601226210594177e-03 1.803905367851257324e-01 1.269690394401550293e-01 -4.907590523362159729e-02 -1.064262688159942627e-01 -4.633801057934761047e-02 5.499992147088050842e-02 5.797200649976730347e-02 -6.391634792089462280e-02 8.001637458801269531e-02 5.577242001891136169e-03 -2.324865013360977173e-01 -1.272262781858444214e-01 1.248467639088630676e-01 -4.422615095973014832e-02 -5.602554604411125183e-02 -8.778993040323257446e-02 3.243397176265716553e-02 1.503824535757303238e-02 -7.802256941795349121e-02 -6.312124431133270264e-02 6.813336163759231567e-02 1.345594786107540131e-02 1.077807173132896423e-01 2.095412015914916992e-01 -1.908778771758079529e-02 -2.761190570890903473e-02 2.429610863327980042e-02 -7.865734398365020752e-02 -1.896280236542224884e-02 -7.678011059761047363e-02 -5.225930735468864441e-02 1.787084899842739105e-02 4.637689515948295593e-02 2.323293685913085938e-02
1.399317290633916855e-02 -8.102254569530487061e-02 2.578971087932586670e-01 -2.788718789815902710e-02 -7.232314441353082657e-03 -6.753040850162506104e-02 -7.086423225700855255e-03 -1.288518607616424561e-01 1.366821955889463425e-02 -1.279521584510803223e-01 -8.688801527023315430e-02 -1.578518599271774292e-01 -4.578899592161178589e-02 1.522395573556423187e-02 -1.755443364381790161e-01 1.254068315029144287e-01 -1.139901801943778992e-01 1.261696666479110718e-01 1.626314967870712280e-01 4.065987840294837952e-02 3.401858732104301453e-02 -3.401828929781913757e-02 7.722710818052291870e-02 -1.045139506459236145e-02 -7.421650737524032593e-02 -2.846734225749969482e-02 5.690358206629753113e-02 -1.533344089984893799e-01 2.509264647960662842e-01 1.624158583581447601e-02 1.409493535757064819e-01 6.661913543939590454e-02 -9.847050532698631287e-03 -8.390422910451889038e-03 5.502204596996307373e-02 7.405868265777826309e-03 9.372042864561080933e-02 1.335758119821548462e-01 -4.795124009251594543e-02 6.366710294969379902e-04 -1.585548557341098785e-02 9.829508140683174133e-03 1.474523078650236130e-02 -2.527909912168979645e-02 -1.470663249492645264e-01 5.194780230522155762e-02 -4.858150333166122437e-02 -1.052655279636383057e-01 2.461099438369274139e-02 -1.325793117284774780e-01 8.858701586723327637e-02 -2.321917191147804260e-02 -6.300208158791065216e-03 4.662687703967094421e-02 7.590909302234649658e-02 -4.906654357910156250e-02 1.777723133563995361e-01 6.794137414544820786e-03
3.412702307105064392e-02 -9.189271926879882812e-02 -1.994414627552032471e-02 -4.206261783838272095e-02 1.622080104425549507e-03 4.670883715152740479e-02 -4.773261770606040955e-02 -4.319429770112037659e-02 4.939440637826919556e-02 6.057312339544296265e-02 3.240450285375118256e-03 -4.069925099611282349e-02 1.527170687913894653e-01 -1.460018903017044067e-01 1.009979546070098877e-01 -1.456914003938436508e-02 9.536691755056381226e-02 -1.219631358981132507e-02 6.173354759812355042e-02 -1.538572311401367188e-01 6.630371510982513428e-02 -1.298577524721622467e-02 -3.285785391926765442e-02 1.092354953289031982e-01 -2.169552259147167206e-02 -3.278907760977745056e-02 -1.680889427661895752e-01 -4.994082823395729065e-02 3.011764958500862122e-02 -9.153870493173599243e-02 -4.764446616172790527e-02 7.422147691249847412e-02 -1.650660336017608643e-01 -2.213653475046157837e-01 1.204401850700378418e-01 -7.209387421607971191e-02 -1.316182762384414673e-01 -2.083373814821243286e-02 -5.188643001019954681e-03 5.844967067241668701e-02 1.332524418830871582e-01 1.090681925415992737e-01 1.119200512766838074e-02 -9.261332452297210693e-02 1.526715010404586792e-01 5.025669559836387634e-02 -6.043506413698196411e-02 -3.435231745243072510e-03 -1.177937313914299011e-01 -6.418374925851821899e-02 1.439232006669044495e-02 9.201493859291076660e-02 1.256782859563827515e-01 -7.725302129983901978e-02 -3.387564048171043396e-02 -8.647498488426208496e-02 1.538315229117870331e-02 8.291449397802352905e-02
1.325505524873733521e-01 4.612241312861442566e-02 -3.691848814487457275e-01 3.378424327820539474e-03 -2.113884128630161285e-02 -1.367274112999439240e-02 2.011241465806961060e-01 5.282679945230484009e-02 -1.032803803682327271e-01 -2.436379529535770416e-02 9.947080165147781372e-03 -1.050477772951126099e-01 -8.037953823804855347e-02 1.126650497317314148e-01 9.033318608999252319e-02 6.439687311649322510e-02 2.767708897590637207e-02 1.147371344268321991e-02 1.194667890667915344e-01 -3.337766230106353760e-02 6.844431161880493164e-02 -1.103282645344734192e-01 -3.750867396593093872e-02 8.164960145950317383e-02 4.834545776247978210e-02 5.842318758368492126e-02 6.005980074405670166e-02 -1.763119548559188843e-01 2.338723242282867432e-01 1.557466834783554077e-01 7.062067836523056030e-02 -2.215265333652496338e-01 7.028042525053024292e-02 1.554938554763793945e-01 -5.240398645401000977e-02 4.297532141208648682e-02 -1.637046784162521362e-01 -6.729722768068313599e-02 -4.519134759902954102e-02 1.786266081035137177e-02 1.131288111209869385e-01 8.896769583225250244e-02 4.748599138110876083e-03 7.848065346479415894e-03 -1.377635169774293900e-02 -1.339950319379568100e-02 9.165765345096588135e-02 6.089075654745101929e-02 -8.900788426399230957e-02 3.893180564045906067e-02 1.501144766807556152e-01 -5.850366875529289246e-02 -4.228508099913597107e-02 -4.161976277828216553e-02 -3.055519610643386841e-02 -1.378385871648788452e-01 -5.275177583098411560e-02 1.000572592020034790e-01
-6.950741261243820190e-02 -4.855685308575630188e-02 -1.357586085796356201e-01 -3.544392809271812439e-02 -1.398006975650787354e-01 7.479418814182281494e-02 7.768753170967102051e-02 1.210668683052062988e-02 -4.542936757206916809e-02 -1.717776618897914886e-02 -2.005069516599178314e-02 4.214805737137794495e-02 1.918888837099075317e-02 -6.050085183233022690e-03 9.379521757364273071e-02 -1.947399787604808807e-02 -1.044599190354347229e-01 1.348774041980504990e-02 7.858532667160034180e-02 -1.353025734424591064e-01 6.611568480730056763e-02 -1.875086128711700439e-02 -1.546546537429094315e-02 -1.509291771799325943e-02 1.244827657938003540e-01 -6.105351820588111877e-02 -6.229037791490554810e-02 6.220839545130729675e-02 -4.216230660676956177e-02 -6.348009221255779266e-03 -9.069777280092239380e-02 1.612952351570129395e-01 1.925949938595294952e-02 1.014908850193023682e-01 -1.020216867327690125e-01 1.338974982500076294e-01 -5.038125067949295044e-02 -1.548090130090713501e-01 7.348377257585525513e-02 -6.855124235153198242e-02 -5.477663502097129822e-02 -5.507051944732666016e-02 -5.988790839910507202e-02 1.532832682132720947e-01 7.732360064983367920e-02 -1.183882206678390503e-01 8.820301853120326996e-03 -1.828569620847702026e-01 -4.786542430520057678e-02 1.727215051651000977e-01 -7.511322200298309326e-02 1.380473822355270386e-01 -1.292419433593750000e-02 -5.023959279060363770e-02 -1.799356490373611450e-01 -5.843086168169975281e-02 1.328803412616252899e-02 4.208671674132347107e-02
1.614976525306701660e-01 8.040121942758560181e-02 1.943995803594589233e-01 -1.516512930393218994e-01 1.956556290388107300e-01 1.401939243078231812e-01 1.752055436372756958e-01 1.279533747583627701e-02 -8.627732167951762676e-04 -3.792821243405342102e-02 1.767572015523910522e-01 4.972299933433532715e-02 -1.256809681653976440e-01 -7.406640052795410156e-02 4.325486719608306885e-03 8.534670621156692505e-02 -3.235340863466262817e-02 -8.234211802482604980e-02 1.845926605165004730e-02 9.741385281085968018e-02 -5.047245696187019348e-02 1.105071306228637695e-01 -1.378578245639801025e-01 9.446166222915053368e-04 1.262894831597805023e-02 5.315045639872550964e-02 1.406053006649017334e-01 -1.660932749509811401e-01 1.378409713506698608e-01 7.605058699846267700e-02 -5.687646195292472839e-02 4.709634184837341309e-02 -4.576852172613143921e-02 -1.569394916296005249e-01 5.734850838780403137e-02 -5.847387760877609253e-02 6.033407151699066162e-02 -7.914261519908905029e-02 6.184185296297073364e-02 1.092389598488807678e-01 1.431388501077890396e-02 -5.371096357703208923e-02 1.419142931699752808e-01 -4.463359713554382324e-02 -8.193551003932952881e-02 -8.742710202932357788e-02 9.946660697460174561e-02 -1.115440502762794495e-01 -3.389992564916610718e-02 3.706784918904304504e-02 -1.537693738937377930e-01 1.248523071408271790e-01 8.289065212011337280e-02 7.510435581207275391e-02 -1.878174543380737305e-01 -4.491942375898361206e-02 -4.128849133849143982e-02 1.483509875833988190e-02
-1.333954632282257080e-01 -2.177196741104125977e-02 -9.031068533658981323e-02 8.991657942533493042e-02 -1.675364077091217041e-01 1.898098364472389221e-02 -6.415485590696334839e-02 -1.353099644184112549e-01 2.200293168425559998e-02 -1.807335466146469116e-01 1.725056469440460205e-01 -5.003009736537933350e-02 -1.043028682470321655e-01 1.746573001146316528e-01 5.457615107297897339e-02 -1.177162975072860718e-01 -2.782838605344295502e-02 -6.105964258313179016e-02 2.265281789004802704e-02 -3.944157809019088745e-02 1.230516955256462097e-01 -8.616734296083450317e-02 1.888616681098937988e-01 -1.287967562675476074e-01 -4.362576827406883240e-02 -3.450762107968330383e-02 -1.416528876870870590e-02 -7.638566941022872925e-02 2.207749634981155396e-01 -9.233506023883819580e-02 -4.196905996650457382e-03 -1.745789200067520142e-01 -1.161842793226242065e-01 -6.189332343637943268e-03 7.116317003965377808e-02 2.052492275834083557e-02 -9.938092529773712158e-02 3.968792781233787537e-02 4.232636094093322754e-02 8.709629037184640765e-05 1.155634410679340363e-02 1.585358381271362305e-02 -7.956577092409133911e-02 -1.242334172129631042e-01 6.347849220037460327e-02 -3.260064497590065002e-02 3.891791030764579773e-02 2.400652915239334106e-01 3.527416661381721497e-02 7.595954835414886475e-02 -1.890372112393379211e-02 -8.028680831193923950e-02 -3.706098347902297974e-02 1.950327605009078979e-01 -8.765186369419097900e-02 -4.853408783674240112e-02 -1.528110802173614502e-01 1.588591486215591431e-01
1.458632946014404297e-01 -2.775822393596172333e-02 -6.588699296116828918e-03 1.641973704099655151e-01 -1.072904616594314575e-01 -5.641672760248184204e-02 -3.391949087381362915e-02 2.765482058748602867e-03 1.447876095771789551e-01 -1.095532849431037903e-01 1.046035513281822205e-01 4.541563615202903748e-02 4.088555648922920227e-02 1.290800422430038452e-01 -1.083613708615303040e-01 3.585874661803245544e-02 -8.380740135908126831e-02 -1.888627745211124420e-02 2.220547795295715332e-01 -7.702812552452087402e-02 -1.258305907249450684e-01 1.049784272909164429e-01 -6.055898591876029968e-02 -1.386696845293045044e-01 1.313999481499195099e-02 9.848244488239288330e-02 -6.667766720056533813e-02 -1.274641137570142746e-02 -5.264958366751670837e-02 -1.850929409265518188e-01 5.332847125828266144e-03 -6.855682283639907837e-02 1.058017686009407043e-01 -1.338507607579231262e-02 3.648373484611511230e-02 5.660992488265037537e-02 1.290590614080429077e-01 -1.200861576944589615e-02 -1.580808758735656738e-01 2.372841723263263702e-02 5.780051276087760925e-02 -7.704780995845794678e-02 -8.015684038400650024e-02 2.418037354946136475e-01 5.143837537616491318e-03 -6.917835026979446411e-02 -1.624967008829116821e-01 -1.161053553223609924e-01 1.363554736599326134e-03 -6.749394349753856659e-03 5.415188893675804138e-02 -3.810337185859680176e-02 -1.082869842648506165e-01 5.583266541361808777e-02 -4.151484742760658264e-02 4.796839505434036255e-02 6.585025787353515625e-02 -1.512099355459213257e-01
2.003997750580310822e-02 -8.029779046773910522e-02 -2.878625132143497467e-02 1.653376966714859009e-01 2.158903479576110840e-01 -3.825982287526130676e-02 7.387343049049377441e-02 -1.860811747610569000e-02 9.227509796619415283e-02 -1.662294119596481323e-01 -8.282256871461868286e-02 7.972241146489977837e-04 -1.691762916743755341e-02 -1.096377298235893250e-01 -1.145646050572395325e-01 -1.612702757120132446e-01 -7.397316396236419678e-02 9.077362716197967529e-03 -1.698334217071533203e-01 -1.698177456855773926e-01 -5.147893354296684265e-02 1.315159350633621216e-01 -9.250149130821228027e-02 1.255011558532714844e-01 -4.360009729862213135e-02 7.741488516330718994e-02 2.683285810053348541e-02 -1.478526145219802856e-01 1.707938164472579956e-01 -1.258390396833419800e-01 -8.066096156835556030e-02 2.075272202491760254e-01 7.869724929332733154e-02 1.821479015052318573e-02 -7.523115724325180054e-02 1.111255139112472534e-01 2.361671999096870422e-02 2.188599109649658203e-02 3.029902279376983643e-02 1.668910086154937744e-01 7.681488990783691406e-02 -1.244133934378623962e-01 1.623943820595741272e-02 -5.310507025569677353e-03 1.494596451520919800e-01 1.580931395292282104e-01 1.245336011052131653e-01 -7.570534199476242065e-02 -8.355604112148284912e-02 -1.333653330802917480e-01 9.390100091695785522e-02 5.790036171674728394e-02 1.744691282510757446e-01 7.058118283748626709e-02 -1.819041557610034943e-02 1.227463856339454651e-01 3.598713781684637070e-03 -3.129734471440315247e-02
-1.914756447076797485e-01 -4.866768792271614075e-02 -2.454442530870437622e-02 2.546443045139312744e-02 -8.434744179248809814e-02 -1.302134543657302856e-01 9.239545464515686035e-02 4.896194487810134888e-02 1.073969006538391113e-01 6.375968921929597855e-03 -1.233767420053482056e-01 1.193325445055961609e-01 -5.686355754733085632e-02 2.335228174924850464e-01 6.023154407739639282e-02 -5.689315497875213623e-02 -4.003746062517166138e-02 4.874974116683006287e-02 7.230647653341293335e-02 -1.379605084657669067e-01 -5.637550726532936096e-02 -3.389053791761398315e-02 -2.417525649070739746e-02 2.034200131893157959e-01 -4.654731974005699158e-02 2.298051025718450546e-03 -6.533318012952804565e-02 9.881788492202758789e-02 1.092280969023704529e-01 -3.185212239623069763e-02 -3.036954440176486969e-02 1.396248769015073776e-02 2.592295110225677490e-01 -6.543834507465362549e-02 1.906189322471618652e-02 -5.964438989758491516e-02 1.082351878285408020e-01 5.261566117405891418e-02 1.133948564529418945e-01 -7.711506448686122894e-03 1.173164546489715576e-01 1.761386543512344360e-02 4.116259515285491943e-01 -5.202398821711540222e-02 -1.936646848917007446e-01 2.557057514786720276e-02 -4.316326975822448730e-02 4.779477603733539581e-03 -1.269961893558502197e-01 -5.704358220100402832e-02 -6.461209803819656372e-02 -1.204961687326431274e-01 -1.829393440857529640e-03 1.514799706637859344e-02 7.786183059215545654e-02 1.646945998072624207e-02 -5.248552188277244568e-02 8.683098107576370239e-02
